,phi_0,phi_1,phi_2,phi_3,phi_4,phi_5,phi_6,phi_7,phi_8,phi_9,phi_10,phi_11,phi_12,phi_13,phi_14,phi_15,phi_16,phi_17,phi_18,phi_19,phi_20,phi_21,phi_22,phi_23,phi_24,phi_25,phi_26,phi_27,phi_28,phi_29,phi_30,phi_31,phi_32,phi_33,phi_34,phi_35,phi_36,phi_37,phi_38,phi_39,phi_40,phi_41,phi_42,phi_43,phi_44,phi_45,phi_46,phi_47,phi_48,phi_49,phi_50,phi_51,phi_52,phi_53,phi_54,phi_55,phi_56,phi_57,phi_58,phi_59,phi_60,phi_61,phi_62,phi_63,phi_64,phi_65,phi_66,phi_67,phi_68,phi_69,phi_70,phi_71,phi_72,phi_73,phi_74,phi_75,phi_76,phi_77,phi_78,phi_79,phi_80,phi_81,phi_82,phi_83,phi_84,phi_85,phi_86,phi_87,phi_88,phi_89,phi_90,phi_91,phi_92,phi_93,phi_94,phi_95,phi_96,phi_97,phi_98,phi_99,phi_100,phi_101,phi_102,phi_103,phi_104,phi_105,phi_106,phi_107,phi_108,phi_109,phi_110,phi_111,phi_112,phi_113,phi_114,phi_115,phi_116,phi_117,phi_118,phi_119,phi_120,phi_121,phi_122,phi_123,phi_124,phi_125,phi_126,phi_127,phi_128,phi_129,phi_130,phi_131,phi_132,phi_133,phi_134,phi_135
ABCA1,-0.0013629056,0.0011163709,-0.0031954253,-0.0011444815,-0.00026326263,-0.0006877772,-0.003633003,-0.00088861893,-0.0024841132,0.0020089757,0.00019353288,-0.00066929555,-0.00044615535,-0.00062205247,0.001622462,-0.0007500549,-0.0022387346,-0.0009165117,0.00061475247,0.0016558641,0.0010445748,0.002999157,0.0002134636,-0.0016286944,-0.0043911613,-0.0026986345,-0.0007014887,-0.005991403,-0.00073123386,0.00031763568,0.0007019498,0.012968703,0.0020235025,-0.001319578,-0.00028018976,0.0014862749,0.0028030833,0.0005586599,0.0011813306,0.0019823124,0.0020081082,0.002952458,0.0031787758,-0.0023462712,-0.00043604898,-0.004008262,0.00037376242,-0.006532412,0.00016726651,-0.0033592193,-4.337906e-05,-0.0018354058,-0.0009158817,0.000119134114,-0.0027045289,-0.0010517364,0.00012911769,0.0016718189,-0.003188536,0.0017870661,0.005468001,0.0028232809,0.0005200058,-0.0064983233,-0.0009904593,1.3993466e-05,0.0010245678,-0.0043827863,0.0011192356,0.0030912405,-0.0017744205,-0.00022878082,-0.0021011273,-0.0011660742,0.0023506389,-0.00064664136,0.0019297976,-0.00022140957,0.000808219,-0.000205177,-0.0007871051,-0.004562667,-0.0018532905,-0.0020365706,0.0034968895,-0.0027297563,0.0007104592,0.001194361,-0.00088412623,0.00045927952,0.002492878,-0.0036464746,0.005316581,0.0027007703,-0.0006766028,-0.0030216228,-0.004014945,0.0025327003,-0.000542322,-0.0044947905,0.00016189573,0.007192276,-0.0034296704,-0.005193893,-0.00074652483,0.004042747,0.00063088414,-0.003391437,-0.0083000865,0.000977208,0.002712346,-0.001807059,-0.0023071684,-0.0013915976,0.0005948551,-0.0021102391,-0.0029934796,0.005334271,0.0003038748,-0.0015314058,0.0036722363,-0.005910356,0.00044115336,-0.0009095509,-0.001971268,0.00027863937,-0.003815628,0.002660714,0.0015907376,0.00055930024,-0.0020631892,0.0026869148,-0.0029351774,-0.0030083435,-0.004063291,-0.00356628
ABCB11,0.00023810226,-0.00157064,-0.0023894361,-0.0004112962,-0.0003793527,-0.00035411853,-0.0009754202,0.00017552292,-0.0013374232,0.00015799716,-0.00019486478,-0.0007382771,-0.0008053843,-0.001459428,0.0006604235,0.00058829435,0.0021791738,0.0010197869,0.0030980096,-0.00077335816,0.0001583466,-0.00332459,0.0013610681,0.0008012253,0.0035578194,0.000111998736,0.0003606178,0.0008569024,0.00302115,0.0042624245,-1.9273608e-05,0.00043538248,0.00057772774,0.0005302199,0.00018938485,-0.0008919457,-0.00096156535,0.0014807275,-0.0019628908,-0.0008626681,0.003699692,0.0007000106,0.0015494911,-0.0016253896,0.0019613318,0.0011663211,0.0024086384,-0.0015101328,0.00020536662,-0.0012274532,0.0006533775,-0.0007362988,-0.0028765807,0.00053224264,0.0009961353,0.001342563,0.00078174216,0.0007452187,-0.0023913032,-0.00055690494,0.000467864,-0.0007739103,-0.0014789012,0.0013626505,0.0006395566,0.0017326697,-0.001258123,-0.0003203391,0.0014515136,-0.0023034606,-0.0010392781,0.0027766854,-0.001959172,-0.001357797,-0.0008479995,8.521372e-05,0.0009259101,0.00075116334,0.0003092743,-0.0008448634,0.0036139032,0.0008699371,0.0025433102,0.0025218506,0.0007107735,-0.00036446366,0.0011762704,0.0029991132,0.00075172464,0.0010367056,0.00024295147,-0.00034496505,-0.0010326857,0.0019368808,0.0011936361,-0.00027455777,-0.0007572579,-0.0019783818,0.00017587036,0.00050391135,-0.0017881102,-0.0021228709,-0.0009365129,-5.0956543e-05,0.00212309,0.0012945343,-0.0005185038,0.001404892,-0.00018880938,0.004052326,-0.00023966082,-0.0024015184,-0.0010586692,-0.002442339,-0.0031811313,-0.0009576694,0.00030276494,0.0005226487,-0.0010593258,0.0003019525,-0.0030403943,-0.002127764,-0.00042551305,-0.0023249937,0.0004123853,0.0009892248,-0.0004761133,0.00076394674,0.0017051614,-0.00048045494,-0.0018952864,0.00050652644,-0.00071896176,0.0003948387,-0.0015072522,6.9896276e-05
ABHD12B,0.005527666,0.0021771304,-0.015131554,0.0016505182,-0.0004046187,0.0015136647,-0.00096176064,0.0022798462,0.0017788603,-0.003374857,0.0013657974,-0.00089947064,0.000253002,-0.00044203945,-0.000596224,-0.0009969276,-0.005686324,-0.009751121,0.0031634034,0.0047530853,-0.0019381527,8.290782e-05,-0.0012582246,0.0039084377,-0.009239292,0.0031389303,0.0014478741,0.0023785774,-0.00046195555,0.0043014605,-0.0040540798,0.0041468735,-0.0049225567,-0.0035905277,-0.00087150047,0.007270297,-1.7776121e-05,-0.005323532,0.0054538837,-0.00214817,0.0055667656,0.0033426022,0.0025876323,0.0025757903,0.0035568667,0.0014535764,0.0035109387,-0.0036047061,-0.0023760796,-0.0012953901,0.0020508687,-0.0044145654,-0.00027232777,0.00051357097,-0.0013089324,0.0005296686,-0.00048192378,-0.003067334,0.001372821,-0.007240005,-0.0027577884,-0.0070085204,0.0036511458,-0.0034546573,-0.0037096548,-0.0013964142,-0.0010621871,0.0041596107,0.00072359154,-0.0077029336,-0.00082779635,-0.008380216,0.010439764,0.0038692427,-0.0017869996,-0.00028996528,-0.011258317,-0.0016223806,0.0015670824,0.0027432507,-0.00033225442,-0.009183604,-0.00019564011,-0.00065058173,0.0050845444,0.00050726905,0.006974648,-0.0036227906,-0.00023010139,-0.0019985228,0.004466719,0.0034301584,-0.00055010716,0.00709284,-0.0029010675,0.0027832277,-0.0035674684,0.00037576375,-0.00014049874,0.001062707,0.0032806986,-0.0050007016,0.00059247884,0.009854731,0.0032898984,-0.002100278,0.00031301248,-0.0020838268,0.0010267617,-0.0062602647,0.004585335,0.0057828003,0.0008755533,0.0029777884,0.0015792167,0.0021230027,0.0018513476,-0.0014456782,-0.0020266292,-0.002929869,-0.0001529707,-0.0025097425,-4.3580767e-05,-0.00027874263,-0.0013071646,0.0042639985,-0.0017398624,-0.0074062585,0.0046053347,0.00086493575,0.00039346155,0.0008064771,-0.0072749536,-0.0029184623,-0.00072263664,0.00057554804
ABHD3,0.0019234201,-0.00017410304,-0.0094222305,-0.0025248,0.0013301078,0.00031881206,0.0008181511,0.00017112393,0.00011488753,0.00013783165,0.00038867557,0.0008327247,-0.0009695814,0.0011642206,0.0006055943,-0.0014809504,-0.0024724612,0.004824654,0.0023271365,5.5943645e-05,0.0002522086,0.004810756,0.00038681747,7.2889474e-05,0.0015759548,0.002261671,0.00037074677,-0.0014997893,0.0018103152,-0.005788804,0.0011514846,0.0142975,0.007208492,-0.0013021164,-0.002432721,0.00045872314,-0.0001208798,0.0015209967,0.0006162797,0.00217919,-0.0034588266,0.00023452373,0.00226402,-0.0020607864,-6.27832e-05,-0.0045099785,0.004466813,0.0025843843,0.0036603727,-0.0017777992,-0.00022276214,0.003747954,-0.0013310937,-0.00025928332,-0.0006694622,-0.004397913,0.0020290392,0.0032420615,-0.0041911015,0.0015568308,-0.0017365941,-0.0005274266,0.0024850208,-0.0013637168,-0.002114824,0.0032172746,-0.0018643766,0.0025677083,-0.00079711556,-0.0007287764,-0.0025847186,0.0019952178,0.00031905048,0.0034804128,0.004471829,-0.00091445574,-0.0038117724,0.0029550833,-0.0027057303,-0.0035403112,0.0032575906,-0.0056559923,0.003092144,0.0029076254,0.00122501,-0.004841821,-0.0034302878,-0.0003255095,-0.00093910284,0.0072949035,0.004524822,-0.0043222746,0.00029475687,-0.0054186517,-0.0022599993,0.0028739583,-0.0023609067,0.00072505005,0.0013293348,0.0022871958,-0.0014403239,0.0012868523,0.0036096168,-0.0019226142,-0.0012766221,-0.00052197155,0.0029031434,0.00136879,-0.007937532,0.0029063753,0.0018147962,0.0016867309,-0.0025269117,-0.0026910354,-0.0015998322,-0.0025457526,-0.0016818058,0.0015216133,0.0029420315,-3.0977924e-05,0.0037089952,-0.0033547692,0.00041614685,0.00077155646,0.0013846677,-0.00023371543,-0.0014783761,-0.0018540614,0.0011010942,0.0030309,-0.004820752,-0.00082843215,-0.0024730412,-0.0007240328,0.0017709463,-0.003428395
ABTB2,0.0017598055,-0.00018560163,-0.0054513584,0.0003604019,6.292895e-05,0.000852322,0.00067293586,0.00092702365,0.0007064355,-0.0012102281,-0.00030677277,-0.0011952334,-0.00097328046,0.0020337193,0.0008801123,-0.00064609904,-0.0017972981,0.0036986128,-0.0034358806,0.0018006066,-0.001449957,0.0025354358,-0.003690442,0.005115663,-0.0004046394,-0.0034071112,0.0038769834,0.00013273102,0.002385815,-0.00032646503,0.0010022741,0.012554096,-0.0004890345,-0.0020764156,-0.003918795,-0.000941642,-0.004086439,0.00040023815,0.0014044549,0.001311187,0.0011765311,0.00012180607,-0.001192023,0.0013470078,-0.00065619225,-0.0015194848,0.00079610886,0.0014518108,0.0027871188,0.00080574997,-0.00029497547,0.0031162181,-0.0019614035,-0.0003421551,0.00026298148,0.005761642,-0.0032978512,-0.0003433958,-0.00346435,-0.005098007,-0.0004327608,-0.0020255237,0.003385386,-0.007371359,-0.0032126384,0.003147423,-0.000506061,-0.0024774508,0.0062249443,0.0010541203,0.0012125965,0.002103251,0.0027857346,0.0014440021,-0.00041806765,0.00032153458,0.0035321324,0.005649769,0.0077323793,0.001977837,0.001236522,-0.004019269,-0.000706058,-0.0054074717,0.0013097604,-0.0040153405,-0.0030202237,0.00033565724,0.00538415,-0.00076146756,0.009761641,-0.0017719452,0.0014812038,0.0007222984,0.0027055792,-0.001998936,-0.0006911305,0.003642828,0.0011943345,0.0018554303,-0.0002152648,-0.0012513273,-0.0023934003,-0.0054268753,-0.00035454196,-0.0029382568,-0.002022349,0.0031453678,-0.004157095,0.0004252751,-0.0020159872,0.007462406,0.0018384267,0.0001314335,-0.0010347847,-0.0007155998,-0.0039985166,-0.0028935468,0.005067173,-0.00058346445,0.0014756242,-0.0027518834,0.0010468956,-0.0012636589,0.003385347,-0.00262549,-0.0020510454,0.00055653136,0.0029301185,0.0002839514,-0.0044889785,0.0016964565,0.0032608598,-0.0006781759,-0.0007342546,-0.0019492361
ACOXL,-0.005899195,0.00038854333,0.0030160504,-0.0020959976,0.0014586905,-0.0014817307,-0.005104847,0.0008838527,-0.0038677847,0.0067123147,-0.0025215226,-0.00093211187,-0.0020452589,-0.0007612328,0.0006594084,0.0006073185,-0.00041359643,8.43948e-05,0.001775724,0.0041103703,-0.0024881107,0.0017270084,0.00065575266,0.0019897697,-0.0025623539,-0.00076050137,0.006281928,0.0030493294,-0.0015474412,-0.0007258483,-0.0007999361,0.015845343,0.005107736,0.00021752772,-0.0006239957,0.0019906326,-0.0052292054,0.00073665916,-8.906134e-05,0.0017561613,-0.0020589316,0.0034699305,-0.0002677948,-0.0043613897,0.0005843002,-0.0061363736,0.00063294964,0.0012257833,-0.0020258254,-0.0029274328,-0.0015151352,0.004498869,-0.0021583878,0.0024187525,-0.000279693,0.001187692,-0.001106353,0.0022022629,-0.0034693584,-0.00044973043,0.0037985817,0.0011812795,0.0035174664,-0.0058727,5.9271653e-05,0.003744421,-0.0021996645,-0.0041353176,0.0012596735,-0.0030140786,-0.0035010714,-0.0037119791,-0.00037578007,-0.0023434816,-0.00041385312,0.0027288282,-0.00063605537,0.000150246,0.0036774476,0.00102638,-0.003073671,-0.007483929,-0.0001289967,-0.0016679427,0.008701731,-0.008716566,-0.004601037,0.0005165448,0.0011680266,0.0016459819,0.0002311576,-0.004470125,0.0007845733,-0.0019765852,0.005940386,-0.0018782183,0.0019101305,-0.0008727928,0.0032423371,0.00043156717,-0.0050197565,0.0031632355,-0.002484289,0.0012868516,-0.0024899181,0.0010928182,-0.0013270632,0.005618375,-0.0100176055,-0.0007391833,0.0014834647,0.0039321547,0.00089224766,-0.00450955,-0.002032392,-0.004718035,-0.0010199479,-0.0035588902,0.001922056,0.0012125145,0.0028655913,-0.0015246354,-0.0001808982,0.0037120765,0.00048076684,0.0023576901,-0.003759809,-0.0014313371,0.0024423546,0.00040077773,-0.00782601,-0.00012499765,-0.0025069744,-0.003192762,0.00033251755,-0.0017756396
ACTA1,-0.0016692171,0.0012359348,0.0029966685,-0.001469416,0.0020147283,0.00053212297,0.0007199913,0.0013651937,-0.0027163588,0.0044035222,-0.0015862606,-0.0015197976,-8.638468e-05,0.0008176937,-0.0028312257,-0.00027019434,-0.0018114486,-0.0028457476,-0.00898559,0.003438125,-0.0008701332,-0.0013854258,0.0022354026,-0.0036598255,-0.0015387869,-0.0040212907,0.0013194022,0.00016317813,-0.00080109225,-0.0013111333,-0.0016319134,-0.003762494,0.0028186732,-0.00093416503,-5.2643332e-05,0.00049823767,-0.0014960214,0.0010300145,-0.003257381,0.00092928496,0.001512806,0.0013335713,-0.00093848316,0.000814565,0.0028198496,0.0003787027,-0.0064662183,0.0027408018,0.0025355618,0.0012097332,-0.0030944909,-0.0024151637,0.008784107,-0.0025449523,0.0027044648,-0.0019213195,-0.0012381974,0.0052460358,0.0011388103,0.0025445404,0.0028932488,0.0020506203,0.00047881628,0.0025501458,-0.0079143215,0.00095857814,-0.0023103666,-0.00066480646,-0.001942274,-0.003047848,-0.0026285402,-0.002483538,0.006293188,-0.0016236737,-0.0026058308,-0.006378818,0.0021584127,-0.0038030965,0.00013979305,0.003529263,0.00033359634,0.0012637335,0.0021475435,0.0015487411,0.0016680171,-0.0027998283,-0.00034597196,0.0009104962,-0.0032491933,-0.004784514,-0.0024041038,0.0015609706,-0.0029949578,0.00088133395,-0.0042648492,0.002570877,-7.423338e-05,0.006376626,-0.0008349654,-0.0036158815,-0.0031002983,0.00029331245,0.0035990067,-0.0021120463,0.0008596898,-0.004341546,-0.0038388306,-0.0030765783,-0.0009951929,-0.0013687991,0.001005486,0.0020952162,-0.001364417,-0.0040501202,-0.001640812,0.004381314,-0.002994714,0.003330474,-0.001578874,0.0054686465,0.0017265776,-0.0012100922,-0.0013511442,0.0012773173,-0.0024661438,-0.0011735413,0.0007771539,-0.002670888,-3.0136775e-05,0.0011719284,0.0012133095,0.00037566203,0.0036737274,0.00077616906,0.001375547,0.002062805
ACTA2,0.0009061779,0.0009686284,0.00021405928,-0.0020587612,0.001109473,-0.00057948596,0.00088280987,0.0023022,-0.0014737756,0.0025584213,-3.934137e-05,-0.0011022084,0.0017797293,0.00215004,-0.0035076581,0.0005766941,0.0014792742,-0.0027253588,0.0041994085,0.0018641158,-0.0019767964,-0.0021063092,-0.0041881134,0.003991413,0.0070530702,-0.00084238884,0.004750645,0.00080822076,0.0043797162,-0.006630751,-0.007695831,-0.0023453843,0.0035758242,-0.0026177515,-0.00088357495,-0.0011356408,-0.0024443995,0.0004942993,-0.0066510425,0.0025567613,0.0012435346,-0.0015268215,-0.00649873,0.0038148065,0.0026358867,-0.002751812,0.004644021,0.002036457,0.003230666,0.0071452023,-0.004040639,-0.003828251,0.00012616966,-0.0008340193,-0.0016005674,-0.00982962,0.010557997,-0.003829988,-0.003146633,0.0011156562,0.0030192332,-0.00027576473,0.001413505,0.001525058,-0.0005790629,0.0004253004,0.0011403583,0.0030386266,-0.00028454344,-0.0037863813,-0.0020049287,-0.0011533218,0.0006376153,5.3934393e-05,0.002359223,-0.0036985897,0.00048267574,-0.0012745758,0.0022252696,0.0033778213,-0.0040564328,0.0011189666,0.002721385,0.0024925743,0.0030447033,-0.0007135157,-0.0004101685,2.8518967e-05,0.0012413989,-0.0037356867,-0.00284691,-0.0023009183,-0.0025406831,-0.0041424353,0.0039521186,-0.0053781318,0.0025605434,-0.0071077435,0.005377923,0.0030634298,-0.00096695736,0.0016796114,-0.0044570407,0.0019867166,-0.0035647065,0.0005873172,-0.0014145449,-0.0015307697,0.0014340352,-0.0059523107,0.0032578644,0.0024317487,0.009027894,-0.003011327,-0.0032172578,0.0020998088,-0.00068632583,-0.0032524108,-0.003889154,0.0010091364,0.003933616,0.00038838683,-0.003939477,-0.0013640015,-0.00095185696,0.0013936025,0.0010573427,0.0021787768,-0.0033143086,-2.4228128e-05,0.00074194104,-0.0058274856,-0.00294214,-7.980867e-05,-0.00029586206,0.00082840613
ACTB,-0.0090574315,0.005137804,0.022963569,-0.0029103872,0.0007623455,0.002369199,-0.007678339,0.0036108713,-0.011683742,0.019084476,-0.004945752,-0.007312921,0.0007354635,0.0028667431,-0.0061738403,0.0014061851,-0.0055017425,-0.010943556,0.0003928663,0.0035237274,0.003908383,0.00653233,-0.00049741735,0.004368419,-0.004222018,-0.0062379558,0.004215638,-0.0022276116,-0.0025032451,-0.0013706399,-0.0013681672,-0.051799044,0.0052930084,-0.005415939,-0.006668773,0.014293303,-0.012910271,0.009596406,-0.03099537,0.0051726196,0.011382047,0.00060122495,-0.0072545237,0.0016543316,0.007684153,0.0023833963,-0.005619517,0.0011747088,0.0024205914,0.0033629623,-0.0026153694,0.008731316,0.010327026,0.0034414185,0.001211199,-0.005168156,0.005682995,0.0018249779,-0.0055566076,-0.00058555143,-0.0035290353,-0.0009787622,0.008752289,-0.014458967,-0.001648639,0.0031920618,-0.000778409,-0.0008638656,0.002809043,-0.0015647276,-0.0025112417,-0.0056055165,0.00046225102,0.005103123,-0.0030339127,0.0034834442,-0.00012621887,0.0073088035,-0.00036221766,-0.00035022426,0.0006964629,-0.0031881898,0.004407369,-0.010029585,0.017020328,-0.004869469,-0.005644241,-0.0041874014,-0.0032140207,-0.00026237094,-0.0026448104,0.0021544776,0.00596478,-0.014443131,0.00771884,-0.0017627473,0.005819099,-0.005569275,0.007057376,-0.008807871,-0.0061717317,0.009240714,-0.01195124,-0.00899357,-0.0065730065,0.0017913505,-0.0039429623,-0.00548845,-0.015524202,0.00293378,0.005074155,0.004649382,0.00014005823,-0.0014447441,0.0035959538,0.0009708273,-0.0047662333,0.0062319,0.002703065,-0.000490177,0.0048250435,-0.0050289365,0.00029382878,0.00033131728,-0.004672024,0.0005606311,0.0023761305,-0.005047737,0.0001907587,-0.00038171172,0.01612307,0.0023440882,-0.00061268266,0.004128307,0.00034489576,0.012274918
ACTC1,0.0007691266,0.00077327585,0.0016766136,-0.0003583184,0.00043302393,0.0011423898,-0.0019361333,0.0011460176,-0.0026346769,0.0025801694,-0.00087952364,-0.0012282965,0.0027139273,0.0026479757,-0.0038342846,0.0008493218,-0.001276642,-0.0016660128,0.00025519237,-0.0016165704,-0.0031796086,0.00041957418,-0.00035412243,-0.0016852878,3.5040513e-05,-0.002293406,0.0008993647,0.00013295094,0.0010608181,0.0011130482,0.0018463519,-0.0030440565,-4.14629e-05,-0.0019066893,-0.00096506404,0.0016768659,-0.0030322326,0.0014905003,-0.003679534,0.0022740597,0.0024190575,-0.00174316,-0.0036756832,0.0023872333,0.0017230225,0.001986964,-0.000765549,0.0006658427,-0.000679774,-0.0024361466,-0.0024159658,0.0019729293,0.0024715068,0.001112605,0.0009512143,-0.0014106099,-0.0016887528,0.002116365,-0.0015089702,0.001049063,5.982647e-05,0.0019297639,-0.002141062,-0.0024572238,-0.004014052,0.00064600416,-0.00042179012,0.0011944127,0.00157484,0.00093003514,-0.0005342025,0.0005597188,0.0025878237,-0.0004543012,-7.288709e-05,-0.00087939564,0.00089031743,-0.00091026205,0.0013987453,-0.00043995513,0.00074402656,-0.0014638628,0.0021417227,-0.0019976897,0.0031884185,-0.004861067,-0.0015816276,-0.000108990986,-0.00025092522,0.0009827899,0.0003246811,-0.0006319837,-0.00025853,-0.002741345,-0.00022973723,-0.0024614353,0.0007889158,0.0031111552,0.002440132,0.00079654134,-0.000547015,-0.0014028761,-0.00019259348,-0.0020298404,0.00037526782,-0.0011193133,0.0007043667,-0.0023776765,-0.0059868926,-0.00036318568,0.0018316617,-8.77511e-05,0.0017614815,0.001870965,0.00024144007,0.0020159679,-0.0010935828,0.00074085314,-0.0025159759,0.0008572311,-0.00060878374,-0.0016587842,-0.0026985088,-0.0011584631,0.0024446615,-0.0029219561,0.0008649025,0.0015855172,-0.0026698327,0.0021291974,0.0013512751,-0.0074864468,0.0011280602,0.0030419477,-0.0015185444,0.00064101594
ACVR1,0.0014502079,0.00090013555,-0.008521872,-0.0013112767,-0.0005211908,-0.0008040827,-0.001027538,-0.00015403568,0.00038421113,0.00022479244,-0.0011153774,-0.00083119876,-0.00079330336,7.575927e-05,0.00014915504,-0.0007558414,-0.0018692625,0.0015688149,0.0016111139,0.000121063546,0.00089643174,0.0043519167,0.00037579134,2.5368441e-05,0.00088062586,0.0009468631,-0.0019608294,0.00097271055,0.003835323,0.0011825403,0.0048979637,0.015453055,0.0028500482,-0.001737147,0.003790394,0.0014388853,-0.0021492145,0.0014118952,-0.00077098346,-0.0017937288,0.0062936833,-9.781196e-06,0.0021887564,0.0025083215,-0.00032315732,-0.0022299092,-0.00025899985,0.0016194963,0.00048018454,-0.002050058,0.001637283,-0.0002541595,0.0007510772,0.00011447689,0.0023977088,-0.0015773106,-0.0064142635,0.0013914251,-0.0038912944,-0.0023105093,0.0043005245,0.0008898801,0.0006321447,0.0035190808,0.00027391294,0.001999467,0.0031098346,-0.0025607215,0.00011670635,0.002867145,-0.005700054,0.0011647802,0.0011801092,-0.0011009928,0.0011610216,0.0014393483,-0.0034009216,-0.0009143489,-0.004043704,0.00095512293,-0.002536635,-0.0049516205,-0.002810602,0.0023196766,0.0066126743,0.0037037923,0.0012917098,0.0024307424,0.00095479353,0.0013320936,0.00010656883,-0.0023310615,0.0035730149,0.004590378,0.0013126547,0.0035164293,-0.0025749125,-0.0025897422,0.0032686377,0.0018121577,-0.0035571642,-0.0012460947,-0.00026014564,-0.0012113879,0.005215492,-0.0014050809,-0.0030373828,0.0008487317,-0.0030867169,0.0036873547,-0.0027071065,-0.0007986057,-0.0005072745,0.00434547,-0.003955138,-0.0033344189,-0.00205938,-0.0023255139,-0.000594655,0.003374044,0.002759082,-0.0057253395,-0.00044270835,0.0035162298,0.00544896,0.00054172805,-0.0023959563,-0.0010347208,-0.00084452424,-0.002650596,-0.006621628,0.0016692216,0.0006059795,-0.0011923481,-0.006825005,-0.0040797754
ADAM12,0.0005434054,0.0010667703,-0.0010413097,0.00034543328,0.00021361414,0.00062374276,-0.001791965,-2.076641e-05,-0.0018842613,0.0017431504,0.0006395096,-0.0025961944,0.002312417,0.0010166927,-0.0035201295,0.0030066746,-0.0035668202,-0.0021993802,-0.0001699216,-0.0032577168,0.0039785705,0.00023232988,0.0039708195,-0.0019206591,-0.00011154803,-0.00039322808,-0.0027227048,0.007286004,0.0016835503,0.00029024383,-0.0013754778,0.00047332863,-0.005181345,0.0010229334,-0.0014002463,0.001785384,8.8768014e-05,0.0034103808,-0.0028255195,-0.0022568135,0.0015740773,-0.00493081,-0.004903845,0.0056132935,-0.0008604071,0.0044519063,0.0016481647,0.0023532473,-0.0015715066,0.0026166171,-0.008162288,0.0015223715,0.0027189595,0.0023829858,0.007537607,-0.00057919987,-0.005243954,-0.000763951,-0.0040186024,0.0015881665,-0.003141466,0.002793028,0.00084591075,0.0029642095,0.0013438986,0.0021078002,-0.0016880996,0.00093390717,0.0012029875,-0.005480151,0.00048898446,0.00025963335,0.0041532223,-0.0030437892,-0.00042273017,0.0011077547,-0.0023390355,0.0031870443,-0.0028528904,0.00015412748,-0.00018448448,-0.0015938277,0.0021818895,-0.0012778824,0.0036827873,0.0024771905,-0.0005150796,-0.006149997,-0.0053521227,0.0054136952,-0.004329349,-0.0030177564,-0.001968719,0.0013011092,0.0009893266,-0.002079259,-0.00048461548,0.0027298734,-0.0032481155,0.0055333455,-0.0007634108,-0.001598657,-0.0038455324,-0.0013790093,-0.010493885,0.0023367833,0.008575438,0.00037595088,-0.0062422794,-0.0020113264,0.0040464457,0.0010519689,0.005922514,0.0060858186,0.0028693476,0.00048102057,0.0025757018,-0.0008451308,-0.0026700837,0.0051814243,-0.0022316754,-0.0021903967,-0.0026134236,0.005439249,0.010637414,-0.0053814244,-0.00012425937,0.0068746996,-0.010862421,0.006126296,0.0052655935,-0.017411662,0.012467267,0.0069088796,-0.01810378,0.0005709767
ADAMTS12,-0.0014282386,-0.00050343585,-0.0038637435,-0.0004817172,0.0014752785,0.0006656527,-0.0044876696,-0.00042082887,-0.0015108947,0.0038916948,-0.0007319921,-0.0025842478,0.00046236135,0.0012538561,-0.0016752095,0.0020515441,-0.003554822,0.0006159573,-0.0015428049,0.0008199141,-0.007358837,0.0017393798,-0.0026367384,0.0026424685,0.0024843689,-0.0012860284,0.004052136,-0.0014815498,-0.0003033326,0.00026031892,0.0021977215,0.019480469,-0.0023412094,-0.0016959388,-0.0036508788,0.0030661447,0.00010667995,0.00032080448,-0.0013312852,0.0021731928,0.002913091,-0.0028533007,-0.0032175756,0.0025863268,-0.0035302257,-0.004828339,0.00063888496,-0.0008260633,-0.001252301,0.00076178106,0.00067602535,-4.0596427e-05,-0.002831984,0.00030110124,0.00240803,0.00069999124,0.0017001693,0.0019178231,-0.0036758173,-0.0027046688,0.0011731635,-0.005316388,0.00079919916,-0.00342295,0.0024890497,0.0011480312,0.0031514466,-0.0031837057,-0.00017439651,0.0013704142,-0.003890959,-0.001781204,-0.0005863936,-0.0003329155,-0.0010894072,0.0028206639,0.0026983467,0.0023362616,-0.00090234296,0.0010686552,-0.003012074,-0.007389844,-0.0045393277,-0.0029073306,0.009441254,0.0006940661,-0.005082585,0.0039883982,-0.0016921276,-0.0012824376,-0.0010808068,-0.009403152,0.00034352843,0.0035086486,0.0003583021,0.0025404384,0.0010474265,-3.2057247e-05,0.002671012,0.0014191908,-0.0011332172,0.0028834995,-0.003536125,-0.0030104145,-0.0037017455,-0.0018355943,0.0032068612,0.0008707331,-0.010866678,0.0019972608,0.0046216985,-0.003971901,0.002034259,-0.0028880185,-0.00011748486,-0.0032181102,0.001357073,-0.00073433854,-0.0030743792,-0.00042731033,-0.0003702827,-0.0068031205,0.0007318157,0.00043886938,-0.0011116056,-0.003887998,-0.002726875,0.0030921747,-0.0005319893,0.0019233297,-0.0024525009,0.0005525308,0.0029971118,-0.0005226672,-0.000501651,-0.0042144335
ADAMTS17,0.0042311084,-0.00036257488,-0.009863356,-0.00084545993,-0.00041724087,0.00016800532,-0.0007668874,7.1945295e-05,0.00055559014,-0.0012860744,-0.00028834143,-0.0016216441,-0.00038583347,0.0010625472,-0.0008543916,0.0018253698,-0.0036773472,-4.8673255e-06,0.0044129128,0.0039347652,0.0021794422,-0.0012490888,0.0011488983,-0.0016306319,0.0010115313,0.004662475,-0.002973646,-0.002938233,-0.0005729517,-0.0061242143,-0.00060393254,0.012006674,0.0021787751,0.0031053924,-0.0007221819,0.0002907779,-3.545922e-05,0.002218947,0.00040469746,0.0030744146,-0.000118487456,0.00019662213,0.0009376814,-0.00029897926,-0.0007507445,-0.00082596374,0.0070939455,-0.0012057383,0.0017707034,0.00036105074,-0.00085850264,-0.0012247295,-0.0014967036,0.0027349764,-0.00016773153,0.00036959842,-6.578225e-05,-6.4514854e-05,-0.0011778395,0.005451168,-0.0018473469,-0.0012540596,0.0024960611,0.0067161093,-0.0011114372,-0.0016673576,0.0002110617,0.00036309203,0.0011399047,-0.0059811124,-0.003087608,0.0010456516,-0.00018115705,-0.0027462523,-0.0025969637,0.0036953064,-0.0022783177,0.0039227703,-0.0022258838,0.0034438558,0.0010974627,-0.003675678,-0.0023481424,-0.00097094453,0.005135208,-0.0013372733,-0.0028295834,-0.0012481308,-0.004486812,0.0015736949,0.00517949,-0.000964569,0.0025388787,0.004438285,0.00209571,0.0043802205,0.0012783838,0.0011739843,-0.0010447706,0.007040411,-0.00078742474,-0.00020746981,0.002007465,-0.0049536396,0.0017306249,0.00040303785,-0.0057738866,0.0022234982,-0.0050862017,0.0034684746,0.0016737261,0.0011572286,0.0038072672,0.0030216952,-0.0027216421,0.00036443523,-0.0013777865,-0.0016003519,0.0011775435,-0.0027926355,0.004076125,-0.0009866852,-0.0009159694,0.006199908,0.0012382171,0.0055843266,-0.0003111616,0.0020136668,-0.0011263799,-0.0015742135,-0.003689929,0.0025378899,0.0022582356,-0.0047604027,-7.4033735e-05,-0.0025751286
ADAMTS19,-0.001456542,0.00021371497,-0.011047264,-0.0011219714,-2.8222705e-05,-0.00036623684,-0.0033836022,-0.00055326364,-0.0011958345,0.0047536884,0.00090882636,-0.0003899667,-0.0017317145,-0.0009372228,0.0030036923,-0.0001690111,-0.0044709556,0.0030786847,-0.0011904446,0.0002635555,-0.0011211778,0.0020248399,-0.0032141183,-0.002656167,-0.0017364067,0.0020787797,0.003267683,-0.0016361485,-0.0019450035,0.002992278,0.005084878,0.031213282,-0.001305116,0.004022742,0.00092902454,-0.00065139175,0.0038875092,0.00051759696,0.004456253,-0.0012704714,-0.0025005646,0.0013909489,0.0025287352,-0.002608717,0.00038082933,-0.0042392253,0.0020094237,-0.0001451405,-0.001846024,-0.005607669,-0.00012128231,0.001344496,-0.0019272646,0.0013954616,-0.0062892847,-0.0019044216,-0.0004368921,0.0036895364,-0.0057832794,-0.0014536317,-0.0014403623,0.0023958676,0.0028254206,0.0037010666,-0.003144485,-0.0006206626,0.004559373,-0.0027005945,0.0035953782,0.0001333625,-0.0031656094,0.0006366984,-0.0020840294,-0.004361686,0.0032341895,0.0035088272,-0.0015305424,-0.0018570025,-0.0010785369,0.0005828439,-0.0013547066,-0.0080589615,0.002661569,-0.0023622639,0.00488955,-0.002013787,-0.0037740937,-0.0002110329,0.005538201,0.00036995226,-0.0018415024,-0.003965698,0.0018672846,0.00485529,0.00022714036,0.00052162097,-0.00015669514,0.0021548127,0.0014477498,-0.0003167488,-0.0056034294,0.0016342662,-0.0011612927,0.00064195297,-0.0023276124,0.0018612919,0.0026925437,0.003679177,-0.012264992,-0.0018093203,0.0034254678,-0.0015023731,-0.00022374661,-0.0014055615,-0.004521612,-0.0029141712,-0.0020343384,0.0008819945,0.00074875355,0.0009827503,0.0032079488,-0.006600939,-0.0007345882,0.004763121,0.0001705075,0.0049331263,-0.0011646971,-0.0028485684,0.0034089875,-0.001421312,-0.008638457,0.00057110836,-0.0017807893,-0.0032599478,-0.0027426078,-0.0043614535
ADAMTS20,0.0042760344,-8.68863e-05,-0.015485125,-0.0003038799,-0.0007045458,-0.00059017405,-0.0003466639,-0.0013009118,-0.00043089755,-0.0013571192,0.0006057579,6.6086577e-06,-0.00026833214,-8.702658e-05,0.0014957554,-0.0011934333,-0.0026857483,0.0025575934,0.0002869067,-0.0008356456,-0.0015718753,0.0020846825,-0.003715261,0.001603198,0.003073107,0.0013306581,0.0022998208,-0.000753851,0.0025034386,-0.00040032322,-0.003251543,0.018144928,0.00020553476,0.0025480613,0.0016575338,-0.0009880813,0.001437948,-0.0002523871,-0.00038785773,0.00055442116,0.00016184122,-7.0825976e-05,-0.0006128394,-0.0014600221,-0.0008587503,-0.002270435,-0.00053983496,-0.0015166485,-0.00031199615,-0.0017009007,0.00010159946,-0.0018467715,-0.004383976,0.0032827337,-4.1472656e-05,-0.0014158826,0.0022058522,-0.00015196398,-0.0036990219,0.0053164875,0.0012096593,-0.0016633223,-0.0026560815,0.0013457072,-0.005870669,-0.0013871875,-0.00039065102,-0.0023955193,0.001034581,0.00020505856,-0.0024090898,-0.005283812,0.0006916501,-0.005464269,0.006265502,-0.00408517,-0.0010862041,0.0015790411,-0.007114034,-0.0032795593,-0.00065207144,-0.0031043421,-0.0012967127,-0.004642346,0.00021520366,0.0015932041,0.00096170005,0.003850078,0.002135594,0.0014762334,0.0011987786,-0.007200223,-0.00035158385,0.003600315,0.00179041,-0.002066303,-0.0039174547,6.435105e-05,-0.0007160214,0.0022773137,-0.0042594094,0.009584656,-0.0016278493,0.0010350171,-0.0015941012,-0.0010514588,0.0022061996,0.005691701,-0.009021106,-0.0019774719,0.00017509796,-0.0013826654,-0.0037165633,-0.0062153367,-0.0066101253,-0.0038465294,0.0031336588,-0.0021487547,-0.0015160175,0.0005153598,0.0022041234,-0.0011532388,0.0007034996,-0.0017716197,0.0028244858,-0.0038312497,-0.006304793,-0.0056636217,0.0027717676,0.0010252726,-0.0018767343,0.0028636167,0.0016772117,-0.000757978,0.0011585553,-0.0039611636
ADAMTS3,0.0019488933,-0.00067890587,-0.0077924468,0.0009399653,0.0020090814,0.00081292784,-0.0022482376,0.001701396,-0.00045989887,0.00040312312,-0.0010717919,-0.0010737535,0.0007671675,-0.0005691234,-0.0008467017,-0.000673829,-0.0006289417,0.0009912965,0.004197321,0.00029892978,-0.005406437,0.0029722243,-0.0013766959,-0.0015963755,-0.00071993587,-0.0020123592,0.0025738776,0.0024101427,0.0050243237,0.0016331867,0.0037281448,0.014811182,-0.0002690632,0.005844514,-0.0011126489,0.0021359301,-0.0006969808,-8.29941e-05,0.0018459238,-0.00061584025,3.446684e-05,-0.0004412571,0.0023079405,-0.0012916812,-0.0013554116,0.0016470051,0.003050462,-0.0008698039,-0.00222821,-0.005217375,0.0014908903,0.0067539844,-0.003169329,0.00049273716,0.002333193,0.0025193985,-0.000998435,0.005476839,-0.0028212478,-0.00284228,0.004121763,-0.000797802,-0.0022757447,0.00032116068,0.0034925693,0.0027878277,-0.0021837263,0.0026714916,-0.0009936851,-0.0046105054,-0.002363792,-0.0008539563,0.002165102,-0.0020942236,0.0012925642,-0.0009600652,0.00050211925,-0.0008765335,0.0005979922,1.9438483e-05,-0.0019716474,-0.0049508717,-0.0014887492,-0.0027971624,0.0062741237,0.00082780386,-0.0025119695,0.0015092269,-0.0027276077,0.0016571974,-0.0019331316,-0.00018302177,0.0037031637,-0.0030019854,-0.0007446947,0.0006508052,0.0021422445,0.005295169,-0.006103484,0.000769463,-0.0039437967,0.005661975,-0.0018574502,0.0020822992,-0.0005050214,0.0008581978,-0.0020505497,-0.00089196424,-0.0060373736,-0.00070661714,0.0031848266,-0.0023333393,-0.0011130426,-0.0013973647,0.0012551883,-0.003584457,-0.001408396,-0.0032646596,-0.002281879,0.0042794487,0.00049097167,-0.004797096,0.00015785765,0.0040634573,0.003262656,-0.0017629806,-0.0040507424,-0.0010185622,0.0021008225,0.003614271,-0.0012055552,-0.0030863741,-0.0043890644,0.0015151552,-0.0028572818,-0.0026281923
ADAMTS6,0.0013182753,0.0004648567,-0.00478166,-0.0024367603,0.0012452225,0.0004057516,-0.0008629764,-1.5584437e-05,-0.0007769095,0.0019049745,-0.0019212362,-0.0009291888,0.0013129461,0.0018908478,-0.0014960866,-0.00044058732,-0.002579094,0.0004771431,-0.001815675,8.295301e-05,0.0078115696,-0.0023701263,0.002670985,-0.0009861583,-0.006406045,-0.0035239519,-0.0009230716,0.0047688857,0.0024219065,0.0009048857,0.0013834708,0.011333526,0.0033172318,0.0036428268,-0.0012552679,0.0015157779,-0.0008336945,0.002610811,-0.0013303616,0.0042927177,0.0068156742,-0.0063411393,-0.0002476418,0.0037243832,0.0007268982,-0.0027761322,-0.0021466194,-0.00035004786,0.0022482595,-0.0034306052,-0.0037977418,-0.00023065413,0.0016700586,-0.0023293782,0.0011848715,-0.0013300602,-0.0006316856,-0.0057823234,1.1796128e-06,0.0061812773,0.00542071,0.0014690809,0.00024633092,0.0023253434,-0.0017442143,0.0005975336,-0.0023554955,-0.0009946245,-0.001520285,0.0009742794,0.0012499543,0.0021598532,0.00072761107,-0.0031881707,0.0016668333,0.0011219617,0.003677381,-0.0013230296,0.0033809058,0.0035856946,6.2617444e-05,-0.0037425084,-0.00017802096,0.0006283805,0.004569727,-0.0075369324,0.00066697487,-0.00027467756,-0.001753094,-0.0005399715,-0.0030531914,-0.001748932,0.0054951278,-0.0020314918,0.0038783022,-0.0029866947,-0.0034395219,0.00065185415,-0.00387308,6.352653e-05,-0.004416832,-0.0009863481,-0.00063335715,0.00074678764,-0.0036976652,-0.001783296,0.0024179795,0.0011499182,-0.0092876395,-0.0008690886,-0.00065628585,0.0015598943,-0.0015472808,-0.0034416604,-0.0011919625,-0.0009956486,0.0013145057,-0.00534972,-0.0023901868,0.004854694,-0.0028442321,-0.0069837472,-0.0030877595,0.0079005305,0.0076593356,2.0309557e-05,8.2104e-05,0.00033057257,-0.005614039,0.0011029664,-0.0015220378,-0.0015758318,-0.0025864556,0.0024157688,-0.0045137326,-0.0031959563
ADAMTS9,0.0014084035,-0.0004684634,0.00011126635,-0.00047523418,-0.0017965364,-0.0001296681,-0.0021364558,0.0014388849,0.0003285865,0.00036591318,-0.0010324031,-0.00077463733,0.0017195132,0.00033537814,-0.0022932333,0.00085882534,-0.001514009,-0.0015118731,0.004628768,0.00061439583,2.58306e-05,0.00093845354,-0.00014750942,-0.0002573846,0.0037278826,-0.0013869392,-0.0005241554,0.003895023,0.0046598446,-0.00038532016,-0.0034835772,-0.00044262267,0.0013760779,0.00018711275,-0.0032263459,0.0015383847,-0.0037559976,0.0017621147,-0.0045742984,0.003598219,0.0018593519,-0.004438945,-0.003706251,0.0038474477,0.00037857305,-0.0022346673,0.0021301506,4.9731465e-05,0.0008502655,0.005994206,-0.0008454414,0.0009285284,-0.0005417419,0.0034268177,0.0018560028,0.001840091,-0.00031120604,0.0023306967,-0.0020635326,0.001453101,0.0011046121,0.0005213647,0.0020006336,0.0028020532,-0.0005100908,-0.0006310003,-0.000710107,0.001934004,-0.00021562546,-0.0009988595,-0.00036833613,0.0014166322,-0.001714267,0.0015367749,0.0032055841,0.0013430769,-0.0018527743,0.002132238,0.00023822246,-3.48522e-05,0.0016449227,-0.0015193222,-0.003129258,-0.003305637,0.0054195076,-0.0003750021,-0.0042160056,0.0015179643,0.0012759703,5.637547e-05,0.00087999826,-0.00016670214,-0.0069393967,-0.0032318898,0.0075768055,0.0009781527,-0.00069245,-0.0010674231,0.0022419207,0.00142043,-0.0018740798,4.581066e-05,-0.0034656983,-0.0016335495,-0.0027526694,-0.0006876701,-0.000837724,-0.001972751,-0.00097443664,-0.0034777331,-0.003202446,8.024474e-05,0.0042982716,0.00031944117,-0.0028825856,-0.0017147554,0.0034409934,-0.0006411258,9.914631e-05,-0.00025166842,0.0055348594,-0.0013909477,0.00072885194,0.004059962,0.0024151471,0.0029227969,0.0006092335,0.00016381321,-3.0665506e-05,0.0024161988,0.0015599557,-0.0022280465,-0.00061955006,0.00039281324,-5.6577064e-05,-0.0005760794
ADAMTSL1,-0.0011284776,-0.0006157504,-0.0033112238,-0.0004405714,0.0017509712,-0.00019899313,-0.0016805608,0.0009290894,-0.0013696017,0.0044416594,0.00036902382,-0.0014197322,-0.0019544594,0.0005270159,0.0010338181,0.00015834319,-0.0037250458,0.0011682521,-0.0015221527,0.0009339469,-0.000910737,-0.0016809808,-0.001927073,-0.0036561405,0.00066873187,0.00075179304,0.0014997359,-0.0024003373,-0.00020117308,-0.0012803432,-0.0004964694,0.013024732,-0.0011054426,-0.0023772283,-2.8962457e-05,-0.00035171973,0.0014398866,-0.0003916369,0.0015807125,-0.0007370157,0.003141955,0.0004670743,-0.00047270433,-0.0022345872,-0.00281871,-0.0013166774,0.0016020793,-0.0033909373,-0.0042508263,-0.0007307614,0.0012287927,0.000938631,0.0019645668,-0.0005571119,0.0038778011,-0.0011215211,0.003732571,0.00038902255,0.002212834,0.0016484566,0.0038216657,0.0002029886,-0.0007064471,0.0018335072,0.0029377197,-0.0026004221,-0.0026881618,0.0029876379,0.0021514148,-0.0057404777,-0.0009147901,-0.0021756152,8.9053705e-05,-0.0030410774,-0.0045001907,-0.000827804,0.001257916,-0.0025515917,0.0016209807,-0.003778092,0.002776064,-0.002620112,-0.0024091736,0.0013402626,0.0057407096,0.0026784816,-0.0007326103,0.00234057,-0.00037871086,0.00023022079,-0.00023616699,-0.0055497186,0.0037689675,-0.0003215461,-0.004519419,-0.0027027656,0.0016807918,-0.0032191214,-0.0017033665,0.0036412594,-0.0018533211,-0.0013101439,-0.0025166743,0.0001485588,-0.00057738175,0.0037855436,-0.0013994161,0.0030565432,-0.0042187036,0.0033025814,-0.0013036297,0.006758468,-0.0034142733,-0.0043968973,0.0006085321,-0.002221025,0.0023701885,0.001269052,-0.0013441124,0.0003610462,2.8269516e-05,-0.0043998673,-0.0030354916,-0.001889598,-0.0037391114,0.00012483184,-0.0010642995,0.0032258136,0.0047713085,-0.00588643,-0.002437179,0.0027618678,-0.002786067,-0.0008262072,0.00037101447,-0.0031219525
ADARB1,0.0019324179,-8.833552e-05,-0.007222001,0.00017574221,-0.00011825877,0.0003451509,-0.0009463398,-0.00030262757,-0.00069209863,0.0018318894,-3.2470503e-05,-0.00030356456,0.00031167056,0.0013036529,-0.0020492284,0.0008526619,0.0025016342,0.00037164518,0.002338429,0.0010650249,0.0045601875,-0.00017658848,0.0012650009,-0.0010731348,-0.0029305317,0.0006929261,0.001010194,-0.0019259176,-0.0041095326,-0.0009994277,-0.00050622894,0.0107029835,0.0018360907,0.0005911835,0.00018481501,0.0019018474,-0.0010646394,0.0043049026,-0.003208416,0.002742198,0.002296825,0.00054251513,-0.0006873037,0.0019025021,0.00045929707,-0.0014591336,0.00032870434,0.00010499523,-0.0061536594,-0.0029922666,-0.0023597204,-0.0035174042,-0.0021094466,0.00011035429,-0.00024755206,-0.0016068468,-0.0009606515,-0.00010640746,-0.005499765,0.004300298,0.0030256126,-0.0008652863,-0.0005481117,-0.0010394036,0.0022157265,0.0018665709,-0.0007982516,-0.0022197831,0.0011330707,7.860438e-05,-0.0027157853,0.0007778915,0.00096604275,-0.0006950071,-0.00038959482,0.0012899331,0.001091079,0.0011832328,-0.001107748,-0.00059496256,-0.00022529245,-0.0015227742,-0.006069746,-0.0055859676,0.0032352095,0.0023682117,0.0015082689,0.0015025125,0.00036592627,0.0010752736,0.001219262,-0.004265782,-0.0027744807,-0.0017988009,0.0008013982,-0.0017908637,0.00038046527,0.0036588672,-0.0018393367,-0.0053656236,-0.005714534,0.0030504977,-0.0040975586,0.000870541,0.0022085945,-0.0009468193,0.0035475418,5.209041e-06,-0.008923276,0.0016387275,0.001042219,0.00097646407,-0.0027320585,0.002154278,-0.0007221372,-0.003206252,0.002495621,0.000771864,-0.001736033,-0.00031834986,0.0005667822,-0.0019580089,-0.0011290183,0.0024125567,0.0038944907,0.0019097363,-0.00020227116,0.0026195354,-0.005083734,0.0013791926,-6.500989e-05,-0.0038282687,1.302524e-06,-0.0018111621,-0.00030302702,-0.0030427729
ADARB2,0.001906727,0.0009481016,-0.0070994417,0.00016580164,-0.00030567634,-0.00048231098,-0.000743817,0.00023788272,-0.00011880646,0.0018756461,-0.0007935193,0.00019085308,0.00038230373,0.0013764473,-0.00047328277,0.0014124037,-0.002764667,-0.0028749367,0.00045587393,-0.004944506,0.0015721606,0.003979572,-0.0018151052,0.0017111858,0.002344622,0.0017940383,-0.005278153,-0.0009767817,-0.0013842798,-0.001760742,-0.00029394383,0.01606286,-0.00291172,0.0015412216,0.0018659559,0.0022756748,-0.0030001039,0.0033084336,-0.0024128458,0.001902595,-6.0570743e-05,-0.0014479266,0.00106758,-0.0009761094,-0.0029301401,-0.0029776637,0.0020265046,-0.0026423894,-0.0022178316,-0.003539743,0.0028953105,0.0021593596,-0.00062179734,0.0037100795,-0.0025600109,0.0026414036,0.0033710464,4.595624e-05,-0.005282522,0.00049386546,0.0039294623,-0.001514245,-0.0025313997,0.003544263,-0.000517369,-0.0016295208,0.0015994177,-0.0004723588,0.003234566,0.0020543195,-0.0031531337,-0.0009994694,-0.0015534192,-0.0032569938,0.002449572,0.0015065505,-0.0023488842,-0.0027733187,-0.0041497555,0.0001060866,0.0012961001,-0.0031539619,-0.0032253424,-0.0022255552,0.002467335,-0.00088586565,-0.00055537175,-0.000627963,-0.0010984021,0.0023357274,0.00093921524,-0.0030981272,0.0036800064,0.0032292032,0.0019980147,-0.0037987386,-0.0013792379,-0.00112679,0.00284256,-0.0005104743,-0.0037372657,-0.00095968304,0.0024750538,0.0012103762,-0.0014816691,-0.0010724094,0.00032100358,0.0019427988,-0.0072319848,0.00026046854,-0.004477363,0.00027399533,-0.00037258113,-0.0020556662,-0.0021936954,-0.0027127212,0.005313851,0.0014198221,-0.0028159793,-0.0033914754,-0.0020004974,-0.0016570655,-0.004668909,0.00046278356,-0.0010245675,0.0034239276,-0.0044137696,0.0033953118,0.0030410977,0.0026286487,-0.0025596675,-0.0023889297,0.00278127,-0.0026775997,-0.0011704457,-0.005122188
ADCY2,0.0014347971,-1.2440449e-05,-0.012033,0.00090477435,-0.00012820264,0.00021393488,-0.002466343,0.00010771488,-0.0003441393,0.0027518312,-0.00019709107,-0.0019753473,-0.0020117268,5.7192603e-05,0.0014934888,0.00053839845,-0.004493274,0.0017508682,0.0020882408,0.0014927969,-0.003694643,-0.0013689441,-0.0004943737,0.00018633503,-0.002427487,-0.00083970284,0.0020677024,0.0014691344,0.001608487,-0.0013716226,0.0010327486,0.026749944,-0.0057763197,0.00067855767,0.0017089131,0.00077270914,-0.0018175828,-0.0013205761,0.002051553,0.0010326741,0.002827808,-0.00022692328,-0.00047838525,-0.0016830949,-0.003513633,-0.002441347,0.0023512517,-0.0022847669,0.0011114867,-0.0031195516,0.0035165853,-0.0026091847,-0.0010133871,0.0004761694,-0.0013512732,0.0018142924,-0.0020708144,0.0023378404,-0.0034827976,0.000328026,0.0016103549,-0.002715343,-0.0015562472,-0.0023979426,-0.002476051,0.0012820117,-0.0026627989,-0.0039081387,0.00023418167,0.0053778784,-0.0044438457,-0.005702823,-0.0015946358,-0.0017227958,0.0030902198,-0.0011932249,-0.0042045084,-0.0029366852,-0.004973794,2.4305404e-05,0.0016739633,-0.009439083,-9.774342e-05,-0.0016753299,0.0045407116,-0.0010357422,-0.0045137545,0.0030321484,0.0023951812,0.004576242,0.00348507,-0.0049840435,-0.002323407,0.0031110207,-0.006865208,-0.00048333182,-0.002647918,-4.7098612e-05,0.0017844877,0.00037993028,-0.0012479445,-0.00019457315,0.0012513635,-0.0013725263,0.0050645084,-0.00063987623,-0.0009109072,0.0018186618,-0.010813379,-0.002009611,0.0066353045,0.002020677,-0.0007552125,-0.0021814809,-0.00079962396,-0.0039698216,-0.0028797847,-0.0026363581,-0.0024165288,0.0005337098,-0.0018598001,-0.009193326,0.004267263,2.3429402e-05,-0.0006445057,0.006809484,-0.0042850687,-0.0018210738,0.0030450327,-0.0025548192,-0.004763908,-0.00012443637,-0.003804642,-0.0035579589,-0.0013598981,-0.005932688
ADCY8,0.002405896,-0.0010237885,-0.0036132904,0.0004294886,-2.0032488e-05,-0.00031057245,-0.00071156514,0.000108142194,0.001069511,-0.0006958044,3.2338667e-05,-0.0009929112,0.00010736601,0.0016443725,0.00012975845,0.0012434382,-0.0019851706,-0.000616259,-0.0027109631,-0.0013319446,-0.00011478618,-0.00027261017,0.00027855413,-0.0021830816,0.0023946187,0.00072869356,-0.0033405123,0.0021698507,0.0025511687,-0.00059783616,0.00012790432,0.0024822701,-0.0032251382,-0.0021162438,-6.011806e-05,0.0044533587,-0.0012060497,0.00050526933,-0.0024302457,-0.0010548725,0.002084594,-0.0021331226,-0.0047862493,0.0029170364,-0.0002328131,0.004195834,0.0060965195,-0.0020097808,-0.0013349819,0.01221742,-0.0005439441,0.0017908103,0.0012734832,-3.866285e-05,0.003296813,0.0052147415,-0.0030835646,0.0052557364,-0.0038814417,0.0005239622,0.0013122404,0.0010747632,-0.0012996476,-0.0018307968,0.0022532714,-0.008752057,-0.002480263,0.0025651925,0.001371687,0.003007667,-0.0026909607,0.0014248168,0.00033296205,0.0016079397,-0.0009000638,0.00014844541,9.966071e-05,-0.0016981,-0.0012645312,0.0015866436,-0.0027075165,-0.0044698925,0.00021962762,-0.00010963796,0.0040265475,0.0020076428,-0.00099156,0.0015971205,-0.0017902254,-0.00072034914,0.0043444005,-0.0036587983,-0.0057610273,0.0048897364,-0.0022157992,0.0010499902,0.0021617173,-0.0021231768,-0.003443855,-0.0010258937,-0.002923934,-0.003942554,0.00027989314,0.00049128366,-0.0022375996,-0.0024273228,0.0023892287,-0.0006943586,-0.0012114554,-0.0019394647,0.0034168498,0.0002487387,0.00073277624,-0.00021930134,0.0013811669,-0.0016497573,-0.0018530294,0.00074273295,0.0013698272,-0.00034497405,-0.0027149946,-0.0011262189,0.0008307154,-0.0014035043,0.00066937984,0.00063762575,-0.00074032234,0.006099402,-0.0013868421,-0.00016954124,0.003290253,-0.00264998,-0.0023437373,-0.00088648,0.00071737554,0.0003345065
ADGRB3,0.0053888056,-0.00015689254,-0.019580983,0.00013550704,0.0008158817,0.00049212546,-0.0015104007,-0.0023801157,0.0015502924,0.00081370666,-0.00036715876,-0.0010061774,0.0005596561,0.0004064614,0.00040765753,-0.0011101293,-0.0058365245,0.0010574942,-0.0037114995,-0.0021273948,0.0006605304,-0.0029066699,0.0014109949,-0.0070157317,-0.0011927187,-0.0013022816,0.0018726491,-0.0026606196,-0.00096937467,0.006949773,-0.0007582938,0.027390024,0.00072455086,0.00010179296,0.003515463,0.001611903,0.001248033,0.0018075348,0.0012799645,0.00036851031,0.0007573766,-0.0020139508,-0.0008018919,0.0020082688,-0.0012740941,-0.0059608473,0.006434078,0.0012784826,-0.001755316,-0.0029878772,-0.0016172975,-0.0013085421,-0.003969176,0.0007899783,0.0010103706,-0.001703798,-0.0016545733,0.0006759526,-0.0063821496,-0.0015132157,0.0032075248,-0.0023693782,-0.0034211897,-0.0021081388,-0.0029078112,0.0018648561,0.0012086437,-0.0003220056,-0.00051777734,-0.0001792441,-0.003353225,-0.0011819253,-0.0050868695,-0.005931544,0.0035167488,0.0023491802,0.0049164626,-0.00012479186,0.0028674032,0.0014097823,-0.0037874896,-0.0052361083,-0.007178325,-0.0012757287,0.008004249,0.00041670285,0.0029543494,-0.0006265214,0.0022533252,0.0048654918,-0.0022078499,-0.0061307037,-0.0054166038,-0.000391979,-0.0025548774,-0.0006220216,-0.006440782,0.0042673144,0.00023842226,-0.002779397,-0.0046934397,0.0020480053,-0.0001143437,-0.00034898752,0.0011335725,0.0019550826,-0.0020878452,0.003247572,-0.010239268,0.00327137,-0.0019950122,0.0029128422,0.0008556661,0.0028335385,0.0028787928,0.00078586774,-0.0032596027,-0.004988575,-0.0006744339,-0.0024605792,0.004277189,-0.0033296465,-0.0021921375,-0.0002683178,0.00075489655,0.00011990892,-0.0019652324,0.000868185,0.003662935,0.0010731611,-0.0042020865,0.0004087354,0.0021610502,-0.0031728148,0.0045995284,-0.004123695
ADGRF5,0.0016473356,-0.00024992842,-0.0018034182,0.00038835546,-0.00019981172,-0.0002045832,-0.0003355768,0.0008920925,0.0012093998,-0.0022840677,-0.00039554734,0.0010025984,8.056836e-05,0.0005735362,-0.00032767997,0.0002637712,-0.0011712465,-0.0015902398,0.0005809724,-9.1578056e-07,-0.0005515446,-0.00046030886,-0.00087246805,0.0025232818,-0.00048519162,0.00058889185,0.00020531086,0.000171277,-0.0027998707,-0.0013269174,-0.000974469,0.00069176994,-0.00012481213,-0.0041933153,-0.00084746064,0.0003760815,-0.0018604255,0.0007699607,-0.0011521678,-0.00012613312,-0.0007405974,-0.00041691237,-2.0336147e-05,0.00010243448,-0.00044636455,-0.0011228889,-0.0008007179,-0.00037782238,0.0017145735,0.0014218667,0.001100326,-0.00069525384,-0.00063337473,0.00063863077,-0.00096888933,-6.7937784e-05,-0.00091783033,0.00027995463,-0.0019039368,-0.0006191044,0.003169452,0.0017662613,0.0013899306,-0.0026878451,0.0008066963,-0.0012665346,0.0014729027,0.00062229706,0.0009338272,0.0008499277,-8.213121e-05,-0.00014076463,0.0018907407,-0.0010782017,-0.0005598514,-0.0005473305,0.000424045,-7.669146e-05,-0.00016757727,-0.0010191138,0.0017754072,-0.0019863585,0.00027958327,-0.0034601353,0.0030630017,-0.0009401311,-0.0007032324,0.00016995614,0.00025657058,-0.001684336,0.0020016702,-0.00061169383,0.0011107688,-0.0007327314,-0.001208995,-0.0005881461,-0.0010771581,-0.00044183468,-0.0013585065,-0.00021000193,-4.9916594e-05,-0.0001956026,0.00071735407,0.0011654024,-0.0013610254,0.0014109402,-0.0017389178,3.5279903e-05,-0.00083190727,0.0011791592,-0.0024040183,0.0012497002,-0.00045672338,-0.00085631426,-0.002102264,-0.0006346908,0.00045078865,-0.0009114066,-0.0006366861,0.00027094086,-0.0013854778,-0.000296543,-0.00062421104,-4.0339422e-05,-0.0016622086,0.00035272492,-0.001247664,0.00048619424,-0.00019398442,-0.0008876907,0.0005446499,-0.00190697,0.00036235896,0.00022400309,-1.1034622e-05,-0.00091862556
ADGRG3,0.00023479457,-0.00018833578,-0.00034841022,0.00034808222,-0.00054821966,-4.7752477e-05,0.0006137057,2.3157797e-06,0.0011436016,-0.00056336063,-0.0003568297,-0.00047050166,0.001078121,0.0008266234,-0.0002784913,0.0002754727,-0.0014880213,-0.0007641603,0.00020447331,0.00018624208,1.6588869e-05,-0.00060092687,-0.00067171553,-0.0013935696,0.00032141557,-0.00089410145,0.0004275885,0.0006616597,6.563247e-05,0.0011607785,0.00023382885,-0.00016364876,-0.0010736282,-0.0005357393,0.0019499392,0.0016949568,0.00051974435,-0.0019392129,-0.0012248359,4.8590726e-05,-0.00053650164,-0.00023900937,-0.0013522893,0.0013700254,0.00067843345,-0.00024366306,-0.0003897911,-4.5987734e-05,-0.0007653717,0.0019182146,0.00074278284,-0.0019060028,0.00081167085,-0.00031305873,0.00051342207,-0.0003235975,-0.00055219076,0.0005580039,-0.0020428738,-0.0010257205,-0.0006857648,0.0009228101,0.00043083416,-0.0007855992,0.00023976044,-0.00032648921,-0.00087036705,-7.4961154e-06,-0.0013356523,-0.0005228032,-0.0009851066,-0.0006472106,0.0024117138,-0.00039208477,0.00038688473,-0.001053715,-0.00073399325,3.440699e-05,-0.001044436,0.0006517758,-6.4134e-05,-0.00010068985,-0.00096675067,0.000642076,0.00058061787,-0.00054757844,-7.8456986e-05,0.0008039162,-4.24654e-05,5.3084e-05,0.0020056136,0.000115204355,0.0004445546,6.142775e-05,0.0012693438,0.0005704415,0.0007568871,-0.00023606303,0.00056064717,-0.000617129,0.001071324,-0.0010752003,-9.860651e-05,-0.000663633,0.00019352569,0.0007263659,-0.00049576326,-0.00051967776,-0.00089528825,0.001831976,1.2329639e-05,-0.0005886116,0.00045647062,0.0014149313,-0.0013980165,-0.00053154264,-0.00046129944,0.00012006122,0.0005859706,-0.0008033608,-0.0011370903,-0.0005728871,3.481189e-05,-0.00022077162,-0.00079041824,-7.926242e-05,-0.00017669862,0.00094894646,-0.00094122894,-0.00025879088,0.00013075072,-0.0010642888,-0.0008207457,-0.00068495545,0.00073692837,-0.00020990448
ADGRL2,-0.0013103462,0.001148875,-0.008214785,-0.0017941954,0.0011420076,0.0006103826,-0.003759156,-0.0005024252,-0.002157614,0.0070919665,-0.002710185,-0.0011037037,-0.00038919956,0.0002754023,-0.00054682547,-0.0004560564,-0.005593305,-7.9211946e-05,-0.0028918197,-0.001067393,0.004134442,0.0004658895,0.0011339602,-0.0018517907,-0.0058937683,0.0034924925,0.00096726156,0.006505689,-0.00035687804,0.003227248,0.0006587612,0.022098746,0.003772293,0.0010664198,-0.001471791,0.002477733,0.0006371171,0.0027465166,0.0014215,0.004015997,-0.0009865119,-0.00085858133,-8.2699145e-05,-0.000195113,0.001306155,-0.00333357,0.0010926168,-1.598428e-05,-0.0044473265,-0.00076411775,-0.0058190646,0.001822269,-0.00058840675,0.003731193,-4.1699812e-05,0.0021137472,-0.0024937352,-0.00060061965,-0.0048374007,-0.0023336418,0.004666346,0.00029082727,0.0047499035,-0.0028773334,2.4616376e-05,0.004552753,-0.0028401478,0.0007413541,-0.0001878768,-0.0015668225,-0.004080273,-0.0033912861,-0.00035883012,-0.0019683172,-0.00024931578,0.0016941915,0.0008260516,-0.0023405503,0.0003059226,0.0005957136,-0.002432188,-0.006514801,-0.003692151,-0.0017790993,0.0058778967,-0.0054508364,-0.0014140884,-0.0066547696,-9.013824e-05,0.004872869,0.0006939712,-0.004481854,-0.0014329889,0.00033108977,0.005626064,0.003962693,-0.001347077,0.0044456474,0.00033130628,0.0030540752,-0.0049036695,0.0056152497,-0.0013831962,0.00036670483,-0.0021735106,0.0014189671,-0.0021849878,0.0013176033,-0.012935879,0.0022375528,0.0028700426,0.002318826,-0.0006430088,-0.0013314603,-0.0038259146,-0.003382981,-0.0017965196,-0.0058098002,0.0012271524,0.0025252604,0.0041787936,-0.003271131,-0.0040269564,0.0006024919,0.0018127708,0.0007956903,-0.002184096,0.0034328685,-0.0044437945,0.0005652388,-0.0048694815,-0.00062300527,0.0010664784,-0.0013329327,0.00053602166,-0.005991391
ADGRL4,0.0024413161,0.0016965708,-0.002661411,0.0022992594,0.0017267285,0.000642296,-0.00042808114,0.00044046072,-0.0014156792,-0.0004303198,-0.0010153895,-0.004098,0.0015662633,0.0041567744,-0.0047852383,0.0034326564,-0.0075488524,-0.0010969208,-0.0017522566,-0.0008199994,-0.005317842,-0.004018877,0.0014221792,-0.00059274683,-0.00032427878,-0.0038919435,-0.0054244706,0.006740644,0.01163652,-0.0060123606,-0.002411107,-0.0013913864,-0.0054659443,-0.0016146251,-0.0023631249,0.0038549853,-0.0030426392,0.003984593,-0.006040149,0.0004942699,0.011338271,-0.006966371,-0.0113373855,0.012227373,-0.005053801,0.002407286,-0.0012636931,0.0008745567,0.00011052494,-0.0047173086,-0.004203086,0.004042165,0.0028053524,-0.0040589166,0.011289441,0.0042005554,-0.009228579,0.0056094998,-0.005609977,-0.0015854368,-0.0074545676,0.0038176503,0.002047344,0.0013507627,0.005019971,0.0058893324,-0.0028169875,0.00010539721,-0.0025181505,0.0038027023,0.00092195335,-0.0048934147,0.0007999587,0.0005047549,-0.0026982767,0.0026773373,-0.009701981,0.0072853207,0.0069304565,-0.0023357507,0.0011805778,-0.0038315484,0.0038958122,-0.0014232722,0.0008957918,-0.0009222999,0.0068222824,-0.0077549396,-0.0066776704,0.0040868237,-0.007579417,-0.0034624683,-0.00017054557,-0.0017569065,0.0044451635,-0.0034798156,0.003763307,0.008016358,0.0015689328,0.006867571,-2.3063347e-05,-0.0060557816,-0.0020651238,-0.005312135,-0.011461451,-0.0028853691,0.0052298564,-0.0016468313,-0.0006160602,0.0005833135,-0.010645974,0.0027011104,0.009112584,0.004113336,0.002955723,0.004381791,-0.005259202,-0.0021261456,0.000117473115,0.010976573,-0.0028369126,-0.0008541217,-0.0022097484,-0.0074371397,0.022447526,-0.015280913,0.0022955756,0.009833603,-0.013288506,0.013691907,0.0059587075,-0.027790815,0.018502794,0.011555085,-0.030064166,0.0007110697
ADGRV1,0.0018807647,-0.0016293848,-0.019030608,-0.00059789186,-0.00011049292,-0.0020009754,-0.0018139408,-0.0010290905,0.00049893843,-0.00050984416,0.0021361543,0.0025083467,-0.0022154748,-0.0015531186,0.00571568,-0.00022686408,-0.0006507358,0.004726746,-0.0003007494,0.0022168537,-0.00062685343,0.0009254376,-0.0054877955,-0.0013682096,0.00064793904,-0.002145598,0.0023353738,0.0009764727,-0.0031559493,-0.00091778504,-0.00052582216,0.03283356,0.0013527303,0.0022993316,0.0012389875,-0.0021281948,0.004047788,-0.0022687623,0.009243743,-0.0007096028,-0.008999445,0.002314687,0.005818579,-0.005411685,-0.0009738429,-0.00526589,0.001313216,-3.6832793e-05,-0.00029536124,-0.0043030577,0.0035320057,0.0046552992,0.0010361967,0.002838619,-0.0040317057,0.0022119873,-0.0015603892,0.005187225,-0.00079093094,0.003030617,0.0014069731,0.00055921,-0.0048538037,0.0025279268,0.0017647247,9.971342e-05,-0.00430793,0.0036645872,0.003106649,-0.00049185066,-0.0042525106,-0.00046451789,0.00073967694,-0.0010394584,0.0054775975,-0.0024763506,-4.6916844e-05,-0.0022790437,-0.0010982954,-0.0027425769,-0.002033976,-0.008138453,-0.0046362695,-0.0016844368,0.0026300703,-0.00050360314,-0.0020878557,-0.0027325787,0.0037083684,0.00059541315,0.003383246,-0.002039987,-0.0040265494,0.008052452,-0.0022090713,0.0024867724,-0.0013645875,0.0008630422,-0.00053000683,0.0026759633,-0.003287122,0.0046805893,0.00026475484,-0.00053461763,-0.0005013518,0.0035366826,-0.0017953649,0.0062881378,-0.0064911293,0.005599429,0.0030975176,-0.00088292285,-0.0031719096,-0.0015765288,-0.0046681287,-0.006700732,-0.0012852417,-0.0018643353,0.00014969087,-0.0019750397,0.00316772,0.0005582899,0.000948465,0.0034092716,-0.001979394,0.00040022074,-0.004561397,0.00016292387,0.0031242208,-0.00045951337,-0.0063581,5.2102343e-05,-0.00020836777,-0.0042378264,-0.00030068643,-0.006107638
ADH1B,-0.0017308187,-0.0009952027,0.0027388078,-0.0007782204,-0.00030194304,5.9338156e-05,-0.0014178632,-6.4703104e-06,-0.001021502,0.0006531753,-0.00035753447,-0.0008707211,0.00032535451,0.0009198816,7.0796756e-05,-5.7018853e-05,0.0014563476,0.0021970607,0.0015927836,0.00097580015,0.0007022672,0.0020947228,-0.001168282,3.0615895e-05,0.0015734818,0.00093030516,0.0012661344,-0.0030093798,-0.0014189067,0.0010368989,0.0010479095,-0.0003882436,0.00040602376,-9.308401e-06,0.000933636,0.00075381016,-0.0005724604,-0.00020397057,0.0010708852,0.0001686546,0.00012632023,-0.0014687171,-0.0007687507,-0.00085895107,0.00054091937,-8.1356375e-05,0.0019486429,0.0007347328,0.0006709341,-0.0011847015,0.00084863394,0.00018408336,0.001283303,0.0015724783,-0.0024772438,-0.0018467709,0.0009311688,0.0008380517,0.0004524551,0.0013998124,0.001158591,-0.000857264,0.0018750002,-0.001501137,0.00056156155,0.0012235931,-0.0027870594,-0.0015525705,0.0013712776,0.0013544193,-0.000748624,-0.0014808981,-0.00034345113,0.00015851407,0.0010889276,-0.0011122525,-0.00030626272,-0.00053856935,0.00030512383,0.0005986906,-0.00085954496,-0.0006706546,-0.0013707514,-0.00016541289,0.0010926718,0.00022364163,0.00091689435,-0.0021541915,-0.0013945517,0.0011128453,0.0011160453,0.00065402273,-0.00022914415,6.0641455e-06,-7.698333e-05,-0.0005005419,0.004894621,0.0006651311,-0.0004316409,-0.00054216536,0.00043387822,-0.0005600426,2.1001879e-05,0.0003648354,-0.0007618385,-0.0008384023,0.0014781092,-0.00093467964,-0.00093076064,0.00031377017,-0.00015420253,0.0002547746,0.00021996019,-0.00038144938,-0.0006589371,0.0007228477,0.0005413346,-0.00097220286,-0.00035987538,0.0009295135,0.0007750609,0.00018784481,-0.0038545718,-0.001437309,0.0005697981,0.0011283493,0.0034682318,0.00369912,-0.0019136043,-0.0007794283,0.00044015815,-0.0007136092,-0.000549083,-0.0006523185,0.0010868204,-1.459075e-05
ADM2,0.0003230252,0.00095008966,-0.00097182085,7.662612e-05,0.000210459,0.0007516264,-0.00029631934,0.00014076859,0.00038906455,-0.0008312891,-5.0093813e-06,0.0017651115,0.0020307112,0.0005763916,-0.002333918,-0.0019323775,-0.0029279517,-0.0014997042,0.0023560552,-0.0012612541,0.00028406287,0.0029027797,0.0021364419,-0.0041098334,0.0009644895,0.0010517692,0.0023928538,0.00029550603,0.0032426598,-0.00024625965,0.0008006702,0.0002051788,-0.0021849924,-0.001518627,2.919969e-05,-0.00045693788,0.00080505834,-0.0005680231,-0.0007393017,-0.0018803427,-0.0006405812,0.0025238683,0.0017369561,-0.0008610613,6.829253e-05,0.0052253767,0.0018218538,0.00053333415,0.0016166437,-0.004684507,-0.0038667428,-0.0010293231,-0.0007448101,0.0010839759,0.004128785,-0.00041364186,0.0023288392,0.0021782676,-0.0007883458,-0.00091221527,0.0022531184,7.151694e-05,0.0054510115,0.0037945283,-0.0029634922,-0.0016776847,-0.0039338614,-0.00066804315,0.001462162,0.0017899628,-0.0017832107,0.0023525516,0.0016644899,-0.0026412788,-0.00092022674,-0.00027865317,0.0017297349,-0.0014703419,-0.00031082056,-0.0024003945,-0.001428287,-0.00023821658,-0.00093344564,-5.105844e-05,0.0048955446,-0.00093572214,-0.0004106429,0.001834965,-0.0006513596,0.0039078784,0.001064632,0.00212823,0.0012087555,-0.000707375,-0.0043629576,0.000955252,-0.0020598532,0.0011285729,-0.0013082555,-0.0020460372,0.00073955103,-0.0018401991,-0.00034828795,-0.0019804703,0.002667651,-0.000120514014,-0.0020570809,-0.0005047569,0.00034498275,-0.0016588405,-0.0035534184,-0.0029724482,-0.0011552848,0.002957287,-0.0008038338,0.0013274789,-0.0003801042,0.00049849716,-0.0011876838,-0.002286713,0.0015996799,-0.00056169933,0.003478568,-0.00077545806,-0.0021205232,-0.001543506,0.0016344629,0.0004345042,-0.0017066371,-0.0014868374,-0.00046781878,-7.62411e-05,-0.0014942245,-0.00057247083,4.8436294e-05,0.00065501296
AFF2,0.00046002405,2.3637349e-05,-0.00663865,-0.0008101227,-0.00042848338,0.001852971,-0.0008276394,-0.0005868049,-0.0012745794,0.0021281103,-0.0006707445,-0.0014029777,-0.00042501287,0.00011666376,0.00064026896,0.0011959786,-0.0047490555,0.0010045125,-5.1060746e-05,-0.0009807585,-0.0011721145,-0.0020149818,0.00041956507,-0.004719708,0.0016389524,0.0010535864,0.00059737073,-0.00038877805,-0.0014259231,-0.005637481,-0.0014383644,0.01792621,0.0011650086,0.001974588,-0.0043588146,0.0005297394,-0.003342739,0.0039893654,-0.0026105293,0.0021170338,0.0016015247,-0.0007587754,-0.0015605543,-0.0008399231,-0.0014115961,-0.004857051,-0.00016065354,-0.0007538416,-0.000659876,0.003324224,-0.00097553007,0.003613899,-0.0010106985,-0.001458894,0.0025801337,0.0011695995,-3.682454e-05,0.00079327036,-0.002242758,-0.0011474285,-0.0017225828,0.0024036486,-0.00012733955,0.0031685517,-0.0024531684,-0.001022476,-0.0014177337,0.0013362829,0.0020278438,-0.0023834384,-0.004804281,0.00022562448,0.0012358124,0.0020730372,-0.0011646326,0.0012773576,0.0006517295,-0.002148147,-0.0035293761,0.00021542521,-0.0016005747,-0.0064970516,-0.003944455,-0.003668192,0.0020024357,-0.001496095,0.002861099,-0.00040253508,-0.0011478867,0.0025464003,0.0064776167,-0.005044417,-0.0054687466,0.0013615373,0.002755405,0.00032287173,0.001050916,0.0018860081,-0.0053251726,-0.0028054535,-0.0019762649,0.0057953754,-0.00029683852,0.0016727066,-0.00068904954,-0.0058413534,-0.0020175236,0.00038997852,-0.010576223,0.0031898892,0.004247187,0.0016034495,-0.0024046523,-0.0037680292,-0.003233701,-0.0032300334,-0.0045167333,-0.001414012,0.0005239117,-0.0030784025,-0.0026308561,-0.004342043,0.00079474936,-0.003625265,-0.0028472652,0.0047180094,-0.004435345,0.0008925895,-0.0020096013,-0.00013997898,-0.0021137665,0.00041896876,-0.0016300305,-0.0011415702,0.00047596594,-0.0054009124
AFF3,0.00032227646,0.0015448657,0.0001283543,0.0015288978,-0.0007229914,0.0025998477,-0.0025122361,0.0016884955,-0.0017200125,0.002393601,-0.0017421904,-0.0023368404,0.0012571628,0.0020053142,-0.0035672793,0.002206594,-0.004315332,-0.0043158084,-0.0016482185,-0.0023539537,0.0033071546,-0.004532644,0.0037544842,-0.005084811,0.0023795902,-0.00023808058,-0.004213157,0.008106091,0.0006297261,-0.0010712056,0.0022697714,0.001439757,-0.00345017,0.00020453744,-0.0034725238,0.0049856366,-0.007828581,0.0066395197,-0.006103447,0.003546489,0.0037917218,-0.0035512436,-0.0071693975,0.009034942,-0.0029378226,-0.002158473,0.003285109,-0.0060291784,0.0042051068,0.008320455,-0.00064353674,0.0027333968,0.0010194171,-0.0037488148,0.0071326266,-0.0011157426,-0.002999515,0.0038797015,-0.004945509,-0.0037064028,-0.0049964455,0.0049733357,0.0008586271,0.0025686559,-0.0002580009,-0.0022125961,0.0042599756,0.001155937,0.0014683265,0.00011963418,-0.0013197395,-0.0026218141,0.0034404572,0.00011592422,-0.0051522106,0.0018968397,-0.0023682045,0.00478571,0.0048662727,-0.0031698914,0.004143438,-0.0030514624,0.0006838682,0.0007372617,0.0012428573,-0.0015104817,0.0005018603,-0.0003467465,0.00018157622,0.0014387275,-0.0052126213,-0.00034656035,-0.008264286,-0.002517909,-0.0007460266,-0.0029912477,0.0026789943,0.0030710588,-0.003584037,0.0046792,0.0005344589,-0.0019033927,-0.00083309755,-0.0006483034,-0.010579981,-0.00039357692,0.0074991826,-0.0073765963,-0.0056588785,0.00040239908,0.0032974647,-0.0007239304,0.004897523,0.004428562,0.003050939,-0.0016286229,0.0030675144,-0.0057902983,-0.000427256,0.00633453,-0.0037996226,-0.002154252,-0.0029843748,-0.0044303397,0.009153916,-0.0048135994,0.002148033,0.0074463314,-0.009922285,0.010133853,0.003079244,-0.011213155,0.009188009,0.006078338,-0.016661277,0.00033514499
AGBL4,-0.0027578436,0.0007105407,-0.00021086526,-0.00060767046,-0.00053418026,-0.00038175553,-0.0031005407,-0.00087447517,-0.0010933537,0.005895652,-0.0013371893,-0.00024727927,-0.0017404293,-0.0016010551,0.0005945607,0.0017128733,-0.0064676465,-0.0064200894,0.00030974625,0.0049943314,-0.00307657,0.0016616307,-0.0004800167,0.0022155757,-0.0071868626,0.00034091188,0.002667518,0.0018233493,-0.006230609,-0.00021188152,0.0007439256,0.011555156,0.0022607083,-0.0022536286,-0.000107649015,0.003395278,-0.0014101663,-6.506398e-05,0.0011900971,0.0015751356,0.0019723368,0.003424743,0.0022262363,-0.003025176,0.0008345485,-0.0015357439,-3.1220836e-05,0.00714799,-0.00029151884,0.002750231,0.0018808438,0.0025527722,-0.0011383466,0.0044488837,-0.0015686906,0.0019297446,-0.0006179117,0.0013639384,-0.0012730893,0.0034919356,0.003073093,-0.0039823684,0.0010300472,-0.0021157474,-0.0055384464,-0.003325504,-0.0019351994,-0.0013335855,0.0011209266,0.0018660743,-0.0040654256,-0.00134016,0.00055314234,0.0012516015,-0.0017090712,-0.00017242119,-0.0045991503,-0.0003787769,0.00219277,-0.0006836992,-0.00465436,-0.0060495795,-0.00017273481,-0.0011635069,0.0024032458,0.00062520197,0.00042653983,0.0005096714,-0.0010614218,0.0027438449,0.0052492386,-0.0025144017,-0.00023851849,0.00037576907,-0.00026581745,0.0032776457,-0.0011613698,-0.0003187052,0.00112623,-0.0043009315,-0.0001048657,0.0017483549,-0.0014042656,0.0056745275,-0.00037060352,0.0011309959,-0.003076711,-0.0012057128,-0.0041361474,0.0027561828,0.004315765,0.00096925674,0.0030506176,-0.0022947832,-0.0014536565,-0.000986896,0.0036406599,-0.0018774085,-0.002720707,-0.0024662195,0.0014999054,-0.0031332439,0.0002806724,-0.0064753518,-0.0019645907,-0.0029488,-0.0028506983,0.00076822523,0.001711402,0.0006362863,-0.0004454155,0.002874837,0.0009378577,-0.0021754715,-0.003097622,-0.0032371047
AGRN,0.0019810365,0.00014360511,-0.007207492,-0.0010016883,-0.0013190461,0.000121453515,-0.0017581212,0.0014375999,-0.0011547075,0.00097654294,-0.0009223743,-0.0012145502,-0.0011797505,0.00055843557,-0.0012519605,-0.00064454664,-0.0012386338,-0.00069579406,0.0028475758,0.00020136498,0.0014365023,0.0036225033,-0.002408593,-6.4244654e-05,0.0009943405,-1.606901e-05,0.0008405164,-0.00049810664,-0.005228898,0.0011732975,-0.00034991468,0.0076389015,0.001912731,0.00086987065,0.0021868937,0.0031909514,0.0008511581,-0.00088561536,-9.066615e-05,0.0019485658,7.1850576e-05,0.0004043857,0.00011871171,-0.0011855431,-0.0011117797,-0.0025507868,-0.0021240765,-9.90739e-05,-0.0043535903,0.001557449,-0.00079023227,0.001852089,-0.0018912961,-0.0016772456,-0.0015337326,-0.0026916515,-0.0023478523,0.0012334837,-0.00030334698,-0.0020211719,-0.00024154878,-0.0030274785,0.0018034873,-0.00046487173,-0.002809123,0.0018621513,-0.00243825,-0.000993925,0.000717114,-0.0021326607,-0.0013103791,-0.0007624622,0.0011917406,-0.0011834817,-0.0010942798,-0.0012606548,-0.00026093065,-0.0021304763,0.0009608817,-0.001240111,0.0004600137,-0.005749119,0.004100502,-0.00090618705,0.001688252,-0.0011079017,-0.0011349255,-0.0021134596,-0.003228988,-0.0020360756,-0.0033800418,-0.0007404748,0.00048630484,0.0024228801,-0.0020212207,-1.49445905e-05,0.0024027042,0.0014784453,-0.00038899507,-0.0035895817,-0.0029207976,-0.0014588637,-0.0005466935,-0.005660787,-0.001833992,0.00045420113,0.0017765218,-0.00041540677,-0.006714559,0.0017062515,0.0036856257,0.00026580377,0.00091521227,-0.0018037512,-0.002971789,-0.0013212188,2.7908352e-05,0.0010670848,0.0030869357,-0.0016829981,-0.0028273894,3.2158616e-05,-0.004969469,-7.5827964e-05,0.0019046384,0.002361504,-0.0010709363,-0.0018918402,-0.00088535185,-0.0007091241,-0.0017776416,0.0008133668,-0.0010786981,-0.0021279864,0.0010724631,-0.0023645856
AGT,0.0005398582,-0.00076934195,-0.00050332193,0.00059655803,0.00058750866,0.00013725091,-0.0012597633,0.0006338392,0.00014404362,-0.00021446469,0.0007047506,-0.0003387319,0.0004368209,0.00086849026,-4.9651564e-05,1.241883e-05,-0.0005864736,0.00038512328,2.4214862e-05,-0.0006517818,0.00075595663,0.0015378488,-0.00083032827,-0.00018021434,0.0019754053,-0.00016784354,8.865548e-05,-0.00055723044,-0.0001632745,-0.00013784565,-0.00019143464,-0.0005490948,-0.00042914134,-0.002025675,-0.00049850676,-0.00023364142,-0.0019826884,1.7728004e-05,-0.0008503497,-0.00052262144,0.0019983412,0.00064102147,-0.0012985637,-0.0011304956,0.0007689218,0.00050271885,0.0016941365,0.0014839676,-0.0008600178,0.0006738082,-8.040914e-06,0.00047834474,0.0011647124,0.0006061922,-0.00092752423,0.001307664,0.000955947,0.00010096294,-0.00030717422,0.0018651258,0.0017315218,0.0023686343,0.002524265,-0.0018821147,0.0011276447,0.0011053736,-0.0020691515,0.00076072745,0.001811944,-0.0017151791,-0.00032053882,0.00059263676,0.0003931029,7.814749e-05,-0.00032170748,8.6975604e-05,0.0009464578,-0.0004895465,5.7713783e-05,-3.917253e-05,-0.0009749484,0.001847725,0.00029314097,-0.0007627026,0.0016323052,-0.00052340503,-0.00064494275,-0.0020947214,-0.00019098217,0.0013995698,-9.560783e-05,0.00052289944,0.00015637682,-5.8350124e-05,0.001913561,0.00071669265,0.00040997195,0.0012991646,0.0017538544,-0.0015862434,-0.0013852066,-0.00037107358,-0.00011243146,-4.131436e-05,-0.00011338058,0.0008177018,0.001138694,-2.4016905e-05,-0.0018578412,0.00064785336,0.000930391,-0.0002456747,-1.7783017e-05,-0.00027434417,-0.00018029245,-0.00078655424,0.00025749402,2.7627679e-05,0.0010180911,0.0007099847,-0.00078197994,-0.0016492452,-0.00017068267,0.00081086543,-0.0010824334,0.0008073623,0.00075353484,0.00012167206,-8.315578e-05,0.0013785013,-0.00015206751,0.003438051,-0.0018639204,-0.00014963874,-0.0018578653,6.4981425e-05
AHDC1,-0.0023324997,3.4232726e-05,-6.462952e-05,-0.0013048317,-0.001660963,4.2160147e-05,-0.00348785,-0.0006005364,-0.003697881,0.005565105,-0.0011124633,-0.0014377744,-0.00094122725,-0.001166576,-0.0008908986,0.0021584178,-0.0013083565,-0.000299636,-0.0007615418,-0.002336559,-0.0012839205,0.0009487827,-0.0016460977,-0.00074243743,-0.0016051348,0.0027734302,0.0009228839,0.0010839374,-0.002471512,0.0012619583,0.0020512796,0.005669281,0.00225838,0.003726553,-0.0006759021,0.003172879,0.00055625115,0.00016188284,-0.0001135333,0.0019416204,0.002459014,0.0008768307,0.00057139626,0.0016955192,-0.0002121963,-0.0012033294,0.001464486,0.00074805523,-0.003392262,0.00074168964,0.0023896263,0.006122323,0.00029171247,0.0023400295,-0.0005083486,-0.00026452044,-0.0012827379,-9.091878e-05,0.0017217152,-4.7514743e-05,0.0026144374,0.002016,-0.0006606299,-0.0011382892,0.0011758674,-0.00021265724,-0.0009626503,-0.0005773039,0.00017817543,0.0021978423,-0.0005387743,-0.0031199835,-7.3357216e-05,0.00089336146,0.00057948823,0.0006710391,0.00047676056,0.0010881542,-0.000693586,-9.693495e-07,0.00032130213,-0.005498022,0.0006313626,0.0013159873,0.004892889,-0.005102679,-0.0044521745,0.0007512981,-0.00020469016,-0.001223524,-0.0036589238,-0.00053114083,0.0019732674,-0.002627331,0.0017140559,-0.00053104025,0.00025462246,0.001897941,-0.00028517717,0.00025079455,8.220956e-05,0.0038196205,-0.002300669,-0.0054125623,0.00028459667,0.0029171214,0.0018050976,-0.0030903437,-0.006896656,-0.0025604777,0.00085470686,0.00396533,-0.0019588033,-0.00049555383,-0.0018973054,6.815038e-05,0.00017732858,-0.00039755955,0.0022883597,0.0033879122,0.002025015,-0.0036843454,-0.001497116,0.0035078537,0.0006871769,0.0026797133,-0.002173683,0.00018337605,-0.0016719328,-0.003336298,-0.00068495434,0.0015464872,-0.0024357373,9.98862e-05,-0.004234948,-0.0020659755
AHNAK,-0.00027081548,0.0018305195,0.0056786085,-0.00076047325,0.0012150315,0.00022439491,-0.0036523615,0.0024146787,-0.0037665109,0.006121539,-0.0024578124,-0.0032448699,0.0037973544,0.0024760698,-0.0077260183,0.0017197148,-0.006340892,-0.0047848127,-0.0036052023,-0.001356337,-0.0024436684,-0.00026099736,-0.0010273996,0.0014715254,-0.0015897672,-0.0005291873,-4.667637e-05,-0.003505048,-0.00032208324,0.0024324702,-0.00079270743,-0.0035831,0.0029839333,-0.0017370096,-0.0014154069,0.0039608716,-0.0029838379,0.002915158,-0.011480233,0.0041008685,0.00923336,-0.003939427,-0.0031035864,0.008838303,0.00029981293,0.002296773,-0.0022888284,-0.0005857866,-0.0047058295,0.004564877,-0.0062885797,-0.002292916,0.0061117797,-0.0007923207,-0.0017737676,-0.00016042318,0.008018026,0.0016918753,-0.0053875153,0.0033909285,0.00023501749,-0.0006489979,0.0018041448,-0.00025701334,-0.0049432735,0.0013479929,0.004755063,0.0028042083,-0.005619788,0.00020586967,-0.0027014893,-0.002732668,0.0008535245,-0.0008352642,-0.0023631882,0.0036700338,-0.00039219344,0.0021155034,-0.0014983972,0.0024980293,-0.00071209215,-0.003502005,-0.0010089466,-0.0021401534,0.007493025,-0.0019240223,-0.0010197359,-0.0026724117,0.0011269298,-0.0017007847,-0.00033751785,-0.003128973,0.0034946296,-0.0017540135,0.0025691208,0.005478188,0.0011042178,-0.00032946188,-0.0005936155,-0.0040526767,-0.002760562,0.00035009853,-0.0015250558,-0.0041349963,-0.0041335276,0.0029608007,-0.0011841713,-0.0027466426,-0.007188304,-0.00017956446,0.0012900608,0.0019367926,0.00084962754,-0.0005677008,0.0018869651,0.0003146593,0.0007493202,-0.002168488,-0.002227918,0.0047337,0.001503643,-0.0031346974,-0.0030253523,-0.0027633244,-7.784115e-05,-0.00087928015,-0.0040742173,0.003062095,-0.0024129807,-0.0003570907,0.0023279928,-0.005313089,-0.0016422671,0.0061468435,0.0018009364,0.0011121192
AHSP,0.00053320656,0.0012554573,-0.0009782775,-0.00031125627,-2.104379e-05,0.00025630838,0.00045245016,0.0009107729,0.0006544272,0.0006306609,0.00063441327,0.00075244514,0.0011535625,0.0002814422,-0.00172823,-0.00012200745,-0.002871874,-0.002254279,0.00061884854,-0.0017290965,-0.00047453464,8.73517e-05,0.00039903366,0.001623014,-0.0012240651,-0.00033544056,-0.00029990365,-0.00015875814,0.00055512594,-0.0013694759,-0.0008664706,-0.00012420496,0.00032670176,-5.5676224e-05,0.0010258058,-0.0011586508,-0.00091556873,-0.00041165305,-0.0015506888,-0.001088874,-0.0019578112,-0.00058703107,-9.7071046e-05,0.0025825975,-0.00036488433,-0.0012101112,-0.00045060014,-0.0013857357,-0.00012864315,0.0006023023,-0.00038535826,0.0002686987,0.00066048605,-0.0011272681,-0.00092901627,0.00068789534,-0.0007460418,0.0003168985,-0.0014111182,0.0011326126,-0.0012498088,0.00014947957,-0.00018367523,0.0005639087,-0.0001305108,-0.00067790225,0.000118299366,-0.0009983045,0.00040354516,0.00050176994,0.0002071876,0.0011522961,-0.0016413492,-0.00022691474,-0.00049793854,0.0015736059,-0.0020604385,0.0020474873,0.00096233387,0.0012593246,-0.001253327,0.0010326202,0.0005520566,0.0014972239,-0.0010930365,0.0034512505,0.00042040416,0.0019294742,-0.0011184238,-0.0011051818,-7.444457e-05,-0.001101383,0.0011501941,0.00046776858,0.0008484988,0.001429944,-0.00087975676,0.0010678826,-0.00016264989,-0.0015844378,0.00027777578,-0.00037168083,0.0016638897,0.00058097206,-0.0007921603,0.0018850679,-0.00086506706,-0.00022740471,-0.0013944985,-0.0011895093,0.00074349134,-0.00082020386,0.0024261149,0.0021996875,0.00020453178,0.00028603346,-0.0004567002,0.00028815778,0.0014348483,0.00037622693,0.00026421182,0.0008001993,-6.167536e-05,0.0008223838,-0.0011725643,-0.0005161336,-0.001041491,0.0013149597,-0.00023152113,-0.00060106226,0.002168252,0.00016396337,0.00022658736,-0.0020528696,0.00085266045,-0.0004739352
AIG1,0.0014806158,0.0004257063,-0.014315645,-0.0010965223,-0.00017197292,-0.0008168374,-0.0025218853,-5.0864543e-05,-0.00188463,0.0028540455,-0.00081484945,-0.0028333373,-0.0009608249,-0.0010789338,0.0007141989,0.0021848541,-0.005321521,-0.002279886,0.004762932,0.004184646,-0.001460554,-0.0007491202,-0.0023443443,0.0024740377,-0.0014490753,-0.0007331193,0.0018900553,0.0002280282,-0.0024165479,0.0014580059,0.001436593,0.028441126,0.002743269,0.0032547808,0.0008148967,-0.0021923285,0.0005142215,-0.0007356123,0.003960141,-0.0026874037,-0.00096845854,0.0011003326,0.0025196355,-0.0033914708,-0.0022009169,-0.0056036063,0.0029288996,-5.476307e-05,0.0013038414,0.00025322783,-0.0004392898,-0.0010398758,0.00015599898,-0.0016236203,0.0005921564,0.0017979484,0.0026751421,0.0015525945,-0.0019440101,0.001370455,0.00062301976,-0.0022597353,-0.0023379682,0.0024045354,0.0004485545,0.0032148536,0.0023857462,0.0013937854,-0.0036715374,-0.002366368,-0.0051160064,-0.00014239272,0.00036049078,-0.0025854628,0.0041589607,-0.0025753619,0.0027633137,0.006067281,0.0017959214,0.00062680314,-0.00043501396,-0.007461423,0.00061268907,-0.0036971667,0.0058374256,-0.0005167827,-6.238467e-05,0.0044678384,-0.0015042296,0.0012948589,0.003807015,-0.0051750857,-0.001170099,0.0028885403,-0.002200157,0.00094288914,-0.00060000573,-0.00023381773,-0.00023189395,0.0022136734,-0.0014013977,0.0060272026,-0.0003358007,-0.0021837512,-0.002378205,0.00086839544,-0.0007290527,0.0017309709,-0.009334559,0.005044915,0.006541241,-0.0004193224,-0.0009795744,-0.00068138243,-0.006365532,-0.0021902937,-0.00016012498,0.0004025231,0.0014977104,-0.0029560605,-0.0014181926,-0.0034113338,-0.0015386543,0.00038991356,0.0023043822,0.00472957,-0.005130516,-0.0020686851,0.004579014,0.00016368977,-0.006852275,-0.0009185185,-0.00021123639,-0.00228164,-0.0010575668,-0.00567275
AKT3,0.00045948994,0.0019295679,-0.008842053,-0.0021430817,0.0020649643,0.0016231384,-0.0019413381,-0.00014604193,-0.0013974976,0.0058041536,-0.00086409145,-0.0016781446,-8.350669e-05,-0.0008083137,-0.0018489532,0.0010905914,-0.0046517397,-0.0005145836,0.0025832565,-0.0025754548,-0.0029431651,-0.00069400185,0.0005873081,-0.003593694,-0.0040194667,-0.00096137193,0.0013671078,0.0005917581,0.0020723408,-0.0009111683,0.002951595,0.022957321,0.0022349602,-0.001129539,-0.0034122458,-0.0021780676,0.0012538217,-0.00089891587,-0.000702968,-5.5281613e-05,0.0026408266,0.0028321743,-0.0005192302,0.00071952335,-0.0023051058,-0.0017065954,0.00017834091,-0.00064688234,-0.0036844565,-0.000831093,-0.002929542,0.0027395124,0.00065785414,-0.0027500505,-0.0008335554,-0.0023718418,0.00033960078,0.003503426,-0.0048509724,0.0017091483,0.0029801775,5.492508e-06,0.0029251026,-0.003288827,-0.0005248117,0.0013395646,0.0019997125,-0.0011872776,0.00046534205,0.0030412546,-0.00091860956,5.0893446e-05,0.0018097765,-0.00093616603,0.0020727469,0.0022606705,0.0029134327,-0.00018313937,-0.001580164,-0.004460908,0.0023946853,-0.005181983,-0.004285104,-0.0020578897,0.00794354,-0.002317272,-0.00083274394,-0.0019177647,-0.003512538,-0.0031347324,0.0008672894,-0.005244425,-0.0015256928,-2.2192075e-05,-0.00043579354,0.0023677065,-0.0010074034,-0.003970009,-0.0028452158,-0.0034295744,-0.0020597428,0.0056564,-0.00056800194,8.44276e-05,-2.4534342e-05,0.0010222063,-0.000982332,0.003372561,-0.013833365,0.005379389,0.0009905873,0.0013653755,0.0027271756,0.00037777278,-0.0018259763,-0.0036776594,0.002023463,-0.0025538476,-0.0031669454,0.00015601398,0.00061736786,-0.0019124289,0.00039489966,-0.0018737463,-0.0041173412,-0.0048813093,-0.0072764265,0.0049170377,0.0009682602,0.003548832,-0.0050764317,-0.0032086545,0.0011176309,-0.0020978197,0.003924592,-0.0042008637
ALCAM,-0.0017040026,0.001573524,-0.0018020394,-0.0021364975,0.000923243,0.0016560605,-0.0033265285,-9.0470174e-05,-0.003594639,0.0075290217,-0.0011915385,-0.0015048321,0.00023215477,0.00034733248,-0.0017308258,0.0002805249,-0.00446856,-0.00015176504,-0.0009477591,-0.00074543233,0.0010583863,0.0013328826,-0.002697296,0.00036211163,0.0014097414,0.0029350184,0.002958229,0.00036190468,-0.0013002993,-0.0011581206,0.0014457972,0.01681327,0.0022802174,0.0008115184,-0.002948553,0.0014141027,-0.0035820315,0.0025192425,-0.004568879,0.0012837701,-0.0015647347,0.00024704073,-0.0016230156,0.00033178972,0.0036660272,-0.0027838224,0.00016616314,0.0021885065,-0.00064118387,0.00075419084,-0.0024053974,0.00076612574,0.004696125,0.0013952685,-0.0026912508,0.0010992478,-0.0051360703,-0.0032762217,-0.004053549,-0.0036420093,0.0007203871,0.0012461352,-0.0028926337,-0.0044292863,-0.0032679215,0.0007293575,0.0014847706,-0.002427326,-0.0012679434,0.002667825,-0.0045338394,-0.0062419283,-0.004120544,-0.00018623093,-0.0022224807,-0.00020368099,-0.0004514917,0.0016651981,0.0018682124,0.0033752092,-0.0005819416,-0.0050103664,-0.00018946793,-0.0042407173,0.008551057,-0.008173063,-0.00023619168,0.001094694,-0.0010111359,0.0012699981,-0.0007337538,-0.0052636154,-0.00026111264,-0.0025538383,-0.00077343744,-0.0031770896,-0.0026520495,-0.0018103026,-0.0046250685,-9.2570146e-05,-0.0067314617,0.009227822,-0.002774766,0.0014988559,-0.0010980766,0.0038495527,-0.0014541469,-8.9902846e-05,-0.014971433,0.0019243858,0.0031118463,0.0014439444,0.0002694016,0.0006445021,-0.0021145623,-0.0019668913,0.002056817,-0.002119586,0.0015919073,-0.00039370134,-0.0021996496,-0.0016206553,-0.0004645091,-0.005505232,-3.9891896e-05,5.3914882e-05,-0.0028135965,0.001694285,0.0005173703,-0.0008483376,-0.0031222382,-0.0012920152,-0.0007629889,0.0013222024,0.002812732,-0.0030297672
ALDH3A1,-0.0009782779,0.00055917265,0.001473269,-0.00031506823,-0.00043877235,6.127682e-06,-0.0006823285,-0.000190917,4.859619e-05,0.0010715305,-0.00014656612,-0.00045649178,-0.0010562849,0.00077734253,5.7394776e-05,5.623972e-05,-0.00089229044,-0.00042486936,-9.102148e-05,5.395155e-05,7.394255e-05,0.0009433165,0.0007066767,0.0003375461,0.00021613184,-0.00028607878,0.00049485127,-0.0006668309,0.0008441468,-0.00022644267,-0.00020381474,-0.00032891525,0.0006808028,0.00060942327,-0.0011565363,0.00052382593,-0.00037266605,2.6313308e-05,-0.0009766516,0.00036366258,0.0007540383,0.0017451831,-0.0003832307,0.00040435648,0.00066309277,-0.00045035646,-0.0006637404,-0.0004580022,-0.001839532,-0.00082173804,-0.00048234419,0.00024226152,-0.0001243435,0.00015214432,-1.1530643e-05,0.00078418205,0.00023715815,-0.0005976099,-0.00017966042,-0.001027039,-0.0012715035,0.0010091955,-0.00031965607,0.0004805682,0.0007289687,0.0003292645,0.0004697059,0.0006089507,0.0008038766,-9.929745e-05,0.00023310211,0.00018166834,-0.0009194248,-0.00030558105,-0.002135694,0.0013924246,-0.00047138403,-0.0004683771,-0.001939176,-0.0016161936,0.00023454131,-0.00094653654,-0.0011219529,-0.0011573754,-0.0005862606,-0.00020670371,-7.369221e-05,0.0011099989,-0.00016615636,-0.0011575755,-0.0027369068,0.0013217365,0.00037900367,-0.0008308951,-0.00041438933,-0.0010631707,-0.00074838597,-0.0024413364,0.0003295713,-0.0020153744,-0.0003903935,0.0005524001,0.0006683628,-0.000254827,-0.0007482341,-0.0005997594,0.00029081694,-0.00045530283,-0.00076404907,0.00025136195,0.0002738269,0.00044735594,-0.0015016721,-8.3053055e-05,0.00046406253,-0.00069058826,2.3283192e-05,0.0013383973,0.00025764195,0.00048355546,0.00049108727,-0.00067135785,0.00016489596,-0.00074773596,2.4693414e-05,-0.00013075987,0.00079513085,0.0007087539,-4.8107595e-06,-0.00022901803,0.0003209547,0.00085630856,-0.00025182974,0.00041112845,-0.00086477544,2.6014524e-05
ALPK2,0.0017686395,0.0011220765,-0.000685491,-0.00031468263,-0.00011145462,0.0015264486,-0.0020407254,0.0013759172,-0.00012313518,0.003959443,-0.0028521405,-0.002323507,0.0027695869,0.0021976014,-0.0029846055,0.0011121089,-0.0035709431,-0.0016055437,-0.0047986615,-0.0008177739,-0.0007161988,0.00020431029,0.0020065769,0.00097101345,-0.00091338466,0.0005833931,-0.0039956146,0.00044237584,0.0015338411,0.002679177,0.00051073666,-0.0033242295,0.0025816236,0.0005784697,-0.0028790752,0.0035035873,-0.0036345904,-0.0010199341,-0.0049308036,0.004734735,0.0031211209,-0.0031842545,-0.0054712514,0.004578173,-0.0013843514,-5.21771e-05,-0.0058088554,0.0065064393,-0.00030689608,-0.00033345594,0.00091249886,-2.554998e-05,-0.0024477777,-0.0005193214,-0.0019589267,-0.001136558,-0.0057305363,0.006251058,0.0006710469,-0.0024109238,0.00042232618,0.0012112253,0.0006058581,-0.0035697978,0.0057552396,0.0008102341,0.0019223536,0.0010695464,0.00384493,0.0010046518,0.00066537585,-0.0040975893,0.0025376223,0.0027376348,0.00012920555,-0.0017081832,4.2932163e-05,-0.003191524,0.0021083204,-0.0063070334,0.005556093,-0.0007263734,-0.002906764,-0.00025700458,-0.00085567316,-0.001281735,-0.0009495724,-0.0023817837,-0.0029497435,0.0029826392,-0.0028367075,-0.0045861728,0.0025833377,-0.0018840835,-0.0025848488,-0.00021430047,-0.0018201021,0.0011024213,-2.7644914e-05,0.0028063944,-0.001442389,0.003311058,-0.0047592493,-0.00464629,0.0018780949,0.0003588545,0.0008046021,-0.0011563116,-0.0047507784,-0.0020975624,0.0014794267,-0.0035263726,0.0025001527,0.002038306,0.0028319084,0.0038200773,0.0011466268,-0.003770563,-0.0020389312,0.011490951,-0.0066836337,5.4767184e-05,-0.0007642537,-0.0010526683,-0.00034930956,0.0011261608,-0.0038030627,0.0013424944,-0.0022723214,-0.0024656306,0.002683888,-0.0002583003,0.0028584201,0.0024786552,-0.005473959,0.00067185477
ALX4,-0.0009055797,0.0038698833,-0.002307178,-0.00069499743,0.005543625,0.009370624,-0.0020408635,0.0027036315,-0.0003208641,0.009853643,0.0025327855,0.0004902403,-0.00325582,0.0026281204,0.018210081,0.00869028,-0.030063935,-0.015484081,0.015859356,0.014773474,0.0013997339,-0.015800461,0.0087701855,0.01353199,0.03749988,0.030025497,0.0007096842,-0.001038157,0.013513744,0.036240797,0.013230336,0.00946729,0.0018729953,-0.025669353,-0.047844227,0.010575872,-0.01269531,0.0034106292,-0.03529116,-0.015141252,-0.0077009364,0.016619101,-0.014202879,-0.07619025,-0.028876718,-0.0055227047,-0.011322261,0.019420765,-0.011994296,0.0067570135,0.009553108,-0.009722305,-0.013670479,-0.0008149716,0.0068846857,0.0032729588,0.0014674114,0.0023559243,-0.021695498,0.0116867665,-0.022690337,0.022398649,0.0109626595,0.04115737,-0.008062071,0.0070289955,-0.03283166,0.011851053,0.07715992,0.035392173,-0.004451342,-0.002301595,0.023010286,-0.0033394948,0.07660096,0.015250009,0.0035536666,-0.008837875,0.008075309,0.09612346,0.05560726,-0.011066916,-0.010724631,-0.0076562827,-0.016662845,0.0109052975,-0.009136102,0.005556396,0.0042584264,-0.041867845,-0.033097517,0.0018735246,0.00013529861,0.015147784,0.023049926,0.0035263482,-0.005067828,0.0040961294,0.03891276,0.014706851,-0.009178596,-0.011733633,0.019727053,0.0015097631,0.0066279373,-0.003049186,0.0025115814,0.008026967,0.028870296,0.035665702,0.017536229,-0.027163122,0.024591528,0.11446145,0.049255643,-0.043417867,0.0057513146,-0.01920001,0.0072018798,0.07091053,0.012265317,-0.0006146999,-0.004840328,0.0026174344,0.021322647,0.012735978,-0.019592606,-0.0052319625,-0.039265152,-0.022713829,0.00037571925,0.031632066,0.024305876,0.11592831,0.09306051,-0.0019239971
AMOTL1,0.0016772615,-0.00010887501,-0.0033555387,-0.00093593966,-0.0011181686,0.0005138004,-0.0035874709,0.0009148352,-0.0010924562,0.0036397052,-0.0011841386,-0.0016761363,0.0016993879,0.001386681,-0.003776614,0.0014580779,-0.005370756,0.00047098746,-0.0026153969,0.00071519765,-0.00020923346,-0.00017911615,-0.0017899259,0.00067746243,0.0023894752,-0.0020262313,-0.0009902223,0.00013203228,-0.00076036144,0.0014211632,0.0035030837,0.004661931,0.0011913363,-0.00020327936,-0.00036443447,0.0019812023,-0.0021704854,0.0019284928,-0.0053041703,0.0029250104,0.004279084,-0.0015374159,-0.0022064778,0.004642334,-0.00097012083,-0.0019154389,-0.0012999764,-0.00025891597,0.0011603734,0.007337215,-0.0010092492,-0.0030682476,0.0016939424,-0.00071923854,0.00527032,0.0034638115,0.002587793,0.0005593865,-0.0061938385,0.0011664551,0.00047278145,-0.0021253594,0.0002719267,-0.0015328121,-0.0032099131,-0.0023318685,0.0009043605,-0.0011327186,-0.000245437,0.0003020664,-0.0010650875,-0.0045237015,0.0036946053,0.0020353524,0.0010043737,0.000789417,-0.0023537723,0.00536288,-0.0013350812,-0.0021755935,0.00095423544,-0.0032570362,0.0027419277,-0.0041725705,0.00449662,-0.00025628094,-0.0049450016,0.0013429795,0.00023970529,-0.0017369912,0.0017536349,-0.0019571956,-0.0020407522,0.0018025183,-0.002950269,-0.00072877074,0.00015971239,0.00070095685,-0.0021776292,0.0018267666,-0.0006722831,0.0013428488,0.00013351797,-7.120132e-05,-0.00069400854,-9.130625e-05,0.004689146,-0.0016545539,-0.0072768214,0.0017923395,0.0018821997,-0.0015422234,-0.001616242,-0.0001676596,-0.0048517543,-0.0032423637,-0.0011164538,-0.0017967952,0.003212915,0.0020760694,-0.0005536306,-0.005091334,0.0003191209,0.0002704699,-0.0010661184,0.00021107701,-0.0011273499,0.0011582,0.00033469332,-0.0006345626,-0.0023394357,0.0008844005,0.0016753746,0.0020349582,-0.0034685181,-0.0030049246
AMPH,0.0005627974,-0.00021318125,-0.005771738,0.0005178885,0.00037999742,0.00011081467,-0.0014667183,0.001092339,-0.0014746257,0.0020253498,0.00075936556,-0.0009704223,0.00026067076,-0.0011345507,-0.001262469,0.00059886824,-0.004112699,-0.0003850225,8.396878e-05,0.001277572,-0.0020212277,0.0013916773,0.00102567,-0.00023810175,-0.0010567724,0.00023604294,-0.0047518415,0.0012044245,-0.00040226761,0.004992489,0.0041531767,0.015045819,-0.00203028,3.6103964e-05,-0.0024967943,0.0020954865,-0.003356315,0.00062855176,0.00063867564,0.002193691,-0.0009502423,0.00020162742,0.0033065812,0.0025224576,-0.0010706366,-0.0014915455,2.780411e-05,-0.0016090083,0.0031864943,-0.0016576238,-0.00022246195,-0.00036967944,0.004715936,-0.0010011268,0.0021417628,-0.0011190778,-0.0037758532,0.0009750614,-0.0010293231,0.0022715873,-0.0023139624,-0.0013075679,-0.0029611988,-0.0024947785,-0.00095527305,0.00073476636,-0.0014501258,-0.0045629307,-0.0011505212,0.001267579,-0.00073696306,0.0028427797,-0.0031315703,-0.0029273555,0.0040999553,0.002826171,0.0025712056,0.0029932884,0.0006374564,-0.0049298503,-0.00060308195,-0.0062596244,-0.00024977644,0.00035109962,0.003933247,-0.00090331404,-0.00028454702,2.1806967e-05,0.0034285395,-0.00023171029,-0.0007935306,-0.0028403583,0.0004596195,0.001305503,6.600453e-05,-4.4589997e-05,0.0015144966,0.0013599857,-0.0004846447,-0.0006758833,-0.004097488,0.0036352775,-0.00035892383,-0.00029395436,-0.0054885186,-0.001786231,0.0053468104,0.0025592805,-0.0066082194,-0.0025979322,-0.00083885883,0.00055942335,-0.0021584078,0.002567813,-0.0033439572,-0.0050531607,-0.0015557561,-0.001237355,-0.002654245,-0.00065572583,0.0043213735,-0.0011275175,0.0012831381,0.00025074018,-0.0032190813,0.0047950386,-0.0022952075,-0.0025524246,-0.0008600561,-0.0050887815,-0.0046442854,-0.000585645,-0.00044973832,-0.00044106093,-0.0017557401,-0.0032886618
ANGPT1,0.0011719649,0.0029789244,-0.0044792253,-0.0011007077,0.0022333583,0.0018006868,0.0009988529,7.762841e-05,-0.00025020016,0.00065421505,-0.0001522928,-0.00041209822,0.0001816162,0.0018005243,-0.0003240187,-0.001357818,-0.0042842343,-0.0028190003,0.003845291,-0.0017769354,0.00045756373,0.0009581801,0.00077306887,-0.0021101607,-0.0017731828,0.0041339924,0.0008261433,0.0033570316,0.005954844,0.0023842505,-0.0019618156,0.008490945,0.003329612,-0.0025904432,-0.0010231301,0.0007514888,-0.0009050833,0.00041896047,-0.0041057365,0.004004171,0.0021998975,-0.0016704878,-0.0006394954,0.00046563032,0.0030328408,-0.0017104422,-0.0016794564,0.0041949605,-0.0011390409,0.00015323218,-0.0023982313,0.001752815,0.0001012274,0.0001342323,-0.0016154504,0.00018839842,0.0002795813,0.0010532517,0.00011510936,0.0045476877,-0.0011547233,-0.002229035,0.00022987746,-0.0017119299,0.0045560985,-0.00041555444,-0.00043276057,-0.0016102116,-0.0012173716,-0.0010074202,0.00029214955,0.0025756578,0.0014400695,0.0016647279,0.00048411786,-0.0073678875,-0.0074541206,0.0058637136,0.009839898,-0.008445458,-0.0050110295,-0.003935853,-0.0015717318,6.773255e-05,-0.0002314969,-0.0014764826,0.0032963266,0.00050622673,0.0049073175,0.0040910677,0.0044939895,-0.005286371,0.0019369633,0.00041495406,-0.00023820625,0.0012555387,-0.0007805442,-0.0012541373,-0.0012645267,-0.0023935523,-0.001995129,-0.0054990673,0.001809466,0.0014869107,-0.0022413735,-0.0022781703,-0.0029752394,0.00088145287,-0.005489335,0.0021017997,0.0024046702,-0.0015553796,-0.002033321,0.0026595101,0.00081514625,-0.00057261373,0.0038709952,-0.0023818936,-0.0007508724,0.0046751318,-0.0005676766,-0.0037088522,0.00239978,-0.0029340147,0.0014459457,0.0028859912,-0.0015271207,0.0014465343,-4.1373733e-05,-0.00061399373,-0.0003638299,0.0020560226,0.0036879538,-0.0010325292,-0.0011995722,-0.00045486423
ANK2,0.002308082,0.000119808086,-0.017481321,0.0010140927,0.00026891925,-0.00095262256,-0.00177321,-0.0005391731,-0.0008787797,0.0007725169,0.00012698617,-0.00015967776,-0.00078882143,-0.0018212805,0.0029780166,0.00034918342,-0.0012089211,0.0022422033,0.001711185,0.0004918991,-0.002666915,-0.0014840368,-0.0008541594,-0.0012247928,-0.00051870185,-0.0029112385,0.0025753102,-0.0013327388,0.000104985425,-0.0028511905,0.0001003909,0.02686475,-0.0049329577,0.0017373493,0.0026064692,-0.0017466753,0.0040084296,-0.0015616647,0.0074122655,-7.0095135e-05,-0.002092971,0.0012555461,0.002743525,-0.0038699247,-0.0014436974,-0.0025574535,0.0010691577,-0.00040878225,-0.0022051039,-0.0030199059,0.0022479307,0.0029279448,-0.002155554,0.001601371,-0.002591381,-0.0043136613,0.002055958,-0.001928908,-0.0010138534,7.0278606e-05,-0.001076415,0.002076562,-0.0020746002,-0.0019337266,0.003361245,0.0039205393,-0.004558467,0.0028321561,0.0037431624,-0.0021091155,-0.0017351118,-0.0003234091,-0.0017485298,-0.0008448711,0.000665306,0.0002066051,0.0016473538,-0.0052469694,-0.0015636032,0.0028359038,-0.0018613172,-0.0045941942,-0.0015864067,-0.0016129821,0.0028132137,-0.0011358166,-0.00011340784,-0.0010570313,-0.002254373,0.003000216,0.00036186335,-0.004061231,-0.008337172,-0.00024941596,-0.002220951,-0.0010151727,-0.00064499915,0.0034042418,-0.0063588265,0.0002995397,-0.0015363488,0.009825363,-0.0028311638,-0.0010682628,0.0013186503,-0.0011053792,-0.00085415505,0.002569692,-0.009993089,0.004728881,0.0044340775,-0.0022200113,-0.000241772,0.0014886718,-0.0025494525,-0.00217245,-0.004189121,0.005603052,-0.0009943878,-0.0037364084,-0.00019430702,-0.0026301944,0.00016418521,-0.0019525845,-0.0032057408,0.0007550396,-0.005801053,-0.0024789358,0.0011164913,0.0015789814,-0.007843548,-0.0010241973,-0.001850713,-0.0034463047,-0.00043499147,-0.0068264403
ANK3,7.154193e-06,0.00094805105,-0.010956902,0.0005343768,-0.00076113566,-0.0008156512,-0.0022534828,-0.00024482413,-0.0015435738,0.0031845707,-0.00058755797,-0.0011479446,-0.002484027,-0.00031858124,0.0016174623,0.0016689039,-0.006162801,-0.002051335,-0.0004763539,-0.0016847792,-0.00084113696,0.0007836224,-0.0034136681,0.002925242,0.0014559034,0.0011914617,0.0034951693,0.00080885016,-0.0009385473,0.0016499724,-0.0041295947,0.027183786,-0.0017672646,-0.00097338576,1.27331905e-05,-0.0013832047,0.0024964442,-0.00053855963,0.003494568,0.00029487154,-0.00179801,0.0018806349,0.0016243464,0.0018266231,-0.00059770636,-0.004631901,0.0010732602,-0.0028892609,-5.4537955e-05,-0.0017020856,-0.00024874954,0.0022419626,-0.0005573024,0.0019731591,0.0019789871,-0.0005425884,0.001709071,-0.001426158,-0.003041381,0.004114406,-0.00417577,-0.0004457544,0.0034686837,-0.001319558,-0.00042057552,-0.00066554546,-0.0012179797,0.0014116227,-0.0012208455,0.0013195697,-0.003184218,-0.004164549,0.001332791,-0.0026582654,0.00022472606,0.0012111953,0.0025209005,-0.0002117537,-0.003298434,-0.004913744,0.0003192905,-0.008657458,-0.0037260645,-0.0013264569,0.0050402777,0.0007972282,-0.0014968164,-0.0050922055,-0.000211901,0.0016334715,0.003409927,-0.0064381505,0.0008008237,0.002778136,-0.0029687365,0.0010617989,0.0013445823,-0.00010798141,-0.0018187877,0.0006629365,-0.005268021,0.0069320537,-0.0006079082,-0.0009328971,0.00097085926,-0.0008367375,0.00077699585,0.004527502,-0.009125798,0.00097427465,0.005187464,-0.001349786,-0.0008872282,0.0036841207,-0.0057393396,-0.0045843096,-0.0029771153,-0.0036530485,-0.0019195076,-0.0023290743,0.0028909515,-0.0048349914,-0.0016258801,0.00035478678,0.0012541914,0.003579526,-0.00290781,-0.0004583061,0.0022065532,0.00034987193,-0.006584702,0.0024453097,-0.0010350316,-0.0015903594,-0.0018494191,-0.005531296
ANKRD1,-0.002103354,0.001500728,0.011116017,-0.00180309,0.00061103416,0.0018546063,-0.0027442446,0.002277678,-0.0035531472,0.0074295136,-0.0037424883,-0.003838867,0.00395534,0.0028428626,-0.005790853,0.0010380965,-0.003438184,-0.0034516104,-0.0011783009,-1.4524028e-05,0.0012834836,0.0017131411,0.0013576543,0.0012865091,-0.0015635021,-0.0015764432,-0.0007061293,0.0024542208,0.0010266575,0.0001295446,0.0006429118,-0.010012195,0.0020201816,-0.0011343166,-0.0030773503,0.0024098877,-0.006443079,0.0036822883,-0.009565545,0.0042542396,0.0073124897,-0.0022242668,-0.0045584557,0.0046875626,0.0015206811,0.00036557904,0.00012866795,0.0005140865,-0.0014826482,0.0015761317,-0.0010443336,0.0009182304,0.0028450324,-8.7283006e-05,0.00048183554,-0.0007153973,-0.0010612373,0.001322116,-0.0023624205,0.00082286913,-0.0008015613,4.2440006e-05,0.0011994835,-0.0037533466,-0.00058983464,0.0009505938,0.0017881979,-0.0007355147,0.00019827017,0.0017421718,-0.0013143814,-0.00047140056,0.0026228167,0.0018191753,-0.0025247377,-3.3773355e-05,-0.002644542,0.0016543586,5.4943364e-05,-0.0015202326,-0.0014349911,-0.0014112967,-0.00050935446,-0.0013608771,0.00501175,-0.0022070997,-0.0012603374,-0.002045305,-0.0011702013,-0.0005118808,-0.0007383306,-0.0015736956,0.0011463899,-0.0052581653,0.0019030281,-0.00023776587,0.0025782948,0.0012428461,0.00077850587,0.0002928803,-0.0018514456,0.0013274768,-0.0021335052,-0.0034927146,0.000121912184,-0.0002790069,-6.6952205e-05,-0.0029221498,-0.007611711,0.00073819206,0.0005934594,3.4128814e-05,-0.00014601611,0.0048007243,-0.00095649157,0.0012437381,0.0013077293,-0.0047339355,0.0005803448,0.0031852485,-0.0017844415,-0.0046704663,-0.0020055962,0.00012103443,0.0008936204,0.0004537265,0.0012397403,0.0032118347,-0.0032415695,-0.0016275484,0.0041807615,-0.0035286252,0.0038048322,0.0017806387,-0.0013215377,0.0018333867
ANKRD6,0.0010731164,0.0007594406,-0.0034263434,0.0001775576,0.00044089864,0.0010235588,-0.0006150569,0.00064541015,-0.00016899226,0.0020378847,-0.0003112286,-0.0011858495,0.0010551483,0.00029163848,-0.00157508,0.000941603,-0.0023483352,-0.0014167675,0.0020248676,-0.0012234288,0.004460282,0.0044922945,-0.0030592394,0.0010518252,0.0029284514,0.003512499,-0.0065704314,0.0007794884,-0.0014750445,1.3200524e-05,0.00069264637,0.010616645,0.0035806657,-0.0012829738,-0.0008288335,0.0018304513,-0.0054591503,0.00022474419,-0.0038718279,0.00076173164,0.000688384,-0.0014207815,-0.001894952,0.005361382,0.001510266,-0.0011497338,-0.003473669,0.0028801674,0.004570281,0.0056478493,-0.0024424437,-0.0064416816,0.0005352638,0.006751788,0.0018518012,-0.0004289713,0.0054466017,0.0043020276,-0.0039108577,-0.0071006226,0.0039683394,0.001941759,0.005360246,0.001704474,-0.0066908887,-0.0032087811,0.0016670796,-0.00017802858,-0.008181176,-0.0008822294,-0.0015105704,-0.0009872373,0.0005273934,-0.0017535943,-0.0059655583,-0.002701233,0.009958949,0.00022139303,-0.0016863549,0.006617022,-0.0017530017,-0.0033637737,0.0020621053,-0.0016644184,0.0022419856,-0.0041930946,-0.004699486,0.005228019,-0.0020840887,-0.006125753,0.0013412933,-0.0021092952,-0.0014610634,0.0011507414,0.0022914459,-0.003388538,0.0021207791,-0.0016862598,0.0024549805,0.0036129397,-0.002996097,0.0050185956,-0.0011603067,-0.0010487,-0.0003934707,0.0049227905,-0.0036465316,0.00034894515,-0.0059217545,-0.0016238088,-0.00072820263,-0.0006075187,0.004229865,-0.0009886618,-0.0012448359,-0.0013517025,0.0017904523,-0.00743311,-0.002286522,0.0054628826,0.0018536786,-5.6518682e-05,0.002427227,0.0025989888,0.0038314688,0.002031698,-0.0032131863,0.00029488764,-0.0019129117,2.8101336e-05,-0.0019339944,-0.0016001846,0.0016001784,-0.000790424,0.0049131396,-0.00036158782
