gene_symbols,phi_0,phi_1,phi_2,phi_3,phi_4,phi_5,phi_6,phi_7,phi_8,phi_9,phi_10,phi_11,phi_12,phi_13,phi_14,phi_15,phi_16,phi_17,phi_18,phi_19,phi_20,phi_21,phi_22,phi_23,phi_24,phi_25,phi_26,phi_27,phi_28,phi_29,phi_30,phi_31,phi_32,phi_33,phi_34,phi_35,phi_36,phi_37,phi_38,phi_39,phi_40,phi_41,phi_42,phi_43,phi_44,phi_45,phi_46,phi_47,phi_48,phi_49,phi_50,phi_51,phi_52,phi_53,phi_54,phi_55,phi_56,phi_57,phi_58,phi_59,phi_60,phi_61,phi_62,phi_63,phi_64,phi_65,phi_66,phi_67,phi_68,phi_69,phi_70,phi_71,phi_72,phi_73,phi_74,phi_75,phi_76,phi_77,phi_78,phi_79,phi_80,phi_81,phi_82,phi_83,phi_84,phi_85,phi_86,phi_87,phi_88,phi_89,phi_90
SAMD11,0.00044667328,-2.4725802e-15,0.00066574954,-4.7375816e-28,4.782775e-28,4.7698674e-15,-2.0538993e-09,-2.2480275e-21,-2.1995946e-07,-4.9396526e-17,-5.13e-42,-1.4927658e-28,1.839561e-09,-1.9150699e-25,-2.088976e-15,-2.547058e-35,1.3818458e-35,2.01499e-26,1.577071e-20,-2.0907395e-30,-4.6656026e-19,-3.325528e-27,-5.15e-42,-3.292362e-36,1.7616574e-19,0.00045284815,-6.1196713e-27,-7.75809e-27,2.8100384e-15,1.9472233e-09,-4.3656875e-22,-1.1133678e-07,-1.1282043e-17,5.203e-42,-1.1315949e-27,1.1738589e-09,2.80941e-40,-2.82422e-40,-1.0372851e-32,-2.2803591e-31,-4.6954615e-37,8.40437e-29,-7.350568e-36,-5.214e-42,1.118885e-38,2.420785e-29,-5.184043e-38,-1.7907172e-36,-1.7040366e-31,7.425146e-37,-9.276619e-31,1.8331244e-38,-5.671e-42,-1.313e-41,6.537613e-33,5.662966e-26,3.280612e-20,1.117433e-32,5.469243e-18,-3.106276e-28,8.369e-42,-1.4619138e-34,2.9075273e-21,8.4624495e-15,1.455008e-25,1.2194903e-12,2.0743267e-22,-5.377e-42,-5.1675584e-32,-1.9839082e-14,3.0096131e-34,8.1819213e-25,-1.254423e-31,-5.227e-42,-1.2557424e-38,2.6069394e-26,6.7807975e-11,1.466344e-20,-4.973e-42,-8.9840946e-30,1.5591631e-12,1.0715516e-29,5.354e-42,2.4508518e-35,1.7859845e-21,-5.234e-42,-5.689e-42,5.279e-42,-1.80326e-40,-4.715376e-32,2.7465133e-14
HES4,0.00059389457,-1.2851916e-14,0.0030247113,-6.4421683e-28,4.9886137e-26,2.7937867e-14,-1.0836036e-08,6.7517446e-21,-9.477437e-07,-1.5496648e-16,-5.164e-42,-2.0030018e-27,1.699351e-08,4.3385383e-25,-5.3429588e-14,7.404792e-33,4.7411083e-36,-6.5439434e-25,2.7134365e-19,4.9651753e-31,1.22703765e-17,9.888692e-28,-5.213e-42,-7.490542e-35,-2.699844e-19,0.011189072,-8.858638e-28,3.1038316e-27,8.907513e-14,-4.28288e-08,1.656305e-20,-3.8467133e-06,-8.6536327e-16,8.47e-42,-6.8449415e-27,5.724977e-08,6.7765265e-37,-1.339072e-39,2.6096806e-34,1.5589132e-30,-2.7754268e-35,2.0490391e-29,1.2155897e-35,5.286e-42,-7.992939e-39,-1.1897418e-30,2.0400189e-38,-1.7164861e-36,-1.518927e-32,7.3298676e-37,9.4028587e-32,-8.053573e-34,1.0867e-41,-1.99947e-40,-1.1867933e-31,4.4218464e-25,-3.679777e-19,1.2452588e-29,-3.1703686e-17,-3.9349676e-27,-5.067e-42,2.5681468e-33,1.1715297e-18,1.425926e-13,-3.7784407e-26,1.3435912e-11,4.2477857e-21,-5.354e-42,-3.6847904e-32,-2.0979767e-13,2.679619e-33,-1.2944904e-23,8.97074e-32,5.374e-42,1.5446465e-35,-6.3524316e-25,1.2222947e-09,2.4588368e-19,-5.699e-42,3.2735686e-28,-1.7366799e-11,-1.9473604e-28,5.125e-42,-2.4418788e-34,-6.790316e-21,-4.917e-42,5.092e-42,4.91e-42,-2.579834e-39,-2.7027098e-31,3.21447e-13
ISG15,0.0020061855,-1.5458993e-14,0.0041917986,-5.331237e-27,-8.780969e-27,1.6865202e-14,-1.5982584e-08,3.5015545e-21,-1.2685224e-06,-2.7348444e-16,-4.933e-42,-2.8799293e-27,1.8294024e-08,-1.3312378e-24,1.1112688e-14,-1.5294894e-33,4.127993e-35,2.9012957e-26,-1.3660687e-19,-5.3818757e-32,1.3061968e-17,3.3366124e-27,-5.021e-42,6.3936814e-35,2.5403786e-20,0.009309026,4.42846e-26,1.1571667e-27,6.794677e-14,-3.1604042e-08,5.9893753e-21,-3.1103157e-06,2.1241898e-16,-6.19e-42,-1.2708429e-27,4.4793495e-08,3.994801e-38,-2.743983e-39,-4.8930467e-33,4.683163e-30,-7.465728e-37,2.6113752e-28,-5.795861e-34,-4.935e-42,3.1254614e-38,3.1352742e-30,-7.118498e-39,1.3227457e-35,-9.289034e-32,1.8022618e-38,-1.1957034e-28,2.2973553e-36,-5.084e-42,8.86178e-40,4.4949644e-31,1.9390258e-25,-2.917575e-19,-5.0501415e-30,4.560555e-18,-1.8041522e-27,-1.2606e-41,8.237526e-35,3.5339493e-19,1.3190511e-13,-4.5278816e-26,1.1687383e-11,1.8665813e-21,5.151e-42,9.933073e-32,-1.5839494e-13,7.8007216e-36,1.1013181e-23,-3.7009006e-32,6.265e-42,-6.551253e-36,-1.9329673e-25,1.1469256e-09,-2.4150388e-19,-5.535e-42,-5.0114394e-30,-1.44343235e-11,1.408261e-28,-8.66e-42,-3.5528073e-38,-2.350832e-21,-5.799e-42,5.705e-42,-5.224e-42,1.317369e-39,-1.42833e-30,1.3622283e-13
RNF223,-5.269524e-06,5.193684e-16,-1.7473021e-06,-2.6483316e-28,-3.321184e-30,-1.0952608e-16,1.2401498e-10,-2.2865829e-23,-6.3104357e-09,1.1532918e-17,-2.662e-42,5.817111e-30,-2.1208174e-11,4.5375812e-26,3.830391e-17,7.927085e-36,-1.2001177e-36,1.6895685e-27,3.4451714e-20,-6.141991e-32,1.6985933e-20,8.2267524e-29,5.03e-42,-2.1696183e-35,-4.0078662e-20,3.562255e-05,1.7663819e-27,-5.6242866e-29,3.8800703e-16,1.1860798e-10,1.0263958e-22,1.4422418e-09,2.334292e-18,4.701e-42,-1.18415645e-29,1.0895723e-09,4.96075e-40,-9.335512e-39,6.283089e-36,3.3960243e-32,1.2958401e-38,-2.2084814e-28,8.142029e-37,5.572e-42,2.3104e-40,-7.391014e-32,-9.348e-42,-1.2194582e-34,1.8577298e-33,-3.0415e-39,-9.877838e-31,2.497083e-37,5.269e-42,6.7835e-41,-5.6729967e-33,4.505135e-27,-9.190698e-21,5.6838935e-33,2.3230437e-20,-1.1732153e-28,-6.082e-42,7.872357e-36,-9.249992e-21,-2.437547e-16,1.0296235e-26,-1.9389317e-15,1.2153774e-22,5.03e-42,6.9885446e-33,-6.1042133e-16,6.7269023e-34,-3.160232e-26,-1.9233868e-33,-1.1107e-41,4.852e-38,-2.6281612e-27,-4.7245172e-12,3.6549436e-21,5.322e-42,5.4177425e-31,1.1649217e-13,-9.00275e-29,-5.356e-42,2.9445935e-37,1.0038182e-23,4.94e-42,5.311e-42,5.378e-42,1.1656e-41,-9.346804e-32,-5.7577586e-15
TNFRSF4,0.00026533226,-2.5681922e-15,0.00027422304,-1.1971396e-26,5.112214e-29,3.3588969e-15,-1.9328046e-09,1.3111052e-20,-2.2257375e-07,-2.7464458e-16,-5.93e-42,-3.8066327e-29,5.0475926e-09,1.115361e-26,-6.0210088e-15,-3.9004304e-36,1.4384317e-35,-3.0517907e-26,1.7145462e-20,-3.6176732e-32,1.1624816e-18,-4.575549e-28,5.11e-42,-3.869494e-36,-1.79496e-20,0.00025649837,-3.4652343e-28,1.694132e-28,6.9904414e-15,-3.245535e-09,1.3345206e-21,-2.756062e-07,-5.315824e-16,-5.033e-42,-2.260118e-28,6.677885e-09,-2.80274e-40,-3.844057e-39,4.1399533e-32,2.9692628e-31,-6.838522e-37,3.2533967e-30,-9.0083964e-36,-5.298e-42,1.24716e-40,-1.2322593e-31,1.848e-42,4.4298577e-36,2.0831476e-32,8.401945e-37,-1.6295908e-31,2.97641e-38,4.952e-42,2.1286e-41,-2.8792462e-32,8.762983e-26,-2.0631242e-20,3.5596584e-32,-3.322809e-18,7.658743e-27,-5.104e-42,1.1569318e-35,5.757602e-20,1.135847e-14,-5.1603186e-27,2.0004775e-12,1.1558977e-21,5.017e-42,2.800941e-32,-3.059804e-14,-9.222932e-35,-1.7878387e-25,-1.1335151e-32,-5.314e-42,-4.0724124e-38,7.1073355e-27,8.370737e-11,3.3997685e-20,5.743e-42,9.412152e-31,-1.3930096e-12,1.5775245e-30,5.588e-42,-7.188777e-34,-1.4573304e-21,-1.2424e-41,5.315e-42,-5.108e-42,-2.2013e-41,-2.3069412e-32,4.435619e-14
MMP23B,0.00053823617,2.0647556e-14,0.0009334695,-4.7266076e-28,2.0019287e-27,7.2492485e-15,-1.3138401e-09,7.0160017e-22,-2.9785815e-07,3.8221864e-16,-5.906e-42,-3.871025e-27,2.9952545e-09,3.0565017e-26,9.130739e-15,1.7478482e-35,-3.110088e-34,-5.850815e-26,-4.95766e-20,-1.8536511e-31,2.7075268e-18,1.2627966e-26,-5.273e-42,2.522761e-35,3.6466842e-20,0.0011567718,-4.0086113e-27,2.7229842e-28,-2.944993e-14,-3.6688461e-09,-3.2747463e-20,-5.0149254e-07,-2.8089922e-17,-5.185e-42,-5.046639e-28,5.3522133e-09,-1.1538913e-36,3.656714e-39,-1.250897e-34,-2.7610087e-30,7.323639e-38,6.957458e-29,1.3534109e-36,1.076e-42,-1.593625e-39,-6.780705e-30,2.8128e-41,-1.2607164e-35,-1.3810632e-32,-3.7544653e-38,2.6619975e-33,1.1299993e-36,-6.303e-42,1.181e-41,6.607476e-32,-9.611697e-24,-5.998353e-20,-1.7600817e-32,-5.345703e-18,-3.9346225e-26,5.447e-42,2.9616341e-36,-5.9955074e-19,2.6896684e-14,3.4209785e-26,1.7149778e-12,-1.1011539e-21,-5.127e-42,-3.7162534e-31,-3.6845774e-14,1.08811095e-33,-4.422513e-24,-8.127853e-33,-6.14e-42,1.7118538e-38,-1.2312737e-26,2.1666721e-10,4.353075e-20,4.968e-42,1.5117518e-29,-2.9246143e-12,-2.0790967e-30,5.14e-42,1.853665e-36,2.0723068e-21,4.912e-42,5.482e-42,8.429e-42,7.483e-41,3.1619978e-31,5.4293897e-14
TNFRSF14,0.0007063889,-5.9048767e-15,0.00094303396,-2.635435e-27,8.717341e-28,2.9144235e-14,-1.0289555e-08,2.1750813e-21,-4.275633e-07,-1.9922582e-16,1.5205e-41,-5.8543547e-28,1.6351324e-08,5.839278e-26,-1.262522e-14,-1.9744232e-34,-9.5357265e-36,-8.474324e-26,5.7033535e-20,-1.6860719e-31,3.2436765e-18,-1.0070591e-28,-5.235e-42,1.11939506e-35,-5.2996774e-20,0.00064308196,-2.4655468e-27,6.1105323e-28,7.283205e-14,-1.5938673e-08,2.2596171e-21,-5.21866e-07,-1.6851588e-16,-5.709e-42,1.2402045e-27,1.5104312e-08,7.652031e-39,1.4922361e-38,-3.177576e-34,3.934905e-31,3.7610813e-37,-3.6903733e-30,5.3316625e-36,-5.252e-42,-1.97237e-40,1.4342121e-31,6.149e-41,-6.9920126e-35,-2.5449547e-31,8.277162e-39,-2.3662067e-29,7.581837e-37,-4.941e-42,1.04695e-40,2.648606e-33,8.071408e-25,-9.000951e-20,3.5473248e-31,-7.402738e-18,-9.5885604e-27,5.48e-42,1.0238889e-35,1.5152307e-19,3.3117914e-14,-6.691657e-26,3.0145385e-12,2.8121952e-21,5.085e-42,7.5441447e-32,-1.10637634e-13,2.3503653e-33,-6.3813905e-24,2.1497086e-33,2.1345e-41,-4.867021e-37,1.5250122e-26,2.2891325e-10,1.0768138e-19,-5.263e-42,-2.1054977e-30,-8.4213e-12,-4.4503364e-28,4.994e-42,1.2495298e-35,-3.8544326e-21,3.33666e-40,-5.001e-42,-5.067e-42,-6.064705e-38,-2.4222714e-32,2.2575813e-13
TTC34,0.0002330078,-6.379292e-15,0.00036193378,-2.2183405e-28,1.9006106e-28,3.9494876e-15,-3.4864196e-09,8.27124e-21,-2.416208e-07,-6.999862e-17,-5.34e-42,-6.3741883e-29,2.5708145e-09,5.5119345e-26,-8.93404e-15,-9.072411e-35,-5.1799903e-33,2.6710032e-25,2.2695628e-19,-1.1031213e-31,1.7508785e-18,2.8053315e-28,5.644e-42,-5.5941097e-36,-6.641311e-20,0.0005060506,-2.2289225e-28,4.3614224e-27,2.5266912e-14,-5.1135127e-09,1.7096686e-21,-3.9970638e-07,-3.188276e-16,5.178e-42,2.9308003e-27,1.2213763e-08,1.170433e-39,-1.67642e-40,6.8552273e-34,5.977313e-31,-1.4128544e-37,3.4382285e-29,-3.915908e-36,-5.179e-42,7.453088e-38,2.1828443e-31,-5.257473e-39,3.245653e-33,-8.567891e-32,-1.8038704e-38,2.2514702e-31,-6.135831e-36,5.015e-42,-7.2556e-41,5.7686615e-32,9.156263e-26,-4.2718644e-20,2.6375314e-31,-8.95582e-18,-5.640165e-29,6.192e-42,-3.1832958e-35,1.03768683e-19,1.9201114e-14,-2.6927878e-26,2.5851504e-12,3.5456882e-22,-5.211e-42,-1.8375241e-31,-2.645458e-14,6.178133e-33,-4.4188177e-25,-6.835798e-33,5.573e-42,9.270597e-39,-3.5557146e-27,1.419613e-10,2.4599993e-20,-5.033e-42,1.783312e-32,-3.9626505e-12,2.1703095e-28,4.948e-42,1.3628269e-37,-4.1033944e-22,-4.906e-42,-5.501e-42,-5.346e-42,3.07735e-40,9.504469e-34,1.0040363e-13
SMIM1,0.0027150775,-1.9531086e-14,0.005146587,-4.2474872e-26,9.224877e-27,3.6923582e-14,-1.7127102e-08,-2.3207696e-20,-1.9019133e-06,-2.8134308e-16,-5.381e-42,-1.6735696e-26,2.4041862e-08,3.6030658e-26,-1.8240189e-14,-2.2586206e-32,-9.064423e-35,-1.9514012e-25,3.2945024e-20,2.1378352e-29,9.115501e-18,1.2980856e-26,-5.213e-42,-2.6409274e-35,-1.3905481e-19,0.008468553,3.3470105e-26,4.2095474e-27,5.0372155e-14,-2.8439022e-08,-1.6490729e-21,-3.34231e-06,-4.977893e-16,-4.935e-42,-4.996427e-27,3.790648e-08,1.0614805e-38,2.341921e-39,-1.3932269e-32,1.4336269e-30,2.3350128e-35,-4.3692592e-29,-1.401382e-33,4.945e-42,-3.0080545e-38,-4.142929e-30,-4.870586e-38,-3.073902e-35,7.682313e-32,-2.444709e-37,1.782903e-29,-4.29715e-34,-5.095e-42,-2.19543e-40,4.176554e-31,2.1496399e-24,-1.7455373e-19,-3.8741164e-29,-3.850654e-18,-7.0614717e-28,-5.892e-42,2.1788063e-33,9.701326e-20,9.363234e-14,-9.1416545e-27,1.3804982e-11,1.512034e-21,-1.1014e-41,-2.372178e-31,-1.4526641e-13,5.4312624e-34,-1.0206862e-24,-1.1696495e-30,1.1086e-41,2.7068463e-37,-1.6376557e-24,1.3468658e-09,2.4760062e-19,5.068e-42,1.0233136e-29,-1.4115019e-11,-1.1415163e-28,-8.098e-42,-1.1435658e-35,3.985502e-22,-5.098e-42,5.283e-42,-4.987e-42,1.3636872e-38,5.172417e-32,2.360172e-13
LINC00337,5.3424606e-05,-3.1285125e-16,6.0965893e-05,5.5629678e-28,-9.304139e-29,-1.3200828e-14,6.9828876e-10,2.734566e-22,1.9830766e-08,1.8496609e-17,5.47e-42,1.0084485e-27,-2.2188094e-09,-3.6151723e-26,2.1913722e-14,1.4528443e-35,1.9033296e-36,4.6893498e-26,-8.1477565e-21,2.762412e-32,-8.940951e-18,-1.7292264e-27,5.011e-42,1.2796981e-38,3.234909e-21,0.0003063103,-1.8453034e-27,2.3503854e-28,1.5452586e-15,3.880899e-09,-1.5648318e-21,9.069018e-08,1.1098896e-16,-4.91e-42,2.8536317e-29,-1.1952537e-09,-5.700724e-38,-1.5222e-41,8.582118e-34,2.1003223e-31,-1.3126329e-36,3.416371e-30,-5.544531e-36,5.615e-42,1.8021e-40,2.149114e-30,1.8367e-41,2.8822852e-36,-1.4459039e-32,2.2775773e-38,3.448639e-31,-2.377316e-36,-2.501e-42,-8.53793e-39,-6.2959236e-32,-2.056432e-26,1.372307e-19,7.631573e-31,8.2946835e-18,-3.5405998e-28,4.923e-42,7.612024e-36,1.160453e-20,-1.1966003e-14,8.7472576e-26,-1.134546e-12,8.7893027e-23,-5.18e-42,4.094963e-31,2.92884e-14,1.4082965e-34,1.2524044e-25,3.0836648e-33,-5.946e-42,-2.156977e-39,2.9398267e-27,-6.7071064e-11,-2.179854e-20,5.363e-42,2.7484333e-30,3.0926388e-12,2.0386608e-30,4.94e-42,-2.0781686e-36,-1.308987e-22,-5.049e-42,5.535e-42,5.179e-42,-2.42537e-40,1.7555316e-32,6.322818e-15
HES2,8.838693e-06,8.9509385e-15,-4.4649887e-06,-4.1568545e-28,1.6713587e-29,-1.5979604e-14,1.751025e-10,4.7681626e-22,2.1671264e-08,-4.40764e-19,4.938e-42,-1.2086689e-28,-3.7870387e-10,-1.6622412e-24,2.4359691e-15,1.3089073e-34,7.865093e-36,-2.1232735e-26,1.8040135e-21,-9.479233e-32,9.900065e-20,-2.0633325e-28,-2.5354e-41,-1.611505e-35,1.4335198e-19,0.00010760887,-7.155717e-28,4.2317493e-29,-9.279288e-15,8.2935936e-10,-2.2679743e-22,9.895071e-10,9.2170684e-18,-5.677e-42,9.699615e-27,-1.3063398e-09,5.430413e-37,-4.622507e-39,1.3600378e-35,4.2137996e-32,1.3252535e-37,6.4853494e-30,6.210805e-36,5.576e-42,-8.5869e-41,1.0527489e-31,1.1752323e-38,3.8968445e-36,8.548665e-33,-4.786676e-39,3.0213175e-30,7.75507e-36,-5.025e-42,2.63258e-39,1.1497936e-29,-2.3309896e-27,-5.8071334e-21,-1.4244512e-31,1.1143185e-18,-4.024195e-28,4.996e-42,-3.669739e-36,4.7098263e-21,-1.8585188e-15,-3.6462194e-28,-4.1856373e-13,6.006931e-22,5.625e-42,2.7214134e-32,2.4585042e-14,-1.4322457e-35,2.3739531e-25,-1.0033625e-31,5.183e-42,-2.4968885e-38,-8.72594e-27,2.5599444e-13,-7.007537e-21,-4.06e-42,7.248571e-31,4.662747e-13,-4.0362602e-29,-1.185e-42,3.8350607e-35,1.6213237e-22,-5.005e-42,5.499e-42,4.71e-43,-3.15261e-40,1.13317986e-32,-3.1660774e-14
ESPN,7.0216424e-06,1.5096167e-16,5.776038e-05,9.720184e-29,-4.369282e-29,-1.1057369e-15,-2.7779745e-10,1.374708e-22,2.0464965e-08,-9.356773e-18,5.134e-42,2.674303e-29,-2.1829513e-10,-6.2080156e-27,-6.137995e-16,6.131259e-35,1.3411191e-35,-1.1778163e-26,-6.5632045e-20,-1.8104884e-31,-5.774887e-19,1.173342e-28,5.176e-42,-2.5019621e-36,1.0256598e-20,8.1377046e-05,-6.142345e-28,-1.5807195e-27,-2.5082947e-15,-2.5344007e-10,2.994588e-22,-3.1549607e-08,-8.024274e-18,-5.043e-42,-5.6630304e-28,-1.0290846e-09,-8.37286e-40,1.924e-42,1.0155186e-35,1.4138288e-31,-7.756914e-39,8.543062e-30,-1.9941545e-36,-5.084e-42,-1.091054e-39,-3.0013207e-32,2.2803e-41,-4.6650437e-36,-1.1123734e-32,-1.8908254e-38,-1.7984519e-31,8.62422e-40,5.083e-42,-8.992e-42,-1.560597e-32,-2.4348786e-25,1.4493877e-19,9.535901e-34,-5.8652275e-20,3.2236107e-28,-2.4189e-41,-1.2054752e-34,-2.4300453e-20,2.0654646e-15,-2.4329689e-26,-1.6072544e-13,2.0164061e-23,5.482e-42,2.8280925e-32,-3.4307875e-15,-8.0041874e-36,-8.272552e-26,-3.785018e-33,-5.196e-42,1.3671852e-36,-9.879472e-27,-4.9869874e-12,7.953882e-21,3.46e-43,-9.558931e-30,-2.6372323e-13,1.166309e-30,5.171e-42,-7.5131956e-37,-8.24009e-23,-3.3004105e-06,5.028e-42,5.07e-42,-9.9393e-41,3.3227584e-32,4.1640076e-15
TNFRSF9,0.00010359178,-5.0718554e-16,0.00012511972,-2.559975e-28,2.1420732e-28,9.236616e-16,-5.1502547e-10,3.1559592e-23,-1.8997728e-08,-1.0884121e-17,-5.311e-42,4.2868385e-27,1.5483876e-09,7.893579e-28,7.28027e-15,1.3759562e-34,6.4979676e-36,1.7515474e-27,1.6000378e-21,2.4032074e-32,2.6600086e-19,1.2690024e-27,-5.279e-42,1.2753684e-34,5.4001103e-20,-3.1242148e-06,9.925077e-27,-2.559006e-27,-2.3691493e-14,1.134111e-09,-5.5239497e-21,6.77005e-08,-6.193168e-17,-4.926e-42,8.972812e-28,2.6889904e-09,-7.2233e-41,3.8672e-41,-1.4737417e-35,1.3612542e-31,-4.188294e-38,-4.6039453e-30,-1.6502135e-37,-5.125e-42,-7.38528e-40,1.6069672e-31,4.1603e-41,2.3404206e-36,7.3245692e-31,-6.919348e-39,-8.128165e-29,-3.2811839e-37,-5.032e-42,3.7424e-41,-1.2952152e-31,1.1172893e-24,-2.030408e-21,1.7269838e-31,9.130735e-19,5.935827e-30,-5.204e-42,3.1923166e-35,-2.606761e-19,9.131714e-15,4.036215e-27,-2.4865259e-14,-6.70237e-23,5.193e-42,-1.5266227e-32,-5.358088e-15,9.984277e-36,5.5372883e-25,-2.546715e-33,6.129e-42,1.924995e-36,-3.8730274e-27,-5.3754904e-12,2.6489718e-20,5.151e-42,-3.5297646e-31,-1.122433e-12,1.8475247e-30,5.258e-42,-3.539494e-36,9.26677e-22,-5.001e-42,5.95e-42,9.65e-42,-9.69176e-40,6.609381e-31,-4.167304e-15
ENO1,0.0065274285,-9.074534e-14,0.02368724,-3.3064935e-26,7.663055e-27,1.9167238e-13,-9.081498e-08,2.6974368e-20,-7.98943e-06,-1.5003609e-15,5.98e-42,-7.353105e-27,1.2153835e-07,1.1574962e-24,-2.9791726e-13,-2.7604827e-32,-2.9113526e-33,-2.1946203e-24,1.1036137e-18,5.9300305e-30,9.755662e-17,2.1503053e-26,5.176e-42,-3.6966087e-33,-1.4557903e-18,0.074576266,-1.1681813e-25,4.1434065e-26,6.527504e-13,-2.918922e-07,8.57796e-20,-2.5996094e-05,-5.1303765e-15,-5.02e-42,-2.6963867e-26,3.9410526e-07,7.115896e-39,-4.753036e-39,-4.376533e-34,5.512483e-31,1.306761e-36,1.6880585e-29,7.431963e-35,5.232e-42,-1.074496e-39,-1.1109381e-30,-1.98808e-40,-3.160932e-34,3.4005284e-31,6.856708e-36,-1.2072965e-29,-1.7313171e-34,-5.084e-42,-6.498023e-38,3.4706149e-31,4.97334e-24,-2.2864e-18,-2.0782507e-30,-2.0462617e-16,-3.8704403e-26,-5.294e-42,3.2935508e-34,3.1890484e-18,1.0561128e-12,-2.2829935e-25,9.524445e-11,1.8509434e-20,-5.534e-42,4.498183e-30,-1.4138412e-12,2.6425483e-34,-1.7066518e-23,1.1335598e-31,-3.926e-42,1.9661063e-37,2.2647423e-25,8.599256e-09,1.5718561e-18,-1.362e-41,2.1305081e-29,-1.2638941e-10,2.5687148e-28,5.632e-42,3.5412697e-35,-2.3502909e-20,4.907e-42,5.325e-42,-3.564e-42,-6.01748e-40,-3.6221982e-31,1.913109e-12
GPR157,0.00026128703,-1.3530189e-14,0.0003813467,1.9839467e-28,2.1612447e-26,4.5371527e-15,-4.047671e-09,2.13371e-21,-1.826895e-07,-2.5736694e-17,-7.567e-42,-3.8729902e-28,7.3990343e-09,-3.8236325e-25,-2.2170572e-14,-8.0452626e-33,3.1377957e-34,-2.351512e-25,4.0444334e-20,6.460669e-30,3.774875e-18,7.759243e-28,-2.35e-42,-6.9520963e-34,-7.0039076e-20,0.0006228722,1.0503762e-27,6.171783e-28,1.0973901e-14,-7.3039343e-09,3.1849634e-21,-4.313514e-07,-7.128576e-17,5.235e-42,-1.113042e-27,1.2829427e-08,3.4041e-40,7.866123e-39,7.48218e-35,2.5964051e-31,1.0757655e-35,-2.4231251e-28,-4.5303153e-36,5.345e-42,-1.90337e-40,1.0933795e-31,1.6706e-41,-1.0637695e-36,1.2380662e-31,-2.2845916e-37,-4.182429e-31,2.9195522e-37,-5.643e-42,6.831e-42,5.771086e-30,6.350914e-26,-4.6644618e-20,1.4353486e-30,-9.785843e-18,4.4767463e-27,5.287e-42,-4.57829e-36,4.716499e-20,3.5152416e-14,-1.0713103e-26,2.619197e-12,5.797108e-22,2.655e-42,-1.922858e-32,-4.7199556e-14,8.521783e-35,-1.0205553e-24,1.6637284e-33,-4.934e-42,3.6027042e-38,1.9845412e-26,1.938728e-10,1.5665591e-19,5.427e-42,2.3625032e-29,-4.42535e-12,1.5716488e-28,5.279e-42,-4.356313e-37,-1.5565731e-21,5.392e-42,-5.165e-42,-5.063e-42,1.96363e-40,-1.3938489e-32,9.654371e-14
H6PD,0.0008613023,-9.632209e-15,0.0014285208,-3.4488783e-27,6.53631e-28,2.3515352e-14,-9.2109715e-09,2.5987016e-21,-6.5136015e-07,-1.7237005e-16,-9.966e-42,-2.2378326e-28,1.2898696e-08,5.7287794e-25,1.2190205e-14,-1.5902095e-32,-6.7078713e-34,-1.5870622e-25,6.688297e-20,2.512851e-31,7.22049e-18,-1.566218e-27,-5.017e-42,6.6989625e-36,-9.876448e-20,0.001802098,-6.078854e-27,1.4800656e-27,3.982099e-14,-1.2191889e-08,6.1474484e-21,-9.2256516e-07,1.5518668e-17,4.966e-42,3.6172114e-26,1.8098524e-08,2.4097572e-38,3.5124866e-38,-2.5315825e-33,-3.2214823e-29,-1.1233948e-35,2.4359639e-29,8.4318596e-36,-4.91e-42,-1.1239165e-37,-5.816376e-30,-3.661e-41,6.195219e-34,2.6465944e-32,7.710872e-39,-9.928464e-30,1.6201097e-35,-4.906e-42,1.7744114e-38,-3.4823164e-31,-6.8182594e-25,8.4632855e-20,-5.2756092e-31,1.1641197e-17,-6.3780336e-27,5.712e-42,3.2486388e-35,-1.9160972e-19,6.106099e-14,-9.435683e-26,5.7611862e-12,1.6826539e-21,4.968e-42,1.5074247e-31,-8.483833e-14,1.6885416e-33,-4.86927e-24,3.2803996e-30,5.204e-42,8.980386e-37,6.441263e-26,4.160768e-10,1.2383027e-19,-5.199e-42,-9.138884e-31,-8.912403e-12,1.2692124e-29,5.165e-42,6.22114e-34,-2.0638944e-21,5.064e-42,5.521e-42,-4.93e-42,9.2927e-41,-9.7321205e-32,1.1613703e-13
PGD,0.0075779925,-5.2282177e-14,0.013984673,5.314462e-26,1.03447845e-26,1.1703453e-13,-5.6653512e-08,1.3345602e-20,-5.272908e-06,-8.7393837e-16,6.034e-42,-6.2469652e-27,7.367816e-08,3.9551726e-25,-8.6825004e-14,1.1809202e-33,-3.0717812e-34,-1.1106125e-24,3.6932004e-19,6.7390696e-30,3.686937e-17,7.874032e-27,-4.955e-42,4.871701e-33,-4.55644e-19,0.024172248,3.832958e-26,9.4717e-27,2.1824189e-13,-1.0150198e-07,9.9057463e-20,-9.822499e-06,-1.3370845e-15,5.186e-42,-8.015867e-27,1.3187045e-07,-4.6269213e-38,6.51972e-40,2.7351817e-32,6.8413395e-30,-1.1473877e-36,2.9903707e-28,-1.4105997e-35,-5.025e-42,2.016213e-39,-1.1667985e-30,-2.01825e-39,7.50627e-35,-5.7056897e-31,1.023907e-38,9.6694924e-29,1.4023287e-35,1.4035e-41,3.7282e-40,6.0718623e-31,2.008161e-24,-1.1906669e-18,-5.1889974e-31,-7.4667576e-17,-7.5940034e-27,5.036e-42,-3.893268e-34,1.2946034e-18,4.3677762e-13,-2.697268e-25,3.9733297e-11,7.253858e-21,5.018e-42,-4.9849974e-31,-5.4372696e-13,-1.518497e-33,-5.9489004e-23,4.6284012e-32,6.157e-42,-2.9536387e-37,7.725399e-26,3.8651686e-09,6.0192284e-19,-5.269e-42,-1.0568173e-29,-4.9873543e-11,2.7055977e-28,5.298e-42,-7.7287083e-35,-9.3198335e-21,5.211e-42,-4.919e-42,-5.161e-42,2.7752332e-38,-3.0616698e-30,7.606209e-13
MASP2,1.934008e-05,-1.9218595e-16,4.6647296e-05,5.802923e-28,4.8909533e-29,5.5083463e-16,-1.7876163e-10,-5.2757266e-23,-3.0241623e-08,-4.7752425e-18,5.197e-42,-5.647781e-29,5.345246e-10,4.823939e-27,-3.019712e-15,-1.11089296e-35,1.2157296e-36,-6.2777443e-27,1.963527e-21,-4.2336043e-32,1.4383953e-18,6.0524184e-29,-5.134e-42,1.9064468e-36,-2.529402e-21,8.839586e-05,-1.1246838e-27,1.8437592e-28,1.1482845e-14,-9.708983e-10,-9.002376e-21,-4.0631324e-08,-3.4612258e-17,-6.293e-42,-8.302875e-29,1.064861e-09,-2.4779e-41,1.898287e-38,-1.9550218e-36,-8.026897e-32,-1.0087953e-36,-4.0059215e-30,4.5048566e-37,1.756e-42,-2.36613e-40,-1.6326633e-31,2.9708e-41,-6.562236e-36,-4.0924318e-33,-2.794538e-39,-4.1791927e-31,-1.30526015e-36,-5.361e-42,1.12632e-40,-2.8598027e-33,2.8933064e-26,-6.898885e-21,1.00006585e-32,-6.2248303e-19,-1.0603975e-29,5.681e-42,-2.8518817e-36,5.9280848e-21,1.209142e-14,7.2088136e-27,1.7464219e-13,1.160213e-22,-5.447e-42,1.7334605e-32,-2.6418706e-15,1.8885667e-36,4.579085e-26,-2.1163589e-31,5.2e-42,-2.101076e-39,-7.030746e-28,1.725009e-11,4.5561176e-20,1.2208e-41,3.2635859e-31,-2.6636174e-12,2.7945018e-30,-5.178e-42,1.2649964e-37,-1.05332804e-22,5.129e-42,5.014e-42,5.388e-42,1.439683e-39,-1.4116994e-31,6.2140463e-15
SRM,0.0057867863,-8.2570974e-14,0.0197388,-5.372294e-26,5.694023e-27,1.7760076e-13,-7.779813e-08,2.6433902e-20,-6.7989654e-06,-1.3760395e-15,5.049e-42,-8.364212e-27,1.0638209e-07,1.0171122e-24,-2.5456758e-13,-2.1317245e-33,-5.3219354e-34,-1.8606854e-24,1.0011581e-18,2.785308e-30,8.6825774e-17,1.2352381e-26,-5.186e-42,-5.1919023e-34,-1.3539505e-18,0.060434934,-4.7329325e-26,2.3768223e-26,5.657963e-13,-2.4185567e-07,5.6299e-21,-2.1483958e-05,-4.3263173e-15,5.005e-42,-1.9078561e-26,3.2832992e-07,-1.1454668e-36,1.9921857e-37,2.2059788e-33,9.470176e-30,-1.4920413e-36,6.8951e-28,-2.7174592e-34,-5.324e-42,-1.162028e-39,1.8227173e-29,3.1293052e-38,2.286265e-34,4.4403033e-30,-2.1142985e-36,-1.4246004e-29,1.3825641e-36,5.101e-42,2.84072e-38,-2.071849e-31,4.82452e-24,-2.0288797e-18,1.5397315e-29,-1.6468251e-16,-1.6859405e-25,2.0872e-41,5.1134982e-34,2.4850189e-18,8.9020555e-13,-3.778348e-25,7.912814e-11,1.4775257e-20,5.75e-42,-1.2927279e-30,-1.2003294e-12,4.9610564e-34,-2.2000427e-23,6.570915e-33,-5.085e-42,4.8297024e-38,3.8775403e-25,7.1772583e-09,1.4977848e-18,5.141e-42,1.661986e-28,-1.07543446e-10,2.3500998e-27,6.215e-42,2.278054e-35,-1.8230248e-20,5.734e-42,-5.544e-42,5.167e-42,4.523014e-39,-1.5687163e-30,1.6295154e-12
DRAXIN,5.8438516e-05,-6.4612997e-16,0.000108518594,-4.559475e-27,9.045753e-29,6.4353383e-15,-3.977697e-09,5.1606268e-21,-5.513731e-08,-8.8152365e-18,4.916e-42,-1.4228908e-28,1.1701132e-09,2.0517875e-26,-3.6218494e-15,-2.337085e-34,2.2952447e-36,-1.7068671e-26,6.4930293e-21,-6.6181854e-32,5.8224256e-19,-7.858418e-27,2.9866e-41,-2.5143402e-35,-9.412924e-21,0.00022144945,-3.236886e-28,2.0568053e-28,3.2669769e-15,-1.3552665e-09,2.6258337e-22,-1.1634224e-07,-3.12688e-17,2.2681e-41,-1.22215254e-26,2.4286015e-09,-6.85269e-40,1.01273e-40,2.1818398e-35,-1.8368101e-31,2.3825128e-37,5.6226415e-31,-4.5312785e-36,-5.141e-42,1.91628e-40,-8.930413e-33,2.422e-41,3.7305665e-35,-9.459946e-31,5.990893e-38,8.309203e-32,2.0742789e-35,5.444e-42,2.0461277e-38,-3.0614678e-32,1.2191219e-26,-1.3347614e-20,5.730574e-32,-1.2887281e-18,-3.5166006e-27,-4.996e-42,-8.5481276e-36,2.2338386e-20,5.6944115e-15,-5.721899e-27,1.9429796e-12,3.004429e-21,-6.146e-42,1.4705696e-32,-4.268227e-14,-5.299787e-36,3.0324013e-26,1.9512141e-33,-5.646e-42,1.9272568e-38,8.112134e-27,5.967311e-11,1.208777e-20,4.76e-43,-1.7044219e-30,-1.17907e-12,2.3606468e-30,-5.08e-42,8.355591e-37,-8.534785e-22,-5.492e-42,6.077e-42,5.052e-42,-5.3518e-40,2.8347033e-33,1.3612372e-14
MTHFR,0.002722015,-2.3576146e-14,0.0051342365,-6.5235346e-27,-3.620166e-28,3.5293495e-14,-2.0869338e-08,3.795393e-21,-2.000781e-06,-3.0912023e-16,7.655e-42,-2.73362e-27,2.7559222e-08,-2.0520473e-24,-3.0267228e-14,1.9318432e-33,1.7758082e-35,2.3717531e-24,1.9926025e-19,-2.502615e-31,1.6901194e-17,4.3727977e-27,5.08e-42,7.1901437e-35,-2.7648132e-19,0.008790932,2.9438962e-27,3.9253376e-27,8.773135e-14,-3.9650484e-08,1.5433937e-20,-3.6308804e-06,-5.752039e-16,2.277e-42,1.5276207e-26,5.344757e-08,-2.0785365e-38,-6.71882e-40,-3.148514e-34,6.681585e-31,2.2745898e-36,1.0105133e-28,4.0646556e-34,5.074e-42,3.753153e-38,-1.8938606e-30,4.294742e-39,6.7677645e-34,4.6213606e-31,1.0574083e-37,-2.1826633e-29,-1.5616135e-34,-5.004e-42,-2.6202e-40,-2.7312722e-30,3.900049e-25,-3.0522282e-19,-9.093483e-30,-5.5554866e-17,-4.2874244e-27,-6.184e-42,8.2554584e-35,5.842616e-19,1.7216385e-13,-1.5191637e-26,1.5257948e-11,4.034489e-21,5.196e-42,-1.2504797e-30,-2.289868e-13,-1.727653e-34,2.5087531e-23,1.1040772e-31,5.643e-42,-6.6339695e-36,-1.2330931e-25,1.4743445e-09,1.6765688e-19,5.064e-42,1.4157371e-29,-2.1513161e-11,2.919348e-29,-5.154e-42,3.5118048e-33,-4.9514414e-21,-4.2876e-41,5.263e-42,4.53e-42,1.093446e-39,-3.4020857e-30,2.884706e-13
PDPN,-4.3350674e-06,1.2820358e-16,-4.502212e-05,-2.6134429e-28,-9.118142e-30,-3.1182883e-16,5.1832594e-10,-1.6990962e-22,1.5857246e-08,7.803978e-18,5.757e-42,3.7706997e-29,-2.2561931e-10,-5.5734683e-27,7.018741e-16,-4.629285e-36,8.235179e-36,7.496053e-27,-1.5102113e-20,1.9875327e-31,-1.0337289e-18,-3.8894697e-28,-5.231e-42,3.376887e-36,3.5259862e-21,-0.00012548588,5.689658e-28,-1.7690874e-28,-3.4190686e-15,1.8302072e-09,-9.297674e-23,1.4297204e-07,5.885404e-17,7.725e-42,-4.1128336e-29,-1.236021e-09,4.173973e-39,-6.27112e-40,1.081988e-35,-1.2780558e-32,2.4935204e-38,-8.56999e-31,-4.2865452e-36,5.528e-42,-2.28751e-40,1.2698204e-32,1.8434e-41,-2.438135e-36,-8.863868e-33,1.6376165e-38,-1.368633e-31,1.3684105e-37,-5.214e-42,-1.2399e-41,-2.6172154e-33,-7.9813655e-26,9.204002e-21,-2.8816257e-32,2.8686886e-18,-9.754168e-29,-4.913e-42,6.394853e-36,-4.4944475e-21,-5.626263e-15,7.711372e-27,-5.9565504e-13,-2.4526218e-22,-5.153e-42,-2.4129501e-33,5.0786977e-15,-1.8076533e-36,1.4190455e-25,-9.2479516e-35,-5.203e-42,-1.211468e-38,-8.353078e-27,-4.1281926e-11,-1.6498163e-20,5.68e-42,-2.097071e-31,7.056217e-13,-7.953294e-31,-5.974e-42,1.2357169e-36,2.8980998e-22,-1.244e-41,-5.084e-42,5.106e-42,2.22827e-40,-4.151481e-33,-1.2892425e-14
CELA2A,-7.443228e-05,-2.1700837e-16,5.1480197e-06,-1.8175796e-27,-2.3289005e-28,-1.9004855e-15,5.701232e-10,-8.1495163e-22,-1.7455692e-08,3.54503e-17,5.675e-42,2.4122085e-28,2.5942123e-10,-6.670595e-27,3.1823242e-16,9.5137025e-36,3.2451626e-36,1.7689617e-25,-5.9546353e-21,-3.839112e-32,-8.884585e-18,-2.1240068e-28,5.61e-42,-9.3769265e-36,8.799592e-21,-2.2339731e-05,1.0438568e-27,-2.9898045e-28,-9.261401e-15,2.5246236e-09,3.442642e-20,2.6957073e-08,2.3683706e-17,4.909e-42,2.595559e-28,-5.4648575e-10,-6.0685e-41,2.38012e-40,1.1619527e-33,-4.018005e-31,-6.3843216e-37,1.5010152e-29,-6.8151036e-36,-5.21e-42,-5.357531e-39,-3.2731443e-32,-3.5995e-41,7.411317e-36,-6.684533e-32,-3.186243e-39,-1.333465e-28,-3.1537444e-37,-2.27e-43,-5.9496e-41,1.6789514e-32,-3.4477243e-26,1.9501398e-19,5.6248067e-30,1.0407481e-18,-2.2547417e-27,4.927e-42,1.9320442e-35,-1.9323018e-19,-1.7825568e-14,5.703097e-26,-1.0095849e-12,-7.1744116e-23,-5.279e-42,-2.5397014e-31,1.643568e-14,1.5322595e-34,5.04695e-24,2.2368233e-31,5.427e-42,-3.2753558e-38,-7.929377e-27,-3.9383496e-11,-1.1151871e-20,4.519e-42,3.010553e-30,6.426692e-13,6.777381e-31,5.486e-42,-3.9365992e-36,1.3510843e-21,4.6155e-41,5.259e-42,4.944e-42,3.54837e-40,3.35562e-32,-9.270691e-15
CELA2B,6.255119e-05,-3.5522203e-16,8.654937e-05,-4.066455e-28,2.7036174e-29,4.667502e-15,-3.2985373e-10,-2.739536e-22,-3.0179947e-08,-4.6070076e-17,1.101e-42,-4.516137e-29,4.5230514e-10,-5.8645044e-27,-2.0196933e-15,-1.34503535e-33,-9.767599e-36,-1.1779896e-25,9.523015e-21,-3.1802866e-31,1.6065451e-19,9.092871e-29,-4.963e-42,-8.19491e-36,-2.5658834e-21,4.6956062e-05,-2.351592e-26,-2.3388123e-26,1.2035655e-15,-6.233562e-10,2.0314728e-22,-3.9688604e-08,-5.8069568e-18,-5.014e-42,-1.919835e-29,1.0441868e-09,-3.73988e-40,1.60401e-40,4.1523692e-36,7.7556596e-32,-8.354055e-39,-2.3180504e-30,3.910367e-36,-5.256e-42,-4.69449e-40,-1.1070538e-31,2.11787e-40,-7.6467134e-36,5.799519e-31,-1.3998976e-38,2.4766534e-30,-3.3542408e-37,5.544e-42,9.7012e-41,-8.486317e-33,3.747471e-24,-6.713773e-21,2.8055224e-32,-3.7317879e-19,-2.286558e-28,4.905e-42,2.6146943e-35,6.425475e-21,1.05096265e-14,-1.8896437e-27,9.0854933e-13,4.3040705e-23,3.751e-42,3.2541148e-32,-3.1419436e-15,1.914745e-36,1.0205191e-27,4.180114e-33,5.007e-42,-3.23198e-39,3.222575e-27,3.300044e-11,2.7320108e-21,-1.35e-42,4.19137e-31,-2.4793237e-13,1.3922268e-28,-5.253e-42,8.432291e-37,-1.0906626e-21,5.961e-42,-5.074e-42,-5.196e-42,6.85e-41,-1.2252398e-32,7.682312e-15
PLA2G2C,8.814029e-05,8.378276e-15,6.639364e-05,1.0288663e-27,-3.1942119e-28,8.727909e-16,-2.0753854e-10,3.0268578e-22,1.3096792e-07,-7.74239e-18,-3.883e-42,-1.2994855e-28,5.4416716e-10,-5.771704e-26,1.8321854e-15,1.969398e-35,-2.2873474e-35,2.0744998e-27,-2.956773e-20,9.39803e-32,-1.0841763e-18,-1.2130476e-27,-5.258e-42,-3.952311e-35,9.5701876e-20,-0.00015491949,-1.8495462e-28,-5.744314e-29,-1.1233485e-15,4.689466e-09,-2.4816803e-20,4.804042e-08,5.20007e-16,1.1638e-41,2.286064e-28,-8.8651236e-10,3.34291e-40,-4.7842e-41,7.834606e-35,3.6850416e-30,-4.4631813e-38,-2.091296e-30,2.6980201e-34,5.269e-42,4.032313e-38,2.0614962e-31,-1.4946e-41,-1.0798635e-34,-1.6833273e-30,-2.1982896e-36,-1.1068025e-31,1.6857887e-37,5.109e-42,6.434477e-39,-1.2241413e-32,-6.461914e-25,5.107191e-21,-8.388067e-32,9.114781e-19,5.6832724e-28,-5.195e-42,2.1123708e-35,-4.7648824e-19,-1.2546162e-14,1.618099e-27,-4.63336e-13,1.5775819e-23,5.112e-42,3.9889563e-32,8.2242915e-14,4.1585283e-36,4.0121943e-26,7.205369e-33,5.059e-42,-1.1195496e-37,5.817449e-27,-4.722282e-12,-7.301277e-20,4.966e-42,5.122113e-31,4.3763717e-12,5.334603e-30,-2.619e-41,1.6904511e-36,6.347985e-22,-4.907e-42,-5.267e-42,5.314e-42,2.18518e-40,9.911209e-33,-3.0998786e-15
HP1BP3,0.006372344,-5.859446e-14,0.013878711,-1.3715826e-26,3.3669927e-26,9.7909704e-14,-6.194446e-08,1.8449868e-20,-5.3820304e-06,-1.2338089e-15,-3.517e-42,4.3289724e-28,8.521817e-08,4.261602e-25,-1.4728975e-13,-1.0592267e-33,2.3795064e-33,-6.726181e-24,6.215527e-19,-3.306671e-30,5.4765574e-17,2.765123e-26,-5.366e-42,-1.8025066e-34,-1.0278315e-18,0.029924499,-7.2089074e-26,1.41542e-26,2.9545805e-13,-1.3621955e-07,4.21246e-20,-1.2066829e-05,-2.8176903e-15,-4.365e-42,-1.1446515e-26,1.8541564e-07,3.6878117e-38,-1.4673826e-38,-2.784574e-34,-8.083373e-30,1.702325e-36,-2.1174557e-28,-4.5832246e-35,5.815e-42,1.65618e-40,6.8543306e-31,-1.771136e-39,-3.48941e-35,3.7999203e-30,2.6370848e-36,2.4536595e-28,2.1510126e-35,-2.455e-41,-1.158246e-39,3.013449e-31,4.5023163e-24,-1.2846911e-18,1.0508044e-29,-1.233364e-16,-2.4926921e-26,5.265e-42,-1.6308096e-33,1.3132741e-18,5.7025744e-13,-4.4238057e-25,5.0125307e-11,4.8815745e-21,-6.288e-42,5.805154e-31,-7.861137e-13,6.1701325e-35,-1.5378367e-23,9.400289e-31,5.256e-42,-6.210042e-36,3.6449454e-25,4.564722e-09,8.866712e-19,5.342e-42,3.859665e-29,-6.827396e-11,-5.299503e-28,4.948e-42,-3.471688e-36,-8.942621e-21,5.03e-42,5.036e-42,-4.919e-42,-7.605061e-38,-1.4293773e-30,1.0695927e-12
CDC42,0.008605656,-9.384414e-14,0.018136313,-3.2425452e-25,7.717708e-27,1.992685e-13,-8.51706e-08,1.111712e-19,-7.16559e-06,-1.4724451e-15,-4.906e-42,-7.349223e-27,1.1809345e-07,1.5808815e-24,-1.9033977e-13,3.4819512e-32,2.3095106e-33,-6.217355e-24,1.0002511e-18,1.9962552e-30,7.131628e-17,-2.6921063e-28,-5.577e-42,-4.168369e-33,-1.1485415e-18,0.037334878,-4.512973e-27,4.997421e-26,4.4724508e-13,-1.7410045e-07,5.623154e-20,-1.5167335e-05,-3.230721e-15,-5.043e-42,5.459128e-26,2.4107487e-07,3.1975437e-38,1.3817141e-37,6.096683e-34,2.5348887e-30,4.0610365e-37,-4.2458065e-28,1.3383518e-36,9.163e-42,8.49501e-40,6.0800904e-29,-2.0956957e-38,-5.0638093e-34,-5.6461168e-30,2.5196048e-37,3.2678686e-29,2.8332775e-34,-5.061e-42,3.816782e-39,-5.717566e-30,1.3317523e-23,-1.7785738e-18,3.436218e-29,-1.5149381e-16,-3.6303305e-26,-5.516e-42,-3.9869032e-35,2.3720188e-18,7.580755e-13,5.445511e-26,6.504029e-11,1.4683605e-20,5.345e-42,1.4851471e-30,-1.0480129e-12,1.7059552e-34,-1.5574423e-22,4.177154e-32,-5.324e-42,-1.094819e-37,5.2011626e-25,5.7562004e-09,1.2302341e-18,-5.733e-42,2.5455028e-29,-9.041117e-11,1.0591572e-28,5.58e-42,1.6321783e-33,-1.922811e-20,-5.245e-42,6.176e-42,-6.21e-42,4.5664e-41,-3.1159572e-31,1.4418726e-12
ZNF436-AS1,0.0016298748,-2.1343728e-14,0.0027261018,3.5607113e-27,9.921579e-28,2.0265622e-14,-1.0465263e-08,8.669616e-21,-1.0190356e-06,-5.010454e-16,-5.02e-42,-2.1468591e-27,1.5284886e-08,3.6483178e-26,-4.4948593e-14,3.6727087e-33,5.706255e-35,-7.870272e-27,1.9450821e-19,-1.6998022e-31,1.9702393e-17,-2.7551875e-28,5.153e-42,5.484934e-35,-1.545632e-19,0.0034804966,-2.283003e-25,3.936051e-27,2.4556393e-14,-1.5325943e-08,-1.7791274e-21,-1.6044213e-06,-1.7118557e-16,5.413e-42,-2.2804078e-27,2.4066775e-08,-1.569621e-39,-1.748401e-39,-3.893269e-34,-3.9654006e-30,5.0018064e-37,9.6036256e-29,-4.9330665e-35,-6.19e-42,5.82324e-40,1.5987172e-29,1.6737e-41,-8.619003e-36,-1.4469093e-31,8.8570006e-38,2.0819032e-31,-2.1748218e-35,6.009e-42,-1.349265e-39,-2.0074286e-31,1.2174847e-23,-5.481718e-20,1.0857954e-28,-1.4891615e-17,1.983016e-26,-5.151e-42,1.11821225e-35,1.260659e-18,7.0924684e-14,1.1466452e-25,7.399811e-12,7.667898e-23,6.013e-42,-9.940027e-31,-7.10555e-14,1.9134561e-35,2.2075302e-23,-1.2590362e-30,1.259e-41,1.6013309e-36,6.06775e-26,6.808622e-10,1.210435e-19,-5.286e-42,-1.2020943e-28,-6.068459e-12,-2.9583136e-28,5.447e-42,-1.16632845e-35,-3.463803e-21,5.593e-42,-5.675e-42,-5.008e-42,6.94241e-40,-7.4707777e-31,9.6793125e-14
ID3,0.0025401122,-1.5476161e-14,0.0050336984,1.9097086e-25,1.2216838e-27,-4.3620205e-14,-8.020391e-09,-1.1967002e-20,-1.44239e-06,6.8900296e-16,-5.664e-42,2.8646578e-26,1.2986206e-08,2.5008145e-26,1.156141e-13,-1.745781e-32,8.1051443e-35,-8.3713124e-26,-9.94162e-21,-1.86167e-30,-5.377149e-17,2.1830857e-27,5.241e-42,-3.8250483e-34,5.082877e-19,0.008348362,-2.9650564e-26,1.8421142e-27,-1.6533786e-13,-1.9518152e-08,4.3976084e-21,-2.8789393e-06,-1.4596526e-16,5.182e-42,1.1360733e-26,1.793575e-08,6.43979e-39,-1.5274265e-38,-2.6056816e-32,1.712487e-30,-1.3134407e-36,1.750998e-29,1.189013e-34,5.371e-42,-4.19662e-40,-1.8031164e-29,-1.973537e-39,-8.093145e-35,3.4059088e-32,-4.7381018e-37,-2.7448922e-29,-5.464041e-35,-5.026e-42,-4.28789e-40,2.5933441e-31,-3.2050158e-24,-1.3822816e-19,-7.9860325e-30,8.405334e-17,7.137035e-26,5.108e-42,1.8371006e-34,1.2300588e-20,4.9147257e-14,1.26063e-24,9.2037315e-12,-9.415655e-21,5.097e-42,-2.459544e-30,-8.782807e-15,6.464607e-33,-1.0824002e-24,-2.9459181e-31,4.941e-42,3.031457e-36,-3.7489976e-25,1.1192276e-09,1.6564699e-19,-5.127e-42,-1.1782204e-28,-5.0107843e-12,-2.3331576e-27,-5.076e-42,2.3285445e-33,1.2762433e-20,5.881e-42,-1.864e-42,-6.29e-42,1.2402498e-37,6.2744715e-31,-1.1832717e-13
HMGCL,0.0016915041,-8.6456844e-16,0.002831773,-1.8568766e-26,1.7050286e-26,3.819947e-15,-1.2635758e-08,2.9760991e-21,-1.1020654e-06,-2.0304654e-16,5.947e-42,6.027339e-28,1.8149747e-08,7.921798e-26,-1.9629589e-14,-1.1313853e-34,1.638918e-36,-2.4132103e-25,7.612208e-20,-9.31974e-30,1.1457194e-17,-2.2067839e-27,-5.056e-42,1.3283397e-34,-1.2439469e-19,0.0037334515,2.4570931e-27,1.8053742e-27,6.2514806e-14,-1.8533024e-08,2.8286084e-20,-1.7041626e-06,-3.0935165e-16,-1.467e-42,-7.320845e-27,2.6160905e-08,4.235376e-39,4.00125e-40,1.4605879e-34,-4.142946e-31,-7.083022e-38,-1.3396512e-28,-5.40707e-35,5.162e-42,-3.3045e-38,-9.687628e-30,-1.67688e-40,-2.0075554e-34,9.596027e-32,6.248677e-39,-1.0880877e-28,3.197074e-37,7.851e-42,-2.07815e-40,1.940689e-31,3.4271941e-25,-3.8960184e-19,-5.3158036e-31,-1.7261569e-17,1.9530871e-26,5.162e-42,-3.6034808e-35,2.4650946e-19,8.343875e-14,-1.6489603e-25,7.798782e-12,8.95536e-22,5.296e-42,2.4302648e-32,-1.1996392e-13,-2.193614e-34,2.5597822e-24,-1.1630403e-30,-1.0178e-41,1.1717394e-36,4.266753e-27,7.3593576e-10,2.5808213e-19,-5.241e-42,-3.1799052e-30,-1.0631494e-11,-7.3700813e-29,4.919e-42,3.2289953e-34,-1.5627765e-21,5.916e-42,5.147e-42,5.817e-42,-5.331192e-39,1.19205945e-29,1.6685005e-13
FUCA1,0.0025272144,-4.3009538e-14,0.0044135773,-6.620583e-27,5.18359e-27,1.03529124e-13,-2.1314557e-08,-5.152245e-20,-1.8249094e-06,-3.707865e-16,5.202e-42,-4.226316e-27,3.1554844e-08,2.2476826e-25,-5.272115e-14,-4.8054668e-32,4.073455e-36,-4.5659644e-25,2.9060747e-19,-7.035567e-31,1.6984725e-17,1.3689604e-26,-6.155e-42,9.80857e-33,-1.4949042e-19,0.0066040875,-3.173014e-26,-1.111806e-25,9.182532e-14,-3.6524654e-08,1.6136203e-20,-3.0574085e-06,-7.265214e-16,5.207e-42,-1.6341672e-27,5.2727003e-08,1.5656098e-38,1.4664904e-38,7.6995144e-35,1.6316653e-29,-4.856262e-35,-2.665736e-28,3.539177e-35,-5.248e-42,-2.1670007e-37,1.5356696e-30,1.394403e-39,-9.708814e-34,-4.1921564e-32,-2.6628384e-38,-5.70386e-30,-6.43928e-36,-1.289e-42,2.34254e-40,-1.4690935e-30,2.206491e-24,-6.155292e-19,-3.5350192e-30,-5.603229e-17,-7.6963265e-27,3.821e-42,-5.710207e-36,1.135657e-18,1.6648487e-13,-7.075585e-25,1.4838837e-11,2.1589454e-21,-4.909e-42,1.6613573e-31,-2.4106772e-13,1.7784633e-34,-1.2870794e-24,-4.2924436e-31,5.279e-42,-1.4916478e-37,9.627111e-26,1.255385e-09,1.7857783e-19,-5.074e-42,-1.5030333e-28,-2.0271678e-11,-2.389074e-28,-5.729e-42,6.4699815e-36,-2.3932223e-21,5.13e-42,-5.626e-42,-6.013e-42,-3.1309e-40,-4.6477062e-31,3.334822e-13
CNR2,2.409003e-05,-1.0299724e-15,0.000102515914,6.471152e-28,-2.3992889e-29,4.1574693e-16,-9.958586e-10,1.749105e-21,-7.662146e-08,-1.788982e-17,5.364e-42,-1.1944496e-28,4.256106e-10,7.299219e-27,-8.23545e-15,-1.6840654e-34,-4.0836336e-36,-2.0374686e-26,1.5688448e-20,2.0944925e-32,1.1705149e-18,4.801023e-29,6.205e-42,7.762252e-36,-1.0138558e-19,0.00016691719,1.4698676e-26,5.764836e-29,6.635903e-15,-3.4262602e-09,2.1738234e-20,-1.9190564e-07,-2.5133062e-17,-5.441e-42,-4.161193e-29,7.3726243e-09,2.124916e-39,-1.101e-41,7.781818e-36,-3.4156706e-31,2.4346824e-38,1.4752789e-31,-1.1113477e-37,6.013e-42,-3.01708e-40,-5.8981995e-34,-4.966e-42,-1.2621337e-36,1.0025898e-32,4.503259e-37,7.469244e-29,3.1476888e-37,-3.11e-42,-1.69022e-40,-3.148615e-33,3.3750136e-24,-1.5914923e-20,-1.565268e-30,-3.8045668e-18,-2.0752764e-27,-4.906e-42,-8.6762826e-36,1.0723511e-20,6.5572577e-15,2.18569e-27,3.1833783e-13,2.338187e-22,-5.133e-42,5.975667e-33,-7.109348e-15,4.3834643e-36,-4.5145913e-25,5.439292e-31,6.125e-42,-5.758901e-39,-3.56528e-27,5.233685e-11,3.8505342e-21,-5.555e-42,-1.5157975e-31,-1.6438216e-12,4.8217786e-31,5.125e-42,3.1111524e-36,-5.229312e-23,-6.258e-42,5.038e-42,-5.963e-42,1.7387e-41,7.025662e-32,1.5091013e-14
SYF2,0.0062880255,-6.369899e-14,0.01197584,-2.6514644e-26,3.897573e-27,1.64694e-13,-5.8918793e-08,2.0887206e-20,-4.8514116e-06,-1.5707642e-15,5.174e-42,-3.4119806e-27,8.604469e-08,-6.7423646e-25,-1.7253711e-13,1.7792786e-32,8.3331736e-35,-1.594088e-24,8.440214e-19,1.6304833e-30,4.519338e-17,2.6086727e-26,4.937e-42,-1.8493277e-34,-7.2435167e-19,0.022322161,-8.9468376e-26,9.277081e-27,3.61184e-13,-1.086664e-07,-4.347165e-20,-9.389575e-06,-2.0919423e-15,5.091e-42,5.0230114e-26,1.5125241e-07,-5.797421e-39,-1.5603936e-38,5.368853e-34,-1.8096062e-29,2.8654564e-36,3.6990874e-28,5.2707405e-35,-5.084e-42,-2.3564538e-38,-1.9365455e-30,1.3382884e-38,1.3619684e-34,-4.332737e-32,5.442194e-36,-1.7064192e-29,5.4754866e-36,-5e-42,1.4745457e-38,2.5741792e-30,4.3843816e-24,-1.109e-18,-1.5462336e-30,-1.5264952e-16,-2.026455e-26,-5.02e-42,-2.1240154e-34,1.5403168e-18,4.780979e-13,-2.0741944e-25,4.1614212e-11,8.3860015e-21,-5.165e-42,8.824034e-31,-6.8192685e-13,-1.6290834e-34,-1.624518e-23,-1.3906612e-30,-5.012e-42,-6.9520004e-37,2.3198407e-25,3.6520613e-09,7.0905803e-19,5.068e-42,-7.286793e-29,-5.857656e-11,2.5534097e-28,-4.905e-42,-1.0928998e-33,-2.0463009e-20,-6.097e-42,5.202e-42,5.465e-42,1.435294e-39,-5.6531037e-31,9.22155e-13
RSRP1,0.0076419553,-1.2559187e-13,0.013847077,8.6189026e-26,-2.9707082e-27,2.1320497e-13,-7.1285996e-08,1.0975557e-19,-6.0695456e-06,-1.376987e-15,5.305e-42,-2.340005e-27,1.1158922e-07,6.807078e-25,-1.7917128e-13,-4.097006e-33,-7.0317624e-35,1.0378102e-25,7.984388e-19,-3.7559595e-31,6.8253505e-17,9.987559e-27,-5.168e-42,-1.2612072e-34,-1.6105428e-18,0.022146901,-1.4149348e-26,-1.09674916e-26,5.1144126e-13,-1.2964541e-07,7.729257e-20,-1.039139e-05,-3.2801124e-15,5.321e-42,-5.585786e-26,1.7955132e-07,-2.9586915e-38,-3.9608e-40,-6.0916068e-33,3.0079455e-31,-1.3882408e-36,-4.0622807e-28,3.147485e-34,-5.157e-42,2.595203e-39,-2.9437042e-29,-3.652429e-38,-8.7334024e-35,8.174352e-31,2.4258424e-38,-7.2084384e-31,-2.1731222e-34,5.158e-42,3.51167e-40,1.2893779e-30,-5.2791554e-24,-2.3815882e-18,-1.6504473e-30,-1.5400107e-16,-2.607803e-26,-5.192e-42,-4.861358e-34,3.0651883e-18,5.8228785e-13,-2.3572677e-25,5.011697e-11,1.656702e-20,5.8e-42,-8.576438e-31,-9.588534e-13,-1.017591e-33,-2.0092978e-23,6.9355965e-32,-5.559e-42,2.540479e-37,2.4058096e-25,4.2634323e-09,1.2239041e-18,5.63e-42,-5.326949e-29,-6.9776e-11,3.3287927e-27,-5.91e-42,5.201168e-35,-2.1452713e-20,5.12e-42,4.955e-42,-4.914e-42,-5.48224e-40,2.7247564e-30,1.2981928e-12
MAN1C1,-0.00018421955,1.1351423e-15,-0.00027844813,-1.1603104e-28,-1.0469163e-27,-3.099486e-14,1.0477841e-09,-4.7592233e-22,1.3289697e-07,2.686746e-17,6.091e-42,9.332823e-29,-2.1268465e-09,-2.1865431e-26,1.2229509e-14,-1.6066352e-35,-2.9038145e-36,2.0057972e-26,-7.365881e-20,-8.461351e-32,-1.7884288e-17,-5.2748796e-29,4.945e-42,-5.753802e-36,2.4856994e-20,-0.00023409704,1.2447501e-27,-2.6183068e-27,-6.07719e-14,3.5247916e-09,-1.4096373e-21,3.377249e-07,2.522777e-16,-5.29e-42,1.9832066e-28,-6.233033e-09,1.447365e-39,5.4379164e-38,-9.311045e-34,3.107278e-30,5.518069e-35,-9.322993e-30,6.315687e-35,5.267e-42,4.539895e-39,-7.716585e-32,-2.325e-42,-2.0737059e-34,3.215912e-32,-6.754558e-38,3.5178925e-29,-1.9222064e-37,4.955e-42,3.77968e-40,-6.5100126e-33,-1.3882976e-25,2.1749839e-20,3.1462447e-32,1.3349278e-17,2.6026567e-28,5.119e-42,2.0322895e-35,-3.4161688e-19,-1.6772093e-14,-4.1550318e-26,-1.7287431e-12,-2.4151208e-22,5.23e-42,2.4767287e-31,7.724397e-14,-1.9549503e-35,7.710211e-25,-5.2977683e-33,-4.931e-42,6.543112e-39,-1.222796e-25,-7.985714e-11,-2.6795138e-20,2.98e-42,1.6203138e-30,2.1616123e-12,-9.236658e-31,5.066e-42,1.3013263e-36,2.87234e-22,5.102e-42,-4.945e-42,4.92e-42,5.09923e-40,-9.402112e-33,-5.9860327e-14
PAQR7,0.00041976338,6.2347083e-16,0.0008741094,-6.9405486e-26,2.4146395e-28,2.4215615e-15,-8.034585e-10,7.639665e-22,-1.4659193e-07,1.3680909e-17,1.663e-41,6.4242445e-29,-1.8773456e-09,-4.8061492e-26,-7.734169e-15,-8.506206e-34,3.815317e-35,1.9703162e-26,-4.7209004e-20,3.129922e-30,1.1022138e-18,4.608167e-26,5.241e-42,-1.4188384e-34,-2.3069898e-20,0.001763945,-5.3200404e-26,8.43994e-28,-6.3851817e-15,-5.699426e-09,8.0143383e-23,-5.692644e-07,-1.1251967e-17,-5.37e-42,1.590769e-27,-1.7581808e-09,-6.31882e-39,2.2777e-40,-1.096159e-33,2.032499e-30,4.2479573e-38,8.81256e-29,3.4397968e-34,-5.726e-42,7.086815e-39,-2.0225622e-30,1.23244e-40,-9.019767e-34,-2.3769265e-31,4.3840386e-36,4.162486e-30,-1.9520022e-36,5.21e-43,2.95949e-40,2.7426564e-31,-4.403602e-25,9.2093805e-20,1.9188443e-29,-4.92663e-18,4.006346e-27,5.189e-42,-1.1119576e-32,-8.1698555e-20,-1.1195801e-15,1.0385881e-24,7.964305e-13,1.5787984e-21,3.94e-42,-1.4608787e-32,-1.472554e-15,-3.9425467e-33,-1.1562755e-24,-2.4951495e-33,5.667e-42,2.2185584e-38,-5.7135815e-26,2.0549701e-10,-4.5438417e-20,-5.885e-42,-4.6666973e-28,-1.8503408e-12,2.1288878e-28,4.994e-42,-5.3688714e-36,-2.3342843e-21,-6.006e-42,5.807e-42,-5.14e-42,5.10298e-40,4.572951e-30,-2.5246054e-14
STMN1,0.009776777,-1.1499897e-13,0.024891809,-4.6318e-27,7.418763e-27,2.4373537e-13,-1.06411164e-07,3.5561225e-20,-9.279718e-06,-1.9158424e-15,-5.678e-42,-9.604651e-27,1.4577645e-07,1.1166779e-24,-2.9259543e-13,-1.9118995e-33,4.5124212e-35,-3.059597e-24,1.1071001e-18,8.007941e-30,1.0164623e-16,1.5634598e-26,-5.263e-42,-7.8688415e-33,-1.5516981e-18,0.060782798,-6.88763e-26,1.8045355e-26,6.194393e-13,-2.6216293e-07,5.485311e-20,-2.2922077e-05,-4.66028e-15,5.026e-42,-4.9880196e-26,3.5782313e-07,-3.6724782e-38,-3.3525816e-38,3.2508204e-33,-6.7306444e-30,-9.477285e-36,4.844636e-28,4.095331e-36,-4.95e-42,-3.727504e-39,-5.769288e-30,1.553757e-39,3.3544935e-34,-3.7050545e-31,-1.1258735e-35,2.955778e-29,1.5936123e-35,-5.462e-42,1.203617e-39,-2.362536e-31,4.9337416e-24,-2.317285e-18,3.988841e-30,-2.1488188e-16,-4.2830195e-26,5.838e-42,1.443036e-33,3.215928e-18,1.0572826e-12,-3.1210175e-25,9.27492e-11,1.8165906e-20,4.923e-42,8.98776e-31,-1.4408743e-12,2.392766e-33,-2.3615279e-23,5.7116806e-32,-5.825e-42,-1.8784039e-38,4.3515653e-25,8.200816e-09,1.6116103e-18,4.905e-42,3.653932e-30,-1.2636607e-10,2.190679e-27,-6.24e-42,-6.8651235e-35,-2.4548136e-20,5.011e-42,-2.4013e-41,5.076e-42,-3.779413e-39,-5.747737e-31,1.96411e-12
EXTL1,0.00011053298,-1.5841275e-14,0.00021580454,2.5644158e-27,4.318129e-28,1.576045e-15,-6.9267125e-10,-1.5982981e-22,-7.13048e-08,-9.743217e-18,5.764e-42,6.8767185e-27,5.8303318e-09,6.900513e-25,-1.6196567e-15,-5.4526517e-35,-1.0855036e-35,-1.7970775e-27,1.1873294e-22,5.8257185e-31,8.851418e-18,-5.123075e-28,-5.314e-42,-5.8529936e-37,-6.961894e-21,0.00024705133,-1.8657422e-26,7.640081e-27,4.388051e-14,-6.3379785e-10,2.7500188e-22,-1.3262022e-07,-2.366656e-16,5.863e-42,-1.3360299e-27,4.167837e-09,-7.85795e-40,-2.2638e-41,1.2564307e-35,-3.516895e-30,-1.9756527e-35,2.976259e-30,-4.0589607e-36,-5.199e-42,-3.5369858e-37,2.6724334e-30,-4.7948e-41,-8.566755e-36,3.3858904e-32,1.5563567e-37,-5.5707307e-29,-8.710099e-38,-4.987e-42,3.6822937e-38,3.5349264e-31,5.542364e-26,-1.6077391e-19,-1.1907479e-31,-2.9496457e-17,3.7363623e-26,-5.259e-42,1.5989923e-33,4.8440565e-19,6.2107666e-15,-9.965729e-27,2.3431075e-13,1.2048853e-22,-2.566e-42,-1.03625844e-32,-8.622553e-15,3.7290297e-34,2.1575316e-25,2.8545141e-33,-6.212e-42,-1.7875697e-38,-1.0133188e-27,4.107424e-11,1.2816525e-20,-3.933e-42,-1.2154789e-30,-4.6014115e-13,3.6471268e-28,-4.933e-42,3.576625e-36,-6.318847e-24,-2.945e-41,5.144e-42,-5.172e-42,2.71814e-40,5.9355576e-32,4.193772e-14
TRIM63,7.927281e-05,6.678714e-16,6.198396e-05,-2.5654752e-27,-7.341148e-29,-8.326457e-15,-5.840313e-10,-3.2495036e-22,8.4851095e-08,-4.8241637e-18,5.084e-42,-5.8673654e-29,-1.7123718e-09,-1.1223022e-24,1.6828144e-14,-3.7649563e-33,-1.6001996e-36,1.6736714e-24,-1.2543018e-21,1.8994074e-32,-1.0221905e-18,-2.7961404e-27,4.991e-42,3.985715e-35,1.1093532e-20,0.00026324167,9.169865e-27,2.5426148e-29,-6.9251355e-15,1.1530489e-09,-8.904709e-22,3.965096e-08,1.4946747e-17,5.214e-42,1.0606947e-27,-3.1790723e-09,-1.999263e-39,-4.343054e-39,7.9226844e-35,5.168925e-30,-2.7510852e-38,-2.0220459e-30,9.040518e-35,-4.921e-42,6.4979e-40,-4.358549e-31,-7.9744e-40,-6.981924e-36,-7.205811e-33,-7.660709e-36,2.965888e-31,1.063232e-37,5.556e-42,-2.1925998e-38,-7.7332024e-32,-1.0066564e-24,4.188453e-20,8.351824e-31,-3.995247e-18,1.20957006e-26,-5.402e-42,-1.1596272e-36,-2.9370104e-20,3.1619026e-15,-4.9963422e-27,-7.484505e-13,-2.0664448e-21,-4.916e-42,7.4571136e-33,1.300296e-14,-2.086564e-36,3.6522833e-25,8.813832e-31,4.965e-42,1.3954601e-38,-1.6788327e-25,-3.3630942e-11,6.1977646e-21,-5.063e-42,-1.2010736e-30,-5.1191175e-13,-2.0251887e-30,-4.919e-42,6.6938996e-38,-7.758377e-24,-4.909e-42,-4.966e-42,4.958e-42,3.5324035e-38,-8.228598e-31,-5.4345397e-15
SH3BGRL3,0.012152275,-6.9224527e-14,0.021699172,-3.4825704e-26,3.055514e-26,1.4118183e-13,-8.701674e-08,1.5188674e-20,-8.448578e-06,-1.5296782e-15,4.931e-42,5.663152e-27,1.2247511e-07,5.4961995e-25,-1.01449577e-13,-2.7502027e-33,-1.9737472e-33,-1.8492432e-24,3.8168629e-19,-1.1584355e-30,6.208869e-17,-8.579709e-28,4.93e-42,8.678082e-34,-9.811567e-19,0.03535548,-3.3371757e-25,4.550987e-27,3.3837402e-13,-1.5582425e-07,4.490749e-20,-1.4833311e-05,-2.3367026e-15,5.057e-42,8.269791e-27,2.0501301e-07,1.2529007e-36,3.03095e-40,-5.100861e-33,-6.31209e-30,2.9589856e-35,1.4139782e-27,-5.522668e-35,-4.95e-42,2.317264e-39,-1.2908307e-30,-3.31221e-40,4.90509e-35,-2.2254765e-31,-3.349166e-37,7.8833194e-29,-4.8501304e-35,4.928e-42,-1.626042e-39,-8.941476e-30,-1.562783e-24,-5.598547e-19,5.6075167e-31,-6.840706e-17,-1.7284534e-26,5.081e-42,1.449211e-34,8.0574154e-19,6.7787415e-13,-1.6895147e-25,6.5453955e-11,1.0271219e-20,-5.11e-42,3.1166719e-30,-9.103839e-13,-2.3318256e-32,-1.6348289e-23,-6.265739e-32,5.602e-42,-3.874235e-37,2.3007663e-25,6.1518337e-09,9.8018e-19,-5.636e-42,3.0468118e-29,-8.7163714e-11,7.0031334e-28,-5.672e-42,-1.6870649e-33,-1.102773e-20,-5.067e-42,-5.675e-42,-5.118e-42,2.288298e-38,2.1308948e-30,1.2222219e-12
CD52,0.004475558,-1.2649211e-14,0.0064319507,-1.444226e-26,7.8584784e-28,-1.0013314e-14,-2.5385397e-08,1.2961213e-20,-2.5092254e-06,-4.4691486e-16,5.706e-42,-3.6475418e-28,3.6086444e-08,1.6092331e-25,-2.5783959e-14,-3.8364513e-34,2.2888006e-35,-6.4884058e-24,1.7958528e-19,2.8545228e-31,1.3102196e-17,-3.7226504e-27,-5.098e-42,-5.31862e-35,-1.835231e-19,0.0051735016,1.1747338e-25,-4.6075116e-27,9.103776e-15,-2.4418693e-08,6.4551164e-21,-2.7237913e-06,-3.773047e-16,5.059e-42,-5.1791915e-27,3.3421617e-08,6.34289e-39,-2.419251e-39,-4.1720535e-34,-3.7880003e-29,-3.8467625e-37,8.903224e-28,3.2054023e-33,-5.066e-42,1.5397238e-38,-1.0511513e-31,1.3518e-41,2.9963357e-35,-2.821423e-31,-1.200455e-35,1.336951e-30,2.189584e-34,4.969e-42,5.015e-42,2.2771441e-30,5.718391e-24,-4.225867e-19,-1.8161706e-30,-2.7293115e-17,8.7464175e-27,5.248e-42,-4.7145232e-33,4.3808586e-19,1.3621541e-13,-7.1803506e-26,1.4400673e-11,1.8910871e-21,-5.503e-42,-7.4308368e-31,-2.1894947e-13,-6.7388026e-35,3.6905563e-25,-1.5847989e-30,-5.024e-42,6.5949984e-37,3.1701898e-26,1.4382667e-09,2.7813323e-19,-5.214e-42,-2.7290433e-30,-1.7484415e-11,5.921208e-28,-4.935e-42,-6.1449065e-35,-4.794537e-21,-2.417e-42,4.966e-42,-5.615e-42,-1.75716e-40,-6.0118124e-31,2.8688618e-13
LIN28A,3.0640855e-05,-1.4780674e-15,0.00010099747,-3.1385176e-28,5.273052e-29,7.8111356e-16,-1.6133346e-09,1.3440297e-22,-2.3221714e-08,-4.4965224e-18,5.167e-42,-1.1083592e-28,2.1014979e-09,4.9137953e-27,-9.947201e-16,2.9665766e-36,6.8896106e-37,-2.0060932e-26,1.1789666e-20,2.1873375e-33,1.6689514e-19,5.9024775e-29,5.022e-42,1.9040239e-36,-2.7903e-21,9.192688e-05,-1.2619278e-27,2.1728351e-28,2.398999e-15,-7.172581e-10,2.7232327e-22,-1.2448824e-07,-6.7501313e-18,-5.947e-42,-2.4581246e-29,1.7097657e-09,2.492696e-39,-2.968e-42,-3.764327e-36,-7.710179e-32,-1.966452e-38,7.677336e-30,-7.533058e-37,5.303e-42,-3.7581e-41,-8.215121e-32,-4.034e-42,4.8413427e-38,1.9266295e-33,8.41218e-40,-2.7219738e-32,-2.5704408e-37,6.125e-42,-1.1700667e-38,-4.931379e-30,5.1191015e-26,-6.965593e-21,-4.9358934e-33,-1.9168699e-18,-5.5607014e-28,5.591e-42,8.464091e-34,4.0940296e-20,3.712211e-15,-1.593221e-27,1.7591423e-13,5.2854422e-23,-5.049e-42,7.56061e-32,-3.5512192e-14,2.3589568e-37,-1.1286056e-26,-1.2272955e-34,4.987e-42,-8.5022e-41,-2.9428478e-26,4.7675624e-11,5.5018864e-21,6.24e-42,4.145637e-31,-2.790734e-13,2.2016518e-30,-4.926e-42,8.381476e-38,-6.9227385e-23,5.054e-42,-5.367e-42,-2.281e-42,-2.4782e-41,-1.1307852e-32,7.749418e-15
HMGN2,0.01178381,-9.3487596e-14,0.028170433,7.409833e-26,8.765868e-27,2.287248e-13,-1.0903769e-07,5.6005067e-21,-9.910659e-06,-2.0164437e-15,-4.99e-42,-1.17907765e-26,1.4715347e-07,1.0819334e-24,-2.0918961e-13,1.487495e-32,3.1105724e-35,-1.6383535e-24,1.0980889e-18,-5.6244038e-30,7.17197e-17,1.8418002e-26,-5.565e-42,-1.5004213e-33,-7.2046185e-19,0.06761732,-6.08019e-26,2.1746969e-26,5.145409e-13,-2.6871376e-07,-2.662885e-21,-2.481891e-05,-4.010926e-15,-8.694e-42,-1.8021235e-26,3.4892818e-07,2.5119713e-38,-9.01495e-40,6.0812896e-33,1.3456185e-29,6.400874e-36,9.283363e-29,1.8467446e-33,5.754e-42,-1.561974e-39,-1.1616648e-29,7.0676e-41,-1.19464035e-36,-1.0847046e-30,-5.807716e-36,1.22427996e-29,3.0752402e-34,-5.42e-42,4.829543e-38,-8.559883e-31,5.0666102e-24,-2.209873e-18,8.2077755e-31,-1.9343526e-16,-4.281253e-26,-6.28e-42,1.0480719e-32,1.5506974e-18,1.0419373e-12,-3.9603576e-25,9.34696e-11,1.617844e-20,-6.002e-42,-1.6559102e-31,-1.3324985e-12,3.4377567e-33,3.383686e-24,2.9804786e-31,6.188e-42,-2.187757e-36,4.0255168e-25,8.848927e-09,1.2502988e-18,3.194e-42,-4.0024438e-29,-1.2074453e-10,1.9696039e-28,-4.92e-42,-3.7767976e-35,-1.88751e-20,-8.265e-42,-5.213e-42,-5.58e-42,8.53731e-38,4.005486e-31,1.915628e-12
NUDC,0.0055753277,-3.022589e-14,0.018416362,-5.7173965e-27,2.9563446e-27,1.1341057e-13,-5.9582767e-08,1.0621827e-20,-5.8936753e-06,-2.729347e-16,-1.953e-42,-2.0959345e-27,7.413661e-08,5.722008e-25,-1.553071e-13,-8.229802e-34,2.1063586e-33,-1.7166507e-24,4.091399e-19,1.4522168e-30,4.8929695e-17,8.335732e-27,-4.973e-42,-1.114712e-33,-1.005852e-18,0.05650123,-9.5793284e-26,1.6766015e-26,3.7193908e-13,-1.9893258e-07,4.0706372e-20,-1.9497891e-05,-2.7313047e-15,5.284e-42,-3.4528677e-27,2.646307e-07,5.559103e-37,-1.3476325e-38,8.361495e-33,2.196328e-30,-8.4972945e-37,3.893433e-28,-3.077878e-34,5.637e-42,-1.8404426e-38,8.96268e-30,-5.4971e-40,-3.7663528e-34,-7.4768715e-31,4.6226877e-37,5.9730457e-30,-1.7360037e-35,4.984e-42,2.126908e-39,-9.6620093e-32,8.885528e-24,-3.1843835e-19,-1.7353186e-29,-1.3075685e-16,-2.2888605e-26,5.602e-42,1.2221025e-32,1.9909942e-18,7.052195e-13,-4.4948614e-25,6.6260386e-11,6.6674e-21,3.729e-42,3.0435257e-30,-9.152515e-13,-9.1388544e-35,-7.3710335e-24,-7.2832995e-32,-5.273e-42,-2.703795e-37,-6.4853083e-25,6.4681704e-09,5.8405295e-19,5.077e-42,-1.6988422e-29,-8.079084e-11,6.1446343e-29,-5.052e-42,-3.3610075e-35,-8.461721e-21,-5.056e-42,-5.821e-42,-6.225e-42,1.340912e-39,-1.1951556e-29,1.0558995e-12
SYTL1,0.00069555535,-2.7845242e-16,0.000881076,-4.0008864e-27,-3.1192118e-26,7.267988e-15,5.4020766e-10,-1.0664136e-21,-3.5036058e-07,-4.4438257e-17,-5.176e-42,-2.3249012e-27,5.2652294e-10,-1.769153e-26,-3.2079499e-15,-1.9765663e-32,-3.8068507e-36,1.9330453e-25,-2.063525e-19,-9.960548e-32,2.178918e-18,-6.1039626e-27,8.761e-42,-1.01480885e-35,-3.6586816e-20,0.00039075594,2.3111173e-27,-7.8561394e-27,-2.3000012e-14,1.526217e-09,2.9784518e-21,-8.406916e-08,3.94164e-16,5.195e-42,5.7812527e-28,-1.3169067e-09,3.285334e-39,-5.822e-40,-1.550185e-35,-7.016107e-31,-1.8090773e-35,8.71578e-30,-2.8567534e-34,-5.05e-42,-2.86354e-40,-3.0715334e-31,-1.02058e-40,-1.2597276e-35,2.0014067e-32,-9.254301e-38,-1.5430855e-30,-1.3252993e-36,5.03e-42,-9.0336e-41,7.0168714e-32,1.228477e-25,1.2784317e-19,5.9553776e-32,2.7417378e-17,-1.2945631e-27,-5.349e-42,-6.728117e-36,-1.7687233e-20,-1.7374782e-14,-1.8710776e-26,1.6113472e-12,-2.0938496e-21,-5.004e-42,-6.7839766e-32,3.557603e-14,2.3262882e-36,-1.0558384e-24,-5.5175105e-31,-4.907e-42,-6.6969264e-38,-5.701654e-25,1.5075187e-10,2.2816459e-20,-5.95e-42,6.4352885e-31,2.2755489e-12,8.672625e-30,4.96e-42,-1.5783394e-33,4.7021446e-23,-4.989e-42,5.164e-42,5.223e-42,8.76792e-40,-6.884269e-32,-8.583042e-14
IFI6,0.00047172196,3.9613973e-15,0.00095024443,6.489226e-28,2.4294614e-28,-8.118884e-15,-3.3229666e-09,4.2532286e-21,-1.3503633e-07,-4.4583176e-17,-5.888e-42,3.201032e-27,4.4613824e-09,-6.528279e-26,1.5382657e-14,1.8622418e-35,1.1707209e-35,1.204965e-24,2.7336403e-20,-2.4290436e-30,-3.9400664e-18,-1.5367802e-26,-6.038e-42,5.240052e-34,-1.7724109e-20,0.0010623117,2.9254207e-26,-1.201174e-26,-6.316812e-14,2.0553044e-10,1.2538475e-21,-3.1064258e-07,2.485234e-16,-4.914e-42,8.199653e-28,2.0019304e-09,2.5160422e-37,-2.01051e-40,3.5807337e-34,6.431215e-31,1.5241397e-36,-1.5337817e-29,1.8067517e-35,-5.757e-42,5.727548e-39,5.96087e-31,-1.01982e-40,2.481463e-33,-9.647287e-31,-3.0952106e-36,9.177242e-31,1.575063e-36,4.979e-42,-6.38269e-40,6.2675225e-32,-9.6091165e-26,6.480391e-20,2.6322104e-31,-3.4270817e-18,3.8464727e-27,-6.038e-42,-2.6936308e-33,-1.4070435e-19,1.917586e-14,2.975027e-26,1.2940086e-12,-7.3054947e-22,4.923e-42,1.5453593e-31,5.2989657e-15,1.4502652e-35,-6.7357455e-25,4.2946973e-33,-5.493e-42,5.7661e-38,-6.691068e-25,1.1297801e-10,2.4574466e-20,-5.373e-42,1.9668733e-30,1.9070683e-12,-7.481379e-29,-5.188e-42,2.1218333e-36,9.747201e-22,-4.907e-42,5.214e-42,-5.65e-42,-1.3838441e-37,9.90824e-32,-9.1126766e-14
THEMIS2,0.002164895,-2.0399696e-14,0.0032817705,-2.0741132e-26,8.114677e-28,3.6224702e-14,-1.8540925e-08,7.3216494e-21,-1.5322339e-06,-3.4010848e-16,-5.901e-42,-3.1018839e-27,2.5367456e-08,3.7000912e-25,-3.197149e-14,1.493103e-34,4.848528e-35,-6.686909e-25,1.2434612e-19,9.992435e-31,1.19030264e-17,-1.8102054e-26,6.122e-42,-1.0806171e-34,-2.137696e-19,0.0036348444,-1.0930301e-26,4.7460776e-27,6.820646e-14,-2.7863159e-08,-5.404491e-21,-1.9913107e-06,-8.7786743e-16,-5.566e-42,1.0312494e-27,3.6401165e-08,-6.30302e-39,1.99933e-40,5.0257375e-34,3.2571712e-31,1.1409588e-36,1.0376236e-28,-2.2588498e-33,-5.755e-42,-9.238738e-39,6.591748e-31,-1.36255e-40,1.7767514e-34,-3.7263097e-32,3.0339509e-37,1.0891036e-30,1.5167431e-35,4.956e-42,1.1707e-40,-1.1009153e-29,-1.3310482e-24,-3.6009237e-19,-1.6322716e-32,-2.0550953e-17,-2.0270109e-25,-5.232e-42,-1.27875565e-33,7.702459e-19,1.3496607e-13,-1.1413168e-26,1.1670286e-11,2.5294527e-21,5.05e-42,-3.2787824e-31,-2.2215678e-13,1.3526093e-33,-1.5907462e-23,5.3248495e-32,5.336e-42,-1.0050555e-35,5.8213917e-26,8.996702e-10,2.3798082e-19,-5.374e-42,1.1290383e-28,-1.6802424e-11,8.040863e-29,-5.902e-42,-5.9767405e-36,-2.6011442e-21,1.7761e-41,-6.059e-42,4.976e-42,-2.638474e-39,-8.5276825e-32,3.81595e-13
PTAFR,0.0008285338,-5.675287e-15,0.0010436984,-2.53052e-27,4.56265e-28,1.808251e-14,-5.3774e-09,1.2005962e-21,-4.748625e-07,-1.2840711e-16,-5.21e-42,-9.996764e-27,8.486395e-09,3.206403e-26,-1.461966e-14,-1.1617532e-35,7.754557e-36,-9.6992833e-26,4.119253e-20,-1.771631e-31,3.9583707e-18,3.1441825e-28,5.088e-42,4.364763e-37,3.0555716e-20,0.00019479815,-9.377422e-29,4.5174775e-27,1.6878021e-14,-7.524033e-09,-1.2105502e-20,-4.841306e-07,-1.4806508e-16,5.642e-42,8.452951e-27,1.07986535e-08,2.0091767e-38,1.177497e-39,8.2104644e-33,1.9372203e-30,9.84375e-38,2.0268166e-29,-8.279375e-36,6.213e-42,-1.685131e-39,1.3168957e-30,-5.2268e-41,1.19639704e-35,2.5586626e-31,-1.575228e-39,-5.724112e-29,2.2361346e-35,2.4241e-41,-3.9179e-41,9.21335e-32,4.6707853e-25,-1.65547e-19,-1.1546748e-30,5.557422e-18,-3.7341344e-26,-4.997e-42,1.5825065e-35,1.00741635e-19,3.0810834e-14,-5.0878982e-27,2.9155896e-12,-6.230726e-22,5.415e-42,8.533725e-33,-8.369917e-14,1.0343771e-35,-5.389197e-25,3.1366393e-34,-1.3828e-41,-9.539969e-38,-3.112874e-25,2.549637e-10,4.5672144e-20,-5.171e-42,6.4690675e-29,-4.9952213e-12,4.076445e-31,3.184e-42,-4.6988358e-35,-1.3879874e-21,5.3e-42,-6.257e-42,-5.133e-42,-3.28788e-40,4.541143e-33,8.583872e-14
SESN2,0.0014066554,3.253383e-14,0.003132313,-6.869625e-27,1.3844048e-27,2.5832641e-14,-1.1114308e-08,6.288323e-21,-1.1251072e-06,-1.1755343e-16,5.022e-42,2.9708175e-26,1.7376415e-08,1.7001284e-25,-1.06963185e-14,-2.1989346e-34,2.1815258e-35,-4.7242843e-25,6.7621485e-20,5.1646896e-30,1.1831016e-17,3.617138e-27,-4.977e-42,-1.5338261e-33,1.9394569e-19,0.0071868715,-8.5764064e-27,6.2371554e-28,5.465983e-14,-2.8511081e-08,-7.1670586e-20,-2.621533e-06,-3.5300982e-16,6.274e-42,-2.9960175e-27,3.700492e-08,6.783425e-39,-5.3987694e-37,-6.3320575e-33,-5.2061897e-31,-2.3377352e-36,3.0243237e-28,7.318937e-34,5.245e-42,5.920088e-39,1.2524013e-30,-2.162e-42,1.8774046e-34,1.2353683e-30,-1.1304626e-36,-7.029695e-30,-2.7732942e-36,4.983e-42,-2.307081e-39,5.8673305e-31,-9.006821e-25,-2.8476789e-19,2.5266337e-30,-2.5098496e-17,1.117489e-25,-1.32e-43,6.918012e-36,3.6498323e-19,1.1150729e-13,-7.980739e-26,1.0427096e-11,-5.7308667e-22,5.929e-42,1.0138745e-30,-1.5454248e-13,1.1602223e-34,-5.1085587e-24,7.740706e-32,5.09e-42,3.972778e-36,-7.332081e-26,9.743331e-10,1.2902372e-19,-5.422e-42,-6.960868e-30,-1.2510238e-11,-7.670693e-28,5.213e-42,-9.917677e-35,-3.5994506e-21,-5.127e-42,4.937e-42,-4.962e-42,-1.63903e-40,4.4082717e-31,2.2538559e-13
OPRD1,6.7318297e-06,-1.2656672e-16,-2.5734262e-05,-2.8142902e-28,3.017603e-29,2.7260697e-16,7.338906e-11,-2.6684307e-22,5.272608e-08,5.875116e-18,5.961e-42,6.5732537e-29,-7.5666085e-10,1.6869607e-27,4.73168e-16,-1.625557e-36,1.3729014e-36,-1.3268749e-27,-4.6893624e-21,6.1108584e-33,-4.4577187e-19,-8.6191865e-29,4.996e-42,-1.8430868e-36,8.394227e-21,1.4047868e-06,-1.6821702e-28,2.707565e-29,-2.048595e-15,1.5087441e-10,-1.2224277e-22,4.885603e-08,1.6978739e-18,-5.155e-42,-2.8684355e-29,-3.6151523e-10,-5.4988844e-37,-2.6284e-41,-4.0637348e-35,1.5809374e-30,-1.4956733e-38,3.819311e-29,1.04419434e-35,5.011e-42,-2.7227e-40,-4.811745e-32,-5.37e-42,2.8513063e-37,-9.052331e-34,-3.6271925e-36,4.9412526e-31,1.0448686e-37,-5.11e-42,6.0836e-41,-2.6826002e-33,-1.7552612e-25,-1.3833691e-21,-4.7173946e-32,-3.6007473e-20,-5.9237567e-29,5.503e-42,4.8289615e-37,2.5206035e-22,-3.385312e-15,1.28728726e-26,-4.2758242e-13,-9.704866e-22,5.17e-42,-1.18987175e-33,5.2657527e-15,-4.5237713e-36,9.708829e-25,-1.0263522e-33,-2.4471e-41,1.3232146e-38,5.661833e-28,-1.5594042e-13,-3.998105e-21,-5.333e-42,1.2041147e-31,5.0552515e-13,4.0485714e-30,5.105e-42,3.5626665e-38,1.8116978e-22,5.176e-42,4.916e-42,-5.07e-42,7.68559e-40,-5.5634818e-33,-1.2597194e-14
LAPTM5,0.00959562,-2.929321e-14,0.018033091,-1.8541624e-26,-7.750058e-27,1.02767024e-13,-5.970254e-08,2.082558e-20,-6.196642e-06,-8.083413e-16,5.553e-42,-7.305777e-27,7.578665e-08,2.5982152e-24,-9.477001e-14,1.8511058e-32,1.7685011e-35,-9.734361e-25,4.9670686e-19,-1.19880205e-30,8.2340925e-18,6.1527175e-26,-4.92e-42,-3.268312e-34,-1.5851011e-19,0.031998646,-2.627955e-25,9.0138156e-26,5.889607e-14,-1.22393e-07,3.161191e-20,-1.2312073e-05,-1.5410949e-15,5.141e-42,-1.09556694e-26,1.5406931e-07,-2.4623838e-38,2.971204e-39,-8.8187385e-32,-5.1126683e-31,-4.0392724e-35,2.130209e-29,-2.2341712e-33,5.81e-42,-1.390556e-38,1.0684401e-29,-7.4571e-40,-1.303436e-34,1.9235685e-33,3.7421014e-37,-1.6031631e-28,3.761886e-35,5.147e-42,9.778503e-38,5.9292147e-32,2.23515e-24,-3.9626622e-19,-1.4227505e-30,-2.3487749e-17,-6.905577e-27,5.068e-42,6.8050245e-34,7.722761e-19,4.5273258e-13,-2.084553e-25,4.664561e-11,-2.9918122e-22,4.906e-42,7.0913596e-31,-7.1473177e-13,1.9255747e-35,-7.265769e-23,1.0594975e-31,-5.71e-42,6.0841496e-37,2.346416e-25,4.8823194e-09,6.9998753e-19,-6.297e-42,-1.0629327e-28,-6.813566e-11,1.4671545e-27,1.126e-41,7.888094e-35,-9.313608e-21,-5.189e-42,-5.199e-42,5e-42,-1.688673e-37,-9.229097e-31,9.511222e-13
FABP3,0.0002386425,-1.4893082e-14,0.00032089438,-1.2665488e-28,1.6605628e-27,3.2357974e-15,-1.1798478e-09,2.5317058e-21,-1.3915954e-07,-2.6278706e-17,-5.238e-42,1.2876174e-27,1.883618e-09,-3.271749e-26,-2.1168255e-16,-3.0510461e-33,-2.1710738e-35,-1.6226698e-26,4.2867848e-21,-4.319353e-31,7.235596e-19,-9.396879e-28,-5.333e-42,3.2118263e-36,-4.317887e-19,0.00025804056,3.1170394e-27,2.4424116e-28,1.9292838e-15,-6.314872e-10,-3.1949694e-21,-8.028966e-08,9.186037e-17,5.346e-42,-1.540677e-26,-7.552655e-10,1.173232e-39,4.5087e-41,-5.276602e-34,5.3713527e-32,9.828612e-37,2.0342443e-30,5.7757604e-36,5.775e-42,-2.356408e-37,3.6163465e-31,8.747814e-39,1.2817734e-36,1.4084141e-32,4.944903e-39,-1.2693858e-30,3.4139178e-37,-5.157e-42,1.733e-40,6.7652615e-32,5.5674247e-26,-6.44507e-19,1.7106665e-31,-1.6510962e-18,-6.441176e-28,-5.32e-42,-4.9449368e-36,-4.991622e-20,-8.435019e-15,2.9096987e-26,-6.12189e-13,9.6453777e-23,5.049e-42,4.93782e-32,1.2152326e-14,5.701074e-35,-2.5533362e-25,-2.827339e-32,-4.934e-42,2.6518522e-38,7.237282e-27,3.295751e-11,7.5501015e-21,1.1621e-41,3.824012e-31,3.583428e-13,7.214223e-29,-5.011e-42,2.4557216e-34,9.969812e-23,6.087e-42,-6.288e-42,5.324e-42,9.44744e-40,-1.7503588e-31,6.752393e-15
SPOCD1,0.00029643765,-1.029231e-14,0.00055347657,-1.0816181e-28,5.9892695e-28,2.0034625e-14,-2.8661489e-09,-1.5972354e-20,-2.3819466e-07,-6.687556e-17,-5.025e-42,-4.4267688e-28,3.89836e-09,2.1372065e-26,-6.270969e-15,-6.7036727e-35,4.4239795e-36,-3.0362116e-26,1.9783015e-20,5.392648e-32,1.0007057e-17,9.885032e-29,-5.315e-42,1.7881117e-35,1.3477252e-20,0.0006875723,1.3109443e-27,2.01485e-27,1.1127671e-14,-5.166063e-09,2.62771e-21,-3.8283358e-07,-9.051158e-17,5.919e-42,-4.2274413e-27,7.607771e-09,4.866043e-39,1.9214e-40,3.8574134e-35,-1.923808e-31,1.0796869e-37,-4.0852633e-28,1.3031199e-35,6.017e-42,-2.3172853e-37,1.4834284e-31,-2.6267e-41,-1.9571147e-35,4.709835e-31,4.5102066e-38,1.6624362e-29,-1.2390939e-36,-4.933e-42,-2.112539e-39,3.1982586e-32,2.4536213e-24,-1.2365735e-20,7.2184546e-32,-5.0231556e-18,-1.0185617e-25,5.146e-42,1.1520679e-35,-1.5837912e-19,2.4365353e-14,6.94953e-27,2.064069e-12,5.3512027e-22,-5.733e-42,-9.23991e-32,-3.1506502e-14,-1.262631e-36,3.598198e-24,-1.9353517e-32,-4.913e-42,4.226482e-39,1.4509246e-26,1.6310411e-10,3.2043035e-20,5.737e-42,-5.2347594e-29,-2.8158307e-12,-1.0537005e-30,5.908e-42,1.0250093e-34,-7.052043e-23,3.87e-42,5.127e-42,5.193e-42,-1.28624e-40,6.8365094e-32,3.2535044e-14
LCK,4.214043e-05,-5.823928e-16,7.254211e-05,-3.7343447e-28,6.1142028e-30,5.5395076e-16,-2.616415e-10,1.3979634e-23,-7.073818e-08,-1.0102402e-17,-5.363e-42,-6.567163e-29,3.5507317e-09,3.3147238e-27,-3.886992e-15,2.316603e-34,-2.1333515e-36,-7.775838e-28,-1.6904e-20,8.8727595e-32,3.0533152e-19,-9.536833e-29,5.14e-42,7.501902e-36,-9.041227e-22,9.36482e-05,-6.7941854e-28,2.9169244e-29,1.1622131e-15,-1.682945e-09,1.4381528e-22,-6.269207e-08,-6.673997e-17,3.688e-42,-1.4688947e-29,4.731977e-09,-6.53819e-40,-8.533e-42,-2.704184e-35,-6.933261e-30,-1.7523357e-36,1.1483589e-30,-1.1002018e-36,-5.717e-42,1.70432e-40,4.773075e-33,-7.72e-42,-1.3810322e-36,2.6509552e-32,-4.261389e-38,-8.4338656e-33,-6.6202824e-37,-5.45e-42,-7.072907e-39,1.6431146e-33,1.764642e-26,-3.2263304e-20,-3.4058565e-32,-1.363632e-18,1.6761688e-28,-5.012e-42,1.3924675e-36,4.8331747e-21,2.2970422e-15,-3.7529964e-28,3.6758698e-13,3.77677e-23,4.064e-42,-1.1323364e-32,-1.0247582e-14,-9.432656e-34,-3.2724567e-26,1.7810978e-33,-5.667e-42,-1.60695e-39,1.0621988e-26,3.7560892e-11,2.9119575e-21,4.905e-42,-4.121915e-31,-1.492531e-12,-4.3900463e-31,-5.189e-42,2.8105292e-37,-6.506173e-23,-5.511e-42,-5.32e-42,1.6535e-41,8.5659e-41,4.0608457e-32,6.9931596e-14
MARCKSL1,0.01205391,-1.2129704e-13,0.025657887,-4.370795e-26,5.2997193e-27,2.5156388e-13,-1.10901475e-07,3.4418766e-20,-9.880129e-06,-1.9071847e-15,4.906e-42,-1.25109896e-26,1.5539995e-07,1.8219618e-24,-2.779863e-13,2.2077255e-32,2.1248289e-35,-2.2269086e-24,1.0877333e-18,-4.5932864e-34,9.404235e-17,2.5614557e-26,-6.139e-42,5.600455e-35,-1.7496985e-18,0.05271525,-4.875151e-26,1.9480963e-26,6.287544e-13,-2.400806e-07,1.3853512e-19,-2.1139833e-05,-4.7728316e-15,5.218e-42,-2.1136747e-26,3.292713e-07,5.1184e-39,-7.4445e-41,2.1245295e-33,2.5641765e-30,1.2152631e-35,-1.95592e-29,5.9467174e-35,-5.277e-42,8.722612e-39,1.5773042e-30,5.31249e-40,-3.9143663e-35,-2.527914e-31,-2.889115e-37,-4.914944e-30,-4.606703e-34,-5.171e-42,-8.346176e-39,2.4682052e-31,5.7421225e-24,-2.1883125e-18,-4.8739987e-32,-2.1218605e-16,-5.714486e-26,5.642e-42,4.914326e-35,3.0374415e-18,9.96487e-13,-6.0383393e-25,9.051896e-11,1.6789745e-20,5.028e-42,-2.3342269e-31,-1.3946976e-12,6.420882e-34,-2.7120808e-23,-3.5509883e-31,5.13e-42,-3.0596516e-37,5.149466e-25,7.890579e-09,1.4916208e-18,-4.914e-42,6.963146e-29,-1.1997278e-10,2.8170666e-28,5.004e-42,-1.2075834e-33,-2.3384202e-20,-5.565e-42,-5.148e-42,-5.443e-42,1.7419878e-37,-9.123819e-32,1.871449e-12
BSDC1,0.0065159304,-2.5999671e-14,0.012234491,-1.3101157e-25,3.2047176e-27,4.3720473e-14,-4.112704e-08,3.0425816e-20,-4.245986e-06,-4.271668e-16,4.941e-42,-5.0335828e-27,5.6629116e-08,1.7754041e-25,-3.9622426e-14,-1.0843754e-33,1.5457918e-33,-3.053008e-25,1.4331917e-19,2.3330793e-31,1.6615723e-17,-2.835563e-26,-5.026e-42,2.2944849e-33,-1.5947205e-19,0.021836704,-6.0765555e-26,-2.2954423e-26,5.8498345e-14,-8.567567e-08,-2.4068718e-20,-8.472846e-06,-6.806519e-16,-6.027e-42,-7.903831e-27,1.1168468e-07,-2.5484717e-38,-5.016473e-39,-2.1052322e-32,-2.6903586e-29,8.682459e-37,-6.554762e-28,6.040685e-35,-5.895e-42,8.857247e-39,8.534541e-31,-4.95509e-40,-2.5810237e-35,3.7866743e-30,3.6205225e-38,-3.6470835e-28,2.4279804e-35,5.427e-42,-2.26523e-40,-1.1214767e-30,-1.9877387e-23,-3.7952357e-19,-3.193927e-30,-2.7849136e-17,2.4174964e-27,4.91e-42,-2.534615e-32,5.9115714e-19,3.2459292e-13,-1.1477759e-25,3.109398e-11,2.1986156e-21,6.198e-42,-6.6270412e-31,-4.286713e-13,-1.2115331e-34,-9.556321e-25,-1.0123476e-31,-5.343e-42,-3.0220028e-37,2.3987594e-27,3.388835e-09,2.8162486e-19,5.224e-42,1.404328e-29,-4.2149995e-11,-2.626782e-28,5.549e-42,9.017666e-36,-6.1968236e-21,5.713e-42,-4.934e-42,-5.021e-42,1.58881e-39,-6.322531e-30,5.380351e-13
TMEM54,0.0054675085,-4.5110152e-14,0.011638077,-1.5825016e-25,3.205478e-27,1.0573486e-13,-5.0427087e-08,1.8550367e-20,-4.4554995e-06,-7.2132034e-16,-5.154e-42,-3.7387323e-27,6.4771896e-08,9.2996174e-26,-9.459268e-14,6.2351926e-34,-3.095981e-35,-4.361668e-25,2.5330504e-19,2.944964e-29,3.3135975e-17,4.2144506e-26,-6.045e-42,-1.6850804e-32,-3.9196923e-19,0.023998974,-4.0370148e-26,2.407787e-26,1.5333652e-13,-1.1039951e-07,1.741494e-20,-9.678908e-06,-1.3248883e-15,5.063e-42,2.8585817e-27,1.490835e-07,-4.356609e-39,5.115196e-38,2.5757416e-33,-2.8597677e-30,7.3912956e-38,-2.332237e-28,1.5157056e-34,5.116e-42,-1.7782855e-37,5.890346e-30,-3.20755e-39,1.8556835e-33,-1.9761306e-31,-8.2292934e-38,-1.155054e-29,2.80714e-35,-5.461e-42,7.66097e-39,6.158052e-31,1.25422305e-23,-6.7702593e-19,1.7927324e-28,-8.269125e-17,-9.079988e-26,-5.623e-42,1.4926875e-34,1.343838e-18,4.6988314e-13,-1.6891569e-25,4.1386915e-11,8.478133e-21,-2.2335e-41,-4.070845e-31,-5.899425e-13,1.3396194e-34,1.5374909e-23,9.233279e-31,-5.72e-42,-4.2231224e-36,3.178817e-25,3.6386356e-09,2.9965127e-19,1.832e-41,-1.7143838e-28,-5.4393295e-11,9.427387e-28,-5.656e-42,-6.0096203e-34,-9.686739e-21,4.962e-42,5.207e-42,-5.221e-42,3.485464e-39,7.278108e-31,8.458672e-13
PSMB2,0.00962226,-1.0378743e-13,0.024460988,-1.2045863e-25,6.8202495e-28,2.325674e-13,-8.8917886e-08,2.7374156e-20,-8.825444e-06,-1.9496073e-15,-5.15e-42,-9.8339385e-27,1.18218594e-07,8.325321e-25,-2.3776911e-13,-3.3932907e-32,-7.700878e-35,-2.2624257e-24,8.926014e-19,-1.0132603e-31,1.0741005e-16,-1.6104454e-26,4.942e-42,-5.769725e-34,-1.1656711e-18,0.062115688,-2.985253e-26,-4.3005775e-28,6.009415e-13,-2.3762749e-07,7.127227e-20,-2.2369648e-05,-4.8783905e-15,5.364e-42,-1.6978438e-26,3.2113292e-07,8.897174e-37,-1.902359e-37,-6.5201917e-34,-5.206588e-29,-3.45671e-37,-7.70247e-28,-1.472173e-33,4.945e-42,-7.207427e-39,-4.976604e-30,-7.886227e-39,2.0581876e-33,5.601536e-32,1.5844849e-35,-9.842925e-30,-1.3992486e-36,-4.96e-42,-6.134072e-38,4.2963517e-30,3.6154537e-24,-2.0786987e-18,9.346474e-31,-1.7053297e-16,-3.5449945e-26,5.978e-42,-4.1273348e-33,2.4311525e-18,8.646531e-13,-1.1566471e-25,8.241639e-11,2.0987743e-20,4.962e-42,-9.978708e-30,-1.2545697e-12,-5.7440013e-34,3.962117e-24,4.1586463e-32,5.587e-42,2.9243507e-35,3.7212534e-25,7.826879e-09,1.9309942e-18,-5.118e-42,1.642822e-29,-1.0435655e-10,7.533237e-29,-5.011e-42,7.7714796e-35,-1.8606005e-20,4.997e-42,5.965e-42,5.801e-42,1.142218e-39,3.0808104e-31,1.6365756e-12
CLSPN,0.0036220585,-3.0631578e-14,0.012056411,5.836287e-26,4.2989776e-27,7.9865754e-14,-4.5630703e-08,3.987709e-21,-4.201208e-06,-8.0616694e-16,-6.202e-42,1.73675e-26,5.779766e-08,3.6839595e-25,-1.4325192e-13,9.979468e-35,7.341705e-35,3.9826895e-25,2.1806797e-19,5.4649456e-31,3.2175933e-17,-3.3078793e-26,5.097e-42,1.6187477e-33,-5.819423e-19,0.03592626,-7.2215544e-26,-1.2834617e-27,2.9259852e-13,-1.4433463e-07,9.2500144e-20,-1.3175133e-05,-2.3855224e-15,-4.952e-42,-5.1593926e-27,1.8465413e-07,1.78082e-39,-5.873342e-39,1.3075293e-32,-2.909309e-30,1.7196916e-37,-2.8046458e-28,4.6875432e-35,-4.969e-42,8.264031e-38,-1.1081755e-29,6.301486e-39,4.1745565e-34,-6.3773427e-31,-2.1710835e-37,2.2725474e-29,1.3128866e-35,-4.914e-42,-7.8662e-40,-3.5428777e-31,1.8149725e-24,-4.7984995e-19,3.9472563e-29,-4.2312247e-17,-1.5729139e-26,4.92e-42,-1.0331234e-34,1.2758208e-18,5.12769e-13,1.188711e-24,4.857159e-11,7.278539e-21,5.223e-42,-1.3943127e-30,-6.23052e-13,4.594831e-34,-2.0839686e-23,6.183215e-32,-5.077e-42,-9.538478e-37,3.1276375e-25,4.487814e-09,2.9685757e-19,-4.931e-42,1.3891694e-28,-5.9105845e-11,1.807429e-28,-5.443e-42,-4.6933124e-35,-1.0240826e-20,2.4516e-41,-5.126e-42,-5.136e-42,-5.829089e-38,-4.804504e-31,8.241055e-13
MAP7D1,0.0035465937,-3.931762e-15,0.009076883,-8.0311655e-26,1.3965068e-27,1.5960383e-14,-3.1703642e-08,5.8592115e-21,-3.1064649e-06,-4.73079e-16,5.24e-42,-3.361438e-28,3.8221526e-08,-2.4453453e-25,-3.8370758e-15,9.3417445e-34,-6.072093e-35,2.7213268e-25,3.1263981e-19,7.0680336e-31,1.3931832e-17,3.9866715e-27,5.611e-42,1.8584393e-34,7.983528e-20,0.023493713,-5.007984e-26,6.8715355e-27,1.399841e-13,-8.912608e-08,4.327368e-20,-8.525373e-06,-1.6044479e-15,5.171e-42,-8.35887e-27,1.0477822e-07,-6.1940307e-38,-5.2823835e-38,5.3487656e-35,-2.9797446e-30,-3.017274e-36,6.48768e-29,1.3834272e-34,5.304e-42,1.0712868e-37,-5.34581e-31,2.44667e-40,-2.8343267e-34,-3.4172354e-31,-1.5331987e-37,2.8223615e-28,-2.8714526e-35,-1.5525e-41,2.586689e-39,-2.0765306e-32,-4.915124e-25,8.991814e-20,-2.8798344e-30,-1.7709226e-17,1.0993832e-26,-9.216e-42,-2.0963562e-32,7.368992e-20,2.9069577e-13,-7.432408e-26,3.0796816e-11,5.10491e-21,6.297e-42,1.1226083e-30,-4.7881073e-13,-3.0353078e-34,-5.675596e-23,-4.2761178e-32,5.443e-42,-1.3639524e-36,-9.447078e-25,3.0034852e-09,-1.1738393e-19,-5.451e-42,1.0301982e-29,-4.0714668e-11,-8.539105e-30,4.933e-42,3.6815882e-36,-6.7467573e-21,5.087e-42,-2.5983e-41,5.094e-42,-1.1611511e-37,-9.63714e-32,6.393e-13
CSF3R,0.0063027055,-4.6506483e-14,0.008218099,-6.3781307e-27,1.0953057e-26,1.0275774e-13,-4.1745242e-08,1.5074165e-20,-3.7070179e-06,-5.5193445e-16,5.398e-42,-3.8561204e-27,6.0170954e-08,4.4810775e-25,-2.6535855e-14,4.4031823e-32,2.9890316e-36,-2.17322e-24,3.1396845e-19,8.3993067e-29,1.3912915e-17,1.8593452e-27,4.951e-42,-1.2294658e-34,-3.71506e-19,0.0034870089,-3.3608756e-26,1.9453618e-26,9.54573e-14,-3.921386e-08,2.9329453e-20,-3.0914555e-06,-7.567636e-16,4.952e-42,-1.571772e-26,5.8875028e-08,-2.0869258e-37,5.85163e-39,-3.7767705e-32,1.3993208e-30,5.0085313e-37,4.4389785e-30,-1.2443121e-33,-5.503e-42,3.630417e-39,8.1911794e-30,-2.2093e-40,-2.0478265e-35,6.1940657e-30,2.0496269e-38,-1.935318e-28,-1.02524524e-35,-3.1641e-41,3.89216e-40,2.896541e-30,7.294975e-25,-2.8504636e-19,2.5351501e-30,-4.291744e-17,-1.8575017e-26,5.569e-42,-1.0648041e-34,1.1762554e-18,2.534164e-13,-2.0905085e-25,2.098308e-11,3.540498e-21,4.958e-42,6.213362e-31,-3.4740545e-13,3.8164935e-35,-1.5147366e-23,-4.3957688e-32,4.933e-42,7.0981713e-37,1.758866e-24,1.767822e-09,8.821549e-20,5.007e-42,-1.6354982e-29,-2.9480668e-11,-3.1069663e-28,-5.09e-42,7.5716924e-36,-7.371004e-21,-5.892e-42,5.182e-42,5.083e-42,-1.7299577e-37,-6.038851e-31,4.801641e-13
CDCA8,0.0010729854,-1.4672796e-14,0.005970717,-1.13550264e-26,3.6331736e-27,2.0126546e-14,-2.6682873e-08,4.3925656e-20,-2.0154948e-06,-1.8066747e-16,5.125e-42,-5.3958317e-28,3.2085545e-08,6.8898007e-25,-1.0360119e-13,1.0724354e-33,-2.1138147e-33,-8.5122815e-25,4.547529e-19,-4.5231447e-30,3.3673325e-17,1.22544026e-26,-5.11e-42,2.1487396e-34,-1.2225247e-19,0.022908019,-2.62398e-26,-4.0181558e-26,2.3373903e-13,-9.473133e-08,-7.070856e-21,-8.08701e-06,-1.7657104e-15,5.981e-42,-8.8856345e-27,1.3045191e-07,-7.277101e-39,2.89505e-40,1.138341e-32,4.4755636e-31,8.7815644e-35,-6.2959884e-29,-2.6138365e-35,-4.94e-42,2.3831282e-37,2.225124e-30,1.4149911e-38,3.8010547e-33,-2.9239006e-30,1.0903422e-35,9.283208e-30,-1.1245003e-34,5.77e-42,-7.77122e-40,-5.5887355e-31,1.237102e-24,-8.379361e-19,1.17970145e-29,-3.6611887e-17,-3.2083377e-26,-5.782e-42,-1.8127513e-32,1.3558252e-19,3.4878537e-13,-1.3905818e-25,3.0671618e-11,6.918802e-21,-4.916e-42,-5.9308087e-30,-4.9280025e-13,-4.8730926e-33,-5.613945e-23,-1.4340563e-31,5.171e-42,-8.417838e-37,4.7373913e-25,2.6073181e-09,5.6893596e-19,5.171e-42,-7.9723226e-29,-4.0972253e-11,5.052264e-28,-5.218e-42,-3.3218403e-35,-9.303036e-21,-4.944e-42,-6.23e-42,-4.979e-42,1.927912e-39,4.45666e-30,6.84162e-13
RHBDL2,2.2062577e-05,-1.6431023e-15,1.5191713e-05,-8.787143e-29,-4.4885055e-29,7.1619696e-16,-2.7112587e-10,-2.2462614e-23,-1.708447e-08,-5.7329427e-18,-3.2e-43,1.0556689e-28,2.8953713e-09,-4.0933284e-27,1.1725773e-17,1.0579955e-34,6.7000315e-36,-2.915212e-29,2.0972516e-23,2.3251506e-30,3.3553935e-20,-1.2833606e-29,5.238e-42,-4.333731e-36,8.901666e-22,3.223523e-05,-4.2087582e-27,2.4198257e-29,8.9945555e-17,-3.433318e-10,-6.47852e-23,-1.3058956e-08,-7.6309946e-17,-5.984e-42,-9.5598504e-29,2.3338322e-09,6.14e-41,1.3605178e-37,7.839344e-34,1.3022269e-31,9.81057e-37,1.790989e-31,7.8749124e-36,4.909e-42,6.07506e-40,-2.4805185e-32,-5.1985e-41,8.030577e-37,-2.613763e-32,2.053195e-39,9.435206e-31,-1.4953857e-37,-4.994e-42,2.9649e-41,3.361899e-33,1.076628e-24,7.691182e-21,4.870115e-31,-5.1635286e-20,-9.6393046e-29,5.144e-42,2.1918873e-35,3.8925346e-19,3.8343835e-17,-3.5313855e-26,2.7115561e-14,-2.5816527e-23,5.427e-42,2.7258682e-32,2.502984e-15,-3.408344e-33,2.2768444e-23,1.2893316e-33,5.574e-42,2.2154309e-38,4.309748e-25,2.4775629e-12,7.114689e-22,1.29e-43,1.1782796e-31,-3.5641896e-14,6.3040344e-30,5.102e-42,-4.6164789e-38,-8.958499e-24,-6.027e-42,5.333e-42,-4.71e-42,5.473609e-39,-1.6311193e-33,4.6841206e-15
MACF1,0.0065901144,-1.9844354e-14,0.0137183275,1.251139e-25,9.6945066e-27,5.044484e-14,-5.3638203e-08,6.326172e-20,-4.9935315e-06,-2.8610862e-16,-5.146e-42,-3.0380012e-27,7.260077e-08,1.0495941e-25,-9.726592e-14,5.676481e-35,7.454898e-35,3.9684133e-24,5.177158e-19,5.8034626e-31,3.959499e-17,3.8114416e-26,-5.241e-42,-1.0513238e-32,-7.3580885e-19,0.027040701,-2.246966e-25,7.477364e-27,2.4737008e-13,-1.1477715e-07,4.892586e-20,-1.0711848e-05,-1.921066e-15,-5.064e-42,-1.5303877e-26,1.5313437e-07,-6.652269e-39,-2.409114e-39,-1.9312236e-32,-1.4145904e-29,-3.849373e-37,9.452074e-29,-1.3959638e-33,-4.94e-42,-3.278638e-39,-5.7954523e-30,8.254825e-38,2.3034783e-33,-4.2563047e-31,-1.8743615e-37,-6.560295e-30,4.93424e-35,-5.255e-42,-8.5534e-41,6.163708e-31,-3.0386587e-24,-8.0350814e-21,5.341341e-29,-8.21147e-17,-3.5992925e-26,5.097e-42,-3.8992e-34,6.3825783e-19,4.6751253e-13,-2.5549723e-25,4.221293e-11,9.37926e-21,-2.2171e-41,-1.594456e-29,-6.2962136e-13,-6.855301e-35,-9.259019e-24,-4.1919122e-32,-5.186e-42,-1.0542462e-36,1.2320812e-25,4.0775023e-09,4.0210144e-19,-5.579e-42,-1.7334261e-28,-5.5558256e-11,1.1544768e-27,-5.045e-42,9.224345e-35,-9.805987e-21,-5.091e-42,5.171e-42,-5.018e-42,-1.2956798e-38,2.4612136e-31,8.7019254e-13
CAP1,0.010601198,-8.234408e-14,0.021683823,-4.1626455e-26,-3.1138274e-27,1.562064e-13,-8.115985e-08,2.2565395e-20,-7.851034e-06,-1.2240409e-15,-5.925e-42,-8.949684e-27,1.1270374e-07,5.628655e-25,-1.4800974e-13,2.5185396e-34,1.2346694e-34,-1.2179621e-24,6.366386e-19,2.0339705e-30,5.7579414e-17,8.695447e-26,-5.483e-42,3.2791917e-33,-8.803775e-19,0.04476093,1.5060098e-25,1.1965137e-26,3.1993093e-13,-1.7512494e-07,4.2228775e-20,-1.7168262e-05,-2.548795e-15,4.972e-42,-7.846729e-26,2.3621831e-07,-1.1621558e-38,3.435952e-39,1.3458192e-34,-2.5538294e-30,2.7269566e-35,-2.9401644e-29,3.328607e-33,-5.139e-42,-2.2808363e-37,-3.6912253e-30,9.58948e-40,4.195107e-33,2.5757604e-31,2.10402e-37,-2.075085e-30,1.5868713e-35,-5.559e-42,-9.19807e-40,-7.4854254e-30,5.0569558e-24,-1.2898706e-18,-7.155655e-31,-1.1332431e-16,-1.4411028e-26,-5.506e-42,-2.8193855e-33,1.8815056e-18,6.369097e-13,-2.467435e-25,6.3552254e-11,1.08391785e-20,2.706e-42,-2.1783462e-31,-8.6207457e-13,-1.261818e-34,-5.5732064e-24,-1.7198722e-31,5.346e-42,1.6743862e-36,-8.579578e-25,6.4624777e-09,9.989512e-19,6.006e-42,4.535994e-28,-8.172424e-11,3.521796e-28,-5.038e-42,6.03617e-35,-1.29751494e-20,5.225e-42,9.9e-43,5.322e-42,-1.0239217e-37,8.889576e-31,1.2118003e-12
COL9A2,0.0020490903,-1.38476385e-14,0.0026293674,-3.5437215e-27,6.984507e-28,3.282085e-14,-1.2062149e-08,5.193832e-21,-1.0908215e-06,-2.3476034e-16,-5.793e-42,-1.7983696e-26,1.782292e-08,1.0380863e-25,1.737949e-14,-1.9359371e-32,-4.9586195e-34,1.3670707e-25,8.0374155e-20,-1.0109558e-29,5.9255865e-18,9.298954e-28,-5.395e-42,3.479367e-34,-2.335092e-19,0.0011677656,-2.3741962e-25,3.2139363e-28,1.4639257e-14,-5.405615e-09,1.2224971e-21,-8.240285e-07,3.4478076e-16,-5.046e-42,2.9913963e-26,1.4178641e-08,1.3140095e-38,1.4307644e-37,1.5772063e-33,-3.7826927e-30,-3.8851575e-35,-2.1097626e-28,-2.0619424e-34,5.258e-42,-2.23957e-40,-1.4908443e-29,-8.5794e-41,-1.1498295e-34,1.0415678e-31,-7.837062e-38,-1.7863119e-29,-7.117291e-37,5.007e-42,-3.51216e-40,3.8470977e-33,4.250392e-25,1.8609912e-19,-2.3842378e-31,8.619547e-18,1.6021782e-27,-5.091e-42,-8.126451e-35,3.7386535e-19,4.908206e-14,-2.944702e-26,4.5677125e-12,6.0357664e-22,-5.927e-42,-1.9665323e-31,-5.9892466e-14,-2.521282e-35,-3.8366503e-24,9.450613e-33,5.241e-42,8.13111e-37,3.5663684e-26,4.9111626e-10,-1.7756936e-19,4.474e-42,-3.276665e-30,-8.550898e-12,5.8773664e-29,5.259e-42,-4.938567e-35,-3.592374e-21,5.106e-42,-5.083e-42,5.185e-42,2.24065e-40,3.196845e-30,1.4268362e-13
SMAP2,0.006666691,-3.296246e-14,0.013804619,6.805957e-26,-4.0403252e-27,7.171304e-14,-5.1928495e-08,1.9665799e-20,-4.9013074e-06,-8.8551095e-16,-6.034e-42,6.9173426e-27,7.047394e-08,5.32456e-25,-4.374054e-14,-6.9466203e-32,-1.6982848e-34,-1.2678403e-24,4.9089147e-19,3.7771918e-31,1.24151364e-17,5.6077337e-27,-8.4e-44,1.2988906e-34,-3.3939505e-19,0.02784064,-8.250264e-26,-1.8165773e-29,1.6590318e-13,-1.08168294e-07,4.443846e-20,-1.0624232e-05,-6.6054303e-16,-5.266e-42,6.8300455e-27,1.3549445e-07,-4.595961e-37,-2.285736e-39,-9.117087e-33,-2.1059002e-30,-2.448608e-36,1.7683145e-29,-1.1624718e-32,9.92e-42,-6.058211e-39,2.5147802e-30,4.59905e-40,9.499857e-35,-7.387662e-30,2.4845262e-37,-1.1103055e-29,4.836643e-34,-5.021e-42,3.79175e-40,1.17796355e-30,2.0373942e-24,-1.0063702e-18,1.3793787e-29,-3.435341e-17,5.8527775e-27,5.129e-42,2.004472e-33,1.0029873e-18,4.3861434e-13,-3.2724536e-25,4.208613e-11,1.8108022e-21,5.146e-42,7.334086e-31,-5.492342e-13,5.6444002e-33,-1.849523e-23,9.4413925e-32,-5.046e-42,5.700409e-37,-1.6048054e-25,4.0558104e-09,6.573531e-19,5.122e-42,6.596174e-29,-5.549456e-11,4.049874e-28,5.712e-42,-2.6831708e-34,-5.3839764e-21,5.011e-42,-5.576e-42,5.577e-42,1.726732e-39,7.129542e-31,7.694716e-13
CITED4,0.00033955174,-1.2979859e-15,0.0007659521,-1.2496815e-28,-9.003839e-28,2.8166922e-15,-9.143807e-10,2.0705712e-21,-2.2037139e-07,-6.217395e-17,5.015e-42,7.141942e-29,4.275481e-09,8.768236e-27,-7.598747e-15,2.0030753e-33,-1.23944495e-36,1.0149765e-24,2.852455e-20,-1.1008472e-32,2.1047065e-18,-4.81772e-27,-5.214e-42,1.1834645e-35,-4.6248928e-20,0.001317951,3.1650098e-26,2.9082963e-27,-6.720521e-14,-4.8969278e-09,2.853707e-21,-5.559748e-07,4.5542473e-16,-5.105e-42,9.451406e-28,3.1515464e-09,-9.019507e-39,1.5035e-40,2.4273451e-33,4.6667438e-30,1.1657917e-36,-1.33007e-29,-6.418671e-36,-1.4197e-41,-1.0289988e-38,1.7806465e-31,-2.5096e-41,2.6511593e-35,1.5236523e-31,-1.3269395e-38,4.414788e-30,-1.8785285e-34,-1.0204e-41,-4.6464e-41,-1.0162664e-30,1.3348034e-25,1.4623098e-20,1.206656e-30,-4.411445e-18,-1.2673182e-27,5.23e-42,-2.269667e-34,-8.2356144e-20,5.2002148e-15,1.41646e-26,1.934517e-12,5.9289463e-22,4.909e-42,-6.1121785e-31,-3.750344e-14,2.997031e-35,-2.0048237e-24,6.01421e-33,-5.265e-42,-4.6342964e-38,7.798904e-25,2.1947971e-10,-2.774375e-19,5.053e-42,-3.0453316e-30,-2.9200765e-12,7.5767935e-30,-6.096e-42,2.1046495e-36,3.856148e-22,4.93e-42,-5.026e-42,2.5994e-41,7.35159e-40,-3.111177e-31,4.3479895e-14
FOXO6,-9.207143e-05,2.9099787e-15,-6.9203954e-05,-5.4526616e-28,-3.712092e-26,-3.0002534e-14,3.3363798e-09,-2.2142576e-22,3.9664624e-08,3.3453414e-17,4.905e-42,9.811517e-29,-4.4863753e-09,-1.4474468e-27,8.457837e-15,-2.4876416e-35,-3.231112e-33,2.2800108e-27,-2.1211615e-21,1.698002e-32,-3.1609415e-18,-7.236269e-27,-5.651e-42,-5.330552e-33,1.9134785e-20,-2.5965868e-05,-5.3589698e-27,-1.1771332e-28,-1.6148893e-14,6.4078054e-09,6.940688e-21,1.4509527e-07,7.2242604e-16,5.494e-42,-4.336699e-28,-9.716418e-09,-6.13633e-40,-1.450883e-37,-5.9697044e-35,-5.910826e-31,-6.101037e-38,-7.8665267e-31,3.451715e-33,-5.587e-42,1.4151949e-38,1.6301824e-31,-2.3124e-41,9.9344074e-36,2.0066063e-32,-4.67711e-40,-2.3786902e-29,-1.1027383e-36,5.289e-42,-9.1153e-41,3.4609216e-32,-9.5950144e-26,4.8545833e-21,5.288006e-32,6.154422e-20,-3.0762445e-26,4.952e-42,9.0333455e-36,-8.901656e-20,-1.10337925e-14,1.2346816e-26,-2.9406792e-12,-1.6411132e-22,-1.125e-42,-2.3777056e-32,9.474859e-14,1.1946047e-33,-8.6023784e-26,6.021056e-33,5.375e-42,-2.504174e-39,6.0899224e-25,-4.915727e-11,-9.139563e-22,-4.94e-42,1.7553909e-31,1.9927763e-13,1.1266492e-28,-4.956e-42,1.6113684e-36,1.3105331e-21,-5.185e-42,-4.954e-42,-5.204e-42,-3.82913e-40,1.6033792e-31,-1.5784424e-13
PPCS,0.0035902194,-1.22873174e-14,0.007141692,-7.713316e-27,1.8836893e-27,5.859475e-14,-2.8599779e-08,2.163698e-20,-2.4312274e-06,-5.7111816e-16,-5.871e-42,2.3857214e-26,2.650853e-08,-1.6233022e-24,-5.142268e-14,1.0606122e-33,-8.409498e-37,-8.981202e-25,1.3613859e-19,-6.7511608e-31,2.9618757e-17,-1.6076292e-27,6.209e-42,6.2063553e-34,-1.2514373e-19,0.012424316,1.104375e-25,5.510909e-27,1.01477834e-13,-4.5567866e-08,6.955091e-21,-4.805627e-06,-8.577472e-16,5.364e-42,-2.0923944e-26,5.1932687e-08,1.4472419e-38,-2.997124e-39,-4.030366e-32,-9.243026e-30,8.03375e-35,4.3538993e-28,4.959394e-35,-5.056e-42,-1.4978566e-38,-1.7109057e-29,7.72754e-40,1.9274166e-35,2.1454262e-31,1.1319676e-37,6.5559235e-30,6.0455927e-35,-5.256e-42,-3.50874e-40,-1.6744588e-30,1.1451856e-24,-5.572441e-19,3.888416e-29,-2.3633132e-17,3.1597631e-27,-6.246e-42,-5.6780125e-35,4.0498047e-19,1.7842262e-13,4.434044e-25,1.8665304e-11,7.830496e-21,5.821e-42,1.08279084e-29,-2.8312072e-13,-3.3350053e-32,-2.7200167e-23,5.8224685e-31,5.224e-42,5.7299175e-37,-4.2186707e-26,1.9125228e-09,2.3456872e-19,-5.468e-42,1.2459304e-29,-2.0089642e-11,-1.6667115e-27,5.506e-42,9.576167e-35,-2.4907519e-21,5.012e-42,5.17e-42,-4.993e-42,1.6770378e-38,4.631195e-31,2.3754832e-13
YBX1,0.019040685,-1.9833408e-13,0.04428456,-4.405148e-26,1.5845391e-26,4.2022784e-13,-1.8853143e-07,5.962011e-20,-1.6615797e-05,-3.2545574e-15,-5.126e-42,-1.7791671e-26,2.6616686e-07,1.4716936e-24,-4.5040846e-13,9.6998965e-34,3.7785032e-35,-4.1266237e-24,1.8821877e-18,9.088359e-31,1.5905103e-16,3.2532898e-26,-5.391e-42,-4.540138e-35,-2.5145461e-18,0.10135509,-1.927989e-26,3.2998628e-26,9.566219e-13,-4.304244e-07,1.1238377e-19,-3.8085305e-05,-7.415969e-15,-1.7033e-41,-3.9811018e-26,5.8796934e-07,-5.7947e-38,-4.946735e-39,-3.2967887e-34,-1.8046549e-30,1.5634821e-36,1.4506712e-28,9.92037e-35,-5.057e-42,1.0756548e-38,7.898771e-31,7.52766e-40,5.431473e-35,3.507571e-31,1.3356613e-37,-1.8528352e-29,-6.51655e-35,5.722e-42,2.22747e-39,5.531705e-31,8.484507e-24,-3.8724043e-18,6.4855874e-31,-3.3839549e-16,-4.9101763e-26,4.952e-42,7.05503e-35,5.250023e-18,1.7930798e-12,-5.917526e-25,1.536316e-10,2.6800904e-20,-5.688e-42,1.5821078e-30,-2.3962698e-12,-1.799359e-33,-5.0615543e-23,1.5374615e-31,4.959e-42,1.0788063e-36,5.314361e-25,1.370642e-08,2.6237429e-18,-5.112e-42,7.800547e-29,-2.0901703e-10,1.0107586e-27,8.66e-42,1.6319057e-35,-3.7534664e-20,-4.947e-42,-5.499e-42,-5.354e-42,-5.063445e-39,-7.2899345e-31,3.265209e-12
CLDN19,0.00011498115,-1.0839062e-17,3.540316e-05,-3.349766e-27,1.1357462e-28,4.52325e-14,-1.2355226e-09,6.2713084e-22,-1.2377369e-07,-9.147243e-18,4.917e-42,-2.8914077e-29,1.9660218e-09,3.2136524e-25,-7.4613137e-16,1.7011424e-32,-3.360406e-33,-1.7094587e-25,8.279831e-21,-9.2949935e-32,3.3093087e-19,2.7477368e-28,-2.7251e-41,-3.5318012e-35,-1.9975625e-20,0.000112855174,-5.545949e-28,1.5006792e-28,2.3429562e-14,-1.9760027e-09,1.1147314e-21,-1.3774874e-07,-1.9094433e-16,-5.256e-42,3.2037648e-27,4.7291895e-09,-1.300266e-39,8.6893e-41,-7.223859e-36,-9.490492e-33,1.0689657e-37,-2.652613e-31,-1.9035498e-36,5.158e-42,-7.02954e-40,-1.3782307e-31,-6.0975e-41,4.697645e-37,-3.0189775e-31,-5.589887e-39,1.626276e-31,6.234482e-36,5.874e-42,4.0975e-41,5.982681e-33,4.798715e-26,-1.7920789e-20,1.6628168e-32,-3.6274116e-19,-4.840819e-28,4.951e-42,2.1191e-36,1.739613e-21,1.3650946e-14,2.8262054e-28,3.5749515e-13,5.0827214e-22,-5.167e-42,1.34527265e-33,-5.868113e-15,4.2580543e-36,9.640549e-26,-9.8122914e-33,-5.346e-42,-1.1175816e-38,5.32534e-27,8.64806e-11,3.4968036e-20,4.984e-42,-1.9636371e-31,-1.6779169e-12,8.841223e-30,-8.883e-42,-1.5214625e-35,-6.38543e-22,-4.914e-42,-5.448e-42,5.332e-42,9.9e-43,-7.198023e-33,5.2882225e-14
SLC2A1,0.0017235583,-1.6246593e-14,0.005311286,-7.124741e-27,9.39638e-28,3.913697e-14,-2.027341e-08,7.01212e-21,-1.8114509e-06,-3.4683445e-16,-5.988e-42,-8.806019e-28,2.7512856e-08,7.110105e-25,-5.1105093e-14,-2.3123282e-32,-2.5065446e-33,-4.897796e-25,2.5685393e-19,3.9121163e-30,1.971677e-17,5.3256685e-27,-5.72e-42,6.8544155e-34,-3.0210365e-19,0.015898088,1.5934285e-26,-1.4569684e-25,2.5506076e-13,-6.026186e-08,1.4610021e-20,-5.5240153e-06,-9.820679e-16,5.176e-42,-8.9910206e-27,8.039306e-08,9.060255e-39,-6.981018e-38,-3.374888e-32,-2.4566149e-30,4.9308563e-37,1.2415848e-28,8.5599435e-35,-4.998e-42,-2.46393e-40,-2.7193666e-30,-2.68074e-40,-4.7530677e-33,-1.3455985e-31,-1.8260812e-36,-4.655917e-29,-2.0544225e-35,-6.162e-42,2.893927e-39,-1.6678302e-32,9.890221e-25,-4.6118333e-19,-3.373577e-29,-4.028093e-17,-5.792142e-26,-5.363e-42,-1.6233191e-35,9.214681e-19,2.2367468e-13,-2.5875412e-25,2.0231298e-11,9.420476e-21,5.139e-42,2.6077178e-30,-2.8168204e-13,-3.4223074e-33,2.1733276e-24,-2.2725155e-32,-4.924e-42,-3.224058e-37,5.7423754e-25,1.8411243e-09,3.226469e-19,-5.54e-42,4.4126164e-29,-2.651037e-11,2.1529722e-27,-8.699e-42,-4.7397885e-36,-6.6295065e-21,-5.581e-42,5.895e-42,4.986e-42,5.705384e-39,3.7884768e-31,3.945968e-13
SLC2A1-AS1,0.0011335193,-1.5474745e-14,0.0018617247,-1.9973806e-27,2.030578e-27,1.6293234e-14,-7.3543562e-09,2.2813189e-21,-6.645573e-07,-1.1362232e-16,-5.567e-42,-1.122299e-27,1.0307554e-08,4.1642226e-26,-6.9221006e-15,-5.1726347e-33,-3.3023224e-35,-9.3529814e-26,3.3363555e-20,2.9883045e-29,5.764438e-18,7.3268976e-28,-5.513e-42,-2.1893146e-32,-4.7023402e-20,0.0021844457,6.223912e-27,9.763594e-28,1.4733511e-14,-6.0600183e-09,1.8969424e-21,-8.665659e-07,-4.7610166e-16,-6.265e-42,-6.4353193e-27,8.6056495e-09,-1.0877336e-38,1.614866e-39,-1.5535554e-35,3.406335e-31,-1.6147986e-37,1.9879249e-28,-6.499722e-34,5.081e-42,-1.766024e-39,-8.494377e-31,9.105e-41,3.2482846e-35,-1.7317134e-32,-2.4903495e-38,-4.7115777e-30,-6.130185e-36,-5.106e-42,-7.437931e-39,1.2019023e-31,1.842068e-24,-2.1487265e-19,-1.0504568e-28,-8.605852e-18,-8.271174e-28,-5.44e-42,-1.5087137e-35,2.0613376e-19,3.744871e-14,-8.355944e-27,3.9714074e-12,6.002872e-22,5.873e-42,2.755332e-30,-5.1345043e-14,-4.6297462e-35,5.616865e-23,1.7373758e-32,-5.263e-42,-7.769519e-38,-1.8177067e-24,3.828769e-10,2.9894713e-19,6.195e-42,5.997974e-29,-4.987637e-12,2.0982443e-29,5.375e-42,5.566006e-36,-1.1720339e-21,5.032e-42,4.914e-42,5.192e-42,8.57452e-40,4.0334644e-31,9.5629146e-14
FAM183A,5.755496e-05,-1.1191962e-14,7.611145e-05,5.524217e-26,1.8273869e-29,7.5512204e-16,-1.195092e-09,-7.997899e-23,-6.520706e-08,-3.9563592e-17,5.706e-42,-6.49466e-29,3.087455e-09,2.16674e-27,-3.475068e-16,3.6121753e-37,-4.3021834e-36,-9.768443e-27,1.5149907e-21,4.9574213e-31,5.831422e-19,3.1568635e-28,1.7242e-41,1.8371565e-35,-1.7175056e-21,9.7963886e-05,-5.582146e-27,2.5586446e-29,7.606165e-14,-8.4374424e-10,-1.8298468e-23,-3.1110954e-08,-9.196343e-18,5.045e-42,-2.126073e-27,6.576891e-10,4.9634e-41,4.3566e-41,2.6528877e-32,1.3901836e-31,-1.0922092e-37,-2.2233952e-29,-9.2891475e-36,5.064e-42,2.05474e-40,1.552159e-31,1.11539e-40,-3.359641e-36,-7.339777e-33,1.5175282e-38,-6.746624e-31,2.4704708e-37,5.015e-42,4.877e-42,3.3883422e-32,1.4285148e-25,-2.6328523e-21,1.8100298e-30,-3.2656955e-17,5.1169224e-28,4.914e-42,-6.3065774e-36,2.3221666e-19,1.8947082e-14,1.755006e-25,1.7448379e-13,9.0481475e-23,4.942e-42,-3.2610934e-34,-3.5266801e-15,7.1759624e-37,8.11933e-24,7.0140126e-31,5.193e-42,3.0919695e-37,7.541742e-26,1.5863122e-11,-5.6379553e-22,4.948e-42,7.841763e-31,-2.396202e-13,4.4083438e-30,4.912e-42,2.741431e-38,4.4027646e-23,4.962e-42,4.927e-42,2.235e-42,-1.27717e-40,1.2521174e-30,3.459408e-14
EBNA1BP2,0.0036073115,-2.4671312e-14,0.013727026,-6.772538e-27,2.3796234e-27,4.8894526e-14,-4.8675215e-08,1.7627545e-20,-4.3856726e-06,-5.061209e-16,-9.543e-42,-6.1050292e-27,6.284935e-08,-1.5830543e-24,-1.4012549e-13,-4.724261e-33,-3.3129309e-34,-1.4726556e-24,6.37424e-19,-4.158028e-30,3.2777988e-17,1.4712954e-26,-9.983e-42,1.2769021e-33,-7.371337e-19,0.04496382,-3.1237897e-26,1.329658e-27,3.295443e-13,-1.6861758e-07,-1.3065355e-19,-1.5587375e-05,-2.0632217e-15,4.928e-42,2.2162643e-26,2.1489835e-07,1.228298e-38,-2.4544332e-37,-1.6172708e-32,-3.304519e-29,-5.2953377e-36,4.243658e-29,1.1400286e-34,-6.293e-42,1.056203e-39,3.6020386e-30,8.3893e-41,6.5849954e-35,-5.6690406e-31,8.479229e-38,7.518834e-29,-4.784209e-34,5.2e-42,-6.427658e-39,-2.9921139e-30,-5.3970933e-24,-1.3385953e-18,-2.2256976e-29,-7.682621e-17,-2.9908395e-26,-4.916e-42,3.8290023e-34,1.7895947e-18,5.91442e-13,-4.4092917e-25,5.330741e-11,9.2873464e-21,5.188e-42,1.2986514e-30,-7.736277e-13,-1.3162133e-33,-4.699986e-23,2.7947185e-31,5.577e-42,6.3784444e-36,3.681312e-25,5.1660383e-09,7.908483e-19,-5.671e-42,9.981127e-29,-7.267286e-11,-1.9437434e-28,6.232e-42,1.0785162e-34,-1.2222697e-20,-4.968e-42,5.196e-42,-4.914e-42,2.756616e-38,1.0274843e-30,1.0422979e-12
CDC20,0.0013016312,-2.1675382e-14,0.0054147607,-3.5552844e-27,1.9336883e-28,-7.0150754e-14,-1.9926619e-08,9.510653e-21,-1.7346543e-06,4.6824713e-17,5.204e-42,7.3270137e-28,2.510934e-08,-1.4364562e-24,-7.348161e-14,-4.5936216e-34,-6.7523036e-34,-6.004965e-25,6.861555e-20,-1.8590188e-29,1.8487378e-17,-1.5209526e-26,-5.092e-42,-4.8120664e-35,-1.0386449e-19,0.019284056,2.7977423e-25,-5.1370004e-29,1.547241e-13,-6.979719e-08,1.6635248e-20,-6.5472113e-06,-9.235431e-16,4.926e-42,2.5730607e-26,9.312094e-08,-2.551934e-38,-1.512559e-39,6.264806e-34,1.2502963e-29,-2.9705079e-36,3.0383945e-28,2.1326707e-34,-5.144e-42,-4.07787e-39,2.3568064e-30,8.1533e-41,1.0356602e-34,-6.506334e-30,7.378583e-36,8.68958e-30,-5.752904e-34,5.085e-42,7.20277e-40,4.2024942e-30,7.7264104e-25,1.9085934e-19,4.0139844e-30,-5.1313944e-17,-8.6434996e-26,6.192e-42,8.775862e-33,7.8592234e-19,2.5612466e-13,9.941653e-25,2.25598e-11,4.930616e-21,-5.444e-42,1.0852027e-31,-3.352387e-13,9.293517e-34,7.3824406e-23,8.122105e-32,-5.137e-42,1.1552574e-35,5.340642e-25,2.1157622e-09,3.9169807e-19,-3.138e-42,3.5054546e-29,-3.0073312e-11,1.5970929e-28,-6.225e-42,-2.1699006e-34,-6.380537e-21,5.429e-42,4.98e-42,-4.998e-42,1.315866e-38,-1.693864e-30,4.279704e-13
ATP6V0B,0.012631986,-1.2188168e-13,0.026973624,-4.3101246e-26,1.05604286e-26,2.6416125e-13,-1.1538121e-07,3.4690682e-20,-1.02146305e-05,-2.289267e-15,-5.097e-42,-1.6538452e-26,1.5797677e-07,1.1105801e-24,-3.036845e-13,7.556558e-33,-9.706285e-35,-1.6966033e-24,1.0907453e-18,-1.5271609e-30,1.08680005e-16,1.5831534e-26,-4.952e-42,9.83176e-35,-1.817438e-18,0.056452412,4.5957893e-26,1.876887e-26,5.736403e-13,-2.5023039e-07,7.8083414e-20,-2.2163433e-05,-4.3752322e-15,-5.242e-42,-4.8117847e-26,3.4123673e-07,-8.217981e-39,-1.7608927e-38,-8.631904e-33,-1.6517556e-30,-5.397082e-38,-4.5806586e-29,8.977888e-35,1.4714e-41,-1.2449875e-38,8.874136e-30,4.2995718e-38,-6.4572987e-35,-1.0739456e-30,-2.5691843e-37,-8.0598585e-29,-4.6496005e-35,1.1458e-41,1.4943e-40,1.6671758e-31,3.371364e-24,-2.3117818e-18,2.6964851e-30,-2.0372132e-16,-3.3389906e-26,8.282e-42,1.228819e-33,3.472388e-18,1.0343422e-12,1.9859575e-25,9.1001436e-11,2.2698156e-20,5.132e-42,4.714064e-30,-1.4426095e-12,2.1035668e-33,-2.67177e-23,1.3667939e-30,6.176e-42,-5.5817188e-36,-2.84263e-26,8.254124e-09,1.6393211e-18,5.134e-42,7.5665587e-29,-1.2449701e-10,4.7417897e-28,5.276e-42,4.831957e-37,-2.4724406e-20,-5.32e-42,-2.619e-42,-6.201e-42,2.456185e-39,4.9686563e-30,2.0013945e-12
KIF2C,0.0013154922,-2.5502e-14,0.00591919,-2.3629454e-27,1.5723128e-27,5.1321387e-14,-2.4982556e-08,2.570823e-20,-2.0091682e-06,-1.972598e-16,5.7e-42,-5.7033415e-27,3.503479e-08,4.806238e-25,-9.092415e-14,9.721025e-33,-5.701788e-33,-6.7997946e-25,3.251904e-19,1.4464279e-30,2.9853054e-17,4.3677626e-27,-4.907e-42,-1.0348606e-33,-3.130049e-19,0.02125268,2.919813e-25,2.7089566e-27,2.1593328e-13,-8.700937e-08,1.1038729e-19,-7.5405405e-06,-1.5765279e-15,7.246e-42,1.10910654e-26,1.176893e-07,-3.041801e-38,-3.004841e-39,2.1654615e-33,2.3390047e-30,1.499992e-36,2.689131e-29,-7.9336324e-35,5.151e-42,-4.883116e-38,5.989951e-29,-1.195259e-39,1.0746492e-34,-2.7327927e-30,-3.489784e-39,4.794198e-29,1.7336234e-35,-5.232e-42,5.937817e-39,1.9840385e-30,6.666557e-24,-9.097405e-19,-2.8180434e-31,-4.3340383e-17,6.391618e-26,-5.008e-42,3.3195303e-33,8.818057e-19,3.1335153e-13,-4.11122e-25,2.7633491e-11,4.354786e-21,5.232e-42,-4.682042e-30,-4.6208366e-13,-1.0231843e-34,-2.5876698e-23,2.3395332e-30,-5.105e-42,9.50211e-37,-2.215585e-25,2.44729e-09,6.761878e-19,4.905e-42,3.101415e-29,-3.7738368e-11,1.2218091e-29,5.224e-42,-2.2882857e-35,-7.259967e-21,-5.822e-42,-5.525e-42,-5.724e-42,-1.57105e-39,-1.3044171e-30,5.7051597e-13
BTBD19,-3.2570044e-06,8.551365e-15,3.8535938e-05,2.4028266e-28,-1.5783138e-28,-1.3259522e-14,2.7575894e-10,-4.3451733e-21,-8.371568e-09,1.1473982e-16,-5.724e-42,-1.8671775e-27,2.6121538e-10,-1.5511834e-27,2.8978052e-15,-2.6781326e-35,6.2040395e-36,1.3550361e-26,-3.6238052e-20,-5.928304e-30,-1.2494677e-19,-2.1838772e-28,-4.989e-42,1.2086645e-35,3.7386734e-21,-3.7457234e-05,-1.8805036e-27,-2.213857e-28,-7.1729376e-16,3.458616e-09,-2.9070966e-21,7.52805e-08,3.0467322e-17,5.266e-42,7.735146e-29,-1.4702609e-08,-1.9683385e-37,-2.00191e-40,-1.6644204e-32,1.5336986e-30,5.7435673e-36,4.945046e-28,2.1358553e-36,5.217e-42,2.313881e-39,4.1137793e-31,1.350343e-39,-3.097181e-36,1.9953244e-32,2.691383e-39,-6.9617654e-32,1.0621651e-37,-5.2e-42,-1.7851e-41,-1.818505e-32,-3.0188798e-26,7.51732e-20,-5.45612e-32,1.8608811e-18,-5.73209e-28,-5.354e-42,-1.7287735e-35,-2.4540183e-22,-3.7292608e-14,-2.3079343e-26,-9.710222e-13,-4.379778e-23,-5.161e-42,-1.837597e-32,1.800162e-14,-3.0978914e-35,-2.770366e-26,-3.155533e-33,-5.179e-42,-4.4359902e-38,-1.5061359e-26,-1.9733215e-11,-7.482916e-20,1.051e-41,-8.858664e-32,1.971245e-12,3.3046394e-32,-5.015e-42,-6.4437416e-36,1.0901614e-21,6.286e-42,5.803e-42,1.0539e-41,2.5139e-41,2.5527003e-32,-6.024003e-15
