gene_symbols,phi_0,phi_1,phi_2,phi_3,phi_4,phi_5,phi_6,phi_7,phi_8,phi_9,phi_10,phi_11,phi_12,phi_13,phi_14,phi_15,phi_16,phi_17,phi_18,phi_19,phi_20,phi_21,phi_22,phi_23,phi_24,phi_25,phi_26,phi_27,phi_28,phi_29,phi_30,phi_31,phi_32,phi_33,phi_34,phi_35,phi_36,phi_37,phi_38,phi_39,phi_40,phi_41,phi_42,phi_43,phi_44
SAMD11,-0.0066907844,-0.0048583113,0.0064556315,0.0013732144,-0.0051881014,-0.00531995,0.003964153,-0.0068290024,-0.0064093084,-0.0011065884,0.021416988,0.00774774,-0.0038409056,-0.018003272,0.0010383996,-0.024579834,0.006164134,-0.016712746,-0.001110353,-0.000775615,-0.013312698,-0.0006763761,-0.009762117,0.0071810046,-0.009964165,0.008666612,0.0039174147,0.0010453457,-0.005098636,0.0008315899,-0.0065815733,-0.0037594556,-0.0057320874,-0.00037399714,-0.009393756,0.008432073,-0.007912718,0.04811835,-0.0030095307,0.006511906,-0.012516117,0.0012325437,0.03565404,-0.014576185,-0.010459389
PLEKHN1,-0.0027306112,-0.0025167759,-0.0015131679,-0.0014509537,0.0012831345,0.00022515177,-0.0007476938,0.0020058919,-0.0015866712,0.0020992414,-0.0031514901,0.0016438678,0.0016754429,-0.0036530783,0.0028486368,0.007599886,-0.00032806923,-0.0030122104,-0.0071449,-0.0018555501,0.0008555594,-0.004806335,-0.009331316,0.0009726995,0.001540856,0.0143380305,-0.0007415157,0.00984524,0.013879492,0.00577851,-0.003105219,-0.0026220076,0.0058350298,0.011095863,0.0020495965,-0.005881208,-0.0047066105,-0.001815704,-0.0006047439,0.0012462874,0.010839845,0.004489574,0.006904949,0.0037662478,-0.002678228
HES4,0.030495327,0.008473957,0.023809552,0.0026708583,0.011977525,0.012383925,0.013856885,0.018124105,0.024976594,-0.0047664945,0.011152899,0.013906351,0.008498372,0.0101285195,0.007360591,0.022363005,-0.014906916,-0.0019612082,-0.006172339,0.008088255,-0.0106840925,0.0024521481,-0.0012546652,0.0366386,-0.0074016144,-0.0117897205,-0.01262234,0.002897678,-0.013439351,0.013012316,0.00148219,0.008952329,0.008107318,0.0009493845,0.013314822,0.00030851836,-0.0065473993,-0.00987802,0.020671135,-0.0001806443,0.002308121,-0.0026853625,-0.0012965001,0.041085687,0.00187546
ISG15,0.0014090905,0.00052213104,0.0011433697,0.001289728,0.0030023903,-0.008649449,0.0033240549,0.0003859527,0.00131712,-0.00559362,0.0071777673,-0.005174748,-0.0004143453,-0.0051367506,0.006603165,0.0012726142,-0.0030474432,0.001205976,-0.0036706892,-0.0021919613,-0.004492446,0.0047870185,-0.004548634,0.0039362786,-0.005342664,-0.0032963762,0.0022387737,-0.0047824504,-0.0066492567,0.009086993,-0.0035208974,-0.011763876,0.0049733776,0.0020638553,0.008512107,-0.0032911066,-0.004518764,0.0037713847,-0.017138168,0.004601341,-0.0052508386,0.004709013,-0.003574555,-0.0071381484,0.00047637065
RNF223,0.0020046213,0.0035930201,0.0006168274,-6.9020345e-05,0.0038780835,-0.0016997382,-0.00087124563,-0.0029899655,-0.00025181397,0.0011885972,-0.00040807863,0.000861815,0.0024499504,-0.001050989,-0.003223286,-0.0013738128,-0.0035032358,-0.0025041648,0.002072367,-7.136318e-05,-0.0030309646,-0.0010237275,0.002181395,-0.0016493737,-0.00010975963,0.000576458,0.00031745198,0.0002816634,0.0043459428,0.0014918682,-0.00032003247,-0.0036404354,-0.0014977958,-0.0028489367,0.0012640449,-0.0017603906,0.0023654092,0.0048760264,0.00060802884,0.000661722,8.533061e-05,0.0040304405,0.0009721713,-0.0038212836,-0.0033109053
TNFRSF18,-0.00027902928,0.0025220772,0.00040787258,0.0027694881,-0.00071097305,0.001478467,-0.00023652657,0.0039840196,0.0016166628,0.0058419188,0.002084295,0.0044281767,-0.0049508447,-0.0030710348,0.00663496,0.0022884766,-0.0031058842,-0.008455187,-0.0069644214,0.0017384212,-0.0035671347,3.096484e-06,-0.010745426,-0.0012617654,-0.00022272706,0.005499894,-0.00017104596,0.005212569,0.0018705458,0.008910623,0.0057219495,-0.0076102354,-0.0077458457,0.00279115,0.0040434296,0.00074628356,0.0069576954,0.0077233054,0.00029517856,0.01003627,-0.0024206415,-0.0009884025,-0.002265454,0.001750311,-0.00085148314
TNFRSF4,-0.0012038667,0.0002628935,0.001666623,-0.00087917893,-0.0018978773,0.0018168197,0.0041410495,0.00044101442,-0.0009178386,-0.0064997566,0.0009277832,0.01004699,0.009708322,-0.0034750977,0.00554429,0.012329166,0.0033030412,0.005301659,0.0066263312,-0.002715723,-0.0058100917,0.014174235,0.030997014,-0.011009396,-0.007999277,-0.009998265,-0.005849663,0.008886777,0.0061254445,-0.009213492,-0.004011395,-0.0033509792,-0.001155921,-0.008452998,0.0032866583,0.00069626997,-0.012243746,0.0010655818,0.00071771076,0.008792042,0.019856395,-0.007818854,0.014898428,-0.010205645,0.0017594235
ANKRD65,-0.0018071409,-0.0022159107,0.00229584,-0.0029246788,0.00088079646,0.00077861897,0.00037049956,0.0009153795,-0.00014315538,-0.0012419074,0.0042872564,-0.00043460674,0.0012471881,-0.0020180221,0.0033403076,-0.0053864354,0.0063010347,-0.010254911,0.0018303393,-0.0021636118,-0.004730324,-0.0032739367,0.0055900584,0.0026227434,-0.0035686635,-0.005172329,0.008553567,0.0063444683,0.0017047557,0.003588766,0.0025913976,-0.005523112,0.0002598094,0.0017978125,0.004069086,0.0029983646,0.0017000892,0.010679463,0.0021649564,0.0051835785,-0.003336346,0.00731343,0.0009514401,0.00045709824,-0.0022139978
MMP23B,0.0024477018,0.006486669,0.000852187,-0.004869929,0.004145465,-0.0029531375,-0.0034070816,0.000117314245,-0.00216446,0.008956053,-0.002531738,-0.013777155,0.006949027,0.002296715,-0.009186329,-0.0058619455,-0.0032307012,-0.0052691274,0.0030091242,0.00081952923,-0.0031763962,0.0017713802,0.0001968351,0.0009092147,0.004091593,-0.0069452524,0.00029141858,0.0054672,0.008344959,0.0012748626,0.0029324128,-0.0018686556,-0.003134873,-0.0050032823,0.0042990902,-0.0029820683,0.0034155753,-0.0015631466,0.0029208586,0.0014937485,0.005152347,0.0017993603,-0.0034412048,0.0032685224,-0.011959274
TNFRSF14,0.000912565,0.0054390896,-0.001464362,-0.0018327982,0.0022311965,-0.0013877501,0.002981128,-0.0014612082,-0.0027897733,0.0036080878,0.0064435964,-0.0058413595,0.0048764567,-0.014515891,0.00047687968,-0.0038387687,-0.0033445067,0.009455372,0.0001976788,0.0015095777,-0.00084659946,0.0004196693,-0.0039012004,-0.010702545,-0.00018061715,0.0015800935,0.0061410284,-0.0039496413,0.002634216,0.003957738,-0.0044073532,-0.002828668,0.004703577,0.0008066215,0.0010491022,0.006133581,-0.0014849462,0.00076355063,0.008783476,-0.005829015,-0.0023671319,-0.001292322,-0.003673771,0.002579512,-0.0037672448
TTC34,0.00019960968,-0.0010333034,-0.0007312388,-0.00022115628,-0.00019873786,-0.0015433395,-0.00081808085,-0.0015130127,-0.0016572222,0.0018739706,-0.0017624365,-0.00096989784,0.0022813613,-0.0011939475,-0.003378174,-0.0040326263,-0.0059050713,-0.002190765,-0.00021015512,-0.0046746633,-6.5637914e-07,0.0029036882,0.003947403,0.002509345,-0.00063761673,-0.0003519575,-0.0015614779,-0.00038937476,0.0012718816,-0.00171667,-0.0018882267,-0.0014998574,-0.000372444,-0.004091197,-0.0008635744,0.00084977894,0.0047678566,0.0041712984,-0.00086094456,-0.0001539629,0.0018510247,0.003720424,9.3664414e-05,0.0023776763,0.0016168068
SMIM1,0.0028073196,0.008716379,0.0018264266,-0.009034191,0.007440641,0.005670472,-0.0049189203,-0.0021707008,-0.0022698236,0.011067986,0.004395216,-0.025850322,0.016143242,0.0016401473,-0.009928172,-0.011633278,-0.0013599942,-0.004589613,0.0059441356,0.0004922073,-0.00021987202,0.005816332,-0.0010355596,-0.0019949595,0.0065027205,-0.010393614,-0.0032358577,0.006805986,0.012764321,-0.0009203589,0.0011988848,0.00014354016,-0.0065304814,-0.0049334257,0.0035117795,-0.004214067,0.0034962348,-0.0054966393,0.014334707,-0.0050107925,0.0011260293,-0.0037872975,-0.002996548,-0.0004391164,-0.016448975
CHD5,-0.00010539032,0.00015921569,0.0011169082,-0.001208179,6.754349e-05,0.0012027837,-0.00023520806,0.00091905013,0.00030997777,7.653329e-06,-0.001978158,-0.0043409984,0.0009059421,-0.0029129852,0.0012640412,0.0005257933,-0.00040451213,-0.00090906647,0.0034254068,-0.0029014996,-0.0017715521,-0.0029984403,-0.0005140005,0.0021126142,0.0016607466,0.0024813097,0.0043585133,-0.000608895,0.0017346335,0.0013216676,-0.002358849,-0.0015048812,-0.0026036974,-0.0010768085,0.000105285064,-0.0014998971,-0.0058321627,-0.0025791596,-0.00091164646,0.0022197796,-0.0027078772,-0.0013772751,-0.0017369329,-0.0013539746,-0.0011374173
LINC00337,0.0015861922,0.001622096,0.0016743699,-0.0020323878,-0.0011980182,-0.0018317641,0.0004234363,-0.00028681508,-9.784977e-05,-0.0026736774,0.0030158176,0.0014254088,-0.00150232,0.00032389018,-0.0022812402,0.0034911833,0.0012239016,-0.00062370504,-0.00024241977,0.002883177,-0.00017211119,0.0033042505,-0.00038055755,0.0052518663,-0.0024242636,-0.0018240446,0.0027301856,-0.0018826168,0.00012633757,-0.0017452458,-0.0012750826,0.0018836166,0.00029330802,0.0023265663,-0.00044706074,0.00049477693,-0.0004040406,-0.0004277731,-0.00011118494,-0.0013887322,-0.0018019074,0.0037962657,0.00082564424,-0.001259111,-0.0037970468
HES2,-0.002442095,-0.00067066704,0.0013205521,-0.0025403837,-0.0011645164,0.003982045,0.0030610785,0.00358656,-0.00049614074,-0.00020066113,-0.00058408873,-0.00018471447,0.00038079478,-0.0014509253,0.0016864492,0.000688225,0.00086027547,-0.0009653854,0.0020406279,-0.0002381464,-0.0006709077,0.0020692286,0.0027952152,0.0030754742,-0.0010433743,-0.0013174489,-0.001783095,0.00082629634,-0.0034449953,-0.0046150233,0.0013292016,0.00011950162,0.0026430099,-0.00072334806,-0.0016423187,-0.000409552,-0.00011565756,-0.0010327196,0.003957322,-0.000956294,-0.0009731167,0.0047386223,0.00020485847,0.005259591,0.0039385892
ESPN,-0.00051393703,0.0007825312,-0.0019487803,0.002160603,-0.0025990207,-0.00014158359,0.0008679902,0.002693143,-0.00022003952,0.0034284529,-0.0014895173,-0.002689957,-0.002247383,0.0029856737,-0.0015698028,0.0007147776,0.0009640777,-0.0048568333,0.0022718555,0.0031159369,-0.0049929763,0.0026534488,-0.0019047571,-0.003926999,0.0012425347,-0.00053315243,-0.003775689,0.0034360264,0.0031045154,0.004283275,-0.00026202254,0.004750288,-0.0021381627,0.0012257689,-0.0033185564,0.00036986018,-0.002619928,-0.0031418467,0.0032594549,-0.00035350837,-6.111985e-05,-0.0011697689,-0.0019450831,0.0013836251,-0.0035090083
TNFRSF9,-0.0029603434,0.0012911909,-0.0016694345,0.01078773,-0.00174798,-0.00016469866,0.0028954046,0.004803831,-0.002331605,0.024451291,-0.0057724747,0.029233418,-0.0022187007,-0.00303027,0.02241665,0.02041334,-0.002236745,-0.015430375,-0.025096418,0.0017857562,-0.0071161115,0.006051812,-0.011574978,-0.0047173644,0.013576624,0.013770478,-0.011889589,0.010967173,0.0049340394,0.0022078368,-0.0115779,-0.0041148704,-0.0058508376,0.0083562415,0.007823565,-0.0043766336,-0.024504595,0.003589867,-0.005071383,0.021401664,0.028693127,-0.0023418525,0.0052165454,-0.011809568,-0.003541787
ENO1,-0.033664636,-0.059510026,0.0054837116,0.024538293,0.0035868448,0.011726076,0.016719112,0.026738571,0.02072183,-0.05785552,0.01872722,0.058175966,-0.0041621462,0.0255115,0.03377379,0.02826968,0.0033562928,0.0033392196,-0.002565846,-0.001733098,0.006349359,-0.007944386,0.00044777256,-0.0004258099,-0.021821626,0.003824959,-0.0010023352,-0.033193108,-0.023261465,-0.011272391,0.010646275,-0.0074237566,0.011262532,-0.0064530545,0.028537916,-0.005090199,-0.016741877,-0.01575278,-0.02202019,0.010060554,0.0015540199,0.020882534,-0.008296389,0.012704462,0.12664515
GPR157,0.0015331237,0.00032899572,0.002259229,5.865658e-05,-0.00037831746,0.0012060924,0.0021618924,0.0020585246,0.0023242442,-0.0015924465,-0.00061072764,0.00068795145,-0.0009829828,0.0005205837,0.0019874373,0.0013041792,0.0013807121,0.0001588337,-0.0014993162,0.0013014126,-0.0016316542,-0.000947848,-0.0008543426,0.0029537603,-0.0020530268,-0.0023267497,0.0014624809,0.0032561994,-0.0035821267,-0.001399151,0.00096660684,-0.000469204,0.00055636035,-0.002830632,-0.0010319212,-0.0030935586,-0.0014167902,-0.0015169118,-0.0017676374,-0.0010557885,0.002087423,0.0009343454,-0.0023319735,0.003314961,0.0022542612
H6PD,-0.001043533,-0.0006297988,-0.0037740208,0.0023820803,-0.0047058435,0.000450772,-0.0009974001,-0.0017396868,-0.0032888514,0.0018395919,-0.0032888837,-0.0026234847,-0.003931688,-0.0068831346,-0.0048856474,-0.0083786445,-0.004237564,-0.002358311,-0.0004783341,-0.0017537901,0.0026375833,0.001378742,0.0005808703,0.000289083,0.00011660687,0.00021215691,-0.002700496,0.0034551797,-0.0020284918,0.0033501715,-0.0015865058,6.607848e-05,-0.0026461834,-0.00072466815,-0.0092564905,0.004780175,0.0044550174,0.004981715,0.0071856524,0.0023115217,0.003558299,-0.0028445795,0.007845066,0.003543598,-0.0039799614
PIK3CD-AS1,-0.00016492458,0.0002123454,-0.0010001038,-0.0026858614,-0.003490722,-0.00021862015,0.0013148857,0.0037633786,-0.0018303163,-0.00035590108,-0.0016808567,-0.0058445437,-0.003861989,-0.0052903392,0.003302989,0.0012234354,0.00041889897,0.0016947514,0.004846468,0.0015534614,-0.0005856968,-0.007396514,-0.00045372432,0.0018527516,0.0058823097,0.005342644,0.016246716,-0.0048151286,0.0021100114,0.0022901786,-0.0007776846,0.005498533,-0.0030632697,0.0015730939,0.0005606441,0.0042839707,-0.01616652,0.0027826002,0.0032815759,-2.3443597e-05,-0.0042317826,-0.006762579,-0.0017434859,0.00438538,-0.0024684214
PGD,-0.0010965192,-0.0038011007,-0.0015051577,0.004174657,-0.0048378683,-0.011270296,0.0056019737,0.0014783989,-0.0053264997,-0.008576373,-0.008166575,0.009440826,-0.006117315,-0.02656643,0.0037831436,0.009669839,-0.008578861,0.0032377017,0.015417039,-0.0010538348,0.018536855,0.004948158,-0.0041213394,0.0020135064,-0.0050056363,-0.008630847,0.011837428,-0.006528578,0.0015902163,0.003950307,0.0010981748,0.009887788,-0.0029739486,0.010252726,-0.004036528,0.033451542,-0.008676336,-0.0016419197,0.0033650708,-0.00141684,0.008599948,-0.00051884016,-0.0063242465,0.0046558646,-0.0063126385
MASP2,9.1059585e-05,0.00035085803,-0.0023987752,-0.0008657439,-0.0024666674,0.0038772987,-0.00053315447,-0.001140011,0.000814985,0.00040422395,-0.00212101,-0.00018754324,-0.0014444323,0.003435696,-0.0007645889,0.00083445746,0.0004067134,0.00029345514,0.0049861143,-0.00024437404,-0.0013520513,-0.001916443,-0.00062789454,-0.003566956,-0.001151114,0.0026835357,-0.0014651631,-0.00101853,0.0036120873,0.00041230378,-0.0019095507,-0.0018546272,-0.0020130274,0.00017537344,-0.0021629115,0.00037157495,0.0017420342,-0.0014187797,0.0027522375,-0.0011268253,-0.0016502354,-0.000292457,5.622424e-06,-0.0019160248,0.0026762958
SRM,0.009143837,-0.021066558,0.016559452,-0.013160882,-0.003715974,0.014825574,-0.0011922694,0.015052141,0.033123165,-0.04441057,0.025509307,0.0017054968,-0.020183342,0.03445553,0.0016332917,0.029364474,-0.014692376,0.0013752731,-0.0061962553,-0.00075329695,-0.0113339815,-0.0026963023,0.002600315,0.02302923,-0.0040558605,-0.004018127,-0.0039691916,-0.012032589,-0.010174595,-0.030002981,0.007073357,-0.0010305964,0.010787724,0.0026922934,0.006305678,-0.021461235,-0.0030684012,-0.010432629,-0.00025748674,0.0011670218,0.000791528,-0.0040316475,-0.014227221,0.012883327,0.06574114
DRAXIN,0.00019296222,0.00016098618,-0.0002138428,-0.00016017634,-0.0004759636,-0.0011323952,-0.0008552839,-0.0008070467,-0.0009369406,0.0007347193,3.6400907e-05,-0.0012508048,-0.001991916,7.776651e-05,-0.0003359365,-0.00013241627,-0.0022978534,-0.0012225892,-0.0016212965,0.0013439779,-0.0002592954,0.002202713,-0.0003451203,0.0023567968,0.0005383762,7.619469e-05,0.0007582873,-0.0003487855,0.00051891746,0.0010329726,0.0004868638,0.0030540673,0.001759768,0.00015571942,-9.373113e-05,0.0018659234,-0.00039583904,0.001168116,-0.0010247538,0.0009881208,-0.00044239042,-0.00059051515,-0.000278228,-0.0005257619,-0.0021904812
MTHFR,0.0069483807,0.008946228,0.0049718944,-0.0038063496,0.0015348566,-0.0010846835,-0.0033381206,-0.0054304395,0.000450441,0.0041974597,0.0032684777,-0.012113653,0.007698432,-0.0029307753,-0.0020130905,-0.006903839,0.0019071845,0.004021137,0.00077917444,-0.004654417,-0.0059394245,-0.0027792219,-0.0048481924,0.0005077184,0.0010588549,-0.0014152087,0.0034168935,0.0050082635,0.0055970117,0.0013123977,0.0016168656,-0.00062532874,-0.0035468875,-0.00070089236,0.0031466766,-0.0003708282,0.00427686,-0.001791511,0.004428702,-0.00298507,0.0032666365,-0.005921086,0.00096292846,-0.0005571836,-0.015330794
PDPN,0.0014296735,0.002383379,-0.0029588023,-0.00095001893,0.0022795356,0.00028480217,0.0017362853,-0.0028394558,0.00055336376,-0.000113749054,-0.0016631676,0.00078996277,0.0035959017,-0.0019057309,-0.0010445814,0.00073439867,0.0016710561,0.00037137882,0.006900766,-0.0014610946,0.0004916786,-0.0014091742,0.0029524711,-0.002359126,0.00026476153,-0.0003364087,-0.0010301815,-0.0019700907,0.0032896427,-0.0011245729,-0.002847109,-0.00083554455,-0.004816599,-0.00030349658,6.88381e-05,-0.00028642328,0.003236811,-0.0008334178,0.0018270137,-0.0011518373,-0.0023460835,0.0005283166,0.00078925095,-0.00527652,-0.0021320034
CELA2A,-0.002298117,-0.0042452756,-0.0012720316,0.0006984773,-0.001165315,0.0024476529,0.0022737766,0.0032797551,-0.00024866132,0.011541589,0.0017170052,0.004273446,0.018079877,0.0024044237,-0.0027484081,-0.006196748,-0.0027284601,-0.0035286522,0.0003660226,0.0070074587,-0.0034552212,0.00055324123,0.006023346,0.0010466304,-0.0041563604,0.0018111164,-0.0022960112,0.00071647903,-0.0007192014,-0.0027415308,0.006985583,0.0016401422,-0.0048244707,-0.010691695,-0.0025647397,-0.00070060993,-0.0008335935,0.0056004203,0.0037317567,-0.00011981745,-0.0015581455,0.0072399084,-0.0007535553,-0.0011687687,-0.00527384
CELA2B,0.0019032735,-0.0041135424,-0.005317225,0.0062191966,0.00453754,-0.003711375,-0.004787626,-0.0026825175,-7.29305e-05,0.011519116,0.007010577,-0.018120572,-0.005766411,0.0036973676,0.029199088,0.0036323313,0.0044433083,-0.007523346,-0.023112845,0.0064409305,0.0063071135,0.015374624,-0.005444316,0.008763153,0.0035260946,0.0116489,-0.0026921555,-0.032030813,-0.013592549,-0.0038553309,-0.005522872,-0.009886617,-0.0069704656,-0.0036477984,-0.011261562,-0.0022307637,0.004710843,0.002035146,-0.0011355303,0.029459715,0.018419696,0.0053168586,-0.0053458465,0.002574656,-0.0025219617
TMEM82,0.001038579,0.0010356341,-0.00014077374,4.4026463e-05,-0.002288974,-0.000898394,-0.0016103286,-0.00061959063,0.0005483968,0.0027620043,-0.0011975698,-0.005720033,-0.0034514512,0.00048296415,-0.00036083994,-0.0008521606,0.0018130019,0.0019509222,-0.0044951076,0.000267405,-0.00080186717,0.0027684434,-0.0037806435,-0.0018292452,0.0012543101,5.5142824e-05,-0.0007828274,0.0036497775,-1.061084e-05,0.0037311076,-0.0007295828,0.0042787404,0.0040789256,0.00026080493,-0.0025833843,0.00045120186,-0.00015621078,0.0019264722,-0.002983427,6.4929496e-05,0.0017316571,-0.003347816,-0.00023691589,0.0029910163,-0.00042074858
PLA2G2D,-1.5906098e-05,-0.0010721647,0.0010255673,0.0002731584,0.0009766192,-0.0018265641,0.0010058659,-0.0030817564,0.00055534014,-0.0026521934,-0.0035253935,-0.0049321973,-0.0030404625,-1.5063498e-05,-0.008170233,-0.00020835435,0.0019439086,0.007253297,0.008803903,0.004902439,-0.0031286501,0.014537557,-0.0107175205,0.005968961,0.0013334648,-0.0014363335,-0.0068686646,0.008964504,-0.005335518,0.005399213,-0.005247525,-0.0035262748,0.0013044071,-0.00037049557,0.006898619,-0.0026106646,-0.008153846,0.0017436717,0.00065081165,0.009219971,-0.011867796,0.010334775,0.0022096997,-0.006822256,-0.0015738371
PLA2G2C,-0.0029390268,-0.00021157162,-0.00064539665,0.0016378214,0.0003207971,-0.0022889008,0.0003435006,0.00093258417,-0.0023869346,0.0009163269,0.00035314387,0.006419782,-0.00013072292,-0.010728388,-0.0007719429,0.0037351535,-0.0027837148,-0.003704648,0.00047061898,0.00446349,0.0054334956,0.0047006416,-0.006283485,-0.0032824688,-0.004454084,-0.005426988,-0.0032403166,-0.0027654625,-0.0018413942,-0.0048213582,0.0019812293,0.00048597695,0.00077199115,0.00040678732,-0.0010919897,0.017006814,-0.0028523898,-0.008464814,0.0073336447,0.0005003676,0.0012952304,0.00295383,-0.0013507946,0.0019000628,-0.004232314
CDA,0.0022666436,0.0019930312,-0.0024234874,0.00026887108,-0.0019707258,-0.00017343198,0.0018067742,-0.0032809419,-0.001684235,0.0029747232,-0.0025231706,-0.0007783066,-0.0060046935,-0.005336201,-6.159372e-05,-0.003182184,-0.0033210332,0.0008666138,-0.00046278158,0.004525853,0.00464573,0.0015653027,0.0019829492,0.00097372435,-0.0018422625,-0.0026590582,0.0015274404,0.00080911093,0.0013928333,0.0031421843,0.0026325982,0.0057118577,0.0039491155,0.0045727887,0.0046500647,0.0038237486,-0.0027358937,0.007223423,0.0067107617,-9.473678e-05,-0.0012924212,0.0013593691,0.0014667738,0.006518482,0.0007284438
HP1BP3,0.007860586,0.007186017,0.013025401,0.0030217806,0.005724375,-0.0012313301,-0.003243309,-0.0044570197,0.0015795241,-0.0050328784,0.011504691,0.0060904445,0.009560503,0.004090523,0.0024962614,-0.002256532,0.0007186534,0.0031900783,-0.00070324633,0.009805001,-0.009491751,-0.0042378567,-0.004703984,0.016287258,-0.0025626966,-0.0022767582,-0.0037945458,-0.00042487064,-0.0018231537,0.006253816,0.004418929,0.00044771997,-0.0048644543,-0.0002826198,0.0033440052,0.002687689,0.0054757297,-0.0030838028,0.005652533,2.913635e-05,-0.001334393,-0.0077145197,-0.00053004205,1.854401e-05,-0.013629173
CDC42,-0.004751143,-0.005768141,-0.00020993678,0.0038426304,0.0010768939,-0.005015423,0.0012702069,0.004673344,-0.0010227842,-0.006239954,0.005425744,0.0057478794,-0.0014662846,-0.00035155166,0.003957144,-0.0014529789,0.0020625235,-0.00086101395,-0.0022599993,0.0018426317,0.0004772344,-0.0003658019,-0.0058604036,0.00050686125,0.001264687,0.0032265794,-0.0013005194,0.000704765,-0.0035384705,0.00115686,0.0054145004,-0.00415695,0.0019217782,0.00066276063,0.0040973276,0.00487113,-0.0022357213,0.0039455434,-0.0053506363,0.00032895207,0.0006523035,0.011385734,0.001077148,0.0079960525,0.0069982097
C1QB,-0.001834404,0.00042898947,-0.0001864183,0.0009786848,0.0010842013,0.001188972,0.00028683967,0.00042012092,-0.0018617687,9.62602e-05,9.156921e-05,0.00055236317,-0.00033711383,0.00013615204,-0.0010451482,-9.702508e-05,0.0028427257,0.00249689,0.0012221404,0.00084631593,0.002508263,-0.0011350926,-9.569018e-05,-0.004841124,-0.0020689475,0.00017922428,0.0010169625,-0.00043351747,-0.0012639768,-0.0006212929,0.0018314705,-0.0013606804,0.00245306,0.0025991434,0.002350699,-0.0012985783,7.881911e-06,-0.0009740582,-0.00021470703,0.0021482024,-0.0010294386,0.0032777132,0.000733249,0.0007048728,-0.0016072071
ZNF436-AS1,-0.00097112916,0.00453057,-0.0029912693,-0.00095235836,0.0016948711,-0.0004348249,-0.0023077007,-0.006204916,-0.0032005545,0.005070143,0.006387944,-0.010365045,0.003903659,-0.0016411704,-0.0023028497,-0.013929353,0.007651759,-0.0010680732,-0.0012518002,-0.0035551325,-0.0025070214,-0.0025364922,-0.0047129444,-0.013925495,0.0021916404,0.0065337177,0.0030328017,0.0040481053,0.0056495625,0.0011958018,-0.004581177,-0.009810922,0.0010282475,-0.0018970682,-0.0049295593,-0.00392037,3.8109807e-05,0.0028705487,0.0018220348,-0.002460788,0.0013733931,-0.0024535216,0.009750485,-0.00885367,-0.011626566
ID3,-0.010455018,-0.010756482,0.03955395,0.005451347,-0.021141285,-0.025572192,0.02889448,-0.057811595,-0.020677682,-0.009192442,0.058850758,0.019283775,-0.016994867,-0.018099314,0.016591111,-0.053575985,0.01347576,-0.018081753,-0.029620983,0.013071561,-0.049956907,-0.0077849412,-0.016012857,0.050260596,-0.00747186,0.021501612,0.0239111,-0.0017965557,0.026787898,-0.0077277464,-0.0050077257,0.01768225,0.007108967,0.008241388,-0.04091739,0.030258976,-0.01547926,0.074785985,-0.05541342,-0.005828777,-0.024276443,0.018798098,0.0591593,-0.08509199,-0.034418993
HMGCL,-0.002562626,0.003124401,-0.002253862,0.009144414,0.0033705677,-0.002310867,0.0037381845,-0.0033257226,-0.0055482206,0.008696959,0.0014442625,0.0008202923,0.009012606,-0.012398771,0.002830808,-0.008952233,0.0028362311,-0.0026456434,0.0018871928,-0.0015157417,0.0069002532,-0.0025209903,-0.006004982,-0.0012316845,-0.001351129,0.0048854877,-0.00044197732,-0.00078634126,-0.0025394303,0.011436602,0.0004681824,-0.0055554872,0.0054837475,-0.0037849923,-0.0003569096,0.002978464,-0.0041958927,0.0022063782,0.0025985965,0.004931454,0.005571502,0.006243451,0.005798127,-0.002172492,-0.0068842974
FUCA1,-0.0042658756,-0.00027777147,0.0008514486,0.0052658557,0.0043117017,0.0018523232,-0.0002631171,-0.0037232237,-0.0074267667,0.0025039956,0.0026642238,0.0011614981,0.007437034,-0.010136694,0.0004704186,-0.008791661,0.000117042066,-0.0032572744,0.0066588293,0.00028566248,0.008343861,0.00077431573,0.00033081713,0.0035239593,-0.0057491874,-0.0011528606,-0.0023197408,0.0017924363,0.0016391308,0.0064338543,0.002516155,-0.0061440933,-0.0028473581,-0.003664117,0.005050432,0.0018941357,0.0045986567,0.009799393,0.008626366,-0.00042313107,-0.000589416,-0.000657527,0.009273173,0.0043078396,-0.006010611
CNR2,0.00031169053,0.0011487027,-0.0014409523,0.00042994457,0.0008024177,-0.0024067962,-0.0007948264,0.0025715125,-0.00069764216,0.0005104073,-0.0012651727,0.0022842418,0.00060789054,-0.0027339084,-0.0013786514,0.0026442346,-0.0006441452,0.0012500458,0.0027553665,0.0015551065,0.004692298,0.0019849772,0.00014603644,-0.0021182087,-0.0017219131,-0.0037199007,-0.0025168834,-0.001219544,0.0003366758,-0.0002492832,0.0014983652,-0.00245978,0.002834098,0.0037039837,0.0028261621,0.0023141827,0.0051909573,-0.0053158957,0.00033355216,-0.0011698214,0.00039603823,0.0031816382,-2.6545638e-05,0.0026435563,-0.0032386135
IL22RA1,0.0008980127,-0.0016587588,0.000947795,-0.0012906025,0.001317221,-0.0014193989,0.0030899614,-0.0022938126,0.0013990264,-0.002633648,-0.0015924464,0.002134522,0.0006016457,-0.0020213074,-0.0005487121,9.8676624e-05,-0.006026831,-0.003613775,0.0013682384,0.0014397056,-0.0018083976,0.0015906553,0.00013867329,0.003449957,-0.0006569448,0.0058154035,0.0025973958,-0.0007384804,0.0026668655,0.00058275316,-0.002194031,-0.00012392062,-0.0051155966,-0.005199967,-0.004636669,-0.0010214768,-0.0017150767,-0.002199328,-0.0036923224,-0.0015287569,-0.0022008286,0.0017960339,-0.00087290106,-0.007460004,0.002071473
SYF2,-0.0066044736,-0.0016685685,-0.007657816,0.014756998,0.00035069018,-0.0025097704,0.005791061,0.0018368815,-0.004069019,0.0020443897,-0.0068463082,0.014240266,0.0022371449,-0.01396257,0.009147582,0.001452833,0.005367815,-0.00054838083,0.00038185323,-0.0030054813,0.0039053443,-0.003745029,-0.0057745473,-0.015799228,0.0071683386,0.010917502,-0.0074557196,0.0051787887,-0.011021793,0.020568876,-0.0018678745,-0.00097250985,0.0012487511,0.0010493038,0.0025706473,-0.0026905697,-0.006997601,0.004024636,-0.0031485546,0.0076614968,-0.002323874,0.010522536,-0.002131211,0.0029534395,0.006072303
RSRP1,-0.0027906382,0.0018825629,-0.001991716,0.0035526226,0.00015104112,0.0013091699,-0.0010777574,-0.006815019,-0.0058664028,0.014951118,0.00075325,0.000580009,0.004463456,-0.0074398597,-0.00032308337,-0.010067977,0.009228013,-0.0040336363,0.0029169878,-0.0001895703,0.0039356016,0.0018886053,-0.002930672,0.0033616202,0.0050283936,0.0040661306,0.004819385,0.009568687,0.0031774384,0.0066398685,-0.003931588,-0.0043058586,-0.0076004677,9.675772e-05,-0.00826047,0.0055469563,0.0065925918,0.00589149,0.0026845795,-0.0013996507,0.008821457,-0.0018407863,0.009078127,-0.006469813,-0.011213219
MAN1C1,0.00061257684,-0.00010982736,0.001795911,0.0022908866,0.00038677445,-0.0012110019,0.0022165556,0.0010271225,0.0006194905,-0.0010326429,0.0011701252,-0.0010364255,-0.0017668847,0.00033844804,0.0007814675,0.0002328958,-0.00093693193,-0.0017171802,-0.001872484,0.0018794487,-0.0022455908,0.00031053668,0.00018152971,-0.0018239279,0.0025965862,0.0009958462,-0.0013786611,0.0011190427,0.0016490197,0.0065112826,0.0013731229,0.0006797791,0.001298498,0.0010895676,-0.00046898468,-0.00014581185,-0.0012379603,0.0033265941,-0.0035855616,0.0010710808,-0.001838417,0.0031145397,-0.0018634943,0.0031548291,-0.00079664245
PAQR7,-0.0003802181,-0.00032265816,0.0010261141,-0.00122203,0.000307438,-0.0015431988,-0.002428974,-0.00045542725,-0.001783192,-0.0023254636,0.009877956,-0.0049359407,0.00049299444,-0.0014052812,-0.0028239852,-0.0057165045,-0.003983881,0.0044513396,-0.003103814,0.004069622,-0.007706469,0.0016252514,0.0014748196,-0.011677325,0.0024638546,-0.00021091451,-0.0005768284,-0.0017419177,0.0035713832,0.0030029467,-0.0037033518,0.004677143,0.0018518661,0.0035661669,-0.00022631526,-0.0026438031,0.00032509412,0.0013143119,-0.00034901022,-0.00442631,-0.0025964025,-0.0003112074,-0.00019235538,0.0007480959,-0.002145634
STMN1,0.0023803208,-0.007354107,-0.001937396,0.01097635,-0.00074361585,0.007141289,0.0013869305,-0.0019135948,0.019607142,-0.039745882,0.023627402,0.019735565,-0.011931311,0.025111578,0.012655035,0.017376317,0.028836852,-0.0020686414,-0.003118139,0.0066919713,-0.0023506407,-0.008087779,-0.013443929,-0.016657215,-0.016638895,0.007365554,-0.013799177,-0.0052711843,-0.013134389,0.0013420988,0.008988627,-0.0018073551,0.002441007,0.010874248,0.009731638,-0.008902893,-0.014529716,-0.018769398,-0.010112544,0.0049665193,-0.0003062274,0.00076963886,-0.0068442826,-0.02318727,0.03726839
EXTL1,-0.00042863865,0.0016599727,-0.00016966916,-0.0006237241,-0.0014364183,-0.0014214555,-0.0019646862,-0.0010715013,-0.0026365938,-0.00016167123,-0.00031505522,-0.0005833004,-0.0008031921,-0.0016298613,-0.0035959114,-0.0017951325,-0.004601641,0.0025379236,6.851424e-05,0.0020042802,0.0025662766,-0.0025939408,0.000713877,0.0019405212,-0.0047521386,0.0020878364,-0.00324221,-0.0009166594,0.001967327,0.0011042221,0.00173802,-0.0026323444,-0.0021582956,-0.001191332,-0.004116325,0.0024943335,0.0014642499,0.00015851806,0.00061314227,0.00079593295,0.0024510822,0.00033908422,0.002295286,0.00038147505,-0.0039419723
TRIM63,-0.00092151656,0.0017665041,0.0009920374,0.0039045142,0.002999654,-0.0011207741,0.0019216236,0.002210548,-0.0021749416,-0.0019804824,0.001348942,0.004620917,-0.0037508663,-0.0013158489,-0.0012949544,-0.0013882632,-0.0016615591,-0.002119067,-0.0020865665,0.008319834,-0.000491748,0.0035785702,0.0077303476,0.0059279804,0.0012169479,-0.005313686,-0.0016829475,-0.0006456779,0.0042220894,0.0018526703,0.010718076,0.001238011,0.0107758045,0.009278967,0.0126968585,-2.638845e-05,0.0008494304,0.00025062132,-0.0016151661,4.609478e-05,0.0014538593,0.005577942,-0.0031645512,0.00065717654,-0.0043019694
SH3BGRL3,-0.0067189047,0.010324861,0.006363837,0.01738923,0.022351794,-0.017023282,0.011755339,0.000804449,-0.016191315,0.026296413,0.0024014718,0.017193243,0.04396267,-0.004918746,0.016069163,-0.0109603265,0.0027388788,0.004694171,-0.005028176,0.01347646,0.008814836,0.0067257504,0.0018831653,0.01776812,-0.0038710712,-0.010695854,0.011328023,-0.005325186,-0.0055310326,0.031685833,0.008032709,0.004480207,-0.0035751394,-0.013090907,0.02938668,0.030499537,0.0027256995,0.008147233,-0.013441524,-0.01148524,-0.0038596706,0.016021792,0.006353226,0.0019472246,-0.034240846
CD52,-0.008275977,0.007910871,-0.0020340378,0.01448441,0.00699044,-0.008551118,0.003025426,-0.002100407,-0.016604587,0.025347926,-0.011525663,0.015090335,0.025771603,-0.013614729,0.009514939,-0.011315691,0.001546949,0.003939894,0.01012018,0.010042135,0.008978073,0.0007401909,0.0014170771,0.0035930315,-0.014504174,0.0023782682,0.0013701561,-0.0024794103,-0.0047666677,0.02038131,0.0038061235,-0.0034179355,-0.004236942,-0.007890555,0.004795473,0.03155269,0.009063467,0.011918244,0.004991066,-0.0123462975,-0.00043907962,0.007862933,0.007333598,-0.0029221561,-0.029112525
LIN28A,-0.0020157576,-0.0012144548,-7.1245784e-05,-0.0004184224,3.9015278e-05,-0.00030627198,-0.00048654634,0.0009857613,-0.0019634368,-0.00035569337,0.0002780007,0.0004374286,-0.00013092927,-0.0019749438,-0.0011556271,0.0005821831,0.0006846773,0.00045905163,-0.00045182178,-0.0006542255,0.0010095992,4.6021916e-05,0.0002665364,-0.0004039072,0.00065267296,-0.00078788627,-0.00016713182,3.567974e-05,-0.00016494657,-0.0032012477,-0.0010396284,-0.001193825,0.00034238552,-0.0002937597,-0.00080781314,-5.2424282e-05,0.0006097508,-0.0006664789,0.00095919747,-0.00043063148,-0.00034815574,-0.0006686939,0.00070593413,0.00042808463,-0.00048288668
HMGN2,0.009175844,-0.0037461356,0.011279627,-0.0028611252,0.0064709,0.002274788,-0.0056243925,-0.002447502,0.019552935,-0.042915378,0.033303518,0.0069136443,-0.0027216931,0.028241983,0.0069911247,0.019365497,0.013753656,0.0009779737,-0.00044247802,0.016088177,-0.0024929384,-0.0013731475,-0.010628086,0.009767568,-0.017275343,-0.0045508957,-0.0063854046,-0.01656341,-0.0052066855,-0.013358609,0.014740505,0.010194292,0.0021373464,0.005397423,0.017979302,0.0068181567,-0.0073204637,-0.020894304,0.00058906875,-0.0013545933,0.002489758,-0.010030386,-0.0074501154,-0.021019028,0.026552942
NUDC,-0.010115771,-0.029316556,0.004899154,0.010087656,0.0025715563,0.005500018,0.0071063275,0.013910689,0.014644308,-0.026365397,0.013254963,0.02523635,-0.007296601,0.021600487,0.014483792,0.014101109,-0.011105102,-0.0031913593,0.00020371002,-0.002668099,0.0007673941,-0.0012222828,-0.0006627866,0.011065205,-0.007994948,0.003339304,-0.0041051474,-0.009358248,-0.011554705,-0.0067628534,0.006497866,0.0053389766,0.005250193,-0.002590236,0.018624833,-0.011239965,-0.0040053446,-0.0036316426,-0.011607334,0.0034779264,0.005947795,0.009753109,-0.007822871,0.014131798,0.06815424
SYTL1,-0.0018923449,0.0016954899,-0.00073181314,0.0003064198,0.0014488173,-0.0050188624,0.00259453,-0.0011848849,-0.0037099742,-0.0013124153,0.0009840515,-2.4318457e-05,0.0011441378,-0.015538881,0.0064787786,-0.0008307751,0.0023669463,-0.0053297,0.0033176402,-0.0011772919,0.005116716,0.0034116248,-0.001852009,-0.0058363536,-0.0016628697,-0.0035800815,0.0077357646,-0.002754251,0.0012468698,0.0026446444,0.00027212023,-0.0018866776,0.0024948786,0.001472263,-0.0007567144,0.02231721,-0.008165868,0.0047204187,-0.0058858413,-0.0014953465,-0.0019506938,0.0023893337,-0.0007537791,0.0009104257,-0.010328783
FGR,-0.0024457558,-0.0018458683,-0.002428753,0.0005611197,-0.00059258187,9.1788635e-05,0.0003397848,0.00029935394,-0.004850208,-0.00032669402,-0.004122071,0.0013435937,-0.0020785276,-0.010584219,0.0019437178,0.0041023246,-0.0009007148,0.0041864007,0.0010127493,0.0015847187,0.016816331,0.0011304453,-0.0066310833,0.0051421393,-0.0059982464,-0.0010535403,-0.0004636841,-0.0024832431,-0.0006296981,-0.0007185942,-0.0045817946,0.0036641713,-0.0016596386,0.0017067699,0.0022609704,0.012284426,0.0019325737,-0.008758172,0.012770206,-0.0013515337,0.002358581,-0.0050920183,-0.0017407176,-0.0024100554,-0.0005009844
IFI6,-0.0012440869,0.001510832,-0.0030934531,0.0023716195,0.0017125523,-0.003635089,1.8520652e-06,0.001794179,-0.003204215,0.0036539058,0.0027741925,-0.00015520562,0.005513788,-0.011942117,-0.0074974173,-0.0030684967,-0.0050358484,0.0061907014,0.0008007704,0.0073348363,-0.0030665863,0.0051345318,-0.01105049,-0.0029932875,-0.008304795,-0.0032569806,-3.94662e-05,-0.00019480399,-0.0027538964,0.009308515,-0.0044547548,-0.005606872,-0.0046402197,-0.004350994,-0.0021406058,0.002910342,-0.004357208,0.003987138,0.0069467938,0.004392638,-0.0033168127,0.0048581557,0.005075338,0.0020198133,-0.0048183263
THEMIS2,-0.0026025302,-0.0029727963,-0.0021372645,-0.00013614284,-0.0011191266,-0.0048853965,0.0005042273,0.0026450292,-0.005728469,0.0011167506,-0.004024128,-0.0054972377,-0.0014713876,-0.020797564,-0.0012834484,0.0050769765,-0.0013795429,0.0015317232,0.007529982,0.0040061586,0.013259081,-0.0003944588,-0.0023434826,0.0038227544,-0.0008506036,-0.005831331,0.014012428,-8.448542e-05,0.0006782301,0.00016047449,-0.0024615566,0.0110550495,-0.0018028984,0.003375331,-0.004556121,0.026529608,-0.0065270127,-0.006426158,-0.0055026356,-0.00030364736,0.0061859726,-0.0026904088,-0.005147688,0.0070783007,-0.008634712
PTAFR,-0.009162252,-0.0062774313,-0.0004950901,0.0038998744,0.00041204476,0.004145057,-0.0018551489,0.004470496,-0.006956156,0.004086358,-0.014723864,0.004206251,-0.0073982673,-0.031363208,-0.0019044351,0.00779726,-0.010189694,0.010814942,0.0129203,0.005166405,0.039045718,0.0016352894,-0.015052079,0.008635794,-0.008630889,-0.002576874,0.006168777,-0.01003474,0.0024792976,0.004661642,-0.006021506,0.004678284,-0.0004861371,0.003907081,0.0032259133,0.022707192,0.005187924,-0.012752112,0.026023336,-0.00048848946,0.009749343,-0.0030117733,-0.0061566927,0.0025232423,-0.004741739
SESN2,-0.00050542294,-0.00033577508,0.0035615833,0.010498573,0.0034026532,0.002904481,0.009938979,0.00218782,-0.0012327466,0.0044392627,0.008392806,0.014404939,0.0080563575,-0.0035919377,0.0027222,0.00031446942,0.0061400845,-0.0023993657,-0.0025031557,-0.0014556134,0.003965868,-0.011574057,0.0013329984,0.0051563065,0.00086803496,0.0051271045,-0.00892323,0.00633578,0.0029000298,0.013891284,0.0030194763,-0.004288263,0.004638834,-0.0022415516,0.003395375,-0.005191096,-0.0040464452,0.0045586475,0.00036716208,0.00844334,-0.0059381723,0.004678798,0.0015428567,0.006852327,-0.0020110712
OPRD1,-0.00056740607,0.00016246623,0.0007661048,-0.0010718937,0.00065282284,0.0006318831,-0.0011307118,-0.0006007489,-0.0007926879,-4.7646354e-05,0.001940901,8.076316e-05,0.0012733929,-0.0005625344,-0.0022723959,0.0007004857,-0.00037193953,-0.0008887697,-0.0004157355,-0.00124769,-5.2023435e-05,-0.0007449273,-0.0014676038,0.0027989193,-0.00057484314,0.0024284688,-8.0837686e-05,0.0003523094,-0.00015544283,-0.0008733588,-0.0026901665,0.00038481384,-0.0027649286,-0.0008267957,-0.0005497496,8.5162974e-05,4.765326e-05,0.0024050872,0.0023216475,0.0005568971,-0.0006359536,4.218733e-06,0.0014924697,-0.0035556294,-0.0003973721
LAPTM5,-0.0034199588,0.00070853595,-0.0017986373,0.015080442,0.0074701835,-0.019379428,0.006500217,0.0030852645,-0.008453011,0.0073488345,-0.008910508,0.021410977,0.0132759325,-0.003843911,0.009013257,0.0038702427,-0.011482252,0.010337547,0.005272342,0.009143067,0.013173519,0.004438235,0.001259471,-0.0014959819,-0.0058940738,-0.0043902323,0.011543402,-0.010002476,-0.0009355595,0.018885711,-0.001080346,0.012277301,-0.0046853204,-0.00012356497,0.010263326,0.031134758,-0.0011067521,-0.009713609,-0.02284581,-0.006545675,0.00027482136,0.007944512,-0.002200652,0.0022624137,-0.0132932095
FABP3,-0.0013060026,0.0029325853,-0.0020081862,0.0036915906,0.00022851104,0.0036538518,0.0022384021,0.0030096795,-0.0021225342,0.0074380334,-0.008281581,0.005681081,-0.0020691692,0.009123988,-0.0010880239,-0.0005070644,0.011596915,-0.00168767,-0.010773896,0.0015893598,0.0044240467,0.0029507473,-0.011761819,-0.0034390606,0.015281231,-0.0018582755,0.008117514,0.0016874042,0.009607978,0.01526554,-0.0037456902,-0.005168467,0.00036505825,-0.003806782,-0.0007157351,-0.0007489393,-0.002233203,-0.00065140816,0.005246564,-0.0060866736,0.0042687273,-0.0018970749,0.011711504,0.0124301305,-0.004180882
SPOCD1,1.6099879e-05,0.003164647,0.000905252,0.0027905905,0.0010195804,-0.001161139,0.0020321694,-0.004510763,-0.00036166722,0.010982314,0.0065327943,0.01286918,-0.014734025,-0.003726734,-0.008307936,-0.00018030265,0.007478559,-0.00095167296,0.010370943,-0.011103167,-0.0010391534,-0.001360247,-0.003798529,0.004082889,0.011818225,-0.008327005,0.008407024,-0.0022361337,-0.0061050397,0.008659259,0.003246429,0.0019243695,0.0012217752,-0.008206969,-0.0032655054,-0.0016639573,0.0008511012,0.0043688184,0.000106652704,-0.002919068,0.005205143,0.003666456,-0.010997858,-0.0052610966,-0.004749749
LCK,-0.001428964,0.00023737985,0.0001474916,0.0027598294,-0.00054384535,0.0028902967,-0.0029740306,-0.00056118297,-0.0030299574,0.0008315222,0.0021349527,0.0035482198,-0.004013309,0.0053848415,-0.006689419,-0.004145188,0.00065618043,-0.00088869245,0.0031938648,0.00013490068,-0.0010125296,0.007535879,-0.001815384,0.0033685407,0.023841163,-0.004316026,0.0022423277,-0.011350958,-0.010590802,-0.0032039983,-0.0019131976,-0.0045490693,-0.0005634802,-0.0032159751,0.005117566,0.0014716038,-0.001284938,0.0018547326,-0.0036850388,-0.010706103,0.010724261,-0.0027224964,-0.008262333,0.00021960137,-0.0010723973
MARCKSL1,0.0022451114,-0.016448049,-0.0009919642,-0.007836297,-0.010868131,-0.005339005,-0.005845445,0.0060284636,0.008954111,-0.026828418,-0.0024554469,0.014448071,-0.03898149,-0.027078338,0.0057714037,0.018374188,-0.028408067,-0.0023666476,-0.0008734916,-0.010820567,0.016565075,0.0015141971,-0.01064044,0.0072612106,-0.003314536,0.0015202088,0.014184216,-0.01423201,-0.008758354,-0.023495153,-0.0123142805,-0.0035677333,-0.005589718,0.013838364,-0.01455696,0.020258462,-0.004711689,-0.00054939295,-0.0040897913,0.0056095985,0.002913777,-0.01264753,0.0022900684,0.009794347,0.02470991
BSDC1,0.004538272,0.012583579,-0.0044240938,0.005437598,0.0018508278,-0.0022394292,0.0053779404,-0.0024197784,-0.0046270466,0.012855195,-0.010338325,0.011445179,0.0070561385,-0.0015273304,0.0038973666,-0.0036034114,0.00964018,0.0022483156,-0.011351975,-0.0023809357,-0.009319614,-0.005661884,0.004264203,-0.0037782483,0.0062450897,-0.0031281267,-0.00075800583,0.01010398,-0.0001287824,0.011748974,-0.00968829,0.0050334255,-0.001656207,0.0024219034,-0.0034716034,-0.0004220665,-0.0025626742,-0.00783365,-0.0012665087,-0.001053438,-0.005112429,-0.001665584,0.0028210292,0.0010127497,-0.024516294
TMEM54,0.0055478727,0.01520397,0.0026511538,-0.0015878336,-0.022384737,0.016825724,0.0014356399,-0.0065786634,0.0022307406,0.007001805,0.0015166595,-0.0055899713,-0.02294199,0.025324771,-0.0043624253,-0.0016492325,0.028527638,-0.013205101,0.015145029,0.016626501,-0.038102128,0.010070567,-0.006224575,-0.0037193182,0.00032093615,0.027807193,-0.023511156,0.005125346,0.0062073255,-0.0044421605,0.0034646909,-0.008489073,0.0026495035,0.012197993,-0.042381607,0.014575307,-0.011919761,-0.0042251125,0.02359489,-0.012795503,-0.004891006,-0.012736885,-0.0026718315,-0.012549594,-0.009234998
PSMB2,-0.013754066,-0.025011826,-0.0025314793,0.016680388,0.0030186537,0.0077842153,0.010738362,0.0133739915,0.013303539,-0.02598983,0.011936577,0.03269743,-0.0020475406,0.02028477,0.017334064,0.015278242,0.0053966013,-0.0025245992,-0.0038413561,0.0019367856,0.0019341666,-0.0052792593,0.0032642244,-0.010694865,-0.01224747,0.0011989478,-0.009565388,-0.010821087,-0.017688338,0.0050799535,0.007273941,-0.0023395915,0.0012088044,-0.0017452375,0.021083733,-0.012931299,-0.0060865763,-0.0053369496,-0.012019112,0.0073063774,-0.0046582343,0.023720866,-0.0045872936,0.003586023,0.06237209
CLSPN,0.005930188,-0.0065823263,0.0072263763,-0.0032112761,0.0038644467,0.0015351536,0.0073403376,0.0088298265,0.013891607,-0.02100081,0.012939274,0.009029578,-0.0020782049,0.013045514,0.0031658032,0.019794147,-0.0030281448,-0.0019509813,0.000124647,0.0008035341,-0.004511936,0.0003188741,-0.0005765037,0.011078833,-0.008220023,-0.010692782,-0.0017750553,-0.009435967,-0.00788647,-0.009854136,0.0052341325,0.0077604484,0.007540513,0.0005406527,0.016145494,-0.004213124,-0.003269915,-0.012974129,-0.0077632344,0.00012905852,-0.0058832127,0.005720821,-0.008475683,0.010802133,0.030294739
MAP7D1,0.0035360844,-0.004382411,0.0077505615,0.005694308,0.0028942302,-0.00437575,-0.0014989394,0.002751233,0.0048865997,-0.008572344,0.00953106,0.016100176,0.0018459664,-0.0009327156,0.0076389653,0.009945006,-0.0014707589,-0.0017425646,0.0020640325,-0.0010607097,-0.011288463,3.7052647e-05,-0.0032749241,0.009796822,0.0040315567,-0.0013389977,-0.011455006,0.001104677,-0.0005891156,0.00127096,0.00096663414,0.00015970848,0.0040774387,0.00058361946,0.00016878343,0.0025803302,2.6610618e-05,-0.0056121694,-0.010043269,0.002568967,-0.0021474476,-0.0057520415,-0.002548801,0.005278888,0.0029109654
CSF3R,-0.00774497,0.002183814,-0.0072454065,0.002383423,-0.002980429,-0.020815056,0.004544137,0.005210911,-0.022337334,0.013693144,-0.02109254,-0.0017946964,0.0033104764,-0.049130008,0.0023748053,0.008389858,-0.014682293,0.007563532,0.02311107,0.0065093646,0.039370466,0.012028802,-0.004833365,0.004702594,-0.012692616,-0.004915832,0.023273833,-0.014885075,0.0048967,0.011268389,-0.0033449028,0.0045534945,-0.0010222703,0.0036762904,-0.007198184,0.06166328,-0.0023678725,-0.0013625849,0.010650243,-0.010705462,-0.00048890145,0.0020696116,-0.006799013,0.010129622,-0.034048438
CDCA8,0.008247922,-0.005333061,0.016877657,0.006537515,0.0046144347,0.0010363316,0.004507714,0.0059260605,0.013124944,-0.015992902,0.013777219,0.013017451,-0.0006729686,0.013587535,0.003888696,0.008247001,-0.00936419,0.0010297177,-0.0043498124,0.004689898,-0.0036149689,-0.00096486195,0.0013458228,0.022931471,-0.011462543,-0.0018648001,-0.0061341673,-0.0033749933,-0.0037723351,0.0075704013,0.007526909,0.0015782702,0.00491574,0.000595546,0.007502103,0.0029703698,-0.0028789344,-0.008169715,-0.0035277468,0.0012520096,0.00053301884,0.001554889,-0.0048776926,0.014274431,0.020631319
RHBDL2,-0.0014318844,-0.0003316019,-0.0012153175,0.0005873004,-0.0019323693,0.0011003418,-0.00082591915,-0.0018754456,-0.0015647376,-0.00037029939,-0.00069546426,-6.536415e-05,-0.0019930908,-0.00072781334,7.2346165e-06,-0.0006442751,-0.001736037,-0.0006962396,-0.001909475,-0.0006494273,-6.302012e-05,-0.000107725275,-0.00038053902,-0.00091158884,-0.0012048578,0.001816788,-0.0003661713,0.0007743703,0.00036712844,-0.00018274372,-0.00059224817,0.00088000967,-0.0009969246,-0.0012001356,-0.003354935,-0.002424063,-1.530755e-05,-0.00043485497,0.0008952911,-0.0009124199,0.0011770389,-0.0020735054,0.00028298484,-0.001654787,-0.000649234
MACF1,0.004825351,0.0019404006,0.008150774,0.00032469843,0.0022601297,-0.0050951964,-0.005684984,-0.0061451667,0.0005553368,-0.0022545957,0.009941821,-0.000786467,0.0030971363,-0.0064527555,-7.832937e-05,-0.0059206905,-0.00033115174,-0.0023148174,-0.0014520478,-0.001492954,-0.0057272282,-0.001173201,-0.0058339117,0.010363135,0.00025027042,0.00035428413,0.0078105056,-0.00025500538,0.0017137161,0.0078609325,0.00017444459,-0.004101804,-0.007854374,-0.0054554646,-0.0015824051,0.009576984,0.0030104262,0.0073189074,-0.005605516,-0.0020916683,0.0010047893,-0.007872216,0.0034394132,-0.0031161888,-0.011618514
MFSD2A,0.0009237333,0.0009953828,-0.0006966852,-0.00058767083,0.0023401459,-0.00092134764,0.0015206189,-0.0023470528,0.00042593115,-0.0016358377,-0.00061193894,0.00032168798,0.002021632,-0.0029002882,-0.0010506484,-0.0012466565,-0.00061678694,-0.0012268329,0.0046816333,0.0015310633,0.0009806809,-0.0018472403,0.00253347,-0.00015174162,-0.0007342693,0.0032190254,-0.00040377383,-0.003682609,0.0029895455,0.0026791252,-0.00046973428,-0.0025344836,-0.0026364797,0.00031214015,0.0016562003,0.00049022894,0.0009876156,-0.0015267058,0.00076446414,-0.00041362102,-0.0036736808,0.00025468186,0.0016119811,-0.003932958,-0.0016099401
CAP1,-0.0035161762,-0.0032222988,0.006204934,0.012590143,0.0047909417,-0.011998552,0.0048956326,-0.0025263198,-0.0040652864,-0.0065981983,0.009764436,0.022319937,0.00563271,-0.0074846237,0.013738899,-0.0072785486,-0.0040550157,-0.0039046346,-0.0022977386,0.0017685659,0.0010035442,-0.0050154254,-0.004054318,0.011804351,-0.0035123066,-0.0059665684,-0.00043180972,-0.004571081,-0.0024725196,0.01652332,0.0047744666,-0.0003853817,-0.004401286,-0.0015637699,0.0108779855,0.013342087,-0.003011192,0.0017735913,-0.01143555,0.0018934903,0.0052748537,0.004461844,0.004135851,-0.0024620567,-0.003275617
COL9A2,-0.0037754336,0.004032081,-0.0038449757,0.0021293452,0.0016080845,-0.010559016,0.0015525131,0.00028455773,-0.012629896,0.009372428,-0.012048556,-0.0012043093,0.004153466,-0.025913028,0.0018485973,-0.0006237807,-0.008541868,0.004764676,0.009397733,-0.00012813,0.022322249,0.0031909053,-0.0064357715,0.0029798956,-0.0059670988,-0.0003959066,0.0071504195,-0.0022862037,-0.0015169311,0.0071431557,-0.0065496718,-0.000601619,-0.008206436,-0.0023032129,-0.0040325704,0.02542906,0.005268738,0.0009730247,0.004594354,-0.004836369,0.0016999209,0.00058112456,0.0009656006,0.0028236334,-0.020238135
SMAP2,0.0018346994,-0.0012431826,0.004577912,0.0007965944,0.00015242393,-0.0010807908,-0.0026493198,-0.0036210953,-0.0006249373,0.00055146456,0.0018969149,0.010244286,0.0041585765,-0.00765354,0.0031767995,0.0017012188,-0.0005258221,0.0002848562,-0.0047365846,0.00040979372,-0.002250653,-0.0009201837,0.0007415529,0.018822052,-0.0063243452,0.0026958266,0.0029491049,0.0024156133,-0.006164513,-0.0038028269,0.0010513971,-0.0016966771,-0.0056252303,-0.00031690073,-0.0046983054,0.010753449,-0.00043869583,0.0019660485,0.0010484863,-0.003897706,0.0041288533,-0.0036708522,0.0030576736,0.0024959724,-0.0029095158
CITED4,-0.0005989079,0.002609844,0.0018130327,-0.004209082,0.0040602675,0.000104198945,-0.0005227354,-0.0019493968,-0.002595467,0.004337958,0.0033886714,-0.0019261056,0.0049113296,-0.000901161,-0.0033791685,-0.0023772614,0.0035075645,-0.008817853,-0.0077350526,-0.0051273378,0.0011705012,0.0033670305,-0.008592507,-3.3492568e-05,0.009506207,0.0023405654,-0.0031178116,0.003977612,0.001016845,0.0035044532,-0.006915646,0.0042890827,-0.0006300876,-6.0195776e-05,0.002079248,-0.0006545056,-0.004405804,0.0015848944,0.001200431,-0.0007095273,0.008584297,-0.0010665891,-0.0023387107,-0.009432418,-0.006695867
FOXO6,-0.0021032537,-0.0006530981,-0.0008372834,0.0017366074,0.0024093566,0.004843589,-0.0006575963,-0.0023981947,-0.0034090222,0.006271901,-0.005434383,-0.005804658,0.004285314,0.006775231,-0.0010814057,-0.007233827,-0.0011292094,0.00196789,-0.0061350814,-0.0017270969,-0.002998945,-0.00173931,0.0037090818,0.003171493,0.0046786927,-0.003036356,0.000111611786,0.0007988345,0.0044144127,0.0005481732,-0.001544841,0.0027545977,0.00021054664,-0.00300603,0.004840655,-0.0018675375,-0.0016638164,-0.010073054,-0.0005948342,0.00012826287,-0.0025636533,-0.0019382391,-0.0011829174,-0.004540073,-0.0035851689
PPCS,-0.0034039621,-5.930404e-07,-0.0025891648,0.0026998399,0.005008107,-0.0045774374,0.0001543211,-0.0020497139,-0.0062882886,-0.00013678503,0.0029762483,-0.0029845394,0.0033847122,-0.015108271,0.00031209996,-0.00768529,-0.0046119057,-0.005557509,0.0007550803,-0.003979626,0.0003317356,-0.0030103778,0.0010868326,-0.0049699284,-0.0012073534,0.0004839802,0.0016380703,-0.0032735327,-0.00067940005,0.011210179,0.00020215864,-0.007462479,0.00011065528,-0.0036945867,0.005990255,0.0050567263,-0.00089513866,0.0075736344,0.002100455,0.0069885724,-0.006589425,0.0075662923,0.0042811595,-0.00018219063,-0.0053545306
YBX1,0.014265287,-0.013209483,0.01656259,-0.02119477,-0.0077246367,0.008042754,-0.00743801,0.005730776,0.038290765,-0.076880775,0.043639347,-0.010146897,-0.036670923,0.046002317,0.0023743066,0.035409566,0.018723648,-0.0031987191,-0.01008957,0.002981879,-0.022462703,-0.0040106084,-0.009377549,0.016409779,0.008188642,-0.0054834685,-0.0034298936,-0.008977805,-0.0074034417,-0.03199115,0.005617668,0.0155308945,0.0007359612,0.022664074,0.011276473,-0.014900337,-0.015656712,-0.02802647,-0.013221297,0.0026299243,0.0066685695,-0.008536472,-0.018623702,-0.014634724,0.05688371
CLDN19,0.000110512134,-0.0038842217,0.0046225023,0.0029723146,-0.00014867216,0.004151,-0.0009816089,-0.0012358759,0.0024932332,0.0026817936,0.0059787487,-0.009051472,0.0148541955,-0.0027938462,0.0032133982,0.0112567255,-0.011511462,-0.0067280247,-0.0011663971,0.0015617906,0.004670615,-0.0015731413,0.0030058164,0.007674654,0.003169942,-0.012954576,0.006256131,0.0028117169,-0.009133128,0.011931027,0.007635611,-0.004471488,-0.00024282288,0.01654646,-0.017876139,-0.002699024,-0.0041546295,-0.001385902,0.005101345,-0.0050018127,-0.0036943064,-0.0057318443,0.0073269685,-0.013137293,0.005315981
SLC2A1,0.0033947197,0.0010911559,0.010229104,0.002067691,0.011192173,0.013773655,0.001083743,0.0055808355,0.0077123228,0.0059141777,0.005364649,0.0048613115,0.013615628,0.026830181,0.0083511155,0.006390209,0.0069732433,0.0012751506,-0.009604382,0.009683696,-0.0064591276,0.0053327396,0.0040050335,0.02096455,-0.0013688045,-0.0076617473,-0.0021460252,-0.00852628,-0.0059584873,-0.0042139655,0.0013645411,0.011773123,-0.0005894494,-0.004929646,0.016815074,-0.00669527,0.0033359008,-0.009361347,0.013720176,-0.0040803817,-0.0014183938,0.0009930886,-0.0058520073,0.0056128907,0.009509876
SLC2A1-AS1,-0.0027136593,0.0056017283,-0.0002720901,0.0009912926,0.0053289374,0.0051198,-0.0024496773,-0.0060286196,-0.0074265376,0.020588607,-0.003370247,-0.0063929837,0.015184872,0.008729476,-0.012980288,-0.011658899,0.009773092,0.00050186046,0.0036199782,0.006874163,-0.009373206,-9.6493335e-05,0.0026153577,-8.940855e-05,-0.00058835506,-0.0032056856,0.001655301,0.005691982,0.0025013962,-0.00017523173,-0.0019257551,0.00079615513,-0.010801018,-0.0065462627,0.001801203,-0.0012018051,0.0068926904,-0.0035876953,-0.00015330935,-0.0044749505,0.0033064664,-0.0002589323,0.006111614,-0.0071704644,-0.018529221
FAM183A,-0.0022136674,-0.0019605856,0.0018635482,0.00020626758,0.0010099749,0.00043025607,-0.00012662327,-0.0017995923,-0.002656168,-0.0011018891,0.007216822,0.002275797,0.001930235,-0.0034949954,-0.0014323376,-0.004432751,0.00153268,-0.00172672,0.005055948,-0.002349254,0.000862962,-0.0020643354,-0.0036485319,0.002512316,-0.00011390414,0.0031765322,-0.00010397312,-0.00064834225,-0.00031533313,-0.0019384446,-0.0035432177,-0.0021103371,-0.0047753393,0.0007017625,-0.00028158375,-0.0017183216,0.006347083,0.010442833,0.0018355474,0.0001902116,0.0005480749,0.00012766846,0.010483608,-0.002384767,-0.00092543266
EBNA1BP2,-0.008270914,-0.02775122,0.0029783598,0.002210483,-0.0029816166,0.008244004,0.005847096,0.013793853,0.017382378,-0.027183209,0.008458123,0.015228778,-0.010070627,0.021456717,0.0024481711,0.016904218,-0.014621022,0.0016292887,-0.00030053707,-0.0016328873,0.004508945,-0.0019983954,0.0036194923,0.0075145285,-0.005630867,0.0012210871,-0.002094597,-0.011728596,-0.008166044,-0.009652494,0.001825345,0.0010495319,0.0026214304,-0.001865446,0.008755309,-0.012092155,-0.008073674,-0.004185588,-0.00861044,0.0024792799,-0.0017440015,0.014506065,-0.006543307,0.016284429,0.06897829
TMEM125,-0.000953589,-0.0010738547,0.0013573135,0.002292323,-0.00162545,0.001393649,0.0015948113,0.0001737461,-0.00035132756,0.0037054464,0.0003875088,0.00010238468,-0.0011133301,0.001686751,0.00049760775,0.0010469932,0.0009874474,0.0022366545,-0.0039120694,-0.0020339082,-0.00016727218,0.0023617966,-0.0035365317,0.0034533942,-0.0015575691,-0.0039315824,0.00041964717,0.005089832,-0.0035138903,-0.00066842773,-0.0012485093,0.00022645517,0.003646372,-0.00021727498,-6.680718e-05,7.907538e-05,-0.002286144,0.0025457784,-0.00026248625,0.00092059677,0.0011833202,0.004289875,-0.0007481411,0.0010116323,0.0020292914
CDC20,-0.0076651014,-0.015587788,0.0032464298,0.01592315,0.0038121068,4.2630112e-05,0.0005580637,0.0056745666,0.005358415,-0.015713098,0.006027987,0.016093958,-0.002928982,0.009387874,0.00803073,0.0063937586,-0.00013339192,0.003485412,0.0009362987,0.0047450135,0.00071627134,0.0023344317,0.0004286626,-0.002514439,-0.012503518,0.0025786615,-0.00897323,-0.0024258525,-0.0063176625,0.014031403,0.0024273344,0.010273678,-0.0024225877,-0.00092993566,0.012588033,0.0003828884,-0.003468303,-0.004721131,-0.009859169,0.0016657412,0.0047772797,0.0038615405,-0.0047071693,0.0015006546,0.037306987
ATP6V0B,-0.014096363,-0.019405996,-9.889753e-05,0.019912625,0.0070140124,-0.0039222804,0.010793694,0.005652097,-0.0014474121,-0.017683847,0.010912531,0.028687218,0.0064961496,-0.009938061,0.015293161,-0.0018880315,-0.00269977,0.00067175657,0.0027850885,-0.004033747,0.012440717,-0.0047498387,0.004364054,0.0023012199,-0.010814786,-0.0010407823,-0.00025596961,-0.0020738966,-0.007593244,0.014551295,0.0033126455,-0.013439283,0.00068582257,-0.0032218953,0.01624233,0.00639111,-0.0039717383,0.009072992,-0.01907853,0.006607268,-0.004907399,0.017425675,0.011372819,0.010213453,0.027324695
KLF17,-0.0023368385,-0.0026471477,-0.0032301303,7.887162e-05,-0.0012909647,-0.0033348915,0.0032706573,0.0020839134,-0.0020074218,0.003997731,0.004918081,-0.002305891,0.010837002,0.003314664,0.0005544618,-0.0022157067,0.001217573,-0.0036440184,-0.00087534415,0.009019829,0.002374147,0.0002991059,-0.00013136775,-0.0048028445,0.00069541886,-0.00022665622,-0.00023988207,0.0022914724,-0.0016386091,0.0022274165,0.0061826934,0.011751903,-0.008351033,-0.0030198263,-0.00082336,0.006260642,-0.003087833,0.0020312846,-0.0014863182,-0.00025203556,0.0017340366,0.004658612,-0.006058527,0.0007627244,-0.0017772955
KIF2C,0.009436866,-0.00030307856,0.01352629,0.009030997,0.005380136,-0.0007307526,0.0046120905,0.002020293,0.012472313,-0.0149423545,0.014279007,0.015549103,0.002690941,0.008908948,0.0067311036,0.009311864,0.004000023,0.0012210711,-0.0016100844,0.0072918064,-0.007867405,0.0006815382,-6.885579e-05,0.017569533,-0.013320938,-0.0036152017,-0.00559431,-0.0027726342,-0.005942308,0.010388132,0.0074909823,0.0091470415,0.0047034803,0.0029331888,0.011088147,0.003269785,-0.0020518983,-0.008316668,-0.006001133,-0.000674024,-0.0014514684,-0.0009313223,-0.005952649,0.0065365657,0.013515331
BTBD19,-0.0012112467,-0.0012769024,0.0013468545,0.0020347105,0.0018181875,0.003596667,0.0005760715,-0.0022945902,-0.0016588577,0.0017235861,-0.00088184944,0.00446201,0.0013036393,0.00057916506,0.0024757935,-0.0039416985,-0.00055161666,-0.0009822032,-0.0010681043,-0.0018890186,0.00033718877,-0.002105982,-0.00048049833,0.003899569,-0.0010578338,0.0034176703,-0.002545336,0.002123671,-0.000995611,-0.0016937292,-0.0029334384,0.0017662998,-0.0011747014,0.0010030133,-0.00069900224,-0.002951536,0.0015780615,0.0030487482,0.003572398,-0.0005230791,0.00029575027,-0.002199647,0.011189061,0.004129593,0.0019483733
PRDX1,-0.017778704,-0.03063475,-0.0073996214,0.01997383,-0.00042345712,0.0044590556,0.012052361,0.011324702,0.013485765,-0.029375505,0.009019074,0.03789576,-0.013056245,0.017328853,0.018149897,0.009785904,0.0014350788,-0.0035575693,-0.0072045587,-0.009776513,-0.0057641477,-0.0054935752,0.00920128,-0.023175681,-0.009359158,0.0038441406,-0.010543012,-0.007992567,-0.016619869,-0.0001626888,0.0011596784,-0.007996357,0.0029552893,0.0024470964,0.015085678,-0.022612672,-0.002360128,0.0052062366,-0.031009521,0.01282648,-0.0057046623,0.024673093,-0.0014342016,0.00075515354,0.07510822
TSPAN1,0.00082593964,0.0007895795,0.00047302755,-0.0003272454,0.0016218377,0.0002660945,0.0002485237,-0.001036723,0.0013562271,0.0004922172,0.00022040312,0.0018869531,0.0018503013,-0.0021990626,3.948952e-05,-0.00076544983,0.0021360407,0.0009202797,0.002705864,0.0013173228,-0.0016554374,0.0015917262,-0.0013793659,0.0024499637,0.0005809197,-0.0020506158,-0.0026097503,0.0009910224,-0.0016323327,-0.00070160936,-0.00048254122,-0.005746261,-2.1095326e-05,-0.0037740178,0.0022760318,0.0016217092,-3.4785076e-05,0.0023379847,-0.0021549603,-0.0010684401,0.00033810176,0.00014676919,0.0011973105,-0.0017063374,0.0013489173
MKNK1-AS1,-0.00022480014,-0.0002882766,-0.0006729068,0.0017026406,-0.00026734665,-0.00029757482,-0.0003647107,0.0016943815,-0.0012407504,0.00439543,-0.0005283391,0.0037269448,0.005331391,0.0011583023,-0.0023687303,0.0022692115,-0.0035706921,-0.003843192,0.0020885528,-0.00014499154,2.6372509e-06,0.00034839936,0.001207198,-0.00026891413,-0.0038869746,0.002291451,-0.00032788832,-0.002124755,-0.00047878007,-0.0006038409,0.0019865073,0.00046952022,-0.0010031073,-0.0032668682,-0.002841202,0.00011907294,-0.00022749788,-0.0026178674,-0.0016897769,-0.00056190457,0.0009390374,0.0019469438,-0.002224348,0.0032345091,-3.397218e-05
LINC00853,0.0009836754,0.0040159407,0.00036050018,-0.0017096156,0.0023742924,-0.0039875,0.0002964142,-0.0018727554,-0.0025289857,0.0037705854,0.0012095479,-0.005828403,0.0049390476,-0.003371051,0.0004528491,-0.0033393628,0.002617091,-0.0021818979,0.001753733,0.0026660692,-0.00083100004,0.0027146433,0.00085181213,-0.00048371818,0.0005549926,-0.0025337082,1.7832706e-05,-0.00053909107,0.0048819147,0.0035893354,0.006097152,-0.0027261127,0.004856893,-0.004567129,0.0035551465,0.004370224,-0.000909882,-0.0006482062,-0.002282726,-0.0030027681,-0.00053980853,0.0002468116,-0.0023744258,-0.0027725147,-0.010499374
PDZK1IP1,-0.0023585393,0.00037513505,0.0019786966,-0.0016991881,0.00029090347,-0.00012829012,-0.0016421255,-0.0007225894,-0.0044213883,0.005742672,-0.0012447609,-0.0024941163,0.0028656875,-0.004260712,-0.00044683274,-0.0034457063,-0.00043517776,-0.0032994759,0.0013292318,0.0013555184,-0.0057383175,-0.0060631116,-0.009517741,-0.001895409,0.00522383,0.0064751282,-0.011442074,0.010653536,0.0024947932,0.0052661984,0.0016246599,0.0008570882,-0.00045364114,-0.0026044538,-0.0046531786,-0.005729796,-0.00626799,-0.0017710454,0.0018495427,0.0029263096,0.0050624292,0.001030353,-0.0004129958,0.0051940274,-0.004456339
CDKN2C,0.0052042827,0.006486473,0.004931258,-0.00023095023,0.0060377363,-0.0025760198,0.00069719617,-0.0063913497,-0.00082704227,-0.005734442,0.012253721,-0.00054482976,0.008385633,-0.003500536,0.0030235748,-0.0029271091,0.005061637,-0.0055867885,-0.002322392,0.007244879,-0.0047134184,0.0032109106,-0.0019541981,0.012053888,-0.008207572,-0.0019941581,-0.0055595264,-0.0006257907,0.00023669566,0.0013431784,0.00926245,-0.0034554102,0.0046203635,-0.0023842978,0.007054787,0.0034313302,0.00027062258,-0.0013485212,0.0002882165,-0.0023497967,-0.003359214,-0.0005983893,0.0010130748,-0.009244299,-0.014042393
TTC39A-AS1,0.001766538,0.0022511538,-5.131298e-05,0.0042582415,-0.00086203485,-0.0024156685,0.0009694624,0.002283981,0.0067403545,0.0029870633,0.0067967977,0.011808748,-0.0015798289,-0.0061931717,-0.019384772,-0.005703192,0.005025154,-0.0047308584,0.00040181587,0.00045600047,0.0019892005,-0.010410211,-0.009118492,-0.0028223798,-0.007956064,-0.0029856015,-0.008476105,-0.00052289077,-0.006650542,0.0065003084,-0.004341924,0.011846611,-0.0028191933,-0.0014188233,-0.004027003,-0.0031142267,0.0019691058,-0.0035386027,0.0031973307,0.023322739,0.014081008,-0.00022493667,-0.0006156568,-0.010185814,-0.0006905121
RAB3B,0.0025913096,0.0032234427,0.002376283,-0.0010657357,0.00081505236,-0.00748108,0.001905625,-0.0039268327,-0.00035302073,-0.0023945898,0.0061741183,0.0005213741,0.0047632866,-0.0028205472,0.0015297434,-0.00016797116,0.00020875315,-0.0046581235,0.0040454622,-0.0016673387,-0.0068991487,-0.00026600662,0.00021325253,-0.0013229473,0.00047375343,-0.0027075415,0.0023206046,-0.00079548795,0.0038621488,-0.0007411959,-0.0012509348,0.003254705,-0.0031065592,-0.0023997447,-0.004880419,0.005401389,0.0016890378,0.0107588,-0.004782085,-0.0020334749,-0.0038515632,-0.00021919282,0.0013453821,-0.0059252214,-0.0045631174
GPX7,-0.0010556981,-3.3837325e-05,0.00031437757,0.00015268238,0.0002160253,-0.00011960059,0.00032362904,-0.0017502601,-0.0015801295,-0.00016816659,0.003054865,0.0006059084,0.002374635,-0.0027375105,-0.0007066519,-0.0024486107,0.0008800569,-0.0006730521,-0.0072943447,0.004534317,-6.259626e-05,-0.0005769824,9.730904e-05,-0.001388616,0.00065912056,0.0013585713,-0.006122893,0.0025069648,-0.0031621521,-0.0010796692,0.005244762,-0.0024991923,0.0009952757,0.0003940045,0.002382957,-0.0027381289,-0.0029320328,0.007936201,5.6529298e-05,0.0012851978,0.00034418778,0.0028297624,0.0023422325,0.0011065109,-0.0009801186
SLC1A7,-0.00041813136,0.001599144,-0.0026411875,-0.00091996265,-0.0025047453,-0.0016531725,0.00010224205,-0.0020257214,-0.0037086043,0.0006753894,-0.0021069911,-0.003497756,-0.004309806,-0.0032522974,-0.00019916041,-0.0016243786,-0.0010039476,0.0007019615,-0.00450418,0.0010876842,0.0020360614,0.0025490895,-0.0023603542,0.0038977931,0.00028498477,-0.00058775727,0.0024832634,0.0012221871,0.0010795306,0.0033032869,-0.00031808988,0.002706324,0.001142895,-0.0017066256,-0.0019809625,0.0050254706,-0.0026450208,0.0053725736,0.0024934276,0.0012737234,0.0010098031,-0.0037603884,-3.0516403e-05,0.0011926081,-0.0024954446
PLPP3,-0.00025280652,0.00046068282,-0.0006824523,0.0017014211,0.00083904015,-0.00023428304,0.0005497048,4.589565e-05,-0.000582803,0.0005957846,-0.0028499668,0.0024057282,0.0016004241,-0.00062576286,0.0025815796,-0.0007403289,0.004797264,0.0012234013,0.0033578502,-0.0016099,-0.00050062797,0.0014224559,-0.0031378001,-0.0049817013,0.0019519152,-0.00059780147,-0.0037114401,0.0017478401,5.7695303e-05,0.009006624,0.00117418,-0.003031228,0.0018380272,0.00058327947,0.005254282,0.0008841821,0.00077706075,0.0003192992,-0.0045806337,0.00021936452,2.921498e-05,0.0023252873,-0.0011607093,0.0023597884,0.004766812
TACSTD2,-0.0035255912,-0.006182991,-6.01585e-05,0.0050490964,0.0015696549,-0.0013276644,0.0018086085,0.00035674055,-0.0050755776,0.0023342853,0.0018842648,0.00036694578,0.0018342993,-0.010135391,0.0045760046,-0.0021187593,-0.009682946,-0.01100774,-0.012717621,-0.001597281,-0.006722661,-0.0031646667,-0.014083881,0.011713624,0.04549611,0.011304135,-0.024682093,0.027436882,0.0085237855,-0.014616643,0.0019284611,-0.0024381708,-5.4324602e-05,0.00413732,0.002846812,-0.004575275,-0.013576248,-0.0010269664,-0.0028360048,-0.011082348,0.017227283,0.00026356234,-0.011329082,0.0007361207,-0.0022577585
JUN,-0.009489072,0.0063342447,-0.0069994796,0.04094189,0.012926124,0.003299879,0.018426782,-0.00265094,-0.008556154,0.00831513,0.004366756,0.041018352,0.014643069,-0.019549178,0.030911187,-0.011286062,0.041408725,-0.012972735,0.005401495,-0.007383824,-0.00058929686,-0.005299769,0.00035193365,-0.03135787,0.013927407,0.010850997,-0.043974686,0.015965108,-0.001456859,0.071605965,0.0071561756,-0.020429738,0.0256892,0.0008740689,0.021775004,-0.014159843,-0.011629829,-0.011238308,-0.012469588,0.0063397433,-0.005739513,0.031468917,-0.0027301789,-0.0027223597,0.0071219793
LINC01358,-0.00047230517,0.001563156,-0.001475625,0.004092616,0.00042390547,-0.0020942292,0.0011869168,-0.0014684945,-0.0038922084,0.0042437706,-0.00026193183,-0.00030316337,0.00069949764,-0.00046248978,-0.0049805343,-0.004415215,-0.0008598187,-0.0013344773,0.0032880984,-0.003716096,0.0014572738,0.0021413586,-0.0018125026,0.00013217877,0.019833807,-0.0012556221,0.002647481,-0.004980644,-0.0033505126,-0.0011534007,0.00034702683,-0.00259738,0.0027481806,-0.0025669008,0.0049016397,-0.0006457461,-0.006269758,0.002192417,-0.00671192,-0.006909223,0.0077385763,0.0027054946,-0.0054150135,0.0017312005,-0.0035110812
LEPROT,0.0035323473,0.00469322,0.0050926707,-0.0038811143,0.002693694,0.009801872,-0.002675096,-0.0033657716,0.0013226451,0.0054327794,0.0039733727,-0.0138383,0.0106448205,0.0027412223,-0.0013269238,-0.0048875697,0.005163399,-0.004316814,0.00532345,0.0020015447,-0.0048597497,-0.0048885,-0.0044425754,0.00519986,0.0013962447,0.006914697,-0.0073904814,0.0034342853,0.0013065091,0.00070161896,0.0047572884,-0.0034716867,-0.0007566069,-0.0034726302,-0.004315072,-0.010318359,0.0026818346,0.00067329756,0.013278653,0.00030943126,0.0023533697,-0.0072657354,0.003829914,-0.00057260244,-0.008476609
SGIP1,0.00068279903,0.003955763,-0.0031239705,0.003408343,-0.0021267864,0.0044253576,0.00021991726,-0.0014450577,-0.0011855444,0.0033971427,-0.0065071518,0.004686215,-0.0025704645,0.006367587,0.0023945738,-0.00039524678,-0.0011072038,0.0030827248,-0.0013987732,0.0029573871,-0.007885565,-0.0028485274,0.004773875,-0.0015038417,-0.00424364,0.003626921,6.0341787e-05,-0.002235637,0.0015506145,0.004105865,-0.0019941626,-0.0033188048,0.00021993539,0.00075563113,-0.0025613706,-0.0010327153,-0.0017657214,-0.00725378,0.0011143294,-0.001179637,-0.00497935,-0.004027857,0.00068274466,-0.0017809506,-0.004112813
C1orf141,0.000269769,0.003640524,0.00052517134,-0.0010090359,0.00179897,0.0003747661,-0.004422764,-0.0016581856,-0.0033937625,0.0016438774,0.00038084327,-0.0035324616,0.0005880643,-0.002016201,-0.0038659398,-0.0021927897,-0.00085525296,-0.0010637145,-0.0028401848,0.0016175259,-0.0018891477,0.0025855806,7.410713e-05,0.00010549518,-0.00046824903,-0.0019144191,4.935312e-06,0.0008272368,0.0011483877,0.0008931594,0.0030700488,-0.0019756726,0.0025319825,-0.001739457,0.0015748071,-0.0023633225,0.0019451153,0.0018006029,0.0024594618,0.002118008,0.0018288227,-0.0019429147,0.00012784799,0.002691646,-0.00553966
GADD45A,0.00010186648,-0.0015091967,0.0017250968,0.008297402,0.012908131,0.015303949,0.002142915,0.0034114197,0.006921699,0.0025392454,0.010533993,0.0074380976,0.012084903,0.014759858,0.010093225,-0.0005732014,0.009479358,0.0016339537,0.0011850517,0.0062075,0.0013676754,-0.0054390607,0.0012301491,0.0050121583,0.0061615016,-0.005185352,-0.014574808,0.0010587255,-0.00581154,0.011527687,0.006522487,0.0023270475,-0.00064758357,-0.0032486045,0.024896987,-0.020228846,0.0053784335,-0.020147527,0.012064202,0.00040851574,0.0015869627,0.007009135,-0.005280089,0.006191794,0.016646525
FPGT-TNNI3K,-0.00096245366,-0.0012935034,0.0007008999,-0.00112938,0.0021096326,0.0032817137,-0.00087753934,-0.003305578,-0.0010094852,-0.0010387882,0.0013709624,0.00060076854,0.001415582,-0.0017397148,-0.0011879064,3.613912e-05,-0.0012126965,-0.0018075674,-0.0047161123,0.00034788638,0.0033788416,0.006051452,-0.00064697355,-0.0005710816,-0.0009857365,-0.003362349,-0.010605895,-0.001947936,0.0008742713,-0.0024413043,0.0016910206,-0.0015677473,0.0011667394,-0.0008470994,0.003375182,0.003839591,0.008919277,-0.0047139595,0.004515798,-0.00018630474,0.0011796445,-0.0010779531,-0.0016831176,-0.004435522,-0.0018805752
SLC44A5,0.001177223,0.0015801899,0.0031274832,0.0011402043,0.0025186515,-0.0026341104,-0.001076842,-0.0037417575,-0.00029806248,-0.0008652755,0.0086198915,0.0016596786,0.0054100165,-0.0008717063,-0.0013593241,-0.008940606,0.003188227,-0.0016972201,0.00074269774,0.0022493768,-0.002164679,-0.0035879926,-0.0039892816,0.00051721244,-0.0013682436,0.0021141667,0.00053217646,-0.00022321167,-0.0025512564,9.1228154e-05,-0.00050710083,-0.0028708111,-0.0051172287,-0.004699417,-0.0012197798,0.0032088968,0.00047758265,0.0074332426,-0.00041910872,-0.0014861095,0.004501773,1.0890405e-05,0.012416091,-3.1531854e-05,-0.0056343316
MSH4,-0.00018793212,-0.00040459554,-0.0010202873,0.0015571892,-0.0004349647,0.0015192886,-6.462164e-05,0.00074667204,-4.328978e-05,7.511154e-05,-0.0010542686,0.0010282324,-0.001604428,-0.004235016,0.002908775,0.0016657822,-0.0015620469,-0.000819815,-4.6399764e-05,0.0013578939,0.0028483663,0.0020841786,-0.00078358187,0.0016356047,-0.0028575256,-0.0018808686,-0.0012269939,-0.0019812593,0.0007757314,0.0015288569,0.0034744614,-0.00021965601,0.0049905186,-0.0010296175,0.000429713,0.0029096683,-0.002417371,0.0017508845,0.0069476706,-0.0016258004,0.00012287062,-0.0045431857,-0.0029781738,0.0067050783,0.004041647
DNAJB4,-0.001604661,0.0018998395,-0.00365672,0.0019173295,0.002943438,-0.00092583324,-0.0025089167,-0.0063820574,-0.0037490828,0.001251915,-0.0009063099,0.0018233795,0.0021782566,-0.0013825842,0.00045356786,-0.004722395,0.0057468964,0.0040786196,0.00046351584,0.002644753,0.00083415303,-0.0018632031,0.0013785923,-0.0075011025,-0.0010790891,0.00391771,-0.0030788467,0.00044515717,0.0012452605,0.00291063,0.0040830993,0.00033793153,-0.0021735348,-0.0007063363,0.0054354533,-0.0010179159,0.0028294236,0.003351488,0.00048360074,-0.0013460823,-0.0014716523,-0.00045229594,0.005640772,-0.010021122,-0.00322013
GIPC2,-0.003641178,-0.0035005594,-0.000341635,0.0044361325,-0.0008428194,0.0072018513,0.00022045917,-0.00033090299,-0.0028773833,-0.00089927803,-0.0011113944,0.007287238,-0.002285255,-0.0058486923,0.0017189529,-0.00080146,-0.0008754667,-0.001021478,-0.0048044357,0.002809357,0.0016974364,0.002434596,-0.0024755786,0.0030960678,0.0014453605,-0.0032802464,-0.016079936,0.0012372909,-0.0012740303,0.00032876566,0.0012254722,0.0010365513,-0.0001194935,0.00043608985,0.0023505676,0.0037327115,-0.00042892792,0.0016566113,0.005551997,0.0022337518,-0.0047023264,-0.0019052641,-0.0014115436,-0.0041265185,0.004264237
TTLL7,-0.0012566332,0.0021664,0.00015029527,0.003016727,0.0047979197,0.0038553653,0.0007509999,-0.0026597513,-0.0040181316,0.0052324855,0.0058254437,0.0020513434,0.012947148,-0.004549436,-0.0028366072,-0.014100047,0.0023968208,-0.0054576453,0.0024629813,0.003194028,-0.0019846677,0.0009828594,-0.00071016565,-0.00033650783,-0.003243741,0.005506887,-0.0074900133,0.002375868,-0.0047163665,0.0043017496,0.0056635877,-0.009780414,-0.0014511112,-0.011256921,0.00096507085,-8.123571e-06,-0.00043523993,0.018389417,0.0067832693,0.0017116818,0.0012683064,0.0046235775,0.014544989,0.00029322313,-0.009022766
DNASE2B,-0.00082029117,-0.0010759372,0.00048526013,0.002024592,-9.29304e-05,0.00017778156,-0.0014683662,0.00027379437,-0.0011702313,0.0011776838,0.00079227326,-0.0003169245,-0.0008303125,-0.00010561863,-0.0006594882,0.0013644375,0.0014019759,0.00059376785,-0.0033086585,-0.00024228777,0.0011461773,0.00044721726,-0.0013063337,0.00016007906,-0.0012160842,-1.7598215e-05,0.00029512306,0.00039208092,-0.0014486169,0.0010592592,5.9559436e-05,0.00038275635,0.0025067227,-0.000383091,0.000807563,0.00033503518,-9.011422e-07,0.0007793435,-0.0020723774,0.00086628896,-0.00026339272,-0.0027521078,-0.00020465585,0.00029212487,-0.00072870613
CLCA1,-0.0010308304,-0.0006117251,0.00015613822,0.0066168783,-0.0018066295,-0.0086285155,0.0048044506,-0.0036693534,-0.0007080716,-0.0057651163,-0.0024635382,0.006324393,-0.0033851187,0.00066613336,0.002377374,-0.0052781063,0.0012573006,-0.0007941022,-0.0010411447,0.0030278976,-0.012223976,0.0032938607,0.0030854803,-0.0017744751,-0.00010773932,-0.0052854186,-0.006086392,0.0005167444,-0.0032467358,0.008877846,0.0020211667,-0.0014265712,0.0010504606,0.0020710446,0.0040251417,0.0012353478,-0.0012624641,-0.0010533441,-0.023484547,0.0014431145,0.0024296762,0.012432729,0.0006940881,-0.0006987142,0.0044569117
LINC01140,0.002368947,0.0018836849,-0.0026396564,-0.003939342,-0.005793426,-0.016662074,0.0029065814,0.0054436466,2.23803e-05,-0.004279302,0.0010043159,-0.00053857674,0.0014949506,6.571833e-05,0.0017747461,0.001502458,0.00021843257,-0.0021557652,-0.00039862836,-0.00015972808,-0.0029360189,0.0012978509,-0.001222458,-0.004094882,-0.0016802436,-0.00077651796,0.005969383,-0.004704126,-0.0011056026,-0.001941231,0.0018829891,0.016166108,-0.0030933272,0.0023401098,-0.0099906,0.025529582,-0.013699067,-0.014124006,-0.013693876,-0.0012139464,0.00019652164,0.0003776181,-0.0044707865,0.0033452522,-0.0105967
LMO4,0.0043676426,0.0026330967,0.0005080027,-0.00040296113,-0.0029953457,-0.02952723,0.0069901324,0.002634999,-0.009433793,-0.008123536,0.008181992,0.0031592161,0.007264454,-0.019328644,0.0029002673,2.9857612e-05,-0.013342129,3.3912966e-05,0.0044889217,0.007973133,0.0063891103,0.0029884668,-0.009056956,0.004141396,-0.012034455,-0.0011551876,0.01600862,-0.0055400664,-0.0014528146,0.007385022,0.0028022786,0.012468354,-0.0019580286,0.0017300973,-0.008820783,0.043364417,-0.014386545,-0.005662093,-0.013826869,-0.0023798298,0.0020520426,0.006319949,0.0073845964,0.012768206,-0.027809134
GBP3,-0.00050072453,0.001172889,0.00014314643,0.0014437584,0.0016447259,-0.0015816065,0.0019034711,-0.00033391803,-0.0034899465,-0.007526038,0.0040406953,0.0015118527,0.002990095,-0.008079008,-0.003583282,-0.0059612044,-0.0046745883,0.006795221,0.02160415,0.013154688,-0.0074961917,-0.024466189,0.021156164,-0.0016805334,0.011182399,0.01075412,-0.012524747,-0.024549002,0.019121554,0.00032527096,0.0032050293,-0.00284365,-0.01445529,0.010234187,0.0037223285,0.0010013164,0.009216903,-0.008849644,0.0010573427,0.01675646,-0.03093015,0.0077042757,0.011616693,-0.0021630886,-0.0036070172
GBP2,-0.0061896383,-0.0019050589,-0.0073057525,0.005786893,-0.0020689424,-0.0023531122,0.0051934775,0.0021911005,-0.013355452,0.016821174,-0.019116575,0.0102268085,-0.0009890503,-0.01165841,0.004280245,-0.00095687713,-0.004165063,0.008317801,-0.0018620358,-0.0045249914,0.0047848374,-0.0046545253,0.0077745793,0.0036355723,-0.012202496,0.0036737812,0.005782417,-0.00062695215,-0.0055619515,-0.0032336041,-0.01550915,-0.0009923326,-0.005108793,0.00794996,-0.0071332045,0.019453507,0.0046955706,-0.018152552,-0.005960774,-0.008851125,-0.0121244155,-0.0009935532,0.010958735,0.012934328,-0.008181059
BTBD8,-0.0027544817,-0.002076121,-0.0022907904,0.0030367754,-0.0017732844,-0.0014908346,-0.0008676653,-0.0048380764,-0.0056996867,0.0018427065,-0.0025668778,0.0017401768,0.0015668144,-0.003013209,0.0003034881,0.004111938,0.006949774,0.0058068763,0.004777003,0.0010396842,-0.003538962,-0.009667699,-0.004673629,-0.0026537403,-0.0035585908,0.0008751648,0.00065967813,-0.002770791,-0.0034810705,-0.0020644323,0.0014880954,0.0051413267,0.0030987372,0.0045187827,0.0011147264,0.003133673,0.005159453,0.012282058,0.00045917052,0.00058087835,0.004371994,-0.0074182805,0.0068139257,0.00072118326,-0.0019710667
KIAA1107,0.0005833475,0.002200049,-0.0011775596,0.0021427951,0.0033566798,0.0013053276,-0.001716184,-0.0022111258,-0.0011800043,0.00020827826,0.00033399725,0.002485172,0.0025599513,-0.0025360005,-0.00232294,-0.0012924877,-0.0008453694,-0.0016258863,-0.00059770694,0.00059894257,0.0024533716,0.0009792452,-0.0035885032,-0.0034364664,-0.0017242645,0.004235626,-0.0037571182,-0.0012179984,0.002846139,0.0021247878,0.00026319345,-0.0030530095,0.00030309134,0.0005752506,0.002326146,0.003472093,0.002637526,-0.0010504859,0.0022272475,0.001326196,0.0009143978,0.003824834,0.0030829543,-0.0036227407,-0.004659215
FRRS1,-0.00088129024,-0.002419727,-0.0025012698,-0.0009582782,0.0020544205,0.0016704974,-0.0021099374,-0.0013272327,-0.000119328295,0.00195361,-0.004686323,-0.003745779,0.008161239,-0.0021838665,-0.002733827,-0.0023588757,-0.0008873747,-0.002073009,-0.002568921,-0.006002356,0.005384368,0.006393875,0.0045552272,-0.0033491561,-0.0005335359,-0.0015069386,0.002280532,0.0014284352,-0.0009869789,0.0029728166,0.005723186,0.0018192717,-0.0075699547,0.00030168926,0.0014391214,0.0014457483,0.003989544,0.0016149346,0.0023192454,-0.0021630041,-0.0009953456,-0.0014016415,0.002493369,-0.0022395588,-0.0013724538
LRRC39,-0.0019032041,0.001558242,0.0005830561,0.0010817572,0.0010983237,0.0013546746,0.00045542596,-0.0014606952,-0.0028365129,0.0047238083,-0.0018226624,-0.0033103228,0.0025151332,0.0023399142,-0.002673572,-0.0031532294,0.004121275,-0.0039036307,0.0018759562,-0.003700858,-0.0035418698,0.0031788528,-5.1625346e-05,0.00013406918,-0.0002501291,-0.0019274865,0.0013987089,0.0044655465,0.0011279281,0.0009504243,-0.0013209799,-0.0046884115,0.0012504561,0.0004788107,0.00219621,-0.00037969707,-0.0034233422,-0.0007165858,0.0015020845,0.0007281683,0.004167895,0.0007723619,0.00053465785,-0.0007748467,-0.0024297752
S1PR1,-0.0028313347,-0.0023830205,-0.00017225297,0.0028054402,-0.00080580235,0.0013768205,-0.00070170657,-0.006922439,-0.0072637815,0.0072704223,0.0048887446,-0.0019747072,0.002368135,-0.015680509,-0.0110080205,-0.011191539,0.0077593927,-0.0062527303,-0.004621444,-0.006314469,-0.006520591,-0.0026702688,0.0020253863,0.0026709537,0.0017654197,0.000680773,0.003702858,0.008080127,-0.0032955327,-0.0013754892,-0.004019209,-0.011987566,-0.0067962166,0.0007626299,-0.0010907075,-0.00049209653,0.011403851,0.010144308,-0.003458249,0.0033930812,-0.0015699746,0.00015093588,0.018759325,0.008019701,-0.0047868537
AMY2B,-0.00047219815,-0.00028707334,-0.00053917535,-0.00034103272,-0.0014915433,0.0010437081,0.0005141549,-0.0003823504,-0.0011542002,0.0013447414,0.00088901166,-0.0014371799,0.00013642428,0.0003735319,-0.0012345848,-0.0030325556,-0.0007847497,-0.0012108419,0.0008248523,-0.00088035007,1.2897234e-05,0.00025309465,0.0011930502,-0.0003736605,-0.0010358825,0.0010861027,-3.9843067e-05,-0.00084958953,0.00091744313,0.0014900303,-0.0010218096,0.00042266038,0.0012748296,-4.15116e-05,-0.0020012422,-0.00080313085,0.0010395161,-0.0019428461,8.369147e-05,-0.0010807308,-2.973556e-05,0.00010479123,0.00284111,0.0025299,-0.0013667366
SCARNA2,-0.00049258786,0.0011515468,-0.0014685228,-0.0055186865,-0.0011633652,-0.0010010027,-0.0018860407,3.772903e-05,-0.002343109,0.012976442,-0.004779529,-0.0010722119,0.0006257221,0.0035019435,0.0021753006,0.005480356,-0.010338358,-0.007998345,-0.0039316704,0.002292671,-0.0011784931,-0.0026430204,-0.00712742,-0.003272081,-0.0028119255,0.008285153,0.0029868917,0.00054791005,0.004132037,-0.0026621178,0.00010926005,0.00052033114,-0.0021645755,0.00018634707,-0.0015611867,-0.00057088054,5.5260356e-05,0.0077564833,-0.002442847,-0.0004608636,-0.0056100274,-0.001767156,-0.004103194,-0.0044629336,-0.0032129239
SARS,0.0005149535,-0.0028849186,0.002326723,0.009808748,0.0044102888,0.00660175,0.008260824,0.004487113,0.005874514,-0.0051485132,0.005369339,0.017659625,0.0061195074,-0.0029128494,0.009027539,0.008142098,0.0040042163,-0.0088886935,-0.0033040913,-0.004726704,-0.006064172,-0.002461126,-0.0029791938,0.0051711095,-0.0037833857,0.0051039215,-0.011781622,0.004430973,-0.0027103869,0.010168086,0.004304227,-0.008175619,0.015414274,0.001352703,0.008226448,-0.012479737,-0.008350331,0.0016055602,0.004835349,0.008043289,-0.0029296104,0.0041030995,-0.00055746327,0.014424503,0.017468352
PSRC1,0.0035516676,-0.0027400625,0.004523507,0.007017196,0.002629224,0.00021174276,-0.0018081785,-0.003148118,0.0062516304,-0.011767942,0.008250341,0.0094945505,-0.0007983971,0.006158443,0.0061698174,0.0029084992,0.0023298727,0.0031834322,0.0040825717,0.0061499276,0.0016847231,0.001354835,-0.004758457,0.00058585743,-0.0060171913,-0.0006419094,-0.0024312628,0.00014888766,-0.0060218303,0.0045600715,0.0015244518,0.004218143,0.0012036645,-0.00164958,0.0036140217,-0.0031745175,0.0051259967,-0.0034562615,-0.0029824434,0.0008805871,-0.00021269967,-0.0048921425,-0.0023047226,-0.0022274335,0.011131392
MYBPHL,-0.0025231633,0.0028248848,0.0014491413,0.0012760015,0.0018398537,0.0034171508,0.0062990463,0.00043697108,-0.0047110324,0.009365401,0.0010852859,0.0043031857,0.013597815,-0.0013989508,0.0035656001,-0.0037032848,-0.00019651068,-0.008174906,0.0011985055,-0.0036104403,-0.006569252,0.006212639,0.0059837117,-0.00093926827,-0.0054280497,0.0018158196,-0.0024321622,-0.0028044246,-4.716834e-05,0.0014162933,0.004024599,-0.003857056,0.009087516,-0.004034973,-0.0010680489,-0.0005694896,0.00032447063,0.008400128,0.0013045268,-0.0010500128,-0.0065226723,0.00789347,0.00046263766,0.000648661,-0.008055346
GSTM2,0.0028292723,0.003173294,-0.001226894,-0.0003723641,0.0017393569,-0.0016905855,-0.0007309329,-0.003548801,-0.00014620586,0.00028606202,0.00094082096,0.000597688,-0.000506465,-0.00504426,0.0037919166,-0.0036239203,-0.0024932234,0.0033513822,-0.0014750678,0.0007417251,0.0027407766,0.00086532714,-0.00209812,-0.0026330268,1.3695487e-05,-0.00106717,-0.0002663327,0.0009823664,-0.0035062078,-0.0028127478,-0.0012936367,-0.006229562,0.0024347089,0.0020247044,0.0023755813,-0.00019477344,0.0029133905,0.003143708,-0.0013062838,-0.0016539914,0.002656208,-0.0023595244,0.0004634254,-0.00060656277,-0.0013169855
GSTM3,-0.0018463797,0.0004657072,-0.0040816646,0.00240863,0.0030959793,-0.0044853417,0.00021501734,-0.0013759885,-0.0027828927,0.004729146,0.0015000192,-0.003793479,0.008021651,-0.0011290449,3.3045828e-05,-0.00897273,4.8899277e-05,-0.003673855,0.0035701485,-0.002588753,0.0039470424,0.0046379142,0.0037570829,-0.0018916132,-0.0050145662,-0.0034673095,0.0016672311,0.00016263234,0.0026391542,0.004059354,0.0031891288,-0.0040503154,-0.003174262,-0.0076198964,0.005325371,0.0011264965,0.004957702,-0.00048571813,-0.0023490107,0.0009537745,0.00886925,0.005728064,0.007327756,-0.0015249822,-0.005331428
EPS8L3,0.0011587319,0.0038020904,-0.00080195925,-0.0012405439,-0.00026489905,-0.0016254638,0.004239151,0.00031875685,-0.0005022899,0.0062187472,-0.0052733906,-0.003372315,-0.0013825337,0.0014815293,-0.0036591229,0.0011590865,0.0012802249,0.00011459003,0.0056335805,0.0012052727,-0.0006890189,0.0039639496,0.00012542125,-0.0051414752,0.001556623,-0.0019440015,0.001243028,0.0010696372,0.004398697,0.005084994,-0.0042038816,0.0077573154,0.0020602501,0.0019910005,-0.0032395995,0.00063757895,-0.0011300863,0.0013366488,-0.005119584,-0.0018810419,-0.0014806654,0.0023922585,-0.0013413043,0.00010109444,-0.0061775
PROK1,0.0003851535,0.002692103,0.0015153285,-0.00071874366,-0.0012174502,-0.001044191,-0.006221276,-0.0067215115,-0.0041989298,0.0015413112,0.0051439633,-0.002859704,-0.0019440384,-0.0020553544,-0.00749452,-0.010587191,-0.0014874091,-0.003591403,0.0003706174,-0.0014970375,0.00040415218,-0.00342518,-0.0044237017,0.0025523286,-0.00035109627,0.004899046,0.00030207625,0.0027949424,0.002615626,0.0010253703,-0.0021712817,1.8828534e-05,-0.0060990807,0.0020352255,-0.0047336835,-0.0015152381,0.00090119755,0.0025329953,0.0022573525,0.0048169694,0.0066563473,-0.0025072717,0.01231174,0.0021194625,-0.0043863202
CD53,-0.0029539398,-0.0025775589,-0.008104296,0.0119226435,-0.00039504963,-0.018676609,0.007020488,-0.0010070299,-0.0066252435,0.0033299485,-0.0064255837,0.015086927,0.003869799,-0.01465523,0.008630361,-0.008472026,-0.0116038425,0.0012124039,-0.008015835,-0.008274455,0.0006884053,-0.0018283882,7.64582e-05,-0.010059709,-0.0039691976,0.0059546446,0.0074555506,0.00057846954,-0.002185782,0.013578924,-0.0063127764,-0.008291278,0.0012549843,-0.000732798,-0.0044767447,0.013397033,-0.0033591448,0.004948539,-0.024546247,-0.0017734083,0.0049327575,0.0125280805,0.008408512,0.009596559,-0.002143874
CHI3L2,-0.0057112197,-0.007472823,0.002583849,-0.0026803662,0.00046046116,0.0041692136,0.0048462925,0.0039242646,-0.0021702584,-0.0037702662,0.0049575944,-0.0005388827,-0.0056289253,0.0064852275,-0.0075746155,-0.00020434087,-0.0093678385,0.0012776261,0.002062192,-0.0058388337,0.0083679985,-0.002308842,0.00014556416,0.006930155,0.00030155486,-0.0063639395,0.0002899542,-0.00037227152,0.0020013382,-0.0048766346,-0.002925731,0.00046798692,0.0020865838,-0.004304425,0.0066067455,-0.0061558974,-0.0045582782,0.00017194707,0.0025685735,0.0031947137,-0.0011038246,0.016919835,0.0035860878,0.008290168,0.014874275
TMIGD3,-0.0018205174,-0.0006846979,-0.0003926973,-0.000900286,-0.002074581,-0.0026776895,0.0009954924,0.0018472152,-0.0018480265,7.481006e-05,-0.0026415589,-0.0042692525,-0.0034240298,-0.0039078677,0.0023037961,0.00012195568,0.00033848584,0.0022705744,0.005166932,-0.00015856806,0.0067409826,0.0022633255,-0.0010937818,-0.002139006,0.0013431318,-0.0025818413,0.0065194215,-0.001091822,0.0004825584,0.0027160705,-0.00011064776,0.0020129834,0.0009938827,0.0022979204,-0.00015620113,0.0057664947,-0.0016190032,0.0002743221,-0.004051926,-0.0040054913,0.0028493726,0.00036044014,-0.0001714634,0.0072807735,-0.0009846783
ADORA3,-0.002902626,-0.0010354143,-0.0016999186,0.00021620869,0.0012512055,-8.491337e-05,-0.002140441,6.8393434e-05,-0.005522023,0.003620505,-0.0072589545,-0.0004379648,-0.0012557008,-0.013549006,-0.0010473466,6.063885e-05,-0.0037936862,0.005692779,0.0053380397,-0.00082773436,0.016553182,0.0002218603,-0.0032903738,0.0031266708,-0.0006808767,0.0029449365,0.0108895,-0.0061738538,-0.0016245326,0.0028079795,-0.0035022348,-0.0024031873,-0.001947729,-0.0015338002,0.0028103548,0.0066910814,0.0010641735,0.0026173359,0.008747438,-0.003548012,0.003973772,-0.000623708,-0.00014252125,0.0024925573,-0.004102071
CAPZA1,0.0013424063,-0.00032856903,0.0040490404,-0.002752068,0.001604943,-0.0030325474,-0.0011966861,0.0023561078,0.000867316,-0.010360496,0.007563881,-0.006928178,0.0041209036,0.001832348,0.0042497567,-2.734117e-05,-0.0015788398,-0.0013968956,0.003143507,-0.001972283,-0.002681978,-0.002879676,-0.002904058,-0.00048554668,0.0011407254,0.006098114,-0.0012423715,0.00024458152,0.0039358865,0.004311888,0.002610754,0.0012619727,0.0019034243,-0.0065750526,0.0008902664,0.005170415,-0.004457786,0.00010958106,-0.0005950857,-0.005156729,-8.7846965e-05,-0.0033318873,-0.0030760411,-0.0019923279,-0.0048402506
RHOC,-0.0056945956,0.0025200157,0.0023613926,0.01843626,0.013281959,-0.00021895397,0.00589489,-0.0034627675,-0.006276431,0.014464543,0.0054866523,0.014813705,0.025062025,-0.0064058327,0.0110829,-0.011886178,0.012679741,-0.0011459177,-2.4156674e-05,0.0011403759,-0.0042297067,0.00051826047,0.0013270329,-0.0021871764,-0.0014270976,0.0035601535,-0.010634277,0.0065318076,-0.00012534186,0.02630502,0.0020051724,-0.0089813275,0.0020101836,-0.0104822805,0.014721803,-0.002296692,0.0029329364,0.01073417,0.0005802007,0.003906355,0.0014356175,0.008320879,0.005953728,0.0022825033,-0.0076412745
LINC01356,-0.0004114267,0.0009751786,-0.00057800085,0.0014143961,0.0009789567,0.001502161,0.00057890784,0.00018625884,-0.001968551,0.0071771187,-0.002962635,0.0058302134,-0.0053110854,0.017630028,0.00031442608,-0.0072115045,-0.0010596599,-0.000111691814,0.0025946738,-0.0031623894,-0.0045849327,0.0043364586,-0.003957866,-0.0044894814,-0.0012940912,-0.00045360991,0.011514237,-0.00992225,-0.0056998422,-0.00036221897,-0.008574732,-0.010959045,-0.0033377681,0.009829874,0.0053028753,0.007386615,-0.0057314467,-0.022287706,-0.0048768176,-0.0084381355,-0.0073644733,-0.002864808,0.014919077,0.0072920145,-0.003722289
HIPK1-AS1,-0.002191047,0.0025777803,-0.004091416,0.000128591,0.0018534865,-0.0041898857,-0.001474078,-0.0017179783,-0.0068224673,0.001743659,-0.0030480665,-0.004228337,0.005236956,-0.0072256876,-0.0029683677,-0.0032823845,-0.003821317,0.002697134,0.010303745,-7.328143e-05,0.0022008978,-0.0049202135,0.0066516297,-0.0050891666,0.0054243477,0.004659137,-0.0029269455,-0.008389459,0.0061510843,0.003572634,-0.004368626,-0.006064935,-0.0074225175,-0.0007923695,0.0007948756,0.0025034267,0.003337268,-0.00012125912,0.002784263,0.0017047946,-0.008705933,0.0025832215,0.0013773288,-0.0045148837,-0.009218729
OLFML3,-0.0019083241,0.00059265585,-0.00062616984,0.0018241814,0.0011360891,-0.0027183942,0.0019320345,-0.001591108,-0.006971894,0.004132494,0.03380751,-0.004031046,0.0054752617,-0.027052993,-0.0015506346,-0.016275456,-0.025720758,0.028882354,-0.021452986,0.010843401,-0.035955098,0.002028363,-0.013015394,-0.03921427,5.0532533e-05,0.0058341264,0.0035814492,-0.0007938869,0.0051655364,0.0067431387,-0.008910157,-0.005602822,0.01015054,0.007392652,0.0062615513,-0.0010626505,-0.004726396,-0.0026778195,0.019874455,-0.006294193,-0.002441693,-0.00015029949,-0.013045268,0.0070157787,0.008694213
CD2,-0.0035919,-0.0018637985,0.0015080929,0.0012629619,0.00060938013,0.00016102966,0.001520187,0.0010357718,-0.0033085048,-0.0006668276,0.00014107954,0.0009537117,-0.00033410417,-0.006446275,-0.0006161912,0.00055717037,-0.0038600164,-0.0050123627,0.00060438557,0.002630435,-0.0026751996,0.0041194996,-0.0008379064,-0.0011700204,0.0003559865,-0.0035424714,0.004191847,-0.001442711,0.003467533,0.0022924682,0.0012308942,-0.003322752,-0.0004901926,-0.0014430392,-0.00036831156,0.010806916,0.0015657468,0.008437379,-0.00083227444,-0.0010357377,-0.0015967354,0.0045342874,0.0002488448,0.00011484113,-0.006552784
CD101,-0.007468178,-0.010373101,-0.00073954085,0.002557089,-0.0015047763,0.010247966,0.001379875,0.0008728461,-0.008191548,0.0049959295,-0.007214465,-0.0018790446,-0.0032064503,-0.029101532,0.001116293,0.008578298,0.008393669,0.0060121636,0.004340445,0.0015577378,0.015554728,-0.0017198958,-0.005086424,0.007221073,-0.00617566,-0.00092592894,0.010108774,-0.00077306584,-0.0029367085,0.0006663734,-0.0027863344,-0.0037446246,0.004759148,0.0038540142,0.003350409,0.016598241,-0.002414279,-0.0014733782,0.0056670783,0.000673012,-0.0019989647,-0.010777637,-0.0022170052,0.007139348,8.954421e-05
SPAG17,0.0012839834,-0.00090630155,0.001243668,-0.00070408126,-0.0009889983,2.311261e-05,-0.0002143888,0.0021391215,0.0012404256,-0.0013542704,-0.0003686718,0.0013577115,0.0010040886,-0.00022733354,0.0018771025,0.00043092205,-0.0035291996,9.278321e-05,0.0010883195,-0.0025213738,-0.000342838,-0.0011228209,0.002295233,0.0029314668,-0.0011103507,-0.0025650167,-0.00011588561,6.713683e-05,-0.0010205338,-0.0021175486,-0.00035638743,0.0007374106,0.0012490212,0.0009985357,-0.0013065003,-0.00017455107,0.00017075543,0.0014932804,0.0040740403,-0.00035566217,-0.0006653086,-0.00029317042,0.0006114726,0.0060841586,0.0011799042
PHGDH,-0.002278999,-0.0045215376,0.0016408364,0.013841287,0.0060316627,0.0031282888,0.013115214,0.002981398,0.0037947942,-0.00490618,0.0035940993,0.01970592,0.0028185206,-0.0055149095,0.011481167,-0.00084333663,-0.0003291398,-0.0048763594,0.000704193,6.416789e-05,-0.001608024,-0.002462432,-0.0031544259,0.0003974082,-0.0074611274,0.0066002603,-0.010336654,0.0029492711,-0.005935757,0.012142496,0.0029620724,-0.008608255,0.018586641,-0.00033806523,0.009005186,-0.010428102,-0.013878747,-0.0030883923,0.0019351061,0.011016116,-0.007016936,0.010933979,-0.0001851145,0.01275391,0.02504577
FCGR1B,-0.004579718,0.0009874413,-0.0056962064,0.0044074417,0.00054690754,-0.0023553837,0.0050680684,-0.0012402232,-0.009038621,0.00029405355,-0.0030441135,0.010286423,0.00097116246,-0.016879495,0.0073756143,-0.0024181511,-0.00095700374,-0.0064027295,-0.0008531804,0.0002449027,0.003517634,-0.001011011,-0.0028666602,0.00015577661,-0.0025819214,-0.0003165642,-0.0030596615,0.002466382,-0.0022129205,0.0044743717,0.0003207048,-0.00822093,0.0014790779,0.0020332956,0.003108582,0.019065972,-0.008652845,0.008530272,0.0050108153,0.0026729335,-0.0006599535,0.0008266022,0.0034822372,-0.00073020434,-0.008333613
PDZK1,-0.0015072348,-0.0017331513,0.00070471794,0.00050281605,0.0014552387,-0.0014559038,-0.0019954443,0.0007105886,-0.002427144,0.0055382387,-0.0049234275,0.010506889,-0.00013619981,0.00011775995,-0.0047447532,-0.00038847246,-0.00011800117,-0.002086293,-0.0023482123,0.0019516713,-0.00088464736,0.007601293,0.0011890779,-0.0012516499,-0.002773671,-0.0029021103,0.00076365005,-0.004976145,-0.0037271236,0.0038654008,-0.0006590901,-0.003138306,0.0055736084,-0.0021386768,0.0036831275,0.0029689271,-0.0012218561,0.00019688724,0.0067622447,-0.0016483533,0.0031473099,0.0016924475,-0.0017318728,0.0010455278,-0.0030198258
CD160,0.00014818681,0.002262049,0.0013382896,-0.0018060249,-0.00050095905,0.00015597514,-0.0012033653,0.0016194903,0.0020920886,0.005790367,0.0023379421,0.011071173,-0.0037411908,-0.005141944,-0.017481158,-0.0028925787,0.0032838385,-0.0051219724,0.0012484436,-0.003715638,0.002777598,-0.001242641,-0.0072972523,-0.0034736446,0.001628302,-0.0021925007,-0.0020755301,-0.0073702154,-0.008548654,0.0040033823,-0.007832089,0.007978191,0.0019443987,0.0011313028,-0.0025951935,-0.0027389799,0.0005226309,0.0039304057,0.004101371,0.013078053,0.0126011465,-0.0013158998,-0.0055108583,-0.010203746,-0.000120562516
ANKRD35,0.0008622499,0.0026729042,0.0006658741,0.0010865679,0.0006622296,0.0012301729,0.0016289857,-0.0017538214,-0.00023172614,0.0020560753,0.00059108343,-0.000676218,0.0010925373,0.00080490514,0.0016422916,0.00020754666,0.0026782153,-0.0018144668,0.0019588254,-0.00030471556,-0.0021582092,0.0015169049,-0.0018760291,0.0018474399,7.70514e-05,0.0026738215,-0.0017965789,0.0015365614,0.00034531727,0.0024605042,-0.002562142,0.0020914145,-0.0023719561,-0.00013814046,-0.0024624318,0.0026799939,0.0012254571,0.00043387647,-0.0003424381,-0.0019238113,-0.0010719298,-0.0021410245,-0.00016251861,-0.0026727107,-0.0021229838
POLR3GL,-0.0004681837,0.0023724712,0.00228837,-0.002905227,0.00328695,-0.0018655582,-0.0075989156,-0.009257248,-0.005482659,-0.001327562,0.010938276,-0.017405707,0.0013923757,-0.009063614,-0.0058385935,-0.014705438,0.0034702837,-0.0023343698,-9.962382e-06,0.00081243244,-0.0019864736,0.0006128971,-0.008638393,0.0005492883,-0.00372419,0.0015106045,0.0023287167,0.0010204865,0.007572178,0.0020455073,2.0115054e-05,-0.0035922758,0.0002801493,0.0038886783,0.0067078643,-0.00040225047,0.0026156865,0.0029301108,-0.0033925446,0.003163434,0.0040588425,-0.008826552,0.008362588,-0.009857905,-0.014072441
TXNIP,-0.008971069,0.0030780176,-0.007781136,0.013298112,0.0035174566,-0.0041727554,0.00347523,-0.0060504912,-0.01796131,0.01795946,-0.001948395,-0.0067621837,0.009177713,-0.024497269,0.0010101189,-0.02927268,-0.0030451783,-0.009922306,0.008376816,-0.0018969118,0.011060146,0.0024098651,-0.0028997355,-0.012599914,-0.0059065674,0.008777708,-0.00434306,0.001966773,0.005792359,0.025111984,-0.0011561222,-0.01178699,0.0010572684,-0.0030270477,-0.00358958,0.0064661335,0.007259854,0.006354986,0.009639311,0.0043677296,0.0071840226,0.012124767,0.023454351,0.008163399,-0.020154908
FMO5,-0.0020245912,-0.0009868876,0.0019942252,0.0033021504,0.0010669966,0.0022018026,-0.00073907146,-0.003132329,-0.001392941,-0.0009092609,0.00085820025,0.0033799047,0.0015178625,-0.0029437884,-0.0025322181,-0.0025116664,0.0017441611,-0.00076346175,0.0008789981,0.0009102999,0.0024031478,-0.0003757452,0.0024180072,0.0028909296,-0.0034235248,-0.0023335533,-0.0020764912,-0.0012581131,0.0007605834,-0.0005565074,8.9282476e-05,0.0026553134,-0.0024911684,0.00020995415,-0.00027495364,0.0020110197,0.004136727,0.0018425026,-0.0004323809,0.003756464,0.0007546464,0.0010816373,0.0018461935,-0.0032102384,-0.0019399335
PPIAL4G,-0.0018225093,-0.0019107482,0.00036125584,0.0012040529,6.5313775e-06,0.0012628143,0.0010123975,-0.0023849262,-0.0022404653,-0.0018260743,0.0022797706,-0.00038928216,-0.00037732278,-0.0015322701,0.0022463566,-0.001424744,-0.0008856946,-0.0046631116,-0.00200874,0.00041563503,-0.0019510404,0.0009785722,-0.0023011856,6.24703e-05,-0.0013079662,-0.0014806703,-0.00727441,0.001985914,0.00016440412,0.0019736143,-0.00074605737,0.004976993,-0.0020488258,0.0010061298,-0.0007127292,0.0073388647,-0.0054920623,-0.0032516464,0.0011172483,0.0026626384,-0.00030611872,-0.00074980065,-0.0014110825,-0.0012151407,-0.0018892331
PDE4DIP,0.0057681915,0.0002196228,0.0001277168,-0.0011934463,0.0017548827,0.0014938657,-0.0043804073,-0.013463155,0.0047363634,-0.008854795,0.0090373615,-0.0012626055,-0.0061219577,-0.0029879427,-0.009746149,-0.011283897,-0.003988806,-0.006809239,-0.013689582,-0.013921408,-0.013815094,-0.0050350344,-0.0007213632,-0.0060116583,0.0009171374,0.0052129216,0.003489273,0.006743585,0.00028924877,0.00044549655,-0.00217464,-0.023452278,0.004243543,-0.0064132204,-0.00220474,-0.02105909,0.0068596047,0.027572498,-0.0054297955,0.010841326,-0.000103297534,-0.0019420624,0.015607637,-0.009370252,0.003134009
FCGR1A,-0.00537011,-0.001327227,-0.002761826,0.0043461225,-0.0014644534,-0.00493285,0.004180791,0.0017794728,-0.0072249477,0.001994971,-0.006527373,0.011923623,-0.0005579194,-0.026223341,0.0068208976,0.0013826238,-0.0009851961,-0.006136303,-0.0069763563,-0.0044367313,0.012273038,0.00861232,-0.0023245658,-0.0020286986,0.0031299335,-0.0054931156,-0.0075692073,-0.00383789,-0.0015126447,0.0052544614,-0.00693006,-0.0012079771,0.0026788109,-0.002673591,-0.0058539268,0.022667866,-0.00251072,0.016790017,0.00810257,-0.004574668,-0.007942969,-0.0058106855,0.0039533093,0.0065475185,-0.006029334
HIST2H2BE,0.0016819945,0.004715744,-0.0021478124,0.0009805837,0.0006748518,-0.0014724758,0.0011078987,-0.004787763,-0.00207368,0.0047687157,-0.0004953617,-0.00047931925,0.005570145,-0.0029192194,0.0042832494,0.0020309857,0.0032916933,-0.00028158427,-0.0011253605,-9.3105606e-05,0.0042455513,-0.0025860989,-0.0024620239,-0.004148574,-0.004872702,0.0050860844,-0.00094819843,-0.00025513867,0.000266793,0.0037892426,-0.0028673771,0.0022600624,-0.0014558646,-0.0020594727,-0.0040603816,0.0027024704,0.00026597537,0.004150505,0.00079959986,-0.0012160466,-0.0037424322,0.00074310944,-0.004065269,-0.011723087,-0.006620681
HIST2H2AC,0.005687507,-0.0067380625,0.016643066,-0.0002435918,0.0029916402,0.0058819074,0.0123360185,0.012900249,0.011552443,-0.012736171,0.0075489716,0.011850705,0.0020258557,0.0036816893,0.005182311,0.009952546,-0.008878582,0.0007253846,-0.00036128558,0.0064447336,-0.0043111206,-0.0003723965,0.003396297,0.031655457,-0.0068477006,-0.003803432,-0.0022685672,-0.0040545613,-0.0044682487,-0.0015242617,0.0035679329,-0.00011666462,0.006842742,-0.00577616,0.0021849538,-0.0022136034,0.00034698815,-0.0059747864,0.009648065,-0.0041562305,-0.0007642834,0.010329394,0.00011901633,0.031646248,0.022743013
MTMR11,-0.0011781079,-0.0025640777,0.0015106185,-7.8491925e-05,0.0010673787,-0.00094134774,0.0040623043,-0.0003039683,0.0011398577,0.022547891,0.0041728118,0.020684494,-0.014773335,0.0032662177,0.0032564856,-0.008263435,-0.007947856,-0.003456253,0.0050145746,-0.011020756,-0.00016461026,-0.0025976067,-0.009657262,0.0072241486,0.011158667,-0.009566451,-0.009977108,0.0043494585,-0.00802833,-0.0014958669,-0.003624696,0.0058399537,-0.01004016,-0.0056986334,-0.0026464802,-0.0025739921,0.006829139,-0.000868609,-0.0065371497,-0.0114831235,-0.00078679284,0.0034427247,-0.0051840064,0.0009103394,0.0021567696
PLEKHO1,0.0021244504,-0.0014990484,-0.0020975498,0.010953477,-0.002783813,-0.011389484,-0.0024199183,-0.0052626748,-0.0003727601,-0.0026927714,0.00013684135,0.014326406,-0.010068928,-0.010941967,0.005925384,-0.003770787,-0.0025330677,0.0015538941,-0.0084483065,-0.0062911217,0.0028781383,-0.00546312,-0.0068867607,-0.0036304316,0.0055108913,0.0071928124,-0.0039325007,3.725575e-05,-0.009236579,0.0094174445,-0.0028406656,-0.017802693,-0.0015485298,-0.007422102,-0.0081456015,0.009250945,-0.00016391139,0.013934408,-0.021732667,0.0074653793,-0.0037920491,-0.009760799,0.0067096115,-0.0035308292,-0.009334451
