gene_symbols,phi_0,phi_1,phi_2,phi_3,phi_4,phi_5,phi_6,phi_7,phi_8,phi_9,phi_10,phi_11,phi_12,phi_13,phi_14,phi_15,phi_16,phi_17,phi_18,phi_19,phi_20,phi_21,phi_22,phi_23,phi_24,phi_25,phi_26,phi_27,phi_28,phi_29,phi_30,phi_31,phi_32,phi_33,phi_34,phi_35,phi_36,phi_37,phi_38,phi_39,phi_40,phi_41,phi_42,phi_43,phi_44
SAMD11,-0.0076480894,0.0021696559,0.006076613,-0.004064829,-0.0023105387,0.0005605446,-0.004025734,-0.0043974956,-0.0101637775,-0.0040753414,-0.004025275,0.015662463,-0.008313299,-0.0011008041,-0.007064235,-0.016257433,0.003572064,0.004637684,0.01686715,-0.023231724,-0.0015526859,0.0026133163,-0.01963903,0.011205183,0.0039398135,-0.0077454336,0.019193126,0.004303431,-0.026568176,-0.0134835625,-0.003514913,-0.015568018,-0.0020564492,0.034018423,0.002764665,0.0024640572,-0.00023045017,-0.017677443,-0.005919922,-0.0077595767,-0.010055276,-0.010739874,0.018569283,0.017782165,-0.007280964
PLEKHN1,0.00015299706,-7.851078e-05,0.00021067169,2.3655106e-05,0.00090940774,0.00029621756,0.0010477911,-0.0009935631,-0.00086627883,0.010922616,0.01248137,0.0017709438,0.012297967,-0.009550937,0.012704835,-0.012123548,-0.006946515,-0.001758997,-0.0022669712,0.0056048594,-0.0029583715,0.006034963,-0.005159335,-0.005013132,1.8135333e-05,0.00028533358,0.000707833,-0.0004184289,-0.0041333083,-0.0032788299,0.00034023917,-0.0037048932,0.0074446127,-0.004105622,-0.0011633307,-0.003750931,-0.0014911699,0.0099873105,0.005686155,0.006788107,-0.009650418,-0.0029058883,0.0021963166,0.0062589967,-0.0029825969
HES4,0.020656973,0.0161863,0.013046983,-0.00912965,0.007862153,-0.018894982,0.00085573416,-0.02268601,0.0355187,0.0032600744,0.00053777714,0.015066316,-0.018358998,-0.0018210439,0.004879908,-0.008771402,0.019362874,0.0022866947,0.006445278,0.0005339715,0.008873528,0.014939631,-0.008862416,0.02177046,-0.025966862,0.022799103,-0.024731118,-0.028965449,-0.003092166,-0.013694979,0.0024452212,0.030584605,0.023860177,0.003700188,0.012242631,-0.00843156,-0.010212378,0.017171014,-0.04312402,-0.009587819,-0.004811087,0.0017521968,0.009351612,-0.03820876,0.030486383
ISG15,-6.520238e-05,0.009598044,0.0017901757,-0.00018875442,-0.0071421056,0.000384482,-0.00031861936,-0.0039237873,-0.0016496552,-0.0051667183,0.004718388,0.008974114,-0.004157143,0.0040670135,-0.0004942589,-0.0027746465,0.009669237,0.0077603613,0.008429096,-0.008570161,-0.005582657,-0.0025710769,-0.0060051885,0.007798586,-0.0070029274,-0.0022642866,0.006090156,-0.0041889898,-0.00050918147,-0.0017538308,-0.004512052,-0.002253753,-0.0021904858,0.0111246975,-0.01311081,0.0017241649,0.0056371135,0.0019668285,0.005483399,0.0030378709,-0.0006079208,-0.00525057,-0.0012136122,-0.008026033,-0.00442838
RNF223,0.00068825507,0.0011747258,-0.0011269276,0.0029945811,-0.00041243143,-0.0017208715,-0.0015685247,-0.004397419,-0.0015181195,-0.0011265139,6.905853e-05,-0.00092095305,-0.0008922508,0.0012887127,-0.0021064633,-0.0013916392,0.0011736875,-0.0011195447,0.00044022087,0.0024747928,0.0007424446,0.00030490794,-0.0006862479,0.0031445716,0.0008628699,-0.0030124744,-0.0012838754,0.00072405173,-0.0046976465,0.00148271,-0.0029692587,-0.0031366302,0.0011114288,0.0045334254,-0.0016972728,-0.00011892778,-0.0011208298,-0.000187016,-0.0023901095,-0.0022372315,-0.0022333895,-0.0036694796,0.0013358688,-0.0024303612,-0.0027392625
TNFRSF18,0.000568568,-0.0009294418,-0.0024626362,0.0008377795,0.00093568914,0.0022803457,-0.00027127643,-0.00069665787,0.0034925798,0.00042949422,0.0062612877,0.006791783,-0.002026049,-0.010797033,0.001315326,-0.0028382535,0.0028287403,0.0044462304,0.00016286969,0.0075750784,-0.012035728,-0.0033581385,0.006916618,0.0060256226,-0.0033213024,-0.0055871624,0.0043819533,0.0037345288,0.0007787723,0.0020392889,0.0017653633,-0.007910775,-0.0035592075,0.0006685743,-0.0026819154,0.0032707562,0.005108873,-0.010128649,-0.01065053,0.0021551899,-0.003319238,-0.006016095,0.002018555,0.003929984,-0.0035656425
TNFRSF4,-0.0018303321,0.0025510506,0.002209016,0.00055491895,0.00013477505,-0.00018998799,-0.0013697995,-0.00090916094,0.00058828644,0.025199713,0.018240249,-0.017991962,-0.02154048,0.010036716,-0.010940063,0.0030213997,0.030541036,-0.002189522,-0.0020809416,-0.010773205,-0.0010095304,-0.003012313,0.004794879,0.005418965,0.001864728,0.0050987224,-0.004601745,0.014052898,-0.012204388,-0.009107339,-0.0012055024,0.0017588121,-0.008915095,0.013548816,0.0013853224,-0.00022582765,0.003206385,-0.006668815,0.005829579,-0.016922455,0.018776972,0.00577664,-0.012490498,-0.002994524,0.0008403238
ANKRD65,-0.003896387,-0.0017775582,-0.0010727784,-0.0049237767,0.0015590467,0.0027732444,-0.004072834,0.0009814514,0.0009796972,-0.0011076218,0.00013145307,0.0037782432,-0.0036988521,0.0016159437,-0.0023283255,-0.004244805,0.005379255,0.0037493482,0.0046214513,-0.00380847,-0.0038146414,0.0019678227,0.0010558588,0.0020611696,0.0025930365,-0.005122805,0.010962999,-0.0011915519,-0.0015669862,0.0025599576,-0.0012114096,-0.012928925,0.004216036,0.006189353,-0.003116082,0.0026923474,-0.0022637367,-0.007926408,-0.0035092067,-0.003739376,0.0013060865,0.003455733,-0.004589009,0.0005075696,-0.0030259946
MMP23B,0.0007164317,-0.0027711287,-0.0028484953,0.00235806,-0.0041214256,-0.0028240364,-0.006034641,-0.0062622805,0.0001407473,0.0017886561,0.0029034533,-0.009845419,0.0029685134,0.00070500036,-0.0038728798,0.0074126157,-0.0006108925,6.0246166e-05,-0.0071857967,0.0113892015,-0.0036445367,0.005315189,0.0056162053,-0.0036744769,0.003593005,-0.002592478,-0.0020977464,-0.008154887,-0.010752913,0.006273032,-0.0014872458,0.003975075,0.0019895616,0.0045774085,-0.00158911,-0.0032411015,-0.0016956155,0.0060968273,-0.009577574,-0.003088739,-0.003489309,-0.005738334,0.006596638,-0.0051829703,-0.005219683
TNFRSF14,-0.0018554007,0.002261545,7.289001e-05,0.0019429148,-0.0051872004,-0.0018685175,-0.005272479,-0.0011954324,-0.0020075068,0.003117378,0.004512465,0.008493653,0.010652707,0.0070039327,-0.004212532,0.0041067796,0.009419898,0.0038523693,0.009779527,0.003252096,0.0043481984,0.00043504074,0.0009238708,0.0032149174,0.0015900992,-0.004171556,0.007483803,-0.005440183,0.001442891,0.0067579015,0.010523029,0.007917763,-0.0016608702,0.008370863,0.00392511,-0.007386582,-0.0035793087,0.0065872474,-0.0023821557,-0.009798139,-0.0038222317,-0.005613151,0.004088261,-0.00051602005,-0.0022078787
TTC34,-0.0011198899,-0.0005522402,0.0009586998,-0.0018247176,-0.0010499557,-0.0022421107,-0.001038287,-0.0006411093,-0.0030684483,0.00081214,-0.0006067682,-0.002297479,0.0011694677,0.001025917,-0.0026020072,0.004096695,0.0026392771,-0.0012552917,-0.0017872312,0.0028041634,-0.0015996633,0.00401966,0.0007197441,0.005399216,0.000872983,-0.004875878,-0.00064835977,-0.0020015682,-0.0020041123,-0.003680058,-0.0023214032,-0.0035877358,-0.0005290989,0.0034344476,0.003649113,-0.004576144,-4.7047473e-05,8.95226e-05,0.00021318947,-0.0006538482,-0.00048719437,-0.0035854082,0.0016654818,0.0028518483,-0.0011682826
SMIM1,0.00048683185,-0.005448107,-0.008329495,0.005852669,0.002092576,-0.0065605775,-0.0072996244,-0.01004909,0.0036791482,0.00084155943,0.00434822,-0.012095763,0.0042752423,-0.00028196987,-0.0035312914,0.012393693,-0.006616126,0.0053468333,-0.0077774297,0.015355282,-0.0011428602,-0.002140214,0.011598084,-0.008601987,0.009041834,-0.0020589873,0.0040233657,-0.0068922965,-0.020789757,0.01798651,-0.003962645,0.011304877,0.002758996,0.0050478405,0.0033434774,-0.010570839,-0.005727168,0.005552991,-0.013938364,-0.008330891,-0.0032632947,-0.009129614,0.009918536,-0.017769543,0.0024510708
CHD5,0.00015906319,-0.0016091149,-0.0010028686,0.00061376224,0.0035704204,0.0008312857,-0.0020173385,-0.0007733524,0.00092556985,0.0011651473,0.0007519214,-0.0023114872,-3.8687984e-05,-0.00013670507,-0.0013532825,0.002242618,-9.122884e-05,0.00028564024,-0.0008275678,0.0012276027,-0.0027746907,0.0006905501,-0.001108904,-0.0017450262,0.0005594856,-0.00033940622,0.0010771108,-0.0046754032,-0.0006467367,0.0013022186,-2.8857727e-05,-0.002159634,0.0023834072,-0.0015080833,-0.0047198613,-0.00024145909,-8.040993e-05,0.00086909963,-0.00023011235,-0.003567019,0.00055856584,0.00077102997,0.0020611507,0.0009658794,-0.001999934
LINC00337,0.0023225597,-0.00026190435,-0.0015952438,0.0024209057,-0.0040629646,8.603935e-05,-0.0021688836,-0.0008580068,0.00047475996,0.00066627515,0.0006835222,0.0007515331,0.003644716,-0.0014689849,-0.0036754103,0.006429983,0.0035136137,0.00026250645,-0.00036455595,-0.00074681407,-0.00012356663,0.0020154642,-0.0037636159,-0.0031264203,-0.003057337,0.0010504939,-0.0019513483,-0.00092624733,0.00062172924,9.3089875e-05,1.0607113e-05,0.0014645224,-0.0020710977,-0.0010984355,-0.0010159134,-0.0015210789,0.0042383973,0.0014502944,-0.0070187757,-0.0039102216,-0.0014661303,-0.0016777483,0.0044570994,0.0016609341,0.0019560507
HES2,-0.0032513735,0.0043049958,0.0030974199,-0.003885078,0.0038809814,0.0031656777,-0.0027112255,0.006414911,0.0011220139,0.0010225103,-3.8309085e-05,-0.000296434,-0.0054970984,-0.00056846073,0.004045703,0.0028709357,0.0032981187,0.0020269472,-0.0010495494,-0.0020578254,0.0065657306,0.0025471698,0.006590006,0.0026328587,-0.0034125207,-0.000796261,0.0016426652,-0.0009235503,0.0010800292,-0.0006584771,0.0004369679,-0.00034636885,0.0018922279,-0.005438588,0.00053957227,0.005476369,0.0014490408,0.006165703,0.006678205,-0.0032725502,-0.00022805801,0.005229269,0.002762002,0.009509359,0.003994584
ESPN,0.0016036365,0.0001850203,-0.0004756576,0.002240939,0.0011364921,-0.0013672253,-0.0025080915,-0.0005982918,0.003251856,0.00061315135,0.0027318907,-0.0044306577,-0.0029573701,0.003809701,0.00052271,0.002398879,0.00252032,-0.001479137,-0.00632499,1.0817536e-05,-0.0029575573,0.0040767994,-0.0017043698,-0.0031132724,0.0025345983,0.0042228093,0.0005501963,-0.007891211,-0.0003688984,0.008471855,-0.0032567782,0.0011059901,0.0024741227,-0.001948403,0.0017185723,-0.0036596353,-0.0020806813,0.0009373299,-0.0051732226,0.0016042736,-0.0010638278,-0.0034164556,0.0031881297,-0.0007421468,-0.00059546356
TNFRSF9,-0.0024303421,0.0065937685,-0.00073315727,0.0015464817,-8.645146e-05,0.00027671744,-0.0051996442,-0.0013138262,-0.0012765293,0.040063165,0.029499315,0.026811033,-0.026827008,-0.030247448,0.0044860286,-0.014427834,0.019671045,-0.00977331,-0.009324084,-0.012852746,0.00818528,0.007951003,0.004218531,0.013658245,0.00047525382,-0.008537873,-0.0017559256,-0.015889628,0.00071342796,0.009850521,-0.0004797378,0.0030680792,0.005831353,9.796766e-05,-0.01377888,0.0014745124,0.020362012,-0.013901271,-0.0029983856,-0.009708231,0.0113807665,-0.017046276,-0.013141779,0.0009781693,-4.5950273e-05
ENO1,-0.0334609,0.013086119,0.017392874,-0.04819824,0.032015618,0.0064409813,0.027876753,0.036796633,-0.0006827955,-0.01236815,-0.018880019,0.03028332,0.0006817547,0.00932778,0.0054549454,-0.009166523,0.01864408,-0.00653445,0.020734403,-0.017848853,0.016317824,0.024110336,-0.022868155,0.0368098,-0.048407543,0.030727109,-0.0031597493,0.025336932,0.034185346,-0.010855713,-0.01891073,-0.003710524,-0.02680334,-0.022422086,-0.00111022,0.008032335,0.028410928,-0.0023025663,0.03036527,0.048940804,0.0037428765,0.08735386,-0.023083938,0.028470354,0.05393196
GPR157,-0.00012747105,0.0022579795,0.0025572754,-0.0003121772,0.00045748745,0.0007157631,-0.0013664742,0.0006655766,1.6983866e-05,-0.004069864,-0.0013026433,0.0011236232,-0.0029107619,-0.00072878343,0.004455157,-0.004640893,-0.00018294253,0.000528721,0.002772209,0.0030518775,0.0046502724,-0.0010198632,-7.457572e-05,0.00089979434,0.00018689013,-0.00046591353,0.0016024713,-0.002132205,0.0033199717,-0.0031529209,-0.0010908862,-0.00031821668,0.00020321977,0.0006124111,-0.001918653,0.0036187582,-0.004823193,-0.0012781,-0.0030635442,-0.0009241847,0.0021462976,0.0017132191,-0.0018130344,-0.0029036219,0.0012023237
H6PD,0.0028730885,0.0009786314,0.00064162584,0.0051273135,0.00076566543,-0.0023677135,-0.0018714309,-0.0020394817,1.3301082e-05,0.00084262446,-0.0013818436,0.0005860451,-0.0023477275,0.002782001,-0.002081861,-0.00343186,-0.00086011784,-0.0012486163,0.0007684611,0.001528085,-0.00521183,0.002911159,-0.00020391702,0.0028261933,0.005864748,-0.003229435,-0.00029199524,-0.0023744656,-0.01285268,-0.0023116511,0.0036676058,-0.0014510342,0.006329079,0.0016472248,0.009684951,-0.00060571195,-0.00422534,-0.0071918652,0.0034248172,-0.0021884101,0.005806019,-0.009357239,-0.001932059,0.010202328,-0.0017304004
PIK3CD-AS1,0.0005752955,-0.00066131,0.001586343,-0.0005162406,-0.00044354502,0.0019887285,-0.0008139399,0.00067799445,0.0028386943,0.0021187933,0.0008664862,0.000994907,0.008135326,-0.00040421277,-0.002622962,0.0020657687,0.0014676424,-8.837609e-05,0.0003602717,-0.0048855403,0.0008779311,0.003484956,-0.0013388457,-0.006972027,-0.0020303654,0.00034096325,-0.0019783308,-0.0018960971,0.001711503,0.0005357629,0.0053454726,-0.0009202432,0.0056581283,0.0008156687,-0.004236626,-0.0026144118,0.0014432621,0.00213793,-0.002318337,-0.004376067,-0.0048465687,0.003429438,0.004364169,0.0049121105,-0.00032625985
PGD,-0.00041194985,0.0023906454,0.0046687834,-0.0022506744,-0.008374888,-0.007829032,0.00072802964,-0.0011256336,-0.0072973655,9.029177e-05,-0.0028823053,-8.5336396e-05,-0.0011564093,0.0044082375,0.0012811502,0.0014786645,0.0016747812,-0.00033224758,-0.004585014,-0.004049338,0.005120608,0.006748739,-0.00099871,0.0014294827,-0.015124065,-0.005261182,-0.012384897,0.0026755342,0.0029676005,-0.012864699,0.046380684,0.004958464,-0.006894071,0.00495383,0.0068712994,-0.007782749,-0.003420942,0.0056850994,-0.007297996,0.00023901624,-0.0005860427,-0.000807603,-0.00047816578,0.0063147936,-0.0062391465
MASP2,0.000120954435,0.001914152,0.0029728273,9.322281e-05,0.0010520155,0.0007788472,0.0014567303,0.0019328885,0.00033539312,-0.0017954545,-0.00080747344,-0.00019996535,-0.00013517826,0.0014976002,0.002234745,-0.0006869928,0.00030371555,-0.00078637776,0.0013902893,-0.00092768704,0.0039822804,-0.0008598636,0.0008387362,0.0015995007,0.000306295,0.0013511364,0.0014072257,0.0003136606,0.00077894,0.0013754416,-0.00052372727,-0.000851662,0.00088180514,-0.00010012414,-4.60514e-05,0.00116526,-0.00022656377,0.0012020357,-0.0027337659,0.0029409619,0.0027882725,0.0024147371,-0.0017240618,0.0034812433,-7.3445786e-05
SRM,0.011886612,-0.011830911,0.008941126,-0.019772332,0.02247928,0.019349366,0.019619167,0.009988049,0.033822484,-0.01074129,-0.0065090465,-0.009720836,0.006151312,0.00031291883,-0.012469692,0.0039760023,-0.005274947,0.00058749417,0.0059553906,0.0026381202,0.0126106655,0.009881346,-0.009529431,0.013092128,-0.04685613,0.03570424,0.0016177882,-0.012438928,0.03015194,-0.0054903924,-0.036067136,0.0064807204,0.001620243,-0.012813078,0.010286243,0.006315878,0.019763738,-0.004190319,0.029936654,0.016637037,-0.00014161455,0.04124354,-0.010212512,0.0043725683,0.03728225
DRAXIN,0.00038250102,-0.0027198559,-0.00071181916,0.00034263934,0.00074657047,-8.6514985e-05,-0.0010928831,2.829614e-05,0.0005067557,-0.001069993,-0.0006722716,-0.0018362298,0.000829754,-0.0001932681,-0.0012742756,0.0014663044,-0.0004916846,-0.00016594639,-0.0002357831,0.00030006235,0.0013188486,0.0005848222,-0.000951884,0.00025068474,0.00017272847,0.0023487445,0.00125899,-0.0014740601,0.0010233859,3.1431926e-05,-0.00088043365,0.0002579043,0.00084954064,0.0020792403,0.00079344196,0.001368431,-0.00027679288,0.0017839313,-0.0029453607,0.00065249327,-0.0005636428,-0.00016887306,0.001057373,-0.0005403894,-0.0014176641
MTHFR,0.0045989617,0.00016590444,-0.00091797486,0.0067898314,-0.0028392784,-0.003133632,-0.0032452422,-0.009598934,-0.00010607745,0.001301838,0.0024449066,-0.0036679732,0.0023059256,-0.0008010407,-0.0002260447,0.0044477745,0.0053683575,0.0017074292,0.004501909,0.008564397,-0.0002701894,-0.002976434,0.006569894,-0.004701327,0.0051055998,0.00081963296,0.0037220586,-0.0024055177,-0.010145017,0.0036619508,0.00428801,0.0057538464,0.0065775746,0.005183447,-0.0015276524,-0.0010911084,-0.0031027668,-0.0007437915,-0.0070916703,-0.0073966915,-0.0040869527,-0.013567272,0.006137165,-0.013667165,-0.004769566
PDPN,0.0005832556,0.0017465154,-0.0011067637,0.0019057489,0.0008355267,0.00065057876,0.0005047827,-0.000862059,-0.0010032229,-0.001071525,0.0006194996,0.0004230337,-0.00022940591,0.0014063313,0.0016128769,-0.0032429718,-0.0010799954,0.001499617,-0.0019221952,-0.002810476,0.0012125522,-0.0031347978,-0.0002577495,0.0012735575,0.0003430559,-0.00022752388,0.0017291426,0.002473408,-0.00018199431,0.0004623547,-0.0020743918,-0.0031093222,0.0016066674,-0.00021558878,-0.0008385789,0.00018617924,-0.0024097012,-0.0020607505,0.002123908,-0.0009994752,0.0047741076,-0.0034121247,-0.0026151321,-0.0027337153,-0.0012212335
CELA2A,-0.0013877825,-0.00025001043,0.00045216634,-0.005289234,0.0028424643,-0.0032536935,-0.0017286753,0.0023134158,0.0007295557,-0.00041353726,-0.0043059927,0.006517214,-0.0064666164,0.001746983,-0.0015033798,-0.006053487,0.001994058,0.00068835466,-0.0059267087,0.0016491658,-0.0011815671,-0.0010176874,0.004460845,-0.0034003058,0.0074897083,-0.0049720732,-0.004676078,0.004201041,-0.010830245,0.0032759593,-0.0027892406,0.0018420472,0.00080641144,0.012361878,0.0005599272,0.0017613345,-0.0055985535,0.001175717,-0.00080549205,0.000918743,-0.0024746465,-0.0037483422,-0.00029607324,-0.0030756218,-0.0007518374
CELA2B,-0.0045962255,0.0021249522,-0.004053431,-0.0022213939,0.006433901,-0.0066384086,-0.0014974074,-0.00020515146,-0.012896968,-0.012279993,-0.0099279005,0.01552667,-0.007623576,0.005673893,0.006845594,-0.024425598,0.0013856348,-0.0049067973,-0.0037865913,-0.00549278,0.0070375726,-0.009702085,-0.0056422413,0.010141418,0.0006253044,0.002321429,-0.0027178505,-0.008309639,0.0051962826,0.008011669,0.0050946623,-0.019830558,0.024582326,0.0056473445,-0.02403073,0.005053882,-0.019356295,-0.006537446,0.023622368,0.010742794,0.015386627,-0.04062521,-0.010933858,-0.0025504227,0.026804887
TMEM82,0.002532602,-0.002453091,0.0023593716,0.0035741602,-0.0007440373,0.0016854337,-0.0016531404,-0.0008656031,0.002041477,-0.0011540736,0.0013112136,-0.00416743,-0.000694932,0.0009071746,0.0021889412,-0.00069658185,-0.00081309467,0.00045725913,0.00043751023,0.00034999294,0.0023083638,0.0011840126,-0.0007500551,0.00035985056,0.0026186635,-0.0010369035,0.0018381218,-0.0056582578,0.00022678549,0.0021709497,-0.0015343755,0.00027568656,0.00092974736,-0.0021025285,-0.00074004236,0.0017467344,-0.0022006705,0.0002864588,-0.002357842,0.0015641213,0.0011494119,-0.00056054996,-0.0012776098,-0.0022985816,-0.002211235
PLA2G2D,-0.0004166784,0.0011660875,-0.0005363976,0.0014023357,0.0015362292,0.0016417478,0.0006738759,-0.0005815447,-0.0019652294,-0.0018186487,0.004265836,0.0013432417,1.0405874e-05,-0.0011607694,0.00107588,0.0018303845,0.0018918396,0.0036913117,-0.007940288,-0.00749166,-0.011835244,-0.012049999,-0.011420177,0.0018494757,0.0028052262,0.0039220527,0.00777389,0.009160737,0.005844471,0.00067923096,0.0010959099,0.0020633698,0.0033889122,0.003210851,0.0031629216,0.0045815287,0.009953577,0.014104018,0.004692958,0.0038643396,0.006809745,-0.004644075,0.005449904,-0.0015740495,-0.0052436213
PLA2G2C,-0.0039234096,0.0005468927,-0.0006350686,-0.002575103,-0.0033159447,-0.001062575,-0.0027370283,0.0037835282,-0.0056646764,-0.0023957607,-0.0019530986,0.0012182923,-0.0035532336,-0.0016738734,0.0025900325,-0.0026750017,-0.0015644741,-0.00032153563,-0.004877779,0.0055388426,-0.0029870474,-0.0048840907,-0.0014623967,0.0037920685,-0.005145775,-0.0010793039,0.0001050855,0.0023647246,0.0033969996,-0.0041744905,0.021085272,0.001817563,-0.0051587843,-0.0049254945,0.0062466613,-0.0016076866,-0.0018148972,0.0059573594,-0.0058089206,-0.003975628,0.0040133977,-0.0028114943,-0.00092170667,-0.0023497385,0.0024103483
HP1BP3,0.0071912687,0.0023541148,0.00087972713,0.0018309178,-0.00057496375,-0.004249582,0.0016449702,-0.013171928,0.003070833,-0.0048671365,-0.004048139,0.0026053153,-0.007188836,0.0023812733,0.0048288656,-0.0034127927,0.0060865525,0.0005690395,0.0029405179,0.0002210784,-0.0033067674,-0.0073848693,0.0007907737,-0.003193886,-0.0047501707,0.014034993,-0.006473117,-0.0006544577,-0.00074549473,-0.0031821185,0.0031432053,0.0051406133,0.0049556294,0.0070236884,0.008432175,-0.007605981,-0.0083431015,-0.0034941803,-0.011075302,-0.0011853625,-0.010233604,-0.006553297,0.013516426,-0.018917335,0.0019381689
CDC42,-0.0064096325,-0.0014069419,-0.00095304684,-0.008795829,-0.0027716095,0.0020245714,0.0028324963,0.004713839,-0.0047440697,-0.0022484462,0.0038436002,0.0036010789,-0.0014156417,-0.0010937847,0.0034889623,-0.005149485,-0.00069542637,0.00094272796,0.0012187244,-0.0006301792,-0.001294989,0.0015457266,-0.0065387124,-0.002183047,-0.007243979,0.0018005212,0.003777476,0.0056278403,0.0013332492,-0.002917299,3.1214182e-05,-0.0051678373,-0.006409927,0.0068268166,-0.0032611098,-0.00087658054,0.00074130984,0.0026863858,0.0014926667,0.009631923,-0.00249057,0.0066674785,0.004013475,0.007875528,0.007600746
ZNF436-AS1,-0.0018157522,-0.0032858779,0.00015319398,0.004346671,-0.0017979955,0.002413142,-0.0036268777,0.0019644725,-0.0059658857,-0.0009543158,0.0063921027,-0.004000092,0.005715771,0.0004833122,-0.0030131498,0.0035485367,-0.0026307902,0.0038905658,0.0035294916,0.0016407013,-0.0036530553,-0.0056098634,0.0028581356,-0.004445674,0.00966008,0.002127911,0.009528475,0.0022907658,-0.01400468,0.00575669,-0.0044973535,-0.008431805,-0.0030441992,0.0023029363,-0.00097498955,-0.004221393,-1.0946854e-05,0.0025804816,0.00094988325,-0.010178413,-6.99423e-05,-0.00914364,0.006662519,0.007932306,-0.005803312
ID3,-0.008862692,0.008205032,0.04478907,0.005663162,-0.013934272,0.01197901,-0.01070264,-0.03124943,-0.035087716,-0.00953945,-0.009923808,0.019360283,-0.016138064,0.007806057,0.0014375808,-0.023878757,0.010569124,0.008113169,0.05555561,-0.071682096,0.012886958,0.025896713,-0.04381178,0.044891827,0.019345252,0.01005965,0.02639065,0.0045596506,-0.029146336,-0.024362857,-0.003995064,-0.04811756,-0.020561624,0.06130943,0.0018288109,0.009264597,0.008751292,-0.045638524,0.0006508289,-0.012783766,-0.05137008,-0.026946131,0.04650009,-0.022806648,-0.04147174
HMGCL,-0.0036990198,0.006951806,-0.00080209674,0.0033893911,-0.0004633935,-0.0029749705,-0.0031665852,-0.0003464011,-0.0074189543,0.0010432523,0.0034412898,0.0070270873,-0.0038343247,0.0019391463,0.004612914,-0.010754819,0.007772153,0.0019175202,-0.00057622016,-0.00018814404,-0.008537311,0.0039845207,-0.0035785378,0.0020512505,0.0028443371,-0.0069155856,0.0047153095,-0.0007517193,-0.012125492,0.0009276891,0.0074991966,-0.0020584706,0.007784061,0.003392867,-0.004031766,-0.0042295293,-0.0032294637,0.0031614176,-0.0030593553,-0.004512071,-0.00038018174,-0.0026847115,0.003919102,0.0010582613,-0.0053322674
FUCA1,-0.005513439,0.0050168564,0.0007327771,0.00061298365,0.0025926358,-0.0026409917,-0.00395558,-0.0036961695,-0.010390991,-0.004759478,0.0009342306,0.002691383,-0.0035953203,0.004065255,0.0077778394,-0.010385085,0.0071260473,0.0025954964,0.0018026149,0.0040916577,-0.0041900584,-3.0352612e-05,-0.0005064929,0.0006827122,0.0033837862,-0.010357523,0.0034730749,-0.0033264987,-0.014660472,-0.0079488205,0.005264069,-0.00035732123,0.0023791005,0.0075440533,0.0069976263,-0.0051080845,-0.0045929137,-0.002876007,-0.0050358577,-0.0024863207,-0.0021516138,-0.0014080503,0.0025466888,-0.0013496886,2.7158463e-05
CNR2,0.0005729521,0.0017827979,-0.002123845,0.000434193,-0.003045622,-0.0026355903,-0.00061540696,0.00037849825,-0.0020535842,0.0004642623,-0.0002736151,3.1342977e-05,-0.004012777,8.709067e-05,0.0009785116,-0.0008358048,0.0018101945,0.0003392987,-0.00013436151,0.0046665305,-0.0023138314,-0.001650746,0.0013136031,0.0016456253,-0.0012125156,-0.0008058255,-0.0013414096,0.00013992358,0.0003570579,-0.0009522788,0.0038448502,-0.00023432095,-0.0015295587,-0.0013003981,-0.0011738798,-0.0022670615,-0.00054592185,0.0018539869,-0.0008923016,-0.0019726942,0.0032815158,-0.0033651562,-0.0020670714,0.00014497142,-0.0002819672
IL22RA1,0.0009588857,0.00090287137,0.003234459,-0.0030172977,-0.0013500866,0.002068805,0.0021219826,-0.0024648437,0.0014609795,-0.0021653033,-0.0005046874,0.0016298507,-0.0010104451,-0.00017861734,0.0010983021,-0.0044772346,-0.0014789858,0.0022391041,0.0003570824,-0.00041523707,0.0046665417,0.0010750171,-0.001924731,0.0030371402,-0.0012805631,0.000768064,8.458584e-05,-0.0019243396,0.0020891037,-0.0029004319,-0.0005941609,-0.000999437,-0.0034643395,-0.00076736073,-0.0012900841,0.0037887448,-0.001169406,-0.0026800174,-0.00033822923,0.0025359266,-0.0032836467,0.004141152,-0.00052641757,-0.0024490175,2.1063874e-05
SYF2,-0.0071398867,0.009720933,0.0017445163,0.0015524346,-0.0031456144,-0.0074618375,0.0015935869,0.006651806,-0.0088110985,0.0042346204,0.0036657257,0.018469501,-0.009451192,-0.0030524768,0.017381245,-0.0037930892,0.0016418293,-0.00014628952,0.007113677,-0.0021226527,-0.000590055,0.005281499,-0.0053499215,0.0020701005,0.0037272528,-0.013671863,0.0032730685,0.00813749,0.005967015,-0.00310689,0.004706334,0.005538927,-0.0029831931,0.0036216895,-0.00787289,-0.0017496382,-0.008872014,0.0044290954,-0.0011960488,0.008032118,0.008667108,0.004901112,-0.004152031,0.011811089,-0.0022988685
RSRP1,-0.0038815232,0.00051834685,-0.003895969,0.0055645774,0.00010071105,-0.00076810655,-0.005313136,-0.0033788383,-0.010756831,0.0051396154,0.0005740356,0.0015820169,-0.0010715539,-0.0049238824,0.004003735,-0.0029498737,0.0026596717,-0.004942009,-0.0071752067,0.0028474259,-0.010477303,-0.0020951529,0.0033682804,-0.0035697876,0.013248156,-0.007784789,0.002642837,0.0024229365,-0.013426974,-0.0007069272,0.007130265,-0.012313086,0.0003895207,-0.0006757929,0.007349281,0.0006600076,-0.0016096456,-0.0046677166,-0.0040261303,-0.006209881,-0.0029634205,-0.014371006,0.009721797,0.0023753797,-0.007887547
MAN1C1,0.0014766863,-0.00056200934,0.0008129573,0.0005115158,-0.0021878707,0.00066280947,0.00013036706,-0.0023172433,0.0009992397,-0.00030094484,0.0012799231,-0.00064417324,-0.0028460883,0.0007708984,-0.0005878957,0.001561851,0.003040738,-0.0024466172,0.001490269,0.00087531895,0.002434486,0.0008696981,-0.0010379183,-0.00047566285,-0.000736085,-0.002000874,0.0010651266,-0.0017176163,0.000113099115,8.118255e-05,-0.00089439284,-0.00021508455,-0.0030933484,0.003215736,-0.0030767142,0.00020059376,0.00047634923,0.00052019913,-0.0033664347,0.0009312823,-0.0019814903,-0.0003413842,0.0025173572,0.0007562278,-0.002329224
PAQR7,0.00021417452,-0.0007872157,0.0022647276,-0.00028302314,-0.0011584887,0.0020313966,-0.00051855016,-2.3091688e-05,-5.857608e-05,-0.00036957194,0.005459688,0.004503294,0.0067248633,0.005016588,-0.004343863,0.0031367315,0.0034098926,0.0027494875,0.008043939,0.0013148069,0.005767752,-0.00403962,-0.0014125773,0.001785814,0.0040051783,0.00330551,0.007329384,-0.0006216151,0.000632511,0.0037196735,-0.00648946,0.0021165567,-0.0038735324,0.004298857,-0.0015555753,-0.001629229,-0.0035228461,0.001225298,0.002925028,-0.0005294968,0.00214745,-0.004606505,-0.0002125886,0.00051462074,-0.003231247
STMN1,0.0038156623,0.0011747763,0.002761004,0.0026924442,0.008152789,0.008736646,0.015228899,0.0133408485,0.004874324,-0.013427308,0.0017670414,0.0033536674,-0.008037881,0.0031638693,0.0067683295,-0.006907231,0.003299249,-0.0039724666,0.008518292,-0.020755,0.001497454,-0.008595836,-0.0141740395,0.0085812695,-0.027780797,0.04031899,0.012573063,0.026037507,0.028009132,0.010230356,-0.015694259,-0.013785591,-0.012260262,-0.028786337,-0.00551827,-0.0028832448,0.006728473,-0.0030572668,0.008025902,0.009535098,-0.0017343676,0.027630467,-0.008950334,0.009766793,0.010968073
EXTL1,0.0020077878,0.0013624993,0.0016663072,0.0023478183,-0.0028565337,6.342001e-05,0.0018854985,-0.0039465292,-0.0023276939,-0.0027076683,0.00063289603,-0.0014297997,-0.0034160614,0.0012902546,0.0044209724,-0.0020520934,0.0014262368,0.0016059992,-0.0014332571,0.00028301682,-0.0022226488,-0.0008914515,-0.0015739878,0.0036095928,0.004227534,-0.0044910517,0.0023950452,-3.526096e-05,0.00036250733,-0.005217184,0.0034857334,-0.0015855276,0.0015058526,0.0006399377,0.0016707196,0.001128494,0.0009942945,-0.0052652173,0.00056994706,0.00046457222,-0.0014452524,-0.0014722884,0.0011974243,-0.0041311537,0.00022655584
TRIM63,-0.001337726,0.0015752814,-0.0016975686,0.0015750371,-0.0028480117,-0.001111098,-0.0010865257,-0.00087298336,-0.0023792281,0.00015338928,0.0041731773,0.0014170104,-0.0022417721,-0.00018586614,-0.0040827887,0.0016196693,-0.005585201,0.0034805418,-7.663548e-05,-0.0018590734,0.004627506,-0.007826354,0.005610121,-0.002925027,-0.0010766373,-0.0004225453,-0.0033153996,0.0054795854,-0.0010870781,0.00029406257,0.00053596066,-0.0098856455,0.004555034,0.0021398917,0.0013389115,-0.0037506865,-0.0033809554,0.006210487,-0.00657625,0.011210761,-0.006014526,0.007822894,0.0002171908,-0.007088147,-0.0053770146
SH3BGRL3,-0.021652732,0.018158412,-0.01177261,-0.011855017,-0.01730634,-0.026628619,-0.0074329134,-0.0127150025,-0.027423192,-0.0043594036,-0.0056539136,0.024219904,-0.0020116386,0.002801695,0.017758148,-0.009241441,0.031298503,0.004104165,-0.00495629,0.004820962,-0.0016039411,-0.010674653,0.007851108,-0.018549848,0.014875963,-0.012518323,-0.025641909,0.008360962,-0.022222463,-0.011903981,0.024515023,-0.0013143745,-0.017877823,0.021959106,-0.020554053,0.0012655495,-0.01222041,0.005729831,-0.035141785,0.0046360265,-0.030599747,-0.010081694,0.019111441,-0.034765966,0.0019266112
CD52,-0.015700666,0.00939858,-0.009634681,-0.0025588109,-0.008058374,-0.014920764,-0.010260553,-0.0011294866,-0.022786245,-0.0055640233,-0.0051078373,0.007085132,-0.010167751,0.006748254,0.015665723,-0.017419124,0.019793028,-0.0015299416,-0.0043167192,0.010044486,-0.002044764,-0.011432233,0.009017579,-0.013429066,0.02131537,-0.015918922,-0.016032476,0.014404408,-0.015588737,-0.009296838,0.030283513,-0.0073774336,-0.0060045742,0.01788217,0.0009741468,0.0003443168,-0.009005485,0.009357774,-0.024602506,-0.0033598552,-0.01918479,-0.012874789,0.008866168,-0.0056391316,-0.006113214
LIN28A,0.0005315235,-0.0004584914,-0.0009513599,0.00019535558,-0.0008868065,0.0012561415,-0.00030612998,0.0002865332,0.0003040138,0.00060502545,3.072534e-05,-0.0007149728,0.0012220753,-0.00034560612,-0.0005475138,0.00021760148,-0.0004598869,-9.4292714e-05,-0.00024186098,0.0003839654,-0.00043948894,-0.0007093216,0.0004984235,9.6307165e-05,-0.0003416817,0.00046899053,0.00031898957,0.0007883273,0.0014957192,0.001058196,-0.0007122615,-0.00052272354,-0.00042140062,-0.00061502715,-0.0007545695,-0.00010389087,0.0011521688,-0.0010150811,0.0016066118,-0.0020437015,0.00021985923,0.0003229015,3.9007886e-05,0.0014371391,0.0006584874
HMGN2,0.010047393,-0.0033732406,-0.0027702379,-0.0016971735,0.006957185,0.012985585,0.011961803,-0.0027691515,0.0110064065,-0.013928188,-0.0056238915,-0.005454763,0.0031755418,0.0026107265,-0.0033742434,-0.0039111865,0.0019183358,0.0019364086,0.0030436167,-0.010970888,0.0042973217,-0.01400043,-0.008114455,-0.0033915022,-0.039044354,0.049501978,0.006202629,0.011654576,0.014820557,0.0062552053,-0.0037112678,-0.0036918302,-0.010538248,-0.01844014,0.008446144,0.001318038,0.011552716,-0.0043353145,0.009306366,0.0013578683,-0.013750666,0.019427521,0.0008046738,-0.016291019,0.018179918
NUDC,-0.010133307,0.00016054853,0.00647939,-0.024103267,0.014712393,0.005296299,0.016778946,0.01578042,0.005529157,-0.0085724555,-0.007388986,0.011664723,0.0005693353,-0.0013239585,0.0024015484,6.0418162e-05,0.009188659,-0.004756408,0.0038596413,-0.0046709087,0.009397529,0.01749553,-0.0092956275,0.0154598355,-0.0291542,0.017437296,-0.0023589954,-0.00090065494,0.011260766,-0.008250762,-0.020124052,0.0069249608,-0.0070919124,-0.007136621,0.0034437387,0.0014923927,0.01709793,0.000794788,0.015822655,0.0291131,0.0064859586,0.045683127,-0.010281796,0.013537367,0.03161871
SYTL1,-0.0066370275,-0.0005400223,0.0018734817,-0.0008819485,-0.0012967314,-0.0031616471,-0.006867241,0.0027292692,-0.0107407,-0.0006288171,0.0003395458,-0.0020838804,-0.001636113,-0.0021008088,0.0010848572,-0.0023004129,0.003886321,0.0012454984,0.0024034858,-0.00293847,0.00095186394,-0.0010609219,-0.0034543693,0.002676087,-0.000822027,-0.004894682,0.0049674646,0.00013920444,0.005009958,-0.012041182,0.02239581,-0.011427305,-0.009361931,0.0040152795,-0.0059698015,-0.0029110357,-0.002668584,0.0021192578,-0.010478017,-0.0053840135,-0.0024808277,-0.004859386,-0.0014206403,-0.0047216946,-0.0007079935
FGR,-0.0014484364,4.2889616e-05,-0.0012776183,0.001951014,7.3535455e-05,-0.0005413485,-0.002980761,0.00032897742,-0.006484095,-0.00043788063,-0.0014142044,-0.0003970707,0.0037276512,0.0014024869,0.0039170133,-0.0053785793,0.00031443554,-0.0013744717,-0.0027889544,-0.0024483637,0.0019608412,-0.0026710005,-0.0012107834,0.0031988511,-0.0031990549,-0.0030055575,-0.00044495167,-0.0006139716,-0.002136139,-0.0014237879,0.021648506,0.0066581536,0.0067796865,-0.006088733,0.010146945,0.0021044214,-0.0021874486,-0.0011646914,0.0010687864,-0.0053759706,0.0039196913,0.00015019806,-0.0012633193,-0.0027061363,-0.00084476086
IFI6,-0.0008129789,0.0036081872,-0.0026061982,0.001778848,-0.004334123,-0.0027323079,0.0010481119,0.00058706774,-0.004122537,-0.0017871229,0.0050161253,0.013424322,0.0027526275,0.010372245,0.0003950247,-0.0027791997,0.0058546783,0.006292641,-0.0054212976,0.0011734432,-0.014787337,-0.0046749087,0.0040554255,0.005244982,0.004410136,-0.0019609942,0.007972099,0.0018948159,-0.0037235585,-0.0035127576,0.009258127,0.010042629,-0.0010966535,0.00855447,0.0010388757,-0.00023368475,0.0037141645,0.0074669165,-0.007699378,-0.0044526123,-0.00081395614,-0.0033540933,0.005448899,0.0035178084,-0.0027337172
THEMIS2,-0.0041343165,-0.0010956881,-0.0032964011,-0.0057275407,-0.0050406763,-0.005260372,-0.0052779703,-0.00053843827,-0.00407008,0.001975933,-0.0051566693,-0.0053041717,0.01351518,0.001515462,-0.0041951127,-0.0018572622,0.0008223865,-0.0042325538,-0.0045850067,-0.0034602205,0.00045928115,0.0011302952,0.0028297144,-0.00017140275,-0.005917936,-0.0049130907,-0.0035063468,-0.0066314195,0.00052475504,-0.0068318453,0.03590928,-0.0012525112,-0.0072304187,-0.004049128,0.00050502364,-0.0028490485,-0.0038577414,0.0022901443,-0.0071653156,-0.0060720295,-0.0009946801,-0.0023522251,-0.00047977056,-0.0011727585,-0.0065201763
PTAFR,-0.008116926,0.0031307898,-0.0036991495,-0.00296076,0.003525924,-0.0058449865,-0.0066690757,0.0047601163,-0.010127654,-0.0010862342,-0.003021897,0.0014517825,0.0027544114,0.006180541,0.00594387,0.00072416285,0.0017920735,-0.0017665434,-0.009709722,0.0069687124,-0.00871625,0.003053403,0.0012795307,-0.006887637,-0.011457241,-0.018495547,-0.007852027,-0.004635107,-0.0046338905,-0.0042688637,0.04828635,0.017159851,0.008422359,-0.014287067,0.025444135,-0.0041915877,-0.002137216,0.007349236,0.004969759,-0.006982332,0.0076925084,-0.0037995412,-0.0008574522,0.004034863,0.0031625675
SESN2,-0.00018945604,0.013519148,0.0057011005,0.0014999106,0.0027414605,-0.006455221,-0.0024615668,-0.0056606275,0.0010059399,0.011712726,-0.0007862518,0.016055245,-0.0086942995,0.0017543504,0.010091988,-0.009115288,0.01307367,0.0040209745,0.003934913,-4.885802e-05,0.00077262335,0.007602124,-0.008513338,0.010916254,-0.0016748068,-0.0077160574,-0.0048287855,0.0015543276,-0.0023530507,0.0051036095,-0.006563567,0.007387186,0.006502042,-0.003526807,0.00044125784,-0.0058718133,-0.005735127,-0.0065744105,-0.011086501,-0.0027028557,-0.0045383144,-0.0026881637,0.0075880866,-0.0045210933,-0.0027860817
OPRD1,-0.0016931308,0.00011501372,0.001833166,-0.00090174616,0.0012567379,-0.0012893685,-0.0024479595,0.00049919577,-0.0024234885,-0.0002485939,-0.001279637,0.00077245076,0.00030634922,-0.00097351935,0.0005119113,0.00041703432,-0.00082004914,-0.00029192903,0.002016803,-4.3016644e-05,0.0007179886,9.1096255e-05,-0.00054808526,0.00283396,-0.0023172093,0.0018011528,-0.00037254603,-0.0016424477,0.0009323495,-0.0023775555,-0.0006661926,-0.00032109595,0.0013741314,0.0030441533,0.00411815,-0.00027124627,-0.0022389698,-0.0029064529,-0.0019161088,-0.0017411642,0.0008415142,-9.989539e-05,0.0020882934,0.0035739767,-0.00075136224
LAPTM5,-0.0080486825,0.009587627,-0.0036410487,-0.009124154,-0.017752519,-0.013456249,0.004661416,-0.0021822518,-0.017785465,-0.0036947771,-0.004323217,0.00840426,0.0056307223,0.0072048646,0.013467561,0.0017714641,0.016946537,0.001693425,-0.007148647,-0.003729682,0.0026116467,-0.0048555695,0.0010031168,-0.004771001,0.003499113,0.0002449131,-0.023484584,0.006052139,0.002471364,-0.019454358,0.035034716,-0.00053245324,-0.02392182,0.0039737164,-0.015696717,-0.005261817,-0.004248087,0.010946978,-0.01784308,0.012124177,-0.006847137,-0.00077467936,0.00060643535,-0.013150078,-0.004853999
FABP3,-0.003563874,0.008107309,0.0012968227,0.000692271,0.003098709,-0.007548204,-0.0017692619,0.002474683,-0.0017336938,0.014696457,0.008065552,0.017002797,0.004770223,-0.0012910804,0.008399789,0.006295871,-0.016780667,-0.0012228109,0.00017946586,-0.0010049534,-0.002356305,0.008373565,-0.0016069954,-0.010770703,0.009347469,0.0036287706,0.0015710357,0.0034195243,-0.0047963923,-0.0013028012,0.0015100609,-0.015443461,0.0010156708,-0.011329155,-0.0028767292,0.009496934,-0.00523702,0.008429481,-0.009272462,-0.0075863083,0.009217534,-0.0053870985,-0.001837586,-0.0031911386,0.0065804035
SPOCD1,0.001840672,0.0012366184,-0.00013602173,0.005247094,-0.0013744516,0.0006315011,-0.001012223,-0.0027325149,0.0014350504,0.0043054116,-0.011390437,0.008517537,0.00026846508,-0.0026566824,-0.011066899,0.01206104,0.00308697,-0.0011864504,-0.0123790065,0.008248122,-0.0050496156,0.01835007,-0.006601631,-0.0039823707,0.001783569,-0.0052218786,0.0006182099,-0.004135104,0.006796423,0.005735731,-0.00034158037,-0.0039403983,-0.004382673,-0.0017412981,0.0052719936,0.008221706,-0.010482126,0.0030318242,0.0026218998,0.006696457,-0.016152743,-0.0042973496,0.011069601,0.0051596067,-0.009218514
LCK,-0.004533762,0.001484198,-0.002004356,-0.0006347181,0.00033136876,-0.0020231295,-0.001141628,0.00280253,-0.007489917,0.0021214574,-0.0073566376,0.008452637,-0.007060444,-0.00732826,-0.0072140167,0.011439968,-0.0145597635,-0.0010474668,-0.009094189,0.002735529,0.0049743666,0.007244252,-0.005282719,0.007067475,-0.00018027624,0.0063472376,0.002494425,-0.0051711244,0.008843928,-0.00070966146,0.001917806,-0.0060117305,-0.0056524286,-0.00093232765,0.0011961496,-0.0024575999,0.010054474,-0.008136646,0.0053020464,-0.007512662,-0.0056998683,0.0016245814,0.0049954215,-0.01418414,-0.003833703
MARCKSL1,0.008792189,-0.010480457,0.008422549,-0.008838822,0.002571507,0.0134320175,0.008600792,0.005917739,0.007840367,-0.0056287386,-0.0075500635,0.0025455153,0.01043371,-0.0040698713,-0.012684566,0.0026974191,-0.015205429,-0.00806593,0.010555475,-0.0122115435,0.0043751965,0.0044719973,-0.015511042,0.013901339,-0.031945765,0.0002805523,-0.0016244365,-0.014753932,0.015989505,-0.035194322,0.030306127,-0.008015746,-0.008879115,-0.0065914383,0.017084705,0.0046448675,0.011953184,-0.0003470411,0.024067279,-0.00030731506,0.008461882,0.0062738913,-0.016617231,0.0324823,0.0083366
BSDC1,0.005192661,0.006288158,0.00013915045,0.01045383,-0.0074562915,-0.010569379,-0.004315275,-0.008348657,-0.00091601734,0.010713852,0.0029385153,0.011882636,-0.0013370822,-0.0029146676,0.0041020312,0.003756762,0.0028387473,-0.0014548866,0.0012165362,-0.0061660088,-0.0068090735,0.0027797911,0.0003378708,0.0025153258,0.016252892,0.0010056787,-0.018125275,0.0056454595,-0.004171498,-0.0010143346,0.0019681633,0.0049991636,0.00071126275,-0.0046406453,-0.009775627,-0.00028818558,-0.011307137,0.0058866623,-0.014248655,-0.0041311705,-0.0011141788,-0.016077222,0.004534938,-0.009664266,-0.01413667
TMEM54,0.0048124515,-0.009653614,0.0025067285,0.014784582,0.008508465,-0.011316552,-0.011093639,0.0071827895,0.013709357,0.0036740436,-0.00075252174,-0.0278277,-0.023591677,-0.0011748027,0.0038369228,-0.012181927,-0.02001945,-0.007687323,-0.0024862934,-0.019298935,0.011292442,-0.00014466018,-0.010848787,0.0029286589,0.018325895,0.03844273,-0.0050738864,-0.007156144,0.020569444,0.037176527,-0.0028709862,-0.011382638,-0.0036445106,0.009836972,0.013011092,-0.017532509,-0.0052216654,0.0031938013,-0.02154962,-0.0072188578,-0.0074435202,-0.014370988,0.0042203353,0.016869811,0.009547598
PSMB2,-0.015564086,0.011969462,0.0061598513,-0.018710602,0.016126202,0.0007951388,0.01582324,0.022982178,-0.0016759599,-0.008055381,-0.003979639,0.022556126,-0.0049187723,0.0054605943,0.0086668115,-0.0040780134,0.014993218,0.0010270864,0.008833293,-0.0074924673,0.0031305293,0.009792563,-0.00932048,0.011216559,-0.023949482,0.014279085,-0.004731984,0.022394247,0.014680463,-0.0025050547,-0.02581518,-0.003917754,-0.013198293,-0.01064272,-0.00718685,0.006213761,0.010028497,0.002096082,0.012949717,0.031434417,0.007608752,0.042741105,-0.014966073,0.020846525,0.02695776
CLSPN,0.0055327998,0.0015567995,0.003646495,-0.008771034,0.00307089,0.004427648,0.008671414,0.002481414,0.015455302,-0.0067296717,-0.0066261953,0.004254633,0.0032570735,-0.0005342968,-0.0023977777,0.0022444886,0.0057024346,-0.0011687328,0.007269667,-0.004517219,0.008886478,0.008888795,-0.004639803,0.007894966,-0.027044995,0.019700589,-0.004258926,-0.0026786446,0.012066352,-0.0044779605,-0.011088056,0.00886043,-0.0027689503,-0.006815845,-0.005122172,0.0010494698,0.0075138197,0.0072583435,0.005020701,0.007870709,0.0022378205,0.022584304,-0.0046564452,-0.010801152,0.019680507
MAP7D1,0.0057878275,0.0024024628,0.00090234523,-0.0038879698,-0.0021783984,0.0013385324,0.0058298423,-0.00406501,0.00326028,0.005374687,-0.000253272,0.0049345368,-0.011114381,-0.0012132889,0.00479006,-0.00046295137,0.0036223559,-0.0013950495,0.0044845045,-0.0020208054,0.004521015,0.004694508,-0.0029817754,0.004056784,-0.012264093,0.008944543,-0.0065821246,0.0014571593,0.00638228,-0.013048114,-0.000629235,0.0047481367,-0.004028978,0.0005598788,-0.0012506101,-0.004291338,0.0053863507,0.0013959429,0.002440864,0.0013679981,-0.006538847,-0.0041804477,0.0036011748,-0.004110308,0.00034106176
CSF3R,-0.009821889,0.0011848062,-0.0005279118,-0.0059667975,-0.020630827,-0.014016713,-0.009956528,0.001827286,-0.020993792,-0.0010034768,-0.0045937947,-0.008405027,0.012241537,0.008820959,0.0034302205,-0.007135704,0.008201911,-0.0018450606,-0.010744054,0.004254779,-0.00023916736,-0.0008406236,0.0016647305,-0.004204026,-0.004406443,-0.031011837,-0.013806504,-0.0053005186,0.001833443,-0.020476267,0.08290275,0.0047595706,-0.009520267,0.0151699325,0.007436591,-0.012379604,-0.009227827,0.017822754,-0.02094716,-0.012627548,-0.011582161,-0.012392111,0.0028288832,-0.002635949,-0.008998664
CDCA8,0.006659645,0.007763465,0.010005027,-0.012860022,0.005206419,-0.012508038,0.008449964,-0.011378997,0.012738466,-0.006791062,-0.0041443347,0.0040309546,-0.006098439,0.008598945,0.0057087783,-0.0066506984,0.0051943636,0.0020500845,0.0035984623,-0.0033592472,0.007983066,0.012067939,-0.0076594898,0.020646023,-0.02361955,0.019814953,-0.021301322,-0.01188886,0.0058172178,-0.011059466,-0.0028112207,0.012547148,0.004371377,-0.00041553928,0.006878183,-0.01546355,-0.007364712,0.0025728662,-0.01649871,0.009293485,-0.011855266,0.013715622,0.003971984,-0.017408717,0.015619037
RHBDL2,0.0010910202,-0.00065889314,-0.0017992872,0.001580117,0.001073165,0.000870347,-0.0008126012,-0.0018833958,0.00038761736,0.0013314268,0.00021890293,-0.0019926971,-0.0007300081,0.0007151068,-0.0012611266,0.004266264,1.1215795e-05,-0.0013681201,-0.0012437393,-0.0006485298,-0.003066697,0.0011680468,-0.003144294,-0.0020950586,-0.0010908453,0.0019332572,0.00015897467,-0.00028997668,-0.001746583,0.0018142406,-0.0019176189,9.692883e-05,-0.00023058179,-0.0020209854,0.0025311839,-0.0031297621,0.002216342,0.000369971,0.0006688814,-0.0008493363,-0.00066760834,-0.002419254,0.0035021084,0.000988656,-0.0006023679
MACF1,0.004740751,0.0017038209,-0.0005743314,0.0014824785,-0.002021957,0.00075699616,0.0013872243,-0.010211799,-0.0031352232,-0.0011534418,-0.005051978,0.0038027575,0.0007823065,0.0038771376,9.2019814e-05,-0.0032589263,0.004425036,-4.0588926e-05,0.0014649293,-0.002919458,-0.0029082855,-0.0033623222,0.0034141722,0.00012815808,-0.0015637189,0.0033343073,0.0021301582,-0.006120081,-0.0088565545,-0.008107282,0.0055383043,-0.011592344,-0.003930143,0.007418498,0.0053735445,0.0027682576,-0.0012676949,-0.007889145,-0.00041778677,-0.00045596866,-0.011984992,-0.012975991,0.008307642,-0.0062627834,-0.008039194
CAP1,-0.0046034474,0.014502326,0.0013511567,-0.003623037,-0.0046237004,-0.0063205785,0.004756644,-0.008102832,-0.013751686,0.0010485024,-0.0028462561,0.020016277,-0.012468248,0.00036516524,0.009633181,-0.0038640588,0.010792286,-0.0020609593,0.005937467,-0.009277828,-0.0063465806,-0.0030471226,-0.0045766095,0.0053362437,-0.0051611946,0.003926519,-0.0091364635,0.0053236214,-0.011197487,-0.01774573,0.009460509,-0.0056581567,-0.007008507,0.0081244325,-0.0019665663,0.0019217592,-0.004908424,-0.009302315,-0.0037125093,0.010217048,-0.010392614,-0.0001537407,0.0048276023,-0.00872178,-0.0026918107
COL9A2,-0.0049356455,0.004153281,-0.0015293864,6.643793e-05,-0.011200475,-0.007968059,-0.0061802496,-0.0010544445,-0.011473248,0.00046706287,-0.00075760926,-0.00091736903,-0.0007250041,0.0058864695,0.0047833594,-0.005573372,0.002287215,-0.00077545823,-0.001204584,0.0016246233,-0.0014740454,7.605741e-06,0.0031978784,-0.008477137,0.00023053843,-0.018991042,-0.009493275,-0.0025974351,-0.0072406693,-0.0066331443,0.037967734,0.008784321,-0.0011444034,0.011066363,0.00327621,-0.0033013339,-0.006861277,0.0027853858,-0.0056416695,-0.0077590775,-0.0013406274,-0.010204582,0.002639773,0.0031125317,-0.0065039564
SMAP2,0.00046346788,0.0007738499,-0.0004689784,-0.0019299885,0.0017858696,-0.0003729873,-0.001627517,-0.0033897867,-0.0020973047,0.00051522965,-0.0031341042,0.0031176666,-0.006135758,0.00057307235,0.00038998952,-0.011821162,0.00722676,-0.0046864334,-0.0019992085,-0.0031382747,-0.005250366,-0.00023681294,0.0001739272,-0.0026331071,-0.0022459382,0.0015216013,-0.0077296984,-0.0027412747,-0.0019075132,-0.0141314315,0.009248244,-0.00417534,-0.0044597187,-0.00073418545,0.012634756,0.0031719573,-0.0021968328,-0.0016571115,0.00541694,-0.0020545316,-0.009602966,-0.003782036,0.0021335345,-0.002444845,0.0015334616
CITED4,-0.00017780758,0.0014231104,-0.0035105038,0.004810731,0.0017846676,-0.0022963304,-0.0029531862,-0.0043724175,-0.0016857185,0.0073662717,0.0026100804,0.010661093,-0.0001685048,-0.012721021,0.0026843627,0.00323562,-0.008830855,0.0004886679,-0.008442687,8.043214e-05,0.0029391171,0.0023571735,-0.0019075982,-0.0004465696,0.003729174,0.0034977065,0.00091384863,0.0016531167,-0.0066833654,0.004405689,-0.0031329994,-0.007271462,0.0006469901,-0.0033028768,0.0011374371,-0.0021788168,-0.0028632001,-0.00242296,0.003442658,-0.0038420954,-0.0022027113,-0.0058181295,0.0031863344,-0.009204751,-0.0055916267
FOXO6,-0.0016953943,-0.0018693265,-0.0013574852,-0.00050793536,0.0022599746,-0.0024809043,-0.00089239376,-0.0020175313,-0.0018730704,0.0016569714,0.0006827405,-0.0046547526,0.004485773,-0.0014999644,-0.0018951738,0.0073124627,-0.005321404,-0.00036584094,-2.8838087e-05,0.00077588484,-0.0044442355,0.002493279,0.0014545011,-0.0026401253,0.005921307,0.00298212,-0.009196511,-0.0002891752,-0.008434499,0.0036069597,-0.003912674,0.00057974336,0.0020360474,-0.0016178084,0.0001408027,0.0027102015,-0.0045618005,0.008291914,-0.00094152347,0.0031084453,-0.0017175102,-0.003732866,0.0016281814,-0.0052272636,-0.0052367654
PPCS,-0.004069006,0.0047641927,-0.000865847,0.00055626367,-0.0039499383,-0.0017204055,-0.00050128164,0.0007329636,-0.0077817375,-0.0013410123,0.0022316282,0.004158765,0.0024473115,0.00017883244,-0.00013121951,0.00092114543,0.0046864143,0.007378235,0.005159676,-0.00014489293,-0.0096772155,-0.00025076157,-0.00520508,-0.0009826623,-0.0015651633,-0.010093611,0.004324218,0.0022926973,-0.010300648,-0.0035132065,0.0053354823,-0.0033025136,-0.004297887,0.011605911,0.0015616814,-0.00016134417,-0.002344172,0.008202109,0.0010550196,0.0028214408,0.0015335787,-0.0041722585,0.0029223638,0.0023778453,-0.0026664115
YBX1,0.020880664,-0.020684943,-0.00024299377,-0.0049525383,0.017395334,0.032588385,0.022570746,0.007017824,0.03328113,-0.011143134,-0.00040233706,-0.020920139,0.013023251,-0.009534475,-0.014932315,0.016156884,-0.020521859,-0.00417047,0.0012401732,-0.017146824,0.007071768,-0.0005002482,-0.014380819,0.01074427,-0.06450861,0.078388974,0.017509867,0.00834659,0.038765386,0.009531947,-0.033369917,-0.019015096,-0.011942682,-0.033972036,0.0072331093,0.013019296,0.02674797,-0.016856292,0.04468162,0.018803274,-0.0008246588,0.035633538,-0.013245095,0.00067646656,0.020216364
CLDN19,-0.0010623108,0.0011994399,-0.004446428,-0.0016416513,0.002696436,-0.0027775182,-0.001550333,-0.00025192712,0.0005763394,0.0012856921,2.759828e-05,5.066479e-07,-0.0005309982,0.0009723475,-0.0006358093,0.0004279871,0.004857405,-0.0013465458,-0.00027800017,-0.0014470852,-0.00051239063,-0.00048008858,0.0022438248,-0.0044268263,-0.0029424727,0.0009003722,-0.0027658506,0.00012233295,0.0008538605,0.0014613159,-0.0006853805,-0.0009776452,0.00460848,0.0002630058,0.0033831857,-0.0028086705,0.0017381185,-0.0003746276,0.00082239154,-0.002635657,-0.0008796883,-0.0031681894,0.0007656933,-0.0022975942,0.0026032086
SLC2A1,-0.002250517,0.0021786345,-0.0033110455,-0.0073129716,0.011496184,-0.012026227,0.0006933729,-0.0066614933,0.0073750378,-0.008712385,-0.009165753,0.006539993,0.0020762694,-0.0033491673,-0.00018425948,-0.0015298082,0.008132585,0.0009554885,-0.0019678513,-0.00062156655,0.0061556627,3.271446e-05,0.0017303168,-0.005338842,-0.005446004,0.013451853,-0.020711374,-0.00093124533,-0.0040034275,0.0115018,-0.010565045,0.009122172,0.011589003,-0.0031118044,0.0060641565,0.0053448286,-0.007314166,0.004655856,-0.009233524,0.0053830785,-0.007878531,0.0013712519,0.0002953789,-0.025259431,0.023279924
SLC2A1-AS1,-0.0050772913,0.0015738602,-0.0044833063,0.004521719,0.00410178,-0.006655701,-0.007914766,-0.0080341,-0.004788992,-0.00032827846,-0.0015041749,-0.0045622177,0.0011496024,0.002585423,-0.001448816,-0.004000764,0.0018685985,-0.0014657989,-0.00738179,0.0035642919,-0.0020902536,-0.004645005,0.008394764,-0.0113577405,0.020142244,-0.00043117214,-0.008068757,0.000359656,-0.017871432,0.012370743,-0.008655326,-0.0014418856,0.0023076113,-0.00029803245,0.00038040587,0.004667863,-0.0068680844,-0.0036476578,-0.010076627,-0.0022491824,-0.0015295934,-0.008768699,0.009469557,-0.01652888,-0.007390295
FAM183A,-0.0021995227,-0.0005258736,-0.0010261327,-0.001044744,4.2844047e-05,-0.0021623652,-0.0008186599,-0.0014248131,-0.0025723288,-0.0027805688,-0.0029561261,0.0030152616,0.0015001366,-0.0034639433,0.00050802797,-0.004600321,0.00021411039,-0.0013363888,0.0020457932,-0.0025611946,-0.0010025317,-0.0033976738,-0.0002307856,0.0024196862,-0.00087873713,-0.0014766646,0.0019635977,0.0015479991,-0.009791497,-0.0028798908,-0.0024915542,0.0019777475,0.0011677297,0.0032944758,0.0038647968,-5.9839054e-05,-0.002299343,-0.0056527657,-0.0011565128,-0.001974404,-7.598311e-05,-0.00052864605,0.0031669962,0.0058787786,0.003186963
EBNA1BP2,-0.007738605,0.0006884733,0.0059363884,-0.023205202,0.01478819,0.010673114,0.017078003,0.020444123,0.011682404,-0.0054498343,-0.008061411,0.006680331,0.008818442,0.003679621,0.00014734248,-4.331581e-05,0.005146524,-0.0021709579,0.0015032133,-0.0014949226,0.008195641,0.012381228,-0.010178791,0.0142334895,-0.028611567,0.012800158,-0.004249438,-0.0011243636,0.01737081,-0.0049444255,-0.021382546,0.0046667247,-0.0064631063,-0.01090721,0.0006312659,0.008060046,0.02199489,-0.0010182363,0.026077367,0.025078915,0.010426946,0.048734188,-0.01719114,0.021794487,0.02825047
TMEM125,-8.0277474e-05,0.0014415205,0.003310757,-2.2347996e-05,0.00025387682,6.463953e-05,-0.0005642337,0.00023011414,0.0011287227,0.00051599246,3.0512176e-05,0.00044087952,-0.00071417337,0.001360728,0.00010508622,0.0021466068,0.0024442205,0.0005695683,0.0006337392,-0.0017522718,-0.0009860146,0.0047173654,-0.0028114964,0.0052056983,-0.0013988,-0.0027277844,0.00056452584,-0.0016414704,-0.000442682,0.00036697782,-0.00036639193,0.0005643763,0.0021184585,0.00066151115,0.0011840903,-0.001000784,0.0004175778,0.00086263515,-0.00024183931,-0.00075624447,-0.0010626639,0.0018272415,-0.000561266,-0.0012157595,0.0010747837
CDC20,-0.006670004,0.0075544626,0.0033794423,-0.0121303545,0.009244723,-0.0038013111,0.012026792,0.0074175945,-0.0025571387,-0.004878514,-0.00095421594,0.007997945,0.00013468708,0.0071901814,0.00843506,-0.0025911478,0.012068068,-0.0006318776,-0.00033923954,-0.006495749,0.0028968381,0.0037843375,-0.0041542063,0.012568846,-0.013762168,0.01620342,-0.00452465,0.007251966,0.009408964,-0.0024504915,-0.0054279543,0.00611493,-0.008722342,-0.007371306,0.00517938,-0.003841489,0.004127977,0.006954725,0.0013670432,0.019569356,0.004206839,0.02294446,-0.0064603915,0.008577331,0.010255733
ATP6V0B,-0.01637313,0.0138566485,0.004059063,-0.017473964,0.0032889089,-0.004881163,0.008579035,0.008680618,-0.011703084,-0.0021588022,-0.0013876973,0.019536093,-0.006182761,0.009740465,0.009925322,-0.008010099,0.02078682,0.001302476,0.012502503,-0.007289142,-0.003061102,0.009910869,-0.014465615,0.013840254,-0.015655812,-0.007150667,-0.0048579616,0.010291196,-0.002394719,-0.018829834,0.00038959173,-0.0059970776,-0.016533615,0.007809743,-0.0059672776,-0.0019154692,0.004216024,-0.0019254168,0.0026230868,0.016757568,-0.002165999,0.024952026,0.0051523894,0.013913538,0.0061332243
KLF17,-0.0005426307,-5.457976e-05,0.0023086504,-0.0018063156,-0.0025218236,0.00050727447,0.0018197498,0.0021350558,-0.0022510223,0.00011388163,7.140765e-05,0.0007184381,0.00027827985,-0.0025893734,0.0003386375,6.358879e-06,0.0007603324,0.0007095869,-0.0015952977,-0.00018143143,-0.0010462092,-0.0018569003,0.0021453698,-0.0024151132,0.0013016105,0.00044509812,0.00024297662,0.002985035,-0.0028751448,0.0012906817,0.0009837634,-0.0009111635,-0.0027934501,0.0043251067,-0.0011577263,0.0018438128,0.00020649594,0.0033854754,-0.0022163193,0.0040647406,-0.0017103079,0.0018537198,-0.0009040448,-0.00025273845,0.00043300883
KIF2C,0.009864963,0.007125427,0.006191503,-0.004469623,0.0037517615,-0.008597123,0.0112580955,-0.008484091,0.011829339,-0.0064447196,-0.0049434975,0.006131495,-0.005769263,0.0085313255,0.0046838615,-0.005440446,0.011945062,-0.00014303261,0.0029866153,-0.00937842,0.003635609,0.006600142,-0.006549907,0.015319254,-0.019354453,0.021593098,-0.0153658,-0.0013636202,0.008408691,-0.0040151984,-0.003818156,0.007605676,-0.00093946373,-0.0011231798,0.0022063626,-0.011729488,-0.008055625,0.009497996,-0.017188193,0.009410331,-0.00856327,0.010444474,0.007711192,-0.018492872,0.0126271695
BTBD19,0.0006392151,0.0011360926,0.0007832592,0.002527303,-0.0005719247,-0.0022328857,-0.0020842124,-0.003009692,-0.0012068428,0.0023658045,0.00043763584,0.003654066,0.0010499625,-0.0012475135,-0.0031323952,-0.0043732002,0.0002061072,-0.0021553426,0.0061789094,-0.0029313192,0.00097029645,-0.0016207002,-0.005349496,0.0014117688,0.004343864,-0.002534467,-0.0045736586,-0.0020323158,-0.011569134,-0.004417873,0.0003024255,0.0012581183,0.0028130435,0.0017942527,0.0009309201,-0.001704291,0.0028991017,0.0021013818,0.00094257743,-0.0029564453,0.00014719374,0.00097315747,0.0041189967,0.0063980725,0.0035631019
PRDX1,-0.016102059,0.010701819,0.009221555,-0.017132988,0.009821635,0.006902338,0.01882179,0.028012328,-0.0022772537,-0.007342997,-0.0025993295,0.024696516,-0.0026983886,0.004126741,0.003932552,-0.0007383786,0.009791367,-0.00016532275,0.019043751,-0.010168706,0.0041644764,0.01195714,-0.013943091,0.023788935,-0.01516938,0.0057824957,0.003925715,0.024077514,0.021289637,-0.005632771,-0.03596719,-0.013283631,-0.01942851,-0.008735231,-0.016212838,0.0065346733,0.017533025,-0.0039509465,0.027789095,0.03910925,0.013416702,0.046623178,-0.024973324,0.039696082,0.017098367
TSPAN1,-0.0030914245,-0.00071275595,-0.00032170658,-0.001348286,0.00286328,-0.0010326002,-0.002762689,0.0013063594,-0.0022315092,-0.0014419317,-0.0010195996,0.0013498282,-0.009809702,0.0012473767,0.002677796,-0.0068739345,6.477717e-05,-0.0017550535,0.0019996997,0.0026101014,0.0009938385,-0.0034449245,0.0025377802,0.0012610585,-0.00029563703,-0.0018784289,0.0027568003,0.0005833621,0.00012848417,-0.0016837822,-0.00070775027,-0.0037156313,-0.0022499687,0.0036020884,-0.0010507652,0.0038638588,-0.003946123,-0.0031684,0.0034869458,0.00034975767,-3.302689e-05,-0.0029224434,-0.004043068,-0.0039361715,-0.0027324946
MKNK1-AS1,-0.0011559176,0.00055945024,0.00028076468,-0.0008136119,0.000573249,-0.00014240731,0.0006183979,0.0028202275,-0.0038220172,-0.0039777337,-0.0010560036,0.002988951,-0.00029755195,0.0012441396,0.0016925524,-0.0086805755,0.00015016766,0.00092602114,-0.0055708676,-0.00024798702,0.0035959336,-0.0049423683,0.0025583922,0.0023561253,0.0010093097,0.0023658532,0.0006921449,0.0034303751,-0.0028361483,-0.001873067,0.0011871778,-0.0012414892,0.0032974882,0.0044201487,-0.00056574825,0.001257346,-0.0059399614,0.0023517495,-0.0015707768,0.0025188578,0.0059421463,-0.0027752442,-0.009520566,-0.0023126248,0.0015512616
LINC00853,-0.003115389,-0.0010883232,-0.0014759658,0.0008003562,-0.0030304152,-0.0035567647,-0.0042876564,-0.0023934266,-0.0042732814,-0.0008559782,0.00081771467,-0.0025181768,-0.003814155,-0.0015109143,0.002524218,-0.005641613,0.0014267376,-0.00056402996,0.0015892439,0.00019145627,9.6596516e-05,-0.0037110427,0.0039537097,9.661915e-05,0.0031242329,-0.0032178971,0.0047285473,-0.0009858098,-0.0040743444,0.0019524718,0.0031119124,-0.0016490031,0.00040143132,0.0033607509,-0.0019728662,0.0016034151,-0.0070586,0.0006814862,-0.005797043,-0.001224907,-0.004438414,-0.0058317226,-0.004509267,-0.011973926,-0.005831121
PDZK1IP1,-0.0011083124,-0.0003845462,-0.0027431129,0.0010407092,-0.0016792224,0.00026532417,-0.00614571,-0.0012375828,-0.00067341066,0.0052852454,0.0064735347,0.0026846135,-0.012246774,-0.004546418,0.0062338654,-0.0013747005,0.0037164846,-0.004758481,-0.0007376858,-0.00053261255,-0.0007746691,-0.0015027915,0.003426701,0.0007163034,0.004840245,-0.0050413595,0.003776895,-0.007697564,-0.005613868,0.0062590996,-0.0022583515,0.0070384713,0.003644583,-0.004654265,-0.0063140998,-0.0035785548,0.00017645015,-0.00562021,-0.0061546955,-0.0028851088,0.008791357,-0.0008654358,-0.00037819502,0.005237909,-0.0012299293
CDKN2C,0.0039232397,0.0008469684,-0.00012194669,0.0048527173,-0.0030515282,-0.0031573707,-0.0021902563,-0.009986007,-0.0011343127,-0.0032453528,0.0012626488,-0.0015186754,-0.00802917,0.00059567136,0.003900636,-0.00632225,0.0032008183,0.0011707692,0.0031002746,-0.0010597435,0.00046196446,-0.004951229,-0.0006507274,0.0046805223,-0.005586828,0.0059297085,0.0026563585,0.00046729858,-0.00454102,-0.0019701684,0.00034060352,0.00016731171,-0.002284462,0.0053912913,0.00700566,-0.0061617014,-0.0033346375,0.0028469712,-0.014125466,-0.0061547253,-0.01869529,-0.0017268875,0.010648235,-0.022329994,-0.001267364
TTC39A-AS1,0.00046431768,0.0042483094,-0.0024159646,0.004003227,-0.00021623293,-0.0001294255,-0.0016041895,0.00023300882,-0.0007588747,-0.002251583,-0.0049592042,0.013403147,-0.0129239205,0.010882629,-0.0013192499,-0.0030824493,0.003543547,0.008781843,-0.015229656,0.005336474,-0.011364118,0.00962116,0.0012193542,0.008434735,0.0037756206,0.0037442544,0.008406363,-0.00023790143,-0.004202002,0.0020227437,0.0010939579,-0.0075059435,0.0038078146,-0.0068823486,0.004026496,0.00015582742,-0.0041420986,-0.0021656065,-0.002568682,0.00016377527,0.0036803582,0.0049903425,-0.0030468716,-0.0029631972,-0.003591416
RAB3B,0.0008525739,0.0020192047,0.001546515,0.002112867,-0.005565979,0.00057610724,0.0005196028,-0.0033812462,-0.0035691475,-0.000860791,-0.0013153931,0.0020210585,-0.002979889,-0.00046505433,-0.0015507697,-0.0057659396,0.00031445787,0.0012364037,0.006608872,-0.0036753074,0.0020818985,-0.0010512858,0.0014763627,0.0016524317,-0.0010443428,-0.00023754739,0.0037328938,0.0031861425,-0.0030241502,-0.0049225343,0.00042623415,-0.0055174106,-0.0016194341,0.011540328,-0.0018925729,0.0033565431,0.0010907665,-0.0033691043,0.0008593406,-0.00047086977,-0.0030339696,-0.005491173,-0.0019005919,-0.003076612,-0.0029553408
GPX7,-0.0011752461,0.00060464814,-0.0011801171,0.0015828381,-0.0023440877,-0.00097404857,-0.0020166468,1.5297224e-05,-0.0024125685,0.00088654365,-0.00013865004,0.0027514193,-0.0064865504,-0.00088079367,0.002604686,-0.0028722612,0.0025153758,0.00013355401,9.1962735e-05,0.0016378969,-6.4950065e-05,-0.0034961856,0.0019064137,-0.0006489319,-0.00087024935,-0.0039179362,0.002960799,0.0028408824,-0.0021758124,0.0013338733,-0.001308939,0.0010450347,5.531715e-05,0.002375229,0.00011908049,-0.00084995735,-5.215892e-05,-0.001866659,-0.00082006323,-0.0020066646,0.00062080077,-9.173824e-05,0.0022444443,0.00041288204,0.00083338236
SLC1A7,0.0008699409,-9.71301e-05,-8.4828425e-05,0.0025387036,5.9392296e-05,0.0013605462,-0.0016240857,-0.002293664,-0.0009041326,0.0020121254,-0.00028997243,-0.0014391434,0.0010843275,0.0014522475,-0.0029013236,0.0026779561,0.0024661315,-0.00061688776,-0.0016039958,-0.002383819,0.0009166895,0.0032713502,-5.070399e-05,0.0028560832,-0.00027916918,-0.0012335746,0.0006641418,0.00055025215,-0.0020450293,-0.0008356359,0.0017801583,-0.0001662329,-0.0022169307,0.0020576257,0.0008559892,-0.0005118044,0.0026329805,-0.0016206872,-0.0012311148,-0.0003492842,-0.005052861,-0.0033728916,0.00041278222,0.0021789053,-0.00081624446
TACSTD2,-0.0015054268,-0.00082197844,0.0009046842,-0.0032021673,-0.0020630711,-0.0008159744,0.0009824965,0.00053189584,-0.001764914,0.024949173,0.013538071,0.0074059153,-0.022084495,-0.03862325,0.012654636,0.014538185,-0.019014878,-0.013109462,-0.006157433,0.009882296,0.010970271,-0.008476641,0.0025915913,0.002734809,-0.00681069,-0.0034507613,0.0068320837,-0.0006669934,-0.0014383734,-0.0007199627,-0.0002971545,0.0054587806,-0.008917417,-0.013263062,9.589143e-05,-0.00018243483,0.005748957,-0.007922935,0.008168092,-0.0070817443,0.010110104,-0.004903241,0.0045645926,-0.007689458,0.0013510484
JUN,-0.0077550015,0.034259044,-0.0020295163,0.014117204,0.0063571804,-0.0039838,0.004508969,0.0078078234,-0.015957976,0.022144765,0.0155203575,0.04147576,-0.032893892,0.014525186,0.059247226,-0.010930602,0.023693848,-0.004109697,0.004146507,-0.005769109,-0.0041110986,0.014173326,-0.009709918,0.008315494,0.012894605,-0.0106199365,0.013955337,0.036385927,0.0035876355,0.019977083,-0.009803482,-0.0049011516,-0.004002571,-0.024337877,0.0029316877,-0.019795587,-0.011713026,0.009589298,-0.0040451773,0.03256758,0.009497671,-0.0075952476,-0.0077435956,0.016344119,-0.026180038
LINC01358,-0.0011487034,0.0027053182,0.0012418849,0.0017272391,-0.0036700626,-0.004250749,0.0013828583,0.0014964775,-0.005316967,0.005056144,-0.000892667,0.005108189,-0.00088407245,-0.009820908,-0.0044388194,0.006833599,-0.011589125,-0.0009165434,-0.007312444,0.0016282263,0.005263408,0.008296843,-0.0040010447,0.00690065,0.0023199283,-0.00070762145,0.0037908624,-0.0025803007,0.0009386991,-0.001388695,0.00085495913,-0.0015509687,-0.00028590293,0.0006074078,-0.0025125707,-0.003915013,0.00040660115,-0.0009259103,0.00046215716,-0.0022744052,-0.0006765711,-0.0010529284,0.0019581758,-0.009519381,-0.0017321851
LEPROT,0.0023961898,-0.0040942044,-0.0036267946,0.0047387863,0.005329784,0.0016838441,-0.0059443642,-0.0063310047,0.0021022335,0.0006206312,0.0012166742,-0.011348983,-0.002880655,-0.0017444999,0.0016710295,-0.004692551,-0.004926608,-0.0011282436,-0.0021099092,0.0046793916,-0.0025197677,-0.0012473484,0.004490066,-0.008344983,0.0037574118,0.00080785813,0.008616978,-0.004285287,-0.014203089,0.007985955,-0.0036797037,0.0077189743,0.011523025,0.0049756854,0.0070950887,-0.0029297776,-0.003436512,0.0018748885,-0.00202627,-0.008456276,-0.002226683,-0.009999798,0.0054416377,-0.008468165,0.0014607435
SGIP1,0.0024607026,0.0019400145,0.0005510635,0.00630775,0.0009217958,-0.0051918393,-0.00012850914,0.00045567856,0.00011353217,-0.0024011857,-0.0004942382,-0.0022849953,-0.004848952,0.0019474137,0.002870683,-0.008682052,0.0005450272,-0.0016139863,0.005757328,-0.0044269767,0.0011401125,-0.004180847,0.002962639,0.0010434021,0.0061461283,0.0041897427,-0.010224006,-0.0040720627,0.0023926864,0.003187866,0.0006688165,-0.0026108876,0.0048195147,0.0031248971,-0.0028054279,0.0057284143,0.0028696824,-0.0009822266,5.917789e-05,0.0007700914,0.0040717893,-0.0031431632,-0.006991293,-0.0057716775,-0.001481771
C1orf141,0.0009824813,-0.0003497786,-0.0020027626,0.0028643934,-0.0003464419,-0.00046989627,-0.0019970422,-0.0035223933,0.0011719737,0.00077112595,0.0005491477,-0.00094611925,-0.002839931,0.00060584384,-0.001787186,0.0013157842,0.000479467,-0.00020902704,2.8122236e-05,0.0015375557,7.178823e-05,0.0004911621,0.0029358102,-0.00036913282,0.00015572032,-0.00080567726,0.0031157779,0.000668107,-0.0032698417,0.0017377214,-0.0021189766,0.0012059541,0.0043815826,0.0037621893,-0.0010301012,-0.00031543337,-0.0007480041,0.00047765882,-0.0005267433,-0.0016384226,-0.00062703085,-0.002422821,0.002890749,-0.0038557881,-0.0008190599
GADD45A,-0.0030134516,0.00502178,-0.0040543,-0.0024629089,0.01334798,-0.0034563874,0.0030420718,-1.1775174e-05,0.0038585395,-0.0015947346,-0.0027259986,0.008019567,-0.0054841423,-0.00021485465,0.011734182,0.0013101524,0.014030139,-0.0043762997,0.00038770566,0.012564813,-0.0033980904,-0.0037599055,0.0040558367,-0.0014695295,-0.0027234931,0.0076865107,-0.00421851,0.0048708436,-0.0063764206,0.011967352,-0.017037002,0.01173276,0.011702897,-0.018063258,0.004660511,-0.0027381855,-0.00699473,0.0016810296,-8.503267e-05,0.01298586,-0.0012554592,0.01216456,0.00020884062,-0.015716653,0.0137764085
FPGT-TNNI3K,-0.0010111266,0.00058834517,-0.0018701022,0.00026125868,0.0012911402,-0.000569565,-0.00014278058,-0.0013308171,-0.0019744239,-0.0012450711,-0.0010161435,-0.0006693787,-0.0090436535,0.00011900651,0.00077301415,-0.0013174363,-0.0033604843,-0.0033147384,-0.0038824484,0.008194549,0.00090935174,-0.004046877,-0.001176984,0.0050017023,-0.0053572915,-0.0007295727,-0.0011845444,0.0029903299,-0.0017820556,-0.0004369423,0.0023537753,0.00484151,-0.002588499,0.00040652143,0.010036348,0.0006323799,-0.0024500566,0.0013829136,0.0037266775,0.0015043286,0.00080796855,-0.0057084304,-0.00035909814,-0.0034090139,0.002376805
SLC44A5,-0.0019508452,0.0029160674,-0.0023109398,-0.00062428846,-0.0035771052,-0.0036612565,-0.0009841644,-0.0039546154,-0.004906866,-0.0024133942,-0.0016101303,0.0056478814,-0.0011085956,-0.00034336824,-0.00013778462,-0.008033808,0.00019683194,-0.0029595327,0.0032554017,-0.0057748905,-0.0028545472,-0.0060278024,0.00050827925,-0.00016990381,0.0024013454,0.0030898673,0.0033237631,0.0011833736,-0.01335335,-0.004876932,0.0030274028,-0.004556583,0.0010801337,0.00607215,-0.0014372919,-0.003145486,-0.001995031,-0.0106054945,-0.0022447938,-0.0047424543,-0.0012539275,-0.005101269,0.0047121225,0.0040185656,0.00021591735
MSH4,-0.00048141743,0.0007093007,0.00084090634,0.0017981451,0.0018740491,-0.0003757287,-0.0014776007,-0.000984962,-0.0018039212,-0.00019863377,0.00011223705,0.0004558055,-0.00043671625,0.0006895307,0.0015948964,-0.0061226184,0.0018904641,-0.0002810876,0.0017859018,-0.0036630859,0.0044439984,-0.00016615131,-0.0019410277,0.0009365264,-0.0013080466,-0.0027501984,-0.00081115286,0.00058677763,-0.0024101497,-0.00065666036,0.0039710123,0.00466518,0.003365873,0.002325084,0.0030005656,0.0011005781,-0.0029025709,0.0028475623,-0.0010363536,-0.0011547395,0.0025670533,-0.001947889,-0.003084335,-0.0013827092,0.0010862101
DNAJB4,-0.0022961153,0.0010392719,-0.0017012054,0.0036830478,0.001270449,-0.00020955809,-0.0010084749,-0.00048362155,-0.0064424304,-0.0011871498,-9.96356e-05,-0.0009327886,0.0009520081,-0.0011384278,0.005589663,-0.003404296,-0.00044358833,-0.0040192446,0.002958053,-0.0034083445,-0.001733641,-0.00545879,0.0002046191,-0.00028507202,0.006367085,2.2635186e-05,0.005683711,0.008390015,-0.003291977,0.0018709953,-0.002975578,-0.004832039,-0.0019047003,-0.0036190734,0.003432087,0.0028607284,-0.0046101348,-0.0031536694,0.0022238593,0.0016935286,-0.002765603,-0.005604262,-0.00086248637,-0.00045542486,-0.005577122
GIPC2,-0.0017636762,0.0005956213,-0.00238684,0.0017367373,0.0029074212,-0.0021197957,-0.0028831789,0.0020248129,-0.0020945084,0.00015558227,-0.00079218147,0.0034673458,-0.0139755085,0.0038637775,0.0045295595,-0.0026995474,0.00035914354,-0.000109593755,0.0025605503,-0.0032504972,0.005184027,-0.00061469665,-0.0015429728,0.0062988903,0.0003489126,-0.006035959,0.0015305649,0.0013878533,-0.00074299076,0.0021479183,0.0038003167,0.0036258386,0.0017130071,-0.0037600505,0.008947756,0.0021687215,0.0021483898,-0.004775785,0.004471213,-0.00066126,-0.00041413042,-0.0023635118,0.0010617829,-0.001216308,-0.002261751
TTLL7,-0.0030437976,0.0022368098,-0.002011682,8.8799796e-05,0.0010266113,-0.0032530325,-0.002835138,-0.0015381818,-0.0013123464,-0.003473499,-0.0022075274,0.008109493,-0.008175976,0.0006785489,0.002085631,-0.0149218915,0.0064570014,-0.001910144,0.0014003008,-0.007758121,-0.0003382713,-0.007032963,-0.003071771,0.0020500713,0.0058675143,-0.0059752692,0.01072128,0.0040665953,-0.020191051,0.0023511793,-0.0035834904,-0.0016155739,0.008468263,0.012848831,0.0060568694,0.0022125854,-0.006439177,-0.006660826,-0.0052109077,-0.0026073172,0.0023381594,-0.007970208,0.005756022,0.0060621374,-0.00011745967
DNASE2B,4.1582844e-05,-0.00049682654,0.00080011354,0.0002199959,0.00015369075,-5.1268136e-05,-4.804602e-05,-0.00042022686,-0.00029622763,-0.0009768349,-3.733341e-05,0.00033718286,0.00026777678,0.00074403797,-3.075454e-05,-0.00043382056,-1.9749625e-05,0.00012646413,-0.00032694443,-0.0006773584,0.00017647115,-0.00032312667,-0.0001804324,-0.00044580048,-0.0005468222,-0.00082754076,-0.0009629695,8.576737e-05,0.00016064974,1.511104e-05,-0.00086671446,-0.00062441995,-0.00012653053,-0.00023252568,0.00019938167,7.588229e-05,-0.0009407236,-0.0006434443,8.979913e-05,-0.00061142095,0.00026580496,-0.00021784216,0.00026448705,-0.0005204519,-0.00077376387
CLCA1,-0.0029886246,0.0055629364,0.002465805,0.0017726909,-0.0049694898,-0.0060627046,-0.00036817876,0.0020885621,-0.006873075,0.0005804429,0.0028802922,0.005624236,-0.010418576,0.004322762,0.0044216113,0.0018074961,0.0016125888,0.0030064029,0.0056449827,-0.0072473777,-0.00254324,0.007199965,-9.6915144e-05,0.005895718,0.0032636304,0.0010309791,-0.0033481137,-0.0019422701,0.0050614784,-0.0021031308,-0.0015315632,-0.0040158783,-0.011992825,0.00091852533,-0.009313683,-0.005591222,0.005403071,-0.0033034885,-0.0026481012,0.012549137,-0.000995013,0.0017925961,-0.0020053913,-0.0005832902,-0.0049472116
LINC01140,-1.0785861e-05,-0.0010763492,0.00023865752,-0.0063424404,-0.014776166,-0.0034169226,0.0005923875,-0.00020898746,-0.0024833689,-0.0014806637,-0.0003745671,0.0017002076,0.002426639,0.00068583136,-0.00024074035,-0.0020464277,-0.006545891,-0.0016532914,-0.005618012,-0.0073259743,-0.0004949111,-0.0032154538,-0.00045717388,0.0005355173,-0.0037907467,0.017384658,-0.008363235,-0.002723056,0.001598277,-0.0032848543,0.023224007,-0.007143401,-0.013320213,-0.00036763854,-0.015880756,-0.008176468,-0.0037521166,-0.0011255329,-0.0049322797,-0.0027363996,-0.0001749134,0.0013353123,-0.0029060286,-0.0047009895,-0.004360797
LMO4,0.0045483806,0.0010775626,0.0058909473,-0.005246028,-0.025441457,-0.005451074,0.00061957096,-0.009414976,-0.010672518,-0.0029423195,0.0032567861,0.004749169,0.004750437,0.009769134,0.0016112656,-0.008191658,0.007079437,0.0024843626,-0.001704883,-0.0065971217,-0.0025516283,0.0015920219,-0.005189238,-0.003990064,-0.010551386,0.012992777,-0.0044971574,-0.011189909,-0.004830539,-0.024818972,0.045388956,-0.0014736117,-0.016592257,0.016804995,-0.009891364,-0.015174722,-0.0016527494,-0.0021287457,-0.019606944,-0.0057776803,-0.011321752,-0.0074213445,0.010391505,-0.0055923345,-0.010952283
GBP3,0.0010243286,0.0024481353,-0.00022647143,-0.0014071264,-0.0040834686,0.0015836495,0.0022897483,-0.0004006836,0.0030542456,0.009969748,-0.03907212,-0.016996412,-0.0013551523,0.0021788843,0.018478243,0.007268775,0.0026491636,0.02698928,0.029314796,-0.007945778,-0.011935912,-0.02453607,-0.012466553,0.012530574,-0.00019580967,-0.0077264314,-0.00056646374,-0.0027171662,-0.0040443763,0.0021124883,-0.004570714,-0.0009424951,-0.0006750648,0.0030796865,-0.0009077807,-0.005211905,-0.00044977787,0.00021096306,-0.0024788266,0.0010286887,0.0037773044,-1.9600584e-06,-0.00352203,0.00018711273,-0.0010048237
GBP2,-0.0026644582,0.0055434173,0.0038368441,0.00090739987,-0.0072763544,-0.008788454,-0.003277912,-0.00033939947,-0.0085866,0.0013344517,-0.0014331618,0.0020239563,0.0022900233,0.004429942,-0.0034175627,-0.010871115,-0.0019076342,-0.0027842221,0.014773415,-0.0001439427,-0.009625854,0.0062095015,-0.0028757884,-0.0084471535,0.014346278,-0.0097960895,-0.031543754,-0.0066004824,-0.0041352343,-0.013007573,0.024135282,0.001039331,-0.011942893,-0.005034291,0.00078714936,0.0033649607,-0.001873541,0.011002733,0.0029683604,-0.00082976423,0.0066754553,-0.0070158984,0.00332062,0.0043347958,-0.0077229035
BTBD8,0.0013182355,-0.0019001515,-1.3062243e-05,0.0038543325,-0.0020621452,0.0027369647,0.0011178014,-0.0016240469,-0.0030934094,0.0014544859,-0.0069231056,-0.001342436,-0.0010695251,-0.0043766717,-0.0077285203,-0.00817983,0.00565239,0.0023251425,0.007434087,0.0011066111,0.008246846,0.0063096746,0.0021076805,-0.010340171,0.0032376372,-0.0016991048,0.0068825427,0.007904696,-0.0016862937,-0.00090444396,0.0039789462,0.0031597046,0.005055845,0.005081969,0.002525908,0.0019306372,0.0076790377,0.00058292894,-0.005345634,0.0020310387,0.0016465706,-0.003955912,0.0037737822,0.0023723033,-0.0037540228
KIAA1107,-0.0002027721,0.002627815,-0.00010561483,0.0018072854,2.6252428e-05,-0.0024065606,0.0005042988,-0.00032513836,-0.0021377034,0.0011121067,0.0016562884,0.001777384,0.00061395305,-0.00082134135,0.002943489,-0.0037270158,3.3470966e-05,0.0008715072,-0.0013909399,0.00079239364,2.283887e-05,0.0002841466,-0.0025718638,0.0011139677,-0.0009474356,-0.00093134376,-0.00095439755,0.002758199,-0.003501932,0.0002447047,0.004791619,-0.0017234529,0.00095864915,-0.00095786626,0.0023842899,-0.0020768393,-0.002583118,-0.00043207445,-0.00046378616,-0.0007633004,-0.0016831917,-0.0033911716,0.0026089528,0.003965177,-0.0035500226
FRRS1,-0.0029420275,-0.004638109,-0.0013924706,-0.0018620106,0.0029249673,0.0014654632,-0.0013633118,0.0014164972,-0.0036859596,-0.0025854795,-0.0022439444,-0.0026810858,0.00162118,0.0020579884,-0.0014029669,0.0018820945,0.0036139893,-0.0039753094,-0.0082239555,0.0045877397,-0.00047162944,-0.0029826744,0.0051900186,-0.0027343456,0.0020222715,-0.004379073,0.0020875277,0.003203691,-0.0055784485,0.00088812114,0.0024263908,0.0015341359,-0.0027399282,0.0026307437,0.006060106,0.0017131735,-0.0023891462,0.00091101776,-1.4884566e-05,0.0012421813,-0.0006717819,-0.0010606624,-0.002329171,0.0036603606,-0.003038761
LRRC39,-0.0028890523,0.0036448545,-0.0007738956,0.00051198,0.0012422678,-0.0034362518,-0.0019391448,-0.00077643426,-0.0026395898,0.0021921943,-0.00020857099,-0.0018106796,-0.0037262177,-0.00319961,0.0017282362,-0.0002088995,-8.8865476e-05,0.00035796926,-0.0015316206,-0.0021414305,0.0003707852,-0.00045412316,0.00026962982,-0.0011673876,0.0061159804,0.00066494703,0.00065961364,-0.002442152,-0.0007249342,0.0063267914,-0.003951441,0.0014696917,0.0017831633,0.0030555779,-0.0011578489,0.0020633333,-0.001280406,-0.0055049728,-0.0025439826,-0.00051241374,-0.000474718,-0.0014633819,0.0020201432,-0.00026227385,-0.00013362669
S1PR1,-0.0016405481,0.0030521716,0.0010922365,0.0013353273,-2.323521e-05,-0.001696644,-0.0015031946,-0.0046433993,-0.003513493,0.00252246,-0.0042988383,0.004900228,0.0027732735,-0.0002203697,-0.007320535,-0.014777384,-2.4898802e-05,-0.002575787,0.007876655,0.0041658254,-0.011063765,0.0046208403,0.008606707,0.0016471271,0.008383303,-0.008042565,0.0048820516,0.0024229793,-0.01078077,-0.010608542,-0.0040314156,-0.008455554,0.00069886853,0.00396573,0.0039871763,0.0016320465,-0.0066816043,-0.019026391,0.0018119243,-0.0029082042,0.007071489,-0.0049239723,0.009878449,0.0095317885,-0.0069897105
AMY2B,0.00047269967,0.002701472,-0.0018855407,-7.589292e-05,-0.0014829702,-0.00092620705,0.0010840013,-0.00011188206,0.0005626442,0.002351591,3.9573217e-05,0.0024848313,0.0003285948,0.0010625288,6.909921e-05,-0.0011635147,0.0018447547,-0.0005469531,-0.00041165683,-0.0011184807,-0.0010927323,0.0015235986,0.0008008431,4.7386366e-05,0.0009939094,0.0013574945,-0.00042593482,0.00034940257,-0.0025777423,-0.0002688312,0.0014145519,-0.00037712418,0.0010208531,-0.0005534594,-0.0011137583,-0.0023123804,0.0011185849,-0.002050352,0.0018534751,0.00090091495,0.0009247094,-0.0025431036,-0.0017187098,-0.00074281037,0.001100566
SCARNA2,-0.00039547673,-0.0008270064,0.0018577777,-0.00079977233,-0.0023853327,0.00077938393,0.00021476929,-0.00018092994,-0.0013897908,0.0013613838,0.0028949808,0.004726951,0.0055529852,-0.008282068,0.00023362719,-0.00065083674,0.0022134224,0.0028591694,-0.00013899372,-0.005323688,-0.0018071632,0.0008115855,0.0014457242,-0.003076187,0.0025620123,-0.0052860575,-0.003279821,-0.0037541378,-0.0024649184,0.00736029,-0.0013676354,-0.00058015913,0.0024935103,-0.0013699678,-0.00036460583,-8.63362e-05,0.0040225014,0.00020121512,-0.0093695745,0.0045254244,-0.005530214,-0.0075973826,0.0006395234,0.002504949,-0.0006405584
SARS,0.0016425009,0.010746738,0.007788372,-0.002476832,0.0059732636,-0.00400656,0.0050225914,0.0018358761,0.008326613,0.0072171977,0.0035896385,0.015960548,-0.012557423,-0.0014453303,0.008339565,-0.010918035,0.010602097,0.00012936005,0.0063250265,-0.0043823426,0.0009358466,0.017969167,-0.0031670441,0.016932819,-0.013487066,0.00047338082,-0.0016443252,-0.00011178591,0.0012041567,0.0021582819,-0.008543059,0.011390203,0.012413083,0.001411678,0.0013313562,-0.0076653883,-0.0010035331,0.0045763883,-0.0025478643,0.0034200468,0.00083572115,0.0103311865,-0.004189803,0.0009727416,0.011681889
PSRC1,0.0059590046,0.0025815968,0.0048281616,-0.0012908739,0.003057847,-0.0011736719,0.008102803,-0.0029109921,0.0035636253,-0.0048031425,-0.0019903902,0.0024708563,0.0007787918,0.0070635867,0.0045278864,0.0012264836,0.0055182097,-0.001290694,0.00091780775,-0.0049008154,0.00039371502,0.00073609187,-0.0019772428,0.005343295,-0.012277358,0.012341553,-0.004826797,0.0029947124,0.00517922,-0.0033447605,-0.0048949914,0.0017396287,-0.0005666361,-0.004328164,0.0042223735,-0.010269453,0.00032965213,0.002521626,-0.0033370617,0.00381323,-0.00096723513,0.0031029836,0.004032587,-0.0037579304,0.007972719
MYBPHL,-0.0031022914,0.0054645203,0.0021257657,0.0012480391,-0.002785063,-0.005484733,-0.006129241,-0.0011582024,-0.0026749568,-0.0005037664,-0.0015047627,0.0070078033,-0.0072194934,0.0016939137,0.0001868187,-0.008829354,0.004970109,0.0006291127,0.0017517337,-0.002273093,0.0046265046,0.0021181516,-9.3597904e-05,-0.0019076866,0.0073058098,-0.009919494,-0.0034492067,0.0019350649,-0.010449925,0.004758303,0.0002826465,-0.0026971255,0.00085400784,0.015159977,-0.0017435574,-0.0010060065,-0.0039569666,0.0055611343,-0.006230617,-0.0030438607,-0.0015044835,-0.00718959,-0.0013307999,-0.0036472208,-0.0029269292
GSTM2,-0.0002948633,-0.00059481204,0.0005082144,-0.00041062498,0.00081863947,0.00023847116,-0.00034256952,0.00017446978,-0.0011387889,-0.0020953785,0.0021513386,0.00089129945,0.0007508186,0.0022333064,-0.00079298636,0.00036838278,0.00030766314,-0.0012534629,0.0045710173,0.004925839,-0.0024994006,-0.0031028325,-0.00039650398,8.73817e-05,-0.0003047227,-0.0011819799,-0.0018342859,-0.0007726459,0.0005527876,-0.001963114,4.471019e-05,0.0019224657,-0.0038311838,0.0012784804,0.0055316207,-0.000810546,0.0015168844,-0.0009499687,-0.00031050094,-0.0025911294,-0.0017657245,-0.0036649543,0.0001304667,0.0013604147,-0.0052067814
GSTM3,-0.0041867224,0.0027624422,-0.0022692003,2.807731e-05,-0.0032174154,-0.0062585133,-0.0013260199,-0.004008073,-0.007478005,-0.004761424,-0.0014964269,-0.00073414587,-0.0023249965,0.0032783314,0.004016643,-0.0035809246,0.005948462,0.00036383278,0.00046473977,0.0008479245,-0.0023318648,-0.0052049733,0.0018185509,-0.002672695,0.007789917,-0.0023967992,-0.0014525481,-0.0026220065,-0.01618656,-0.0016092483,0.00020753204,-0.0012219651,-0.0037321758,0.0072189556,-0.0026971854,0.000116424206,-0.007552941,-0.0017605282,-0.011287658,0.0014034691,0.0022569424,-0.00094665407,0.0018728853,-0.0026790304,-0.00034548197
EPS8L3,0.0017975231,-0.0015326318,-0.0002497437,0.005865289,-0.0041494863,-0.0049363915,-0.0067268233,5.811613e-05,0.00287724,0.002842887,-0.00034204335,-0.00228743,0.0037457745,0.0010938272,-0.002704595,0.012318094,0.0004283993,0.0016551479,-0.005865345,3.6416142e-05,0.0006704641,0.010293087,-0.00043536475,-0.000404109,0.0064504375,-0.0038776454,-0.00411602,-0.0061311363,0.00036537764,0.0066886586,0.0009891823,0.0037112187,-0.0034520084,0.0006307906,-0.002292005,-0.00788336,0.00492869,0.009112129,-0.008145611,-0.00066177774,-0.0025747633,-0.0053932993,0.0020581703,0.0018828193,-0.00588585
PROK1,0.00115451,-0.0003089308,-0.00019203834,0.0032769658,-0.0013592051,0.0015664805,0.0010175641,-0.0033653271,-0.0023340448,-0.0003836546,-0.000544322,-0.0005582494,-0.002652963,-0.0023673146,0.0015593616,-0.000847464,-0.0023576007,0.00024425847,-0.0005409279,0.0006373016,-0.0036048791,-0.0007192484,0.0035916474,0.0009872129,0.0044306545,0.002509163,0.0051762876,-0.003979632,-0.012733553,-0.0024187365,0.0012057632,0.00097531045,0.00018008442,-0.0010259051,0.0012989339,-0.000446765,0.000331153,-0.007051402,-0.00022614225,-0.0007783386,0.0026231913,-0.000401827,0.0030641998,0.008929655,-0.0010865598
CD53,-0.003932163,0.008197827,0.0075688898,-0.0018727301,-0.012700685,-0.0043563736,0.004032909,0.0021614062,-0.01531087,-0.0005607167,0.005988232,0.013850203,0.00063161325,0.005435911,0.009128045,-0.008713171,0.005859099,-0.0008154652,0.007968069,-0.0028656633,-0.0026002654,0.00747081,-0.00439437,0.0110484455,0.010697077,-0.007882274,-0.0061223176,-0.00074775575,-0.0036822392,-0.020272478,0.011284605,-0.007228856,-0.011441708,0.01202728,-0.01135884,-0.00057798834,0.0018393581,0.0022801682,0.00019446007,0.010655883,-0.00028352285,-0.004333736,-0.0032881298,0.013305241,-0.011916947
CHI3L2,-0.0041657505,0.0020232063,0.0035361485,-0.0026276524,0.0040639536,-0.0019876696,-0.001504521,-0.0017207707,0.0025791072,-0.0009295946,-0.00046354748,0.00207029,0.005559331,0.0016013035,-0.0044807545,0.0034490204,0.0017858329,0.0037447729,-0.00064548646,0.0031618222,-0.00046789632,0.013422742,-0.012872241,0.010367729,-0.0050287964,-0.0020080938,-0.0023441343,-0.00384793,-0.009584058,0.0021333024,-0.0070121665,0.00728388,0.0015508597,-0.007697617,0.0015953234,0.00092188554,0.00046645905,-0.0011689977,0.0035933808,0.0053709135,0.003415724,0.014496632,-0.00035991662,0.003894814,0.008970772
TMIGD3,-0.0035074493,0.00061293435,0.00020278833,-0.003218302,-0.0022110671,-0.0023941146,-0.0010606082,0.0015364635,-0.0023009193,0.0038186137,0.0022810313,-0.0036754636,0.010008107,0.002672692,-0.0011655699,0.0048595127,0.0026053172,4.6141988e-05,-0.003336998,-0.00090965425,0.0017909576,0.0034986897,-0.0015450725,-0.0032242243,-0.0030333376,-0.004019159,-0.0055570537,0.00097414496,0.0010074843,-0.0017860745,0.009167946,0.0028899538,-0.0033606347,0.0013704427,-0.0019116945,-0.0056708804,0.004197861,0.0041235094,-0.00069204177,0.0027791348,-0.0022360478,-0.00039542178,8.1299644e-05,0.0052701654,-0.0010327591
ADORA3,-0.0027661058,0.0005622653,-0.0004076384,-0.0004218329,0.0016500845,-0.0015969857,-0.0016985566,0.00084598945,-0.003170971,0.0015214089,-0.0024064954,0.0023824628,0.009845698,-0.0006699365,-0.0013283328,0.0014746224,0.0013067432,0.0007392004,-0.0046728267,0.002595336,0.0027101643,0.0012106164,-0.003414482,-0.0033153181,-0.002279654,-0.0109331375,-0.0049517937,-0.0006817135,-0.0033865112,-0.0033895813,0.01565312,0.0058319317,0.003280034,0.0011445689,0.005599009,-0.0014984955,0.0007947489,0.0026646033,-0.00032132308,-0.003914617,-6.873556e-05,-0.00011889942,0.002858511,0.0058951606,-0.0011607421
CAPZA1,0.0026399414,0.0011528936,-0.00089837343,-0.00025194997,-0.002353568,0.0015718327,0.00289227,-0.0040277424,0.0009411087,0.0033769666,0.0011746408,-0.0031733036,0.0018686311,0.0005393052,0.0048224977,0.0055745123,0.0011059139,0.0025801628,-0.0004271026,-0.0015225842,0.001692005,0.0029375996,-0.0049553267,-0.0018151113,-0.005726923,0.0056888517,0.0049377102,-0.00024113202,-0.002005843,0.0031909384,0.00021355657,0.0034661114,-0.003721489,0.0042376076,0.0027184456,-0.0031468726,0.0034200442,-0.00036857318,-0.004597611,-0.0014390919,-0.0063055167,-0.0012309015,0.007863061,-0.0026053058,-0.002230318
RHOC,-0.011505314,0.015485772,-0.003570496,1.4427194e-05,0.00028421712,-0.010406699,-0.001966525,-0.00225548,-0.016726209,0.0054107076,0.0022845324,0.018402023,-0.011656139,0.002782511,0.016834911,-0.011690041,0.022545537,0.002442045,0.001953479,0.0038923903,-0.004943077,-0.0021491612,0.0047144378,0.00012237279,0.014687986,-0.010977276,0.0016238914,0.012587645,-0.01421695,-0.0022715318,-0.003450515,0.00013387806,0.0033377039,0.011727163,-0.0051482935,-0.0031359748,-0.007966305,0.0038640248,-0.011016463,0.004620957,-0.007906225,-0.008161765,0.0043796543,-0.006181051,-0.0021574479
LINC01356,-0.0001459002,-0.0009202196,0.0024944977,0.0035054365,0.0020136668,-0.003975434,-0.0049755177,-0.00053830195,-0.0006892342,-0.0004317143,-0.00020810412,0.00082007283,0.004767605,-0.0012624529,-0.001880244,-0.0001835947,-0.0010054252,-0.0011329699,0.0010778641,-0.0005228675,0.0020577344,-0.00041158215,-0.0109102,-0.006751457,0.012990676,0.015197967,-0.016625892,-0.019169496,-0.009159652,0.0011406117,0.0015279286,-0.0094209295,-0.005614211,-0.0071823345,-0.0023587951,0.0019164846,0.010765169,0.0068819458,-0.002545087,0.0043978146,0.008278596,-0.00033402542,0.003342395,0.002155179,-0.0027806961
HIPK1-AS1,-0.0042487723,0.0001781957,-0.0042293826,0.00047994597,-0.0013026606,-0.0017900241,-0.0027606515,0.00281002,-0.0042414037,0.0043344004,-0.011194356,-0.007715941,0.0035783302,9.824695e-05,0.0046119504,0.0041672797,-0.0043520965,0.008521118,0.003034937,-0.0011082187,-0.004531756,-0.007964454,-0.0028631997,0.00048252547,0.0026736879,-0.0080927005,0.0025318766,-0.0010977347,-0.003811142,0.0041580033,8.546454e-05,0.00207625,-0.0008026989,0.0021552604,-0.0006505474,-0.0013059431,-0.0012160753,0.0057814093,-0.0011548989,0.0008997861,0.002061278,-0.001677929,-0.00046202625,0.0023234119,-0.0077183517
OLFML3,-1.9604106e-05,0.0005665694,-0.0027753566,-0.0020099592,-0.0037945062,0.0020333983,0.0029350542,-0.0020151008,-0.0021095332,0.0069092615,0.017711205,0.037576035,0.026580578,0.02028553,-0.0037658433,-0.00055629195,0.010091826,0.009995165,0.027827548,0.01810737,0.009727814,-0.013954188,0.009008965,0.009205527,0.013011528,0.011935154,0.027130019,-0.008434731,0.010865736,0.011276078,-7.4516836e-05,0.015605078,-0.019288901,0.020678852,0.0145109,-0.013642952,0.0058686,0.016830277,0.021605,-0.005833024,-0.0021530734,-0.009612143,-0.0024030828,-0.005056437,-0.0040219175
CD2,-0.0036280088,-0.00085716555,0.00071471365,-0.0014695732,-0.00089048874,-0.0030007144,-0.0038315444,0.0006850147,-0.0055527496,-0.0017151566,0.001606427,-0.00043003255,-0.003917877,-0.0029843517,0.0012616322,-0.0030316452,-0.0021803763,0.0018662517,0.00036774715,0.006143932,9.4898685e-05,0.0014570684,0.0019845658,0.0028891703,-0.00050993916,-0.006230291,0.00054375484,-0.0011302131,-0.0016259106,-0.004554802,0.008409372,-0.012194945,-0.0053906897,0.009552394,5.4326578e-05,0.0017386823,-0.0006130677,-0.0042916937,-0.0044524064,-0.00063135586,0.0012977978,-0.0065321196,5.45116e-05,-0.00032540614,-0.0032481214
CD101,-0.0039590956,0.0007873591,0.00046063404,-0.0016990879,0.008166803,0.0013881808,-0.0052545206,-0.00050743716,0.00081539294,0.0021433674,-0.008250083,-0.000994279,0.008628952,0.0037739743,-0.005017705,-0.012636161,0.004230525,-0.0066066724,0.005446001,-0.0022060594,0.0028449413,0.004318782,0.0045992606,0.0005915346,-0.0064659244,-0.017133618,-0.0008256821,-0.0012168968,0.0016682823,0.00077683345,0.026950398,0.008229525,0.0017264922,-0.008780283,0.01082199,0.0025017846,-0.0015852827,-0.0019314855,-0.0032022041,-0.004031164,0.004334917,0.0008291327,0.0050572334,-0.0018649582,-0.0020013049
SPAG17,4.1072493e-05,0.002054553,-0.00039954044,-0.0011956145,0.00042922905,-0.00037743628,-0.0010539715,0.0011780157,0.00077266875,0.0016890353,-0.0015416868,0.0023699526,-0.0016578893,-0.0010820718,-0.0018611831,-0.0006667088,0.001757209,-0.0004172131,0.003260626,0.00018595677,-0.0015727095,0.0018235113,0.00025067548,-0.0020989475,-0.00017219705,-0.0012983418,-0.0019650839,-0.0033496635,-0.0017956601,-0.003862269,-0.00087999814,0.0030889816,0.0014952575,-0.00030906525,0.0016090265,-0.00012621556,0.0010340634,0.0027694684,0.00063816993,-0.0015012427,-0.00034056953,-0.0006646462,-0.0016553957,0.0038789336,0.00014288707
PHGDH,-0.0050839945,0.01616071,0.0096979,-0.0039359457,0.005212277,-0.0031771862,0.00032863618,0.004266055,0.0012871004,0.0037732548,0.0044004987,0.01751327,-0.015281963,0.0060729245,0.014082093,-0.011913106,0.017055577,0.0014035943,0.009729847,-0.008390324,0.0029558348,0.017344715,-0.011229097,0.019858634,-0.007856221,-0.0048300466,0.0018344142,-0.0070485063,0.004288377,0.0018748235,-0.006042654,0.0046039443,0.00882697,-0.0010615155,0.00074252853,-0.006460577,-0.0011283621,0.00890984,0.005635595,0.0065707034,0.003270728,0.016986465,-0.0071755312,0.00014988234,0.005951891
FCGR1B,-0.006211494,0.0036851314,0.0019926853,0.000531656,-0.0011512894,-0.0055047655,-0.00507191,0.0023411317,-0.007943385,0.0022054454,0.0025586728,0.006662358,-0.011828878,0.0011381116,0.0050378917,-0.008673484,-0.0029674354,0.0038867483,0.011418046,-0.0096271075,-0.0048251706,0.006210264,-0.0035629733,-0.002500372,-0.003494825,-0.0053070947,-0.0039416235,0.0049334974,-0.004490072,-0.0060176784,0.018354256,-0.0017744727,-0.0063074846,0.008703003,0.005875298,-0.004495711,-0.0004604691,-0.0007684227,0.0015977223,-0.007012061,-0.0063063954,-0.006516995,0.0021484063,0.0059688813,-0.0023511928
PDZK1,0.0006259607,0.001583043,-0.0011002679,0.00069254945,5.348533e-05,-0.00034101887,-0.00073274237,-0.0037214363,-0.00060416537,0.0020691177,-0.0009034777,0.008720571,-0.0018482029,-0.002540431,-0.0008209256,-0.0040591215,0.0033176586,0.00043493928,-0.006410498,0.0015230216,0.004331188,0.0036576812,-0.0012295248,0.0048345206,0.00032330904,-0.0011766969,-0.0035739834,-0.0013389589,-0.0015807474,0.00026455324,0.0017870651,0.000120461606,0.0016502792,0.0014814682,0.0047754925,0.0011417826,0.0011691896,7.267265e-05,-0.0027202785,0.0003536268,0.00067108317,-0.0039984793,-0.002858162,-0.002154598,0.00075905706
CD160,0.0007319848,0.0020669189,-0.00416806,0.0035009715,3.9896884e-05,0.00030262338,-0.0023838256,-0.002146129,0.0011318548,0.0037721808,-0.008666903,0.016305018,-0.007010925,0.00043264497,-0.0074601923,-0.0029618784,-0.0064445683,0.008154799,-0.016702648,0.0027578995,-0.002386197,0.008841867,-0.002841252,0.010082622,0.0057006045,3.1670206e-05,0.007950745,-0.0023800882,-0.00044105414,-0.0006976161,-0.0011746682,-0.002476537,0.0050567193,0.0015491076,-0.00023797776,-0.0031139706,-0.008181771,-0.0059319125,0.0010774289,-0.0010390664,0.006062613,0.0048644906,-0.0017569393,-9.6335105e-05,-0.00016433345
ANKRD35,0.0013642337,0.00077415357,0.00060659857,0.002816954,-0.0013140549,-0.005121405,-0.0011729519,0.00044709299,-0.0004399235,0.002169078,0.0014532504,-0.0015392533,0.00024641003,0.00057060947,-0.001774444,0.0024479837,0.0014389623,-0.0007246102,0.0016628653,-0.004683202,-0.0022963923,0.0021570192,-0.0003332751,0.000100703415,-0.0001549465,0.0012648155,-0.0047358717,0.0022109104,0.00045577635,0.0011809622,0.0028695196,0.00034044683,-0.00045123513,0.0020387575,0.0024277885,-0.0036948596,0.0014383856,0.003132651,-0.001720462,-0.0003539136,-0.00043369515,-0.007114607,-0.00015801235,0.0010020629,0.00069635303
POLR3GL,0.0021528588,-0.0028666372,-0.0032387322,0.008163542,-0.001638471,0.0053559504,-0.002597988,-0.011280678,-0.00543063,-0.0036892486,0.004124506,-0.0069802427,0.007475322,0.003295462,-0.005920625,-0.004009631,0.0012210896,-1.825471e-05,0.002665727,-0.00018827533,-0.0053709773,-0.009481185,0.0017998794,0.0003110986,0.004149211,0.0003785194,0.018800514,-0.0002268211,-0.0181966,0.002499868,0.0025605215,-0.004917838,0.0015878193,0.0013946617,0.0031866978,-0.0031521772,0.0038365773,-0.008397887,0.0014508344,-0.0040828707,-0.0044713584,-0.010890807,0.007570979,-0.008702519,-0.014238832
TXNIP,-0.006323383,0.011134741,0.0010791435,0.007970879,-0.0060140365,-0.00959397,-0.008744012,-0.005474608,-0.01738263,0.0020097976,0.0036631608,0.0064351317,-0.006693996,0.008933444,0.009301892,-0.015579304,0.0072016413,0.00090471184,0.0066502066,0.0067708534,-0.011897775,-8.8816596e-05,-0.0015556795,0.0038122626,0.01926403,-0.021737143,0.007631151,-0.008359106,-0.04090594,0.0029816383,0.018196696,-0.003235968,0.010857014,0.008267846,0.0047994805,-0.007358439,-0.014049926,-0.0006591492,-0.010460517,-0.0012943404,0.008030532,-0.0153869325,0.004868964,0.019300919,-0.0148345595
FMO5,-0.0015395217,0.0030791552,0.00062023365,0.0001471537,0.0011314789,-0.0022862956,0.0017512819,-0.000583715,-0.00431269,-0.0035104388,-0.0011671758,0.001165771,-0.0023915186,0.0018097826,0.0014294983,-0.004143032,0.00055413606,5.1784966e-05,0.00095493445,-0.0019719417,-0.001553504,-0.0023605942,0.0019518981,0.0065533677,3.4598233e-05,-0.0025857093,0.00011847241,0.00557548,-0.0036935813,-0.003468459,0.00426396,-0.00048749836,0.0010045272,0.0038682586,0.002118633,0.002424858,-0.0041754236,-0.0021629909,0.00017977419,0.002589001,0.005281032,-0.0036219272,-0.0023058245,-0.00284608,-0.0007481022
PPIAL4G,-0.0010184404,0.0011854757,0.0012686495,-0.00031522385,-0.00030161918,-0.00016255377,-0.0010493648,-0.0015893342,-0.0027327854,0.00024065773,0.0010680399,-0.0007680831,-0.005407594,0.0011275486,0.0012700653,-0.004111015,0.002494286,-0.0004398496,0.00091058144,-0.008484131,0.0024721124,-0.00078224245,-0.0025228767,0.002071359,-0.0017191108,0.003039332,0.0013936524,-0.0021451437,-0.0012716939,-0.0017251173,0.0062139546,0.0015279548,0.00030196802,0.0017845758,0.00065107615,0.0016356996,-0.0015713866,-0.0024963464,-0.0006018929,-0.0029126322,0.003928833,-0.0010409656,-0.001228334,-0.0027839178,-0.0006536282
PDE4DIP,0.01199596,0.00028614543,0.007946373,0.014923279,0.0070214747,0.011150025,0.0055567254,-0.008687455,0.0030073891,-0.0031030646,0.0030234202,0.0060180863,-0.0022975241,0.0004912674,-0.0048457277,-0.0017559942,-0.002536617,0.0066003143,0.008297735,-0.0044097174,-0.0019394644,0.0067790174,-0.003940951,0.015987279,0.0026240747,-0.0043279203,0.016008504,0.0051720077,-0.014000755,-0.0075372453,-0.030399563,-0.013435405,0.007296515,0.015217218,0.013804244,0.010740135,0.0013035996,-0.014386609,0.012834251,0.004412416,-0.00047767945,-0.011466613,0.0014619313,0.01383992,-0.0117847305
FCGR1A,-0.0049171117,0.004793334,0.0023555977,0.0007163085,-0.004124502,-0.007445486,-0.0039535696,-0.0004030992,-0.010518683,0.006635115,-0.0025825473,0.013661486,-0.010029042,0.0051658954,0.0036793,-0.0054064165,-0.0054810722,-0.00738796,0.004853053,0.0024752535,0.0050207693,0.0008908734,-0.0020467774,0.0020413871,-0.0012638624,-0.020810502,-0.006451349,0.008167268,-0.0031640222,-0.012783694,0.025580171,0.00032981506,-0.0079613775,0.010592562,0.012538742,0.0024331238,-0.00011744769,0.0018818268,-0.0070181163,-0.0069978256,-0.0017085732,-0.0076596593,0.0021852346,0.011585422,0.0008833891
HIST2H2BE,0.0011853816,0.0029444275,0.0028410708,0.0058684745,-0.0026981288,-0.0017027797,-4.470591e-05,-0.0027020627,-0.0042025847,0.00022594394,0.00043964683,0.0017027847,-0.001553822,-0.0021300742,0.0044416273,-0.001096259,0.0013047061,0.0012633663,-0.0004703578,-0.001171387,0.0011096221,-0.00073123607,-0.0019336333,-0.002259797,0.001407139,-0.0035523046,-0.0025258453,0.007865402,-0.0015388809,0.007729953,0.002531813,0.0019213896,-0.00029012884,0.0005595872,0.0046249833,0.00036555406,-0.0036013403,0.0025979658,-0.008965018,-0.0012375149,-0.0022285685,-0.0059512337,0.004528384,-0.0027848037,-0.004572904
HIST2H2AC,0.0035942248,0.009556711,0.012241759,-0.015194161,0.007643699,-0.009891554,0.004195532,-0.006466371,0.017038595,-0.0012339947,-0.005665538,0.006969809,-0.0049774284,0.0063803736,0.007089608,-0.0074387332,0.009848962,0.0012048592,0.00594645,0.0005763122,0.0069729234,0.022121115,-0.009167209,0.021623319,-0.020031339,0.006587104,-0.018019296,-0.01830591,0.0019461265,-0.013505339,-0.003345894,0.01770547,0.009750254,0.003458956,0.01428445,-0.008841776,-0.004006994,0.0029723132,-0.011366587,0.005215983,-0.0052082795,0.017215457,0.0040806686,-0.014554886,0.029295037
MTMR11,-0.0016475717,0.00035584712,-0.00081728766,-0.0032578646,-0.004132815,-0.0010468669,-0.0028326744,4.7873556e-05,-1.5053651e-05,0.004833835,-0.003283974,0.017351689,-0.007333036,-0.010346418,-0.009952927,0.015898999,0.0006229302,-0.0085546905,-0.0006832963,0.009439829,-0.010926404,0.00643918,-0.009045914,-0.0011358672,0.009867729,-0.010118615,-0.013898641,-0.010552847,0.0021011408,-0.00054241426,-0.005425625,0.007813796,-0.0028841111,-0.013784897,-0.0011873571,0.0037800767,0.0017669902,-0.0023665184,-0.0028049012,0.0062150736,-0.018235806,-0.009767907,0.018540164,0.014348162,0.00059423863
PLEKHO1,0.0046470724,0.008811575,0.00139115,0.0016246772,-0.0069114296,0.0036490532,0.009486798,0.0027988036,-0.0077090664,0.002755182,-0.00091936375,0.017327303,-0.014332009,0.0037133738,0.010693224,-0.0032193756,-0.0023875146,-0.0029266938,0.002418505,-0.0046351315,0.002185418,-0.0070827627,-0.009972072,0.0031096824,0.0018938452,-0.00877685,-0.0021658891,0.005249505,0.010027092,-0.018760215,0.0070738294,-0.010870229,-0.010202105,0.0048316354,-0.006619021,0.0070673395,0.003899745,-0.014969541,0.008560429,0.005286416,-0.0020523688,-0.01403793,0.0042535597,0.016732723,-0.0143327685
ANP32E,0.000690896,-0.0024558592,0.00050827966,-0.010427806,0.010637361,0.008136975,0.010793429,0.0057985154,0.0076927184,-0.008106709,-0.0076548387,0.0025231666,0.0005689081,0.0046702893,-0.0010671328,-0.0005773661,0.0037199035,-0.002047273,0.0025888386,-0.0054772347,0.0059158076,-0.0013163842,-0.007913088,0.005451412,-0.021885691,0.019622702,-0.0024006711,0.004982962,0.01572202,-0.003318997,-0.014544859,0.00030476032,-0.0045527876,-0.014356371,0.004009227,0.0047592926,0.0073058675,-0.0016547951,0.014019261,0.016391434,-0.0010874821,0.020088123,0.00095369923,-9.125107e-05,0.009883317
ECM1,-0.0022844123,0.0039229835,0.0037655777,0.0024236848,0.005038986,-0.00028752684,-0.0006697379,0.0015292119,-0.003335497,0.004766828,0.0035832354,0.016167197,-0.006135987,-0.00027727013,-0.003213608,-0.0047636046,0.007829597,0.0013979092,0.0074872444,-0.0024126973,0.0020722868,-0.0027382744,0.0036942165,0.012605131,0.011585625,0.003166335,0.00069821754,0.0074721463,-0.0038253895,-0.0002658258,-0.0068969415,0.00029593165,-0.0010198606,0.0043407367,0.0037444974,0.0018020888,-0.0029052184,-0.007813327,0.0032522706,-0.0029267678,0.0067607854,-0.008311333,-0.005050918,0.0027669806,-0.0035598092
ADAMTSL4,0.0037433256,0.0046452265,0.00018755933,0.008067858,-2.3905322e-06,-0.008422168,-0.0056515373,-0.019264719,-0.0011932466,-0.0021744135,0.004048882,0.0018880996,-0.0031139825,0.0045268647,0.001337652,-0.0012659067,-0.0007784125,0.005348092,0.0028734421,-0.0020592676,-0.004463484,-0.0050324276,0.0026501413,0.00022102184,0.012388665,0.00937685,-0.0033612465,-0.005585352,-0.03631173,0.004830116,-0.007730314,1.6270764e-05,0.005658574,0.013244328,0.005013398,-0.00031773734,-0.01094196,-0.005446122,-0.012503489,-0.0088969795,-0.0066735786,-0.0212206,0.020203926,-0.006877443,-0.008852415
CTSS,-0.00078614824,0.0036014353,0.0012826356,0.0016868723,-0.009272909,-0.0015951459,-0.001082905,-0.0053023202,-0.0063715577,0.0033699258,0.0060459063,0.0025107749,-0.0050335065,0.0022479666,0.0010846767,-9.174485e-05,0.005377636,-0.0006432221,0.00783074,-4.233327e-05,-0.003686704,0.0011616861,-0.00182234,0.0036618954,0.0063124574,-0.014510568,0.012025741,-0.0014948065,-0.007295831,-0.0067304294,0.008429151,-0.0058075623,-0.0073451777,0.010674493,-0.0048223403,-0.0023666443,-0.0052510174,-0.0035545684,-0.0018913022,0.0009239518,0.00430614,-0.015631922,0.009512752,0.003202371,-0.012969377
