gene_symbols,phi_0,phi_1,phi_2,phi_3,phi_4,phi_5,phi_6,phi_7,phi_8,phi_9,phi_10,phi_11,phi_12,phi_13,phi_14,phi_15,phi_16,phi_17,phi_18,phi_19,phi_20,phi_21,phi_22,phi_23,phi_24,phi_25,phi_26,phi_27,phi_28,phi_29,phi_30,phi_31,phi_32,phi_33,phi_34,phi_35,phi_36,phi_37,phi_38,phi_39,phi_40,phi_41,phi_42,phi_43,phi_44,phi_45,phi_46,phi_47,phi_48,phi_49,phi_50,phi_51,phi_52,phi_53,phi_54,phi_55,phi_56,phi_57,phi_58,phi_59,phi_60,phi_61,phi_62,phi_63,phi_64,phi_65,phi_66,phi_67,phi_68,phi_69,phi_70,phi_71,phi_72,phi_73,phi_74,phi_75,phi_76,phi_77,phi_78,phi_79,phi_80,phi_81,phi_82,phi_83,phi_84,phi_85,phi_86,phi_87,phi_88,phi_89,phi_90
SAMD11,-0.020099625,-0.0014197575,0.007881762,-0.00068602146,-0.0024303556,0.00085528725,0.012373655,-0.0010424198,-0.0032675595,-0.0013615706,0.027654339,0.006795859,-0.00072645117,-0.004122217,0.00645277,-0.0050838985,0.0040407428,0.0059015267,-0.0058952556,-0.016745076,-0.008936581,1.1105936e-05,0.020269588,0.00019710732,-0.00577227,0.019218339,0.018786117,0.014684298,0.012990567,0.001584218,-0.022465821,-0.01540337,-0.0046457094,0.022316914,-0.008379179,-0.03079057,0.0015229624,0.0020859996,-0.007901793,-0.011726141,-0.0028087017,-0.013532501,0.0054446836,0.015392989,-0.0043704323,-0.007489901,-0.0067017004,0.016801732,-0.012306,-0.00044565563,0.008702014,0.0023664339,-0.0009152428,0.000571267,-0.0023067847,0.012158043,0.00510139,0.01609454,-0.0008366945,-0.010412075,0.017845178,-0.0010075337,-0.004516822,-0.008533693,0.0077079604,-0.00417958,0.007408834,0.019913452,-0.011263615,-0.0058811996,0.005476043,-0.014137683,-0.023172753,-9.1390095e-05,0.026464622,0.020924017,0.0017173344,0.007077046,-0.05108433,0.011360995,0.011369017,0.0007412187,-0.0124084605,0.0024257714,0.006146649,0.0513994,-0.0044973358,-0.014222746,-0.013073333,-0.0013395848,0.0059114383
HES4,-0.00271574,0.011139361,-0.007813271,0.003614273,-0.0077631576,0.003125315,-0.009677974,-0.0045896564,0.0080827875,0.0044680657,0.023589535,-0.004030703,-0.023281217,0.0019893232,-0.00802221,-0.004842343,-0.010847239,-0.004952153,-0.015625192,-4.153002e-05,0.007241931,-0.005574737,0.016411245,-0.016831018,-0.009212913,0.00032697816,-0.0021693788,0.0072579426,0.00024395123,0.011834435,0.001744465,-0.008614462,0.018900802,-0.0069939084,-0.007672635,0.015284877,-0.0060474947,0.008488529,-0.0030993607,-0.0011498906,0.005477853,-0.0064759348,0.0013390038,-0.011109997,-0.008116506,0.0040316675,-0.008954444,-0.0009071399,0.011114252,0.0012230385,-0.0024086572,-0.00909738,0.015755676,-0.0018338842,-0.0054058037,-0.002308956,-0.011839566,0.007982985,-0.0057389867,-0.005938023,-0.0012800801,-0.0065132,-0.005186247,0.013310809,0.001374057,-0.0021065695,0.0065127644,0.00025174583,0.007880272,0.008976887,0.005732658,-0.0058521633,0.009051839,0.0044274163,0.0072069806,-0.0029776092,-0.00010586778,-0.0007007198,-0.006572753,-0.00829066,-0.00010827395,0.004346289,-0.0020317296,0.0036135544,0.00030474283,-0.0134158945,0.002862215,0.012552947,0.0006687912,0.01332899,-0.0046324097
ISG15,0.00079434324,0.0017511365,0.0010674105,-0.006604285,-0.0010197461,0.006711556,0.0032149418,-0.0011297816,0.0038697957,0.0043087746,-0.006391197,0.0033909008,-0.005707163,0.0015432244,-0.011295959,-0.0014388956,-0.005024672,0.011358811,-0.0061060814,0.006225602,-0.010543597,0.00826999,-0.009065131,0.0010015697,0.0050935238,0.0050765495,0.008007415,0.010674607,-0.008925716,0.003627885,-0.0100916065,0.011680287,-0.0046177814,0.0013543232,-0.014027727,-0.0060032136,-0.0024754878,0.007782158,-0.005798421,0.01113375,-0.0011237887,0.0026881525,-0.0019556708,0.00078017183,-0.004801175,-0.005844595,-0.0065318607,-0.0010831876,0.0029890595,0.0031182123,0.006595894,0.0033926396,-0.0050676325,-0.0064903703,-0.00516904,0.0016505416,-0.004956223,0.0068847947,-0.012004346,0.0038354339,-0.0030921213,0.003116672,0.0041699633,0.00034620235,-0.013358309,0.0014704859,0.0054974677,0.005153185,-0.008703521,-0.0070700995,0.0024213798,-0.008074186,0.0014206374,-0.0005322369,8.049245e-05,0.0052462304,0.006705654,-0.007574956,-0.0061142603,-0.01011649,-0.0026856416,-0.0015152821,0.0013971698,0.00054606295,0.0051550316,0.0020928713,0.0013192758,0.0018067622,-0.012136745,0.003236064,0.002582358
RNF223,-0.0019722595,0.0043657236,-0.0020314266,0.0018810903,-0.0010402336,-0.002050408,0.00043583976,-0.0019484969,-0.0038891914,-0.0015652783,0.005451173,0.004369112,0.00061993755,0.0035527924,-0.0024614006,-0.00018010683,-0.0049990197,-0.003087377,0.0009813004,-0.0037485517,-0.0069835684,0.0025720757,0.006852535,0.0035738526,0.0052031297,0.0012723821,-0.003228025,0.00047490434,0.006091558,0.0015419301,0.0034856407,0.0024579738,-0.0030242824,0.0006222658,8.2557846e-05,-0.002408115,-0.00076583296,0.0019158286,-0.006095618,0.0014873568,-0.0018338837,-0.0022503794,0.005027927,-0.001896556,-0.0016965559,0.003336602,-0.0012757047,-0.0020397143,-0.0078230295,-0.0028303494,0.006115383,-0.0040123123,-0.005822269,-0.00075755856,-0.00520477,-0.0021764669,0.0032574954,0.004859118,0.0023856529,0.0028851058,-0.0011889887,0.0049168183,0.00084468786,-7.7038285e-06,0.0020396216,-0.002242629,0.003672147,0.0039614323,0.0011017903,-0.003291238,0.0007245894,0.00077449775,-0.0031579924,0.0037666494,0.0022073498,-0.0019816638,0.0032124147,-0.0037545585,-0.008407716,-0.0018368362,0.0010519823,-0.00085516577,0.0033940221,-0.004313806,0.0013745681,0.0042552482,0.0023368283,0.0009763432,-0.005355364,0.0011965828,-0.0033498395
TNFRSF4,-0.0034034322,-0.004675474,0.0034121426,0.0012075711,0.0026499657,0.002680792,0.0028676204,-0.0027765953,-0.00049096864,-0.0055189277,0.004690077,-0.00063633296,-0.0016447392,0.01970631,-0.014907878,-0.010712867,-0.0023374378,-0.0030085966,0.006796578,-0.00084087177,0.018115021,0.0175362,0.009356128,0.0073359213,-0.018260313,-0.006140289,0.0028137425,0.007941009,0.0056597837,-0.004280023,0.0074128853,-0.0051271277,-0.0032916656,-0.0024821863,0.0052118446,0.0021389322,-0.00665337,0.0036645224,0.0043898574,-0.005951248,0.004523626,-0.0067544305,-0.003930474,0.0016333716,-0.0009958998,0.009657402,-0.0051869834,-0.004735145,0.005518586,0.0039365566,-0.0020369042,-0.007096498,-0.007579002,0.0005855455,0.0044520763,-0.0103894435,0.0040564477,0.007393325,0.00143229,-0.004935098,-0.0038964653,-0.0005554579,-0.0012033696,-0.007974553,-0.0055111703,0.00082528323,-0.002210597,0.006882145,0.011146959,-0.002186836,0.022289783,-0.013499282,0.029660927,-0.018852305,0.013110667,0.014871375,-0.0020776275,-0.0037664985,0.010862002,0.0020694686,-0.006494301,0.0066270246,-0.0012509548,0.008956844,0.0047479593,2.5097439e-05,-0.004067955,-0.007648292,-0.001925153,-0.00032930405,0.0028235863
MMP23B,-0.0019279096,-0.0022433281,-0.0006000839,-0.00649033,0.0023714926,-0.0043586185,-0.0022447272,-0.0026962818,-0.0020822498,0.0023094837,-0.0028457295,0.002925399,-0.003934579,-0.0049436963,-0.00613898,0.0014484795,-0.0053014825,-0.0048138336,0.0034602226,-0.004054869,-0.00022318894,0.0014693191,0.0053222845,-0.00025347597,-0.005130993,-0.0077294298,-0.00026691807,-0.00041108715,0.0069601256,0.007882534,0.0022805384,0.00063420576,0.0025146957,0.0018888669,0.007177765,0.008161672,-0.0003716684,-0.0039094286,-0.0050521563,0.0100183925,-0.0013940325,0.0062300796,-0.00039331496,0.005570066,0.00093531085,0.002479143,0.003499466,0.0025668563,0.00055007596,0.00011211403,-0.0044149454,-0.00014594819,0.0028397662,-0.0012739337,-0.00089808926,-0.004782783,0.0015717001,-0.007743239,0.006783653,-0.0025229352,0.007755205,0.004255932,-0.0005805865,0.013362625,0.0036868395,0.0057205586,-0.009125992,0.012578367,0.010829122,0.009125215,-0.0012826492,0.0072018052,0.0007821928,-0.0014695023,0.0062697884,-0.0037618594,-0.0013203536,-0.0011476373,0.005086661,0.001629347,-0.002905778,-0.003913635,0.0011374273,-0.0040299552,-0.005344167,0.00025459056,0.001222744,0.0008135677,0.0015041814,0.005423147,0.00036883485
TNFRSF14,0.00080063374,-0.001061566,0.004055891,-0.004293483,0.0030261646,-0.004221425,0.0006147453,-0.0054716505,0.001567063,0.00013258946,-0.004874709,0.0018611706,-0.014477271,-0.0010726196,-0.0041091866,-0.014973629,-0.006365637,0.0067637973,-0.0065303873,0.00029952714,-0.011587771,-0.0034795627,0.009917851,-0.007228628,-0.0013139569,0.0053627193,0.00075772457,-0.004989334,-0.0014120718,0.01178962,-0.00092914654,0.008334884,0.0019135741,0.012192768,-0.008144792,0.003140484,0.007275151,0.0025908174,-0.006120345,0.011022715,-0.01605846,0.010052763,-0.0029683514,0.013286275,-0.0023630825,-0.0037690247,0.0018927561,-0.0042828703,0.002681533,-0.01364029,-0.0050411024,-0.0038297805,0.0011835368,-0.0059784623,-0.012929605,0.0028263333,-0.0103998585,0.004139871,0.00258598,0.009088079,0.00045151732,0.012358564,0.012875677,0.0034731643,-0.01182241,0.0019070333,-0.0025324004,0.006303918,-0.0052866493,-0.014958506,-0.008159183,-0.01288467,0.013445586,-0.0010829873,0.006271185,0.008455778,0.014971256,-0.0031504063,0.0009774326,0.0050836215,0.014288444,-0.0028548045,0.00046234654,0.013596426,0.0064563164,0.005150093,0.0023345756,0.017740665,-0.0019326035,0.011882605,0.008657567
TTC34,-0.00029142527,0.0011744173,-0.00096142327,-0.0018052446,0.00058005535,0.0012743965,-0.0023464467,0.0015897597,-0.0002214257,0.00251597,0.00014652435,0.0010227377,0.0026346752,0.0025297035,0.0039736754,-0.0032634132,-0.0041435226,0.0013297839,-0.00015034499,0.0007342478,-0.0030476893,-0.001310148,-0.00019124642,-0.0002138217,0.004040877,-0.003557793,-0.009699985,0.0016014787,-0.0035285233,0.00061701675,-0.0028854802,0.0042151045,0.0031560778,0.001029376,-0.0017120588,0.005987221,0.001632441,-0.0065721017,0.0014039716,0.009788218,0.001320067,-0.0013171226,-0.0069350717,-0.00076830736,-0.00034769945,-0.002221879,-5.05368e-05,0.0037201515,0.005917587,-0.00253959,-0.0023721897,-0.0009111125,-0.0015141506,-0.0017670203,-0.0013515252,-0.0010175202,0.005969705,-0.002140148,0.0009033237,-0.0020613195,7.6034805e-05,0.0059280614,0.0020926087,-0.0006009825,-0.0032098761,0.00014030476,-0.006289104,0.0006359003,0.0020838939,-0.002915044,-0.0021249908,-0.0011674274,-0.00153431,0.0042074644,0.0021631916,0.0029299788,-0.0043038568,-0.0008036897,7.73482e-05,-0.0077846865,-0.0072477893,0.002179195,-0.0009655149,0.002879471,0.003139211,-0.0010132777,2.764061e-05,0.006907369,0.006534452,-0.0024571933,0.0013725479
SMIM1,-0.004187507,-0.008013552,0.0013469158,-0.0013034153,0.0035473295,-0.008394987,-0.004061831,-0.004526368,-0.004624051,0.0034208363,0.0002167931,-0.0006369454,-0.0043055774,-0.008641297,0.0017211132,0.0040882016,-0.0058925594,-0.000641302,-0.00345314,0.0029621492,-0.0060562063,-0.0015615524,0.0060935854,0.0016678158,-0.009615229,-0.0018267925,0.002721655,-0.0020037722,0.0124309035,0.005977036,0.0065835323,0.0019858181,-0.0026345586,0.0042539975,0.007300604,0.009604965,-0.003590289,-0.0004007869,-3.0167916e-05,0.007635181,0.005080903,0.008940614,-0.0039902516,0.0042558787,0.003315152,-1.7397411e-05,0.0033323707,-0.0033102578,-0.01227392,-0.006556869,-0.007731327,0.004124983,-0.0027564925,-0.007863714,-0.009479101,-0.0030372753,0.0030545434,-0.0028926898,0.008265671,0.00064419274,0.007680764,0.0052855294,0.00092984294,0.015467806,0.010063877,0.013890076,-0.011497803,0.013750067,0.016504852,0.003239429,0.0026515534,0.00055700704,0.0030141096,0.004843335,0.00570146,0.00021139809,0.0014196768,-0.0014720655,0.006769828,0.0064537236,-0.0015636593,-0.0056354995,-0.0014885907,-0.0005302275,-0.00023036111,-0.0016907642,-0.0012743063,0.008962974,0.0028604898,0.0086717205,-0.0055210665
LINC00337,2.3732151e-05,0.0009987596,0.0010061235,-0.003820136,0.0023725943,-0.0017617197,0.00033673403,0.0018626592,-0.0026856647,0.0004140875,0.0005854733,-0.0029169822,0.001654325,0.00025860305,0.0021053879,-0.00056459045,0.0037228542,-0.0024443243,0.00044065944,-0.0036849936,0.0017342189,-0.0047335164,0.0016853618,0.00062896224,-0.0034218535,0.0032672994,-0.00055980816,0.0015672283,0.0033696447,-0.0009468644,-0.0027888468,0.0043315226,0.003803746,-0.0010085363,-0.0008032709,0.0013206041,-0.0014280926,-0.0004018962,-0.0019131631,-0.0016178626,-0.0038029624,0.0010046331,-0.0029793945,-0.00021305945,0.0008635532,-0.0014390306,-0.00585794,0.0027804417,0.00025085226,0.0019002032,-0.000729448,-0.0014022214,0.0062855007,-0.0024085934,-0.0010384936,0.00018527392,-0.0043406645,-0.0007744666,0.0011900442,0.0021477167,-0.0017027702,-0.0015757249,-0.00065889314,-0.0002748254,0.00046429332,0.0013190174,-0.0024170754,0.00012300126,0.0027336592,0.0013135255,-0.0037799592,-0.0006187733,-0.0037485452,-0.0007629958,0.0016540127,-0.0015878251,-0.0011275968,0.00054032437,-0.0015224844,0.0006911379,6.6818457e-06,0.0020400186,-0.0018278003,0.0006652413,0.00023430392,0.00058448693,0.0043267817,-0.0018282997,-0.0010620197,0.0026031493,0.0010904925
HES2,0.0020060935,0.008211204,-0.0072811334,-0.0025611632,-0.0042636483,-0.0018504132,0.0022171827,-0.0069641382,0.007414075,0.005981634,0.0049232943,-0.002995794,-0.004789571,0.0059808646,-0.006837863,-0.001333963,-0.0049603134,0.0020743322,-0.0015351626,-0.0042214245,0.00324851,-0.0037985246,0.0041417736,-0.011425775,-0.004179306,0.0060342234,0.0026095149,0.00078122976,-0.00046938728,0.00018459946,0.004121949,-0.005132107,-1.9077419e-05,-0.00015909251,0.0040033488,0.0017158496,0.0016331945,0.0009780095,-0.0025202115,-0.00074149296,0.0022429717,-0.001499236,0.00067701656,-0.001297591,0.0001585862,0.0028441283,-0.0010258358,-0.005179694,0.0066023762,0.00411805,-0.0020804638,0.0068751792,0.00299485,-0.00021324695,0.0016003865,-0.0037353924,0.00085220573,-0.002293963,-2.0515967e-05,-0.00012054565,0.0036926914,0.003546708,-0.0032633748,0.00032813975,0.002524668,0.0009452508,0.0038045375,-0.002230442,-0.0011061368,-0.002166194,-0.0037618442,0.004653769,0.0020810445,0.0032975755,0.0032976542,0.00076538767,-0.00047542187,0.0019475163,-0.0047403416,-0.0043697422,-0.0016498577,0.0015758298,-0.0017440863,-0.0014448502,-0.0031263316,-0.0026541376,-0.002296635,0.0042120577,-0.0015273867,0.0046249856,-0.00022290499
ESPN,-0.00014940099,0.0016324007,0.0010037831,-0.0016249453,-0.0016545415,0.0024678605,0.0018557011,-0.0023185892,0.000876623,0.002308241,-0.0027729804,0.0018934688,0.0026167382,-0.0036436084,-0.003960793,-0.0030806086,0.005550066,-0.0017983567,-0.0021953664,0.00073047145,0.0007060012,-0.00056929555,0.0031982558,0.0044938144,0.0007389924,0.0062258393,0.0008694515,0.00019703219,0.0064481297,0.0031490168,-0.0007280827,0.0062042465,-0.0009132122,-0.0032037166,-0.0025326456,0.00423973,-0.0008787613,0.0027652578,-0.0007887325,-0.0016566223,0.008300647,-0.001049398,-0.0032211056,-0.0018683834,0.0041997335,-0.0016965286,-0.007492783,0.0011137562,0.00341609,0.001939577,-0.0032970917,0.0059390464,0.0023208708,0.0029229473,-0.00014449167,-0.0010712907,0.009479204,-0.0017293711,7.5641714e-05,0.007305352,-0.003740403,0.0014724331,0.0072173,0.00926061,0.008311555,-0.00058484403,0.011278621,-0.0028491102,0.0060327863,0.008403423,0.0043436536,0.0033631416,0.008209827,-0.002496043,0.006470436,-0.007527321,0.00022427001,-0.0004995544,-0.0008767873,-0.00030621816,0.0011843537,0.003961179,-0.003532245,0.003072214,0.00890012,0.0010189658,-0.0047368724,-0.0021022086,-0.00025866606,0.00030418296,0.0052164574
TNFRSF9,-0.008504653,-0.003707801,-0.0026677395,-0.0036813011,0.001110453,0.0026033954,0.005230713,-0.003918599,-0.00511486,0.0018500413,0.009730809,0.005022471,-0.00091593753,0.03815624,-0.034937058,-0.04203846,-0.010315102,-0.007856592,-0.0058314553,-0.008237935,0.047940943,0.0072752926,0.027599603,0.056915894,-0.01816849,0.006171782,0.029491043,0.008146454,0.01839114,0.0031457134,0.00068143517,-0.016529609,0.008927614,-0.017538905,-0.033743292,0.019338699,-0.0021243538,0.007096257,0.0023777697,-0.0030566542,0.016273048,-0.029101282,-0.015338636,0.005342537,-0.024186885,0.012451405,-0.01835471,-0.01688026,0.017103367,0.013901784,-0.000815078,-0.027011212,-0.006944578,-0.025304895,0.008567002,-0.010634862,0.0015882918,0.006451571,0.010739575,-0.013241637,-0.007870508,0.007383793,-0.010627209,-0.0030327118,0.0039980425,-0.0067831916,-0.0055614286,0.00671989,0.012052107,0.010352157,0.019936677,-0.011649654,0.02562528,-0.025461467,-0.0003836206,0.007977622,-0.003338268,0.01842679,0.005197295,0.01894858,0.009921947,0.003280304,0.013380393,0.0048935465,0.012261285,-0.0020929885,0.014647265,-0.011655718,0.019697737,-0.0045361603,0.0036664947
ENO1,0.017751439,0.046523623,-0.0009025115,0.04311478,-0.028966056,0.0729083,0.00050747534,0.0021018072,0.033403177,-0.03681706,0.02652415,0.0061154487,0.035723742,0.024527948,-0.008641762,0.011230119,-0.0019642825,0.04679709,-0.0049516736,-0.0027891207,0.0046594827,-0.043382417,-0.012258911,-0.009607964,0.022257661,-0.015267726,-0.012230976,0.03969567,-0.05274818,-0.018705703,-0.0039866823,-0.025258908,0.02782397,-0.044935815,-0.017691728,-0.029725164,-0.014906848,0.014896861,-0.0060788114,-0.03582452,-0.012928383,-0.028520098,-0.016555106,-0.029031431,-0.013326658,0.0099678915,-0.008370071,0.031412117,0.04052362,-0.007454832,0.016052334,0.011232791,0.018772945,0.019943798,-0.0019777657,0.011878723,-0.041958738,0.006660535,-0.008928466,-0.02224253,-0.06837813,-0.019626128,0.009425006,-0.013397267,0.0004943422,-0.03399846,0.007606715,-0.04010585,-0.032809198,-0.0055916025,-0.008473987,0.018895306,0.014832444,-0.002366637,-0.006550563,-0.009751491,-0.005078018,0.013940332,-0.043837067,-0.02706104,0.015145465,0.017905705,0.024639798,0.017266953,-0.017358653,-0.03149404,-0.034052655,-0.0202275,-0.022953227,-0.00945399,-0.0036247512
GPR157,-0.00097604014,0.000412385,-0.0014405706,0.0016574423,-0.0017748135,-0.00038735385,0.0018298328,0.0013898985,0.0026153943,0.00086656096,0.0017749312,-0.0014592473,-0.0003126991,0.0016586456,-0.004051282,0.0017615744,-0.0016768291,-0.0029633439,-0.0009805232,-0.0028267736,0.0006754991,-0.005986214,-0.0020515104,-0.0027142277,-0.00034944847,-0.0014148538,-0.0004963857,-0.00020229713,-0.0023475422,-0.0014536559,0.00054972613,-0.0029766914,2.163926e-05,-0.0004165402,0.002900384,0.0009234779,-0.0019357061,-0.001546121,-0.00035572133,0.0010317729,-0.0017138975,0.00091031386,0.00022993042,-0.0003979708,-0.0013640106,-6.450934e-05,-0.002022978,-0.0004131507,0.0012458423,-0.00081511575,0.0006113925,-0.0015167365,0.002889318,9.602688e-05,-0.0001177532,-2.8579489e-05,-0.00093097286,-0.0010898628,0.0006003308,0.0032320675,9.504415e-05,0.002755131,-0.0030624075,0.00015752316,-0.0014933692,-0.0011556013,-0.0020066858,0.0002533001,-0.001119764,0.0016990206,-0.0011802859,0.0017049728,0.0013980145,0.0010878649,0.00037695127,-0.001648346,0.00045158766,0.0036658829,0.0008763166,-0.0008541915,-0.0017856788,0.0007660182,-0.00015780517,-0.0009422232,-0.0032826618,-0.0027813278,-0.0011149974,-0.00036867484,-0.0029631692,-0.0007530872,0.0007545786
H6PD,0.00060106284,0.0007848241,-0.004804527,-0.0019106049,0.00084228464,-0.0061766994,-0.00448797,0.00082054373,0.00035690877,0.0013517218,0.0024015347,-0.0020838962,0.0041595954,-0.0023826803,-0.0049209897,0.0016621221,-0.0014054744,0.00023504307,0.00326511,-0.002703707,-0.0042415345,0.0033966065,0.0019242387,0.002334009,0.0012552746,0.0028859777,-0.002478416,-0.0020633778,0.0073058945,0.0057814177,0.0037125489,0.0021219028,0.002643965,0.0027400472,0.0051594167,-0.0002506915,0.0036260134,0.0018605246,0.007805657,0.00024261262,1.0913235e-05,-0.00529729,-0.001884945,0.006613986,-0.0014155346,0.002175027,-0.0022155617,0.0020672537,-0.001405501,-0.0009599574,-0.00019844747,0.0055326256,0.002946497,0.0032046807,0.0057032206,0.0020429725,0.006037811,-0.007464017,0.0008594585,0.0018691684,0.006568817,-0.00022804156,0.0029996752,0.004796603,0.003600868,-0.0004222321,0.00072161574,-6.785478e-05,-0.004102972,-0.004692773,0.0006639623,0.0027719082,-0.0015546384,0.0006519104,0.0069887787,0.0073798294,-0.00062672264,0.0028236618,0.00097102334,-0.0027911197,0.001017082,-0.0020768903,-0.003035104,0.010300353,0.0051769805,0.0021613226,-0.006725483,-0.0019794307,-0.0004166082,0.0051311324,-0.00013680186
PGD,0.0016706215,0.002139048,-0.0022774432,-0.0028366297,-0.0068344744,0.0003509265,4.1984757e-05,0.0050444617,0.0074722995,-0.0029588824,0.0005184857,0.0023382427,-0.004959531,-0.002796765,0.0035357764,-0.0006924276,-0.004571237,0.0029366426,0.0005498831,0.005763749,0.008685578,-5.3162163e-05,0.0071413037,0.0021002148,-0.0019036883,0.0019314395,0.005847235,0.004801126,-0.0054667643,-0.0056161336,-0.0018304982,0.0024259284,0.005637446,0.0016949486,0.0018681949,0.015192574,0.00805958,0.0066535976,-0.007086443,-0.0039887633,0.0040995935,0.0035677226,0.00090446736,0.010010662,0.007545528,0.014196381,-0.002129668,0.0033819855,0.0060533555,0.010292476,0.007042159,-0.004389005,0.011938684,0.009938957,0.0028104866,0.0011396861,-0.0036506685,-0.008465285,0.006409939,0.002568252,0.004604142,0.00600601,0.0017125531,-0.006990428,-0.006955688,0.0013662123,0.008108947,-0.00038618816,-0.0049217236,-0.002937396,-0.005359686,-0.00236592,-0.0012439111,-2.3467117e-05,-0.00394871,0.0045990874,0.00097087194,-0.0072883996,-0.0034159739,0.00020468001,0.0007448646,0.0035521407,-0.0015021669,-0.0056346054,-0.0061407345,0.011857772,0.003934003,0.022852704,-0.0055364007,0.004622437,0.005631267
MASP2,-0.00033478366,0.0024173097,0.0016819295,0.0009835988,0.0008466636,0.00061538885,0.00047652362,0.0032156666,0.0018848765,-3.2446553e-06,0.0010334881,-0.0019371455,0.0014053403,0.0016444123,-0.0025234157,0.0014154097,-0.00032795215,0.0011190186,0.002782905,0.0011323427,-0.001996519,-0.00042562996,0.0010856916,0.00045816888,0.0021793642,0.0021882944,-0.0003143001,-0.0010234646,-0.0016302272,-0.0011436963,0.0010886285,-0.0012738252,-0.0012416645,-0.0013835648,0.0003171277,-0.0012005824,-0.0004250195,0.0012934104,0.00044086485,-0.00027636104,-0.00031895575,0.001961504,-0.00014683872,-0.00036789553,-0.0009863426,0.00019492835,0.003012508,0.0015624781,4.3889264e-05,0.00066705444,0.00014137448,-0.0031410672,-0.0029763018,-0.0018880889,2.1701621e-06,0.0013983403,-0.0024398533,-0.0013682618,-0.00022826224,0.00041693688,-0.002918011,-0.0015056011,0.0005673216,-0.0019402847,-0.0030570414,-0.00017271476,-0.00055634923,0.002416458,0.0002143192,-0.002411305,-0.00258883,-0.00057405006,-0.001056875,-0.0014819762,0.0034822961,-0.0011856705,0.00043339765,-9.925545e-05,-0.0006240354,0.0008152792,0.00035470873,-0.001385295,0.0005094397,0.0019703817,0.0011533642,0.0007608606,0.0034571404,-0.000747014,0.00038346217,-0.0024571482,-0.0009658921
SRM,0.008413769,0.016403327,-0.0038809574,0.05028012,-0.014862326,0.029818272,0.0044869394,0.009239243,-0.0005476366,-0.010967507,0.014942027,-0.020600256,0.021416234,0.0010307403,-0.0128474245,0.030494826,-0.0014856785,0.006784292,0.00016791695,0.014352287,-0.009356833,-0.0065128575,-0.0069411285,-0.016292766,0.0083996225,-0.0118468655,-0.031220948,0.008621031,-0.023285007,-0.006098304,-0.011735704,0.0051083565,0.018099602,-0.022292793,0.015915362,-0.01124244,-0.018613255,0.012298084,0.0004686848,-0.03710131,-0.026179068,0.0038855728,-0.015736507,-0.059951004,-0.012384358,-0.008848015,-0.011236779,0.003940605,0.021761784,0.01589046,0.005441158,-0.0020866846,0.017482346,0.0029197817,-0.0063215652,0.0013117831,-0.02870205,0.0027379335,-0.011509575,-0.009192709,-0.016455641,-0.0014404927,0.016170166,-0.018669276,-0.008482446,0.002490453,0.0064254617,-0.037646256,0.0092313215,-0.0060369144,-0.007727802,0.0041383565,0.0143915275,-0.0133313965,-0.0051462213,-0.0077118655,-0.008861227,0.011074619,-0.00819861,-0.01590111,-0.0062624626,0.011290286,0.0057461825,0.017946338,-0.0063007534,-0.030470405,0.0021798587,-0.021822883,-0.00548095,-0.013447713,-0.004854764
DRAXIN,0.0013591166,0.0012166898,-0.0025114713,-0.0002666631,-4.3622957e-05,-0.0016387389,-0.0014505386,-0.000730004,-0.00069991115,-0.0010538067,0.0013303425,0.00014156915,-0.0012031974,-0.0010001,0.001406693,-0.000111890535,-0.0008554203,0.00060763664,-0.0005809078,0.0012064283,-0.00097577256,0.0010926273,0.0013285514,0.0016380481,-0.0025359446,0.00016444763,0.0013218439,-0.00044951926,0.0003434928,4.3155218e-05,-0.00087259215,0.0019226326,0.0022360964,0.0015772065,0.0012570722,0.0035308616,-0.00027405334,-0.001956652,-0.0003198613,-0.00042835643,-0.0018646332,0.00047023542,0.0006317478,-0.0026719628,-0.0022040948,-0.00034797695,0.00016057014,-0.0024670844,0.0015757171,0.0005491884,-0.0016046287,0.0016286524,0.0004248749,-0.0006051996,0.00025911882,0.0008003561,0.000801889,0.003363726,0.0018366086,-0.00068639277,0.00035187945,0.0007070704,-0.00036747605,-0.0004571187,0.00266457,-0.0005793954,-0.0012091966,-0.0015233007,0.00066739577,-0.0010611621,0.0025987965,0.00023439278,-0.0015652177,-0.0016856097,0.0022167477,-0.0034227977,-0.00043860715,-0.0019171975,-0.0014787851,-3.455644e-05,-0.0005067106,-0.0022179303,0.004603841,-0.0011805336,0.00053141045,0.002947481,0.0017519821,0.0014983981,-0.0013937129,0.00039984775,-0.0006727239
MTHFR,-0.002037963,-0.008157463,-0.0018055432,-0.0045640464,-0.00011686071,-0.007736549,-0.0046126707,0.00067751104,-0.002934107,0.0029274672,-0.006851907,0.0049384115,-0.0051451772,-0.010437888,-0.00051924126,0.0026798197,-5.4181473e-05,-0.009550309,-0.00091947394,-0.0015811805,-0.005169863,0.0015000531,-0.0010798337,0.0068604965,-0.0017765576,0.004720392,-0.0026357954,-0.002793862,0.0046424326,0.006371152,0.0032253368,0.0023343526,-0.006204293,0.010395051,-0.0014672235,0.0036699693,0.00047670628,0.0012127211,-0.0022394236,0.008922519,-0.0035955764,0.00288368,-0.003254337,-0.0019311619,-0.0015827765,-0.0029202292,0.00012123117,-0.0033147626,-0.010065817,0.004319112,0.0022695854,-0.0021743055,-0.0020596788,-0.005306135,-0.0043148855,-0.0007795032,0.0012923238,-0.002232227,0.004913564,0.0051277806,0.00789621,0.0049158763,0.0015646197,0.007347846,-0.0016659364,-0.00044214347,-0.0070022824,0.01016553,0.01034253,-0.0012177168,0.0049203136,7.874592e-05,-0.0006972642,0.004257887,0.0031789627,-0.00077916466,6.985312e-05,0.0014374864,0.0050579975,0.0039139804,0.0018603017,0.0024973152,0.0034667924,0.0008319363,0.005476958,-0.0013457729,0.002763173,0.0015412748,-0.0015113276,0.006532034,0.00036309412
PDPN,0.0021326095,-0.0018083644,-0.0017335704,-0.003282115,0.0019477623,-0.0023519283,-0.0030440388,0.00021900419,-0.000895956,0.0018112584,-0.00211598,0.0023147329,0.00051099504,-0.00023096477,0.0013120396,0.0012511673,-0.0012042427,-0.0020987038,0.0026923267,0.0035510552,-0.0008975862,-0.0005906356,-0.00082680356,-0.0005640991,0.00010881137,0.0013040174,0.00037822468,0.00044584635,-0.0014047817,0.0022291623,-0.0009946441,0.000586558,-0.00039572263,0.0005473412,-0.0010168231,0.00046212206,0.0013953032,-0.00080014765,0.0020244378,0.0011233158,-5.190578e-05,-0.0010078747,-0.0010497465,0.0014465817,-0.0004446061,-0.0007467388,-0.00081029267,0.0015296704,-0.0007722736,-5.6135686e-05,-0.0009504685,0.0020763061,0.00047770242,-5.9511418e-05,-0.0015740824,-0.0007069059,-0.0009948931,0.0003618374,-0.0007758188,0.0015149058,0.0006911103,-0.00013817764,0.00042645098,0.0012269645,0.00077454996,0.0019897444,-0.0005252499,0.0006940551,-0.0011763471,-0.000746589,-0.0014493851,0.0012449067,-0.0014115509,0.00015783796,-0.0028125462,0.00012588679,0.00062663323,0.0009899398,-0.00069572055,-0.00033683883,0.0004232692,-0.0021605548,-0.00079296716,0.00083277567,0.00034320852,-0.0003492233,0.0011955913,0.0010074774,-0.0018124519,-0.0003687103,0.0002110893
CELA2A,-0.00019239102,0.00034560834,-0.006682262,0.005553209,-0.005297995,0.004225137,0.0053449553,0.00680319,-0.005270092,-0.0065302267,0.006942044,-0.00330592,0.0035061443,-0.002358233,0.0011047677,0.0001524122,0.0054860306,-0.0021331655,-0.005266623,-0.008347554,-0.008979743,0.0012111899,-0.002035643,0.0066994736,-0.0014863521,-0.0023486894,0.002643887,0.008810003,-0.00047957464,0.001910888,-0.0043584756,0.00264017,0.0022620428,-0.0012936718,-0.0034262121,-0.008948656,-0.0060507185,-0.0038174184,-0.0071041384,0.011865602,0.006633719,-0.0033217068,-0.0047349366,0.010659511,-0.0021430312,0.011904633,0.012242734,-0.010723928,-0.020294573,-0.017073773,0.006725008,0.015942838,-0.009319182,0.011682177,-0.011657275,-0.0028899924,0.0065246504,0.009676593,-0.0063909087,-0.001256897,0.0065282695,-0.0080530085,0.005925235,0.013679383,0.016449468,-0.005540954,-0.0066251066,0.014688599,0.0003083434,0.009621597,0.00033778514,-0.00635889,-0.008474543,0.012760823,-0.002201732,0.0030535883,0.0016060804,0.0046144053,-0.011977206,-0.010818862,-0.008033886,0.0047457158,-0.006262204,-1.6426711e-05,0.0006130949,-0.0010339415,-0.004581659,0.002256952,-0.0047953315,-0.0032959466,0.0008341164
CELA2B,-0.0034243914,-0.0082947435,0.003540776,-0.0010828323,-0.0023275954,-0.000112148715,-0.0002508404,0.0044994215,0.0010470692,0.0051805843,0.0013748582,-0.00017410425,-0.00059730024,0.015315687,-0.006952292,-0.0061366525,-0.011399579,-0.0021485856,0.009877392,-0.016872669,-0.00804038,-0.007735936,0.0023422707,0.0073244027,-0.0011836125,0.003843769,0.0003071842,0.004173536,0.0038883043,-0.0007409875,0.0051597636,-0.0037748367,0.0132570155,1.1942744e-05,-0.005322227,0.0041190125,-0.00288691,0.0041474793,0.0015478524,0.0022444823,0.0039985506,0.0043538427,0.0004467018,-0.0008582898,-0.0009761823,-0.0013363769,0.0034568876,-0.0008128799,-0.0060283826,0.0054023615,0.006353261,-0.007053733,-0.003591494,-0.0015636355,0.0012633787,-0.0040236074,0.0016513208,-0.0042897067,0.0069984575,-0.0026930713,-0.0019223953,0.0025400685,0.0014124928,-0.0009654242,-0.005761102,-0.009292592,-0.0014207191,0.005106636,0.0005322899,0.00234938,0.0035450254,0.006422562,0.0017372872,-0.001589221,-0.0027679398,-0.00029805535,-0.004483763,0.0037944498,-0.00096353993,0.0025622495,0.0028236061,0.0007630369,-0.0021185593,-0.0002520538,0.007837562,-0.0013436007,-0.0026190293,0.0058318223,-0.0019064154,-0.0037767428,-0.0020206457
PLA2G2C,-0.0032458054,0.027100097,-0.0028796822,0.03569526,0.006810307,0.008367786,-0.0073036416,-0.015530437,0.034959417,0.0034031656,0.022045175,0.0050655846,0.020349428,-0.018610958,0.027829036,-0.043416504,-0.01605817,0.008659693,-0.00017948596,-0.02480445,-0.026453072,-0.0023881956,-0.0131180575,-9.1266425e-05,-0.035463963,0.015320042,0.042614352,0.055634063,-0.021340244,0.018053409,-0.054459423,0.04086496,0.047773622,0.0027367452,-0.016928043,0.07509287,-0.031390894,0.03362842,-0.027893912,-0.0025088475,0.08037795,-0.02454682,-0.029076884,0.044509687,0.04136021,-0.012554287,0.0320538,-0.048903845,-0.022880722,0.04881589,0.027575742,-0.024866648,0.027218904,-0.01174166,0.073694274,-0.003740895,0.040481277,-0.055050652,-0.0012625832,0.025572596,-0.011756078,-0.044376586,-0.06696611,0.011925083,-0.0548341,0.001302114,0.024105838,-0.045166057,-0.030333376,-0.03364713,0.009658134,0.0138173085,-0.0031122006,0.10743896,0.0354317,0.0962468,-0.022490252,-0.004638141,0.010675517,0.014932064,0.0029452902,-0.032462075,-0.035652705,0.01781176,-0.010808771,0.039450847,0.011379139,0.059277587,0.00136332,0.013058709,0.040097162
HP1BP3,0.0047544003,-0.0067341523,-0.003505244,0.0010687304,-0.0021525456,-0.0054358407,-0.013769725,-0.00025083468,0.004574022,0.001433938,-0.0070436797,0.00049164105,-0.008894487,-0.01078516,0.00094735675,-0.0024889489,-0.0063769273,-0.0051219105,-0.00536214,0.0050519337,0.0033003348,0.005203392,0.0070003616,-0.00032782563,-0.0072649647,0.0005710241,-0.007645325,-0.0010821492,0.007138475,0.006642139,-0.0010357255,-0.0034315763,0.0019050874,0.0015255774,-0.0002409606,0.0042786105,-0.0034786465,0.0053174887,-0.0044491156,0.0031401513,0.0013107372,0.0006435741,0.001822547,-0.0038345081,0.0014213704,-7.887007e-05,0.0009085005,0.001499114,-0.00045641838,0.0011956827,0.0008181529,-0.009336387,0.006132931,0.0056483354,-0.0050796103,0.00027528242,-0.0027325484,0.000929766,0.00092464103,0.0046325224,0.00040130373,0.0005162366,-0.006813154,0.010864167,-0.002099124,-0.0056553907,-0.000115493174,0.010063064,0.005757747,0.006785075,-0.0011777878,0.00043394885,0.0015469156,0.0025508364,0.004412707,0.0019481403,-0.0016404997,0.005116325,-0.0049580275,-0.0006575181,0.0067732725,0.0034417284,0.0009320732,0.0008713264,0.0026245299,-0.005558994,-0.004110583,0.006468891,-0.0029039974,0.003716546,-0.0027679303
CDC42,-0.0010606033,0.0007254852,0.006534377,0.0032691176,0.0003581389,0.006596656,0.0043888455,0.0009420034,0.003315105,-0.005758075,0.0014936333,-0.00226229,-0.0020622334,0.0029940037,0.0046597654,0.003915412,-0.0005495423,0.0043991446,0.0026968156,0.0017853712,0.0050533,-0.0070963786,-0.006295311,-0.005689405,0.0030141405,-0.0009779097,0.001978583,0.0012287457,-0.00210993,-0.004467542,-9.354702e-05,2.8782939e-05,0.0008047702,-0.0048865485,-0.005031082,0.0009782607,-0.0013324724,0.0019644662,-0.0044637797,0.0010966018,-0.0025530108,-0.0077598165,-0.0049178563,-0.00032779627,-0.0034343794,-0.002777957,0.0012430704,0.010540978,-7.583879e-05,0.002695364,0.0010219109,0.0031165988,-0.00083263015,0.00072283734,-0.0019991703,0.005457141,-0.0049059726,0.0012325493,-0.0010234945,-0.003339784,-0.0033417344,0.0011185255,0.0013143909,0.0025266325,-0.0007854406,-0.01017257,0.0061358144,-0.004329097,-0.005499311,0.0026089486,-0.004089418,-0.00577466,-0.0031886685,-0.002627963,-0.005143405,-0.0020502582,-0.0023879763,0.0027729499,-0.000863218,0.00075087737,0.005936364,0.0026063751,-0.0022721998,0.001561713,-0.0039220117,0.003472471,0.0019476578,-0.0017656425,0.0020471578,0.0011218588,-0.00041766567
ZNF436-AS1,0.00014930956,-0.0028086775,-0.00039183244,-0.01112741,0.004665916,-0.0023421242,0.0013066321,-0.0011698523,-0.0053691156,0.0032886348,-0.0047631706,-0.0022272551,0.0008967757,0.00056415866,-0.0048834844,-0.0052818907,0.0013890252,-0.003924097,0.00014443383,-0.00439688,-0.0043026223,0.0028143781,0.008503203,-0.006567041,-0.0016172143,0.0016922173,0.0030317802,-0.00080191967,0.0052651367,0.0017441098,0.0018252217,0.00064593833,-0.0065927487,0.01028266,-0.0010127262,-0.0019166033,-0.0014979889,-0.0028346418,-0.010224172,0.009210974,0.0037408578,-0.0018154808,0.00032118568,0.005732798,0.00847024,-0.0032010311,0.0026942722,0.0036839116,-0.002663057,-0.002232588,-0.003209202,0.0046170345,-0.005664458,-0.009011605,-0.0037881476,-0.00079823483,0.008664385,-0.0013867872,-4.800435e-05,0.001187725,0.006139991,-0.0013738847,-0.00091286085,0.0065821535,0.004484958,0.0047656717,-0.0030769391,0.007986641,-0.006387294,0.00017626859,-0.011066729,0.0010573252,-0.008400954,0.003547504,0.0018430507,0.0013537835,0.004560742,0.0017884806,0.0046341885,-0.0027282105,0.0068303472,-0.0017909686,-0.0015828595,0.002591612,0.0045154574,0.0059399605,-0.0012993112,-0.0078007947,-0.0010301081,0.0007782873,0.0056811534
ID3,-0.08372907,-0.05912151,0.02838248,0.0066601974,-0.020312317,-0.016963197,0.040962838,-0.016614912,0.04698224,0.019797135,0.025972052,0.022721013,0.01562514,-0.020044297,0.00011336972,-0.018195227,0.00511001,0.010466408,-0.0198191,-0.020859059,0.00928313,0.009269372,-0.01440953,-0.0039250324,-0.0052331984,0.014210938,0.0005877548,0.017666364,-0.029017558,0.049528275,0.02077985,-0.06113565,-0.0059215548,0.11062992,0.025374899,-0.04937156,-0.00048472336,-0.010966619,-0.00957945,-0.026145784,-0.006161391,-0.033939783,0.0049359337,0.02538373,-0.0070186076,-0.0029685998,0.0023741967,0.010089948,0.010086897,-0.008304495,0.03451675,0.033656426,0.0072979582,0.023013322,0.004774925,0.021129193,0.005733664,0.02559753,0.010633536,0.019656766,-0.03173372,0.008200927,0.0028699306,-0.008551682,0.017580578,-0.04782644,0.028016008,0.07465659,-0.03149273,-0.03745914,-0.0012146954,-0.017658236,-0.010327771,0.032796968,0.0039128535,0.0036884,0.01337535,-0.010056908,-0.09672953,-0.033667486,0.03250777,-0.015690168,0.013931106,-0.0054099183,0.019167231,0.11021905,0.04303117,-0.08015209,-0.020869557,-0.023839237,0.0055383723
HMGCL,0.00055912515,0.0029879496,-0.00296228,-0.0043962128,0.0009873437,-0.00092319207,-0.0030988911,0.00066123094,0.003633552,-0.002085017,-0.00049412774,0.0014335058,0.0029401684,-0.0056188987,-0.003048107,0.004042426,-0.0070744227,0.0037129507,-0.0054431777,-0.0075161136,-0.00039675823,-0.0058732233,-0.0029738692,0.002732867,0.00014073432,0.0021827722,0.0033645078,0.006886458,0.001217376,0.007350736,0.0012410558,-0.004028431,0.004070517,0.0016596718,-0.009250348,0.0019873062,0.0050098565,-0.006040455,-0.005284274,0.01267326,0.00021304666,-0.007244766,0.0039606034,0.010984867,0.006669398,0.0005044782,-0.00091011974,0.008312064,0.000108562635,-7.330537e-05,0.0033628824,-0.0037339807,-0.0009955392,-0.0059228744,0.0037635984,-0.0023544293,0.0019412474,-0.0045747026,0.006288075,-0.0015156772,0.0014976269,0.007685213,-0.006578656,0.0090824235,0.0015283446,-0.009184167,-0.0077891876,0.0064424025,-0.011044681,0.003248651,0.00073056924,-0.0011835386,-0.0029165747,-0.00040688599,0.00044382544,0.001538712,0.0063775787,-0.005205862,-0.0054128533,0.0011938912,0.009304644,0.0006536113,0.0030992269,-0.0018050105,0.00030057036,0.0037041735,-0.0076820245,0.00118258,-0.007014525,0.0045469245,-0.0017172782
FUCA1,0.0020055533,0.00053483207,-0.004346654,-0.001958187,-0.0004222708,-0.0046993066,-0.007048152,-0.0015328252,0.004273562,0.002332795,1.8039767e-05,0.0028771576,0.00217177,-0.0013149162,0.00066418375,0.0022223603,-0.007240367,0.008208487,-0.0041697226,-0.0009994296,0.00025910008,0.0026350399,0.0048532966,0.0008938264,-0.004503234,0.0048560016,0.0029485046,0.009463288,0.0034728418,0.0032832387,0.0005631053,-0.005204094,-0.0024603233,0.0050336746,-0.0036288432,-0.00022899474,0.0034927665,0.000804432,0.0021215011,-0.0008013926,0.0026035367,-0.005125502,-0.007590011,0.008487702,0.0066360966,0.0051202327,0.0013863139,0.0019056067,0.0009141021,-0.002215549,-0.0055257757,0.0021268558,0.001997807,-0.004072077,-0.0040319227,0.003177885,0.0034079023,0.0025017045,0.0055686804,0.00030328296,0.0052685854,-0.002301785,-0.0031357196,0.009013484,-0.0010821705,-0.00794798,0.00038209063,0.00833062,0.0015050041,0.0070378506,-0.0036480378,-0.0020338206,0.000652185,0.0020227304,-0.00022801776,-0.004996207,-0.0019606329,-0.0009867168,-0.004172033,-0.00015637987,0.0042769546,0.004826347,-0.00709186,0.0012430744,-0.010218896,0.0018329282,-0.012286758,0.0014711394,-0.0023486794,0.0035676868,-0.00047909614
CNR2,0.0010074588,-0.000840092,-0.0023056152,-0.0006360128,-0.0034685442,-0.0010420589,0.0008852804,0.0022020065,-0.0014287389,-0.0027055542,-0.0015450722,4.4053017e-05,-0.0019729359,-0.00044315148,0.00215986,0.00065152213,0.0007404213,-0.00028089082,-0.0002069746,-0.00034765966,0.0025963588,-0.00017387256,0.0006194173,-0.0005385279,-0.0005771448,0.0027800607,0.004037501,0.00027439787,0.0056926506,-0.0041027903,-0.005297083,0.0048202043,0.0051439805,0.0011746079,-0.0027011994,-0.00076890585,0.002769799,0.0010383965,-0.0032467789,-0.003535218,0.0038256117,0.0015880896,0.0026131952,0.0012920635,-0.0006543632,0.001219447,0.00014052843,-0.0003873752,-0.00089829584,0.0033665234,0.0022982499,0.002340793,0.0012060931,1.6042379e-05,0.0014287115,0.0004759669,-0.0008975708,-0.0050187646,0.0012420425,0.0049720057,-0.000692485,-0.0019382687,-0.0062319105,0.0006525821,-0.0017045885,-0.0018481618,-0.004512474,0.0006635383,0.00015424663,-0.0016171993,-0.0010518156,-0.00050503685,-0.0016856844,0.0012461786,0.0023956087,0.006758168,0.000993001,0.002044298,0.00066166685,0.00018067703,-0.000207237,0.00062009535,0.0001260727,0.00015645055,-0.0054602083,0.00062215695,4.9400125e-05,0.0019060951,-0.002037545,0.0030029416,0.0020171227
SYF2,-0.0010716409,0.004762967,0.0042883325,-0.0098711895,-0.0010634416,0.0032079876,0.0022408557,0.002107644,0.007836943,-0.0040428867,0.0026594463,0.012506644,-0.00016014243,0.004996304,0.0036546222,-0.0032425697,-0.0021469803,0.007010937,0.00060534145,-0.004517176,0.008288617,-0.007825339,-0.0047498858,0.008759354,0.008351216,-0.0004710623,0.0075897933,0.007778262,-0.0037480933,-0.0015309392,0.0042390567,-0.0031851826,0.0025335262,-0.0057108635,-0.008735669,-0.0019638364,0.0035233805,0.0031576287,0.0012439626,0.010835416,0.002052285,-0.016059631,0.0040589552,0.011526945,-0.0061207023,-0.0034300406,-0.0048007783,0.00455175,0.0048727007,0.003390922,-0.00569839,-0.0024228236,0.0038368292,-0.005672481,0.0012359913,-0.0034048753,-0.0027950315,-0.0042437953,-0.0033456648,0.0013237658,-0.006022152,0.0061894082,-0.0023451638,-0.00023306262,-0.00064626493,-0.009987142,0.0006193468,-0.00036689793,-0.016993998,0.005030429,-0.00026761013,0.0012386086,-0.009060787,0.0024364984,-0.0056841946,-0.0020579612,0.0073825833,-0.002153002,-0.0035285074,0.00016782487,0.0061704977,0.0030251534,0.003921408,-0.007852561,-0.0035093706,-0.0012261702,-0.006807295,0.006750578,0.00040321233,0.005113949,-0.0020579752
RSRP1,-0.002568576,-0.004080843,-0.0017710418,-0.0053214687,0.0017283878,-0.0055255946,0.0007249138,0.0005952194,-0.001402728,0.0025023052,-0.0011918296,-0.0009780604,-0.0011535906,0.00065479043,0.007477971,-0.0023095643,-0.0033263736,-0.0011901036,-0.0040670256,-0.0046788943,-0.00024119607,-0.0027208263,0.0042944183,0.0019517324,0.004244512,0.00018723692,0.0045330753,-0.00594729,0.0010650872,0.0015891204,-0.0016580725,0.00070811063,-0.0050767534,0.006004058,-0.0018447855,0.0046008527,0.005335125,-0.00028574932,0.001959253,0.0059878575,0.0067457687,0.0022477584,-0.001091226,0.011386324,0.006036397,-0.0029372396,-0.0009740162,0.003658447,-0.011661214,3.7895403e-05,0.0043548644,-3.5538837e-06,-0.00091757544,-0.0018072953,0.004471454,-0.0010109894,0.0030757857,0.00092506333,-0.0029749556,0.005899552,0.007291078,-0.0017044174,-0.006328257,0.004682699,-0.0060511664,-0.0034374618,0.0016737904,0.0066477153,-0.0008034206,-0.0014576793,-0.0017548495,-0.0023151308,-0.0040258737,-0.0009069743,-0.0017751934,0.0039525875,-0.0007089656,-0.005890097,0.006222022,0.0075985016,0.0008035106,-0.0010690561,-0.004251111,-0.00042591357,0.0074303895,0.008963142,0.003045601,-0.0021192806,0.0021649385,-0.0027073484,0.0056784204
MAN1C1,-0.00062057783,-0.0004516635,-0.0012949969,-0.0012895082,-0.00016839805,-0.0003074929,0.00090705935,0.0031356865,0.0024922274,0.002359562,-0.0007408696,-0.000713621,-0.003283556,-0.0006765749,0.00096662086,-0.0018503923,-0.0031184137,0.0022262994,0.0029987623,0.0010666176,0.002890756,0.0026032983,-0.0030408993,0.00047426243,-0.0027645824,-5.5855116e-06,0.003428464,0.0011063049,0.00013949689,-0.00039163363,-0.0021857743,-0.0025715984,-0.0009583713,0.00306492,0.0016931335,0.0032867042,0.00029615837,0.00025686598,-0.0001496471,-0.00035450855,0.0006693545,-0.003259615,0.00011717412,0.003025121,0.0018912159,0.0011516194,0.0010824155,-0.00092648424,-0.0015653903,-0.0009925797,-0.0001332057,0.00023842732,-0.0021904598,-0.00057605584,-0.000269017,0.00053964823,-0.00020122902,7.8074096e-05,0.0019191385,-0.0011199976,0.001397627,0.0011675293,0.0018815661,-0.0018643606,-0.00029352898,0.0015303892,0.0008600174,0.0005380555,0.00040056946,0.0022491987,-0.0016366531,-0.00050900236,-0.0007445006,-0.00088146114,-0.0033377088,4.4235276e-05,-0.0018271895,-0.0017015787,-0.002409356,0.00070256175,-0.0019389342,-0.00040803498,0.0008452077,0.00028920945,-0.0029446185,0.0023174572,0.002925933,0.0031593873,0.00198493,0.00023643824,-0.0042941337
PAQR7,0.00047182702,-0.0021206124,-0.0001072265,-0.0036797305,0.0013322138,-0.0015226569,0.0018645315,0.0010939977,-0.001207981,-0.0008483207,-0.004132194,-0.00254089,0.0015788847,0.00036467085,-0.0013094535,-0.0046062884,-9.746284e-05,-0.00022493725,0.00039431333,0.0019074883,-0.0018902915,-0.0038245975,0.0010155663,-0.0025505263,0.0012212045,0.00018218452,-0.0008162528,-0.00240966,0.0036340246,5.156956e-05,0.0030073486,0.0042187474,-0.0005664057,0.0038708234,-0.0013311426,0.0022584759,-0.00097274326,-0.0001845804,-0.00358601,0.0031957154,-0.0033200854,0.0009771449,0.0003726064,-0.00054805534,0.00015052367,-0.0027182503,0.0015555186,-0.004890035,-0.002132714,-0.0026546074,-0.0017007691,0.0016771045,0.000927695,-0.0042321975,-0.0023899754,0.0034204368,0.0015232741,0.0035624113,-0.0021568644,0.0014054363,0.0034854242,0.0005653104,0.0016702065,-0.0029643152,0.00087206764,-0.00024824773,-0.002381026,0.0023347274,0.00082722434,-0.0020797006,-0.0015697422,-9.494218e-05,0.002957733,-0.0031121722,0.0004537984,0.004105177,0.0010889099,0.0017438739,0.0018376933,0.0025157554,0.003556725,-0.0023824954,0.0013450667,-0.0008348838,0.00014091536,3.2571385e-05,0.003930576,-0.0027880187,3.638969e-05,0.0063299243,0.0033125347
STMN1,0.0148421135,0.014117374,-0.0016525673,-0.00026073717,0.006382242,0.01832273,-0.0004518038,-0.00027134956,0.0113356365,-0.011011601,0.0011305073,0.0063744155,0.019439233,-0.0010977538,0.0072163655,-0.010056431,0.0069714906,0.011285314,0.0056134607,0.00024917856,-0.0030671617,0.0039005207,-0.008121714,0.011201773,0.0073996596,-0.0029074554,-0.01329066,0.0022491117,-0.020941315,-0.010572626,-0.014181091,-0.013935624,0.002187216,-0.025749713,-0.0076365517,-0.01647366,-0.02224081,0.017565247,-0.02125247,-0.01225316,-0.013059867,-0.009961737,0.011865497,-0.027896432,0.012580602,-0.0026387065,-0.0021724186,0.0280149,0.018435797,0.0064131096,0.0062025287,-0.0038872743,0.0025919667,-0.0075363372,0.0032329732,0.0010636774,-0.014999589,-0.009169587,2.874559e-05,-0.00036646632,-0.030148346,0.0058812,-0.0104708,-0.008016466,-0.0043965434,-0.0218432,0.000786655,-0.020398188,-0.01545427,-0.0047736927,-0.0033155805,-0.0059950696,0.0034946434,-0.014442232,-0.0012840234,-0.009076684,0.0056278305,0.014891248,-0.016650567,-0.009643618,0.0126672825,0.006337477,0.012756654,-0.0005562024,-0.0045835497,-0.018226994,-0.015373067,-0.019188305,-0.015772125,0.0038575053,-0.0022517517
EXTL1,0.0031055661,0.0058149775,-0.0008653772,-0.0058164783,-0.0019929153,0.0019348419,0.002594503,-0.0006514563,0.0005804417,0.0017496546,-0.0038113184,-7.135238e-05,-0.0039504617,-0.0020990558,-0.0040103397,-0.0064687724,-0.0007316826,-0.00017447339,0.000568447,-0.0019207989,-0.0025443314,0.001953838,0.00042288628,0.0025453907,-0.0066739884,0.0072060004,0.0071946257,-0.0046312935,0.014439439,2.8985829e-05,-0.0044671977,-0.0009432562,-0.0065331794,0.006666371,-0.0081702145,-0.0059205475,0.0023828687,0.004664975,0.007958052,-0.0064626653,0.010933838,0.009924132,0.008316632,-0.0035765313,-0.0020496824,0.002684927,-0.0018643974,0.0013717876,-0.0037250058,-0.0031879675,-0.0010369637,-0.008726504,0.0010160672,-0.00168008,0.0074674306,0.0033230202,0.00037086298,-0.009052159,0.004239652,-0.0036547014,0.0027444006,-0.0014050993,0.0020791327,-0.0019295102,-0.0115903765,-0.007885873,-0.007130525,0.009368795,-0.00060428947,-0.0036117462,0.0010824245,0.0034223245,0.002969484,-0.0015242368,0.0037024438,0.0063798754,-0.0047577787,0.010486196,-0.0023491757,-0.0011886952,0.00017447655,0.0012571514,-0.0051356587,0.001544324,0.0018549365,-0.00046463782,0.004333944,0.002293514,-2.0393616e-05,0.00936241,7.819489e-05
TRIM63,-0.0037506928,-0.0006781412,0.0001770168,-0.0011047069,0.0002726806,0.0010564193,0.0017562459,-0.0034910615,0.00083792076,-0.0057059857,0.0006940151,0.000495265,-0.0027786728,0.0067244642,-0.0017298157,-0.0031166966,0.0016425723,-0.0022395907,-0.006025213,0.00017920774,0.0029273594,-0.0054686484,-0.00345307,0.00032581776,0.0073191286,-0.0022459286,0.002565888,-0.0014804597,0.006280228,-0.003229328,-0.0025692615,0.00053754606,-0.00014252575,0.00640225,0.0016824654,0.004420107,-0.0008419255,5.9508595e-05,-0.002089463,-0.0056261844,-0.0023135524,1.6709311e-05,0.0010441347,0.003235749,0.0025995795,0.0008229519,0.0026158795,0.00040385523,0.000218255,0.0028018511,0.0038828857,0.00022084116,-0.0014948058,-0.0014255561,-0.0019589602,0.0020619463,-0.0019578603,-0.00475282,0.0019321862,-0.0029744436,-0.004438239,-0.0031672022,-0.002711068,0.0052083214,0.0072718156,-0.0013606988,0.005380727,0.0011984056,0.0056288685,-0.0022138604,0.0020721199,0.0001709282,0.0020657042,-0.0024388162,0.0029210402,0.0023076143,-0.0030377079,0.0015331737,0.0030919292,0.0015149242,-0.000993799,-0.004823646,0.0047831647,-0.0030199212,-0.0041131396,0.00316449,0.0041246573,-0.0021729795,-0.0025569405,0.006056263,-0.003443284
SH3BGRL3,-0.006109829,-0.00039572822,0.012749293,-0.019541718,-0.010551942,-0.00023813048,-0.0025908859,0.005961261,0.0020919442,0.0030517587,-0.019899484,0.009273851,-0.034885064,0.016000718,0.010769339,-0.006168469,0.0062579666,0.011348728,-0.013418369,-0.00030500238,0.006902917,-0.015689503,-0.02436682,-0.016015353,-0.021894023,-0.003408741,0.012264506,0.02007157,0.009457964,-0.0033057139,-0.0019669877,-0.016022513,-0.006229371,0.004023224,-0.014112517,0.021451175,0.013257139,-0.009695533,0.0009293395,0.017613824,0.008160688,-0.0057865325,0.006636991,0.023071352,-0.0038786058,0.0040026233,0.010203013,0.0063084713,-0.015733393,0.0145368045,0.0038904028,-0.006824884,-0.00032138327,0.0060159503,-0.019088874,0.009057577,-0.0056888713,0.003919955,0.003756509,-0.002254106,-0.0024922083,-0.01270723,-0.017731627,0.015725989,-0.0008279779,-0.009182597,0.009892424,0.027930534,0.011440753,0.014640889,0.0045703133,0.009175604,0.00015923538,0.0018458901,-0.001029554,-0.0052618096,-0.006166118,0.0016412352,0.01180079,0.018855032,0.011593083,-0.00923728,-0.009222579,-0.011055807,0.0020340676,0.025514679,0.0028686633,0.026665218,0.0007338099,0.012387352,-0.010014271
CD52,-0.0062607974,-0.002842876,0.009166675,-0.015419428,7.632489e-06,-0.00465315,0.006385603,0.00036000428,0.004307755,-0.005033241,-0.015169967,0.01245303,-0.024871388,0.013596617,0.004781347,-0.019276036,0.015724372,0.0052643614,-0.021578627,0.0014724128,-0.0030607039,0.0009043945,-0.012012795,-0.0059194514,-0.00918905,0.018708164,0.015402198,0.0020907985,-0.0041377144,0.0056670792,-9.51328e-05,-0.0064527076,-0.009568196,0.0070475615,-0.010982828,0.020093225,0.016359368,-0.01045564,0.003883614,0.023362026,0.012281585,5.5518826e-06,-0.0011992329,0.035689667,0.0006068175,0.012411995,0.010146263,0.01416522,-0.0171783,0.0032769993,0.010605053,-0.0030766334,-0.0070250966,0.0036669876,-0.0062256674,0.0049526123,-0.005382229,0.0050769225,-0.0008957016,0.0031752577,0.007529541,-0.0039916495,-0.0129724555,0.0031422207,0.0014783898,-0.0047627836,0.016228056,0.018135276,-0.008292773,0.0019228632,0.0071892235,0.0018559931,0.0054091015,0.012109796,0.005744088,0.0058158664,-0.0014150463,0.00022246774,-0.002940591,-0.0020645643,0.011502642,-0.007553048,-0.00501038,0.004327472,-0.0028060297,0.03520077,-0.011497066,0.030863468,-0.009223443,-0.0068635624,0.0059174024
LIN28A,-0.00030283674,0.00035127674,0.00031631364,-0.0004116984,-6.0225043e-06,-0.0023644755,8.550219e-05,0.0015233164,-0.0011435834,-0.0017392618,-0.00011165018,-0.0012191648,0.0009988184,-0.0006075004,-0.00040482054,0.00015687136,0.0016601298,-0.0026870104,0.000707204,-0.00010441902,0.0004895619,-0.0010916457,-0.0005828073,-0.0012770735,0.0023528961,-0.0011913438,-0.0008180604,0.0010678418,0.0020117953,-0.00028664593,0.00012029647,-0.0010023848,0.00078892766,-0.0004918225,5.5579727e-05,0.00022520524,-0.0009343661,-0.000941718,-0.0011776715,-0.0003018785,-0.0006189223,0.00013040815,0.0008422672,-0.00048753817,0.0006257429,0.0011652655,-0.0015015426,-0.0013719287,0.00015742976,0.0006185686,-0.001329748,0.0011963195,0.00090298214,0.0011252522,0.0011294219,0.00033928922,6.412435e-05,-0.0035075017,-0.001388988,0.0001871769,0.0013847051,0.0017818977,-0.0015699915,-0.00057103846,-0.0011275224,0.002466898,0.00093112554,0.00021659373,0.0005935532,-0.0005402506,0.0012064141,0.0047781807,-0.0010911272,-0.0017475644,-0.0014214577,0.0029305713,9.877413e-05,-2.9038982e-05,-0.00028259645,0.0013360342,0.00052869465,-0.0005514647,0.0016172136,0.00017819382,-0.0003516978,0.0003885064,0.00090364664,0.001144888,-0.0003337617,-0.0015409606,0.00031945988
HMGN2,0.013685174,0.006994007,-0.0035700384,0.017427614,0.004310078,0.01440587,-0.005066514,0.011157159,0.007732303,-0.002992746,-0.0035869319,-0.016459338,0.011385907,-0.006842521,-0.0023525753,0.0057488205,0.0021328852,0.008523981,-0.0042833043,0.010992983,-0.010301845,0.009163828,-0.0009811424,-0.012317195,0.004986606,-0.008095504,-0.024874685,0.005557903,-0.025708593,-0.0006906775,-0.015389508,-0.0030520537,-0.0025040614,-0.015478771,-0.007848818,-0.0075186654,-0.020805294,0.024068918,-0.022566944,-0.014837928,-0.01886769,0.003737409,0.008016572,-0.033151254,0.015205774,-0.0043936493,-0.0022658359,0.017218463,0.0090182405,0.011518755,0.014835168,-0.003202708,0.0069521093,-0.00754215,-0.001955021,-0.0016767896,-0.022964614,0.0017653792,-0.00079960865,0.0039238413,-0.02694936,-0.0040737013,-0.006904244,0.0029656196,-0.017744228,-0.0061857915,-0.002133298,-0.020858385,0.0016277424,-0.00033723348,-0.002764112,-0.0032741358,0.008347977,-0.022964025,-0.0049792454,-0.0052708643,0.0007623833,0.011112683,-0.015244926,-0.010850062,0.0011922031,0.004696404,0.004140759,0.016094424,0.00077022216,-0.014093361,-0.004857545,-0.014763395,-0.0063700886,0.0064382497,0.007817831
NUDC,0.0029841308,0.015938595,0.005763405,0.024528498,-0.011948019,0.030498542,0.009366003,0.0013504481,0.010745924,-0.01809679,0.016025225,0.0063581844,0.015303368,0.013143447,-0.0005570513,0.015123923,-0.0017755331,0.021844419,0.0034203443,0.0019177067,0.005290571,-0.022661049,-0.0058407024,-0.00057915354,0.0069930833,-0.012926083,-0.010042601,0.017133469,-0.017758802,-0.011913196,0.0003600738,-0.0069027795,0.008858011,-0.021981824,-0.007868884,-0.0139184585,-0.008569116,0.00636951,0.003781803,-0.017552093,-0.008869883,-0.009033816,-0.011852792,-0.023127161,-0.009621258,0.000303895,-0.0057400684,0.014093461,0.010679908,0.003600475,0.006639872,0.0047238613,0.008486011,0.008299417,-0.0021363422,0.0035609554,-0.022471698,0.005050335,-0.001923361,-0.014932181,-0.01886617,-0.0014942869,0.008299222,-0.010517961,-0.0010731155,-0.0088372985,0.004616015,-0.018013723,-0.009843661,-0.0022388985,-0.005279615,0.0081824595,0.0060320706,-0.004217445,-0.008599983,-0.0057409187,-0.0032973632,0.0032357394,-0.0137285935,-0.0056967903,0.006019872,0.012437877,0.008695805,0.0010366479,-0.005117862,-0.017735468,-0.012021389,-0.009049299,-0.008594523,-0.003560032,-0.0037734576
SYTL1,-0.00011555336,0.0049705,0.0019976646,-0.00074785395,0.0005452008,-0.0037093086,-0.0055872584,-0.0019067866,0.00040413192,-0.00050283247,9.355282e-05,-0.0014183791,-0.004588475,0.0010094447,-0.00037199262,-0.016053628,-0.000384491,0.0037233618,0.012459458,-9.125086e-05,0.0012695714,0.0033262179,-0.013235058,0.007961388,-0.010557927,0.0051805223,0.005832963,0.009318046,0.0010453367,-0.0052732714,-0.0021857482,0.0024858508,-0.004124283,0.0015907664,0.0043746363,0.012640211,-0.005880894,0.006424004,0.002983494,-0.004162186,0.0023102346,0.0072235237,-0.0056890654,0.015598208,0.012828777,-0.0064746495,0.003878092,0.0009350022,0.0011987827,0.0061524804,0.008428977,-0.004118829,0.008534774,-0.00397794,0.009140933,-0.00040489744,0.00023194274,-0.0015342342,0.0071853064,0.010061524,0.01014251,0.009450743,-0.0047816797,-0.0059888014,0.00034933657,-0.007144563,0.01261386,-0.0054088826,-0.0002352489,-0.006758443,-0.004000738,-0.0053438284,-0.0027529795,0.0032409835,0.0031544361,4.8776824e-06,0.008931923,0.0012603173,0.020890439,0.011273268,0.005265707,-0.005086775,-0.009973305,0.0020204887,-0.012754344,0.024989473,0.0010901411,0.01659462,-0.003372399,0.0016620096,-0.0035012874
IFI6,-0.00063021254,-0.0006645958,0.0007142092,-0.0026680294,0.0031010043,-0.0045211096,-0.00096605095,0.00077424676,0.0037755677,0.0017471458,-0.0033313755,-0.00032005753,-0.0018365167,-0.0068416363,-0.00097063184,-0.0012033423,0.0046842475,0.003457784,0.007839677,-0.004016301,-0.0034681656,-0.005365052,-0.0019390906,-0.001956809,-0.0033982038,0.0033179142,0.008069745,0.0035156964,-0.0022477556,0.00034183855,-0.0016199716,0.0008069548,-0.005023905,0.0015843711,-0.00029321844,0.006797263,0.0038742796,0.01365514,-0.0007464322,0.0021693197,0.005262179,-0.0037970347,0.003976184,0.007613896,-0.00017521679,0.0047358284,0.007706929,-0.004974306,0.001595874,-0.0033709246,0.00032292018,0.012031232,0.0021674829,0.00081478246,-0.0043658507,0.0015785698,6.332882e-05,0.0027888226,-0.0039883438,-0.004090475,0.010109539,0.0027309563,0.0066311685,0.004804236,-0.011680592,-0.0012625521,0.0020288022,0.009874262,-0.0040369197,-0.0030954182,0.0030908037,0.00068967754,-0.0045694937,0.005262163,0.0020480854,-0.0043857247,-0.0016313678,0.001931787,-0.0005871387,-0.00022433628,0.00023238876,0.0024193688,-0.004391932,0.003264255,-0.0030897784,0.0027966322,-0.0028513358,0.0005331792,-0.008242916,0.00431457,0.0013218634
THEMIS2,2.4893243e-05,-0.0017899481,-0.0001958219,0.0017392739,-0.003366995,0.00054418755,0.0013486145,-0.00046387897,-0.00037074683,-0.0028863363,-0.0014629279,-0.0011665863,-0.0079341475,-0.0044924906,0.005505596,5.463348e-05,-0.0059544416,0.0036223673,0.0053595016,0.003494218,0.003818059,0.0015715162,0.0052096806,0.0071059577,0.0021877545,-0.0022624135,-0.0057427883,0.004554263,-0.0006949292,-0.0020473527,-0.002900752,0.0024910641,-0.0008819668,0.0050876904,0.00024868755,0.011599819,0.007295021,0.004073137,-0.0072585763,-0.00987375,0.0008067407,-0.0012528371,-0.004143651,0.015517674,0.01037217,0.0028064838,0.003923944,-0.0009241645,-0.0003035944,-0.0029150282,0.007874329,0.0022709896,0.0070223426,0.005963487,0.0031813085,0.00078551925,0.006914494,-0.0014328699,0.0006572742,0.0035199428,0.0028382463,0.004877491,-0.0015374157,-0.0004356083,-0.0014426772,0.0029951592,0.0040450725,-0.0027272338,-0.0043405797,-0.0055502327,0.0004324174,0.0014957412,0.0021924307,0.00451682,-0.0045472523,0.001010559,0.003019609,-0.0022971032,0.014615047,0.0034000927,0.0053523174,0.0020165562,-0.0008047227,0.0010312243,0.0042481977,0.010133933,0.0077471077,0.020998135,-0.0020459718,0.008634173,0.0040954617
PTAFR,-0.0076002027,0.0008139051,0.0052616047,0.008727153,0.009108675,0.0027362204,0.0016578868,-0.0061011007,-0.005904475,0.002239084,0.0137167815,-0.0029635641,0.007257275,0.012549276,0.0041842074,0.028603345,0.00014578324,-0.029663052,0.010643435,-0.009622899,-0.0036080899,-0.014342298,0.0085115535,0.0038527038,0.044612516,0.0015779891,0.03331526,0.013844772,-0.013080202,-0.0036113306,-0.002557745,0.023265129,-0.020294333,0.0016943912,0.00531878,0.02888213,0.026152479,0.014407752,-0.008816296,-0.0014270069,0.04196441,0.042146496,-0.0050325836,0.007119539,-0.00054649374,0.052199673,-0.0072227484,0.013022202,-0.01683251,0.047369283,0.006242056,-0.029150546,-0.015197965,-3.8238428e-05,0.0018238327,-0.031243647,-0.0029122462,-0.026842384,-0.004995025,0.0009788773,0.0013738371,0.005598295,-0.016359447,-9.2535585e-05,-0.027277464,-0.011793376,0.0020997236,-0.007051436,0.0041575376,0.0050479453,0.009437857,0.036287878,-0.023743628,0.004635947,-0.0064891786,0.0178823,0.017906742,-0.02105824,-0.01813062,0.0058573205,0.025909897,-0.0021214588,-0.00018210287,0.013463162,-0.012559486,0.014733543,-0.0098519595,0.019786444,-0.011434557,0.0012699616,0.049426172
SESN2,0.0040456103,9.590622e-05,-0.0047800574,-0.002023932,-0.011014434,0.0005984502,-0.012446631,-0.0031684989,0.007845459,-0.0025908498,-0.00032658543,0.007869561,-0.00460948,-0.006124366,0.0016806946,0.0012275332,-0.006074716,-0.0009039823,-0.0136131765,-0.004588615,0.005211327,0.0017062736,0.0012485788,0.0028713888,-0.0046251793,0.0041523934,0.003945913,0.0094841765,-0.0053166132,0.009561793,0.00073335617,-0.006136117,8.82357e-05,-0.0016672355,-0.013576014,-0.002966062,0.0011469119,0.004868953,0.0009017877,0.007871513,0.0043760226,-0.007599755,-0.0012637236,0.0024212261,-0.0044661975,-0.0009500964,-0.003118113,0.0018893484,0.008307569,0.0013568463,-0.00018195143,0.0017656422,0.0014408632,-0.0020348348,0.004837067,-0.0031729974,-0.0003568062,0.004028937,0.0025870209,0.0046738787,-0.0036369755,0.0024971808,0.005036236,0.013554394,0.0036453118,-0.010997668,-0.0030414227,0.0059511396,-0.010366557,0.000118455304,0.0010607669,-0.009021856,0.0025422543,0.0010493476,-0.00080737926,0.00031579204,0.0023883923,-0.0040455884,-0.008824943,0.005415908,0.0029653197,5.571492e-05,0.0013365647,0.0004979567,0.0015372168,-0.004139068,-0.007790277,0.004178592,-0.0013813562,0.0018029739,-0.00090097165
OPRD1,-0.0018242251,0.0046332963,0.006900557,-4.5170433e-05,0.002185603,-0.00041862586,0.003640767,0.0037007094,0.0026970801,-0.0017114938,0.00094510993,0.00066337717,-0.004454106,0.0007240933,0.0027539274,-6.0829943e-06,-0.0052876575,0.0064097447,0.0052618296,-0.0035764833,-0.002785208,-0.00084190565,0.0018275647,0.0008665874,-0.00043139953,0.0033310654,0.0024437974,-0.008471834,0.0042135646,0.000587076,-0.0043795137,-0.0011775384,-0.005904819,0.000112759895,0.0051954156,-0.0009496184,0.0031307503,0.002740767,-0.0014461078,-0.0026705766,0.0007421741,0.0015425602,-0.0014030288,-0.004334922,-0.0008382694,-0.0019481973,-0.00034960988,0.0048937467,-0.0028871049,-0.00015658373,-0.0009602399,0.0014244809,-0.0012029762,0.0007482486,0.0042564874,-0.0012086837,0.0018568242,0.0010969128,0.0017019908,-0.0009015285,-0.0015094533,0.00063046516,0.0013600816,0.0009248074,-0.0046117525,-0.004820379,0.0009653642,0.002492283,0.0008485641,-0.000511928,-0.0016476641,0.00042595924,0.00093857077,-0.0011331493,-0.00218881,0.0032682205,-0.0001200261,0.00080701575,0.0017011417,-0.0010584227,0.0016312527,0.003066128,0.003232014,-0.0018284062,0.0016960205,-0.00038725845,-0.0024034288,0.0018524198,0.0010931059,0.0019462468,-0.0009728604
LAPTM5,0.004032789,-0.00044434128,0.004226911,-0.010009788,-0.008589113,0.004726741,0.00066169334,0.002036246,0.0021387746,-0.0064059244,-0.017357608,0.011126745,-0.019440316,0.009677085,0.0101836035,-0.0056321947,-0.000469745,0.0043442096,-0.0017303936,-0.0002011431,0.013221921,-0.009612699,-0.009203246,0.0023794174,-0.008964268,-0.0027078104,0.002112823,0.012279197,-0.0036772846,-0.007893874,0.004307459,-0.0066625406,0.00033637186,0.0019244073,-0.0059948754,0.009468283,0.0061207935,-0.0065606977,-0.0027411338,0.0064963964,0.009239444,-0.0007533024,0.009454852,0.013566114,0.0027760784,0.007400047,0.0065751406,-0.0031987848,-0.0052844035,0.002256492,0.008097684,-0.0037006033,0.007281168,0.012431148,-0.01039805,0.0011737489,-0.0044151125,0.006865404,-0.0004309699,0.002077555,-0.009962015,0.006139522,-0.008180278,-0.005105003,-0.0028723285,-0.007884353,0.010913022,0.0012967717,-0.006472208,0.009779344,0.0007872865,0.009725031,-0.002025992,0.0024955114,-0.0058629024,-0.0043136934,-0.0033927516,-0.0023503986,0.0050763735,-0.0024851097,0.0034787944,-0.00060835545,0.0045203855,-0.012820502,0.0015544855,0.013846659,0.0047634984,0.020790465,-0.0046097087,0.008222947,0.002223598
FABP3,-0.003805901,-0.00010558623,0.00015597757,-0.0029518711,0.0016817169,-0.00022740752,0.00030629293,-0.0016798758,0.0028343364,-0.002422721,0.005457435,0.008945522,-0.0055166874,-0.00061193464,0.00053743215,-0.0036980286,-0.0070430143,0.0056646396,-0.0014988913,0.0016399326,-0.004106623,-0.002926001,-4.948043e-05,-0.0066880123,0.007354456,0.0019753135,0.011570482,0.0013220238,-0.0027766312,0.005157338,0.005865608,-0.00541624,0.004961788,0.00072428474,-0.010670031,-0.009297472,0.00829985,0.0022971954,0.002906571,0.008456488,-0.0020702353,-0.012028412,0.008895172,-0.0055518127,-0.01170539,-0.0032225354,0.0055762213,0.008423884,-0.0055448827,-0.008745596,-0.0065685594,0.008194789,-0.002623305,0.0024158352,0.0027179262,-0.004635562,-0.004434629,-0.004604424,-0.0019322518,0.0011953942,-0.0025174913,-0.002640895,-0.0075190975,0.0034657393,0.0039287303,-0.007565485,0.0020464151,0.00022977813,-0.0012028635,0.0024722137,0.004162146,0.010294238,-0.003611552,0.0070767924,0.014941559,-0.0059193084,0.0069053066,-0.008412364,0.010171549,0.01530274,0.003822635,-0.00486078,-0.0076323235,-0.0021787926,-0.0013111967,-0.00010893257,0.0068383585,-0.0005578087,0.0057472778,0.004107959,-0.004694768
SPOCD1,0.0032347983,-0.0033385875,-0.0065527414,-0.0056916038,0.0005913919,-0.004547849,-0.00363533,-0.0042068516,-0.002650626,0.005222349,-0.007899159,0.0019932482,0.0005982913,-0.00072427304,-0.0048286547,0.007190819,-0.0038210575,-0.012398039,-0.0019957426,0.0038596317,0.0055343723,-0.00024223595,-0.0022587276,0.012470245,0.0019919837,0.004012963,0.0022171603,-0.0026353789,0.008109362,0.004822273,0.0011735121,5.358719e-05,0.0049105985,0.0012662916,-0.005577675,-0.00021165491,-0.0024693534,-0.0018618354,-0.0036250872,-6.49061e-05,-0.0058688046,0.009765305,-0.0034401892,0.0066195563,-0.0008337831,-0.003950448,0.005718787,0.013610993,-0.0062977835,0.00092215784,-0.006425434,0.0072941696,0.0051015676,0.0016834979,0.0051513105,0.00775423,-0.0069870474,0.0015482912,-0.0034681128,0.0075357947,0.001468788,-0.009608226,0.008903972,0.001006523,0.0017734853,0.00083008915,0.0061129304,0.0030829953,0.0043296223,-0.0055486383,-0.0050453194,-0.0025703418,0.00082133623,0.007815548,-0.0009214372,-0.0018272924,-0.0010668809,-0.0056640613,0.0008279043,0.0055404245,0.0015834538,0.00024851318,-0.0007220045,-0.0074954582,0.0036202876,0.0026259816,-0.0035774794,0.004900893,0.007837097,0.0030135636,-0.003517301
LCK,-0.0009947023,0.00026344447,0.0021631029,-0.001414862,0.0022947888,-0.004635207,-0.00031166247,-0.0008033257,0.0036975616,0.0019872086,0.002421914,0.0011656623,-0.0020526678,-0.0010419041,0.0033881427,0.0022124995,0.0010493681,-0.0007354131,-0.0035681275,0.005238422,0.0033323765,-0.005175767,-0.0030300594,0.0036332346,0.00278412,-0.0009955105,0.0039425464,-0.002934926,-0.0059251245,-0.0021098107,0.0043220287,0.001939902,-0.005697584,-0.004431906,0.008050935,0.0015629162,-0.0005322028,0.00071045914,0.0014610551,-0.0023974257,0.0023692553,0.0012820426,0.0051777666,-0.0007496411,-0.00023755121,0.00022296763,0.00041744363,-0.000946429,-0.0025260355,-0.004868842,-0.0058645546,0.0039362754,0.0047349907,-0.002909256,-0.0031573877,-0.0027146104,0.0074100294,0.0010001016,-0.004693899,0.005027737,0.0039108465,-0.0070110685,-0.0062282835,-0.0026081007,0.006122982,-0.00071223214,0.0021734731,-0.0021140107,-0.0014565373,0.0006403536,0.00023725856,0.00068665715,0.00048251243,-0.0054939794,-0.002196615,0.0030884172,0.005594193,-0.015431154,-0.0056607416,0.008336475,0.0057240035,0.010789452,0.0022705158,-0.01861286,-0.007365263,-4.407598e-05,-0.0043224017,0.000517736,0.0011367667,0.009043067,-0.0027684944
MARCKSL1,0.0028526199,0.0041300724,0.00029381114,0.027629042,-0.004412794,0.012892133,0.010804954,-0.00010521395,0.0012426665,-0.0072547523,0.008177669,-0.012954605,0.008901818,-0.0040393677,-0.010372583,0.01111383,-0.0039968034,-0.0011797786,0.023589525,0.008687006,-0.01784659,0.0004941264,0.011231147,0.012826919,0.004409547,-0.0034594915,0.00020367466,0.008688651,-0.032019548,-0.00047471232,-0.0066220895,0.008986994,0.008397751,-0.005692181,0.0046392395,0.002071454,0.0078925975,0.016786449,0.0011915158,-0.022556594,-0.010878963,-0.0012025784,-0.003979868,-0.009750533,-0.00015550434,0.009530387,-0.0077343727,-0.0028218362,0.03252282,0.005422268,0.016960504,-0.00070154417,0.021999491,0.013589637,0.004575288,-0.000239795,0.0001812746,0.008072982,-0.008855787,0.0035389028,0.0012986028,-0.004093783,0.009887173,-0.025092311,-0.007535227,0.0035696821,0.0049612965,-0.025072003,-0.021389138,-0.017693853,-0.002919823,-0.0070288107,0.018287089,0.002029075,-0.00076371693,0.007391632,0.007722528,-0.007769101,-0.0007727413,-0.011014604,-0.0068390775,0.011083813,-0.00019165913,0.0030596233,-0.0045399256,0.0025467118,0.0043985136,0.012889251,-0.0070914575,-0.012611764,0.005056288
BSDC1,-0.0047438135,-0.0073609077,0.003353411,-0.012852673,-0.0024714423,-0.009384566,-0.0064460183,-0.0041035996,0.0015927339,0.0010214292,0.0015858719,0.006623979,-0.0105242655,-0.0043118377,-0.001509474,-0.016921801,0.00064764416,-0.009232196,-0.015541427,-0.0017983486,0.0024343086,-0.0002112117,0.0014188922,0.006123062,-0.003728957,0.0033352205,0.004750204,0.004785652,0.005297183,0.007726743,-0.0022641146,-0.0014359901,-0.00014220414,0.0052593346,-0.0050194045,0.0017880142,0.0080150785,-0.0019538847,0.0017227832,0.020705681,0.0057934364,-0.0048677297,0.012921013,0.005804566,-0.0041173073,-0.0013496908,-0.0025630072,-0.008902205,-0.0060895043,0.0010101867,0.004329006,-0.0027251209,0.0045720804,-0.0005947056,-0.000103872364,-0.0015321568,0.009521369,0.0013447414,0.0015367416,0.010647753,-0.00021071016,0.005953729,-0.0068245665,0.010764906,0.0015183666,0.0025270726,0.0041720863,0.010136849,-0.0030919933,-0.0013328826,-0.0011808383,-0.0041634524,0.0008925414,0.0048668226,0.0024985254,0.0072433464,0.006917432,-0.0089253625,-0.0053090774,0.003031711,-0.002936451,-0.0010178761,0.0072988216,-0.0015664366,0.0066496916,-0.001718437,0.0037017048,0.0072669405,-0.002478931,-0.00050032255,-0.0040754103
TMEM54,-0.0054511,-0.008084578,-0.011600485,-0.007353927,0.016181683,0.004697109,0.00015461358,-0.008335348,0.0012911774,-0.010065922,-0.0008815096,0.0002453982,-0.0068771187,-0.011596093,-0.020768503,-0.0062160227,-0.0051614437,0.0062824925,0.006696602,0.007931638,0.0035789283,-0.0005087422,-0.0015560839,0.003441726,0.007985583,0.041968323,-0.00049470505,-0.068086684,-0.02732859,0.027092624,0.038053527,-0.0021731758,0.037973832,0.004665285,0.024647402,0.006732609,-0.0114903655,-0.004016186,-0.0026183194,-0.008221364,0.004107055,-0.0029216553,0.0097591225,0.0034031954,0.00421827,-0.005779194,0.03492103,0.025458494,0.004174648,-0.02539567,0.0050064046,-0.035542656,0.011979691,-0.029327832,0.0049390583,0.0005089295,0.0086566815,-0.005257759,0.0070894943,-0.0076398156,-0.008553868,-0.01591452,-0.0044045905,-0.0150692845,-0.005030037,-0.018210156,0.0077629774,0.007266627,0.004076614,0.0025666559,0.014589434,-0.00973073,0.01635948,-0.004239168,0.022260718,-0.020761099,-0.0046628965,0.0051078117,-0.015068517,0.0021930553,-0.00093987375,0.004169424,-0.0008033968,0.027329223,0.0136850765,-0.0016161827,0.004485605,0.002195967,-0.00091657904,-0.009731032,-0.013334671
PSMB2,0.0027683752,0.0223058,0.009454439,0.01302693,-0.009685623,0.02963513,0.008807473,-0.00021517751,0.011964227,-0.016630188,0.015480603,0.013982213,0.016799884,0.02176797,0.0021894115,0.0007281883,-0.0015062855,0.023220543,-0.0035349133,-0.004966831,0.004366318,-0.018516742,-0.011691529,0.0024137672,0.009023959,-0.003436396,-0.0072052483,0.02373059,-0.018774029,-0.01792541,-0.0028603054,-0.0059970296,0.010312538,-0.028516788,-0.011937442,-0.01466386,-0.008937911,0.0048041246,-0.0047705066,-0.009380385,-0.018039083,-0.018678786,-0.003979236,-0.019859362,-0.0048329304,-0.0028243756,-0.0046320558,0.014844839,0.008204035,-3.415633e-05,0.011689555,0.0050573857,0.0034120223,0.00812339,-0.0030261423,0.0038731648,-0.017096175,-0.003982209,-0.0018445684,-0.011726869,-0.019863905,0.0011707093,-0.0012387069,-0.009652169,-0.00036847257,-0.01681143,0.008842184,-0.017024305,-0.014987876,-0.007625537,-0.0083723385,-0.0019322857,0.0040477035,0.0007358111,-0.006171174,-0.0011381969,-0.0010349021,0.00453703,-0.020969085,-0.005159666,0.002578055,0.0072088917,0.009381181,-0.006210395,-0.009509957,-0.012992845,-0.019202232,-0.013161707,-0.011307315,-0.00036306307,-0.005443223
CLSPN,0.0032918276,0.0137368785,-0.0010996446,0.013060155,-0.008810127,0.01073755,0.0038166654,0.004089274,0.004436477,-0.0026535857,0.007140111,-0.005641884,0.0016531978,0.008088402,-0.0016619308,0.0035209432,-0.0038376893,0.0021641734,-0.0032025974,0.0028934758,-0.001310693,-0.003632516,-0.006955732,-0.013144797,0.0023353305,-0.005419149,-0.01080927,0.004846072,-0.008139189,-0.003832139,0.00025957567,-0.0039928346,0.00690628,-0.009949687,0.0037881883,-0.0019983305,-0.0089090355,0.0058357744,-0.0056391675,-0.008446489,-0.0062119146,-0.0034731256,-0.0013869695,-0.020519014,-0.0011333887,0.0033020168,-0.0057973024,0.003108591,0.0110962605,-0.000759036,0.005323056,4.841783e-05,0.011869784,0.0025107886,-0.0037695433,0.0029949134,-0.010363258,0.0029786292,-0.003038799,-0.0038920273,-0.011260167,-0.008019297,0.0016699597,-0.0031601996,-0.0021532206,-0.0010415254,0.0008770897,-0.013932249,0.0027094707,0.0026971714,-0.0030319463,0.0058077807,0.0058053783,-0.0015412136,0.0025453523,-0.0017281957,-0.0038806263,0.00544833,-0.008945232,-0.004934861,0.000976105,0.0032649273,0.007265956,0.0019990467,-0.00404166,-0.012120872,-0.002314049,-0.0025341753,-0.004692249,0.0022531147,-0.004890377
MAP7D1,0.004400616,0.0014448628,2.9952766e-05,0.0020584937,-0.006269994,0.0027875574,-0.0047385753,0.0042608804,0.0049642287,-0.0017405028,-0.0041633015,0.00016259155,-0.0038731901,-0.0015856778,-0.0018581183,0.0025735528,-0.0068988707,-0.004400721,-0.0060038245,0.0045302166,0.007697242,0.0023083854,0.0018753145,0.0059645306,-0.0051896707,-0.003854029,-0.0015009011,0.0018024857,-0.0019249335,-0.00055188366,-0.004230403,-0.0019751473,-0.0021104873,-0.0006852157,9.409458e-05,0.003551238,-0.00047281908,0.0068744267,-0.007850779,0.003510019,-0.0030642257,-0.0019965176,0.0014726459,-0.007976322,-0.0046009035,0.00455568,-0.0019465911,0.0038210873,0.011284205,0.0017656465,0.0031882334,-0.0049748025,0.011391145,-5.0779123e-05,0.0016224678,-0.0019537897,-0.0036867936,0.005476219,0.00047820606,0.0018754001,-0.0008322784,-0.0022495252,-0.0008847556,0.0028350623,-0.0027314802,-0.006801477,0.0020158503,-0.00053674844,-0.0036412212,0.00017159827,-0.0001694083,-0.005887617,0.0036383958,-0.0055858246,-0.0038509446,-0.0018906473,-0.0030547464,0.004092795,-0.0024130975,-0.0016354052,-0.006504041,0.0037576188,0.00081911613,-0.0012065273,-0.0042881547,-0.0049706656,-0.004343409,0.0019266746,0.002238586,-0.0013481342,-0.0040041553
CSF3R,-0.0037469338,-0.0058547,-0.004135687,-0.013685018,-0.01030362,-0.007958193,0.0043548536,0.0011731334,-0.001705033,0.003942663,-0.009242158,-0.0006749606,-0.02814579,-0.0014077735,0.015172086,0.0014788558,-0.00684689,-0.01099093,0.0023955659,0.008169672,0.0050842194,0.011818345,0.00045088388,-0.00284024,-0.009533615,0.01788766,0.019461244,0.009910694,0.0059053213,-0.002772781,0.003202441,0.009328695,0.0015922294,0.013386629,0.0021056724,0.03198479,0.028507955,0.003203221,0.0016334513,0.0038936099,0.017083999,0.015155809,-0.013945052,0.06458488,0.030337792,0.04311102,0.004152402,0.0029056994,0.0042298674,0.004998655,0.006352564,-0.017807676,0.028282072,0.01719475,0.005862917,0.0015516571,-0.0066799214,-0.012905937,0.0049145813,0.02016091,0.009445542,-0.001328639,-0.0041869185,-0.0077639134,-0.010945379,-0.0016078575,0.0211707,0.008193673,-0.0057600075,0.008733781,0.008928737,0.010615083,0.011168473,0.028059743,0.00024667612,0.013542326,-0.004290522,-0.0089544365,0.029521283,0.0013024395,0.009596551,0.00047799063,-0.018155033,-0.0012908266,-0.021761743,0.046833213,0.027613273,0.08431039,-0.008805081,0.013003456,0.013684472
CDCA8,0.014049133,0.0012423163,-0.0066402764,0.011741052,-0.011753943,0.010498837,-0.017687075,-0.005542886,0.014079285,-0.014140066,-0.0064887316,0.003615739,-0.0109571945,-0.008175221,0.0026445931,0.0062423316,-0.01759105,0.0011135528,-0.0055938386,0.0062515726,0.0048908023,-0.0022009655,0.004683842,0.007493057,-0.0044721575,-0.003844188,-0.0030086914,0.009774407,-0.002100151,0.008444565,0.00014485822,-0.008318876,0.0067929486,-0.007600297,-0.005353743,0.0037267557,-0.008612953,0.0043264134,-0.0014131134,-0.00044546765,-0.007161507,-0.0002977701,-0.0037683544,-0.01650641,-0.009224932,0.007789689,-0.001414011,-0.0007067858,0.0049494426,0.0014775058,0.0060107643,-0.0034155122,0.014209638,0.0064992835,-0.009495893,0.0014320181,-0.01108796,0.0033345507,-0.00096457964,0.0012726267,-0.009311973,0.0020444258,-0.00423157,0.004412149,0.0033615648,-0.009694172,0.0053832773,5.331932e-05,0.005156528,0.0030520542,0.0026894934,0.0036549892,0.009090073,0.00033786078,0.008456222,-0.00214936,-0.0035259197,0.0033177198,-0.01205445,-0.010568179,0.0076527568,0.006523426,0.010903737,0.008157128,-0.004667808,-0.01026095,-0.013741365,0.008591718,-0.01318672,0.010404553,-0.00774872
RHBDL2,-0.0021831586,-0.002040979,0.0005508626,-0.0016952325,-1.7131659e-05,0.00054330454,0.0010110735,-0.00044610686,-0.001334396,0.0008019054,0.0022218546,0.00070479244,-0.000659747,-0.0005251393,5.6335444e-05,-0.0013834282,0.0018122647,0.00036119914,-0.00036769104,0.000799934,0.0010414557,0.00093357736,0.0023346716,-0.0026282617,-0.00038141356,0.0009881305,-0.002964936,-0.0010659851,-0.0011757524,0.0011144496,0.0023965272,0.0019775224,0.00045835334,-6.1999475e-05,0.0040147547,-0.0014276403,-0.00068362674,0.0019506082,0.0020094826,-0.0010007174,0.0010851825,-0.0008021429,0.00016842604,-0.0013958691,0.0011369046,0.0011827169,0.0013807967,-0.001821688,-0.0004528871,0.00052246614,-0.0012598403,-0.00010768144,2.2685941e-05,0.00069216883,-0.0013702288,0.000259969,0.0006899962,0.0004806552,0.0011201854,-0.0005090039,-0.0011028257,0.00038850046,-0.00048016562,-0.0014250691,0.0018303975,-0.00023635683,0.0006666299,0.00075931364,-0.0012850125,0.00015721902,0.00027297638,0.0008282699,-0.00025562913,-0.002176796,0.0015338154,-0.0020129497,-0.00072183076,-0.00044032364,0.00043321165,-0.00048590434,-0.0024428573,0.00028015175,0.00020650309,0.0009791309,0.00088565657,-0.00068382185,0.001145739,0.00014536585,-0.0004275287,-0.0009301716,-0.00057637226
MACF1,0.0051587624,-0.00012780666,-0.0037167105,0.001330385,-7.234396e-05,-0.0047878735,-0.0038762214,0.003949373,0.0058777994,0.0042142444,-0.01175481,-0.002412563,-0.0064879754,-0.005754231,0.0009869188,0.005143253,-0.007838207,-0.003607805,0.0027375852,0.010996327,0.0015471672,0.009058084,-0.0010517986,-0.0037488267,-0.0047876053,-9.970395e-05,0.0002476215,-0.004371557,0.0026499566,0.0017014396,-0.0053303684,-0.001707778,-0.0057329433,0.00792026,-0.003908588,0.0015510296,-0.00053077616,0.008474735,0.0014858374,0.0002577754,0.0014514616,-8.084354e-05,-0.002546044,0.00065411197,0.00037915658,-0.0024810384,0.0042256317,-0.00030079554,-0.0025236544,-0.00050212233,0.0043235295,-0.00020253693,0.0010978031,0.0071843434,0.0007407859,-0.00047348495,0.0015564652,0.0069167176,0.0028862609,0.00042028588,0.0036136117,-0.004054639,0.0032411402,0.0030175028,-0.0070843115,-0.0051772967,-0.008097676,0.001943668,0.0022261804,0.004340533,-0.001122026,-0.004680734,0.0035504375,-0.006613894,-0.0017690179,-0.0055631413,-0.0046503474,-0.002907248,0.0008162726,0.0014819399,0.00016401794,0.006888116,-0.006150823,-1.792321e-07,-0.00040140736,0.0032741774,-0.00075805554,0.004094259,-1.3795066e-05,0.00889116,0.0011236784
CAP1,0.0069995704,0.006306095,-3.115467e-05,-0.0051899655,-0.010303443,0.0033682808,-0.00645185,0.003115613,0.008510041,-0.006388544,-0.012365549,0.008665396,-0.005276726,0.0036519088,0.004560691,-0.0043343347,-0.0055987756,-0.00032102654,-0.00260424,-0.0011278318,0.010415998,-0.0076124435,-0.004344408,-0.0006893046,0.0011868774,-0.0016983536,-0.0037902202,0.016785884,0.00887622,0.0020689622,-0.004886655,-0.011952593,-0.0045704083,0.0011897525,-0.0068032737,-0.0023210922,-0.00035916542,0.004202424,-0.00036328164,0.008121913,-9.732333e-06,-0.01246428,0.0037025216,0.0070302556,-0.0016456114,0.0046985582,-0.0028149427,0.0016246707,-0.0022523832,0.013352711,0.00726613,-0.0023583458,0.0049793385,-0.0026590852,-0.0010886029,0.0012304409,-0.0033646289,0.0075820815,0.0031947584,-0.00032040203,-0.0059618903,1.9939287e-05,-0.0047343024,0.004283397,-0.0029787016,-0.01240636,-0.001057585,0.007018645,-0.0042324117,0.0017651765,-0.0040357267,-0.0024286357,-0.0036088536,-0.002106437,-0.004460597,-0.0067524975,-0.003270315,-0.0010814274,-0.0037356894,0.0043104873,0.002295221,0.006843993,0.0044894572,-0.0031027405,-0.0048782947,0.009772394,-0.0039101522,0.0040567955,-0.0008216343,0.0010856923,0.0012399919
COL9A2,-0.0014256885,-0.0049459008,0.0008317463,-0.0079962695,-0.006240922,0.0009392292,0.00067610544,-0.0020012003,-0.0012115164,0.005478784,-0.007899742,0.0024020283,-0.012277998,0.0051852274,0.0010197689,0.0061079673,-0.007200668,-0.007653678,0.00867196,0.008033678,0.0014392742,0.0020033463,0.0024222927,-0.0008011937,0.005948115,0.0067279795,0.012007484,0.006062466,0.010196554,0.0052591427,0.0002218572,0.0022080329,-0.0025475193,0.009312273,-0.0027569782,0.010666104,0.012733364,0.0024124293,-0.0042982665,0.008210947,0.017491534,0.008813885,0.00783893,0.02706065,0.0034453557,0.0190256,0.0016870681,-0.0002768779,-0.00095403334,0.006979032,-0.00014543353,-0.0051315334,-0.005850314,0.007022077,-0.002718015,-0.004342869,-0.0056556105,-0.0046352227,-0.0024546534,0.0034628075,0.0070660044,-0.002505538,-0.010573364,-0.005767277,-0.003989761,0.0064172964,-0.000500128,0.007560456,-0.0042635766,0.015610442,0.0010739687,0.009846982,-0.0031577453,0.0050962055,0.006316106,0.014758328,0.0029654743,-0.00763344,0.008870051,-0.0021557885,0.013642605,2.553442e-05,-0.0057503986,-0.00029919657,-0.010974898,0.018401006,0.002374159,0.021938315,-0.0005697532,0.0029173645,0.008821385
SMAP2,0.0054338565,0.005600489,-0.0045537343,0.0060263895,-0.0043228636,0.0034366837,-0.0024033468,-0.0010081243,0.0018348448,-2.5457628e-05,-0.007735977,-0.002642756,-0.0034750192,0.002703118,-0.0061020544,0.0067751873,-0.0019378779,-0.00728408,-0.0037570621,0.0020360972,0.0012199363,0.004285282,-0.0009493147,-0.00051976164,-0.0042476584,-0.00033682966,-0.004653808,0.0006831426,0.0015339155,0.0046125464,-8.133203e-05,-0.007182332,0.0019521107,0.0059986003,0.0005829253,0.0046820804,0.005015638,-0.00046028264,0.0042756475,-0.0013914828,0.002821546,0.0007970568,0.0013104826,-0.0022868644,-0.007458827,0.004404346,0.002423924,-0.0009887347,-0.00011574571,0.0069518876,0.003412175,-0.006787211,0.010459374,0.0010373001,0.0035087848,-0.0007816393,-0.00021681919,-0.00086367317,0.004326898,0.0030771557,0.004831729,0.0032028283,-0.0029823636,0.0009352298,-0.0010537403,-0.004087801,0.00021680599,-0.0004651269,-0.00398597,0.0014922993,-0.00019492704,0.00051453745,-0.0014195862,-0.0029434392,-0.0023259476,-0.002483127,-0.0029171703,0.0027090332,0.00074056454,-0.0013311263,-4.9117036e-05,0.008729498,-0.0014294401,0.0042989696,-0.001798993,0.0052767806,0.002179179,0.00815189,-0.005258236,-0.001566621,0.0033495356
CITED4,-0.0026089607,-0.0021456932,-0.0038571334,-5.8306603e-05,-0.0028297945,-0.0062700068,-0.0022764755,-0.000981613,-0.0031700807,0.0043533496,0.0029461654,-0.0008172464,-0.00028862501,-0.0030487725,0.0017862085,0.0005972807,-0.0009064891,-0.0004382022,0.0019590973,0.00048073227,0.00029055678,0.012844584,-0.006391093,-0.0043844786,0.0015620856,-0.00040251875,0.0003881935,-0.00012154534,0.0018793214,0.008074061,0.002065903,0.0026060345,-0.0037194125,-0.0026065905,0.005029352,0.0043731527,0.0021122382,-0.001295659,-0.0011050543,-0.0038553781,0.0040725926,-0.013065018,0.00074567815,0.0023058783,-0.0022387214,-0.0022941132,-0.0024347585,0.0003339734,-0.0010389037,-0.0053141317,-0.0017743909,9.1362075e-05,0.004502756,-0.0047805975,-0.0017669514,-0.005066929,0.0026579245,0.004602248,-0.0018932456,0.00021958126,0.0048432853,0.0016397879,-0.0065677445,0.0050304085,0.007495492,0.010185904,-0.00021846118,0.0017790031,0.008962815,0.00031435982,-2.6360913e-05,-0.0024235728,0.0026509727,-0.003394086,-0.004522246,0.0023471348,0.007181001,-0.0033454932,0.00039610075,0.011670905,0.0039885417,-0.00060309435,0.001750562,-0.008595413,0.001917578,-0.0009059443,0.0034456206,-0.00427981,0.008259185,-0.00033524883,-0.00073507696
FOXO6,-0.0011833236,-0.0017472308,0.0014896956,-0.0035965487,0.0037366345,-0.0074840584,-0.0019431026,-0.0014269891,0.0042771646,0.00062417786,-0.0014596877,0.0023746162,-0.0024980973,-0.0014393213,-0.00035538487,-0.00079249655,0.0009941083,-0.0031118232,-9.680294e-05,-0.00075991213,0.0036824893,-0.0029783417,-0.0011727145,0.0020442132,0.0015283478,0.0010092213,0.005388237,-0.0046131536,0.005485521,-0.00080740405,0.0053460016,-0.0038688257,-0.00074354076,0.0052424404,-0.0026073086,-0.0010737566,0.002294775,-0.0062026996,0.0016963992,0.003770394,0.0015751645,-0.002149052,0.0027595311,0.0014424328,-0.00032904235,-0.00039109518,0.0066114673,-0.005501134,-0.0038676313,-0.0040138965,0.004136618,-0.002106099,-0.00025922438,0.0067803976,-0.0040523647,-0.00058434275,-0.00022836907,0.0050408076,-0.0051459116,0.0028444591,0.0031323761,-0.00029907725,-0.0013474406,0.0021883743,-0.002240515,-0.0027401347,0.003067475,0.0021181204,0.005496833,0.0008980367,0.002236138,-0.0029345043,0.0012248693,0.002764098,-0.0036472357,-0.00083359,-0.0012801953,-0.0051113483,-0.00015929199,0.00024903083,0.00063177623,-0.0034550515,-0.0025409942,-0.0057582827,0.005017346,-0.0028923608,9.732784e-06,0.0049719797,-0.00070186093,0.0015291971,-0.0044261236
PPCS,6.954286e-05,0.0004757717,-0.00039482664,-0.0024016325,-0.0020533805,0.0039758333,-0.0010064465,0.00086341705,0.002497761,0.0003035499,-0.0021470373,0.0012427298,0.0011377555,-0.0003672138,0.0036672286,0.00280528,0.0007454505,0.000639212,0.0011953249,0.001283968,-0.0024777295,-0.0011720062,0.0029628153,-0.00421097,0.0035410877,0.0060925377,0.0012395754,0.007299646,0.0035337764,0.00077255216,0.0017292472,-0.0018838545,-0.0013424623,0.00086560164,-0.0026413924,0.004861035,0.0018338157,0.0037633989,-0.0020415727,0.0065716677,-0.0027881314,-0.0049029496,-0.00068510143,0.010248937,0.0066471514,0.003084283,0.002566431,0.0008876494,0.0043276865,-0.001355331,0.00082328275,0.0060316236,-0.002001381,0.00022687661,-0.00015395034,0.0012227846,-0.0038396183,0.0036544253,0.00038090275,-0.0022849313,0.004339724,0.0014537842,0.0025726808,0.004618748,-0.0008699496,-0.006510482,-0.00014867859,0.0045372993,-0.005011764,0.003950889,-0.0016594904,-0.0064603155,-0.0005493238,-0.00011613103,-0.004313957,-0.004103068,-0.0016233744,-0.0030770018,-0.0037871564,0.008644867,0.0022626773,-0.001032119,-0.0005691354,-0.0010112247,-0.0027255455,0.005133247,-0.008272612,0.0040296777,-0.005725872,0.007196371,-0.0020269868
YBX1,0.0020155583,0.013984428,0.009202908,0.07039904,-0.0043128026,0.02583728,0.012400643,0.032519396,-0.00032986162,-0.014168865,0.016054234,-0.051215444,0.047113374,0.004126651,-0.010566513,0.015981954,0.007208134,0.008574619,0.0050220583,0.037682652,0.0034625914,-0.0016787453,-0.014364294,-0.035830088,0.021002593,-0.014417706,-0.058812834,-0.015887644,-0.03486799,-0.018999862,-0.0135250185,0.014509072,0.004675937,-0.019697672,0.028846761,-0.014114078,-0.038043734,0.027787471,-0.02570626,-0.06516383,-0.055214148,-0.0032991432,0.005539599,-0.08313694,0.015182596,-0.03857152,-0.012093043,0.018892758,0.029677194,0.045338687,0.017907165,-0.004307014,0.020164875,-0.012796044,0.011960192,-0.0072955624,-0.02201059,-0.014358398,0.008414678,0.005542383,-0.04255616,0.012416333,-0.002842524,-0.030986387,-0.035757653,0.0063784067,0.0072445585,-0.04814516,0.038399715,-0.025390236,-0.026159748,-0.014025687,0.0033383763,-0.06528762,-0.011185122,-0.008438538,0.0030295476,0.005366144,0.0067104273,0.011372402,-0.0075619635,0.012890086,0.011929395,0.025176456,-0.012952876,-0.02555755,0.033661038,-0.04698668,0.018419672,-0.022738125,0.0011346376
CLDN19,-0.003402844,0.0002637906,0.00023961012,-0.0003798356,0.003950116,-0.0021825442,0.0022201214,-0.0032034328,0.0010711838,0.0013151562,0.0028650914,-0.0021812385,-0.002158013,-0.0014140895,0.0039574187,0.0031421646,-0.0027593072,0.002118887,-0.0014555886,-0.004895499,-0.0053015174,0.008482283,-0.0058070766,0.004972137,0.0044207014,-0.003953918,-0.00064151385,-0.0022200996,0.0063803387,-0.004808138,-0.0038168104,-0.007705654,0.0043027685,-0.0013400725,0.004139437,0.003665083,-0.0008831786,-0.0009910983,0.009699787,-0.0061937566,-0.00075684825,-0.0059598107,0.0038960348,0.001256002,-0.007015009,-0.0015040236,-0.0050758454,-0.001325338,0.0011191529,-0.00023309061,0.007837911,-0.009059629,0.0056089493,-0.001053167,-0.0011364729,-0.0019494367,-0.006312029,-0.0005851704,-0.012388787,0.0059719337,-0.002975008,0.0091809,0.0014821922,0.0021864474,0.0010878509,0.0093813175,-0.008744396,0.008200813,-0.0010552804,-0.004367911,-0.0008879526,0.0013732788,0.0031834615,0.00527967,0.00066197675,-0.0048267175,0.0045255586,-0.015005526,0.01077622,-0.006756959,-0.0055776583,0.0070897555,-0.0061039273,0.005613697,0.0075799273,0.00017471616,0.00016998376,-0.0031671242,-0.0027742994,0.0063357134,0.0027134677
SLC2A1,0.00039882277,0.0007159382,-0.0021474734,0.0119525585,-0.0021616705,0.004470877,-0.010847165,-0.006317805,0.005844706,-0.005119072,0.003258385,-0.0011002845,-0.007643028,0.0039129024,-0.010619138,0.0013108553,0.0049175457,-0.0042299624,-0.014881847,-0.004402811,-0.0028451644,-0.008284138,0.0032149202,-0.005846745,-0.008813912,-0.0033172118,-0.0041280366,0.003836212,0.0019352323,0.010487469,0.004290776,-0.0067360057,0.007937295,0.00012653609,0.00063636235,0.006385268,-0.004838504,-0.0052794805,-0.0059344224,-0.004120829,-0.010172227,0.00058013917,-6.025754e-05,-0.016445938,-0.00892981,0.0064812237,0.0043662577,0.0031320623,-0.010327879,0.007351332,0.0011828108,-0.0042061745,0.011983623,0.0024604653,-0.011128125,-1.6937374e-05,-0.014894438,-0.0011183193,-0.0010802571,-0.006295409,0.0022662475,-0.004170646,-0.0030516982,0.01118626,0.0043495195,0.0021790925,0.010069716,0.0039133234,0.016271226,0.0031753231,0.00047405987,0.0076670223,0.007817077,0.0032531854,0.0056185736,-0.0030026305,-0.0051205438,-0.0023311197,-0.0036281075,0.0007816759,0.0031568054,0.0016969913,-0.00046663708,-0.00086992135,0.0056139887,-0.009354891,-0.0044300784,0.005817308,-0.0022733274,0.004779417,-0.0051153447
SLC2A1-AS1,-0.0028503903,-0.0040065884,-0.0030049358,-0.007320991,0.0027394134,-0.0034477434,-0.0021830536,-0.0036135623,-0.0033830465,0.0015251613,-0.0028845104,0.0045102397,-0.005959781,-0.0040987316,-0.00256978,-0.010520303,0.0045908988,-0.009503585,-0.015172546,-0.0009790537,-0.0028193265,-0.0044509512,0.002453535,0.002083092,-0.008131883,0.0017797373,0.0069756466,-0.008994534,0.010986347,0.009594588,0.010851724,-2.3264563e-05,0.0004344438,0.0034013912,0.002178575,0.0057021067,0.0051488383,-0.014112572,-0.002598089,0.016733656,0.0011427109,0.009169112,0.003848126,0.0052303723,0.0051708533,-0.0074560973,0.0046047615,-0.002560103,-0.020772655,-0.004586154,-0.003621544,0.0010843396,-0.0049036564,0.0009828033,-0.001809228,-0.007196351,0.008051301,-0.00095196086,0.00092951854,-0.002031426,0.010763102,0.0051249955,-0.010033521,0.013289944,0.0099979425,0.007533866,-0.006798381,0.0144874165,0.015641883,0.002147814,0.0041388627,0.012676998,-0.00958418,-0.0015037372,0.0054482655,-0.0036123248,0.0029208506,-0.004965986,-0.005151418,-0.0006561292,0.0030573506,-0.0036788497,-0.0003982298,-0.012850268,0.0038575693,0.003763967,-0.0032822147,-0.00029801307,-0.00243576,0.0039640414,9.870766e-05
FAM183A,-0.0028250846,0.0009430916,2.0220534e-05,0.0030721056,-0.0011740857,-6.6923094e-05,0.004891974,-0.002119594,0.0028140633,-0.00060740154,0.004266883,0.0035016967,0.0024669757,0.007091521,0.0054011215,0.012870238,0.008546576,0.013042532,0.0032055413,-0.006761992,-0.007934932,-0.0050099776,0.00026136817,0.002860629,-0.008003421,0.003864033,0.007548174,0.003935766,0.0066602537,0.00013903568,-0.008001592,-0.001587191,-0.0067989756,0.000801522,0.00063560175,-0.006023667,-0.0005719379,-0.0029444492,-0.0015118989,0.0066690906,-0.00310679,-0.004909539,-0.0064742067,0.005409476,0.00057878264,0.0019069153,-0.0004459315,-0.004008372,-0.0031804983,-0.00014971475,0.0023543953,-0.0019054622,-0.004901618,0.0026598037,0.0023489513,-0.0035705892,0.00051973795,0.0051261173,-0.0036000384,-0.0017041094,0.0016752613,0.0033160748,-0.0017667131,0.00028787856,0.00077522866,-0.009883047,0.0038956057,0.0067516533,0.003520245,-0.0011518493,-0.00022958734,-0.00084451935,0.0033222104,0.0013699828,0.0030488328,0.00050530286,0.00087635085,-9.77999e-05,-0.0026189543,0.0052622426,0.006917528,0.0026766686,-0.0033213191,-0.0030881418,0.0065589156,0.005549421,-0.00066529756,-0.0028422286,-0.003203544,-0.0056675393,-0.0043863924
EBNA1BP2,-0.00047903444,0.017096039,0.005832414,0.026132552,-0.010709683,0.026864942,0.014718312,0.006232972,0.0047044987,-0.012104316,0.017676082,0.0021198832,0.017439492,0.0167744,-0.004283788,0.01697016,0.00011830027,0.024694484,0.004335525,0.006173994,-0.00062256266,-0.014982929,-0.001289267,-0.0065937154,0.009121086,-0.011033984,-0.01193892,0.009025121,-0.015952848,-0.017220195,-0.0053657857,-0.0031041584,0.009473788,-0.018948715,-0.0029271129,-0.013350402,-0.0056665423,0.004120097,0.008737679,-0.019625066,-0.014253764,-0.006300043,-0.007729755,-0.019620461,-0.006669323,-0.003985048,-0.005134964,0.0032251044,0.013521891,-0.0024821064,0.005297626,0.0026826672,0.0055844104,0.0073916567,-0.0012258795,0.007465246,-0.013711082,0.0019779145,-0.005137994,-0.012559413,-0.021362666,-0.0057666483,0.006700254,-0.015186144,-0.006275117,-0.0044802823,0.0023880855,-0.021415874,-0.008742147,-0.002848801,-0.007830891,0.0036489863,0.0031627275,0.00050579244,-0.0101116495,-0.001889574,-0.0001232759,0.003518022,-0.009573211,-0.0074981507,0.00084458175,0.008564725,0.0033228146,0.007963906,-0.008344512,-0.015898716,-0.0016820576,-0.0090301335,-0.0073799742,-0.009515779,-0.0044113393
CDC20,0.011471487,0.0063380455,0.0020949405,0.004560765,-0.005675598,0.01450723,-0.0077443174,-0.0028193535,0.011939596,-0.016845139,-0.0033214705,0.009310533,0.0034459983,0.0034648732,-0.000375715,0.006087708,-0.0030682038,0.01123478,0.0013636991,-0.00011056869,0.0050635035,-0.008072148,-0.0005716125,0.011235786,0.001733038,-0.0039783837,0.0013365998,0.012580694,-0.0041765273,-0.0034081594,-0.0019052469,-0.006950691,0.0018982074,-0.019933715,-0.008419581,-0.0053917933,-0.0056101396,0.004136762,-0.0034350816,-0.006051684,-0.0068391073,-0.005121601,-0.00139576,-0.0063730725,-0.0042265216,0.0017433437,-0.0013507727,-0.0012846515,0.0068958676,-0.0013331658,0.0016232504,-0.0017393043,0.0037433598,0.006137519,-0.0008822462,0.0023485615,-0.0103083085,0.0016039503,-0.0021898847,-0.006749095,-0.0136003755,-9.258346e-05,-0.0003652521,0.0009453875,0.0033165154,-0.010087018,0.005487995,-0.006459441,-0.0070222784,-0.0023931332,-0.0015929742,0.0025167197,0.004555363,-0.0025266337,-0.0023504035,0.0015524458,-0.001498106,0.004103314,-0.009355698,-0.0042718295,0.0054472247,0.0034316524,0.010239438,-0.00087059883,-0.0050881403,-0.0076471493,-0.01324292,0.00094813923,-0.012401801,0.0010046865,-0.005175421
ATP6V0B,0.0055167344,0.012727784,0.0036799505,0.005162616,-0.008693634,0.021537196,0.00051238126,0.0005734946,0.009898367,-0.009708288,0.00041223728,0.011091866,0.0007418302,0.013411725,0.012495783,0.008564509,-0.010999653,0.024575692,0.009161018,-0.0026926373,0.012123582,-0.009596048,-0.011042306,-0.003358722,-0.0024524531,-0.00394805,0.00305565,0.021431724,-0.006173343,-0.012868354,-0.0030577674,-0.010942463,8.0220685e-05,-0.016876943,-0.011194623,-0.0026887534,0.0024758298,0.0009320464,-0.0011341333,-0.0026509766,-0.00452696,-0.01574279,-0.0033777233,0.0034380308,-0.00616044,-0.002194795,-0.0059438143,0.009714698,0.00539672,0.0068544904,0.0073628877,0.0035220645,0.004455725,0.0026666867,-0.0050869207,0.005233623,-0.0104276715,0.0086660385,0.0033386238,-0.008951681,-0.015848117,-0.005756025,-0.009338028,-0.001391744,-0.0059833876,-0.01905502,0.005733812,-0.0050878935,-0.013390305,0.0013831251,-0.0049315696,0.003234581,0.0034623742,-0.00017365995,-0.008462396,-0.0021177998,-0.0027511348,0.00635449,-0.0063704643,-0.0035065364,0.0107101435,0.0071872026,-0.00023692199,-0.0058060014,-0.007280226,0.0036722273,-0.014571524,0.0037271497,-0.008814949,0.0034999726,-0.004280328
KIF2C,0.011731167,0.000615051,-0.006165257,0.0036100673,-0.007863182,0.00693142,-0.01760506,-0.003333619,0.012604094,-0.011484484,-0.004116122,0.006096726,-0.010310654,-0.0050466442,0.0022637264,0.00044477056,-0.009390625,-0.0017487683,-0.006235749,0.0065306397,0.008289495,-0.00021474782,0.0025140548,0.006620525,-0.008869239,-0.0043075634,-0.005279683,0.011164662,-0.0022850377,0.0059694024,-0.0010358527,-0.0096100485,0.0037955851,-0.008444943,-0.005952046,0.0052195415,-0.008348116,0.0052477033,-0.0048664766,-0.002581023,-0.0056712683,0.0004408079,-0.001010939,-0.01223791,-0.0035563186,0.0053059803,-0.0009813672,0.0033505547,0.0090521155,-0.0012513362,0.0025695502,-0.008427373,0.016879821,0.0066620167,-0.0055996967,0.0018084677,-0.013254018,0.0007693473,0.00084447506,0.0030521525,-0.00822223,0.0029488548,-0.0059674727,0.007286616,0.004197002,-0.0070153503,0.0038635498,-0.0002471635,0.0008984532,0.004561949,0.0007860746,0.00414491,0.0058425716,-0.0015255872,0.0033199468,-0.00179157,-0.0032601904,0.002544298,-0.0146614965,-0.012177892,0.0039819162,0.0041944375,0.011342056,0.0019557502,-0.0018480221,-0.007715443,-0.007914845,0.0076036616,-0.009278484,0.0067396546,-0.0059138197
BTBD19,-0.005210783,-0.0033775389,0.0022890547,0.00308238,-0.0033826106,-0.0007170527,0.002278525,-0.002880035,0.0014556916,-0.0013164573,0.0047718454,0.0029159607,-0.0006968823,-0.0019878463,0.0072132456,-0.0036422412,0.00014113542,0.008663089,-0.012439648,0.0011072787,0.0034735978,0.008862073,0.003913923,-0.0063630394,-0.0032540476,0.008657912,0.00809482,0.003376597,0.0067733177,0.011765347,0.005732154,-0.010294929,0.006114637,-0.000840953,-0.020328416,-0.007708663,0.00019788869,-0.0040723714,0.0030069205,0.00014783815,0.0064689564,0.0010309556,-0.003182238,0.00830991,-0.01432581,-0.012797994,-0.0026404872,0.0023316967,-0.0018458527,0.0047391215,-0.00453035,-0.0005342729,0.0028373594,-0.005110129,-0.0002446906,-0.0030454479,0.0038019093,0.004522451,0.0061829835,-0.00430601,0.013696788,-0.018703042,-0.007155646,-0.0030109794,-0.0030906238,-0.0037168714,-0.00038256784,0.00022093771,-0.0055174176,-0.0056847306,-0.0024339308,-0.00058128877,0.004816822,0.0016363813,-0.012899082,-0.0010895155,-0.009748838,0.0068582543,-0.0013775022,0.0021775663,0.0054033906,0.0060768756,-0.008117614,0.0004417655,0.011553173,0.0020798005,-0.0041721053,-0.0075679356,0.008594325,0.011475091,0.005249246
PRDX1,-0.00023785513,0.025655437,0.011371853,0.012422171,-0.007851382,0.03628098,0.019120902,0.000506153,0.013563868,-0.02109883,0.017827492,0.018937783,0.021953963,0.023485703,-0.010899227,-0.0038003766,0.00038641546,0.033661317,0.0056632455,-0.007826922,0.00039146352,-0.028807744,-0.016087057,0.009934758,0.015790256,-0.008028855,-0.0044302503,0.022092829,-0.026063383,-0.01680499,-0.004012456,-0.0045138397,0.0068395543,-0.035438206,-0.012383936,-0.022878263,-0.011117876,0.0014584505,0.0024271717,-0.009258122,-0.015754921,-0.01571328,-0.0050570425,-0.017748762,-0.012925811,-0.012859851,-0.011572443,0.012305871,0.019246573,-0.0037839648,0.008629539,0.0067169084,-0.001654214,0.008203449,0.0023089699,0.0059844605,-0.0152236745,0.0013472082,-0.0043563703,-0.017859431,-0.023153527,0.000573196,0.013042742,-0.02176196,-0.0025498513,-0.009732964,0.0054850425,-0.025606275,-0.029746685,-0.011573957,-0.012170333,-0.0018215439,0.0051349704,-0.0018052418,-0.009986013,0.004084347,0.0039058279,0.004693012,-0.026868282,-0.010422572,0.0037266177,0.009953884,0.014194376,0.0023775585,-0.00094031304,-0.011144889,-0.016691096,-0.020890554,-0.012003856,-0.010805304,-0.0054168296
MKNK1-AS1,0.0012602474,0.0031051016,0.00040079784,0.002156951,-0.00041966682,-0.0011500238,0.0002523179,-0.003911191,-0.0014694192,-0.0029124296,-0.00045073792,0.00029561017,-0.00063606584,-0.00029637502,-0.000522897,-0.00061600807,0.0038989552,-0.0051887054,-0.00085941656,-0.0004517914,-0.00073786953,0.0023249544,0.0008186719,0.005068286,0.0004292894,0.00012321127,-0.0020648523,0.0034624818,-0.0002519671,-0.0012356758,-0.0023160987,-0.00045041964,0.0014282113,-0.0040385327,-0.0023407734,-0.0014202305,-0.0055514458,0.0023886273,-0.0051797545,-0.0014431154,0.0016295154,0.0062066177,-0.0008465482,0.0025926586,0.0019711633,0.008047275,0.00617452,-0.00083392166,-0.0015346323,-0.008962759,0.0049132803,0.0054473914,-0.0018827895,0.010646539,-0.007536363,0.0011445278,0.0040458823,0.00490924,0.0012249392,-0.00090909866,0.0035335869,-0.005867094,0.007039713,0.0015733206,0.004235467,-0.0036731826,-0.0013489682,0.00042545813,-0.004367922,0.0029186949,-2.794325e-05,0.0024674563,0.0020173956,0.0018212022,-0.001403289,-0.0013327418,-0.0028357226,0.002457745,0.00072806777,-0.0024305598,-0.004822153,0.0007919745,0.0026361083,0.004692097,-0.0032515076,-0.0008232495,-0.0026685987,-0.0024600262,0.001895731,-0.008073599,0.001256079
