gene_symbols,phi_0,phi_1,phi_2,phi_3,phi_4,phi_5,phi_6,phi_7,phi_8,phi_9,phi_10,phi_11,phi_12,phi_13,phi_14,phi_15,phi_16,phi_17,phi_18,phi_19,phi_20,phi_21,phi_22,phi_23,phi_24,phi_25,phi_26,phi_27,phi_28,phi_29,phi_30,phi_31,phi_32,phi_33,phi_34,phi_35,phi_36,phi_37,phi_38,phi_39,phi_40,phi_41,phi_42,phi_43,phi_44
SAMD11,-0.02147887,0.00350971,-0.003190871,0.0045274543,-0.014096235,0.014220372,0.03341952,0.01581017,0.0054528266,-0.006264794,-0.014837837,0.009096456,-0.0007986418,0.0058780913,-0.006038047,-0.012537053,-0.0019422331,-0.010987407,-0.0027695757,0.0019048224,0.0045922576,0.004037727,0.00097621756,-0.01485493,0.005635154,-0.009397292,0.021193817,0.0046627508,-0.00218043,0.0029591117,0.010862249,-0.02764268,-0.038414314,-0.014366835,-0.0015065131,0.009979954,0.03681788,0.028689442,-0.004104555,0.03160743,0.01635044,0.020914001,0.009357141,0.007376211,-0.0046267086
HES4,-0.0049559367,0.013162531,0.023211563,0.013146233,-0.028093815,-0.01234913,0.009384176,-0.0027061505,0.0032455253,0.006061605,0.008527153,0.008800737,-0.0036820644,-0.0031672246,0.00016067711,-0.009370179,-0.008066879,0.0058342624,-0.004792708,0.00297398,-0.013364117,-0.008643898,-0.0061595165,0.0015671747,-0.007700587,0.0060982616,-0.014573119,-0.0069148405,-0.00040686174,0.000720568,0.006377638,0.008341477,0.00867964,-0.0029591606,0.0046891323,-0.0037307201,-0.0026028003,0.0045071244,0.010497286,-0.004070655,-0.0014945716,0.005020946,0.0006902602,0.005705935,-0.0045914333
ISG15,-0.0021169856,0.0032036933,0.0055145198,0.001639197,0.00774978,0.010816918,-0.011786175,-0.008247546,0.012967338,0.015444068,-0.0036421176,-0.018437775,-0.0055191433,-0.0012757006,0.008986708,-0.015857378,-0.019131316,-0.005399352,-0.004178945,-0.002467318,0.00015278584,-0.004834598,-0.0072672055,-0.0077124,0.003551985,0.0073914845,0.007194099,-0.0045838035,-0.00012710935,0.00500474,-0.00054037204,0.005641584,-0.00396734,-0.0043415395,-0.0004222545,-0.0069955993,-0.00075181166,0.020580566,-0.0012167266,-0.00032816638,0.006548938,-0.0025777684,0.0023464002,0.007421626,-0.0005070841
RNF223,-0.0027713645,-0.0016340337,0.0009467405,0.0014353031,0.0005916569,-8.4394196e-05,0.0030542812,-0.0037208975,0.004885955,-0.0024865645,-0.00032213485,-0.0017900758,0.00046676706,0.0010625068,-0.0028775171,0.00078935054,0.00260464,0.00030372385,0.0015649054,0.0011235954,0.0020441476,0.0021955876,0.0012275703,0.0021273342,0.0013221103,-0.0005719342,0.0044214563,0.0024846261,0.0011010307,0.0028839859,0.00020834549,-0.0010984562,-0.0036242474,-0.0024349468,-0.0008591177,0.0017284798,0.0041787233,0.0015705532,0.0029560074,0.003062943,0.00018389852,0.0076506133,-0.00066774525,0.0014161294,-0.0005495281
TNFRSF4,-0.0014714226,-0.00038006544,0.0031622334,0.005323593,-0.0016872693,0.005297315,0.00247232,0.0005722668,-0.0013819289,0.0013633135,0.0049718227,0.003718458,0.011987378,0.0024900986,0.0045997053,-0.014509323,0.007050806,-0.0040681926,-0.002170629,-0.0029453584,-0.0011315027,0.0014482688,-0.0037660613,-0.0020979925,-0.0018718303,0.0008676939,-0.0011258681,0.0011463944,-0.004580216,0.0052575287,-0.00054989243,0.0010576203,0.0038773378,-0.019360702,0.000117709365,-0.0025247005,0.0065098973,0.00086277246,0.005368932,0.0029123456,-0.005357571,-0.0035495337,0.008419734,-0.015112209,-2.7135544e-05
MMP23B,-0.00071264995,0.0024941994,-0.004520579,-0.0075045256,-0.00053125346,-0.0021511302,-0.009689908,0.0030198228,0.006243528,-0.0025785528,0.0010643738,-0.0031736318,-0.00086291134,-0.008605153,-0.00470367,0.00811229,0.0071210545,0.0034125426,0.0036855566,0.0013843699,-0.0028310225,0.0013904762,0.002145878,0.0038232135,0.0063628005,-0.0016433051,0.0062546465,0.008239875,0.002570528,0.005273094,-0.0058869515,0.0012844234,-0.002726034,0.002335191,0.0016714457,0.0041734935,0.0098547805,-0.015384788,0.00044049526,0.004700063,-0.008038313,0.0016192748,0.0032062137,0.0015178999,0.00055196893
TNFRSF14,-0.0056298,0.0023145177,0.004224227,-0.0035373312,0.0031228887,0.003819169,0.00043186828,0.004806929,0.00986088,0.014646293,0.001611722,-0.026426116,-0.00303969,-0.007985743,0.002658485,-0.0029636396,-0.011489314,0.00389518,0.015068488,-0.009661988,0.003589554,-0.006880716,-0.007338115,0.007672659,0.012151174,-0.011318644,0.008582903,0.0050787465,-0.0011678264,0.004289916,-0.0015414244,0.008622036,-0.00095327775,0.0004583414,0.0020512992,-0.0050267824,-0.0032918537,0.0005062885,0.0043842406,0.014820156,0.0025731297,-0.013809776,-0.004227891,-0.0024957869,-0.00089916325
TTC34,0.00034909238,-0.00034159535,-0.005062508,-0.003900653,-0.002670847,0.0007136526,-0.0009896411,-0.003963984,-0.0026778595,0.00032635903,-0.0026884035,0.0009629244,0.0026203438,-0.0023277004,-5.7185618e-05,0.0020678823,-0.001909663,0.00089236547,-0.0045868247,-0.0008398094,-0.0005452526,-0.0043624043,0.00084645627,-0.0003052301,0.0037287048,-0.0059568547,0.0012717478,0.00457271,0.003256194,-0.0045042033,-0.0005876985,0.0021512625,-0.0022026545,-0.0013190747,-0.00014701142,-0.004286882,0.0015151696,-0.005047061,-0.0036197817,0.0008676408,-0.003783344,2.1533908e-05,-0.0016109303,-0.0012583279,0.0012516183
SMIM1,-0.010359278,-0.0030377873,-0.0029603818,-0.006948503,0.0037432841,0.0013886464,-0.0009988685,0.015558045,-0.0024234387,-0.004064307,0.0011879965,-0.004683002,0.0015828594,-0.00932196,-0.008179199,0.010191875,0.0026394874,0.007692099,0.0069409646,-0.005285007,-0.0014332101,0.00011988897,0.004387682,0.0017883632,0.013529768,-0.0028234937,0.008556378,0.011663151,-0.0045707216,0.0061041173,-0.010446644,0.0054186312,-0.005150341,-0.0027071766,-0.00042092823,0.005637774,0.012275324,-0.021186672,0.003428133,0.002480399,-0.011715643,0.00054547354,-0.004006841,-0.0123117175,-0.004667361
LINC00337,0.0017449004,0.004286898,0.0069003184,-0.0042009735,-0.003923762,-0.0021281869,-0.00013072963,0.0025255417,0.0019628392,-3.4875688e-05,0.000636628,0.001568686,0.00039663745,-0.00045278412,-0.0003894594,-0.0014118443,-0.0025436108,-0.0010912044,-0.0003047395,-0.00036386252,-0.003527688,-0.0014651725,2.7260054e-05,-0.0014730776,-0.00075227447,0.002137962,-0.0021942852,0.0009956706,-0.0014834484,-0.0011056301,-0.0024618146,-0.0002771209,0.0014412244,0.001755734,-0.0014152306,-0.0019778644,-0.0013290326,-0.00126708,0.00015422134,0.003042107,0.00096155587,0.003525712,-2.5718673e-05,0.0034793257,0.0010448182
HES2,0.0067366106,0.019169003,-0.0010026376,0.006646595,-0.011537982,-0.006826972,0.0013277776,-0.0028587256,0.017278412,0.004247958,-0.006309635,-0.00035611956,-0.0028436254,0.0033083821,0.0025756143,-0.0027631626,0.011305824,0.00060814776,0.0039210115,0.005138973,-0.001064887,-0.0014391363,0.003004848,-0.0056500877,-7.783471e-05,0.0021069387,-0.0051773805,-0.00043257346,0.0015871093,-0.0016352445,0.0013378632,-0.0028798669,-0.0049205367,0.003239594,-0.00071909546,-0.0036616942,0.0009295768,-0.003534047,0.004806602,-0.00055030524,0.0028447537,0.0013930631,-0.0010002678,-0.00094367965,0.0017448732
ESPN,-0.0014733715,0.0038740698,0.006675994,-5.030085e-05,0.0060820864,-0.00068108074,0.0026477235,-0.0032051771,-0.0061639785,-0.0016983985,-0.0011829174,-0.00064160937,0.00018512718,-0.0010287479,-0.0039677443,-0.0009777829,0.001931264,0.004271234,0.003698777,0.004856172,0.012535396,-0.0008096786,-0.01035569,-0.006160085,-0.0033757854,0.0020605791,0.004149783,-0.005934538,-0.00021749933,0.0014875334,2.7299156e-05,0.002867011,-0.0054349303,0.0027767785,-0.0037337886,0.0016813158,0.001042322,-0.00863203,-0.004155509,7.8986006e-05,-0.005014998,0.00014136019,0.0005614889,-0.00013454196,-0.0002660987
TNFRSF9,-0.005730495,0.0042255456,-0.0010450996,-0.0032154901,-0.0017856543,0.0017741569,0.0045303693,0.005715982,0.009615802,0.0037098464,0.016706718,0.0015808308,0.03432258,0.0024094204,0.023322547,-0.041500047,0.027404603,0.002417889,-0.004397635,0.022047762,-0.011665673,0.011987823,-0.013954268,0.017974753,-0.00065822486,-6.6140856e-05,-0.0034859017,-0.005502012,6.4089516e-05,0.0011154857,0.01094051,-0.018386712,0.008862588,-0.043592557,0.016564686,-0.0021290425,-0.008194844,0.014215271,-0.0009394957,0.0074118692,-0.01663188,0.0054239915,0.0053676157,-0.017801909,0.0007014511
ENO1,0.041139923,0.015997004,0.015471749,0.0897467,-0.015494461,0.0029898388,0.050421175,-0.07646705,-0.05805472,0.02005936,0.017369805,0.044190817,-0.008676418,0.02518136,0.022305343,-0.04128364,-0.032012872,-0.008132631,-0.016571337,0.0067313416,-0.027382048,-0.015683152,-0.009989316,-0.01062979,-0.039442338,0.025478471,-0.06528924,-0.051422916,-0.007997324,-0.0100255245,0.0051466334,0.01710019,0.01864802,0.0025793824,-0.018046696,-0.03223663,-0.040154845,0.044475406,0.007964137,-0.028749049,0.037804693,-0.0020975252,0.0067286175,0.040625583,0.010382995
GPR157,0.00082783034,-0.00045733387,0.0007315615,0.0004838816,-0.0044792867,-0.0016899271,0.0007073198,-0.0038842906,-0.0011694641,0.0013785745,0.0009354499,0.0013664657,0.0010223339,-0.00012234069,-1.6382972e-05,0.0015626164,-0.0025983069,-0.0028824094,0.00091870734,-0.00017119644,-0.0012603587,-0.0013344465,0.0012000821,-0.0018210957,-0.0013684942,0.0022065924,-0.00044709753,-0.00033199444,0.0015463119,-7.82871e-06,0.0021964968,0.002751973,0.002846334,0.0016503531,-0.00081883435,-0.00014103539,0.0011225041,0.0029929131,-9.2161645e-05,-0.0005271678,0.0026367065,-0.0016744998,0.0018639194,0.001569249,-0.0014802978
H6PD,-0.0025595538,-0.0043489635,2.8048655e-05,-0.0038309356,-0.0026794788,-0.0066915257,0.0077006645,0.00150944,-0.0035089229,-0.0008820592,-0.009918946,-0.0028007592,-0.001478479,0.0075660907,0.00048603647,0.0036676824,0.0033697987,-0.0030737226,-0.0001451829,-0.0018448357,0.010691608,0.009085324,-0.0012057604,-0.0038254005,-0.0012242881,-0.0034260305,0.009563651,0.0039127395,0.0048998273,-0.003368525,0.0014876826,-0.0074796425,0.0005205479,0.00011254404,0.0019805976,0.0025333485,0.0036142496,-0.0044301213,-0.004745537,0.0033407002,-0.001523052,-0.008948611,0.0012804405,0.0033503135,0.0023435995
PGD,-0.0068201423,-0.0045169108,-0.001537281,0.0049710637,0.0015444971,0.007731035,0.0011858175,-0.002665964,0.0069089057,0.0072670598,-0.0036579117,-0.0046539223,0.0025086033,0.0038819208,-0.010120268,-0.006429628,0.0069401124,0.00094259315,-0.0059150285,0.0021308316,0.0017427788,0.0058164913,-0.001940133,-0.0008629246,-0.00296789,0.0022135247,-0.020435516,0.011745051,-0.0028414896,-0.0061407164,0.0022422236,0.0023198447,-0.0047583086,0.0016849443,-0.005534583,-0.0118606035,-0.008072404,-0.00045337662,0.005561031,0.016785724,-0.0020973408,-0.0100026205,-0.001981013,-0.0003245286,0.004009563
MASP2,-0.0014150548,-0.0012651231,0.0007739017,0.0016677193,0.00035280493,0.0007801624,0.0019210804,-0.0012045485,-0.00082431734,0.0027159788,-0.0003462127,4.5081302e-05,0.0005760655,-0.0011662256,0.0014233055,0.0025429537,0.00030426716,-0.0013300349,0.0017093961,0.0011041565,0.00015675597,0.0008559582,0.00028419332,-0.00035847214,-0.0010935256,-0.00013978982,0.00083416956,0.00091893575,0.00051571045,0.0013487164,-0.0017720958,0.00012176116,-0.0014791875,0.0008688066,0.0019721806,-0.0008392449,0.0004054608,-0.00017065297,-0.00025876373,-0.0005916725,-0.00024894293,0.0024622108,0.0031982772,0.0011350645,0.00030815284
SRM,0.023646586,-0.0044314056,0.00014622277,0.042332888,-0.050821003,-0.012490193,0.024133725,-0.02955577,-0.055829205,0.0078812465,0.00019383899,0.028934794,-0.019688813,0.014053152,0.032258965,-0.0017685314,-0.027605796,-0.0087314425,-0.01729489,-0.012042918,-0.009025729,-0.011873077,-0.005478508,-0.012102483,-0.025423314,0.027505253,-0.047556877,-0.043337535,-0.008398436,0.011477064,-0.01772144,0.036980502,0.021692472,0.0065985625,-0.019629735,-0.019198537,-0.02244446,0.012885193,0.024177408,-0.02759466,0.021070564,0.0071666962,0.0028060202,0.015560568,0.007243237
DRAXIN,-0.000709115,-0.0016590599,-0.0014185414,-0.0015757979,0.00053373934,-0.00039801118,-0.00049480086,0.00019837455,0.0027469865,-0.00048790418,-0.0014665528,0.0011924001,-0.0021621552,-0.00084109645,0.0025798262,-0.0005026276,0.0015040381,8.620413e-05,-0.0010724011,0.0011599516,-0.00028581178,0.0022683183,0.0013753579,0.0016959441,-0.00092125207,0.0006661087,-0.0007632462,-0.00078543357,-3.7869537e-05,0.0007144728,-0.0005295147,-0.0014401646,-0.00014301082,0.0019178857,0.00011513291,-0.0008230698,-0.00028629866,-0.0011444689,6.729445e-05,0.0028275505,0.002994939,0.004662254,-0.00012783858,0.0020629326,0.0019045625
MTHFR,-0.005788035,-0.0011819783,-0.0046961894,-0.006650849,0.0021511281,-0.0002284261,-0.010718158,0.011002504,0.006769945,-0.004123932,-0.0037539303,-0.0057040597,1.321439e-05,-0.0039847586,-0.0016293945,0.0065000425,0.00021386247,0.0021340786,0.00072425243,0.000445092,0.0046450854,-0.0009021801,-0.00035302248,-0.0013143867,0.0067076897,-0.004729261,0.009368125,0.0030710183,0.0026118145,0.0023820442,-0.004529865,0.005524924,0.0024658334,0.0012423876,-0.0005446237,0.008544846,0.010506134,-0.0058651012,0.004770129,-0.00039494576,-0.004402027,0.0006815014,-0.0001728948,-0.003790924,-0.0025333553
PDPN,-0.0005955629,-0.0028606316,-0.0028332598,-0.0022676387,0.0021933508,-0.0014136754,-0.00048088183,0.0010814704,0.0016442358,-0.002634186,0.00076642784,0.00010074671,-0.00062952825,0.002257484,-0.0013790312,0.0014107794,-0.000264091,-6.743313e-05,-0.00045359187,-0.0003343847,0.0011191386,0.0012390313,0.0008904882,6.780178e-05,-0.0014676417,-7.2169816e-05,0.00090654596,3.0078425e-05,0.0019063528,-0.0006028466,0.000709013,-0.00036748793,-0.0003202058,0.00087401224,-0.00027394315,0.00051491143,-0.00029318643,-0.0017063136,0.000861728,-0.0011028313,-0.0019939442,-0.00010720062,-0.0006924702,0.00042076714,-0.0013572992
CELA2A,-0.009724712,-0.00808319,-0.00938979,0.008235068,-0.0021437411,0.01787509,0.011331671,0.0031647822,-0.006416382,-0.00021288787,0.0027199583,-0.006306472,0.004628861,-0.0138180675,-0.009147606,-0.0023646622,0.0155644035,0.0014522409,0.005665711,-0.0019957356,-0.0019262676,-0.0018042576,-0.0021418717,-0.0023978804,0.0031704614,0.00014372279,0.016642518,0.005661219,0.007298154,-0.0056420015,-0.0018582961,-0.00442356,-0.0050827027,-0.0005077884,0.0006817969,0.0145283155,0.0077570626,0.0018232426,-0.009985403,0.0018087754,-0.00095589564,0.0020201264,-0.0009160147,-0.0015453459,-0.0013865859
CELA2B,-0.0024296176,-0.001672271,0.00077091606,0.00023835688,0.0023586464,0.0016245983,0.0009075141,0.00050149346,-0.00052693905,0.005447464,0.00047796383,0.00027930413,0.009472939,-0.002891674,0.0077922763,-0.0077006905,0.005708647,-0.0021096317,-0.0017817842,-0.0013620924,-9.88944e-05,-0.00062078197,-0.0017324302,-0.0027315468,-0.003178476,-0.0031589512,-0.0046312287,-0.003508514,0.0033024994,-0.0017661849,0.0015420633,-0.0010311079,0.005461845,-0.009955542,5.8038444e-05,0.00024792322,-0.00087846845,-0.0020217237,-0.0014807057,0.0033782301,-0.010424425,0.0019557474,0.0009921053,-0.0058976193,-0.0035201937
PLA2G2C,0.0029772564,-0.007056336,0.02954455,-0.0010435858,-0.008982094,-0.02654609,0.007955714,0.010762414,-0.0049391664,0.040043775,-0.0058122836,-0.036234967,0.006982665,0.046863344,-0.056142267,-0.05711301,0.04426817,-0.0066110315,-0.030320434,0.0042082025,0.029138308,-0.02192064,-0.022439992,0.019826166,-0.0027551928,0.006473132,-0.0026990585,0.019991163,0.044595562,-0.04169092,0.004134954,0.011318924,-0.028752666,0.03030674,-0.023392301,-0.0142672835,-0.006979012,-0.05287845,0.00049964077,0.007020489,0.023249572,0.004254324,0.009705033,-0.06387931,0.0067884685
HP1BP3,-0.0013673991,-0.0057171583,-0.0009161919,-0.0017334205,0.005419262,-0.004279698,-0.010911905,0.0053363102,0.0048098676,0.0018734311,0.0019720062,0.0055013727,0.004584941,0.002027819,-0.008031259,0.0014467811,-0.0024482154,0.0011667374,-0.0021728699,-0.002920867,-0.0020057003,-0.0045473645,0.0014257396,0.0021629042,-0.004202188,-0.00089058833,-0.0005919522,-0.0036318423,0.0008091686,0.003038822,-0.00338743,0.0022084233,0.003392231,0.00035235056,-0.001975145,0.0041626543,0.008269972,0.0011963291,-0.0032525274,-0.00077013834,-0.00040946185,0.0017550291,0.0007783265,0.0015452773,-0.00068573985
CDC42,0.0019062938,-0.000628015,0.00621925,0.0108632,0.0017501761,0.008636133,0.0011400642,-0.008756903,-0.0023675715,4.088875e-05,0.0028916837,0.0045336355,0.000310711,-0.000650407,0.00020864193,-0.0054199295,-0.0064635756,0.0018082856,-0.0047638393,-0.0016662112,-0.0025182797,-0.0023589705,-0.004050757,0.0005210097,-0.0035558632,0.0030508472,-0.009282055,-0.0011052571,-0.0012263464,-0.0023072488,0.004308332,-0.002080518,-0.00046805944,0.002004029,0.0021424089,-0.0022207347,0.0015607941,0.0018592733,-0.0014855511,0.0015005802,0.0060774307,0.00081386906,0.0022900715,-0.0017296283,-0.0004931645
ZNF436-AS1,-0.0044682263,0.001116446,0.00079038716,-0.011736965,0.008565498,0.0061131665,-0.002932666,0.010875167,0.007956587,-0.0017451312,-0.008794221,-0.004700796,0.0015325942,-7.93506e-05,-0.0056169545,0.0026192237,0.0011990211,0.0009601989,0.004772484,-0.0033008412,0.006290845,0.0036016698,0.004961602,0.001320808,0.009635327,-0.004777976,0.0136794895,0.0005713144,-0.00039010833,0.0055059963,-0.0015603837,-0.005972063,-0.0027232617,0.0005985842,-0.0031873342,0.004927494,0.0064389757,-0.0025841915,0.0009631605,0.0040322915,-0.008250985,0.001555119,-0.0011801497,0.00014542817,-0.002142825
ID3,-0.070418335,-0.046572704,-0.010337423,0.0069280057,0.025987597,0.015736688,-0.013212836,0.0002793089,-0.02301478,-0.019596465,-0.024334928,0.018721102,-0.0024414358,0.029461175,-0.025949437,-0.03893437,0.013321254,-0.024824623,-0.0012668476,0.0040132245,0.009537486,0.008652766,0.0034521974,-0.005594365,-0.0010954145,-0.026589734,0.04310321,-0.0017888003,-0.010842754,0.013897688,0.0013736556,-0.029926922,-0.03647516,-0.0073883175,-0.0086843865,0.031903498,0.08532227,0.08321108,0.026052888,0.067206986,0.06651093,0.12285655,0.018086882,0.060403857,0.025776513
HMGCL,-0.0019315225,-0.004004541,0.0011041266,-0.0034097277,0.01379906,-0.0005898057,0.0004462446,-0.005361747,0.01000653,0.0006218764,0.001397277,-0.0012868932,9.523134e-05,0.0058491733,-0.011535357,-0.0041764397,-0.00084380235,-0.0036833691,0.0009980756,0.0005223859,-0.0032933315,-0.004871289,0.0026084662,0.0007482149,0.0036013601,-0.006686654,0.008724428,0.010839587,0.0029795698,-0.0013550521,0.005764891,-0.0073276926,-0.0038544599,-0.0066192774,0.0006649851,0.0040239654,0.006925357,0.004282039,-0.006860453,0.0027180933,-0.008310627,-0.005295505,0.0015843968,0.0021872974,-0.0017510023
FUCA1,-0.00107592,-0.0032148673,-0.0011434515,0.0008167309,0.0011639246,-0.005844371,0.004414621,-0.0025263797,0.0015578426,-0.002554882,0.0030812293,0.002049512,-0.0006688742,-0.00081394473,-0.0071310443,-0.0025976484,-0.0030211925,0.0027950404,0.00024823268,-0.0047231857,0.0014567019,0.0058840862,0.0009108443,-0.00543397,0.0050923247,-0.0060688294,0.00075877516,0.009127176,6.30381e-05,-0.0041287863,-0.0009411496,-0.0031510687,-0.008813472,-0.0022104946,0.0006659354,0.00090864016,0.011893048,0.0051678964,-0.0024330947,6.0935804e-06,-0.0012543536,-0.011964558,0.0034048567,0.00053609494,0.003684781
CNR2,-0.0011585947,-0.0015809407,0.00046739177,-0.002515097,-0.00050286733,0.0005324981,0.0017986513,-0.0022004112,-0.0006928774,0.0025950943,-0.0012490677,-0.000995024,0.0008448978,0.0029176357,-0.003867701,0.0012251877,0.0037786735,-0.00020728885,-3.951515e-05,-0.0007615928,-0.0009129825,-0.0024536073,-0.0026677514,0.0010305833,0.00028308845,0.00038221563,-0.00086317275,0.00150232,-0.00020635764,-0.00032950766,-0.0018546933,-0.0023233658,0.0005272704,0.001613956,-0.0010848317,-0.0015918207,0.0015098023,-0.0016178135,0.00032204593,-0.0015159207,0.00054248545,-0.0004649818,0.001219734,-0.00042588435,0.0012498614
SYF2,-0.0021895554,-0.0004382048,0.0025395867,0.006191822,0.0153651405,0.00811803,0.0057948832,-0.006166977,0.014152087,-0.0026048154,-0.0033633115,-0.0022101072,-0.0013657649,0.0003592376,-0.0036151365,-0.008703641,-0.0033541706,0.0027653663,0.00178833,0.004013613,-0.0031598797,0.0018928092,-0.006482478,0.0025480678,-0.0021268646,-0.0012582864,-0.005523161,0.0032375394,-0.0023058816,-0.00048155483,0.018093305,-0.004562816,0.00033947325,-0.002472761,0.0058123884,-0.0035829342,-0.0054507973,0.008149684,-0.008940429,-1.2495752e-05,0.0007726786,-0.0050984463,0.0005502093,0.002221112,-0.0038232792
RSRP1,-0.0047203205,-0.0042687603,0.0018354155,-0.004428902,0.0066114306,-0.0049419003,-0.0007805539,0.0029881902,0.0063107796,-0.00054327946,0.00061549636,-0.0036827077,0.00040540556,-0.0034854237,-0.0029298994,0.00091401784,0.006694732,-0.0006815934,0.0022025283,0.0043169223,0.00043736273,0.0039378474,0.0015643506,0.0021566267,0.0036930274,-0.005038228,0.008937635,0.0110297715,-0.002948147,0.00016629443,0.0030886396,-0.00432646,-0.007293109,-0.0056175245,0.0066439295,0.006994798,0.008651566,-0.0077148415,-0.00021678342,0.0064094393,-0.010116538,6.0434973e-05,0.0006489826,-0.0051941453,0.00019050087
MAN1C1,-0.002750509,-0.0018236723,0.0012253149,0.0013730605,-0.0018886173,0.0007012619,-0.0025831226,-0.00086843636,0.0017125009,-0.00045489983,-0.00025122773,-0.0017303632,-0.0024198121,-0.0022765505,-0.002576649,0.0011917722,-0.0023444274,0.00036134888,9.067139e-05,-0.0023785091,0.000103428174,0.00047478115,0.0007991455,-0.0019460301,-0.0014212703,0.0009860683,-0.00034146153,-0.00015762103,-0.0012293312,-0.00026952446,-0.00056685304,0.0004888365,0.0015707592,0.0014449778,0.0016083444,-0.0013019679,0.0022976804,-0.003431994,0.00086242834,0.0013638795,0.0024122612,-0.0011886945,0.00041737716,-0.0032592185,-0.0020390858
PAQR7,-0.002179033,9.835402e-05,-0.0016434221,0.0021968274,0.002710894,0.0050581563,-0.003092022,0.0006977252,0.00019141272,0.0009663007,-0.0029564947,-0.0037792881,0.00041356214,0.002862467,0.003095489,0.0073081353,-0.0010576197,-5.4085063e-05,0.0029017252,-0.0019515916,0.0011747675,-0.006820281,-0.0016234426,0.003630046,0.0030473575,-0.002780283,0.0029332058,-0.0054712286,0.00062556897,0.003741288,0.001043127,0.000865359,0.0015166841,0.00025556886,-0.0038222673,0.0014916444,0.0019366852,0.000715194,-0.002976975,0.0015640956,0.0028970514,0.000700662,-0.0011009589,-0.00282062,-0.0038639978
STMN1,0.013485944,-0.00090144057,0.0045082932,0.0025189305,0.02853051,0.004997937,0.0151416715,-0.005571248,0.0080340365,0.008760679,0.00944416,0.030414773,-0.012839403,0.022949846,0.013259253,-0.00722694,-0.024073433,-0.0049260617,-0.010203344,0.0030416255,-0.0071181506,-0.017829241,0.0005659085,-0.004521778,-0.02302956,0.02382015,-0.030357346,-0.039771788,-0.0004971597,0.0041054557,-0.008870576,0.010765306,0.011739478,-0.005228975,-0.027796911,-0.005565889,-0.023575842,0.019791417,0.009059577,-0.020339878,0.016400903,0.008348356,-7.633524e-05,0.002820657,-0.010100205
EXTL1,0.0011863214,0.005665319,0.0010641832,-0.0038087748,0.0038925738,0.0044475747,-0.0009310008,0.00341238,0.005531346,0.0016517288,-0.004582837,-0.0010775329,0.0020041815,0.006616613,0.0024618162,-0.0010838833,0.009210691,-0.0028247891,0.0007387715,-0.003658808,0.0025119344,0.0014157256,-8.576515e-05,-0.00027283403,0.0021733926,-0.0022561245,0.0074099344,0.0011554229,0.0011738648,-0.0012658215,-0.005668188,-0.004882875,0.0013680778,-0.003609531,-0.001697325,0.0036048873,0.0051009366,0.0060309893,0.001731711,0.0013715912,0.0024638136,-0.002847196,0.001955193,-0.0011701675,0.0067069256
TRIM63,0.0009898761,0.0025994342,0.0029026936,0.0015556382,0.003505887,-0.00551045,-0.0042325584,-0.0037366704,0.00069785595,3.3750886e-05,-0.0010152232,0.0024780808,-0.0017550844,-0.0034549236,-0.0028719772,0.0014333033,0.001314613,0.0045153145,-0.0002520737,0.0045343973,-0.009905844,0.00021047304,-0.005580289,-0.00017731162,0.0032367397,0.0022949344,-0.0018246206,0.0015795653,0.0017446312,-0.00226099,-0.0010345429,-0.0045293197,-0.0013031797,-0.00383215,0.00032742886,-0.0011959578,-0.00062104553,0.0062941257,0.0027973235,-0.001034029,0.003601134,0.003387231,-0.000660157,-0.0012941068,-0.0027347764
SH3BGRL3,-0.0020828568,0.02196228,0.02461717,0.0022838628,0.0127523905,0.008257637,-0.044341963,-0.013421117,0.024901943,-0.0006159816,0.026130965,0.0043219407,0.018079579,-0.027151959,-0.027164632,-0.007829285,0.010314256,0.018832853,0.0061031175,0.0054360684,-0.03292053,-0.016279433,0.000722716,-0.0031062034,0.0024438496,-0.007970233,-0.007208035,0.018022692,-0.0083270185,-0.016736224,0.007962363,-0.010089103,-0.01809472,0.0017135766,0.021838559,0.0060936124,0.015636511,0.0015306509,-0.018540628,0.015183188,0.0077332715,0.0057023894,0.009183375,-0.002253715,-0.006653065
CD52,-0.0038084479,0.009280177,0.0062870514,-0.005910355,0.018706184,0.006607074,-0.021856973,-0.00080538983,0.017779212,0.012826481,0.012980686,-0.016638014,0.013548623,-0.035024036,-0.018941991,-0.0067249234,0.013082179,0.0038415326,0.0032579117,0.010242857,-0.017566202,-0.0055459156,0.007958532,-0.010652323,0.0069814348,-0.017624838,0.009069895,0.025545755,-0.0005054157,-0.024727434,0.0035525905,-0.011877882,-0.035857495,0.0057249493,0.020587405,0.0059702685,0.011302624,0.007736789,-0.0151201235,0.019643633,0.011095285,-0.012898224,0.0029335308,-0.004969952,0.0046074456
LIN28A,0.0013088838,-0.0011164848,0.0022546893,-0.00069660496,-0.0026127615,-0.0020335794,0.00015169595,0.0016483424,0.00012504196,0.0005410971,0.00098723,-0.00075158983,-0.00039232193,-0.0005154955,-7.1798e-05,-0.0003756626,-0.000722323,1.7922373e-05,-0.0018767443,-6.068702e-05,-0.00017543249,0.00056576525,0.0002888129,-0.00074611936,-0.00021367738,0.0006440087,0.0004475934,-0.00097332353,0.0004997116,-0.000761464,0.00031021924,0.001032365,0.00019276496,-0.00030176083,0.0004683883,-0.0003987688,-0.0009202536,-1.0999817e-05,-0.00014286234,-0.0006918128,-0.000627058,-0.00037554753,-9.978478e-05,-0.0006789185,-0.00013472173
HMGN2,0.019582134,-0.009475544,0.007389383,0.0039963797,-0.0067297425,-0.010978497,-0.004104783,-0.0055160425,-0.007930724,0.016078781,0.012188952,0.025797991,-0.015766455,0.013604551,0.012906806,-0.00841417,-0.026445212,-0.002271081,-0.010716591,-0.0031712085,-0.011517839,-0.019916551,-0.0011048948,-0.0076226094,-0.019218689,0.02732394,-0.031195441,-0.034213226,0.0022325912,0.015335161,-0.01943001,0.030943986,0.013662219,-0.0011176636,-0.02867044,0.0002844057,-0.02014389,0.022559717,0.020483656,-0.011989243,0.020868082,0.012028036,-0.00093181495,0.0011239614,-0.004061003
NUDC,0.0110688,0.0028431583,0.0049559246,0.047286954,-0.016114336,0.013307647,0.027713675,-0.036195036,-0.024098536,0.0032929964,0.00878367,0.027869143,-0.004911133,0.008107992,0.013483257,-0.01482467,-0.015817564,-0.003730309,-0.0067225853,0.0005481438,-0.013813888,-0.009297169,-0.006469685,-0.008516686,-0.014665554,0.014132213,-0.033002704,-0.021491276,-0.006382247,-0.001204141,0.0024215707,0.008894932,0.012303268,0.0011160262,-0.0039235186,-0.014741087,-0.011747044,0.016970327,0.005112858,-0.012846352,0.011369456,-0.0005921204,0.006478396,0.018694514,0.003437869
SYTL1,0.0015817281,0.0017846201,0.0033709218,-0.0096922545,0.002359968,-0.0026538763,-0.004338346,0.002327271,0.017965648,0.0039632255,-0.0055852905,0.0001199557,0.0051489267,-0.001769618,-0.011776837,-0.016103933,0.0039571556,0.0030016266,0.0020891335,-0.0011355211,0.0053063915,0.0013826706,0.0047011417,-0.006973028,0.0070938854,-0.0044614347,-0.0053956625,0.010996896,0.0018352475,-0.007047205,0.0003530137,0.009863578,-0.020440783,-0.0072400547,-9.317455e-05,-0.0048228838,-0.0109855095,-0.004483904,0.004200935,0.017035602,0.013658378,-0.007816349,-0.0005120656,-0.0167921,0.002024616
IFI6,-0.006691022,0.00067261205,0.0027739322,0.0034460055,0.0014764713,0.0020479995,0.0006181938,0.00472537,0.007255852,0.0031867768,-0.010261428,-0.0096712615,-0.005416532,0.0021138783,-0.003010677,0.00043231904,0.0034558678,-2.5984953e-06,0.0056881704,-0.004199346,-0.0003974179,-0.003944613,-0.004069201,-0.00079382764,0.0040376964,-0.0039958223,0.0027555253,0.002013762,-0.00080793333,-0.0043306253,0.0011100699,-0.0041467324,-0.00017303297,0.0017289708,-0.0026588805,0.0004039878,0.005430648,0.00116608,-0.006021402,0.005008641,-0.0031051557,-0.011381633,0.003198544,-0.0024562185,0.00080420513
THEMIS2,-0.002400073,0.0020790042,-0.00068393984,-0.0005836262,0.0005201327,0.0054229633,-0.005698343,-0.0009072379,0.0028200727,0.0017358618,0.003208214,-0.0054398347,-0.0006638466,0.0032911685,-0.0130489925,0.003909661,0.0037413207,-0.00080063415,0.0023340578,0.0034694267,0.006769506,-0.0016410445,0.0014565558,0.006291065,0.0017357117,-0.004384287,-0.0066628098,0.011157309,0.003247596,-0.005385285,-0.004448597,0.0034098513,-0.0044843666,0.0022836844,-0.0026632338,-0.001490346,-0.008785048,-0.012062484,0.0017385838,0.0142414225,-0.0045628645,-0.0072693066,-0.00020394778,-0.0072626793,0.0030156309
PTAFR,-0.012385502,-0.0067721833,0.0033642852,-0.006611629,-0.008812113,0.0027950488,0.013279535,0.0125362575,0.0140360035,0.011686442,-0.016083136,-0.028693944,0.011685444,0.0059110885,0.008543603,0.018553432,0.04558224,0.00013104184,-0.006953099,-0.013930548,-0.0151405325,-0.005748555,-0.022966614,-0.016044786,0.001192646,-0.026691267,-0.049065422,0.06439947,-0.017662875,-0.020856855,0.00090086897,0.017876584,-0.01814139,0.037029356,0.021644667,-0.0015988803,-0.019677911,0.03873332,0.042398456,0.021674706,-0.025499532,-0.028793085,0.023052871,0.030364893,0.024194317
SESN2,-0.00012465323,-0.006417191,0.0029689611,0.002134364,0.010464745,-0.00063518115,0.0014617564,-0.0047769933,0.00788823,-0.004650592,0.0023301633,0.00025805077,-0.0007330268,0.0027197865,-0.0021177372,-0.0111458665,0.00011319924,0.0026693023,0.00535112,0.008918488,-0.0029460802,0.0039330716,-0.005136196,0.0073863138,0.0013093298,-0.000821733,0.0034106479,0.0008949016,0.00076373614,0.0044552707,0.0069841784,-0.003275646,0.003633344,-0.009142189,0.005536606,0.0018874077,0.005251595,0.010249456,-0.002899307,-0.002701381,0.00029677103,-0.0042813113,0.00087870104,0.0018528536,0.001557646
OPRD1,-0.00054992735,0.0019838607,0.001340187,0.0049762344,-0.0010762636,-0.00080579025,-0.000893991,0.001835592,-7.6987184e-05,0.0016576254,0.0017688839,0.0042783553,-0.0030141312,0.0017316676,0.00094233936,0.003624949,0.0008544711,0.0020783162,0.00075659866,-0.0037194334,0.002933907,0.0058878306,0.0038458256,0.0021216196,0.0020197735,-0.00011989615,0.000579424,-0.002570263,0.0014335281,0.0038089836,0.0032394812,-0.0024135413,-0.0041717845,-0.0020432023,-0.0010210188,-0.00085538207,0.0040696966,-0.00016842525,0.0021899752,-0.00076572277,-0.0021201286,0.0026938154,-0.0006520434,0.0023838046,-5.288994e-05
LAPTM5,0.0033643595,0.0069993758,0.003430981,0.0021857033,0.019586332,0.016683813,-0.02710376,-0.013067837,0.01759254,0.0033586337,0.008994102,0.0032561144,0.010966364,-0.007369931,-0.014403276,-0.0049180384,0.007332458,0.004570724,0.0041919323,0.005849341,-0.012800591,-0.006007457,0.003246146,0.0037764742,-0.0024265097,-0.00833532,-0.014452085,0.0071027013,-0.009332208,-0.014164088,0.0035151523,-0.0055003925,-0.0025705197,0.0042098924,0.0029764583,-0.0040401444,-0.011598188,0.00028175444,-0.014415452,0.01125458,0.003580174,0.005677531,0.003000577,-0.0033056168,-0.0024293151
FABP3,-0.0049902983,0.0014972661,0.002774038,-0.0012798136,0.008191927,0.0030469121,0.0075592413,0.004375164,0.009457834,-0.0068247095,0.003948252,-0.005326283,-0.0056936843,-0.002058266,-0.0076932143,-0.000457438,0.0002990226,0.00775375,0.0005487274,0.011738055,-0.0018668523,0.0012747651,-0.002050469,0.015124037,0.003911328,0.0028439905,0.0057733064,0.005080256,-0.007177191,0.008940635,0.009359169,-0.0037275776,0.004533516,0.010014662,0.020354686,0.0014435768,-0.0013939595,-0.001053538,0.0013721714,-0.0036299368,0.0046577365,0.00613242,-0.0009847448,0.0051799105,0.006177124
SPOCD1,-0.0013663748,-0.003319197,-0.00039568436,-0.007060173,0.0060595814,-0.0039386638,-0.0030807503,-0.001940752,-0.0005874783,-0.0029097393,-0.000563623,0.0016132842,0.010747415,-0.0046503856,0.00807328,-0.009608334,0.00523902,0.0011920397,0.0033724029,0.0018376213,-0.006720499,0.0063368254,-0.00475901,0.0035806063,0.0016687221,-0.0015642805,0.00014599123,0.006449353,-0.0028996437,0.005640707,0.0010837796,-0.004516774,0.0048382394,-0.013972557,-0.00027638386,-0.0032881284,-0.00040128044,0.0010289645,0.0012713219,0.0041850447,-0.010669997,0.005806559,-2.2303964e-06,-0.005377193,0.0016167029
LCK,-0.003650167,-0.0035192138,-0.0030434784,-0.00035958612,-0.0024870741,-0.0010658322,0.00066290755,-0.0012348145,-0.00022467822,-2.2122551e-05,0.001978271,-0.0003303749,0.0010967233,-0.00032531546,0.0008662289,0.004690506,-0.0012673814,-0.0029741395,0.00042809735,-0.0023261341,0.0027338595,0.0011372832,-0.0002640203,0.0002631024,-0.00051410095,-7.6979435e-05,0.003671937,0.0014602365,-0.0039237384,0.002412929,-0.0037709503,-0.00087464554,0.00012729298,-0.003192272,0.0034816859,0.00080724753,-9.726947e-05,-0.0028272145,0.00010470182,0.00030730932,0.0013183889,0.00053014886,0.005207701,-0.007007765,-0.0028208792
MARCKSL1,-0.0023770276,-0.013556433,-0.008420898,0.01684445,-0.026612638,0.013483322,0.025304329,-0.010087678,-0.022220982,0.019398943,-0.023304153,-0.009754,-0.011705786,0.02158036,0.022484085,-0.013914647,-0.0051983385,-0.02227583,-0.008481521,-0.0023075764,0.02219148,0.015444605,0.0020807313,-0.0063351165,-0.011182632,0.0044728136,-0.02581213,-0.0077766194,-0.0013107869,-0.00039545292,0.00041987837,0.009911711,-0.0062184767,-0.001417881,-0.00551268,-0.024564989,-0.021048306,0.00451964,0.010522631,0.011060031,0.006361809,-0.011279746,-0.008908477,0.0031832254,0.0201896
BSDC1,-0.008947257,-0.0030949868,-0.0014965413,-0.015015714,0.011284039,0.001746347,-0.009510529,0.010293182,0.01585777,0.002847649,0.0010558845,-0.010485719,0.0002470403,-0.0039582904,-0.009034142,-0.005507726,0.001748735,0.005057501,0.0038254352,0.012411409,-0.0007063225,0.0073662493,-0.00020841308,0.0052023767,-0.0013906697,-0.006040566,0.0176428,-0.0028144212,0.0037727128,-0.0009081856,0.011449614,-0.009573266,0.0028994188,-0.00019441164,0.017552515,0.0056751245,-0.0025221708,-0.0012144604,-0.0059777405,0.000915951,-0.003383954,0.009416501,-0.0044170227,0.0069696386,-0.0032389883
TMEM54,0.02687564,0.048293408,-0.008699238,-0.002664086,0.016173044,-0.052493785,-0.0050722724,0.04226206,-0.029226385,0.01109956,-0.004219014,0.0042950646,-0.009057819,-0.013576077,0.012351577,0.047743715,-0.009084131,-0.0046356134,-0.0019274584,0.009892297,0.008580474,0.0069242264,0.013752328,-0.00849371,-0.017747186,-0.00016156634,0.001102561,-0.018200684,-0.017988017,0.012785075,-0.008688332,-0.0015779982,-0.0067497343,0.010491885,0.0077487524,0.01249501,-0.0025536495,-0.0460539,0.013753773,0.0069701686,0.021279322,0.013667724,0.02233875,-0.026166549,-0.0068997764
PSMB2,0.009184643,0.0045318734,0.010047372,0.037951335,0.0022689446,0.012028449,0.031235656,-0.034435283,-0.0052678,0.006910794,0.011476189,0.023190742,-0.008667101,0.0074610473,0.014713641,-0.024179842,-0.013411631,-0.0041656704,-0.0073283273,0.0006638571,-0.016917758,-0.011416913,-0.0016819169,-0.007827322,-0.018026734,0.015126138,-0.03108242,-0.024733903,-0.0028930593,8.849247e-05,0.006798286,0.002213729,0.008937702,-0.0019675284,-0.0040755374,-0.013608723,-0.018331544,0.020935023,-0.0017001616,-0.014498321,0.016393445,-0.0029686806,0.0035931699,0.017946031,-0.0006154448
CLSPN,0.009229748,0.0015971556,0.005712904,0.0192941,-0.015820354,-0.0026502542,0.006183605,-0.017441083,-0.0100844735,0.0052579306,0.009544851,0.014111367,-0.0049624452,0.0076262522,0.004985464,-0.003341548,-0.013506949,-0.00058790547,-0.004439234,-0.00047326405,-0.0100492155,-0.0077755027,-0.0023488018,-0.0059534586,-0.01110328,0.012659933,-0.021516277,-0.020935893,-0.00049665995,0.00036659476,-0.0041997805,0.008821488,0.009866327,0.0015351806,-0.00858314,-0.007663813,-0.012545485,0.009928106,0.0070338314,-0.009759131,0.009747387,0.0017629474,0.001483147,0.00897238,-0.002010862
MAP7D1,0.0007423606,-0.006039664,-0.002376201,0.007346037,0.00039907018,0.0025853359,-0.003721481,-0.009484616,-0.0012389373,0.0009792096,-0.0020847113,0.0058426703,-0.0031687429,0.0026799424,0.0021560504,-0.010041406,-0.0037179368,-0.002017912,0.0006465798,0.0032780536,-6.817003e-05,-0.0017709857,-0.0019066288,-0.0010309534,-0.003572599,0.007674019,-0.007926272,-0.0066688336,-0.0059141535,0.0023477906,0.005310437,0.0036251044,0.0039284304,-0.011328735,-0.00085129915,-0.004368228,-0.0065936022,0.0040065497,0.0022536456,-0.0037152963,0.0019169749,0.0034583567,0.0006407662,-0.004369231,0.0001756786
CSF3R,-0.010349306,0.0046291356,0.0022706056,-0.012095891,0.004680638,0.009077879,-0.021894662,0.0021309457,0.014856657,0.019699391,0.0028351727,-0.027690478,0.026802395,-0.011583557,-0.05048861,0.01002982,0.025540436,0.0020907726,0.0049700495,-0.00042698294,0.007966305,-0.0018478351,0.008645192,-0.008445373,0.002641756,-0.023658821,-0.027393652,0.060400005,-0.0073750555,-0.038403776,-0.0042929663,0.006615452,-0.041955028,0.009611592,0.0028491986,-0.0213301,-0.006575945,-0.013375487,0.0012874615,0.060313735,-0.008592378,-0.035393115,0.0038693412,-0.016630873,0.016736876
CDCA8,0.009329924,-0.0023861963,-0.00038686016,0.020856526,0.0020208796,0.0034406371,-0.0071703,-0.014883947,-0.009507722,0.0078016063,0.0012010344,0.010746377,-0.004121856,0.005436177,0.0038640231,-0.0051503987,-0.007136822,-0.0013009715,-0.0013174088,0.0018591128,-0.0015392952,-0.0029445002,-0.0021580658,-0.0008864129,-0.009771432,0.00957911,-0.014469649,-0.013334767,-0.00074354484,-0.0043718973,0.0006764965,0.007148883,0.003480977,0.0024632413,-0.008361203,-0.0036976396,-0.007397287,0.008265642,0.001475644,-0.005703145,0.008356299,0.0047323485,0.002942077,0.0057151113,-0.0008095466
RHBDL2,-0.0025982307,-0.0009250109,-0.0007186686,-0.00021604031,0.0012458041,0.00072785595,0.0013917959,0.0030768043,-0.0006489372,-0.00064443046,0.00030535046,1.1685564e-05,-0.0019264483,0.00024550394,0.0014200213,0.0019441455,0.002475685,0.0006465017,-0.00020399083,-0.00045048122,0.0009048485,0.001115087,0.0015061728,0.0007985489,-0.000784219,-9.379503e-05,-0.0013634693,0.0007251035,3.238538e-06,-0.0008115426,0.00056975643,0.00048719067,-0.0006846202,0.00061803573,0.0013269422,0.00014276941,0.00027526217,-0.0013718529,0.00023809393,3.3099375e-05,0.0014975019,-0.0017134127,-4.660063e-06,-0.0004839263,0.00040785118
MACF1,-0.0008071123,-0.0027598287,-0.0030942801,-0.001839206,-0.00091931544,-0.00039909483,-0.012939429,0.0020210813,0.009298557,-0.006090568,-0.0022154793,-0.0024795975,-9.4113544e-05,0.0012644192,-0.0033744385,-0.006704621,-0.00057104003,0.000562033,0.0014215417,-0.003831431,0.0026774008,0.004936557,-0.0016043977,-0.0015888895,0.0027511462,0.00037224957,0.0034170628,0.0040343213,0.0015548294,0.0015326359,-0.0023417044,-0.0019524172,4.6673103e-05,-1.4618964e-05,-0.0014138307,0.0023607404,0.00430127,0.00045865585,-0.0038654965,0.0044594402,0.006613021,-0.005308332,0.0013845885,-0.0057177083,-0.00097047817
CAP1,0.0022866975,-0.0008369268,-0.0008992131,0.0066831857,0.009819229,0.008849228,-0.013961641,-0.012608165,0.011714431,-0.009566081,0.0065183854,0.013205738,-0.00043557,-0.0016080303,-0.0076914416,-0.016505606,-0.00090457057,0.0018139695,0.00061838876,0.0032360808,-0.006129447,-0.003019773,-0.0019843956,0.0012488748,-0.0038792929,-0.00069786084,-0.0020883442,0.004820869,-0.0016654133,-0.004306084,0.012120758,-0.0015349005,0.001047829,-0.002074878,0.0031361282,6.846844e-05,-0.0011967547,0.011730886,-0.0014221242,0.0058158804,0.0058741802,0.0034357107,0.0042831055,0.003385023,-0.0034286452
COL9A2,-0.0073034074,-0.0036870134,-0.00015614383,-0.006359975,0.005122487,0.011700976,-0.011525532,0.0011671345,0.010726195,0.0068783984,-0.0028315429,-0.016388627,0.016005721,-0.004137329,-0.018318059,0.009861391,0.015218212,-0.0019955083,0.001479642,-1.0019895e-05,0.0033343565,0.0011797126,0.0017789248,-0.0036434524,0.005294034,-0.017705597,-0.0053715347,0.03383721,-0.004287436,-0.010003415,0.0016698771,-0.00039609312,-0.019604364,0.010232749,0.0044831024,-0.0027742805,0.003265714,0.0033919455,-3.4012105e-06,0.017983956,-0.004437882,-0.01268628,0.0059560444,0.001651878,0.0058294213
SMAP2,0.0067942166,-0.0003641631,-0.0030045323,0.0035158168,-0.0021724757,-0.008190943,-0.0061445353,-0.010745957,-0.0028362921,-0.0027962818,-0.0027529793,0.0030695733,0.0005295309,-1.0589502e-05,-0.0030683514,-0.0043430934,0.0063944366,-0.0052076457,-0.005369496,-0.00210215,-0.00064214435,0.0070357844,0.004524197,-0.004742847,-0.0020235002,-0.004277247,-0.0015391868,0.0021383115,-0.00042276492,-0.0055854777,0.004514028,-0.0023503564,0.00016522729,0.0033931064,0.006985781,0.0021883207,-0.0017530499,0.0076927915,0.0009431414,0.004616758,0.008555746,-0.0021644665,0.002892975,-0.00069947593,0.006763939
CITED4,-0.00072582584,0.0008405592,0.003934734,-0.0084901545,-9.182447e-05,-0.007332173,-0.0045631276,0.0028363348,0.0051336396,-0.0046671815,0.0024171893,-0.002695137,-0.003349735,-0.0014906928,-0.0065645278,0.0008268234,0.00048644823,0.00062983145,-0.00041266598,0.00275158,-0.0009628531,0.00056340947,-0.00018058611,0.0051936195,0.0010621373,0.0013795686,0.0029543072,-0.0005006414,-0.00021997522,0.005291024,0.0031185744,-0.00010800963,0.0032425388,-0.0014080099,0.0091351485,0.0060561863,0.005909495,-0.007956027,0.0052189785,-0.0030389363,0.003979751,-0.0005374609,0.0027258305,-0.005350858,-0.0005901134
FOXO6,-0.0029716834,0.0006311917,0.0038127727,-0.00022756192,0.0054562427,-0.0034948518,0.0025733402,0.0019858996,0.0032290288,-0.0021945992,0.0022758725,-0.00017643935,0.0023148719,-0.0033648787,0.0025877787,0.0036810047,0.0035408747,0.001042129,0.0007805978,0.0022075989,-0.002963019,0.0008165458,0.0007386674,0.0034091044,0.003414082,0.0011025461,0.0080786515,0.001688534,0.0017981206,-0.0037642263,8.4729276e-05,-0.004501113,0.0037340927,0.0016600444,0.0040825005,0.0036123234,-0.0012570244,-0.0011633225,-0.0036649832,-0.00028827265,0.00019904652,0.0030707656,-1.7459382e-05,0.0015770774,-0.0024665324
PPCS,-0.0032714764,-0.0020732302,0.0037627514,-0.0016785352,0.0054965913,0.0042732717,0.002183434,-0.0062051187,0.0014379711,-0.0046166787,-0.00048236497,-0.002538519,-0.005237216,-0.0015000319,-0.0056170044,-0.0018815864,-0.002244484,0.0016720291,0.00038559877,-0.004864824,-0.0010044471,-4.8762387e-05,-0.00095251115,-0.001704233,0.005644347,-0.0014865902,0.002661074,0.010407337,0.003722958,0.0018870748,0.004122151,-0.0035904234,-0.0022337236,-0.004656226,-0.0020143727,-0.0038891488,0.002159268,0.0027400998,-0.0063763815,0.0052646627,-0.002596131,-0.009374193,-0.0022128066,0.0015152199,-0.0032724834
YBX1,0.049142078,-0.027675375,0.014876224,0.020341588,-0.057456113,-0.035275836,0.0015023141,-0.018901905,-0.07578293,0.0035419653,0.004381884,0.050754733,-0.046523288,0.033836983,0.038476143,-0.009391822,-0.048843965,-0.010316966,-0.025627146,-0.010310434,-0.0087167,-0.021790972,-0.001960702,-0.009284273,-0.03862224,0.054502897,-0.06446869,-0.07453221,-0.015047646,0.045685273,-0.026860802,0.06483333,0.036111392,0.0028222827,-0.037210274,-0.015309357,-0.0408317,0.005932215,0.05508738,-0.03154663,0.034759745,0.037122678,0.0073593636,0.009177493,-0.005169595
CLDN19,-0.0029397847,0.0023225183,0.0023093524,0.0036236253,-0.007819881,-0.0016795503,0.0025788003,0.0030205515,0.006049451,-0.0041926345,-0.0049030376,-0.008524243,-0.010110667,-0.0035085743,-0.002564548,0.013282278,0.0010641944,-0.0061945114,-0.0077319816,-0.007873017,-0.0038887402,-0.0013705393,0.010306793,0.0035516168,-3.0846735e-05,0.010085464,0.00984658,-0.0041033635,-0.0055479337,-0.0056370688,0.013005086,0.010033779,-0.0006545584,-0.015492906,-0.0110422,-0.0015792564,-0.00027316305,-0.0033310042,-0.004109144,9.858344e-05,0.00040395762,-0.0018139343,0.005139208,0.010308308,0.0018038809
SLC2A1,0.0074454034,0.0034844687,0.0017978714,0.008865558,-0.009772242,-0.020065429,0.002764711,-0.0015674772,-0.014260385,0.00010115848,0.01234655,0.006558184,0.002503281,-0.010185274,0.0051898505,0.0033970666,0.004243234,0.0032235542,-0.0027513192,0.0016873038,-0.015992293,-0.0053170575,-0.00028637057,-0.004743504,-0.003698585,0.0041673165,-0.0069259983,-0.005760463,-3.0456582e-05,0.0034768705,-0.0040147067,0.0028031438,0.007943782,0.0057246764,0.008154067,0.0059067765,-0.003997835,-0.0008517453,0.001886895,-0.0058260914,0.0045639486,0.010658623,0.0046464875,0.0065821395,-0.0036330805
SLC2A1-AS1,-0.0029083956,-0.0009154444,-0.0021350388,-0.014113298,0.009346504,-0.0070889634,-0.0057531768,0.0070046815,0.005189777,-0.003974708,0.00337409,-0.003222956,0.0029019732,-0.013535991,0.0014004043,0.01402932,0.012359773,0.003790936,0.0013386087,0.008993927,-0.005549883,-1.8067762e-05,0.0049572363,0.0013407911,0.0105093885,-0.007425825,0.026676279,0.004404654,-0.0027724335,0.0018149256,-0.0083970595,-0.0074243774,-0.0025893352,0.006789705,0.00889041,0.017090889,0.012060899,-0.020125465,-0.0045340043,0.0023648392,-0.0037587404,0.007955933,0.0037232556,-0.003537465,-0.003624555
FAM183A,-0.0014085659,0.0023231944,0.0036603066,0.004170611,-0.0071952865,0.0044078347,0.004158975,-0.0033845694,0.0018657484,-0.00056130486,-0.00014873597,0.0028271463,-0.00020181405,-0.002030877,-0.0041827955,-0.005885164,0.0020639326,-0.0028943645,0.0016823993,-0.0011010118,-0.0015597366,-0.0027453958,-0.0012554448,-0.0053296424,0.0026480048,-0.0012598792,0.0049994728,0.008582333,0.00045623488,0.003136961,0.00041233693,-0.003127033,-0.0057861367,-0.0038434926,0.0028091203,0.0032832217,0.006911645,0.0047036847,0.0048715724,0.0024610935,-0.0011915859,0.0028238262,-0.00060741755,-0.00040653453,-0.0006664594
EBNA1BP2,0.006829844,0.0060050925,0.004848311,0.044373564,-0.023350297,0.011473752,0.03414516,-0.037734687,-0.026964342,0.0061374907,0.0042132977,0.019238407,-0.0066157337,0.009968433,0.014920286,-0.010086473,-0.017221542,-0.0052586067,-0.005385744,-0.00047380713,-0.011115419,-0.007273108,-0.0008408859,-0.005623983,-0.017922591,0.010972078,-0.026173336,-0.021067217,-0.0051155332,-0.0019278154,0.0014670321,0.012657482,0.0075674728,0.0054858765,-0.0077151805,-0.01608052,-0.015949905,0.015644427,0.002871154,-0.013509345,0.011546885,-0.00077057595,0.0018148248,0.015768679,0.005915549
CDC20,0.01184752,-0.0017147452,0.0046497807,0.02018763,0.011604613,0.009288966,0.0018502468,-0.019627925,-0.0050368975,0.0040494516,0.003506451,0.011423732,-0.001595038,0.005566348,0.0072979047,-0.0069157644,-0.008816598,-0.0034211332,0.0026335022,0.0038059012,-0.0061243167,-0.0044852444,-0.0023606292,0.00066761835,-0.009232848,0.005421918,-0.015077621,-0.014564835,-0.0017931594,-0.00051131396,0.004024938,0.0043791863,0.0023474626,-0.00073606434,-0.006408229,-0.0050172457,-0.012589459,0.012538467,-0.001542494,-0.006763409,0.0034016296,-0.00092451915,2.1841295e-05,0.003977509,-0.0033633264
ATP6V0B,0.0024830292,0.0047396296,0.01662562,0.030527897,0.008613518,0.01717568,0.004508879,-0.028555345,0.0062531205,-0.00423451,0.007180976,0.017030941,0.0013092727,0.008362817,-0.005230204,-0.020207303,-0.0097068455,-0.001120119,-0.0016400476,-0.0041586887,-0.011098849,-0.010770293,0.00011149408,-0.0070166984,-0.010843911,0.00036272552,-0.017854897,-0.0033699884,-0.006275286,-0.008023661,0.012647606,-0.0059695737,-0.009152815,-0.001873793,0.00017701769,-0.011353479,0.0008034886,0.018083863,-0.003176232,-0.00022312142,0.008184276,-0.008408792,0.0051989,0.006393583,-0.0018325385
KIF2C,0.0026741105,-0.008968214,0.0016208238,0.013114102,0.007477919,0.0010481505,-0.003756618,-0.007431573,0.0045759142,0.0039037957,0.0060102222,0.016023818,3.505933e-05,0.004179522,0.0018045771,-0.0037020321,-0.0045151818,-0.0015326117,-1.3790323e-05,0.002682231,-0.004656977,-0.0057351193,-0.00028757055,0.00071967416,-0.011551413,0.007755936,-0.014810835,-0.014182046,-7.631708e-06,-0.00076827,0.00044391,0.0070124357,0.007386836,0.0009005071,-0.007747831,-0.0037969162,-0.004469629,0.007006755,0.00013857668,-0.0040971115,0.011463322,0.006393852,0.0020647622,0.0047719264,-0.003415195
BTBD19,-0.0058118924,-0.0021183824,-0.002647727,0.0057484386,-0.005347397,0.003820784,0.0044081877,0.001582602,-0.0039826427,-0.009065962,0.0037602517,-0.0008656164,-9.991476e-06,0.0034528854,-0.006078472,-0.0087970095,-0.0012175093,-0.0014722188,0.0011458308,0.0011448077,0.0025895361,0.0024047522,-3.8278594e-07,0.00014807831,0.005154556,-0.0076658414,0.0082998825,0.0012292608,0.0022239205,-0.0029134315,0.0072655147,-0.004603565,-0.0009135813,-0.006264455,0.0010857804,0.0068999752,0.0024904714,0.006952776,0.0008613391,-0.0038446153,-0.0037701975,-0.0054126238,-0.0025681509,-0.00014388906,-0.0057069184
PRDX1,0.009782268,0.011299274,0.01001593,0.046493154,0.0015059416,0.024548812,0.034321487,-0.04238642,-0.009871157,0.012101745,0.0029165875,0.013104198,-0.010158007,0.01188592,0.0282336,-0.028924495,-0.023627684,-0.012801153,-0.010244096,0.0035664917,-0.0106144445,-0.0036373076,-0.006338541,-0.00978491,-0.019485665,0.013313489,-0.02091839,-0.03705634,0.0010054681,-0.0025186073,0.012435256,-0.0026178504,0.009176467,-0.005069426,-0.0017025608,-0.022742024,-0.01962311,0.030789178,-0.0059344703,-0.0140493205,0.01828007,-0.0034182512,0.002948332,0.023813244,-0.0014411203
MKNK1-AS1,0.002591235,0.00057811046,-0.0012183968,-0.00080164865,0.00054312753,0.0001058331,0.003344605,-0.007084334,0.0007083765,-0.00023078344,-0.0025600477,0.0031064325,0.0024255856,-0.0017674332,0.002300385,0.0006388953,0.004720804,-0.0014473175,0.003538277,-0.0015952678,-0.00076171546,0.0004317998,0.0011544672,0.0016825373,-0.0012390616,-0.00069543166,0.0018275178,0.0003900295,0.0025285431,-0.0010135086,-0.0058103884,0.00015393768,-0.0013993552,0.0021416114,-0.004103951,0.001494465,-0.0035097438,-0.0011829949,-0.007932314,-0.00026999836,-0.00036080016,-0.0003064963,-0.0025500813,-0.00053956476,0.0069898386
LINC00853,-0.006156295,0.002347183,-0.0005852691,-0.008125011,0.0018807255,0.0009361406,-0.0015142766,0.0077405157,0.008940552,0.00018955888,0.0020067783,-0.0037962517,-0.0014718538,-0.0057963105,-0.01007337,0.0044121994,0.0018060139,0.001023568,0.0003500356,0.00014518645,0.0015650028,-0.0030830023,0.00058723876,-0.0013781666,0.00329762,-0.0036040172,0.0015826712,0.0029395274,-0.0008303251,-0.0027038981,-0.0006166008,0.000113899456,0.0005501593,-0.0011846535,-0.0006777773,0.00079500274,0.003981977,-0.0022769338,-0.0010437887,0.0043329042,-0.0038052213,-0.0021605806,0.0009757866,-0.0065203356,-0.002072387
PDZK1IP1,-0.0026948473,-0.0039298185,-0.012585702,-0.00010273204,0.0011287815,-0.0006878259,-0.0011922972,0.006465211,0.0010260547,0.00079954095,0.0009836347,0.00034709316,0.0042908536,0.003858422,-0.004530094,-0.0016064051,-0.0022923497,0.007700891,0.0046676053,0.009081411,0.007375385,-0.0006898625,-0.012267067,-0.0061244336,-0.002615855,0.0031103457,0.006167804,-0.001811149,-0.0012058784,-0.0028046477,0.0031099084,-0.0031103734,-3.917647e-05,-0.0029834015,-0.00053026853,0.0022149675,0.0040151025,-0.009331976,-0.0069242334,-0.00472459,-0.004090139,-0.0043771695,0.0005621742,0.005655957,0.00074719364
CDKN2C,-0.0030523797,-0.0073032524,-0.0010677917,-0.006079569,-0.0005715061,-4.6003785e-05,-0.00999205,0.0051779244,0.0072429767,-0.0026429074,0.0035815546,0.004927565,0.002791903,-0.00027134924,-0.014500921,-0.0032204748,-0.0021903343,0.0036606137,0.0020330867,-0.0024743974,-0.005622459,-0.0049469727,0.0026317092,-0.0027717946,0.0014928855,0.0021247882,0.0020055147,-0.0018396062,0.003006821,0.0006858859,-0.0021889503,0.004381918,-0.0036852239,-0.006585832,-0.0068631335,0.0031951303,0.0064332853,0.011781499,0.0057993545,0.0014473981,0.0065676966,0.001983007,0.001087504,-0.0036458857,-0.0041410346
TTC39A-AS1,-0.0031612124,-0.0035836438,-0.00017140865,-0.00317674,0.0051815854,-0.0010672506,0.0061442805,0.0022846179,0.0069448347,0.0012747674,0.0005846297,0.0033602663,-0.0028217027,-0.00796003,0.0055772224,-0.0072778794,-0.0019537238,-0.005500072,0.00062195904,0.0057179807,-0.0038647947,-0.0040172534,-0.0007989855,-0.0031091806,-0.0008182433,-0.0020375866,-0.003022219,-0.0042792233,-0.0063195527,0.00066302426,0.0048305336,0.0010896365,-0.0058844876,-0.0008797396,0.0006035211,-0.00057505834,-0.0032972344,0.0013675318,-0.00041267017,0.0037634932,0.005837993,-0.004558074,0.0023252098,-0.0020086938,-0.0025924016
RAB3B,-0.0030583336,1.6636199e-05,-0.00024841374,-0.0009968025,-0.00012324104,-0.00060421025,-0.005393626,0.0028101741,0.009219798,-0.0038486088,-0.0016767558,0.0017478246,0.000865338,-0.0028401,0.0007900028,-0.00556984,0.0009737221,0.00071940053,0.0006863797,-0.0001322823,0.002547133,0.0015029529,0.0019269689,-0.0017154026,0.0027005041,-0.0019210832,0.0043351064,0.00049099536,0.0051899785,0.0018413679,-0.0011143186,-0.0011807518,-0.0024498194,-0.0035513733,-0.0027027966,-0.0005620235,0.005052892,0.0031379948,-0.00079509907,0.0070649227,0.0016107074,0.0054020192,-0.00038308432,0.0013634211,-0.00027889613
GPX7,-0.0033114317,-0.0047764266,0.00250931,0.00026084078,0.002875863,0.006286329,0.00084884855,0.0016370231,0.0015848499,-0.001281017,-0.0020114018,0.0011218876,9.666655e-05,-0.00090401934,0.0011706853,-4.5842326e-06,0.0016731698,-0.0018867819,0.0003901881,0.0023277618,0.0031376337,-0.0022190295,-0.0024173718,0.0014142825,-0.00034138418,-0.00076035503,0.00060478365,0.0026358669,0.0024280937,-0.00020124354,0.0007385985,0.0016659711,-0.0010970774,-0.0013762112,0.00050095073,-0.00043770217,0.0050750095,-0.00023557234,0.0012912477,0.0017246573,0.0006951921,-0.0018069004,-0.0020252087,-0.0017713538,0.00077166694
JUN,-0.00056096894,-0.02237535,0.015474927,-0.0017458326,0.06094467,-0.022839049,0.011692445,-0.019688983,0.037295848,-0.013172611,-0.001658001,-0.0005521278,-0.0026815375,0.0065784757,-0.01519048,-0.02202122,-0.00854557,0.0013823694,0.007203683,0.016902182,-0.0007607683,0.0019754244,-0.002236897,0.007313837,-0.0037723642,0.002978023,0.008084202,-0.003427029,0.005287211,0.009515088,0.038133435,-0.022031533,0.0072271405,-0.022870256,0.015527217,0.0046520755,-0.010966498,0.032500755,-0.012579366,-0.012544421,-0.00018217078,-0.013945453,0.012394707,0.0023606634,-0.012736481
LEPROT,-0.00067754113,-0.0048342785,-0.004715423,-0.0025952798,0.003797364,-0.005100506,0.0030617148,0.01085375,0.0019056118,-0.0050251205,0.0024546424,-0.0034037968,-0.0022650352,-0.0018289564,-0.0040335604,0.00927557,0.0001564617,0.0010385814,0.0018818085,-0.0043255053,0.0028473106,-0.0044762925,0.0022529417,0.0019445153,0.005286262,-1.6748325e-05,0.0061650774,0.007869571,0.0006077623,0.0019145481,-0.004599034,0.0026624969,-0.004798727,-0.00054098805,-0.0026007644,0.010362254,0.006398444,-0.012670051,-0.00062528613,-0.003146841,-0.007566122,-0.0044087074,0.002055443,-0.0043267016,-0.0029569718
C1orf141,0.00077185314,0.0007548751,-0.00036455443,-0.002407948,0.0001480428,-0.004523328,-0.0032325697,0.0051834653,0.0008931602,-0.0026964012,0.00062245945,-0.0029606507,-0.0019350287,-0.0025894283,-0.00261292,0.003004677,0.00013760648,0.00064177945,0.002391625,-0.000119636425,-0.0011542253,0.00025262372,-3.1258853e-05,0.00030844825,0.002712403,0.000939565,0.005667413,0.0029539592,0.0022238307,0.0014238973,-0.0022418816,0.0017304223,0.0017774084,-0.0011801894,0.00047779366,0.0016286781,0.003070591,-0.001913902,0.0012684342,-0.001983062,-0.0008170071,-0.0005499648,-0.0021175575,-0.0025383977,-0.00329589
GADD45A,0.0013638268,-0.0070840465,0.007570197,0.009660829,0.0086074835,-0.004811069,0.010744047,-0.008771687,-0.00070155953,0.007901275,0.00909898,0.0082806265,-0.00014649221,-0.0059989626,0.008534893,-0.0070719,-0.0017769709,0.00044083345,0.0036581003,0.0026930885,-0.017233927,-0.0071948953,0.00021595268,-0.00053500844,0.0020830445,0.0043991217,-0.0017748396,-0.004509296,-0.0010131989,0.006123923,-0.00052076776,0.007950441,0.009860692,-0.0058891764,0.0015835763,0.0033029323,-0.002251659,0.007356543,0.0006212432,-0.013647254,-0.008068285,-0.001410848,0.0008307623,0.0016373087,-0.0051953993
FPGT-TNNI3K,-0.001259154,-0.007969164,-0.004704913,-0.004362991,-0.0063423645,-0.0050496887,0.0011265789,-0.0049411305,-0.0037431798,-0.0024427506,0.009395596,0.002338229,0.0042342357,-0.0030876368,-0.0008140081,-0.0017278118,0.0011053828,0.0056297723,0.0007170311,0.0021640072,0.0005693881,-0.0089891,0.00050192303,0.004614133,0.0032029592,0.0021703404,0.00051920203,0.0033832036,0.0038289109,-0.0002926934,-0.00022625444,0.0027818119,0.00019526001,0.0039493693,-0.0017260242,-0.0012326082,0.0021195589,6.628946e-05,0.002042069,0.00021496961,0.00013337232,-0.0040286984,0.0009572489,-0.0014321636,0.002705425
SLC44A5,-0.0022531156,-0.0002821937,0.0036785412,0.0007808911,0.0003131036,-0.00031570956,-0.0017409694,-0.0031726465,0.0020063391,0.0037162337,-0.003000211,0.0018371696,-0.0032682396,0.006810084,0.00058831583,-0.006499883,-0.004474408,-0.0030931125,-0.004424648,0.0015754766,0.0016885828,-4.7423182e-05,0.004626719,-0.0002155792,9.519469e-06,-0.0003188846,0.011177538,0.0033184213,0.003698889,-0.00064939243,0.00027987297,-0.0011996765,-0.0017305128,0.0036428,-0.001897597,0.006515265,0.008844541,0.00023411032,-0.005694317,0.0044788048,-0.0018892251,-0.00087171246,-0.0012247432,0.0033913322,-0.00016691818
DNAJB4,-0.0044123414,-0.0054668165,0.0019738039,-0.004097827,0.0039057003,0.00033150133,0.0017932134,0.005196952,0.010764747,-0.00068177783,0.0005809127,0.00058113725,9.252135e-05,-0.0013138036,0.0009048858,-0.0019606026,-0.00011348936,0.00092064665,0.0009898883,-0.00016167354,0.0024596397,0.0004750924,-0.001313428,0.0013976343,0.0012577698,-0.0007111879,0.0035056404,-0.0021197286,0.0017407519,-0.001487629,0.00097511883,-0.002970353,-0.0023874093,-5.134462e-05,-0.0006297451,0.0021674365,0.0033601255,-7.439099e-05,-0.0029595532,0.00030809565,0.0005247551,-0.0030935856,0.00032940457,-0.0004674286,0.0014556883
GIPC2,-0.0029964459,0.0014498037,0.00053198426,-0.0014123024,-0.0006287504,-0.0006208119,0.0066580544,0.007840266,-0.0015196492,-0.00042358408,0.0045548193,-0.0010504979,0.0008832888,0.0005465833,0.0012370109,0.0017308698,-0.00357587,-0.0065013003,-0.0017715412,0.0014945413,0.0030774332,-0.0037293094,0.0013652687,-0.0028260173,-0.0076566986,-0.0018132887,-0.0011525365,-0.004886938,-0.0038965207,6.987115e-06,0.004292005,0.0038367673,-0.010498836,-0.0012064942,0.011465995,0.003589334,-0.001415374,0.014685786,0.0053118267,-0.0020695708,0.0132634975,-0.008578058,0.008733859,0.001842719,0.0007541735
TTLL7,-0.008776507,0.0068753096,0.0030723268,0.0031444512,-0.0030944457,0.0049602594,0.010965127,0.0010709825,0.003940001,-0.0041981125,-0.0030204915,-0.0072601456,-0.0036059264,0.006814928,-0.0019385802,0.0019235689,-0.0021358626,-0.0017618375,0.0023374995,0.0008788715,0.00060990563,0.0031321975,0.001383202,-0.0031015072,0.0014769514,0.00069512887,0.018970598,0.007283923,0.005998041,-0.0013841902,-0.001274449,-0.0121604,-0.008089487,-0.0057814987,0.0031785367,0.019253882,0.018305654,0.0074573862,-0.010083297,0.0033155482,0.00435937,-0.013989343,-0.000283262,-0.010400353,-0.00632804
CLCA1,0.02554465,0.01354686,0.0021430023,0.0037514707,0.028176725,-0.0011650559,-0.04415324,-0.036039606,0.003969473,0.0042021647,0.001895376,0.0050452854,0.0018059495,0.0042574867,0.0014172037,-0.0058389,-0.004377438,-0.002820705,-0.001831792,0.0018779355,0.0026705337,-0.0048828293,0.0026856351,-0.005649164,-0.007967092,0.003878456,0.0011831383,-0.013104525,-0.01620376,-0.0027704968,0.006908006,-0.0051426133,-0.006290543,-0.005158784,0.007735666,-0.00382271,-0.004857419,0.00624948,-0.003419047,-0.0034146644,0.025732704,-0.0012489972,0.01820559,-0.005288162,-0.003072026
LINC01140,0.0034417037,0.013491609,0.0045602834,-0.0036150236,-0.00023923954,0.014803781,-0.024268422,0.0023491024,-0.0019785932,0.0078062355,0.0073433747,0.0006110925,-0.0010703224,0.010934832,-0.015596635,-0.0013026152,-0.00957054,-0.00018351116,-0.004897676,0.007927872,0.011949638,-0.007911182,0.003795038,0.0064743855,-0.0042424803,-0.0017114585,0.0009566254,-0.010621274,-0.003597632,-0.0040745647,0.0040843873,0.0020229018,0.003281808,0.0013298114,-0.007806069,0.006355288,-0.014837088,-0.0102656055,-0.01123663,0.011683488,0.0053374423,0.01322122,-0.0059707253,-0.011111429,-0.0091382805
LMO4,0.0048618694,0.0059284857,-0.00041942237,-0.0025415074,-0.0024776324,0.016255682,-0.0406217,-0.0070895124,0.019812724,0.0014040368,-0.010237421,0.0013778355,-0.012972179,0.009389313,-0.02301415,-0.005114327,-0.006889477,-0.0009307377,-0.0026141803,0.0011965168,0.006149184,-0.0027596126,0.006237781,-0.0026553778,-0.0020119238,-0.0072207823,-0.0050953445,0.0055921613,9.010029e-05,-0.008523317,0.0049571656,-0.0034978793,0.009811051,0.0016385687,-0.004336284,0.0016507466,-0.001972873,0.0041180165,-0.006904646,0.027177846,0.0040940605,-0.009351912,0.004038208,-0.0009753759,-0.002349298
GBP2,-0.0037806306,0.0066255997,-0.004528854,0.005328325,0.00904395,0.006666809,-0.0044057933,-0.0007777817,0.015299235,0.0019421079,-0.006724396,-0.020738881,0.01039531,0.0008230531,-0.012455473,-0.0016286725,0.021774096,-0.0044792574,-0.012189543,0.002061725,-0.0027939,0.012555777,0.007924672,-0.010026001,0.00076577516,-0.021464998,0.010430959,0.010444036,0.002355245,-0.02506072,0.021856567,-0.01895044,-0.0038730304,0.017419212,0.020676965,0.0050183022,-0.018284362,-0.0008167503,-0.008117872,0.016009828,0.004425004,8.934735e-05,-0.0054938146,0.019959804,-0.0014354899
BTBD8,0.00050875003,0.001080774,-0.00071706896,-0.0035752119,0.0016464044,0.0019755324,-0.0006636516,0.00162557,0.007722743,0.00047826886,-0.0069674556,-0.003505131,0.0008255291,0.004223978,0.00035447787,-0.00027916403,0.0052091284,0.0010568129,0.0037927218,-0.001222686,-0.0005153225,0.0016758502,-0.00012905114,-0.002830942,-0.0006886033,-0.0026843834,0.00065693946,0.004147566,-0.001568565,-0.0029364496,-0.001094839,-0.0041259397,-0.0006209056,-0.0015609026,-0.0023339707,0.0022404839,0.0019093965,0.0012642839,8.431463e-05,0.0041742567,-0.0027603656,-0.0018311896,0.0008934916,0.0006600832,0.002234437
KIAA1107,-0.0073437514,-0.0025796597,-3.6706224e-05,-0.0024041885,-0.003567056,0.0006680571,0.0066898996,0.0011972209,0.0051706787,0.0013448859,-0.005107161,-0.002686339,0.0001663572,0.0048426394,-0.0016350553,-0.0017688896,-5.7037796e-05,-9.505317e-05,0.0031187616,-0.0006918394,-0.0013225954,0.0017605853,0.00023895656,-0.0013286319,-0.00077373924,0.00020357368,0.0013415355,0.003597923,-0.00021366082,-0.0010016559,0.0012176817,0.0009261017,-0.0018625971,0.003394241,0.0013425646,-0.000611599,0.003066532,0.0012350951,0.0030762807,-0.00022520074,0.003874189,-0.00093599054,-0.0020500508,0.0024622593,-0.00066176895
FRRS1,-0.0008514358,-0.0032718247,-0.0050658262,0.00085532415,0.004808416,0.0032381178,0.004836062,-9.1793545e-06,-0.0014959156,-0.0062759365,0.00093003566,-0.004229125,-0.0031687203,-0.0042982097,0.0031482782,0.0025693553,0.0053976662,0.0029990515,-0.00038089967,-0.00020174282,0.0025485584,0.0032065709,0.0043353643,0.0028533556,0.002745083,-0.00047328952,0.009308761,0.0012378248,0.00068841845,-0.0013581709,-0.0057078497,0.0016739549,0.0013691324,-0.0033684724,-0.002121936,0.004350065,0.0051483368,-0.0016361744,0.0018542547,0.0019162514,-0.0032665043,-0.002684174,-0.0030201075,0.00065947423,0.0035614723
LRRC39,-0.0028519803,0.0014145772,0.003723249,0.0020304362,0.0039688163,0.0045281406,0.0012277934,-0.0006827212,0.0044632945,0.00063483516,-0.002238613,-0.0010326321,-0.0019527585,-0.0034626613,-0.0021635096,0.0071793445,0.001434048,0.004939489,-0.0012277816,0.00022617007,0.00062828057,-0.0016886743,-0.0020261444,-7.393386e-06,0.0003383184,-0.00069912325,0.0021287824,0.002215042,0.0017417375,-0.0013130972,0.0016113892,-0.002939376,-0.0016773437,-0.0021246953,0.0031542368,0.0064579663,0.0023741939,-0.011763368,0.0012337485,0.0008982028,1.6142426e-06,0.0014781175,-0.00021891945,-0.003962826,-0.0060786363
S1PR1,-0.0068295654,0.0029698396,0.0033238505,0.00022205833,0.00013169716,0.00788256,-0.0005209986,-0.0010667526,0.0018473731,-0.013883189,-0.0030514896,-0.0036636412,-0.008469674,0.0017423782,-0.003491613,-0.006228161,0.0003923889,-0.00090487313,-0.0007470731,-0.0037267671,0.0058755544,0.004750119,-0.00022958223,0.00088318303,0.007946833,-0.013366398,0.012625313,0.0130692255,0.014505995,-5.4350745e-05,0.007481723,-0.012512715,-0.0017343576,-0.0033615127,0.0019358736,0.010273388,0.010612182,-0.004568998,-0.004793262,0.0005069925,-0.00022589583,-0.008085535,0.0009452581,0.005424212,0.0003764338
AMY2B,-0.0008774787,0.0010100482,0.0020302108,0.001843988,0.0017901799,-0.0014921105,-0.0016431004,-0.0036668642,0.0024059669,-0.00077421754,0.0015046044,0.00053042924,-0.00017965592,-0.0014173727,-0.0013263841,-0.0005230854,0.00025104455,0.0014907847,0.00025411122,0.00087934616,-0.0014870641,-0.00077638583,0.0007864745,0.002878481,0.0006485096,-3.2223114e-05,0.00070753094,0.00041748612,0.00022252809,-0.0004705838,0.00082063396,-0.0011237407,-0.00078982394,0.000758293,-0.0006653895,0.000310046,-4.731914e-05,0.0005052861,-0.00063723116,-0.0013312467,0.0011386242,0.0002927853,-0.0016555846,0.00045769918,-0.000500357
SCARNA2,-0.0026671994,-0.0012104528,-0.0026502644,-0.0013395384,-0.003076535,-0.0017527106,0.00390094,0.00020668107,-0.0009624481,-0.00013324659,0.0031885772,0.00033008915,0.004905903,-0.007984535,0.003258387,-0.0005282072,0.006608099,8.848422e-05,-0.0027388067,-0.0005895081,-0.000182328,0.0024180461,0.0024360232,-0.00096676586,0.0033450401,0.0020158945,0.0016620037,-0.002877178,0.0013970817,0.0031141576,-0.00293415,-0.0059142094,-0.0032949224,-0.0018244078,0.0028425239,-0.0032179835,-0.00037916063,-0.0031493788,-0.005871106,0.0035105613,-0.0062685627,0.0020676882,-0.0033681113,0.0013970197,0.0006867016
SARS,0.005882722,-0.0063362974,-0.0025923196,0.01362457,0.0011699746,-0.0044151167,0.0076689837,-0.011982037,-0.0058586984,-0.001629742,-0.0007497405,0.003691597,-0.005013228,0.0022008123,-0.000992935,-0.011547496,-0.01154259,0.0015464695,-0.00090157974,0.003992256,-0.0016550065,0.0013204557,-0.0036837277,0.00050535373,-0.006253122,0.0062996005,-0.0068232077,-0.007540819,0.001054782,0.0036026654,0.009051621,0.002263634,0.0036536176,-0.002676755,0.0013982104,-0.0063062813,0.00036902854,0.010429174,-6.705443e-05,-0.008412785,-0.0006976128,-0.0038395,0.00038379038,0.007795136,-0.001092128
PSRC1,0.0063987714,-0.0037119493,-0.0008831004,0.0044784844,0.007967219,0.00046279206,-0.004065025,-0.006630345,0.0013525764,0.0023030993,-0.00088518905,0.0068942783,0.0007590628,0.0038270298,0.0029200413,-0.004743187,-0.007969087,-0.0025332759,0.00027832363,0.0021189228,-0.00118466,-0.0036307755,0.0007838576,-0.0005623065,-0.0047001033,0.00534107,-0.008348474,-0.0058914605,0.0013167011,0.0030128146,-0.0028458277,0.0035442645,0.0031187886,-0.002376623,-0.007209722,-0.0016675402,-0.0051575513,0.009269658,-0.0035704304,-0.003198326,0.0011877454,0.0015384189,0.0013250485,0.0034704804,-0.0010862029
MYBPHL,-0.0054845638,-0.0034779164,0.000827206,0.0015315547,0.0020343938,0.0030773866,0.003236412,0.001188426,-0.0009094112,-0.0021655452,0.0036041471,-0.0077421926,0.0034076169,-0.009330843,-0.00066794787,-0.0009378475,0.0035555721,-0.0019398086,0.001356846,0.0023841145,0.0063305725,0.0006048131,-0.00067061535,0.001124774,0.0020761827,0.00075068366,0.017428383,0.005278498,0.002123183,-0.0025391628,0.00023716518,-0.005805461,-0.0067431466,-0.0005530082,0.0050769383,0.0042283298,0.005146958,0.0015472444,-0.008097609,0.0017697079,0.015093704,-0.00542339,0.001076407,-0.006733155,-0.0025397455
GSTM2,-0.0008783009,-0.0014663353,-0.0012882669,0.00038713025,-0.0014024357,-0.001011288,-0.0027451825,0.0051881503,0.004161403,-0.0012305647,-0.0027048083,-0.0040631494,0.002163979,-0.0003643495,0.0037092324,-0.0015065345,0.0019776053,0.0010199974,0.0011309469,-0.0049077333,-4.1557454e-05,0.0008335215,-0.001862816,0.00085460587,0.0020149697,-0.00095694175,0.0014013594,0.0020493537,0.0004957567,-1.3557542e-05,-0.0023434525,-0.00047690768,-0.00029434887,-0.00101924,-0.0011325323,-0.0021608344,0.0010328882,0.00097421574,0.0013456921,0.0010464347,0.0037469037,-0.0047605783,0.00025184575,-0.00068974734,0.0044430075
GSTM3,-0.0013254642,0.0031350136,0.0022283937,0.0014840886,0.00796277,0.0073013543,-0.0053768507,-0.008995025,0.009060448,-0.0012583424,0.00314398,0.00028482513,0.0031668134,-0.003798726,-0.0039047548,-0.003330956,0.0056756693,0.00300477,-0.00041539938,-0.0032268346,0.00064344436,0.0011089239,7.8159115e-05,0.00058265025,0.0044381157,-0.00527842,0.005246525,0.005918635,-0.0014267048,-0.0021304516,-0.00041630436,0.0003868675,0.001051597,-0.002562594,-0.0027713908,0.0059458283,0.009179827,-0.0038037337,-0.0035249933,0.0031341834,-0.0042101787,0.0002734241,-0.0026349358,-0.00046766386,-0.0031087862
PROK1,-0.0029180078,0.003878974,-0.0012445715,0.0027087375,0.0043115043,0.00067243987,-0.0044081663,0.0007063394,0.0009273069,-0.006817599,-0.004804254,0.009173397,-0.005110224,6.721856e-05,-0.0036937534,-0.011365551,-0.0009891951,-0.0076799896,0.005169126,-0.0020762046,0.0057467544,0.0044077137,0.0013070295,0.005373259,0.012615723,-0.008926165,0.014282068,0.010137694,-0.0060029924,0.00094048353,0.0010048801,-0.003521273,-0.0013398825,0.004393508,0.0012385182,0.007891028,0.008998355,-0.0027492698,0.0042515867,-0.0016548623,-0.006105824,0.0017326283,-0.0014111187,0.00075978186,-0.003386766
CD53,-0.0011920152,0.0074824453,-0.00021305578,0.009774536,0.010888411,0.022136087,-0.014482987,-0.01477257,0.016919672,-0.005215673,-0.004425625,-0.0037386948,0.002988152,0.0055238493,-0.0061573605,-0.012984689,0.008655409,-0.0040098336,0.0007231792,1.69612e-05,0.0053470097,0.009020804,0.001754483,-0.0024977708,0.0050016814,-0.009583738,0.005753824,-0.0016415898,0.0032920097,-0.0086706355,0.009526581,-0.01574012,-0.005732892,0.0025715048,0.005820617,-0.003686097,-0.0024951873,0.011045971,-0.011094854,0.0071579614,0.0067839655,-0.005577134,-0.0012077861,0.007013651,0.0023842612
CHI3L2,0.008366514,-0.0017596813,0.00036449553,0.00766418,-0.01593807,-0.012507509,0.0021165025,-0.018193668,-0.013944084,-0.002819312,-0.0012041288,0.0025220483,-0.0064418176,0.0036562984,0.0007623753,-0.004570016,-0.0029870905,0.00044970395,-0.0004320118,-0.0006628594,0.001594418,0.0013705742,-0.008205995,-0.008431171,-0.005721456,-0.0007046624,0.0022723107,-0.0011089873,-0.005803858,-0.0015356066,0.00084586215,0.0028261496,0.0009873265,0.0013509198,0.007484671,0.002827407,0.0037136078,0.0028541437,0.003691001,-0.0021521,0.0007009073,-0.0022195552,0.0070394506,0.011044889,0.0017147925
ADORA3,-0.0025028929,0.0006696155,-0.004614789,0.0008647863,-0.007657228,-0.0038445902,0.0041519674,-0.0051826537,0.00458903,-0.0023609363,0.0007875011,-0.0009112453,0.017501824,-0.0030252794,-0.020984229,0.011294248,-0.001973661,0.0047449647,0.0063197394,0.001424317,-0.0075578727,0.012237297,0.0017482078,0.0016087162,0.009268079,-0.011214022,-0.008596124,0.0135899335,0.0025162955,0.001941751,0.011630797,0.009196986,-0.026259074,0.0046449318,0.00643391,-0.001596456,-0.0027267972,0.012064576,-0.00046651505,0.014065139,-0.03486126,-0.011992091,-0.0018455449,0.014967878,0.0038862943
CAPZA1,1.8433611e-05,-0.0033208695,0.0056408173,-0.0025653595,0.00039605983,0.0013732635,-0.008698594,0.0020601377,0.0016849571,-0.003067015,-0.0008372772,0.0011060827,-0.004631747,-0.003997183,-0.0024801462,0.001784766,-0.008495109,0.0004160371,-0.0015103385,-6.8531226e-05,-0.00044462166,-0.0012752513,-0.0013255088,0.0039970465,0.00063005375,0.003222866,-0.0021674074,-0.0016888798,-7.0970586e-05,0.00371364,-0.0014657254,0.0070512816,-0.000523482,0.0011088481,-0.0026649896,0.0006401663,-0.00040606598,-0.0012650244,0.0058338926,0.0021096042,0.0053070583,-0.0010344508,0.0028077264,-0.0077214194,-0.0017290387
RHOC,-0.00036007704,0.0012256657,0.00944567,0.0038010385,0.023357004,-0.0014484075,-0.0029230465,-0.010967702,0.018581519,-0.004385866,0.009084105,0.001022062,0.0061045866,-0.006599256,-0.010364411,-0.0103595825,0.002074752,0.0069762077,0.01028375,0.0044079227,-0.011081399,-0.003486852,0.00026725765,0.003009246,0.005748484,-0.0068863565,0.008646277,0.010249756,0.0038012979,-0.0009746879,0.011519093,-0.007845854,-0.0036606465,-0.008559517,0.008262948,0.0055102254,0.011113714,0.008692469,-0.012134002,0.0021619473,-0.0025293115,-0.0071489126,-0.0003830418,-0.0022438718,-0.005399032
LINC01356,-0.0039895847,0.0055861026,-0.0025096908,-0.0047532846,0.010225445,-0.00030465206,0.010288261,0.0028487633,0.0012756645,0.0073579107,-0.0025904623,-0.010688912,-8.407377e-05,-0.0065755383,0.0051555885,0.009554409,-0.002925525,-0.00093157013,-0.0010467068,0.008404689,0.0007756284,0.007443884,3.2807664e-05,0.0008409731,0.0018609583,-0.007353998,0.009960938,-0.00769379,-0.013866797,-0.004438806,-0.0017514976,-0.005870168,0.0013461303,0.019890845,0.0086776195,0.002564479,-0.0046758167,-0.0030044795,-0.003212167,0.0038354523,0.013492612,0.013458492,0.0068635964,0.018548913,0.004216223
HIPK1-AS1,-0.0031686954,0.002577681,-0.0017872263,-0.00096109114,-0.00018645196,0.0016411628,-0.0016195263,0.006573459,0.005721297,-0.0051289177,-0.00018876843,-0.0042303745,-0.0015046432,-0.0033136162,-0.0018056621,0.0033437354,0.0014805809,0.0005153266,0.0034148062,0.0017595913,0.0014480905,0.0040922747,-0.0021429553,0.004263028,0.0034386383,-0.0018472967,-0.003250728,0.008290907,0.0014508183,0.0033312489,-0.0032260239,-0.00079074956,-0.0037570826,-0.0007442317,0.0046810955,-0.000109651904,-0.0008811433,-0.006623047,0.0002626696,-0.00052456296,0.0007561748,-0.0047259163,0.0019687086,-0.0024187244,-9.7991804e-05
OLFML3,-0.0035379382,-0.0042955284,0.005994689,0.005064165,-0.0008934376,0.0017557533,0.008228748,-0.0034021577,0.00028102996,-0.00942271,-0.008053507,-0.013378277,0.011481259,0.0035014919,0.003930539,0.00936155,0.0012418114,0.008230259,0.022986852,-0.01696791,-0.0022681835,-0.023121253,-0.013543507,0.017417898,0.016089978,-0.01979334,0.005115157,-0.01310552,-0.007378199,0.012431946,0.0001457083,0.003393544,0.017403616,-0.00024866196,-0.007962735,-0.0032661643,0.00036167415,0.011175873,-0.0035239712,0.0070561385,0.007056517,-0.010676067,-0.0016909713,-0.0032257126,0.0002160294
CD2,-6.8071e-05,0.0010530925,0.0022067316,-0.0035268846,-0.0038279153,-0.0037617094,-0.0033198914,0.0018553259,0.002516163,-0.00060889544,0.00489499,0.0006870321,0.0045088343,-0.0074006217,0.001385885,-0.004586686,-0.0020362423,0.00065726414,-0.0017185748,-0.0013243004,0.0025837237,0.0063061067,0.003558615,-0.005285685,-0.001715531,0.00296398,-0.0064477776,0.0049817455,-0.004686053,-0.0030702201,-0.0013258179,0.00048158958,-0.008139639,0.00032546572,0.0037912067,-0.010226408,0.005179968,-0.0024282124,0.0010631067,0.010787862,0.014986135,-0.011878685,0.0029804378,-0.0077142445,0.0028138724
CD101,-0.00030671994,-0.004401709,-0.0048267096,-0.0010246966,-0.006655026,-0.016138634,0.0071483618,-0.0032477325,-0.0028191959,0.004283364,-0.005542592,-0.008041631,0.008630456,-0.0033696617,-0.00029892733,-0.0049698027,0.01419688,0.00808976,0.001088166,-0.0014570509,-0.010950478,0.002085595,-0.007425177,0.0019318478,0.007335737,-0.0067042974,-0.018404981,0.028231377,-0.0026605898,-0.011999631,-0.0035457334,0.01138923,-0.017950658,-0.0023221807,0.005308299,-0.0110427635,-0.013610207,0.00092028116,0.017527264,0.014001039,0.006149723,-0.040963612,-0.0036113688,-0.005063325,0.01288996
PHGDH,0.004497698,-0.00503465,0.0067533925,0.014872828,0.005441474,-0.003825217,0.00850358,-0.01787138,-0.00704368,-0.00036387323,-0.0032827235,0.0051338254,-0.0027879754,0.004034987,-0.0012298261,-0.0075573907,-0.0057538887,0.0013200901,-0.00021578665,0.0021543577,-0.00040285813,-0.0038622194,0.0018779675,-0.004392406,-0.006555488,0.0035676549,-0.004556832,-0.007660466,0.00066038326,0.00023011355,0.00892298,-0.0024258166,-0.0005818944,-0.0024279114,0.0020029775,-0.00434653,-0.00453157,0.019208193,-0.0019649316,-0.0076190606,0.004302767,-0.006159084,0.0067374418,0.0069399094,-0.003810702
FCGR1B,-0.009801209,-0.013201242,0.0009051474,-0.0035885703,0.0015988484,-0.0037608047,0.019176198,0.0073743137,0.016621312,-0.002255624,-0.0012965377,-0.0027979545,-0.0029563096,-0.0021472713,-0.010135431,-0.01452504,-0.0016832763,0.002849463,0.0015293323,-0.004543636,-0.0005305635,0.011165689,-0.0024472275,-0.00990981,0.002984941,0.009886297,-0.0021868804,0.0065658386,-0.0024814866,0.0013920349,0.009223898,-0.016025867,-0.015045132,-0.0057110996,0.016891418,-0.004751734,-0.0022600698,-0.003114691,-0.00078414805,0.014887423,0.019016393,-0.021071546,0.0010013866,-0.008946641,-0.0012348795
PDZK1,-0.0016095603,-0.0030317921,0.0008386043,-0.001106164,0.00022710186,-0.0080221575,0.00014617394,0.00033546248,-0.0035010346,-0.007237441,0.0027945049,-0.0016804656,0.0022532376,-0.0031613999,-0.0005738609,-0.006637814,-0.0004813593,-0.0001427513,0.0008396618,0.0037250638,-0.0037243508,0.002378941,-0.0019402971,0.0035755346,-0.0033334536,-0.003653963,8.283464e-05,0.0030795757,0.0022341446,-0.0012877991,0.009425625,-0.0035906285,-0.0019457898,-0.002548105,0.007424731,-0.00093141216,-0.0043536695,0.008354791,-0.005921662,0.0012282957,-0.0048166406,-0.00267273,-0.0043155523,0.0057742326,-0.000774246
CD160,-0.002181725,0.007812819,0.0031531132,-0.0001730284,-0.0035035494,0.0005362403,0.0034114418,0.0028436636,-0.0011400743,-0.0027558343,0.0012469931,-0.0002621718,-0.0027758451,-0.0006331231,-0.0030042657,0.0035850923,-0.0015671887,0.0007524044,0.003317369,0.0061516813,-0.0009723935,-0.0062409765,-0.00267879,0.00087261887,-0.0021700908,0.0010801272,0.00033750903,-0.0017279467,-0.0013392763,0.0016409146,0.0080176275,-0.0044710357,-0.0056695016,-0.0027680474,0.0054469807,0.0017864141,0.0017770102,0.003846802,-0.0009199176,-0.000652373,0.00413149,-0.00084322307,0.0032384952,-0.0036252458,-0.0009411706
POLR3GL,0.002271615,-0.003141892,-0.0058123036,-0.010925647,0.004615233,-0.007757116,-0.009900095,0.0006479367,0.006392761,-0.0029906607,-0.0068004946,-0.0032211884,-0.001185078,0.008855354,-0.005387391,0.0029634612,0.00618998,-0.0005344959,0.001575451,-0.0056469375,0.0044979984,0.0018500776,0.003609226,0.002611184,0.010110783,-0.007611032,0.0116706,0.008294011,-0.00017081936,0.005298829,-0.011167978,0.005966732,-0.00913416,-0.001362566,-0.008321319,0.009573473,0.015017714,-0.003953377,0.0057140454,0.0045706667,-0.0021821638,0.0048691384,-0.0013385515,-0.0076598995,-0.0010688016
TXNIP,-0.0016337998,0.00077490427,-0.00034632598,-0.0070170523,0.022295121,0.007436009,-0.004542625,2.5609415e-05,0.015232241,-0.006634005,-0.01094855,-0.013442074,0.0040560225,0.008686989,-0.008465904,-0.001302648,0.004601045,-0.0020409804,0.008219874,0.0037862035,0.0054996456,-0.0026128674,0.0027869123,0.0046095415,0.015806632,-0.015223052,0.026577085,0.025195412,0.0045475885,-0.0044773044,0.0063581876,-0.014183096,-0.01924965,0.00013522786,0.0044437014,0.017391881,0.018071532,-0.001446307,-0.012148814,0.011251154,-0.018980322,-0.01782147,0.0027982485,0.0012838645,-0.0034073307
FMO5,-0.0031264345,-0.0056927563,0.0009947828,0.0006743442,0.0012823093,0.0028376805,-0.0010805636,-0.0016068193,0.0040668095,-0.003868181,0.0067436956,-0.00069711596,0.0017403789,-0.0026640387,-0.0010640543,-0.004197759,-0.000244404,0.0022073784,0.00016736383,-0.0007231787,-0.0010859985,-0.0031196123,0.0020163367,0.0034052716,0.0013551526,-0.0017104623,0.0030080408,0.0042088283,0.0018614724,-0.0049006,-0.00011619445,-0.0003458363,-0.002750982,-9.634662e-05,0.0033940335,0.0010913247,0.00031546867,-0.0024784657,2.6796732e-05,0.0032794026,0.002521329,-0.0030790612,-0.0012909559,-0.0016244047,0.00048416085
PPIAL4G,-0.0011811182,-0.0051147,0.0022198386,0.00083968055,0.0022358845,-0.0072586047,0.0049847597,-0.0062341983,0.002976723,-0.00055045204,0.0024908565,0.0025393763,-0.0030317365,0.0035383487,-0.0057014762,-0.004476601,0.0021354093,-0.002033976,0.000720304,-0.0005354121,0.0062444,-0.0053220633,-0.0015357633,0.0016344084,-0.00075600954,0.0015380641,0.007441654,-0.005597195,0.0027725361,0.00011526697,-0.0011332799,-0.002372785,0.006456208,-0.0051011327,-0.004904901,0.0012694119,0.000117748554,-0.0015949274,0.0007334665,0.0019447961,0.0054204627,-0.005089076,0.002432111,-0.0069585517,-0.0027421822
PDE4DIP,-0.011125324,-0.017102161,-0.009503206,-0.0059458213,-0.0036775635,-0.0059762355,0.015255968,-0.006826759,0.006613793,-0.0021371418,-0.02185813,-0.010258327,-0.0078114206,0.0010703681,0.014973544,-0.012662946,-0.005988523,-0.014310912,-0.0025744867,-0.0053403364,0.015319573,0.013625671,0.002692626,-0.006382232,0.0088460855,0.00159145,0.019244066,-0.00046520348,0.0045889807,0.0069154,8.726595e-05,-0.0032988484,-0.007048438,-0.0026688331,-0.0028927913,-0.004258261,0.012082224,0.01824607,-0.00018981793,-0.0038953125,0.014292483,-0.005975678,-0.0021845957,-0.002717649,0.0037802614
FCGR1A,-0.009762379,-0.01680669,0.0071761757,0.0033081044,-0.009157992,-0.017393097,0.00934057,0.004819454,0.004757015,-0.003298219,-0.013626749,-0.010361749,-0.0015623475,-0.02381394,-0.019952998,-0.032186832,0.008099576,0.0048820707,0.004308806,0.0063323053,0.002366573,0.028387958,-0.005030193,-0.0019780635,0.0031204526,-0.0056912345,-0.013561209,0.03593582,-0.0031446859,-0.017288106,0.028490683,-0.011924989,-0.019692067,-0.009021112,0.033189293,-0.034966256,-0.003929337,-0.01911404,0.0059718387,0.03389653,0.021926917,-0.060512215,-0.0148128085,-0.011250075,0.009397494
HIST2H2BE,-0.0023048627,-0.00076496194,-0.003784023,-0.005926187,0.0060861325,-0.00339015,0.000392577,0.0067129456,0.013153425,0.0019998231,-0.000190524,-0.0028281866,0.0012896938,-0.0058244118,-0.0016608842,0.0029193114,0.0020792636,0.0025543454,0.00022176292,0.0014898737,0.0010894521,0.0007184208,-0.0029473326,0.00083440234,0.0009404379,-0.00030781436,-0.0008778203,0.0033710434,0.0019681707,-0.0014282299,0.002630666,-0.0023671163,-0.00031815714,0.0010741593,-0.0012944556,-0.0007097607,0.0011082721,-0.00051067694,0.000971951,0.003170901,0.0019393748,0.0014703008,-0.0008533455,0.00197377,0.0011566341
HIST2H2AC,-0.00015713331,-0.0049652015,0.0063780216,0.024135867,-0.019235741,-0.00069868367,0.010535647,-0.013539344,-0.016494634,0.0012957319,0.0020056022,0.0051071127,-0.003817861,0.0034228903,-0.0019663852,-0.007946734,-0.003565738,-0.00046723007,-0.0055204504,-0.0030004438,-0.00783632,-0.006086135,-0.0064238384,-0.0049718143,-0.009001228,0.0025516527,-0.01068864,-0.004799253,-0.0011316728,-0.0021017303,0.0041125966,0.0048126522,0.0064051403,0.006612602,-0.0006661823,-0.0035770575,-0.0028504585,0.011983805,0.008672456,-0.00458244,0.0043426496,0.001634639,0.0033235776,0.010874269,0.005863819
MTMR11,-0.009616874,-0.0058048777,-0.005670836,0.0032238937,-0.006105617,0.008792131,0.0029370447,0.0056819348,-0.008039783,-0.0011570933,0.010301813,0.00049304764,0.013632675,-0.0046783183,0.0054866155,-0.017019056,0.010236949,-0.00065160944,0.00036641667,0.0070641683,-0.0055069597,8.69353e-05,-0.0002453468,0.00052380515,0.00249715,-0.007074544,0.0066380803,0.0017487048,-0.0012045772,-0.006536771,0.012217215,-0.014806796,0.008000438,-0.017349748,0.0142514445,0.0015841352,-0.0025496113,0.008419234,-0.0036548772,0.002578771,-0.015654368,0.005429373,0.0073145474,-0.00437138,-0.0046485523
PLEKHO1,-0.004854731,0.0005217994,-5.7617828e-05,7.3454474e-05,0.010571682,0.010884048,-0.0065118875,-0.0033555962,0.01733875,-0.00058424816,-0.0065417388,-0.0009733721,0.004363509,0.005810302,0.0040831845,-0.009045856,6.0265003e-05,-0.0046910327,-0.004507521,0.005148244,0.00739773,0.00891245,1.5946564e-05,-0.0004096146,-0.0019294581,-0.0023877441,0.002732593,-0.0037804265,-0.000230462,-0.0034789909,0.008701278,-0.010637698,-0.0057525216,-0.0070550223,0.005203539,-0.004206952,0.001757073,0.008472018,-0.0060138577,0.0015531442,0.010384879,-0.006403197,0.0017854095,-0.007351446,0.004704546
ANP32E,0.002951714,-0.009004036,-0.00041705428,0.023295693,-0.008546273,0.004080217,0.007945197,-0.01215839,-0.007123436,0.0052297213,0.005283107,0.01603851,-0.0024793902,0.0060675777,0.0087582795,-0.0037783876,-0.011859194,-0.0037791105,-0.004687775,0.00057432085,-0.008399629,-0.0052566314,-0.0021088272,0.0011507517,-0.013440601,0.011701855,-0.020915473,-0.017874453,-0.002139892,0.00032435622,-0.0024017056,0.008134446,0.008002924,0.0017865372,-0.00823606,-0.00592609,-0.00916619,0.013354345,0.002596982,-0.011204773,0.010515567,-1.6131098e-05,0.0031278962,0.0024602183,-0.0004443059
ECM1,0.00085861277,0.00656672,-0.00048173053,0.0018852755,0.0017734797,-0.008260958,0.001256494,-0.004310208,0.0012308032,-0.0076306425,0.00019840094,0.00029855536,0.004291619,0.0017660127,0.0016037185,-0.003709652,0.012098603,0.00057354814,0.0055143577,-0.0020463015,0.00069427036,0.0009416449,-0.005151458,0.006392827,0.007204002,-0.01198494,0.014235662,-0.0066764704,0.0017941393,0.0017720772,0.007514581,-0.014039241,0.004374563,-0.011504079,0.008216529,0.007498335,-0.002428302,0.016628534,-0.0035328341,-0.004484564,0.0070712105,-0.0016287226,0.0049866196,-0.0020695005,-0.00061534526
ADAMTSL4,-0.0044946196,0.0015108597,-0.003400994,-0.0067983363,0.0017596792,-0.004195709,-0.013216507,0.005301045,0.008215682,-0.0013118945,-0.0019138983,-0.008751775,-0.0054063275,-0.00606918,-0.0037356284,5.4430326e-05,0.0021745607,-0.0017260865,0.0043799384,0.0040821275,0.0051473076,-0.00025624785,0.003160374,0.0041443533,0.0131348055,-0.004356187,0.023785764,0.0071488125,0.0016841547,0.007891464,-0.0011907864,-0.003134565,-0.0033647867,0.0028546157,0.0018628521,0.016888732,0.020731306,-0.009831679,0.0019371206,0.007174503,6.7043795e-05,0.0070484504,-0.0024665613,-0.00048617137,-0.009419825
CTSS,-0.0046162023,0.0053254045,-0.003896793,-0.00039076246,0.010214171,0.017367305,-0.0131770065,0.00027165815,0.011948819,-0.0032698333,-0.010891706,-0.008911177,0.004356234,0.0041653453,-0.00039774686,-0.005538101,-0.0031759276,-0.0025158764,0.008860667,-0.0032909254,0.007842339,0.0040055406,0.0015849179,-0.0027234475,0.0063416534,-0.004890071,0.009184542,0.01375543,-0.0012113205,0.0021787912,0.010925408,-0.0018536252,-0.009376194,-0.012204912,0.00084078964,0.0028903978,0.0068370337,0.0016387358,-0.005050478,0.009301633,-0.003747558,-0.0055027185,0.0038217145,-0.009081354,-0.0067307125
C1orf56,-0.0045095375,-0.0048535517,0.0035621065,-0.0036099995,0.00011005154,0.0031646385,-0.0049829273,0.015008641,0.0016154072,-0.001763844,-0.0005112958,-0.0048175934,-0.002891957,-0.005399896,0.0019982383,0.006209423,-0.0026773885,-0.001472201,0.0019178285,0.0009973341,0.0020770426,-0.0017421758,-0.00427216,0.003252179,0.0034790589,-0.001784178,0.0055162166,0.0021772645,-0.00020214188,0.0045468584,-0.0002687818,0.0070922165,0.0017361906,0.0022524283,0.00064307207,0.0029890626,0.0048788683,-0.003613207,0.0013282937,-0.0016341713,-0.0021130608,0.0019305132,0.0013152334,-0.005192899,-0.0028907256
CDC42SE1,-0.0031175425,-0.0005810933,0.0065146065,0.0025829664,0.0020045023,0.0041936194,-0.010095921,-0.00032643412,0.00046901283,0.0016986317,0.0020393205,0.0021735642,0.001630404,-0.0026044662,-0.0038077417,-0.004432984,-0.005369805,0.001943092,-0.0007682703,0.0011239954,0.00029560496,-0.009018222,0.0010684355,0.0015777705,0.0007112901,0.00017110356,0.0016569468,-0.0016352272,0.0017430226,0.0019698117,0.0017674232,0.003051812,6.40263e-05,-0.0005027131,-0.00018261635,0.0021836096,0.0069226455,0.0018087554,-0.00014938526,0.0012213117,0.0008998617,0.003598815,0.00058436487,-0.0002535031,-0.0036735516
MLLT11,-0.0034821974,-0.0023275574,0.007922644,0.0051601,0.0049651694,3.2397365e-05,0.007823539,-0.008864598,0.0043543545,0.0027129736,0.0077403975,0.0058472296,0.0019279354,0.00073955243,0.009487942,-0.010670434,-0.0021165607,-0.0011973542,-0.004562272,0.0010224313,-0.008626489,-0.0027721685,-0.0009855971,-0.0025195696,-0.005063227,0.003922852,-0.0046467413,-0.0074680108,-0.0012083357,-0.0005455935,-0.0012027919,-0.005482524,-0.0030711477,-0.0035509355,0.0026504803,-0.0020593195,0.00062152796,0.017819764,-0.0029487775,-0.0050823777,0.012243105,0.0005272953,0.0033215487,0.0053439783,-0.0012773683
GABPB2,-0.0006961643,0.00032173647,-0.0014339474,0.0012243848,-0.0018577022,0.0048604296,-0.004945828,-0.002682932,-0.00028212133,-0.0007123018,-0.001375534,-0.0046048122,-0.00029617094,-0.0021957224,0.002042684,-0.0031371692,0.0022962936,0.0002968725,2.8696604e-06,0.0016006161,0.0051008365,0.0024792757,0.00050851103,0.0017322777,-0.0005013547,-0.00077999925,0.0033536877,1.5537638e-05,0.0030626247,0.00040069147,-0.0013423095,0.0014261386,0.0014877613,0.002248075,-0.0042106034,0.00035253624,-0.0015998654,0.0026093547,-0.0019012807,0.0004954899,1.24818935e-05,0.00069065735,-0.001267476,-0.0025470103,0.00071848556
LYSMD1,-0.0027651312,0.0017657776,0.0024812925,0.0008976033,0.0019612503,0.0015435976,-0.0013633908,-0.0016142676,0.0027346213,-0.0012195155,-0.0006145496,0.00081380585,-0.0020487513,-0.0007460766,-0.0005450041,0.0018138274,-0.00047341947,-0.00068624294,0.0016867153,-0.0009996786,-0.0002261738,-0.0020932232,-0.00039418193,-0.0014662053,-0.0011778697,0.0011044969,0.00050882227,-0.0025557836,-4.33173e-05,0.0028851363,-0.00028395836,-8.310894e-05,0.0022449081,-0.0005555756,0.0003160591,5.154009e-05,-0.0004024381,-0.0015685076,0.0019459967,-0.002645536,0.0011855758,0.0020890457,-0.00028917534,-0.0020337226,-0.00054083194
S100A10,0.011208266,0.013314487,0.0076841307,0.024993652,-0.027919795,0.0008398282,0.0070831305,-0.03419863,-0.021169307,-3.480397e-05,0.007253899,0.0072162626,-0.009515002,-0.0052046524,-0.013164824,-0.009657206,-0.008622905,0.0033774385,-0.0014030146,-0.0012774016,-0.01515185,-0.0072474196,-0.006730615,-0.0046266285,-0.0021260858,0.009043101,-0.010516536,0.0018293621,4.498181e-05,-0.0014950742,0.010527453,0.009217941,0.0023611095,0.0032259908,0.0068970225,0.000117052026,-0.0036898917,0.013516623,0.001807419,-0.004395998,0.0029414687,-0.004375825,0.0023332958,0.011832764,-0.0010804614
S100A11,0.008164672,0.014315899,0.004714895,0.018101664,0.0154106645,0.011629928,-0.00074567506,-0.036739882,0.0034751284,-0.005407266,-0.013326522,0.0021768236,-0.00013079355,0.02093261,-0.01549587,-0.02628082,0.00055058004,-0.012416789,-0.0006331336,0.0055451263,0.008277557,0.007801413,0.0020148854,-0.0042826426,-0.006798281,-0.0070087407,-0.009603042,0.0045685163,-0.0012323229,-0.0097898375,0.020714229,-0.013349414,-0.013693273,-0.007864969,0.0036925848,-0.0075950953,-0.0013840973,0.025856169,-0.008570382,0.013050377,0.01300759,-0.015447423,0.009150804,-0.002619201,0.0068468875
PRR9,-0.0014156566,0.0011344847,0.00124316,0.0005353282,0.0002855299,0.0012992955,0.0025574395,-0.00019757905,1.7831677e-05,0.006588128,0.0038809404,-6.0415132e-05,0.016473373,0.0025399772,0.014022431,-0.02019451,0.007804813,-0.003993162,-0.003683674,-0.00034981433,0.00041754846,0.0016683512,-0.0022110904,-0.0040943623,0.00040373782,-0.0067398977,-0.0049913027,-0.0045553083,0.0052695363,0.00067892426,0.0023223285,0.00261696,0.009383261,-0.020619676,-0.0045639863,-0.0043303343,0.004559803,0.0012369793,0.001151701,0.0071508293,-0.019099804,0.0027762176,0.0026818379,-0.0072698877,-0.003145377
PGLYRP4,-0.0059335125,-0.007732965,-0.003254257,-0.0047686826,0.01090231,0.003641129,-0.0014223354,0.00076061144,0.00943111,-0.0003111561,-0.004644761,0.0020662732,-0.007605584,-0.004754738,-0.0033738534,-0.011741546,-0.0017146121,-0.007980022,0.002445425,0.0034628974,0.0044570775,0.0026355584,0.0021778173,0.0034928217,0.010173602,-0.0057641994,0.012123651,0.005100077,-0.0064957268,-0.0007234695,0.0020708279,-0.0013129229,0.0015954716,0.009208999,-0.00043313135,0.007319327,0.0075177886,0.008757392,-0.0016599129,-0.0008857043,0.001714313,0.0005010336,0.0014700419,0.005890373,-0.00017417276
S100A8,-0.005121063,-0.0087697655,0.0057365024,0.0022291618,0.002611734,-0.0043335054,0.0082031,0.0006448774,0.0012069124,0.0059489617,-0.003708293,0.0007106473,0.0018599625,1.5422501e-06,-0.007397587,0.007295288,0.012220192,0.00073622813,0.0022014738,0.0008755208,-0.0049170884,0.0077034654,-0.0007137317,-0.0055878796,0.00010466193,-0.0019427756,-0.0008779884,-0.0034930576,0.003721918,0.0010323671,-0.0052155666,-0.007920539,0.004494716,-0.0010458812,-0.00012144632,-0.006902079,0.005315435,0.008826479,0.005390725,0.00045605598,-0.010177528,-0.009219386,0.0014407543,0.013082365,0.0035313754
S100A5,0.00028591565,0.0018413696,-0.0010768907,0.0008496296,0.004569634,-0.0016803406,0.0033125663,0.001676114,0.00096012146,-0.002504374,0.0019621039,-0.0032793952,0.00414384,-0.00036626795,0.00085021375,-0.0010845427,0.0064622443,-0.0014088182,-0.009471688,0.0035658912,-0.0054960144,0.003665374,0.0050456845,0.0014929372,0.0036190224,-0.013173384,0.015416401,-0.004459951,-0.004538354,-0.011637118,0.0072086533,-0.022570394,-0.0026727798,0.0071923234,0.01056458,0.010031752,-0.0007511815,0.011803027,-0.010405871,0.0013937962,0.016654355,0.0041482924,0.00692221,0.012387917,0.0015024215
S100A4,0.007443129,0.006635792,0.00067852554,-0.009284869,0.0015888099,-0.017961157,-0.005091432,0.0007807654,-0.0055412306,-0.011451504,-0.00045102413,-0.0025252614,0.0072063147,-0.009556732,-0.0076510347,0.0009960727,0.0026597928,-0.000794562,0.0020079578,-0.01309248,0.006919651,0.012759584,0.002792431,-0.009404317,0.006218065,-0.004882974,0.0026219944,0.015171803,0.0028718163,-0.0024726465,0.0012609909,-0.0042321803,-0.011067111,-0.010263304,0.0023265404,-0.0023819825,0.0077462303,0.0072029615,0.0004326961,0.00014325503,0.008466577,-0.018144531,0.0031061575,-0.016777633,0.0042495197
S100A3,0.010032907,0.004551917,0.0031095247,0.0018823893,-0.011135071,-0.012958181,-0.003737729,-0.0073051224,-0.008739614,-0.000491164,0.00015609722,-0.0008454515,0.00043329867,-0.0015940635,0.007297106,-0.0022168155,0.0038566655,0.0016661191,-0.002449327,0.002604484,0.00011295054,0.0061716544,-0.0021348486,0.0064270333,0.0011475064,0.0010162224,0.0027447485,-0.002571367,-0.00067314674,0.00086032436,-0.002150195,-0.0011358592,-0.0010710129,0.003675925,0.008529494,0.001359385,-0.0036206336,0.003677343,0.004512617,0.0019001943,0.0034701673,0.0010184568,0.0018626994,0.005805486,0.007506971
S100A16,-0.0016744073,0.0016960395,-0.0018398983,-0.003853255,-0.0023164537,0.0052556074,-0.008106069,0.0018844777,0.0062535726,-0.0020395555,0.0030640208,-0.0015544404,0.0038793336,-0.0032394966,0.00051385,-0.0033273413,0.005091404,0.0027246368,0.0025816737,0.0019656508,-0.0023278822,-0.00030377824,-0.00319263,0.0019262735,-0.0010642012,0.0026787326,0.0030551418,-0.00083064893,0.0014472551,-0.00039625552,0.003395455,-0.0036610472,0.0011879225,-0.0040702387,0.0029950545,0.0012258419,-0.0027359275,-0.003109763,-0.0019765757,-0.0022253294,0.002231222,0.0005622627,0.0017516346,0.0028081345,0.002044541
S100A13,-0.012856843,-0.003443742,-0.0019401372,-0.005012471,0.022493074,0.009093003,0.000441157,0.0034689107,0.023954256,-0.009553858,-0.0047429497,-0.0018710708,-0.0025658538,0.0025933012,-0.014167305,-0.017176436,0.0026784379,-0.0025760473,0.005665747,-0.0015176765,0.0068406533,0.011957106,-0.0028212988,0.0076439343,0.010540208,-0.012050287,0.026056347,0.010947733,-0.0003812044,0.00060271524,0.011886514,-0.024324825,-0.012470317,-0.013190979,0.010991938,0.0054215253,0.025738439,0.017825129,-0.016026594,0.0034638145,0.005296799,-0.012719359,0.004931323,-0.0036854574,0.0044937697
S100A1,-0.0052150693,0.0017198401,0.00041686476,0.0013507375,-0.0015407642,-0.0065863933,0.011478471,-0.00052069087,-0.0017622175,-0.009042585,-0.0015935383,0.0018523035,-0.0061396584,-0.004015394,-0.008402216,-0.0046276967,0.0036316272,-0.002152047,0.0076596723,-0.010114282,-0.0044727754,0.003225361,0.0004120527,-0.0025908565,0.011786753,-0.008697473,0.010496228,0.014321153,0.00055259245,0.0016752548,-0.00011809093,-0.00820287,-0.00847469,-0.0010580841,0.0047682784,0.010840801,0.022774678,0.0066568702,-0.0037390133,0.0073129255,-0.0012487872,-0.0071840985,-0.00058968156,0.002721613,0.005607145
RAB13,-0.0043946505,-0.00062368426,0.0011978766,-1.9357096e-05,0.0038894108,0.005169795,-0.004197897,-0.0036750194,0.0048441086,0.0016339789,-0.0016854324,0.00030446373,-0.0016428086,-0.0033966908,-0.0011040193,0.0012911484,0.0015094033,0.0019282852,-0.004709104,0.0028241544,0.00075394445,0.0021070482,-0.0019160402,-0.0002307408,-0.0017716391,0.000950925,-1.916209e-05,-0.0014193994,0.0015042729,0.0013889712,0.0012992457,-0.001468942,-0.00038263333,-0.002782619,0.0018706493,-0.001727712,-0.0017476593,0.0024782121,0.00019996354,-8.174556e-05,0.0074332627,0.0026770756,3.921918e-06,-0.0014409021,-0.0030320678
IL6R,-0.0076965364,0.0023747052,-0.00094792485,-0.0029423626,-0.0061847935,0.0074889143,-0.0007099136,0.004084544,-0.0060273902,0.014323145,0.0076002143,-0.00018164642,0.015850017,0.0075558024,-0.008574619,0.0040181032,0.00986658,-0.002623522,0.0012878827,0.020310743,-0.0003793746,0.0014934739,-0.0008643784,0.011382686,-0.006206813,-0.003950742,-0.005558955,0.0008334402,-0.010134117,0.0020922935,0.0061962884,-0.006257978,0.0021198862,-0.014815972,0.013773769,0.0040170876,-0.0065037413,-0.0039675627,-0.0034509238,0.0010996576,-0.008582063,0.019438852,0.009518426,-0.016310506,-0.0007419165
KCNN3,-0.0059816726,0.0019918156,0.0008336714,-0.0038721538,-0.0058998275,0.0033784932,0.0052918834,0.0022984538,0.0037450944,-0.006448849,-0.0012677232,-0.005530292,-0.004066994,-0.0014029291,-0.0024957876,0.0043000774,0.00012537559,-0.0023272664,-0.0032877421,-0.006004256,-0.0010473232,-0.00029812302,0.0070297658,0.00493206,0.004219032,0.004630619,0.008887635,0.0005968518,-0.0034307945,-0.0050216317,0.0050132102,0.0036077236,-0.0024668747,-0.011492401,-0.006537254,-0.00030234994,0.00047792916,-0.00019707637,-0.0033108592,-0.0011994913,1.076941e-05,-0.0015776455,0.0018331823,0.0034653351,0.0025347217
PBXIP1,-0.00223757,-7.011895e-05,0.0044497647,-0.0007824257,0.00040352799,-0.00070697593,-0.008172652,-0.0013167921,0.00750044,0.00033923078,-0.0039134715,-0.0024621096,0.0014744591,0.002318621,-0.0024498089,0.00020110644,0.0033886023,-0.0042329393,0.00047531465,0.0030578277,0.0042769504,0.000692389,-0.0041685766,0.0026102306,0.004412813,-0.006930058,0.0059968634,0.0076448056,0.0032580583,-0.0048353863,0.003030176,-0.005480755,-0.0060167555,0.0015993406,-0.0035766885,0.0034538407,-0.001920321,0.005619659,-0.0024858946,0.0022287806,-0.0032920302,-0.0023271022,0.00063183316,-0.001252994,-0.0023833548
LENEP,-0.001618636,0.001628959,-0.002277772,0.0031950157,-0.0002441224,-0.00034060623,0.0011401782,-0.0010804834,0.001827883,0.000690129,-0.0024229393,-0.0008565433,-0.00045304737,-0.0016604633,0.00097074005,-0.00086394313,0.00014411272,-0.0015344394,0.00023865738,0.0013663305,0.0014037619,4.3258784e-05,-8.9936904e-05,-0.00066255324,0.00034272243,-0.0010358641,-6.195154e-05,8.531837e-05,0.00021403538,0.00056579575,-8.2408376e-05,0.00206391,-0.0002809961,0.00020214624,-0.0019449942,0.0001838357,-0.0003872137,0.001837479,-0.0016448149,4.543095e-05,0.00043569852,-0.00062075135,3.5704466e-05,-0.00036984298,0.00095097354
SYT11,0.00082561426,0.0012625377,-0.0028959352,0.00289397,0.007039167,-0.009765547,0.0056618154,0.0018898395,0.00615735,0.00017270142,-0.00048741442,-0.0038028583,-0.0015434211,-0.0005991994,-0.0029251385,-0.005878868,-0.0013804407,0.0031692719,-0.004774686,-0.0051453016,0.0015213934,-0.008000239,0.004991468,-0.009526316,0.00046872871,0.0071410397,-0.004400631,0.0057851216,-0.006116174,0.006370017,0.0087167835,-0.008738509,0.0011035256,-6.607518e-05,0.011200337,0.00048510847,-0.002743468,0.004347935,-0.006489022,0.0026032173,0.006355567,0.0033976221,0.0017432256,-0.004953824,0.0002208829
RIT1,-0.005479556,-0.0046126647,0.0073869373,-0.0002793408,0.010106885,0.005432924,0.003057442,-0.0032740075,0.00848768,-0.0042937226,-0.0033008496,-0.0064980155,0.0015618133,-0.0062742666,-0.0030591413,-0.0072164256,0.006593177,0.0015708875,0.008502405,0.0018940725,-0.00087701355,-0.005974723,-0.003985266,0.0033529724,0.0071687438,-0.0034214468,0.0083832685,0.0038686218,0.0040935376,0.0048064184,0.009397132,-0.003380632,-0.0020614502,0.0022971663,0.0032014865,0.0052439356,0.0031364649,0.001827206,-0.007848611,0.0041780164,-0.0040939148,-0.00035523198,0.0015237742,-0.0035946788,-0.00049240695
LMNA,0.007000918,0.0070141,0.0022413128,0.008751655,-0.004999014,-0.006724954,-0.006013277,-0.01248471,-0.004285829,-0.00012887844,0.011654321,0.0049680574,-0.0029904204,-0.019799355,-0.0003640972,-0.01027532,0.002278689,0.0019099287,0.0003888875,0.007886443,-0.013734093,-0.0016311444,-0.0022208788,-0.00094776595,-0.0030688555,-0.0012336326,-0.0044173915,0.003555057,-0.0024441045,0.001597621,0.00955407,0.005393706,0.0031852114,0.0021035655,0.008481424,0.00498746,0.0028575899,0.0105623035,-0.0019552233,-0.00015971593,0.002889804,0.0067528514,0.00018772778,0.00959451,-0.003567394
