gene_symbols,phi_0,phi_1,phi_2,phi_3,phi_4,phi_5,phi_6,phi_7,phi_8,phi_9,phi_10,phi_11,phi_12,phi_13,phi_14,phi_15,phi_16,phi_17,phi_18,phi_19,phi_20,phi_21,phi_22,phi_23,phi_24,phi_25,phi_26,phi_27,phi_28,phi_29,phi_30,phi_31,phi_32,phi_33,phi_34,phi_35
SAMD11,-0.019397821,0.0052560763,0.012061961,-0.0003805871,0.0035935298,-0.02252846,-0.0012892671,-0.017603956,-0.010448855,0.0033005928,-0.005208056,-0.011013194,-0.005195838,0.001892491,-0.015761703,0.015768824,-0.00037385683,0.00020159394,-0.05001173,-0.0028521288,-0.026294725,-0.0020728554,-0.011498116,-0.0060202642,-0.007823272,-0.017248632,-0.0029779535,0.005468919,0.0016246196,0.009434736,0.03100373,-0.007946285,0.036612798,-0.0016323092,-0.0055492097,0.017044434
HES4,-0.004324481,0.03339413,-0.006194448,-0.0060500912,0.002192876,-0.008918303,-0.012212383,0.0013688217,0.002815604,-0.0080523975,0.0037031998,0.0042837122,0.012842345,0.01341549,0.015872024,0.0026949989,-0.0025438436,-0.003860403,-0.0009403607,-0.0041059544,-0.002189972,-0.0045578736,-9.5532654e-05,-0.0010643761,0.006282728,-0.0049596634,0.0012733396,-0.0018859961,-0.0014789505,-0.0018292591,0.00092542625,-0.0038865746,-0.001060336,-0.0055772057,-0.010461291,-0.008843004
ISG15,-0.0007881982,-0.0053691366,-0.008135826,0.013116992,-0.006464594,0.014060352,0.005472234,-0.005116967,-0.0023905525,-0.0009983764,7.300071e-05,0.0015530802,0.004826033,0.014022876,-0.0015236799,-0.0012592276,-0.0022402024,0.0034932916,0.0016619754,-0.010722483,-0.00085065793,-0.00463106,-0.0029423453,0.005468046,0.013362114,-0.0034031377,-0.008870012,0.0029367062,-0.0136785535,-0.0009222443,0.004178402,0.0003304068,0.0057455674,0.020308677,-0.004855647,-0.01122824
RNF223,-0.0023808777,-0.00025440563,0.0004588746,-0.0023256782,0.006863277,-0.0026838244,0.0011473008,0.0011202295,-0.0017845416,0.0004886043,0.001696951,-0.0015625083,0.0023400083,1.4924895e-05,-0.0014027565,0.0059580132,0.0018786043,-0.0018822252,-0.0069896523,-0.0017739828,-0.009054979,-0.0031168247,-0.0028602781,-0.0043378053,-0.0033715856,-0.0047381683,-0.0006574047,-0.0048214993,0.0040201508,0.00019001978,-0.0018441076,-0.001891578,0.0010231629,0.00043395886,0.0014388912,0.0016537649
TNFRSF4,-0.00030127258,-0.00025311724,-0.00027494182,-0.0015749461,-0.004059912,-0.0034257898,-0.0056151077,0.001701893,0.0011386998,0.00030637413,-0.00042575903,0.000446946,0.004359832,0.0027680018,-0.0044820732,-0.0032442026,-0.002467482,-0.0030177976,0.00027584165,-0.0026871623,0.0016818782,0.0038890112,0.0092862435,0.009454307,0.007187149,0.0023076183,0.0021757605,0.008844475,0.005496679,0.0028696097,0.008379088,0.015275533,0.005621325,0.002059082,0.0017772134,-0.0031763793
MMP23B,-0.0021876954,-0.013031462,-0.0104277255,-0.008236168,0.0006028893,0.0028454026,-0.00014865554,0.0049341246,0.0001650909,0.0034740404,-0.0035315023,-0.006203936,-0.004882657,-0.0014561375,-0.0041886447,0.0023800717,-6.0165483e-05,-0.001170709,-0.0014004325,-0.0007605728,-0.009419986,0.00023278236,-0.008031203,-0.007215302,-0.0038317759,-0.0039173877,0.00032468094,-0.0031784382,-0.006085751,-0.009474524,-0.0051366803,-0.003761243,0.0025373064,-0.0001485839,0.01244425,0.00843107
TNFRSF14,-0.0043212925,-0.008494719,-0.0125515545,-0.0013583187,-0.00052714325,0.00020479018,0.0056613777,0.0058161956,0.01160374,0.0047431043,0.004870524,-0.0045988783,-0.010475743,0.01294735,-0.013210629,0.0096448865,-0.0006780396,-0.0039015997,0.0087175695,-0.0027248051,-0.015965357,-0.016425526,-0.0005814937,-0.006407183,0.008633237,-9.083008e-05,-0.008121928,-0.00055940484,-0.016167996,0.0034812316,0.00093129213,0.0137289185,-0.0007203376,0.023828521,-0.0037783824,-0.0042322315
TTC34,0.0014101575,-0.0011704025,0.0043587675,0.0019320411,-0.0013348334,0.004312031,-0.00018805072,0.0009518791,-0.00015420037,0.0017271306,-0.0017899033,-0.0007871105,-0.0040081134,-0.0024695469,-0.006029369,0.0032578988,5.691552e-05,0.00044233454,-8.6840235e-05,-0.0027416705,-0.0021795637,0.00021229054,-0.0036445516,-0.003683558,-0.0033853815,-0.0017764221,-0.0015504376,0.00026899274,-0.0019860894,0.0002219829,-0.00014153334,0.0005197337,0.0001427778,0.0023703321,0.0019677824,0.00031530537
SMIM1,-0.0060994457,-0.0024470643,-0.0117875235,-0.021874897,-0.005770252,-0.012000155,0.0021785393,0.016770763,0.0026920405,-0.0037289215,-0.0073826397,-0.006002712,-0.0026461433,-0.002164336,-0.0067873118,0.0058453865,0.0028240534,0.002786992,-0.00011464302,-0.006499692,-0.019500514,-0.004176499,-0.0075153355,-0.0062973397,-0.005717026,-0.008723369,-0.008186495,0.000173748,-0.007368587,-0.005832697,-0.0097532235,0.0012010288,-0.007819745,0.0003525894,0.014753354,0.017975535
LINC00337,0.0010687616,0.002416665,-0.0026119112,-0.004849754,-0.00080802967,-0.001801769,0.0022083449,0.0034892664,-0.0026657402,-0.0023162782,0.0020957359,0.0017128363,0.00060587615,0.0016049927,0.0033834474,0.0003840469,-0.0012912689,0.0024015422,-0.0009672632,0.002707352,-0.0033923744,-0.0017893469,0.0009145896,0.0016828702,0.0009543279,0.001333474,-0.001424035,-0.003583354,0.003821062,-0.0049655205,0.0017549323,-0.0047580423,0.0018921643,-5.3758966e-05,-0.0025393663,-0.0013889493
HES2,0.0033699353,-0.00015064019,0.013673965,0.0021246576,0.012975375,-0.00097598275,0.0062463135,0.0026143582,-0.00041469318,0.004033485,0.004714267,-0.004857074,-0.0003802882,-0.0038726032,0.0038782046,-0.0031439865,0.0019989186,-0.002279568,0.0018700978,0.0024741276,0.0034175823,0.0020741797,0.0052708955,-8.441286e-05,-0.002352338,0.0010258835,0.0004335524,-0.00059078005,0.00011776088,-0.0012689835,-0.0032021014,0.0013746072,-4.011276e-05,0.0003396528,-0.0019520767,-0.0004761426
ESPN,0.0012910878,-0.0018998629,0.0026571422,0.004469866,0.00081783277,0.00060088834,0.010066151,-6.0182625e-05,-0.0025406147,0.00246542,-0.0018300116,0.00080534385,-0.0015547465,-0.0009171827,-0.0034878934,0.006501541,0.0062320977,-0.0017834872,-0.002437153,0.009500392,0.005158372,0.0067464807,0.003558741,-0.00042316644,0.006485162,0.0013676455,-0.00015638019,-0.0023771552,0.00089860085,0.0018491655,-0.0034680406,-0.0032064929,-0.001998453,-0.0010096953,0.0031439953,0.00054548355
TNFRSF9,-0.009798662,-0.012801625,-0.00652291,-0.0028898318,0.0038025584,-0.012236422,-0.01374418,-0.004587962,0.0024716316,-0.0032105607,0.005731627,0.02047658,0.006070943,0.0175435,0.0017516643,0.004621072,-0.0051286686,-0.02617825,-0.0037976105,-0.013791204,0.014084226,-0.0015700416,0.023939736,0.0034671074,0.016690057,-0.009781772,0.027886692,0.0050987345,0.04080993,0.010062019,0.007633833,0.017486855,0.014021885,0.0053714393,-0.00969769,-0.016369002
ENO1,0.03470925,0.10248204,0.06294557,0.07842918,-0.023929931,0.03568402,-0.018182047,-0.07318512,0.0029685276,-0.008695952,0.017804123,0.015209195,0.0527094,0.03827717,0.04242967,-0.0127707645,-0.0175257,0.0049045044,0.013118709,0.006615107,0.050506007,0.011478903,0.025642747,0.03616967,0.03168886,0.024967346,-7.0788774e-06,-0.010084014,-0.005817106,0.00046026194,0.017886302,-0.003434449,-0.005773819,-0.021179771,-0.0663321,-0.047825277
GPR157,0.00094505725,0.0015504815,-0.0018334163,0.0031265987,0.00040160728,0.00031005742,-0.0016504708,0.00066311826,0.0013434966,-0.001376628,0.0020850776,0.0028719122,0.002664037,-0.0018336491,0.0018819262,0.0014974409,-0.0018980795,-0.0017521492,-0.0012072527,0.0025625739,0.0028668486,-0.0007698261,0.0018231648,0.002281539,-0.002181478,-0.0012174167,-0.0005945891,0.002118198,-0.0030763329,-0.00035168484,0.00043851422,-0.00035279134,-0.0021441723,0.0018441017,0.00078452757,-0.0014181754
H6PD,0.00041842856,0.0075156423,0.0020438004,-0.0030587772,0.002014734,-0.0056038997,0.003903455,0.006454611,-0.002523469,0.0025197938,-0.002605261,-0.008412808,-0.012260393,-0.0077053895,-0.011909907,-0.0008709166,0.0045520347,-0.00587971,-0.0027704185,0.0034376604,0.0029762823,0.0016573415,-0.0038614569,-0.0018048395,-0.0008012785,0.002409922,0.005267451,0.009468099,-0.005327554,0.0051327436,-0.0021031862,-0.001617547,0.0007222221,0.0030198514,0.006077094,0.005757232
PGD,-0.01052491,-0.004097867,-0.00019307945,0.0015514495,0.0005901079,0.0043159546,-0.006078007,-0.014351137,0.014373556,0.0085817855,0.0074523925,0.0008585943,-0.018106043,-0.006191789,0.00047767468,-0.0022999179,-0.0004971378,0.0017313564,-0.0076001897,-0.005921013,-0.004281593,0.0023343125,0.0032122098,-0.0006189777,0.0067352066,0.0039095334,0.0017346361,0.001284257,0.0019693729,-0.0069806264,0.011144304,-9.9215795e-06,-0.00014474646,-0.0015285887,-0.011726749,-0.012426239
MASP2,0.00016139314,0.0026738066,0.00067841215,0.00025156318,0.0006652109,0.00012415157,0.0007540939,-0.002622259,0.0009130013,-0.00073548005,-0.0010627324,0.00025278883,0.0014289041,0.0012467696,-0.0016510132,-0.00041973678,0.00067379064,-8.763367e-05,-0.0006754504,0.00016889526,-0.00096298684,0.00036876046,-0.0013095918,0.00010236986,-0.002612668,0.002356857,-0.0006018612,-0.000113456525,0.0026004286,-0.0014012161,-0.000180342,0.00029041583,-0.0010652498,0.0012950847,-0.00351242,0.00029322554
SRM,0.028007513,0.068078876,0.05048125,0.03596279,-0.03764926,0.007156789,-0.012027345,-0.018739248,-0.008009244,-0.008243605,-0.002889527,0.009996434,0.03934132,0.023864394,0.03312319,-0.01831267,-0.011543224,0.016985437,0.031778097,0.017112717,0.037261426,0.008501209,0.017513394,0.03558668,0.020375889,0.026195254,-0.016975662,-0.013731619,-0.023183389,-0.0149212275,0.0025718366,-0.015472791,-0.0166377,-0.011449161,-0.0494983,-0.027208164
DRAXIN,-0.00031579583,-0.00027139662,0.00023414602,0.0005960727,0.003834371,-0.0025835868,0.000941547,0.0017937534,-0.0012899985,-0.0015897208,0.0018579769,0.00059027685,0.00053253875,-0.0006095186,0.00057689246,0.0013156952,0.00017728718,0.002915892,-0.002407174,-0.00087398,0.0019970564,0.0015315813,-0.00086120574,-0.0005203966,-0.0013152208,0.0007096932,0.0010180523,-0.00012697885,0.0006442837,0.0008311345,0.0017828668,-0.0010550038,-0.0013940877,-0.00023029665,-0.0021885594,-0.0010723944
MTHFR,-0.0010760066,-0.011392525,-0.01398225,-0.013187896,0.0015700198,0.00069039525,0.002734807,0.014628847,0.0013969665,-0.000114679744,-0.0048205843,-0.0013440055,-0.0013481356,-0.0037618289,-0.0050664977,0.0034651007,-5.9666167e-05,-0.0011818061,0.0026289024,-0.0044124764,-0.00887662,-0.0028225062,-0.0026690797,-0.0086779585,-0.0021571643,-0.0011691347,-0.003472859,-0.0013602725,-0.005409158,0.0018874307,-0.0026088532,9.6619e-05,0.001454736,0.0018097002,0.015096882,0.01071606
PDPN,-0.00013582956,-0.0024862434,0.00069283496,0.0019180493,0.002221312,0.00020336278,0.0022365516,0.0014082207,-0.0008340346,-0.00074773375,-0.0012530405,-0.00092425395,-0.0001695463,-0.0012837953,0.00064777944,1.6254266e-05,0.00047160249,0.0013497903,-2.2870472e-05,-0.00015960391,-0.00037356588,-7.113519e-05,0.001161958,-0.00075221906,0.0005412399,-0.00029266087,4.5111465e-05,-0.0009379148,-0.00028286732,-0.00067700126,0.0003854405,-0.00071696896,-0.0018673805,0.00067277206,-0.0010268728,0.0014165425
CELA2A,-0.0065492797,0.004380048,0.006422738,-0.0049997754,-0.0026340955,-0.007854406,-0.0073405993,-0.01610594,-0.005631219,-0.0010558835,-0.0022773512,-0.0045680883,-0.003646873,-0.00095076143,-0.0011872526,0.007051743,0.0018518104,0.00094496075,-0.009532913,-0.0053246156,-0.01658681,-0.0051386817,-0.0031860257,-0.0077454937,-0.0028865898,0.0033005278,-0.0048103733,0.003008431,0.0020557328,0.0045740353,-0.00445252,0.0012688558,0.001960132,0.0047932747,0.025285307,0.018093877
CELA2B,-0.0031549307,-0.002755237,0.0014835952,-0.0034817173,0.0029358026,-0.00132455,-0.00317146,-0.0023035198,0.0011206649,-0.0007225111,-0.0020192887,0.0025011085,3.5638062e-05,0.0020944264,-0.0017686501,-0.0005787583,-6.2904626e-05,-0.001602294,-0.0011985331,-0.00011250731,-0.0014764005,0.0012555392,-0.00032271785,0.000725062,-0.002545702,0.003095874,0.0027764498,-0.0002753113,0.0041640294,0.0018877127,-0.0021922826,0.0017908472,-0.0018545791,0.0005475416,-0.0022094522,-3.4571916e-05
PLA2G2C,-0.012066577,0.029408855,0.016680269,0.010381601,0.0033947404,-0.02570931,-0.0018163971,0.003944392,0.0176165,-0.006348464,-0.028783051,0.039311495,-0.07399277,-0.039666817,0.009643638,0.0055336184,-0.006064574,0.010389747,-0.014145021,-0.028749544,-0.021084774,0.0020882252,-0.03647383,0.0022723572,0.0008566804,-0.0069746356,0.014422941,-0.03622448,-0.019991752,0.011252415,0.026612962,0.019950787,-0.028904185,-0.0076900586,0.016510691,-0.00637125
HP1BP3,-0.0022173298,-0.0042158035,-0.013249987,-0.011260736,0.0024864369,0.00610764,-0.007342412,0.005174326,0.00012615463,0.0012070333,-0.0031930602,0.00070471154,0.004217061,0.0012782045,0.010147147,0.0012583632,-0.004085797,-0.00028048648,-0.00396453,-0.0008796262,-0.0053993682,-9.054478e-05,-0.0024503411,0.0012763846,0.0004016726,0.0035832596,-0.00075962266,0.0016130196,-0.0021839954,0.00048738543,-0.0020396924,0.00071183767,-0.0008561323,-0.0037799692,-0.0022240845,0.003346551
CDC42,-0.0012098191,0.0059896056,0.0030819383,0.012133611,-0.002553732,0.005055834,-0.007083619,-0.010407928,0.003328084,-0.0033686622,-0.0013342161,0.0061359634,0.004914838,0.0037310908,0.0014095008,0.00071468623,-0.0037901257,-0.002555045,-0.0037402892,-0.0022649602,-0.00076781237,-0.0007968365,0.000846367,0.00073035486,0.0058989776,-0.002583882,0.0036585052,0.0042066695,-0.002492663,0.00048166924,0.0051845256,0.0015602983,0.0024952455,-0.003966881,-0.0042706947,-0.005805156
ZNF436-AS1,-0.00095725496,-0.013845017,-0.005559077,-0.0112796975,0.0041664024,-0.0008310869,0.009643968,0.0054768967,-0.0022504292,0.004956941,-0.00826568,0.0008571962,-0.0046266057,0.00265303,-0.008052293,0.0042173597,-0.0011543791,-0.00095629634,-0.0035693408,-0.005839906,-0.009797044,-0.0017235131,-0.005793005,-0.006085842,-0.0047157765,-0.0052645956,-0.0019697384,0.00075494,-0.008675609,0.0008657078,-0.0037893946,-0.00090456003,0.0019411184,0.004502855,0.012545587,0.00767398
ID3,-0.03634032,-0.0010506576,-0.038616117,-0.0023048855,-0.009853943,0.051529177,-0.05347103,0.0044682836,-0.034443468,-0.026828209,0.011305563,-0.027593503,0.034164418,0.015931735,0.008838205,0.043102976,-0.0006293806,0.020572254,-0.118674465,-0.014476114,-0.048571322,-0.009703227,-0.037723444,-0.014851348,-0.028098788,-0.03117043,-0.008886123,-0.017748673,0.022207413,0.004293988,0.08103618,-0.014502481,0.056029513,-0.009022175,-0.02901408,0.025280349
HMGCL,-0.0041145044,-0.0012532129,-0.0080948705,0.00056356157,0.008588098,0.001995474,0.0048261494,-0.0032321825,0.0036763947,0.0033273464,0.004634807,0.00012571154,-0.0049965526,-0.00029879442,-0.0017358761,0.0051866653,0.0029384485,-0.0064584566,-0.007979037,-0.013868851,-0.0059849033,-0.0016435243,-0.0045519564,-0.0055250567,-0.00057248597,-0.004627274,0.0007014015,0.0011217198,-0.002950644,0.0010748028,0.0013379216,0.004461612,0.0069828914,-0.0021036814,0.007652761,0.0063030063
FUCA1,-0.0010641441,0.008380442,0.0005050335,0.0017723371,0.00593579,0.0012462359,7.0441936e-05,0.0015278829,0.007839448,0.0018102899,-0.0033151417,0.00041952846,-0.003304161,-0.008471835,-0.007987145,0.00075981766,-0.0038706602,-0.0010138716,0.0006276616,-0.0034086127,-0.0065033664,0.0022634089,-0.0024270723,0.0007492706,0.003924798,-0.0063553704,-0.0021568334,0.008436651,-0.0059533706,0.00034303038,0.0008957867,0.011018445,0.00828718,-0.004223944,0.00429673,0.005583378
CNR2,-0.0023624445,-0.0018994309,0.0019504724,0.000447881,-0.00047809212,-0.0009857069,-1.277917e-05,-0.0005210169,0.0012106909,0.0001837426,0.0013969545,-0.0019684697,0.0036002335,0.0012286992,0.0015179702,-0.00077279075,0.00029876042,0.00038865278,0.0018960669,0.000712794,-0.0007656344,0.0023127575,-0.0010630257,-0.00048770092,-0.0018650935,0.0010930499,0.0020046874,0.0014366333,-0.0006176475,-0.001755551,-0.003240353,-0.0007158136,0.0014969412,0.0013061935,0.00035968094,0.000807835
SYF2,-0.008508731,-0.00030173856,-0.004421502,0.01062814,0.009586581,8.207618e-05,0.0004121051,-0.015196375,0.0014797949,0.00024314348,0.0038171895,0.005254103,-0.0033010067,-0.0019848861,-0.00075224065,0.0046648947,-0.0018873407,-0.010456647,-0.00573669,-0.010490965,-0.00019644025,0.00079399993,0.0068880827,0.00040121912,0.0039477544,-0.0032426382,0.0091742175,0.0003406081,0.011122875,0.004196549,0.0028577854,0.004817365,0.0022896123,-0.003085996,-0.008570875,-0.010121754
RSRP1,-0.0047463635,-0.0027284988,-0.003823415,-0.00590033,0.006453197,-0.0034443804,0.0038766996,0.007093251,0.002084461,0.0014377855,0.002431793,0.00079912343,-0.009742105,-0.0005630571,-0.0064510605,0.006457538,0.0006871397,-0.0036978144,-0.0017552907,-0.0073093968,-0.003280087,0.00010229342,-0.0030295947,-0.007082716,-0.005422038,-0.0082423845,0.0029868074,0.0014210014,0.0067305923,0.0042156973,-0.0018469284,-0.0005602368,0.011408765,0.0006351904,0.0066065197,0.0034493592
MAN1C1,-0.00067201,-0.00059540686,6.02392e-05,-0.0011370244,-0.0005947985,0.0031587575,-0.00044106916,0.0010000264,-0.0004684247,-0.0010199681,0.0007174629,-0.0019498165,-0.0028263298,-0.00037141054,0.0010417368,0.00076885975,0.0023660315,0.00085574837,0.00057373097,-0.0021525663,0.000948735,-0.0005847418,0.0020350716,-0.0006834588,-0.0009776648,-0.0012926961,-0.00013259078,0.0033562456,-0.0003051542,-0.002037927,0.0038765692,0.001559995,-0.0016410041,-0.0011458468,0.00020597583,-0.0017974159
PAQR7,-0.0016826049,-0.008164434,-0.0031147865,-0.004438319,0.0005719343,0.000114318624,0.000118653195,-0.0015018337,-0.0009234232,0.0010160159,0.00017330813,0.0011514635,0.002214817,0.003139581,5.8706664e-05,-0.0003766253,0.0015351138,-2.5712967e-05,0.001909163,0.004283022,-0.0020040118,-0.0037552738,-0.0021032114,0.00094849424,-0.0008876031,0.0008455305,0.0020163674,0.00038943702,-0.00604122,0.005857475,0.0016225652,0.0011895339,0.001673369,0.0030876189,0.0006021409,0.0017823199
STMN1,0.005714194,0.0102514,0.004075636,0.0048911576,0.01117324,-0.001681019,0.008355083,-0.020192597,-0.0053065238,-0.014715728,-0.0065475483,0.01735983,0.03296251,0.027805626,0.03023841,-0.009662386,-0.010650369,0.010249738,0.011764938,0.006225242,0.029980473,0.00613729,0.015946204,0.011686169,0.019536618,0.015084798,-0.005868733,-0.008057196,-0.0122350855,-0.0015923892,0.007084031,-0.011005038,-0.006632818,-0.018027905,-0.03596758,-0.017856594
EXTL1,0.00022018321,-0.0053979773,-0.0053532813,0.00078233174,-0.0017618461,-0.0011963664,0.000488631,0.0027942993,-0.0009063439,-0.0012848702,0.004712306,-0.00954301,-0.0017265605,-0.0080565,0.0010301225,-0.007465509,0.0016848727,0.0019730502,-0.0006364948,0.008292951,-0.006225193,0.0011922845,-0.0006136539,0.0037812493,-0.0037713554,0.004422877,0.0015800993,0.004898392,0.0046949163,0.0006105997,0.000468043,0.0002093201,0.007726011,0.0056391,0.00030494144,0.0029429093
TRIM63,-0.0017538432,0.0022228144,-0.0038274392,-0.0002184124,0.0025578467,0.003475327,0.0043805554,0.0025693171,0.002616429,-0.0023718372,0.0013307348,0.00309601,0.0052023884,0.0025752191,0.005358064,-0.0007102821,0.0032325638,0.002568352,-0.0015917178,-0.00058735436,-0.0052256025,-0.0020644856,0.0014045251,0.0026819087,0.00064333336,-0.0017522946,0.00062815065,0.0009345336,0.005758192,0.0002598162,0.003620663,0.005333705,9.1827314e-05,-0.0008049637,0.004485957,-0.0019583816
SH3BGRL3,-0.009073791,-0.008488802,-0.047112055,0.002730939,0.004685553,0.031426914,-0.008708676,0.0085374275,0.017613273,-5.225913e-05,0.010778534,0.0055162394,0.010006483,-0.0024226985,0.014266466,0.010326441,0.00081689656,0.0023728227,-0.021948496,-0.008017112,-0.023682982,-0.0018636619,-0.010421013,0.0025836488,0.00027991328,-0.013793893,0.006218395,0.0077404347,0.024772264,0.009549097,0.017293239,0.023214502,0.01900556,-0.005948543,0.025595546,0.009182505
CD52,-0.00882734,-0.009656841,-0.023061749,-0.0029808276,0.005632351,0.017336667,0.0034996376,-0.007953937,0.018656293,0.008672075,0.014212837,-0.0059544444,-0.019350171,-0.011934844,-0.0030586177,0.012024601,-0.005434694,0.007846837,-0.025524788,-0.012806424,-0.025134197,0.002205992,-0.013678279,-0.005966223,-0.0076717036,-0.009316963,-0.00330481,0.009529132,0.016281197,0.013636282,0.010560102,0.031982504,0.028191244,0.01782541,0.030431202,0.009978459
LIN28A,0.0023835555,0.0007637321,0.0044922475,-0.0020371443,0.0013474929,0.00090683077,-0.0014736253,0.0031164496,-0.00026566387,0.00029542387,-0.0013416694,0.0017275023,6.5887696e-05,0.0011248813,-0.000119919525,-0.0016214084,0.0014168628,0.0012149346,0.0028185225,0.0014317381,0.0006589582,-0.0008598152,-0.00017421694,-0.00091178494,0.0010096414,0.0011385942,0.00055895606,0.0009546657,-0.0005846529,0.0018407324,0.002269996,-0.001798226,-0.000770688,-0.0012047744,0.0010789784,0.00056203845
HMGN2,0.015176065,0.020385085,0.0124094775,0.009149339,-0.0048891567,0.0023457648,-0.0065043205,0.0064048558,0.0017697982,-0.01610578,-0.0016636151,0.022619655,0.031589244,0.035248153,0.039214198,-0.007371612,-0.0096557215,0.019647418,0.011733829,0.0070182574,0.02502912,0.00107627,0.013734055,0.011192854,0.023833394,0.02114393,-0.021260142,-0.009846916,-0.028956173,-0.013071755,0.010395848,-0.015607562,-0.01302501,-0.00844469,-0.030284526,-0.0124016935
NUDC,0.005860149,0.048881553,0.031175911,0.03885229,-0.012918846,0.007962236,-0.012667221,-0.046407282,0.0007780449,-0.0044634594,0.0063743317,0.0034449454,0.028548114,0.01944573,0.019070657,-0.007858623,-0.0072739227,0.004345592,0.008177493,0.0011839187,0.018492425,0.0062074224,0.012516284,0.020344477,0.016551085,0.008440102,-0.0014778645,-0.00022255504,0.000909197,-0.0017969677,0.006160876,-0.00097432133,-0.004891672,-0.015981233,-0.03102707,-0.020213682
SYTL1,-0.0031484396,-0.007175616,-0.005759338,-0.004987751,0.004733682,-0.003777942,0.0030624266,0.009682108,0.0072311945,0.0073231463,0.002319719,0.0055478904,-0.018188283,-0.008470456,-0.0079324115,0.002944405,-0.01121287,0.008767929,-0.0122423535,-0.0066096685,0.0013953969,0.0043820627,-0.0038737888,0.0046807546,0.008034599,-0.002251524,-0.0032190136,0.0009828521,0.0015292711,-0.0008051976,0.016403368,0.0149238,0.0016364438,-0.0024464428,-0.0008453192,-0.010262578
IFI6,-0.009798988,-0.00080193725,-0.003365066,0.0018462575,0.0031646856,-0.0031903281,-0.0037091572,-0.004878562,0.003599485,-0.0009132856,0.0008483517,-0.007104098,-0.011489098,-0.004153857,-0.0029031385,0.0023915712,-0.00072643196,-0.0070177005,0.006116504,-0.003886651,-0.011875291,-0.00055471563,-0.0038721825,0.0019037897,-0.004697914,-0.0009351987,-0.0022024764,0.005435595,-0.005360914,0.006038723,0.0022998024,0.0012247487,-0.0010586014,0.00076351536,0.0011922097,0.003211642
THEMIS2,-0.0032373613,-0.009330084,-0.005158561,-0.002106684,-0.002316497,0.001578545,-0.0012111854,-0.0038310953,0.009168337,0.00923315,0.007691368,0.0033919995,-0.021212615,-0.0032095346,-0.003465426,0.001054664,0.00049411657,0.0014844058,-0.0064451615,-0.0006195558,-0.0036422592,-0.0016351651,-0.005081494,-0.0056497036,0.0017857979,0.0075490507,-0.00014345485,-0.0072830557,-0.0023257518,-0.006032701,0.0056065856,0.0008859016,-0.0037113803,-0.002148654,-0.00068919075,-0.00029714996
PTAFR,-0.013933356,0.0018473956,0.019626334,0.00025460357,-0.0075920313,-0.019936046,-0.0013197134,-0.00093691424,0.08185793,0.021671861,0.0334536,0.03579132,-0.033682905,-0.049522597,0.013289359,-0.007474497,0.009444545,0.015503221,0.014354496,-0.012169075,-0.028997809,0.007456086,0.0075582233,0.001664567,-0.004822159,-0.006223566,0.0025370175,-0.010360741,0.009528107,-0.009109021,-0.01168498,0.03112784,0.030270971,0.0047743246,-0.034105476,-0.008842921
SESN2,-0.003998699,0.0057031936,-0.0060897744,0.0036980791,0.009568124,-0.0037558132,-0.0014746368,-0.0024962472,-0.003150533,-0.008463799,0.0027623384,-0.001875224,0.0049225907,0.0019786127,0.0023075345,0.006910805,-0.0024001095,-0.018165423,-0.0071973656,-0.012873754,-0.0013955792,-2.0370919e-05,-0.00042375785,-0.002816861,0.0061525493,-0.0042397166,0.008030211,0.0037114895,0.0006514162,0.0012201563,-0.00021143361,0.002203744,0.0026762825,-0.0033334927,-0.002090394,-0.0027663002
OPRD1,0.0005863161,0.0033364075,-0.0066237263,0.0027413007,-0.0041370946,0.0048308037,0.0037301078,-0.0027974118,0.00031249726,-0.001331944,-0.0045508347,-0.004877579,0.0010373959,0.0011063019,-0.0013410889,0.0023206468,-8.278928e-05,0.0004722362,0.0001663289,0.0018347026,0.0055706277,-0.000376015,0.0025010237,0.0014358059,-0.00026404395,0.0030091947,0.00012126431,0.0011802359,0.0027382649,-0.0026678795,-0.0029516853,0.0017639943,-8.968016e-05,-0.0011335004,0.0004304939,0.00069150084
LAPTM5,-0.004542316,-0.023187552,-0.02078711,0.0061807428,0.003736526,0.028148204,-0.00893309,-0.010627038,0.0089767575,0.0045883902,0.015854703,0.007225132,-0.0029359637,-0.00083221274,0.0053040194,0.0038887667,-0.0002489369,0.0062052826,-0.011823982,-0.0030523743,-0.0025250053,0.0022387665,-0.0052116527,-0.0011455421,0.0030237145,0.0007140723,0.0060022506,-0.0042708814,0.019036258,0.0013110266,0.016038625,0.0146770505,-0.0036582989,-0.004337401,0.0018776135,-0.0044049034
FABP3,-0.0013402147,0.003908449,-0.004387223,-0.0013449508,0.0067959083,-0.002954016,0.0057001594,0.00240397,-0.0015703733,-0.0046132617,0.005722988,0.0011307388,0.0024175444,0.00067657605,1.35262e-05,0.0039399946,9.746956e-05,-0.013116881,-0.0030447869,-0.009354806,-0.0017713367,0.00044617534,0.0036068896,-0.007033223,-0.003050818,-0.0119354455,0.012218863,-0.0008309801,0.012599717,-0.00059621414,-0.004577056,0.0006732929,0.001636263,-0.0004996291,0.0027127075,-0.0016350349
SPOCD1,-0.0019438585,-0.0067386297,-0.0030591278,-0.0013034102,0.0010676853,0.0013337217,-0.0026509399,0.0088526,5.7963294e-05,-0.0035867651,0.0027828424,0.005675162,-0.002073887,0.0013679515,-0.0044225785,0.0010213573,-0.0007358408,-0.0063851066,-0.0015109613,-0.0053462004,-0.002869014,-0.003124063,0.0059038806,-0.0024804575,0.002438476,-0.0062031755,0.0049817595,0.0014357812,0.008457503,-0.0018145352,-0.0011284493,0.002639675,1.945474e-05,-0.0006924547,-0.002924576,-0.0047346116
LCK,-0.0024161446,-0.0046558725,-0.00046931554,0.00088160526,0.00042752258,-0.0015286155,-0.0015957056,0.0047224863,0.0002458454,-0.0012657,0.0035229959,0.0033832202,0.00013174684,0.0021147481,0.0014209276,-0.0011988396,0.0013981648,-0.0025754927,-0.0045849327,-0.0007237732,-0.00025461448,-0.001103458,0.002306381,0.0033527291,0.0011317448,-0.0036409155,0.005612606,0.002394218,0.008236442,0.00074861845,0.0023087491,0.0024989368,0.002208987,0.0011776696,-0.0021022488,-0.0026397097
MARCKSL1,-0.0019810852,0.019023988,0.028884862,0.022429174,-0.029183669,-0.011304507,-0.013672974,-0.028325649,0.0008747963,0.010076377,0.008501807,-0.005731322,-0.032740023,-0.00088586076,-0.014315815,-0.0073597347,-0.012514764,0.0082432935,0.011847702,0.0017995915,0.019086039,0.0056256796,0.012882644,0.0071530296,0.01470508,0.019573169,0.0022227631,-0.0062794923,-0.0040451805,-0.00218687,0.0085236775,-0.008658027,-0.0022827985,0.012021417,-0.05138848,-0.02764883
BSDC1,-0.008255497,-0.0174289,-0.018024094,-0.009503033,0.012662544,-0.0018493198,-0.0014900898,0.0068364223,-0.007746711,-0.0006636947,0.0029951434,-0.00218001,-0.003927223,0.0016507911,0.0023811914,0.0065788375,0.0029583403,-0.009532296,-0.0076290434,-0.004967623,-0.000101466554,-0.0036357958,-0.0037032308,-0.012450649,0.0016621992,-0.007906659,0.01105796,0.0011639651,0.009129454,0.00550661,-0.0021902707,0.0012731291,-0.0048453496,0.010312348,0.0117226895,0.0036452764
TMEM54,0.040938564,0.019610574,-0.0067421277,-0.06098533,0.015636481,0.009007737,0.04238799,0.023584152,-0.01233343,-0.009271231,-0.012608582,-0.0009431676,-0.001094736,0.014502526,0.009783962,-0.003095279,0.0025671525,0.007582874,-0.010117804,0.0047351317,0.00068077043,0.007261597,0.0029655609,-0.002158629,-0.020515157,-0.0038988339,-0.0005892009,-0.010600808,-0.005833719,0.00079806097,0.004376352,-0.009400023,-0.0069334814,-0.0017038375,-0.00084562204,0.0022896484
PSMB2,-0.0007830056,0.041010678,0.024805862,0.039002996,-0.0026695926,-0.00049685343,-0.0014461277,-0.044282436,-0.0029442126,-0.0059682126,0.004708889,0.005899937,0.029705286,0.020866346,0.0212191,-0.010548661,-0.008525658,0.0016682455,0.008131412,0.0019565588,0.020642938,0.0041849297,0.014082317,0.02139479,0.018697806,0.009345242,0.0036637085,-0.003172062,-0.00019348944,0.0011924935,0.0067204037,0.0011060407,-0.00068380876,-0.012156971,-0.031962592,-0.021586047
CLSPN,0.009019031,0.023658307,0.013046349,0.016722558,-0.005109126,0.0071989126,-0.0037491643,-0.008982595,-0.00067207,-0.0046162116,0.0024608772,0.00020237757,0.020227842,0.013179916,0.017967261,-0.0042183837,-0.0042675384,0.006067014,0.008676668,0.0064108707,0.015523116,-0.0016828757,0.008490224,0.010548311,0.0107627725,0.008503092,-0.0047178995,-0.0016143462,-0.0055189817,-0.002824916,0.0062065385,-0.002333794,-0.009776787,-0.00650661,-0.0144776255,-0.011399247
MAP7D1,-0.0008097352,0.0070077335,0.00086114765,0.0032861358,-0.0013075344,0.004960995,-0.004849224,-0.0034372166,-0.0052296557,-0.0030195813,0.002820953,0.0020031817,0.0052691693,0.009282296,0.002450474,0.0006960458,-0.004294926,-0.0020126652,0.0010425283,-0.0029367935,0.009236241,-0.0004483647,0.006476089,0.0006359084,0.0056243027,0.0018935152,0.0012122691,0.002400527,0.005478479,-0.004238038,0.00424168,-0.00037131298,-0.0055565233,-0.003918312,-0.012712501,-0.009435169
CSF3R,-0.016569253,-0.03195061,-0.0235669,-0.01424723,-0.0039264252,0.0062302304,-0.0059590517,-0.006962785,0.05594599,0.0315574,0.030303387,0.0037278244,-0.073703595,-0.03355386,-0.025647942,0.0072685564,-0.00018003158,0.01073159,-0.01818426,-0.004604851,-0.031114643,0.00039108208,-0.00998004,-0.016723024,-0.004896373,0.0059467107,-0.0074333632,0.003457366,0.009852004,-0.013001067,0.028217748,0.023781424,0.024610888,0.005126861,0.008365471,-0.008996212
CDCA8,0.0074329283,0.01737487,-0.0025505563,0.00645938,-0.0037622661,0.015913974,-0.015822139,-0.01670258,-0.0003186552,-0.010009787,0.0004632654,0.0010708758,0.015146542,0.008614639,0.012510913,-0.00059761695,-0.0050430773,0.005437369,0.0005855164,-0.0015117255,0.007150225,0.0005266884,0.0006929915,0.007923201,0.0089701405,0.0043884567,-0.0040072715,-0.0025615692,-0.0026485266,-0.002799225,0.00295773,-0.0025895427,-0.003703223,-0.0060736137,-0.015494036,-0.0059317364
RHBDL2,-0.0006439033,-0.001649574,0.00059927633,-0.003754811,-5.8817404e-05,-0.0015753459,-2.7210785e-06,0.00013829491,-0.00025015618,0.00093975477,0.0004351719,-0.0007265442,3.711645e-05,3.857641e-06,-0.0006902014,-0.001701867,-0.0013211563,-0.0012580815,0.00073528785,0.00031348108,-0.0013996019,0.0010953726,0.00024261382,-0.0004617348,-0.00038800793,-0.0013509659,0.0006059223,-0.0022483233,-0.0006161868,0.00060808763,-0.0013234298,0.0005479183,-0.0016624029,0.00041015242,0.0010712862,0.0002503156
MACF1,0.0009353488,-0.004366797,-0.004648482,-0.0011457809,0.0035071974,0.009815841,-0.004944105,0.004903572,0.000820859,-0.0034788775,-0.0051496974,0.0016672786,-0.006756238,-3.269935e-05,-0.0067806677,-0.003642424,0.00058876147,-0.0009926046,0.00017637709,-0.0041714995,-0.0035256539,0.0003175294,0.0006441722,0.0033343663,0.00483075,0.0013909509,0.0012697388,0.004557034,-0.0050559295,-0.0007324602,0.007875605,0.006544362,0.00064377434,-0.0005280727,0.003633255,0.0018260139
CAP1,0.0004057641,-0.0021842027,-0.005783403,0.008559899,0.012855363,0.019036453,-0.0069424985,-0.0046955333,0.0059387963,-0.005063197,0.0064225784,0.0038907856,0.0045405193,0.005275292,0.002498484,0.005287397,-0.0018899987,-0.0027906739,-0.010672973,-0.0077943346,0.0018256921,0.0007906183,0.0020477804,0.0018509661,0.004082437,-0.004788587,0.006212784,2.2570695e-05,0.009695317,0.0048247078,0.013125396,0.0072484678,0.006534818,-0.008359088,0.00025636883,-0.0066688857
COL9A2,-0.009473059,-0.022487879,-0.009006486,0.0017773254,-0.003348044,0.0062477076,-0.0030701985,-0.0033657083,0.024882918,0.016029378,0.013466308,0.0019013457,-0.024400458,-0.019759241,-0.013954117,0.0025780369,0.0069244504,0.005056737,-0.007322505,-0.011251896,-0.015696272,0.00015462992,-0.0044714874,-0.0065376554,-0.006316258,0.0013625318,-0.0042833555,0.002379459,0.006007123,-0.006206131,0.004144505,0.017756091,0.0149319535,0.0034650087,0.00878597,0.0006585501
SMAP2,0.0052221366,0.008900187,0.0043239836,0.005626834,0.0035035089,0.0075108367,-0.0042125895,0.003172741,0.0005361792,-0.0011485858,0.0039060398,-0.0020102032,-0.006644494,-0.007924117,0.0013058068,-0.0033237315,-0.0052360687,0.0034182095,-0.0017754395,0.003082734,-0.0017880794,0.0062912,0.003034637,0.0054429295,-8.533145e-05,0.003704577,0.003009111,0.004402301,0.006854195,0.0009875381,0.0070601655,0.0045436374,-0.0011428327,-0.0006450774,-0.0025532688,-0.00078057626
CITED4,-8.745131e-05,-0.0047698203,-0.00434999,-0.004604069,0.0012303727,-0.0053327368,0.00224958,0.014343365,-0.0023512312,-0.0027037035,-0.00091431383,0.0006303196,0.0005301392,0.0020395624,0.0015829413,0.004811639,0.00031148543,-0.011618516,0.0001544563,-0.00689478,0.005796566,2.810015e-05,-0.0023684725,-0.0032553899,0.002434574,-0.0023035284,0.0049978867,0.0027630848,-0.0029125768,-0.005887126,0.0023589449,0.0013908537,-0.0005573266,-0.004829571,0.0051325406,0.0012054032
FOXO6,-0.002957936,-0.0064026145,0.0035195523,-0.0065271202,0.006008563,-0.0010539396,0.0030126225,0.0035828725,-0.0009547696,0.0032192217,-0.0006536672,0.00033184976,-0.0019757857,-0.0012472506,-0.0021372095,-0.004099985,0.0049431026,0.0039153164,0.0031292457,0.0063999076,0.0030954238,-0.0008775347,-0.001560355,-0.0015151289,-0.003468851,-0.0018433247,0.0015700103,-0.004852721,0.008001477,0.0044825156,-0.0024628846,0.0012828385,0.00017897635,0.0029437053,0.010840066,0.0060656224
PPCS,-0.004128495,0.0006533013,-0.0020285477,0.0027566827,-2.2873313e-05,-2.9958537e-05,0.0029468776,-0.0007320939,0.0026645407,0.0007494656,-0.00046627954,-0.00014500506,-0.007666598,-0.0016472246,-0.009540868,0.0014423837,0.001380027,-0.0018844313,-0.0010099221,-0.0020704267,-0.011166769,-0.0007098793,0.0001043135,4.525245e-05,0.001784186,-0.0033067917,0.001544754,0.007259434,-0.0053569693,-0.0029515135,0.0033843268,0.003019271,0.0031525283,-0.000504945,0.0027574503,0.0019435529
YBX1,0.055772636,0.06209176,0.0667265,0.033644546,-0.031170314,0.010575505,-0.018893281,0.037907705,-0.017555594,-0.015605492,-0.016063044,0.035397135,0.05841615,0.061769094,0.054957107,-0.031125164,-0.017473402,0.033363312,0.03188203,0.0194629,0.073302984,0.006267967,0.036959864,0.042887073,0.040917512,0.033794653,-0.024329277,-0.030767376,-0.048836455,-0.032073528,0.016927475,-0.04416128,-0.04071349,-0.025629772,-0.076514415,-0.03966739
CLDN19,-0.0062888344,0.005143036,-0.01004537,-0.0036216637,0.00037970778,-0.013372529,-0.0005376056,0.0017131259,-0.006002442,0.0030176546,0.005543394,-0.010516686,-0.0035249968,-0.0011664926,0.0033357388,0.0029478166,0.0059510213,-0.0012357873,0.012510762,-0.011774068,0.003479323,0.0058127283,-0.003671692,0.020024356,-0.01472198,0.0034979414,-0.005543605,-0.0028963264,0.0047683134,-0.001520659,0.009190864,-0.016326101,0.002307216,0.00546103,-0.0010627713,-0.0022507203
SLC2A1,0.008707466,0.02188229,-0.00026466852,0.00032405255,0.00028720414,-0.0007194472,-0.0072167586,0.011920771,0.00067685824,-0.0029271308,0.0013285334,0.0027069864,0.015052603,0.008644528,0.020171294,-0.0037929537,0.0013869831,0.004048236,0.003849694,0.0066006253,-0.0007585103,-0.001807723,0.0042895963,0.0052212607,-0.0005855632,-0.00035628898,-0.00036179268,-0.0017720377,0.005395787,-0.0035590339,-0.0036284577,0.00082235393,-0.006618179,-0.0024112763,0.0073970156,0.005964892
SLC2A1-AS1,0.0013795043,-0.015408508,-0.011947987,-0.013086801,0.008703303,0.00030999558,0.002146445,0.0173049,-0.00424069,0.003130898,-0.0013417918,-0.0060472316,-0.0030131396,-0.00015740874,-0.0036586274,0.0047776545,0.008291488,0.0043553123,-0.006915349,0.0018722034,-0.009877783,-0.000506936,-0.008641164,-0.009750925,-0.012258293,-0.010676157,-0.00205404,-0.0055358713,0.0043239756,0.0051853876,-0.009757119,-0.002157344,0.005819862,0.007918575,0.028863505,0.023547601
FAM183A,-0.001655139,0.006289656,0.00023575881,0.00097627565,0.0007973182,-0.00217003,-0.0027347405,-0.004932991,0.003056007,-0.0021680824,-0.0006540473,0.0016779063,-0.0007191291,0.003581997,-0.007007419,0.0020130088,0.0002991917,-0.0002971098,-0.000740596,-0.005418009,0.00083786197,-0.0015173492,-0.0010203265,-0.0021949667,0.001719913,-0.0048954943,-0.00317581,0.0017713367,-0.0048624687,0.00067970256,0.0025000514,0.0049691824,0.007112792,-0.0014669867,0.0037623027,0.0042081475
EBNA1BP2,0.0034744993,0.050111204,0.037391305,0.038688954,-0.021977235,0.0029984813,-0.0062365993,-0.044185497,-0.0016916626,0.0017226338,0.005735918,0.0030920168,0.021874147,0.014529485,0.0151341325,-0.011842799,-0.0058984063,0.005898577,0.010360905,0.00812993,0.01885786,0.0068171513,0.011486002,0.017447932,0.010514776,0.012012602,-0.0019483239,-0.007681421,-0.0055432646,0.0006115871,0.003316537,-0.0065467316,-0.0033490246,-0.009317527,-0.031249234,-0.019899929
CDC20,0.006190277,0.014899809,0.001915188,0.016458511,0.0018674339,0.010875452,-0.0072616595,-0.020141864,0.0011473509,-0.0025860427,0.0021617303,0.0047500543,0.012499309,0.013293479,0.011808196,-0.0014486803,-0.0015571389,0.0015720961,0.0019453927,0.0019711843,0.010691302,0.00043120276,0.004191408,0.007581219,0.008744394,0.008320821,-0.0016525411,-0.0044826027,-0.00070393994,0.0011560379,0.0033179955,-0.0004793952,-0.0019832172,-0.006559394,-0.016272476,-0.010028022
ATP6V0B,-0.0071876296,0.022152638,0.0019316315,0.029029205,0.003161619,0.012472145,-0.010952518,-0.033689275,0.005797453,0.0025299015,0.0039465325,0.0037461729,0.012606495,0.0065557584,-0.0010531464,0.0012666786,-0.003205604,-0.0026546244,-0.0026515473,-0.005443297,0.008651385,0.0049134074,0.0039063515,0.010770315,0.009829176,-0.00029807707,0.003959917,0.0030775655,0.0048402543,0.00643391,0.014094863,0.010027791,0.01638261,-0.016765531,-0.014947249,-0.014494945
KIF2C,-0.0004617727,0.008708586,-0.008136242,0.0023083691,0.0069994866,0.004801684,-0.014601342,-0.01102883,-0.0008707323,-0.009703106,-0.00029787235,0.0011106301,0.0176916,0.008339527,0.013688355,-0.00082804094,-0.008208746,0.004586276,-0.002269582,8.096541e-05,0.005839536,-0.00019568656,0.0013297196,0.0054001226,0.009298088,0.0065788794,-0.0013355678,-0.004077302,-0.0028596653,-0.0020542615,0.006367728,-0.001797049,-0.0045989514,-0.00889768,-0.014084132,-0.0074987602
BTBD19,-0.00414688,0.0031767208,0.0026212253,-0.0013182646,0.004378715,-0.0048600114,-0.0101192985,-0.0012083277,0.0040513035,-0.0037439605,0.00014598384,0.0034124549,0.00280623,-0.0058588525,0.00013195493,-0.004007631,0.00024314865,-0.00448131,0.0018060554,0.0011351252,-0.0029848095,-0.00044650852,-0.0012200514,0.003858686,-0.00059364084,-0.005044723,0.0021779968,0.004102181,6.8979854e-05,0.0038737867,0.0001928528,0.0069694123,0.00668712,0.0035176526,0.0055800052,0.0004901485
PRDX1,0.0024257344,0.04197356,0.03506469,0.056018632,-0.0076643536,0.011593381,0.0007079394,-0.05736411,-0.013815245,-0.0026585122,0.0010636769,-0.00083335035,0.028316462,0.027219512,0.008823134,-0.01321024,-0.009792946,-0.0035668758,0.009486463,0.00419343,0.02644985,0.003526291,0.01422152,0.023994436,0.024622006,0.0073664784,0.005416816,0.0014623872,-0.00030282539,0.0054254117,0.009288487,-0.0038509194,0.001002738,0.001195503,-0.03321299,-0.03083189
MKNK1-AS1,-9.949813e-05,0.0021999173,0.0034620513,-0.0038584797,0.0017194111,0.0012205925,-0.0005009162,-0.005525985,-0.0004009998,0.0001226345,-0.00300378,0.001305508,-0.0041162404,-0.0017935907,-0.003446222,0.00037155498,-0.0010549895,0.00021099574,0.00046419332,0.0005661968,0.0015820462,0.00042497844,0.0024092472,-0.0002050512,0.0017706086,0.0028498017,-0.00091464067,0.0002442236,-0.00079733005,0.0021846322,-0.0033658415,-0.00076783507,-0.002744092,-0.0018816463,0.0024771919,0.00044375844
LINC00853,-0.0075089214,-0.008445791,-0.0056836214,-0.007823463,0.001569009,-0.0041466774,0.0044473037,0.002534411,0.0024908914,-0.0012640965,7.8194826e-05,0.002308928,-0.0029074124,0.0011542147,0.0015288388,0.0011294408,-0.0010174402,-0.0002996601,-0.0023259232,-0.0036185295,-0.008645669,-0.0016013021,-0.003546561,-0.0057795956,-0.00091066037,-0.0026652017,-0.0021637739,0.0042667375,-0.0015810629,-0.0033618924,0.002510209,0.0011775873,-0.00023857185,6.8323534e-05,0.0075609703,0.0024278965
PDZK1IP1,-0.0014673017,-0.002105892,-0.01224615,-0.0085722385,0.0031927011,0.0028493672,-0.0061904686,-0.0032480406,-0.0022705847,0.00081574364,-0.002709096,-0.000666677,-0.0042309086,-0.0029118888,0.0021674354,0.0058805835,0.008364559,-0.00745107,-0.0029784453,0.0014561848,-0.0016226576,0.007714531,-0.00093650166,-0.0045935255,0.011041818,-0.0041680774,0.0027764242,0.004606907,-9.705085e-05,0.005493096,-0.0071382048,-0.0017565787,0.0032415262,-0.0017652293,-0.0010640171,-0.0027766228
CDKN2C,-0.0060177543,-0.0029602125,-0.009123032,-0.0071581095,0.0036118103,-0.0033483342,-0.010697018,0.0059422674,0.0017108158,-0.0069885654,-0.0027895188,0.0017837045,0.01054281,0.0026853485,0.007015414,0.005336483,-0.004648892,0.0026138003,-0.0045727873,-0.004127715,-0.0067625833,-0.0033444348,-0.0029375597,0.0005542263,-2.944651e-05,-0.00054817944,-0.009018932,0.004129298,-0.0055168243,-0.0017461155,0.007658504,0.005729005,0.0021039327,-0.0043195435,0.0059077437,0.00077698677
TTC39A-AS1,-0.0056403717,0.0030945828,0.00884083,0.00058954506,0.0059319492,-0.010026046,0.0018993495,-0.0032848802,-0.002417147,-0.002130961,0.0058432487,0.0014285225,0.00014314655,0.0022959046,-0.0007812823,0.004449051,-0.0038409217,-0.0006097522,-0.008803695,-0.0026273069,-0.00352045,0.0041860566,0.0029270551,-0.0012921807,0.0012919126,-0.001135919,-0.0022080222,-0.00037747592,0.00019310936,-0.0025112194,0.0020406789,-0.0019733687,0.0014695463,-0.001694823,-0.003326413,0.00044619694
RAB3B,-0.002354402,-0.008133313,-0.002177327,0.002030307,0.0019668906,0.005486347,-0.0026727358,0.0016570898,-0.003912281,0.0004487181,0.00027968263,-0.0013715611,-0.00054112443,0.002808674,-0.0030700231,0.0038072201,-0.0010781485,0.0007968896,-0.007870853,-8.06172e-05,-0.0062313788,-0.0036940752,-0.000479153,-0.00018512674,-0.00026555723,-0.0023323458,-0.001156999,-0.001594177,-0.0014768047,-0.0023726607,0.0057812613,-0.00205814,0.0038243888,-0.00078973686,0.00051448285,0.00059335056
GPX7,-0.003283245,-0.0026192884,-0.00020042823,-0.0014381658,0.003189116,-0.0031671056,-0.00395022,-0.0037025784,-0.0014169242,0.0011445777,0.0008754395,-0.0018870021,-0.0022395898,0.0010617925,-0.0035117269,0.0020412346,-0.00069022994,-0.0019778735,0.0012395486,-0.0027082358,-0.002197995,-0.0012307888,0.0036619515,-0.002974167,0.0010056138,0.0019753205,-0.001144671,0.0023061603,0.001336415,-0.0012191324,-0.0023676052,-0.0017347579,0.0038047037,-0.00033919595,-0.00113444,0.0026716292
JUN,-0.011253556,0.004805814,-0.024740864,0.0058579757,0.06458591,-0.005228052,0.012322664,-0.0018311553,-0.0041043283,-0.007889317,0.0006599333,0.0073233964,0.0147709185,0.010018483,0.0032280334,0.0110303145,0.00011021638,-0.036190018,-0.011994906,-0.02828655,0.0042022155,-0.0010333158,0.007675594,-0.0030686017,0.0121918935,-0.018812565,0.028036777,0.014538029,0.011170228,0.005152412,0.008382564,0.019172868,0.003041828,-0.01690624,-0.0041895346,-0.017063338
LEPROT,0.00078682636,0.00055078365,-0.0028593838,-0.011362515,-0.00039887204,-0.010712071,0.004402695,0.00768952,9.633534e-05,-0.0034473294,-0.004748753,0.0002531014,0.0005190432,-0.0043568597,-0.001841103,0.0016858107,0.0040804953,-0.0014108182,0.0019881595,-0.0035039033,-0.007053346,-0.0016384366,-0.004466434,-0.0030980448,-0.0067870156,-0.002226789,-0.0059729046,-0.00026127984,-0.009728569,-0.0011882682,-0.008227355,-0.00051317894,0.003997434,-0.0030311083,0.011476771,0.011727172
C1orf141,0.002539284,0.000376981,-0.0036967567,-0.008582713,0.0029950058,0.0018446734,-0.00095981435,0.0059545166,-0.0012627598,0.0003184033,-0.0035826573,-0.0019201082,-0.00030135785,0.00016278063,-0.0010033069,0.0026122115,0.0034832044,-0.0007683745,0.0018703833,-0.0026290766,-0.0018885795,-0.002800608,-0.0036422024,-0.0024285172,-0.00222223,-0.0024540909,-0.0028353767,0.00059729133,-0.00317871,-0.0018225248,-0.0021148024,-0.001074845,-0.0027425021,-0.0011297782,0.00564162,0.002716668
GADD45A,-0.0046327645,0.020400273,0.00018224028,0.010516554,0.002426721,-0.0083703445,-0.0029410138,-0.0037211515,0.0028494147,-0.0065456023,0.006561272,0.0040587024,0.017272817,0.011482164,0.013406935,0.0008619706,-0.0054356153,-0.0063851173,0.008135363,-0.0061111758,0.0068931016,-0.0014931497,0.0047897683,0.002846275,0.0071476717,-0.00039343914,0.0015466287,-0.002967789,-0.0025573533,0.00072798046,-0.013281809,0.001099691,0.000710112,-0.0012716829,-0.0011957339,-0.0006710294
FPGT-TNNI3K,-0.00043302056,0.0033751323,-0.0049700066,0.0025380957,0.0003223022,0.0014286588,-0.0040742704,-0.0012694547,0.0051374463,0.0038084502,0.002914817,0.00022223018,0.00081755104,-0.001778227,0.0036359676,0.0046712602,0.0013064976,-0.0028015948,-0.0029228576,-0.0017712554,0.00055772316,-0.0010967612,-0.000711374,-0.0006714245,-0.00315111,-0.0015709107,-0.00047265418,0.0018498435,-0.0011088988,-0.0021770196,0.00089431537,0.0011315516,-0.00043537887,0.00026570188,0.0031456472,0.0016625663
SLC44A5,-0.0017936856,0.0016741587,-0.009557269,0.0051022624,0.0017798413,0.0032976582,0.00056497497,0.0011060358,-0.000953896,0.00064683094,0.001021244,0.00064880494,-0.0061772666,0.0015200211,-0.0039559794,0.0014770114,-0.0026271136,-0.0032472187,-0.009081653,0.00097581337,-0.00045721166,0.0008888863,-0.00321139,-0.0067528663,-0.00026123493,-0.0028485486,0.001117105,0.0018437157,-0.011763437,0.009621031,0.0003514616,-0.010471099,0.0026013532,0.0019841099,0.0018462932,0.007972501
DNAJB4,-0.008596134,-0.0061694896,-0.004274599,0.0008384025,0.0026461463,-0.00842334,-0.003865797,-0.001235875,0.00025674616,1.3887925e-05,-0.0058368277,-0.0012303146,0.00020935005,-0.00034778623,-0.0007194387,-0.002334961,-0.00020230653,0.0015559515,0.000456843,0.004039848,0.0010791259,0.0013139963,-0.002285184,0.0018409702,0.0006325978,0.0007993384,0.00047184,0.00076922885,-0.0031246236,0.002776726,-0.0005631814,0.00058158004,0.0009586595,-0.0015355444,0.0012076964,0.0011846656
GIPC2,-0.0028015992,0.004353057,0.0070353914,0.002015683,-0.003178189,-0.007749142,0.002941777,-0.0015621203,0.0023375824,0.008110706,0.0025697004,-0.0021859107,0.009299222,-0.0013904386,0.0043268725,0.0015143219,0.0024523342,-0.0017941663,-0.0076328674,-0.00197838,0.007614684,-0.0016857381,0.0026779806,0.007908335,0.0029690198,0.003555505,3.3535038e-05,0.009358956,0.0042312243,0.002781769,0.007802632,0.010424617,0.005857202,-0.000889978,-8.723216e-05,-0.0026458872
TTLL7,-0.009989827,0.0038015945,-0.0026305872,-0.0059703663,0.0022229017,-0.0137073025,0.0039336346,-0.00879545,-0.0041685593,0.0016469591,-0.008470369,-0.0038866901,-0.007014908,-0.0019539462,-0.0072039985,0.0011510926,0.00859495,-0.0059623336,-0.001003212,-0.0031555945,-0.0021859745,-0.0022334077,-0.0034356585,-0.0084320605,0.0014018175,-0.00011936812,-0.0011659797,0.014074008,-0.008406074,0.01396931,0.0032169586,0.004677593,0.01895574,0.00091062405,0.011567832,0.017844116
CLCA1,0.022499828,-0.013025402,-0.0141983535,0.016440876,0.008584291,0.046992034,0.012495495,0.006621749,-0.0044781705,0.0023301737,0.002261493,0.0055461167,0.016059339,0.0030414837,-0.00095991004,-0.0055222763,0.00062076293,0.0028765625,-0.006885827,-0.00037569064,0.016619936,0.0032069166,0.005483653,0.019078957,0.00989395,-0.0002938559,0.0023871984,0.00538141,0.007087438,0.0054712566,0.020970365,0.015023171,0.0007512909,-0.0028831617,-0.0041589844,-0.0123028625
LINC01140,0.008151508,-0.02536424,-0.011722004,-0.009693462,-0.00023772438,0.019802798,-0.0063313795,-0.003384728,-0.008360487,0.0044373632,0.0041442076,0.004497519,-0.008813514,0.0066769505,0.00553826,0.0031500969,0.001099807,0.006174317,-0.015460228,-0.0023912403,0.013191701,-0.0024314898,-0.0030035654,-0.014462311,0.005285507,0.01197212,0.0006590409,-0.01013042,-0.0008792175,0.0060826233,0.016749866,-0.013738838,-0.020483341,0.00059116405,0.007640037,0.0032555491
LMO4,0.0017158993,-0.033108894,-0.022085043,-0.011193653,0.01099494,0.03150386,-0.015418064,-0.005560929,0.007154583,0.0033857564,0.014752318,-0.00046864577,-0.023360502,0.0041687274,-0.0031939603,-0.005862765,-0.0007715669,0.002789678,-0.0044536255,0.0017742636,-0.004106205,-0.0019966299,-0.002430439,-0.011321989,0.0089577725,0.0084694205,0.0004199531,0.007010631,-0.011421117,-0.001622964,0.025909577,-0.006588453,-0.0037908172,-0.0015983442,-0.0001997359,0.0020737324
GBP2,-0.009730574,-0.0137077775,-0.006084953,0.0020305582,0.0115785925,0.00730144,-0.010286641,-0.015572679,0.0035850955,0.018136147,0.015443333,-0.02035717,-0.020304952,-0.02192284,0.0018868102,-0.008323743,0.010861064,0.011230184,-0.018005352,0.012921192,-0.0057873544,-0.0012519391,-0.013324094,-0.0048117363,-0.023394944,-0.0051233894,0.013772082,-0.007093179,0.030540701,0.015147252,-0.0002032036,0.0028039617,-0.0008136357,0.014675323,0.01277255,0.00055432925
BTBD8,0.00021708962,-0.0054038824,-0.0045136586,-0.0053525176,0.004602379,-0.00052194943,0.0012466273,0.0026288403,0.003029328,-0.0014099957,0.0012777136,-0.0029346433,-0.005862889,-0.003451866,0.00106149,0.00066357275,-6.5391514e-06,-0.00037698323,-0.004510947,-0.0011907212,-0.0036968193,-0.0011391727,0.00051972724,-0.0032544914,-0.0005953167,0.0026411281,0.0003008962,0.004916986,-0.00412237,0.0060723554,0.004209539,0.0018539933,-2.8958614e-06,0.0031243034,-0.0027008576,0.00070874795
KIAA1107,-0.006176887,0.0018425006,0.0018097915,-0.000675312,0.004811586,-0.0053815753,-0.0016699835,0.0017079135,0.00042689976,0.0014873033,-0.0015250131,0.002676025,-0.001218792,-0.0049933223,-0.00015647234,0.00048126772,-0.00047431988,-0.00080315705,-0.0024958728,-0.0037245613,0.0009038471,-0.0010849719,-0.0023016904,-0.0004471954,0.00047560286,0.00025624564,-0.001112013,0.001238539,-0.004169725,0.003355875,-0.0021010877,0.00091163814,0.0011430678,0.0036301387,-0.0030162674,0.0021795358
FRRS1,0.0021494187,0.0023611235,0.0019650585,-0.0012432297,0.0013595814,-0.0015896268,0.006756942,-0.0003857845,0.003176552,0.00295832,0.0003872986,-0.004295882,-0.0020441145,-0.00503107,-0.003159697,-0.0012170317,0.0003839358,-0.0021657068,0.0016201347,-0.00011943499,-0.0058341594,-0.00049584697,-0.00078896055,-0.0016502275,0.000813401,0.0040608384,-0.00057257316,0.00047033912,0.0014436608,0.001970132,-0.00040191226,-0.0047435774,3.283351e-05,0.0022947167,0.010117871,0.0052381894
LRRC39,-0.0033934237,-0.0015049668,-0.0034985016,0.00081442704,0.0055936277,-0.003205309,0.0013216932,0.0001773837,-0.0009287153,-0.00034990764,-0.002221139,0.0015573673,-0.0011253946,-0.0040745265,-0.00023239058,0.0017017381,0.003303895,-0.0042269425,-0.0028709276,-0.0014857389,0.000292376,-0.0034033402,-0.0030292713,-0.00247614,-0.005526547,-0.0027328318,-0.00091751985,0.0026071193,-0.0011322829,0.0005326318,-0.0020911247,-0.0018622407,0.0006600581,0.0012439153,0.004829279,0.0048335353
S1PR1,-0.008344283,-0.00033068997,-0.003915617,0.007467123,0.0027527574,-0.0051123495,-0.00018943114,-0.0030643577,-0.0050470755,-0.00075900863,-0.0028846534,-0.009819273,-0.009903359,-0.008561393,-0.014773241,-0.0027095554,0.0051003858,-0.007971338,-0.0024924355,0.0010293265,-0.0037216884,0.0014431126,-0.010632336,-0.0034513767,-0.0018031254,-0.003755453,0.009529094,0.0020480312,-0.0056495755,0.0018627691,-9.1642636e-05,0.0050916113,0.010606365,-0.00051423314,0.012727671,0.009940055
AMY2B,-0.0018786229,-0.00047064404,-0.0013602213,-0.00094683806,0.003751647,-0.00040770444,-0.000107366555,0.0011673039,0.0009421875,0.0022021323,0.0022221755,-0.00048450628,0.0027814691,2.3433384e-05,-0.0011206066,-0.0037109891,0.00050943316,-0.0021662344,0.0009410197,0.00045833417,-0.00068030006,0.0007246489,-0.0032582772,0.00045315782,0.0008161838,-0.003904382,0.0014216924,-0.00094414933,-0.0026576025,0.0026619674,-0.0014444186,0.001121898,-0.0018946643,-0.00079029874,-0.0004094134,0.0017492588
SCARNA2,-0.0006161267,-0.0036557277,-0.00092360214,-0.0025558178,0.00035030325,0.00035633374,-0.0005367364,-0.0028263184,0.0010303339,0.0038501713,-0.0054223603,0.0008023811,-0.005571789,0.0004613974,-0.00464906,6.038295e-05,-0.0023046504,0.0023950867,0.00015044751,0.0031817516,-0.0023224957,0.0007217286,0.0063496036,0.004619461,0.0012338974,-0.0037598996,0.0007966153,-0.00064743066,0.0052217483,-0.0032381113,-0.00028081547,0.0019279121,-0.0017952443,0.0020016679,0.00416814,0.0041233585
SARS,0.0038114637,0.018370556,0.0021534075,0.012146316,0.0054213475,0.0013822212,-0.0019017876,-0.009694762,-0.0032529302,-0.0045981077,-0.0024619293,-0.0020382653,0.009737709,0.005996454,0.0053358036,0.0032129379,-0.0036938607,-0.012630825,-0.0007339466,-0.011717758,0.0017306635,0.00035431,0.003702944,-0.0012968938,0.008635352,-0.0036218427,0.0033686054,0.005496427,-0.0062497854,0.0006935908,-0.0016325931,-3.7828348e-05,-0.0014323989,-0.00805818,-0.0125671625,-0.010495751
PSRC1,0.0016697657,0.0072043585,-0.0050098635,0.004742881,0.0007808667,0.005980428,-0.003956588,-0.0071771564,-0.0019374192,-0.0052509652,-0.00086276187,0.004323146,0.009033253,0.006323495,0.0054350616,-0.0019419458,-0.0072573414,0.0023357256,0.00044382518,0.0024113716,0.0020268536,0.0011732223,0.0010731077,0.0027573884,0.005316426,0.0029520472,-0.0019607537,-0.00014892558,-0.0014143096,-0.004383847,0.00088372704,0.00045679868,-0.004175053,-0.003053569,-0.012871697,-0.00070907024
MYBPHL,-0.0053619104,0.003015192,-0.0002911968,-0.0049776854,0.006106918,-0.004724477,-0.002194664,-0.0017727385,-0.0035931056,-0.0010187422,-0.0012829711,-0.003128373,-0.0062437574,-0.0024265961,-0.0072406856,0.0035270515,0.0011001275,-0.00433496,-0.0064588794,-0.0031482428,-0.010056257,-0.0027058364,-0.002391546,-0.00015187357,0.0005338748,0.0008660397,-0.0029988356,0.006387086,-0.0005989679,0.0046579046,0.0030447945,0.0053823735,0.0037323334,0.0057874173,0.015922658,0.0074855336
GSTM2,-0.0012974698,-0.003760523,-0.0017387174,9.699213e-06,0.00201619,-0.0030018946,-0.0030632277,0.0019345303,-0.0002415265,0.0015301292,0.003176799,-0.007027106,-0.0038085724,-0.0045253793,-0.001729347,-0.0013423003,0.00066586724,-0.0014605118,0.0016183254,0.0056915404,-0.0047701346,-0.0042192047,-0.0004371968,0.0035556378,-0.00079485646,-0.001510443,-0.00075297995,-0.00049203815,-0.00063662446,0.00031851605,0.0012276457,0.0035637158,-0.0018986133,0.004180717,-0.0030071822,0.0016926217
GSTM3,-0.006713478,-0.0041284426,-0.008005525,0.0030687947,0.0016937596,0.005436855,-0.0014806171,-0.0010220609,0.0012943334,-0.00024262571,0.0012294275,-0.0016644906,0.0010019378,-0.0021256024,-0.008928074,0.0031244815,0.0013772316,-0.0016073823,-0.0021450042,-0.0044787875,-0.0058971117,-0.0017809588,-0.0055840826,-0.004316763,-0.002217574,-0.0028459087,-0.0014394112,-0.00019182487,-0.00059066527,0.0039432873,-0.0026435584,0.0005735896,0.0014369792,-0.0033679185,0.009774122,0.0104622
PROK1,0.00029038385,-0.0011136082,-0.0068920376,-0.0031855754,0.0021553824,0.0060062543,0.0024636502,0.00025705204,-0.00079119386,-0.00151466,0.0071139364,-0.0020674567,0.0011761454,-0.0009702497,-0.016138304,-0.0006491529,-0.00063674286,-0.0021743937,-0.004620121,-0.0052386713,0.0017718457,0.0020303032,-0.006170557,-0.0006360784,-0.0035995063,-0.009237859,-0.00271583,-0.00031614906,-0.0006026556,0.00037550603,-0.003911189,-0.0017183145,0.0012408941,-0.0028394426,0.010300116,0.012313876
CD53,-0.005329961,-0.01776862,-0.007998241,0.012889645,0.0065856883,0.01942424,-0.0062129973,-0.023117632,-0.003873631,0.005013327,0.0027870208,-0.008494698,-0.006019424,-0.0055152397,-0.0101447245,-0.001329156,-0.0033223308,-0.004090466,-0.0068564923,0.002654769,0.00223232,0.0026469314,-0.0018838163,0.0052316315,9.3596274e-05,-0.0019215761,0.00954811,0.0022169338,0.010246796,0.007227136,0.009001687,0.009328864,0.002515101,0.00047972714,0.001907666,-0.006841663
CHI3L2,0.009959083,0.019287372,0.012966946,0.008508787,-0.0011964706,0.006618647,-0.0029307122,0.006596116,-6.468438e-05,0.0040730196,0.0041222842,0.0011746879,0.00404881,0.0021938873,-0.0025507542,-0.0020381988,0.0072576674,-0.0015467079,0.004677744,0.003370644,0.00850232,0.002374902,-0.00017617652,0.003691488,0.010320651,-0.005740239,-0.0034204943,0.0023253097,-0.0009296403,0.0018447038,-0.0005491315,0.0018942762,0.0041145682,-0.0043985792,-0.001633411,-0.00048266503
ADORA3,-0.0054178834,0.0017124465,0.0020983417,0.004877997,0.0044233575,-0.003250385,0.0033774802,0.0019281559,0.022560233,0.022860324,-0.0079043,0.016415901,-0.016486494,-0.0045891176,-0.011989299,0.00579066,-0.007446487,0.004076566,-0.0026011136,-0.0029272246,-0.004282117,0.0011893117,0.004880881,0.0030731042,0.0045443266,-0.011276476,-0.0033285122,-0.0070604016,0.0026648846,0.0031617351,-0.005779631,0.008836595,0.015634162,-0.0025308328,0.0022541983,-0.0032655909
CAPZA1,-0.0010522654,-0.0039886846,-0.00034828618,-0.0013273037,0.0006031842,-0.00016927325,-0.0024355862,0.008667295,0.0002612062,-0.0027631621,-0.0022518553,0.004346286,0.0021651208,0.0038097228,-0.0006056118,0.0022336373,-0.002395753,0.0011781426,-0.0012292668,-0.005306516,0.00042925111,-0.0017653346,-0.0013829517,-0.002515113,0.0011408842,-1.7529037e-05,-0.0026057162,0.0011357921,-0.0088369595,-0.002662726,0.0054451777,-0.0022861604,-0.0011390535,-0.004117816,0.0017938993,-0.0021667464
RHOC,-0.008631294,0.0065177632,-0.017088423,0.0044882726,0.014687221,0.0034716032,-0.0005312752,-0.0019015417,-5.931987e-05,-0.0043014297,0.002243332,-0.0011147788,0.0033170264,-0.0005381424,-0.0019506996,0.0108669335,-0.00018895775,-0.013150631,-0.008701253,-0.008832754,-0.010234689,-0.0024556313,-0.0032283936,-0.0037946426,0.0011414149,-0.008627024,0.007326063,0.006183721,0.005391009,0.00497788,-0.00050875987,0.012799145,0.010800149,-0.004567443,0.009815552,0.0037294498
LINC01356,0.00060484733,-0.0019336909,-0.0029578707,0.0019878324,-0.0020394125,0.007173402,0.005144832,0.00063523673,-0.004464232,0.003300996,0.005508138,-0.005944685,0.0022457615,-0.00037815116,0.004279983,-0.0024064344,0.00093883794,0.009012591,-0.013206659,0.0011758776,-0.0060423953,0.006831497,-0.011417199,0.0037798658,-0.0054001966,-0.010610877,-0.001207963,-0.008709882,0.0062926747,0.0057033403,-0.002029201,-0.0037601981,0.0015796929,0.010497995,0.004215785,-0.0028423083
HIPK1-AS1,-0.0017877024,-0.0029621234,-0.0043482184,-0.0033734103,6.4594526e-05,-0.0027315342,0.0005543041,0.0017890233,-0.00014531348,0.0008952009,-0.0006379797,0.0006821833,-0.004089232,-0.00487551,-0.003446731,0.00043519674,0.0014646995,-0.0011723548,-0.0021474627,-0.0048313728,-0.0034352937,-0.00088405394,-0.005031842,0.00288315,0.0027303991,-0.0010384849,0.0020533788,-0.001514106,-0.00379909,-0.0049087247,6.967713e-05,0.0042377026,0.0015059352,-0.00038625672,0.0047930176,-0.0008230237
OLFML3,-0.004393544,-0.0037906247,-0.0012346444,-0.0017989852,0.005989744,-0.006210019,-0.004564843,-0.00021102473,0.0001497443,0.0089229215,0.0072681047,-0.0028785968,0.008335794,0.012075824,-0.008563127,0.016041676,0.002111447,-0.01823332,0.017083252,0.016078943,-0.019220673,-0.015707107,0.0066543613,-8.0450394e-05,-0.0056962525,0.00791998,2.7321763e-05,-0.010497026,-0.009386734,0.009050905,0.0070137535,0.02447181,-0.011448564,0.0025183514,-0.00471002,0.0009949723
CD2,1.1115199e-05,0.0023756877,-0.0015858844,-0.0050734365,-0.0024298641,0.0011603644,0.0012434598,0.0030050294,0.0036467467,0.000994499,0.00089143036,-0.003296341,-0.014800872,-0.0008750085,-0.010387976,-0.0010858602,0.0008232765,0.0017235319,-0.0074368813,-0.003927437,-0.005006633,-0.0007310202,0.0012505727,0.0016142766,0.0051144273,0.0029546842,-0.0034479534,0.006760583,-0.0004321587,-0.0028110524,0.014392942,0.00683311,-0.0003143724,-0.0037499664,-0.00075416896,-0.0061245384
CD101,-0.0035537425,0.014893674,0.0036503274,-0.004207938,0.0032521633,-0.009611426,0.0013168885,0.0056965146,0.031898208,0.015051473,0.011629449,-0.0007180002,-0.030759038,-0.018904258,-0.006418154,-0.0054727243,0.0008368356,-0.002692828,-0.00063136575,-0.008287638,-0.0065392586,0.0030378767,0.0015974655,0.00068408257,0.005766697,0.0012687293,-0.0063334727,0.0067282678,-0.0047376095,-0.0026502283,0.006414708,0.019664034,0.008758387,0.0057264725,-0.015413045,-0.009865305
PHGDH,0.0010030651,0.019035418,0.00744942,0.017867757,0.00545394,0.0033509217,0.00012693663,-0.011437205,-0.00050623994,-4.5153356e-05,0.00091829366,0.001494373,0.009986803,0.0045841835,0.0055766976,0.0035980924,-0.0031782947,-0.010439798,-0.0023084083,-0.005051771,0.004831521,0.0010846665,0.002342331,0.0035130267,0.0037277914,-0.0014328675,0.0022620917,0.003002477,-0.00017775565,4.0870436e-05,0.0035380141,0.005700542,0.001871557,-0.0073246853,-0.007655621,-0.008650188
FCGR1B,-0.01429166,0.0085376585,0.0018872706,-0.002722385,0.016702574,-0.02334474,0.0037341127,-0.0017692768,0.002613472,0.004797533,-0.001496295,-0.014168688,-0.020168638,-0.0016039402,-0.006454136,-0.0014665248,0.0032804993,-0.009463858,-0.013338941,-0.0012862076,0.0020430612,0.0029743698,-0.0017630508,0.0015876429,0.00055994786,0.002480853,0.0104458425,0.015736315,0.0031218622,-0.006560107,0.018496454,0.008391944,0.003476999,-0.0027518827,0.0032896935,-0.0012332961
PDZK1,-0.001256943,0.0039063017,-8.854344e-05,-0.00022690404,-0.0005582383,-0.00093563733,0.0008465896,0.005261584,0.0029229266,0.0030815743,-0.002490715,0.0045980443,-0.0001573918,0.0018406158,-0.00051568286,-0.0014493185,0.0017126327,-0.0029613771,-0.0029868362,-0.00037663945,0.0005476829,-0.00045250996,0.0022998895,-0.0005608705,0.0023329186,-0.0037067297,0.0071159,0.006591601,0.0066972696,0.005974789,0.0014021441,0.0063899057,-0.0021980312,-0.00011466403,0.0044849906,-0.0035092072
CD160,-0.0007237507,0.0059309504,-0.0013181991,-0.00019641466,0.0036709656,-0.007276815,0.0063623497,-0.00717246,0.00015702313,-0.0014107706,0.0023349174,0.003354259,0.00033958541,0.001623315,-0.0013700997,0.005878918,-0.00048010677,-0.00841516,-0.0013045031,-0.003771295,0.001001318,-0.0008081843,0.0035217383,-0.003520691,0.0002760011,-0.0021330125,0.001436315,-0.00044721118,0.002318824,-0.0030777627,0.0021464843,-0.0010952856,0.0069339285,-0.0015754834,-0.00035391023,0.0015977528
POLR3GL,0.005281759,-0.0137402145,-0.0048323497,-0.002500144,0.0055192355,0.004082674,0.0038782365,0.019510219,0.00091517647,0.0013167658,-0.0024507644,0.00082637684,-0.006967439,-0.0065732244,-0.008844663,0.0038670597,6.793494e-05,0.0021299901,-0.0023577611,-0.0019422208,-0.009257302,-0.0017091939,-0.0055240644,-0.003940408,-0.0018704565,-0.0035504359,-0.010884204,-0.004855394,-0.011888082,0.0037184076,-0.0014798944,-0.0007858083,0.0052641006,-0.0035345189,0.0053527215,0.012911271
TXNIP,-0.004801591,-0.01863439,-0.010896509,-0.0047506625,0.0139654465,-8.349643e-05,0.009813463,0.00044650357,0.005934428,0.01407792,0.002441647,-0.004558873,-0.016550394,-0.012162245,-0.021275265,0.008463704,0.008698196,-0.01593354,-0.014024277,-0.013887885,-0.01174127,-0.003438391,-0.018418292,-0.017647916,-0.011467069,-0.014684236,0.0047432478,0.009491768,-0.01114504,0.016121358,-0.0042854985,0.0032752713,0.020056732,0.0008853187,0.021139145,0.023225209
FMO5,-0.0024215032,-0.00020074328,0.0021940435,-0.0025829456,0.00393525,-0.00078762666,-0.0018556693,-0.00037325334,0.0016627472,0.004262536,0.0013589078,-0.001646782,-0.0020036665,-0.00059226237,-0.0049397377,0.0010899275,0.0010454372,0.0017183425,-0.0050917096,0.0014876667,-0.0048859823,-0.0016218951,-0.0038797096,-0.0009044493,-0.0011836556,-0.005849118,-0.0003095991,0.0004255947,0.00021189534,0.0015228401,0.0018352058,0.0015467578,0.0031128144,-0.0005607654,0.004170254,0.0020313035
PPIAL4G,-0.0026112045,0.0055256095,0.005227894,0.0058247703,0.005070043,-0.0042033824,0.0005123117,0.0079762805,-0.0023901563,-0.0034508775,0.0030691163,-0.010134266,-0.0047845133,0.0062296125,0.0014803663,-0.0048369626,0.00192468,-0.006276857,0.0010928699,-0.00217329,-0.00022574962,0.0004902851,0.0005958447,-0.0035160794,0.00058079493,0.0018648003,0.0047171204,0.011546221,-0.0032556674,-0.004699865,0.006186065,-0.0043943147,-0.0038075778,0.0015607922,0.0025897296,-0.0015406093
PDE4DIP,-0.0067692897,0.006752008,0.014001006,0.015093144,0.004292338,-0.009328997,0.002349621,0.0062339297,-0.015247814,-0.001833351,-0.006127378,-0.0065750536,-0.0041287993,-0.0038619356,-0.026295198,-0.004610756,-0.0110251615,0.0006833502,0.0031287165,0.00045764176,-0.0032809668,0.0033283914,0.0023382967,0.010436314,0.0045840843,0.0010913211,-0.002432243,0.0038883323,-0.010582482,0.0022076012,-0.001121613,1.7328697e-05,0.011033099,0.014844167,-0.0024798,-0.0039018444
FCGR1A,-0.019961586,0.031540703,0.0100220665,-0.00021378051,0.011998858,-0.027418444,-0.0058946125,0.0063573425,0.016226195,-0.009397494,0.013053119,-0.038250156,-0.065510765,-0.018644938,-0.0337481,-0.0018354442,-0.004882897,-0.041836515,-0.017367251,-0.018706352,-0.016869366,0.0036298546,8.321268e-06,-0.0058453945,0.0068998807,-0.007009561,0.009284746,0.029796943,0.016321275,-0.025037281,0.031586945,0.024359137,0.007148548,0.00023941313,-0.0080500245,-0.025309578
HIST2H2BE,-0.0056475187,-0.008456949,-0.0012457642,-0.003448695,0.010520827,-0.0028694815,0.0009931835,0.0035651696,-0.0011031542,-0.0014514616,0.0025699218,-0.0045221224,0.000131597,0.00019731381,0.0014261144,-0.00029730148,0.004131539,-0.0033001008,-0.005097491,-0.0021779283,-0.008476111,-0.003946585,0.0010512416,0.00019057165,-0.0024675664,-0.0015023318,-0.002374532,0.004849485,0.0019640592,-0.0041532815,-0.0003056094,0.0003476166,-0.0017670784,0.0020668353,0.0030234407,0.0021868579
HIST2H2AC,0.002300011,0.03030923,0.008978438,0.011639088,-0.005673564,0.0043864776,-0.018375237,-0.012182573,0.004087842,-0.0038532251,0.006183665,-0.0019508338,0.011227036,0.0042822254,0.010981009,-0.0026995898,-0.0024826648,0.0031910941,0.0013207843,-0.0010746153,-0.00068578083,0.00037164008,0.002116093,0.004618532,0.0029165011,0.0016009555,-0.0019844573,0.00061341457,-0.00046643816,-0.00085202506,0.0012080692,0.00034745215,0.0021664838,-0.0056814486,-0.008077976,-0.007642513
MTMR11,-0.009972826,-0.0037597988,0.0038212934,-0.0015360573,-0.009293692,-0.0045219064,-0.013893792,-0.0068614194,-0.0007204909,-0.0015300881,0.0074228058,0.0003882828,0.006485334,0.0055537894,-0.00028410077,0.0028564187,0.0003475567,-0.010846768,-0.0065531693,-0.0052529597,-0.0006652989,0.000105099585,-0.002793924,-0.0031985543,-0.0035517772,-0.01320012,0.014561898,0.0038857092,0.022477958,0.008350628,0.00039255302,0.00853892,0.002710865,0.0023102881,0.0077850907,-0.0019318504
PLEKHO1,-0.007949587,-0.0143461935,-0.0052952766,0.0063230502,0.008785096,0.009379589,0.0008302324,-0.011948446,-0.0046236464,0.006317232,-0.0018615535,0.00191204,-0.007400342,-0.004086394,-0.010308439,-0.003093888,-0.007302622,-0.01020223,-0.004367466,-0.0038920937,0.00915441,0.005433702,0.0036566013,0.0050588297,0.004388237,0.00021123838,0.008502959,0.007890227,0.010291004,0.010086397,0.0098886825,0.008037777,0.009560556,0.0018559195,-0.009775572,-0.0076568834
ANP32E,-0.0046406607,0.016623685,0.015129629,0.017113801,-0.007141349,0.0002800709,-0.014512911,-0.018924993,-0.00051396125,-0.002665404,-0.00043561438,0.0036634011,0.020898897,0.012795593,0.01616835,-0.008102982,-0.004914011,0.006518269,0.0074540214,0.0031856496,0.017366763,0.003824749,0.0050961236,0.012821366,0.014608064,0.012821119,-0.0021342677,-0.0009090775,-0.004251082,-0.0001477672,0.0046465374,-0.0011818553,-0.002621183,-0.009496416,-0.019952029,-0.012413495
ECM1,0.0021594376,-0.0013611007,0.00070149667,-0.00069265376,0.0114686,0.00215412,0.0023281574,0.00046936018,0.0014213845,-0.0012129408,-0.0012370086,-0.0044075544,0.007884447,0.0025917895,-0.006042505,0.002354359,0.0036883284,-0.006553497,0.0015516083,0.003496361,0.0074031344,0.0004931267,0.0034399782,0.005394415,-0.0038350716,-0.0018370673,0.009612941,0.0010864808,0.015337193,0.009362552,0.003621793,0.015593738,0.0015106201,0.0017425312,0.0074276193,-0.00030669683
ADAMTSL4,0.0005337931,-0.012335728,-0.019235233,-0.010302308,0.0072313417,0.002609128,0.00034823533,0.015585666,-0.006356385,-0.0010219857,-0.001936946,-0.008243365,-0.00082283415,0.0046140803,-0.009874673,0.0048282426,0.0053420216,-0.0021262502,-0.014145756,-0.007582199,-0.013671205,-0.0051193945,-0.013123798,-0.011235442,-0.0067881793,-0.012243042,-0.00403068,0.0019443559,-0.014970176,0.0038087703,-0.0043259114,-0.0056082676,0.0043420796,0.008623886,0.022678988,0.017935062
CTSS,-0.005558854,-0.018067013,-0.013674701,-0.0018045069,0.0044880174,0.007225067,0.0030186917,-0.005332731,-0.00068466377,0.002531561,-0.0005678959,-0.00077565195,-0.010461045,-0.0048751035,-0.016527489,0.0028212813,0.001815854,-0.0041643237,-0.0095063625,-0.013535618,-0.0059392876,-0.0037493466,-0.0039988453,-0.0041727982,-0.00046354652,-0.0022596922,0.0016460235,0.007178074,-0.0010028178,0.006972138,0.005925956,0.009546331,0.0076090964,0.0020550392,0.0031067943,0.0005130147
C1orf56,-0.0027733117,-0.01131297,-0.002053624,-0.0024518552,-0.0030297877,-0.0062017865,-0.0034112574,0.012200972,-0.0039306055,-0.0020266122,0.0025755102,-0.00010041342,0.0005911926,0.0017569088,-0.0028340444,0.0022215152,-0.002092126,-0.005445236,-0.0012180263,-0.0009790043,-0.0055173715,-0.0019248511,-0.003338661,-0.002914063,-0.0023515092,0.00067316456,0.0003662882,-0.0025039148,-0.0018685929,-0.0012011362,-0.003626276,-0.002783683,-0.00057690294,0.0035025356,0.00336417,0.0031835057
CDC42SE1,-0.006366024,-0.0021386484,-0.008646062,0.0057893596,-0.0044941143,0.0037585706,-0.007083383,0.0016849658,0.0012361775,-0.0013653479,-6.7905974e-05,0.0038160319,0.0073383353,0.005717916,0.0037348527,0.0041415086,-0.00092516624,-0.0026823548,-0.006792585,-0.0031238224,-0.0025736815,-0.004230018,-0.0021128652,-0.0016418836,0.002489736,-0.0025303806,-0.002379146,0.0047230916,-0.0025797396,-0.0015903492,0.0024893677,-0.00026269277,0.0013233825,-0.0021508401,0.00420837,0.000714099
MLLT11,-0.0094972,0.011696101,0.0054008267,0.01369784,0.0024356986,-0.0013839744,-0.0023242126,-0.0077393726,-0.0010605569,-0.0021740617,-0.0033774178,0.0010794268,0.015274034,0.006040593,0.0071084313,-0.0053753024,-0.0050079203,0.00019275676,-0.001486398,0.0025371574,0.00455928,0.0029389975,0.005692782,0.0084280865,0.007880631,-5.172272e-05,0.0016953493,0.0028188054,0.004076463,0.005435,0.0042313286,0.0065127676,0.007849228,0.00047960022,-0.009123663,-0.003143352
GABPB2,-0.000327935,-0.0044213748,-0.0016738531,-0.0027820703,0.0003324308,0.0033527669,-0.0055052307,-0.0015350597,-0.00026386048,-0.0021880947,-0.0017174117,0.00048773718,-0.00500785,-0.002244717,-0.001095459,0.00040159633,-0.000730707,0.00094044016,0.00081128656,-0.0031773504,-0.002453235,-0.000390149,0.00015245566,-0.005765791,0.0026786798,0.00257799,0.00032539072,-0.0039639114,-0.0011638317,0.0003501372,0.0017559121,-0.0013867987,-0.0016260905,0.0015334019,0.0014999601,0.00053525827
LYSMD1,-0.0017185087,-0.0026234381,-0.003706055,-0.0018181968,0.0017521005,0.0010954972,0.001048504,7.908802e-05,-0.0016313703,-0.00094069634,-0.00056988496,-0.0010901983,0.001262301,0.000204464,0.00047552362,0.0014976957,0.0019126975,-0.000309735,0.0029304782,0.0011103329,0.004758996,-0.00080920174,0.0014777277,-0.0017845843,-0.0020380206,0.0017876046,1.7748376e-05,-0.0025180664,-0.0022102837,-0.002506099,-0.0027444023,0.0006576293,-0.00058497826,4.1536827e-05,0.0010417585,0.0006066501
S100A10,0.017187383,0.03682914,0.007061936,0.032404926,-0.004638676,0.008016604,-0.0003222299,-0.0039966884,0.00680155,-7.1005226e-05,0.009645033,7.116642e-05,0.008410624,0.0068053515,0.011161463,0.0006375298,0.0026944454,-0.0026298186,0.00037464756,-0.005133818,-0.0029576041,0.0007440943,0.0009699215,0.0048018415,0.0073277205,0.004232601,-0.0016188733,0.005331494,-0.0057066255,-0.00081744546,0.0038555923,0.001070912,-0.004894594,-0.006623353,0.00647566,-0.0008553186
S100A11,0.007140392,0.006499053,0.0024674372,0.029129982,0.008890361,0.029418854,0.010924932,-0.025828723,0.002936083,0.008571572,0.011063278,-0.0014459897,-0.015121401,-0.0060699633,-0.017059458,0.002049109,-0.0055035683,-0.012085972,-0.016540939,-0.011063269,0.0068533123,0.008532504,0.002743713,0.0044963737,0.008705107,0.0035077431,0.0136379525,0.009915794,0.0095357485,0.012490963,0.026584836,0.018017408,0.012089606,-0.015412006,-0.01626548,-0.014609258
PRR9,-0.001505493,0.0009908272,0.00033896868,-0.00085813255,0.0017411821,-0.001397202,-0.0038216745,0.0011975484,0.00037094153,-0.0007573495,-0.0006160585,0.0044785333,0.00066271366,0.0009445616,0.0044430215,4.5873512e-05,0.00016767738,-0.0025429104,-0.00081236666,-9.576568e-05,-0.002340077,-0.001233742,0.0009944029,-6.927414e-05,-4.897135e-05,0.00025335758,0.0040655322,0.0013939702,0.0020809914,0.007104122,-0.0010366002,0.0006566068,0.00072633463,-0.0003355749,0.00027100623,9.0549576e-05
PGLYRP4,-0.0019226598,-0.010337054,-0.00502187,-0.0005766404,0.008214614,0.0052445205,-0.0036189829,0.003574785,0.00060012593,-0.001173476,0.009277488,-0.0036845251,-0.002205012,0.0009116391,-0.010906772,-0.002770154,-0.0057004075,0.0021278758,-0.0058314023,-0.009663259,-0.0040607895,0.008292866,-0.007254285,-0.0032507207,0.0020591756,-0.005787077,-0.0018062906,-0.0016826472,-0.0027794875,0.0041616717,-0.00026912772,-0.001040191,0.0032468021,0.0030836072,0.0061896266,0.007664945
S100A8,-0.007848611,0.0028540173,0.0016969311,-0.0034234794,0.0033545778,-0.007074103,-0.0044905376,-0.0004429739,0.010614944,0.003838006,0.0010602215,-0.016736764,-0.006037927,-0.00026439916,0.009931231,-0.003218528,-0.0028951343,-0.0063662864,0.0008667801,0.002561524,-0.0017009107,0.0024057012,0.00018403535,0.0031210477,-0.0027788656,-0.0025273482,0.002394794,0.009497007,-0.0012031359,-0.008809103,-0.0032799442,-0.0005358443,0.0029751624,-0.0005258575,-0.0012410788,-0.0036944957
S100A5,-0.0044811224,0.0027706705,0.0035350656,0.0036019327,0.0056210198,0.0006417788,-0.0065265847,-0.00949061,-0.0032215652,0.0028779388,0.007339962,-0.010225765,0.0044305823,-0.0053838226,0.002418674,-0.0050548716,0.0022776641,0.0029814455,-0.01542859,0.0030125303,-0.0017695377,0.004974942,-0.01096434,0.0071423496,-0.011411282,-0.010797676,0.005834606,-0.0008571974,0.014566276,0.013329756,0.004932847,0.0057658884,0.005576412,0.0047612432,0.010892853,0.0021693662
S100A4,0.00893525,0.0026895348,-0.0011868516,-0.000698108,0.002056017,0.0008118277,0.009095525,0.018538704,0.0046573547,-0.00038297984,-0.0086286245,0.003305411,-0.01303469,-0.015867375,-0.016453372,-0.002656887,-0.0034736036,0.004072504,0.0038454183,-0.0002842989,-0.008010283,0.00056829484,0.003961741,0.009005682,-0.0036350037,-0.0035267302,-0.0067595886,0.009149018,0.0036688317,-0.0061040763,0.005785295,0.023383558,0.006707158,-0.0015898915,0.008804185,0.0031264694
S100A3,0.011723334,0.0074215243,0.005424465,0.008972609,0.0009786787,0.006047535,0.00092522515,0.006837191,-0.0012362204,0.0037494896,0.0009406856,-0.0012036359,-0.00042489255,0.006122645,-0.002042331,8.443265e-05,0.0012103524,-0.004630999,0.0028342328,0.00048237524,0.008030121,-0.00016100462,0.0041675055,-0.00039780114,0.00030684282,-0.0043522045,0.0027449497,-4.270016e-05,0.008699235,-0.0016850274,-0.00094226893,-0.0046413,0.0016859034,0.0024524014,-0.0053847707,-0.0045217494
S100A16,-0.0035818797,-0.010288821,-0.0024599608,-0.0037990843,-0.00034526977,0.0027145317,-0.0033374715,0.0013967782,-0.002623271,-9.277057e-05,0.0042216964,-0.0006753456,0.001362505,0.0018016185,0.0017270842,0.0009554358,0.0015093385,-0.0028551924,0.0028633643,-6.0837996e-05,0.0030063312,-0.000120210854,0.00017470107,0.002854335,0.0027787117,-0.0027831804,0.0057476955,0.0009020321,0.010384641,0.0020987606,-0.00036624706,0.001327791,0.0012652534,0.0038333721,0.000512433,-0.0017525653
S100A13,-0.014660048,-0.014461811,-0.011283257,0.00084869546,0.014693376,-0.00013872983,0.001493797,-0.0074949753,-0.0053919703,-0.007828683,-0.00027103687,-0.0143484445,-0.007405177,-0.002836327,-0.021605086,0.013467669,-0.00078322063,-0.01799985,-0.012753252,-0.020422513,-0.007928757,0.0044842595,-0.0046601794,-0.0001264137,0.0011511347,-0.010788955,0.012350304,0.013809109,0.0071586673,0.014165274,0.0076277046,0.017287264,0.022697488,-0.0019784302,0.010267727,0.006153676
S100A1,-0.0011967929,0.012300562,-0.0034648639,0.0009465678,0.006302729,-0.0077997204,0.003074186,0.0047173486,0.0033679109,-0.0048907255,0.005095743,-0.011314526,-0.0071003577,-0.0046186675,-0.013344426,0.006787277,-0.0027059736,-0.00097564136,-0.004478814,-0.0004744001,-0.011749822,0.0014097744,-0.0030522002,0.001982001,-0.0055336324,-0.0053597447,-0.00019947729,0.004559525,-0.004047934,0.004359758,0.0005657461,0.0025191293,0.019081468,-0.00024069185,0.005576844,0.017529871
RAB13,-0.0053025195,-0.0054073716,-0.0035530445,0.0006435135,0.0016055807,0.0009859155,-0.0021187454,-0.006177877,-0.001418128,-0.0011995496,0.0016390526,-0.001046499,0.0026596661,0.0036988808,0.0020166868,0.0012037354,0.0023285218,-0.00019398285,-0.0023042702,-0.0039859074,0.0019186288,-0.0016110119,0.0025947213,0.0030008913,0.0018658501,-0.0013257648,-0.0022099025,0.004374234,0.0030802705,-0.0032310756,0.0054032393,0.0018556127,-0.0008038284,0.0005352772,0.001600571,-0.00010371367
IL6R,-0.00116436,-0.0134680355,-0.00043287553,-0.0055523994,-0.008955474,0.004371285,-0.0045688557,-0.0017511499,0.001391058,0.005525829,0.014349033,0.01583298,0.003997961,0.0042005847,0.0069108214,0.016225705,0.00018435936,-0.013367757,-0.010094345,-0.013085048,0.010200084,-0.0016163321,0.0058018905,-0.011820496,-0.00038864196,-0.00084393896,0.018536653,-0.0071805143,0.02690442,0.0052245837,8.257766e-05,0.0069207186,0.0008614582,-2.3048424e-05,-0.00832577,-0.0019358392
KCNN3,-0.0051720934,0.0039729266,0.0010184343,-0.0008195741,-0.0005866472,-0.009077282,0.0062251873,-0.0008983772,-0.0038784114,0.002245572,0.0038116204,-0.0034707868,-0.0011967529,-0.0022821547,0.0009888712,0.001924586,0.004086963,8.512568e-05,0.0036586432,-0.0042781956,-0.0002962554,0.001365131,-0.0037691363,0.0077720666,-0.008952698,0.0015312928,-0.004422798,-0.00097218313,0.0035624728,-0.0025090908,0.0056955684,-0.007338118,0.0018704601,0.0001384239,0.00415039,0.0011783885
PBXIP1,-0.0042016297,-0.007115927,-0.0072131506,0.0018536401,0.0005061064,0.0059116473,-0.0027923647,0.00031605753,0.004473324,0.0027577803,0.0025245121,0.0024919698,-0.0063520204,-0.0057311263,-0.003457813,0.0012135967,0.0041070543,0.0018425576,-0.0011706942,-0.0017259842,-0.0046636853,0.0017991697,-0.0061942027,0.0005954551,-0.004922092,-0.0014962351,-0.0011799908,-0.0037085733,0.0003727518,0.009475456,-0.0029008314,0.0026194006,0.004256868,0.0019015729,0.005302741,0.00088966754
LENEP,-0.0025990233,0.0011081155,-0.001485341,0.0038604226,0.0009450986,-0.00088438584,0.00015351272,-0.0015659592,-0.0010184575,-1.3297014e-05,0.0004588837,-0.001849123,-0.0011496969,-0.00055815827,-0.0026241152,-0.00059878884,7.380997e-05,0.0011270535,0.00077977456,0.001250844,0.0003523631,-4.333184e-05,0.00183577,-0.0008754681,0.00054331427,0.0005915761,-0.0016175004,-9.791743e-05,0.0014793949,0.0007876897,0.0004559794,-0.00084090093,-0.0014468142,0.0012424104,-0.000785476,0.00017632118
SYT11,-0.0033149673,0.0029342503,-0.0013960508,0.0004821582,0.007826343,-0.003026704,0.0016196831,0.0015214037,-0.0014968126,-0.0007855071,-0.0012926867,0.0009582594,0.0029825424,-0.0007514811,-0.0027283884,-0.0033376443,0.002655762,0.0041727405,-0.00094429054,0.00097161776,-0.0033539974,0.0008227,0.009248121,0.008147573,0.0018486353,-0.0032525638,0.00716379,0.00794509,0.008427214,-0.004929582,0.008020439,0.004026293,6.5074055e-05,-0.0024030379,-0.0025977488,-0.0036040233
RIT1,-0.008313545,-0.007094718,0.0002327746,0.0015229981,0.010120126,-0.004027682,-0.0026093815,-0.003461454,-5.2530366e-05,0.0028071082,0.0019365989,-0.0026538488,-0.001534442,0.0036217703,-0.0011582322,0.006357241,0.00070188846,-0.0053726085,-0.003733986,-0.0045661195,-0.011437272,-0.0030255252,0.0001952303,-0.0054240576,-0.0024855155,-0.006244475,0.0057723485,0.00071555335,0.00295825,0.0035735343,-0.0028292777,0.005696274,0.0030345945,-0.00015788051,0.005700642,0.004340536
LMNA,0.010485012,0.013630502,0.00029649748,0.01664926,0.0018541464,0.0123536615,0.0025187999,0.008794457,0.0011353991,-0.0059694382,0.008742397,0.002171235,0.01025577,0.011396248,0.0118010435,0.0067667356,-0.0021941802,-0.0032327634,-0.011025873,-0.008106778,-0.005427842,0.00018486906,0.004112435,0.0008759574,0.0017212325,0.0020572585,-0.00016305443,0.00045083603,0.0057908082,-0.00020873181,0.0019264512,-0.0012305634,-0.0037901148,0.00028165523,0.0032787418,0.0038153029
C1orf61,0.0010531227,0.013659052,0.0010661588,-0.012231116,-0.0064345095,0.0029216888,0.0006094755,0.0072655287,0.006195571,-0.0023202652,0.0030750148,0.0027232724,0.008480336,0.013306331,0.01184417,-0.0008957405,0.0021272295,0.0026938182,0.0037874277,-0.000300951,-0.0005912276,-0.0052124513,0.0011703828,0.0014243594,0.005165416,-0.0036929583,-0.0033821536,0.0050140284,-0.004781183,-0.007051637,0.0017058543,-0.0010182429,-0.0019844933,0.00016223465,0.00082143093,-0.00075277284
CRABP2,0.002327341,0.0021814338,-0.00277259,0.0005346549,-0.00014908412,0.0022967767,0.0047281925,-0.0015753551,-0.0029133076,0.0010307105,-0.00051099644,-0.0010655025,0.0017272277,0.0013559166,-0.0014512847,-0.00070842664,0.0029657285,-0.009150286,-0.0014195441,-0.0028983182,0.00013847809,3.994659e-05,-0.0049136113,-0.0009401943,0.0012777683,-0.0034809601,0.006445777,0.0077438126,-0.0037911725,0.012434975,0.0022040992,-0.0007807984,0.008485873,-0.0027665873,-0.0068556797,0.0029392568
SH2D2A,-0.005773589,-0.0017557361,0.0032948037,0.0011328561,0.0012594128,0.0045292093,-0.008260436,-0.005861173,-0.008951736,0.009569511,0.0061451327,-0.008272979,-0.004591964,-0.0053563262,0.0019110648,-0.007241017,0.007413039,0.013993254,0.0014977521,0.035023697,0.0084454045,-0.0018226961,0.0015293235,0.0058841095,-0.014113867,0.0048662657,0.019152189,-0.008485156,0.041620865,0.02728565,-0.00041717855,0.010299062,-0.0057897754,0.019335695,0.019291326,0.0051769596
NTRK1,-0.0012148222,-0.00015087417,-0.0063829576,0.007459308,-0.0071972003,0.008540006,-0.0069867433,-0.0039935643,-0.004494628,0.0034426062,0.008027731,-0.006185732,-0.0020076549,0.00092812977,0.006821579,-0.0057841484,-0.0032945822,0.023201756,8.954957e-05,0.024103248,0.005723747,0.00013988606,-0.004201106,0.0052703223,-0.007334058,-0.0006917584,0.008708158,-0.0054971837,0.033392847,0.014890752,-0.0030831548,0.0018569307,-0.0032021736,0.022247009,0.009726329,-7.196898e-05
LRRC71,0.002420327,0.0019054341,0.0028646935,-0.0069630155,0.001883704,0.0008411809,0.00683471,0.0020009826,0.0030182973,-0.00091735367,-0.0023447163,0.0014724231,0.0025802283,0.01065426,0.0008335615,-0.001955935,0.001346977,0.0038529083,0.0010463474,6.194636e-05,0.001979999,0.0026362783,0.0028723567,-0.004413299,-0.0030963146,0.0006050942,-0.0038558075,-0.0019021168,-0.0025283617,0.00076316635,-0.0017340591,0.0005071244,-0.0043166396,0.01011571,0.002412828,0.0001825524
MNDA,-0.021035947,-0.004742629,0.041248657,-0.022097008,0.0144589,-0.029806854,-0.043594047,0.0052939,0.09231984,0.12115838,0.089397505,-0.004690528,0.018868113,-0.33519074,0.26391536,0.05256305,0.062447976,0.049002454,-0.02751764,-0.14663967,0.11755961,-0.0076394905,-0.03475933,-0.0025155246,-0.0703471,0.07275444,0.004679598,-0.035622634,-0.0075998697,0.0035646108,-0.08575384,0.16602053,0.0005586412,0.068879016,-0.21046068,0.0686242
VSIG8,0.00018400786,0.004871328,0.0015778376,0.0012460366,-0.0017240919,-0.0009124987,-0.00039090394,0.0041912,-0.0003308785,0.0007976329,-0.0005184545,-0.0005196416,0.0019572503,-0.00014014149,-0.00043166184,0.0010011966,-0.00019783816,0.0002778306,-0.0016058644,0.0020185786,-0.0015829159,-0.0019772423,-0.0010627192,7.057158e-05,0.00075378164,0.0025043127,-0.00029615144,0.00012988997,0.00017554543,-0.00031117542,0.0026205382,-1.7020902e-05,0.00020624696,-0.0024351487,0.0003001753,-5.5657536e-05
ATP1A4,-0.0036978254,-0.0011664852,-0.00033500625,-0.0007226739,0.0007353485,-0.0028040202,-0.0014938089,0.007945139,-0.0006864179,0.0018466887,-0.0014507319,0.0019498128,-0.00037559617,-0.006169303,-7.8538515e-06,0.00021689443,-0.0032306942,-0.00044429663,-0.006664232,-0.009383374,0.0045147007,0.00028663554,-0.01183429,0.0018417704,0.0028667701,-0.002563688,0.0049507013,-0.0046481453,-0.0058277994,0.0004552479,0.0002541372,0.00916959,-0.003293687,0.0031055424,0.0006641209,7.365324e-05
CASQ1,-0.0013349323,0.0030033356,-0.0012100167,0.00313979,0.0005506187,0.0018223021,0.0016767195,-0.0019094013,-0.0010239399,-0.00039585662,0.0034453406,-0.0031895635,-0.0025565883,-0.0028854331,-0.0035926127,-0.0015805822,0.0011757709,0.0003272211,0.00048525192,0.0008475654,-0.0038994667,-0.0011451958,-0.0009304243,-0.0014797227,-0.0006583011,-0.0032181449,-0.0010102408,0.000673918,0.0028483693,-4.3849343e-07,-0.0010791032,-0.0009341325,-0.0009526296,-0.000472131,-0.0005133511,0.00035273982
NHLH1,-0.0053275675,0.010944757,-0.0073205405,0.002641868,0.010479402,-0.0020457923,0.0028398847,-0.0070817065,0.00077330467,-0.0039724223,0.00020333825,0.004826653,0.005113172,0.006409636,0.004002987,0.004666111,-7.866651e-05,-0.00861194,-0.002122944,-0.0075181206,-0.00017800144,0.0016349985,-0.00017271879,0.00023012624,0.00392169,-0.0016948772,0.002297134,0.0012593521,0.003534218,-0.0012088246,0.0024157804,0.0064019947,0.00053463463,0.00016361321,-0.0007399877,-0.002983918
CD84,-0.013508429,-0.027132535,-0.018365592,0.0043597626,-0.019102478,-0.0064112046,0.016243694,0.009729344,0.097720936,0.045365352,0.037627686,0.0197411,-0.10649011,-0.051077373,-0.109270096,0.0033611753,0.0028339368,0.010047148,-0.0098459935,-0.0052701198,-0.095986046,0.0028294036,0.0041228873,-0.022146469,-0.009157751,-0.02574853,-0.015117416,0.002978445,0.012776349,-0.022668608,-0.012979334,0.027971463,0.06459567,0.010633898,0.017740926,-0.0019688176
SLAMF1,-0.010011011,0.010018485,0.008550223,-0.0061355163,-0.0045985915,-0.013235049,-0.006289894,0.0011634505,0.0009126484,-0.0008392646,-0.0018210502,-0.015252989,-0.0054139895,-0.007002511,-0.022070605,-0.009002399,0.0019794146,-0.00865964,-0.0075957216,-0.003773007,0.0012079341,0.0034925418,0.0055687902,0.014973197,0.0058113746,0.0030256475,0.004504673,0.026693147,0.0069893706,0.0054818904,0.02067172,0.033129267,0.009391982,0.002678816,0.016649973,-0.0049235844
CD48,-0.041016035,0.06142028,0.025221603,0.0023702786,0.014012458,-0.04673711,-0.038621366,-0.031942282,0.01642183,0.034497198,-0.046955336,-0.04171774,-0.08014868,-0.06505331,-0.103159755,0.0026706655,-0.011014139,-0.031570375,-0.055423837,0.002687555,-0.029977774,-0.0007298951,0.00950835,0.056782875,-0.008839608,-0.0036211163,-0.0149779515,0.08214812,-0.01586302,-0.006016156,0.059024736,0.082139775,0.04157112,0.018721513,0.09620726,0.0074241734
CD244,-0.0080621485,-0.010932185,-0.006474926,-0.0073024733,-0.006276867,0.001447878,-0.00432725,0.010393126,0.02794585,0.03597484,0.021690164,0.008420578,-0.0386813,-0.03387719,0.008159223,0.0169461,0.010526425,0.018687906,-0.033025116,-0.017769948,-0.0014914337,-0.00085129845,0.004174999,-0.0056950585,0.0013738396,0.0096151065,0.003409457,0.0036328265,0.00079115113,-0.01257863,0.01440994,0.028752498,-0.010526479,0.008723456,-0.02157849,-0.0012830639
ITLN1,-0.0040401113,-0.0019502107,-0.0013032787,-0.00044884722,0.0034369025,0.0024694249,-1.2121902e-05,-0.0008206052,-0.0024812329,4.1877604e-05,0.005616086,-0.0014265658,-0.00027419638,0.00024289584,0.00063052535,0.0011945588,-0.0018290433,-0.00865818,-0.0058814976,-0.007120055,-0.002489211,0.0020401306,0.0008144455,9.565828e-05,0.00036365935,-0.004228604,0.010464861,-0.0009400983,0.01415605,0.0034549732,-0.0042063007,-0.0017586104,-0.0010254994,0.001054068,-6.865716e-05,-0.0042070933
ARHGAP30,0.012109966,-0.019208357,-0.008810482,-0.006244895,0.005385121,0.02435266,-0.0060720444,-0.006815159,-0.0061855344,-0.0021453307,0.009172832,-0.0021123446,-0.013265989,0.0016720927,-0.0002938146,-0.008928095,0.0017723467,0.002268987,-0.017658496,-0.004065287,0.01467746,0.0018333638,-0.006175847,0.0066209226,0.013445842,0.015059783,0.004410964,0.005070565,-0.0069879824,-0.0032398924,0.039900415,0.012903851,-0.015215195,0.00015781459,0.007812669,-0.0065265624
FCER1G,0.0027050597,0.024663143,-0.0069851535,0.0042922576,0.007628767,-0.004835537,0.010111599,0.016350513,0.022514148,0.0070147775,-0.0020086942,-0.0117292665,0.0046373946,-0.01191447,0.0028840972,0.0068639545,0.005772708,-0.0030589474,-0.010254892,-0.0094493665,-0.0120742135,-0.0031386712,-0.011384269,0.004889079,-0.007167566,-0.0061402745,-0.004494784,0.017929878,-0.0071255034,0.008454846,0.010185278,0.033090837,0.031948045,-0.004152991,0.026921859,0.01713308
FCGR2A,-0.009992892,-0.013778805,-0.015906041,-0.0008990786,0.007961085,0.019877244,-0.004808415,-0.010381407,0.004681652,0.0009192563,0.008743313,-0.006287941,-0.0014772111,0.0026850784,0.0024790054,-3.9019415e-05,0.0023766,-0.0019499344,-0.009510673,-0.011150749,0.006705612,-0.0006363242,-0.0058092484,0.0010103498,0.0043366845,-0.0042588674,0.0056792614,0.003658303,-0.0018534216,0.00048515416,0.017284142,0.0087762475,0.0027561665,-0.00085029035,-0.00043922878,-0.006548401
HSPA6,-0.0041857404,-0.0026513971,-0.0020038474,0.0027873074,0.001364726,-0.00010149279,-0.0034365573,-0.002111546,0.0028834015,-0.00025128256,-0.00071620796,0.0019839662,-0.003309902,0.0016880493,-0.0006028462,-0.002845251,0.0021551584,-0.004624304,-0.0015505309,-0.0019440578,-4.7134472e-05,-0.00026893825,-0.00094111956,-0.0015935706,-6.0686278e-05,0.0011178568,0.004411149,0.004416845,0.005271077,-0.0005558257,0.004501679,0.0033355374,-0.0023922098,-0.0030420597,0.0004671765,-0.0045326794
NOS1AP,-0.0026138113,0.002939219,0.00018908756,-0.0029385232,0.0013309971,-0.0033652983,-0.00040059586,0.001051798,-0.000523147,0.0017811498,0.00041129987,8.400982e-05,0.0003486146,0.00010910203,0.00078539463,0.00041961062,0.0014914616,0.003738768,-0.0026187398,0.0035335103,-0.0024944916,-0.0022898633,-0.003361385,0.0022847094,-0.0035691033,-0.0003312313,-0.00023939635,-0.004646182,0.0027121843,0.0015600348,8.2798266e-05,-0.002181262,0.0025582185,0.00305442,0.0017048699,-0.00067999214
CCDC190,-0.0014864266,0.0006307086,0.0022744862,-0.0010995268,0.0029154154,0.001195937,-0.0018079908,0.004983258,0.0001509045,0.00014313366,-0.00066829467,0.00185862,0.00071094075,-0.004439331,-0.0002140402,-0.0014643996,-0.00017205355,-0.0034415936,0.0012750439,-0.0008081015,0.0010808131,-0.0009477597,-0.0018344872,0.0016650141,0.0017146566,0.0003588852,0.0011937998,-0.0014815059,-0.00019126003,0.007259301,0.0006787005,0.0037302293,0.003247625,-7.786084e-05,0.00046342704,-0.004966939
PBX1,0.0023182645,-0.05352202,0.035810195,-0.13764635,0.054308183,-0.045922093,-0.07493745,0.07479823,0.041286953,-0.007429731,0.20674865,-0.021110406,0.10385096,0.06796861,-0.12176001,-0.069009826,-0.121081665,0.02233196,-0.09904508,-0.09750742,0.0746671,0.16277757,-0.11736941,0.115143664,0.064392775,-0.22374797,-0.0095332395,-0.061590925,0.022981474,0.059887424,0.017160067,0.021135226,-0.08381602,-0.038541466,-0.029110007,0.0276188
MGST3,-0.0017243556,0.0028573424,-0.004659097,-0.002202755,-0.00046756168,0.0067446264,-0.0002276926,-0.008029724,-0.0002248729,-0.0045849686,-0.0052625323,-0.0023145578,0.008277758,0.0041273935,0.0048180628,-0.0009444652,-0.00083229505,-4.6603633e-05,0.0018093579,-0.0032072347,-0.00021592449,-0.0005219348,-0.004487583,0.002560484,-0.00070551643,-0.0018424569,9.475533e-06,-0.00023041025,-0.010095112,0.00048707897,0.00041826084,-0.0005352602,-0.0039997054,-0.0037366904,0.0015823453,-0.0053093056
CREG1,0.004560896,-0.01195472,-0.0063845785,-0.0031074416,0.0039224843,0.0169689,0.003352608,0.0019657603,0.008853953,0.008376129,0.0070898766,-0.0037110916,-0.011746222,-0.0015186955,-0.0053169657,0.0039190785,0.0042682043,-0.00040135052,-0.008326483,-0.006701756,-0.008762568,-0.0035759045,-0.0076503805,-0.014343297,-0.0029597562,-0.0013435658,-0.002860589,-0.0032947906,-0.010568084,-0.0059753265,0.0019774856,-0.0059864544,-0.0038375282,0.0027952092,0.003952892,0.0052103396
RCSD1,0.0076721385,-0.014211749,-0.0045958403,0.0043883263,0.00087628653,0.010243384,0.0010903636,0.008427454,0.008751474,0.009136776,0.0062586535,-0.003466365,-0.024391206,-0.0129373185,-0.01425531,-5.563686e-05,-0.0009895196,0.0010851542,-0.0005435261,-0.0024903542,-0.0014421166,0.0011740793,-0.002829225,-0.0058508837,-0.0023431832,0.0029475545,-0.00062993675,-0.0015263229,-0.004944576,0.003415444,-0.00055341574,-0.0021971567,0.007847238,-0.002336437,-0.005466081,0.0014788267
MPZL1,0.0031876063,0.017324798,0.028305344,0.016822934,0.0019379458,0.004181778,0.0015231377,-0.0035817425,-0.003822181,0.0029244956,-0.008314173,0.0041532344,0.018261168,0.0008604658,-0.008444761,-0.019845592,-0.004292764,0.011089668,0.00060320646,0.007462437,0.025565945,0.009886831,0.019576605,0.049111594,0.022163205,0.008735325,-0.0007556511,0.021787176,-0.0022252132,0.0009635651,0.04027539,0.033955976,0.012879859,-0.0024491805,-0.014656,-0.030530011
MPC2,-0.0022284451,0.0058115455,-0.005236245,0.001502899,0.012574693,0.007503474,-0.0013257244,0.0065674707,0.007741681,-0.0027083578,0.00018246725,0.00067602476,0.0064558433,0.0100393435,0.008710719,-0.004759231,-8.67754e-05,0.0038346907,-0.0019809601,0.0017723145,-0.00078068126,0.00022792582,-0.0034104988,-0.002264754,0.0039889677,-0.00087162113,0.00030664937,0.003404521,-0.0031563994,-0.0001859264,0.011477558,0.009576461,0.004286119,-0.0062847687,0.0067314934,0.0025846567
ATP1B1,-0.0019233084,-0.0019584566,-0.0014607705,0.001526016,0.0048568933,0.0022193058,-0.009317424,0.009961667,-0.0004946883,0.0020310683,0.0039365226,0.004457766,0.006306374,0.004362579,-0.0077169086,-0.0027542135,-0.0021886236,-0.0031134672,0.0010269424,-0.0025057786,0.00871284,0.002677989,-0.0009966214,0.0059668943,0.005839185,-0.0050515607,-0.0014109476,0.0014295607,-0.0032955657,0.0052287458,0.0038163124,0.0077683157,0.002219421,-6.130403e-05,0.0011096088,0.00094856706
FMO4,0.003693444,-0.00079268956,-0.0017364555,-0.000108040374,-0.0015831182,0.0038484018,0.005631561,0.001148644,0.000800657,-0.00032034013,-0.002524015,0.0015307094,-0.0016478607,-0.0022454658,-0.005758557,-0.0015567433,0.0018111521,0.000556754,0.0040098485,-0.0014119961,-0.0026399978,-0.00028145875,-0.0018553775,0.0008943155,-0.0008819951,0.0016654868,-0.00076672836,0.00031224932,0.001746331,-0.0020279065,-0.0019998706,0.0040667504,0.00061913865,0.004712666,0.0011753916,-8.312813e-05
TNFSF4,0.0018149408,-0.0037432988,-0.002955121,-0.0053243754,0.0025084757,-0.0029212001,-0.00041542648,0.0067256037,0.007998724,0.003740071,0.0020360444,0.006280886,-0.00054296263,0.00320629,-0.005567083,-0.0018407194,-0.0033360564,0.001959729,5.1620293e-05,-0.001974022,-0.00087413745,0.00017329819,0.00018446216,0.0029367565,0.0049965824,-0.004874336,-0.0015712383,-0.0018904223,0.001086804,0.0010042902,-0.0016292061,0.003014998,0.0056262263,0.0049663573,-0.0039148247,-0.0038673661
RABGAP1L,-0.0033469044,-0.012530846,-0.0038914424,-0.006522416,0.0041401824,-0.0015486234,0.0023838794,0.0071382616,0.007932906,-0.0039001447,0.00017495579,-0.0044278367,-0.0114712585,-0.008029822,-0.007564383,0.0017111421,0.002467166,0.0025324165,-0.0005445143,-0.0013894784,-0.011795154,-0.0026247883,-0.009926246,-0.00441421,-0.005196689,-0.008905073,-0.00074571697,0.0027724532,-0.004486604,-0.00010885684,-0.0032324817,0.0014342963,0.007933084,0.00475867,0.011707495,0.0057384553
CACYBP,0.0044250456,0.051648553,0.039287537,0.05057307,-0.02023288,0.0014504514,-0.0089861695,-0.05179052,0.0002132376,-0.0016582464,0.0068815653,0.0049911467,0.031430475,0.01559471,0.023119655,-0.009354325,-0.0042352513,-0.0006374281,0.012820565,0.009870948,0.021716189,0.005807865,0.014564265,0.022282874,0.017216824,0.014162749,-0.00084765063,-0.0039894236,-0.007687623,0.0007631506,0.0030551143,-0.004853004,-0.0067197974,-0.015265111,-0.03797887,-0.024060229
TOR3A,0.0022172132,0.016916117,0.00865067,0.0076601207,-0.008307462,0.005253091,-0.008432822,-0.009908436,-0.0022747384,-0.00061249343,0.0030131494,0.0037785834,0.012330126,0.0062632146,0.013297279,-0.0012032393,-0.00030287157,0.006629525,0.004791414,0.0075116847,0.0059842365,-0.000247973,0.0031030264,0.0049189855,0.0084663,0.007229921,-0.0030570133,-0.005718145,-0.0006099694,-0.00037018428,0.0034757317,-0.0040559177,-0.0021245398,-0.0054160366,-0.00017277223,-0.0025705553
ABL2,-0.007448965,-0.0014030001,-0.005152655,-0.0065008844,0.008838193,-0.005591896,-0.002507896,0.0067956885,-0.002378211,-0.006436974,0.0020267493,0.004360607,0.0001276145,0.0024773944,0.0009467803,0.0036196415,-0.00012641706,-0.012059796,-0.0044302186,-0.008021783,-0.0015001126,-0.00019486916,0.0039014837,-0.0036712168,0.004303713,-0.0027704404,0.014096382,0.0032063772,0.016331002,0.0022691854,0.00058866374,0.0005886315,0.00023674939,-0.00010653144,-0.0042887656,-0.0061199605
TOR1AIP2,0.00069039565,-0.009486206,0.0051395185,-0.0010352464,0.00059469556,-0.004980164,0.001031785,0.0056563197,-0.0013102771,-0.0011814457,-0.0044713845,0.0020207418,0.003586658,0.0013570251,0.002310395,-0.0033813755,-0.003075097,-0.0006056151,0.003199595,0.0023875912,0.008636622,6.8278154e-05,0.0028421278,0.0049091964,0.0047683218,0.0054373476,-0.0017384314,-0.0024830294,-0.004001219,-0.0013751589,-0.0034130749,-0.0050614728,0.0026768672,-0.0044056172,-0.004295221,-0.00100909
QSOX1,-0.00021950805,-0.008204404,-0.0048070275,-0.0047113155,0.0027320667,0.0065239696,-0.0013096462,0.0007582504,-0.0002973824,0.0035464624,0.0021891403,-6.450898e-05,-0.010695301,0.0005059526,0.00091058266,-0.0003429231,0.0032457486,0.0026493575,-0.0062060026,0.0006684792,0.005665993,-0.0036487465,-0.0039772163,-0.0018298883,0.00070744596,0.0048083193,0.0018236946,-0.0017401078,0.002780183,0.0009113875,0.008048155,0.0047004824,-0.0042846384,0.0053838147,0.009689295,0.0007809634
MR1,-0.007507478,-0.0088791475,-0.00471122,0.00031563,0.0019101481,-0.0013138843,0.0050059413,0.0005771861,0.0028066742,0.0014211346,-0.0014476782,-0.003611572,-0.0019281688,-0.0059404764,-0.0007251682,0.00093924685,0.001936129,-0.0009896511,-0.0019782144,-0.003725945,-0.005234096,-0.00012108133,-0.0008175293,-0.0017980421,-0.0031688092,-0.00039450687,-0.0005006552,0.0067430437,-0.00113685,0.0012883876,-0.004019133,0.003706928,0.0064310785,0.0013036684,0.003670632,0.009425495
GLUL,0.0042704428,0.008275864,0.0005697635,-0.0011652181,0.0012962943,0.009626267,-0.0050387736,-0.008531251,0.0062283203,-0.0037605045,0.0058837617,0.0007666064,-0.0004164823,0.00876972,0.006708688,-0.0021388622,-0.002111562,-0.0023027668,-0.0006991693,-0.0015534495,-0.0026052238,0.0030328,0.00057285075,-0.005357943,6.77096e-05,0.0015375965,0.0045788977,-0.0039461637,0.0024744996,-0.0027388744,0.0044698757,-0.0017061086,0.0012604708,-0.0027589735,-0.0073999707,-0.0049013197
RNASEL,-0.0011889174,-0.005518385,-0.0038821828,-0.0026843783,-0.0004505762,0.0010477335,-0.006822728,0.0008552327,0.0031570299,-0.003209428,0.0064692637,-0.0006296899,-0.0022552996,-0.0012053313,0.0027862173,0.0015913391,0.00082893565,0.0055585545,-0.002363805,-0.005315931,-0.010358843,-0.0011983841,-0.0010665326,-0.004036072,0.0031432032,-0.0042791204,0.0024482335,0.0062810034,0.0031373855,-0.0037865883,0.005317526,0.0066831834,-0.00035198595,0.0067447894,0.0071301935,0.000569126
RGS16,-0.001873613,0.011752695,0.0015365381,0.008796586,0.0005301004,0.0021390354,-0.0015867609,-0.009772824,0.00034113045,-0.0010480393,0.003484994,-0.0009605186,0.0047450555,0.0037938885,0.00055442087,-0.0003523488,-5.230548e-05,0.0007004926,0.0027890597,-0.0043323273,0.0034419987,0.0019627456,0.0005077027,0.0035572466,0.0033393772,-5.4233737e-05,0.0021974384,0.0021306362,-0.0035868527,0.0014572087,0.0021680875,-0.000724407,0.0014012838,-0.0001450139,-0.004473275,-0.006928667
LAMC1,-0.0012514344,0.0050122095,0.0024996623,0.004015709,-0.004676897,0.0026952105,-0.0019523865,-0.0041598445,-0.0010991791,0.00150404,0.00032065265,-0.007050149,-0.00032088254,-0.0020943803,-0.002205489,0.0016734058,0.0015586563,0.0027776798,-0.0012490639,0.0017989522,-0.0020370868,0.00088061765,-0.0017694854,0.0017736957,-0.003999284,-0.0017607413,-0.00012012001,-0.0012278829,0.0034934804,-0.0019386988,-0.00090433285,-0.00022895545,-0.00049318606,0.0051266793,-0.0008645626,-0.0038755157
