gene_symbols,phi_0,phi_1,phi_2,phi_3,phi_4,phi_5,phi_6,phi_7,phi_8,phi_9,phi_10,phi_11,phi_12,phi_13,phi_14,phi_15,phi_16,phi_17,phi_18,phi_19,phi_20,phi_21,phi_22,phi_23,phi_24,phi_25,phi_26,phi_27,phi_28,phi_29,phi_30,phi_31,phi_32,phi_33,phi_34,phi_35,phi_36,phi_37,phi_38,phi_39,phi_40,phi_41,phi_42,phi_43,phi_44
SAMD11,-0.006724872,0.0031501239,0.0029318589,0.0023075575,-0.0016445967,-0.0060975016,-0.007142426,0.0026921663,-0.006317207,0.034516178,0.01268017,-0.008501783,0.003524267,0.0008638906,-0.017774137,-0.04864325,-0.008587986,-0.0071587167,0.00058951083,-0.0022088087,-0.007978429,-0.0060020695,-0.026797643,0.0016345751,-0.008676121,-0.0046105296,-0.004558402,0.0042062835,0.008616928,0.0031306923,-0.0037592144,-0.0040056948,-0.010764077,0.005033402,0.003985044,-0.0077402606,-0.0099490415,-0.0015662671,-0.0030367759,-0.0033833093,0.012481411,0.00038443832,0.0042110947,-0.005166898,-0.0098086875
HES4,0.011979022,-0.009986781,0.009415093,0.007849253,0.00522763,-0.018358592,0.026969895,0.008293314,-0.0008745622,-0.014015597,0.0072774272,0.004790056,0.0013391526,-0.020973464,-0.002890079,0.0044292905,-0.009397675,0.00747936,0.004865119,-0.01335257,0.0015799659,0.014596952,-0.008188392,0.011694751,-0.0062669,-0.006447426,0.009110427,-0.003682327,-0.0035240373,0.0077746967,-0.003659018,0.015614765,-0.006825218,-0.011036983,0.013943797,-0.01759853,-0.025650322,0.028889589,-0.029468091,0.032281682,-0.010676661,0.034469526,-0.011335104,-0.0035562029,0.0014081453
ISG15,0.0025564395,0.004714341,-0.0034141648,0.0025004216,-0.0055761165,-0.0024402528,0.0038591865,-0.0015611612,-0.0002192456,0.004676511,0.0058410238,-0.0063565294,-0.0065318835,0.0038988558,0.0033090636,-0.0061544236,0.0059621544,-0.0106361285,0.0057014795,-0.0027124526,-0.003312718,-0.0021358551,0.0008357593,-0.0033131603,-0.00065071875,0.0012201811,-0.0011763882,-2.1338265e-06,0.009125534,-0.00089901127,-0.003455866,-0.004795454,-0.024662364,-0.00086216687,-0.0032768827,-0.0104696555,-0.008262894,0.001705924,-0.009779388,0.002274296,-0.013690874,0.0017998663,-0.0026530735,-0.004801896,-0.005299032
RNF223,0.0010600759,0.0012740684,-0.0017928004,0.0011561195,0.0038622424,-0.0017297018,0.0016939719,-0.0032212546,0.0008539526,-0.0011339008,-0.0010371042,0.00055849954,-0.0030466896,-0.0008241589,0.0035341673,-0.0026971337,0.00042211788,0.0009778924,0.0013619373,-0.0022932077,0.0007441053,-0.0011121692,-0.0036399416,-0.00090554805,-0.0032003128,-0.0035175262,-0.0010074408,-0.0018127611,-0.003070341,-0.0033872647,-0.00077738904,0.002227523,-0.0017635148,-0.004229395,0.0049498975,-0.0006384276,0.0002907767,0.0020681685,-0.004055892,6.941096e-05,-0.0051894765,-0.0036690673,0.0015156583,-0.0009084797,-0.0012440822
TNFRSF4,0.00023698456,0.00068350293,-0.0027585842,0.002470296,-0.00041014477,-0.002078386,-0.0033670624,-0.0020438295,0.00030752833,-0.0010793799,0.000945476,0.004689421,-0.012627732,0.015095082,-0.015672522,-0.009283403,0.009624728,-0.004615002,0.0054000425,-0.007476937,0.012798565,-0.018082017,0.0065079145,0.0027998819,-0.004248238,0.0026558074,-0.02333318,0.010136972,0.0014209715,-0.0069070756,-0.00080554903,-0.004052289,0.005731973,0.0027473925,0.0036815451,0.021315847,-0.030158745,-0.0006517987,-0.008963862,0.013676191,0.006098661,0.010060305,0.0028492594,-0.009268815,-0.008770323
MMP23B,0.0022740525,-0.0005939646,0.0053839567,0.0019057087,0.0057969247,-0.0014627666,0.0029808944,-0.008738336,-0.0026010678,-0.0049206195,0.0016480004,0.00053296686,-0.004966543,-0.008357744,0.00338271,0.005750759,-0.0037190705,0.00097583776,0.0011159689,0.0021300605,0.0050038164,-0.0030587357,-0.010906543,0.0019988234,0.0040433886,-0.00042747127,0.0001330662,0.0034414402,-0.0056951493,0.0017017192,0.0010307784,0.01265233,0.0018174674,-0.017359935,0.005755562,-0.0010118651,0.00063938694,-0.00678815,-0.007719952,0.0035039107,-0.011383581,-0.009580174,0.011463778,0.002227641,-0.0052963127
TNFRSF14,0.00076097844,0.0013017841,0.0021478743,-0.0007874196,0.00048300752,-0.0043522343,0.0017542095,-0.008092804,-0.0047771446,-0.0050183036,0.0064788493,0.00095937087,0.0044665653,-0.0055130557,-0.0010656273,-0.0042874464,-0.0013885924,-0.0016478556,0.014118514,0.006662592,-0.0070327446,-0.0043533253,0.00030219805,0.0023789003,0.0053740195,0.012480454,-0.0071228473,-0.0058244485,0.0051496294,0.011964599,0.0020908604,-0.0037113095,-0.005459022,0.0049501634,0.016290674,-0.0022838325,-0.0014346777,0.0012886816,-0.010478384,-0.0006143802,-0.005090688,-0.0020471723,0.011539481,0.0015820921,-0.003913201
TTC34,0.0009159818,0.00072215183,0.00065038714,0.0018896656,-0.0007383888,0.00021184486,-0.0014849924,-0.0017586248,-0.0010367634,0.00036656775,-0.0006925256,0.0004846171,-0.008722923,-0.0019286502,-0.0019489283,-0.0024826766,-0.001044669,-0.0023986055,-5.0595656e-05,0.0009857222,0.0014571542,0.0015845756,-0.0045869397,-0.0027404749,-0.0007530673,-0.0017234985,0.0021755123,-0.002599207,-0.006217386,-0.00029190254,-0.0013530919,-0.0025025292,0.0027806046,-0.002938725,-0.0028972307,-0.0026887718,6.141075e-05,8.358982e-06,-4.108528e-05,-0.0021524627,0.002620932,-7.694288e-05,0.003170009,0.002900609,0.0009136055
SMIM1,0.0019387532,-0.0024462475,0.007736837,0.006196489,0.00929563,0.00297671,0.0070836204,-0.006978595,-0.0038451042,-0.012756651,0.014691754,0.0065669534,-0.0046881824,-0.012206485,0.0043605748,-0.00052879844,-0.0074324114,0.002139232,0.016136054,0.0060124793,0.007134125,0.004401987,-0.014077948,4.128042e-05,0.0022451733,0.0031900147,0.0026949826,0.013549217,-0.011528533,0.0057744896,7.182229e-05,0.009837027,0.012278226,-0.019404152,0.011459663,-0.0011867938,0.009334915,-0.01669589,-0.008113053,0.006878623,-0.017859595,-0.0074068164,0.010965672,0.0069866083,-0.007822431
LINC00337,0.0012491035,-0.001554063,0.001999696,-0.0029085507,8.117493e-05,-1.2249893e-05,0.0020149222,-0.0012929488,0.0020853467,0.00094660564,0.00060704164,0.0021596416,-0.00040243173,0.00064899115,-0.0007401137,0.0032557137,-0.001933282,-0.0013365791,0.0015374392,-0.0028027738,0.00071541534,0.0006400602,-0.0043151993,0.0025645853,-0.0004439131,-0.0012124362,-0.0018441726,0.00021729006,0.005350951,-0.0018730868,0.0006656876,0.0012982157,-0.0017910087,0.0029413735,0.0011566669,-0.0017425977,-0.00011813207,0.00089513016,-0.0010756851,0.00018856973,-0.0028358588,0.0028168776,-0.0030874,-0.0039352677,-0.00079178176
HES2,-0.0044070464,-0.004532459,-0.004712107,-0.00054348225,0.0006348602,-0.0036102622,0.0014251209,0.0043477956,-0.005428373,0.00127248,0.0032018868,7.8065113e-07,-0.0016825405,-0.005963839,-0.0063398164,0.002585321,0.0003432918,0.003946502,0.0012344603,0.0025463598,-0.012653352,-0.016040085,0.007694042,-0.0036915124,-0.008835345,-0.004092087,0.0015639134,-0.0026782688,0.0011411688,-7.540625e-05,-0.0012164067,0.0014165007,0.0014394948,-0.0012522689,0.00137237,-0.0033684887,0.0052140444,-0.00039469425,-0.006495022,0.010515614,-0.007675708,0.0029072815,0.00052327674,-0.001699469,-0.00010511269
ESPN,0.0012049926,-0.0010411805,-0.00042699426,-0.0028082968,0.0037405842,-0.001839549,0.00036781287,-0.0039771902,0.00036169437,-0.0036672654,2.2512884e-05,-0.0007031276,-0.005362926,-0.00301076,-4.1266925e-05,0.0029112017,1.3919567e-05,-0.0024414894,-0.0019596037,0.00014027751,-0.002218352,-0.0055044265,-0.0011384697,-0.00071253884,0.0012795411,0.00060323277,0.00069062575,1.4007429e-05,0.0034552943,-0.004164237,0.0046512457,0.010325672,0.004661653,-0.009322539,0.0036529747,0.0035062414,0.0009918661,-0.0018771596,-0.0038112083,0.0018632557,-0.0015093733,-0.002978039,0.0025920207,-0.0031372535,-0.003675185
TNFRSF9,-0.002218474,0.0009691402,-0.0062933513,-0.00228687,0.001961816,-0.0069396575,-0.003564758,-0.0011740256,-0.00134465,0.0068785986,-0.017553296,-0.020706289,-0.006379768,0.006052996,-0.021390788,-0.004156993,0.0023073796,0.008541106,0.0034032618,-0.010680481,0.036014307,-0.015743665,0.03112359,0.0053472403,0.015378606,0.014912037,0.0069478247,0.009401858,0.000121803976,0.0033852828,-0.012069039,0.0030790425,-0.006086626,-0.010556892,-0.0004457336,0.017279297,-0.025086513,0.023417283,-0.006227437,0.0036358887,-0.0070660925,0.008924316,0.003984469,-0.017479492,-0.0141677195
ENO1,-0.019243537,0.0034001274,-0.017857779,-0.02118716,-0.032217283,-0.019504331,0.015797324,0.050082438,0.0078093754,0.014715024,-0.0039809383,-0.008236313,-0.008037347,0.00834688,0.035133768,0.020898782,0.023053989,-0.006680503,-0.0014735321,0.004126782,-0.044357445,-0.03528624,0.017756777,-0.040273618,-0.01586071,0.009502037,0.00889976,-0.01766512,0.0074938373,-0.023029724,0.013586486,-0.028830195,-0.0404125,0.030117933,-0.050368357,-0.018955179,0.0077655315,0.07638626,0.018356247,0.034668725,0.026506113,0.07270226,-0.07000226,0.019008417,0.043239135
GPR157,0.0011749951,-2.449375e-05,-0.00059621193,-0.00076921465,0.001717352,-0.0006425575,0.0008098843,0.0011888028,0.0030429314,-0.0031332623,0.0024271559,0.0022023073,0.000548226,-0.0038633337,0.003187056,-0.002912157,0.0009159764,-0.0016963716,-0.00050374144,-0.0009595446,0.0005423148,-0.0025915464,0.00471091,0.00041832536,0.0012941024,-0.0013992676,-0.0028660328,-0.0037027118,-0.0027472216,-0.002122799,0.0007307281,0.0056989095,-0.001287848,0.0021024356,0.0021263075,0.00084785087,0.0001983892,-0.0016939776,-0.0013863394,0.003602839,0.002104894,0.0011432827,-0.0033484166,0.00013346378,0.0019510332
H6PD,0.0010289206,-1.8875664e-05,-0.0011407775,-0.005508249,0.0048567685,0.00226613,-0.002841429,-0.0021418955,-0.0025253592,0.009331391,-0.0018302659,-0.003171027,0.0054271114,0.0005330582,-0.008271226,-0.0058266288,-0.006003651,-0.0038909602,-0.00022716647,0.002458631,-0.0032313506,-0.005837544,-0.0025393516,-0.0004678773,-0.004315267,0.00072244776,-0.0039549703,-0.009093863,0.0064314273,-0.0007776443,0.0027592683,0.009876447,0.003848605,-0.0037642515,0.0108349165,0.0011073842,0.001994582,-0.0047027892,0.0002085957,-0.0015484403,0.0069792233,-0.0038445902,0.008323542,0.0068676868,-0.0019071861
PGD,-0.00010052712,-0.00021560588,0.0023089559,0.0012232934,-0.0022632922,-0.0093670385,-0.007352582,-0.0023396637,0.0001574003,-0.008583895,0.010068441,0.00070076983,0.0060198884,0.0017576203,-0.0018679277,0.016693084,0.0056708646,0.0055712326,-0.00084639835,-0.005966294,-0.0013265619,0.0020720575,-0.008081767,-0.0036221438,-0.011515714,0.012517392,0.004497194,0.00065591396,0.010226053,-0.006734802,0.004686644,0.0034275071,0.0018209865,0.030205397,0.0015975758,-0.0068901097,-0.014080656,0.024129549,-0.0066505335,-0.0052666906,0.012871143,-0.0017148565,0.025086619,-0.0010373761,0.002429984
MASP2,-0.00039965712,0.00096303486,-0.0019944084,0.00066092174,-0.00073478254,0.0014740654,-0.0017000228,0.0018398628,0.00011341267,0.00075121596,-0.0008785369,-0.0027012671,0.00032242978,0.002953045,-0.0012350457,0.001996099,0.0031693727,-0.00049463916,-0.001338847,7.8758094e-05,-0.001745961,0.0014431975,-0.0001410758,-0.0016743192,0.00107016,0.002740678,0.0030227369,-0.0030473722,0.00037011594,-0.001078678,-0.00024368291,-0.0011743063,0.0005206628,0.0008653809,-0.0003024817,0.00041459827,0.00028435927,0.0009899386,0.0013825387,-0.0005846956,0.00065186294,0.00051647663,-0.00016599026,0.002102692,0.00016095594
SRM,0.0048889206,-0.0074074348,0.008340379,-0.014072896,-0.009158793,0.011626529,0.016944854,0.030288128,0.023220876,-0.013670469,0.0029457351,-0.002265464,-0.018383639,0.003755968,-0.0027839323,0.031314913,0.0017528897,-0.0103775505,-0.0030277679,0.00033048182,-0.004489716,-0.0025293357,-0.005028079,0.011625059,-0.005034685,-0.002253899,-0.0030085193,-0.012200479,0.004268986,-0.01645255,0.0053306776,-0.016204752,-0.008092678,0.00061962724,-0.008350019,-0.0014816241,0.019232174,0.013897918,0.034318566,0.015854856,0.022581972,0.03688494,-0.06133432,0.006662927,0.037007317
DRAXIN,0.0006112754,-0.0010496953,0.001986709,-0.0002137089,0.00063715613,-0.00028330073,0.00018681212,-0.0019942152,0.00024822165,-0.0030990131,0.0020477208,-1.0146609e-05,0.002619471,-0.0034536256,-0.00027560777,-0.00042657476,0.00096156716,-0.0012965144,0.0005445656,-0.0016794811,0.0028136226,-0.00016055482,-0.00062748446,0.0022196071,0.0005097294,0.0022957928,0.00085368427,-2.8523884e-05,-0.0011200893,-0.0017205992,8.548357e-05,0.0022783577,0.00338044,0.0011674789,0.0022137957,-0.0011766783,0.0006423512,-0.0021806327,-0.00092173426,0.0003778727,2.2392604e-05,-0.0024338788,0.00025637337,-0.0016216171,0.0010790232
MTHFR,0.0018939454,-0.00016975758,0.007960304,0.0026931448,0.008404616,-0.0013714801,0.0003974604,-0.008054118,7.368813e-05,-0.0025914079,0.005307361,0.00427344,0.0056272903,-0.0016786867,0.0016685826,-0.0008008871,-0.0019656634,-6.134737e-05,0.004023545,0.0049832263,0.0051081325,0.0063519645,-0.009247012,0.009406683,0.0039114114,-0.0036464233,-0.0022677914,-0.0021270725,-0.004242468,0.0081159705,-0.0007487491,0.0047566327,0.009047392,-0.0066962065,0.013190485,-0.002521027,-0.003930537,-0.0055848025,-0.006465175,-0.006124698,-0.009560584,-0.009463349,0.008010068,-0.0020485905,-0.004240726
PDPN,0.0018596137,0.0026172237,-0.0017594603,-0.00014936336,0.0012566823,0.0017356533,0.0012650252,-0.002118123,-0.0004892601,0.0032619808,-0.0015602028,-0.0024633997,-0.0031868154,0.0028039126,-0.00069671025,0.0010233381,-0.00016642128,-0.00031615555,-0.005370842,0.00076753204,-0.0017094819,0.0015030534,0.0024933277,-0.002854336,-0.0036082421,-0.0019530471,0.00074175256,0.0018679795,0.0017697605,0.002228702,-0.002139937,-0.0019584491,0.0045642215,-0.00453419,0.0005040239,-0.0021788692,0.00076721807,-0.0019518308,0.00010956501,-0.0024184973,-0.0022744662,-0.000494981,0.00093926,-0.00062268926,-0.002591622
CELA2A,-0.0018012791,-0.002145187,-0.002309459,0.0026537492,0.0021782243,-0.0013914214,0.00031679255,0.0036961169,0.0013137135,0.0042040832,-0.00073136087,0.008452602,-0.00037182364,-0.008513399,0.0074274773,-0.012773229,-0.0041116476,-0.0013123283,-0.0037449328,-0.005138018,-0.00513229,0.00090367126,-0.0062257443,2.4164809e-05,0.007848961,0.009139048,-0.0069773286,0.0105518885,-0.017082406,-0.005506918,-0.004866254,-0.0017297424,0.007369242,-0.009034313,-0.0032892423,-0.0057279165,-0.0007687145,0.009590167,0.003214555,-0.00023682162,-0.00940849,-0.004301405,0.0041565355,0.0077244644,-0.00012929756
CELA2B,0.0013795095,0.005576477,-0.00015408297,-0.0018342641,0.00048336532,0.001062275,-0.00651578,0.00047304796,-0.0008776354,0.02380512,-0.001285202,-0.041120503,0.00868722,-0.013130816,-0.02329755,0.014434217,-0.02115292,-0.011637779,-0.010373255,0.005617776,-0.00629757,0.0054230043,0.011810491,-0.0013619036,0.018550023,0.0054526203,-0.0010680823,0.01996276,-0.012768826,0.01829028,-0.0018144046,0.013902611,-0.01073712,-0.0029610866,-0.009339238,-0.0048541036,-0.0018589195,0.00685232,0.008903466,-0.0032153504,-0.016802879,0.011764782,0.00063137844,-0.005198037,-0.0002903306
PLA2G2C,-0.002504712,-0.0033392527,0.0012817044,-0.0008462406,-0.0015817954,-0.0037058166,-0.004238124,0.00044400577,-0.00091512076,0.004144102,0.00030888084,-0.0020958642,0.0019691244,-0.0036221603,0.0046603265,0.008929434,-0.00076251535,0.0012162802,0.0028547733,-0.00079610164,0.0007674565,-0.0047567794,-0.003608497,0.0026275415,-0.003820609,0.0053019286,0.0007288245,-0.0044992003,-0.0030949032,0.0013659976,0.0062132482,0.0044962284,0.007708764,0.013893004,0.0025038782,0.00027453396,0.0017657488,0.013250384,0.002519785,0.0032898409,0.00951087,-0.0069587533,0.009367949,-0.008848108,-0.0022671195
HP1BP3,0.00811722,0.0051953923,0.011099603,0.00036620087,0.012696426,-0.0053091906,0.00035743535,-0.0109244315,0.013288069,0.002040673,0.006822812,4.7823818e-05,0.0159474,-0.010653781,0.009078289,-0.0012035004,0.0018741685,0.0024545146,-0.0061229407,0.0025547214,0.0013374687,0.020354144,-0.011179454,0.010777293,0.00194655,0.0027736719,-0.0060617747,0.0036445188,0.0050753783,0.0038776747,-0.00028249793,0.011154235,0.01581328,-0.004962213,0.0131846145,-0.004710422,-0.01252882,0.010501415,-0.008222695,-0.0019699999,0.004700536,-0.0015341069,-0.0043176124,-0.007205188,0.0026417032
CDC42,-0.0049686213,9.0374175e-05,-0.0024039447,0.00037496985,-0.008630472,-0.0066811186,-0.0019331746,0.00542542,-0.0012694971,0.005738798,-0.0020648935,-0.005383978,-0.00235533,-0.0054018637,0.002217557,-0.008693747,0.00017226949,0.0019571877,0.0028123313,0.0022270011,-0.0018285739,-0.0028825654,-0.0023796214,-0.0056340406,-0.0025995362,0.0031072919,0.007992238,0.0031714062,0.00521954,0.0069688247,0.0010161069,-0.0054934756,-0.0027464998,0.008940162,-0.011843258,-0.0021050144,-0.00466444,0.0038502607,0.0011895954,0.0006699609,-0.0011782558,0.006660721,-0.006080128,0.005821702,0.0066015087
ZNF436-AS1,0.0017819897,0.0044735214,0.0024630204,0.0018317536,0.0022166232,0.0050785686,-0.0028145225,-0.007926224,-0.0035828943,0.004894057,0.007970988,0.002219929,0.010027631,0.0007081688,-0.0034988238,-0.01349913,-0.0025938677,0.0017764767,0.0031487874,0.0081207855,-0.0033949246,-0.00977598,-0.011020919,-0.00086937676,0.0047437074,-0.0012275721,0.002219171,0.0029981225,0.00015658171,0.007219729,-0.0004171874,-0.002390661,-0.0057370965,-0.007230548,0.0039023233,0.008213392,0.0026772842,-0.01109499,-0.0017209538,-0.0024914942,-0.006468933,-0.012727316,0.006297273,0.001952531,-0.008981522
ID3,-0.00038545413,0.03726952,0.024890918,-0.011712498,-0.007938841,-0.007370108,-0.009517647,-0.012884548,-0.0076204957,0.07106499,0.028665366,-0.0034641107,-0.016065951,0.0068667606,-0.0022186297,-0.08364238,0.012074779,-0.004804843,0.0020811833,-0.014940211,-0.006232205,0.008043366,-0.047250822,0.015765235,-0.011986902,0.010554863,-0.0020933622,-0.008378163,0.0013513906,0.0033799822,0.008661947,0.0063658594,-0.01092506,0.019705074,-0.009988133,-0.007019543,-0.03766636,0.0033036943,-0.016035635,-0.02030845,0.018818196,-0.026936969,-0.013824072,-0.03637003,-0.024643369
HMGCL,-0.00069951714,0.0053715045,-0.002804495,0.0010871493,0.003923832,-0.0038268846,-0.00023614414,-0.002861761,-0.0011098536,0.013581578,0.005894292,-0.0057424465,0.012530891,-9.3706796e-05,0.007806022,-0.0028542622,0.0023701233,-0.010318513,0.0016865737,0.007825337,-0.0052855546,-0.0031334865,0.005268935,-0.0073246863,0.002583438,-0.007953296,0.009006875,-0.0055526486,0.0011040928,0.0032713162,0.0024879298,8.161858e-05,0.0006323332,-0.005812156,0.004599041,-0.002307005,-0.009235676,0.0061936066,-0.00922089,-0.00027274023,-0.0064585214,-0.004896789,0.012056969,0.0013854764,-0.007040493
FUCA1,-0.0006467395,0.0050420174,0.0014737997,0.0023227115,0.0033461421,-0.0032778142,-0.0027212396,-0.0025265047,-0.0055221315,0.0057122484,0.0077421553,-0.00051048,0.00046869658,0.002120334,0.0035993617,-0.012664747,0.0018126619,-0.00783619,0.006232913,0.004941368,-0.0035497828,-0.0006062812,-0.0043571014,-0.0072203814,-0.0019217705,-0.004257936,0.0020422474,0.0010187231,-3.756517e-05,0.0055334936,-0.0033964603,0.006102096,0.0047741947,-0.0033744867,0.005293665,-0.0033667542,-0.0034711096,0.005110425,-0.0061293375,0.0025885603,0.0052889343,0.0024734193,0.0129868295,0.010026877,-0.0037199243
CNR2,0.00020980406,-0.00094933604,0.00076048524,0.0007651526,0.00045864575,0.00066933286,-0.0008783168,-0.0009443952,0.0016057019,0.0010445439,-0.0003648069,-0.0009754021,0.00073282653,-0.0011439911,0.0024800196,0.0024406195,-1.523089e-05,-1.9501646e-05,0.001866637,-0.0011174083,0.0009754073,-0.0010617968,0.00031977796,0.0001583773,-0.0010514494,9.242639e-05,-0.00047694912,0.0002490727,0.0006757277,0.0025414645,-0.0020673326,0.00119757,-0.0038389028,0.0006089639,0.0013420634,-0.0010965435,-0.0025964796,0.0010175861,0.00029581608,0.00024074485,-0.0006574226,-0.0012906961,0.0014376127,-0.0006886978,0.0007468679
SYF2,-0.004326197,0.0020460342,-0.0139020225,-0.00057904795,-0.0022367814,-0.011383059,-0.0036513375,0.0026488062,-0.0043552183,0.0034935493,-0.00742152,-0.008715067,0.0036475842,-0.006898579,0.006433208,-0.007556837,0.007839682,0.009002949,0.006057874,0.0072301105,-0.004744198,-0.008594744,0.013416319,-0.021702195,-0.0032120573,-0.0025295024,0.003907427,-0.0027142437,0.008423043,-0.0013360042,-0.0026237827,-0.0057741646,-0.011118628,-0.0016086893,-0.0066993134,-0.0040406957,-0.0097698895,0.015317298,-0.012350734,-0.003879628,-0.002119498,0.0072825323,0.00860357,-0.0064049563,-0.0023178076
RSRP1,-0.004095246,0.0018033304,-0.003050367,0.0036748084,0.0033994887,-0.001321431,-0.0065958197,0.00077956484,-0.008842743,0.009630088,0.005266949,0.0048634587,0.0054903273,0.0012574773,0.0008706049,-0.009950057,-0.0032443418,0.004097026,-0.00083895953,-0.0017173111,0.006686189,0.0024645387,-0.00041901256,-0.0057965983,0.0003225209,-0.0053787245,0.0034315696,0.0025049075,-0.0026144488,0.0038987661,-0.0010450036,0.001916481,0.0034188668,0.0018767401,0.0013893637,0.012752032,-0.0018655455,-0.0034919214,-0.008284989,-0.0037810716,-3.9554223e-05,-0.0063293898,0.011808643,0.0062292228,-0.010593861
MAN1C1,0.00025610148,0.00086529425,0.0011098414,0.0016872948,-0.0014643634,-0.00082194805,0.00026149812,0.0004622864,-0.0005650555,-0.0026932703,-0.0011463996,0.0026663856,-0.006370618,-0.0033978596,-0.0007071554,-0.0016582988,0.0010526452,-0.0013413385,0.0031981529,-0.0013524381,0.0025100762,0.0004378872,0.0001583582,-0.0006330135,-0.0010661825,0.0001786597,0.0029809184,0.0061188,-0.0018838301,-3.314594e-05,-0.0012181588,-0.0012339536,0.001021027,-0.000647348,-0.0019132774,-0.00239948,-0.0019901737,-0.0005180579,-0.0012542353,-0.0014626133,0.0010665782,-0.0010465166,-9.063521e-05,-0.0006385,-0.00057698943
PAQR7,0.0015906139,-0.0010297206,0.00057720894,-0.00042779677,-0.0009533773,0.0026499082,0.0020268618,-0.003158452,0.003644993,-0.00051049213,-0.0032575708,-0.00011809421,-4.0938343e-05,0.0011216582,-0.0021385404,-0.0041158665,-0.0025225754,0.00023822438,0.006835815,0.005643338,-0.0012046912,-0.0028263822,-0.0018993841,0.005608507,0.007618142,0.008653049,-0.005920327,0.00051671214,0.0007361482,0.005175738,0.00014634947,-0.0028790247,-0.0053111124,0.00023960433,0.004594877,0.0004013157,0.0025998289,-0.003681098,0.0015115967,-0.0029471323,-0.0025828264,-0.0033809799,-0.003115559,-0.0035351892,0.00029533784
STMN1,0.0051331636,0.008337476,-0.010856701,-0.0089187175,-0.008146825,0.0033997125,0.004023239,0.010883959,0.020780493,0.013444205,0.0014630146,-0.0025119407,0.0038463036,0.012823947,0.021950642,0.019088442,0.023687705,-0.0024042344,-0.008566899,0.016099595,-0.016649727,-0.009924732,0.011939079,-0.014606274,-0.006307806,-0.0041543185,0.0052556694,-0.0057009696,0.02678687,0.0014188787,0.009608747,0.0026653563,-0.0068954965,0.013744852,-0.013949857,0.005801954,0.007171143,0.031886064,0.024727052,0.0009635894,-0.0016581593,0.0060975007,-0.053692415,-0.02092748,0.0041939854
EXTL1,-0.00019072124,0.0016160418,-0.0005900832,0.0014195421,0.0007394482,0.00076431344,-0.0011532496,-0.00059569377,-0.0018845806,0.0052268473,0.0030465797,-0.0030285409,0.0019955228,0.0025940575,-0.002526533,-0.0042735753,-0.0014877857,-0.0035302406,7.927787e-05,0.0042254278,-0.0008358989,0.0052158646,-0.0004976815,-0.0017461405,-0.00035668316,-0.002899282,0.0005793918,-0.001966944,-0.003510941,0.0009429703,-0.00038724672,0.00083066174,0.0032818902,0.0034356813,0.00022714568,0.0014314001,0.000106774554,0.00048308144,0.0003961434,-0.0031258382,0.0022458865,-0.00012673336,0.0010142581,0.00063532684,-0.00225536
TRIM63,0.00028307014,0.001715426,0.00029962184,0.000709586,-0.00095787336,-0.0025650826,-0.00067983137,-0.0033339907,-0.0006596226,0.00016325798,0.00052810466,0.00091493345,-0.001833475,0.00048600635,-0.0062072887,-0.0014635148,0.005972306,0.0016048996,0.0029655695,-0.006248933,-0.0017919027,0.0049595796,0.00013277384,-0.00091500714,-0.005259134,0.0036558968,0.005950657,0.0046620904,0.0035896006,0.000982463,-0.00455753,-9.983875e-05,-0.0017090583,0.0051131276,0.00026913412,-0.0056950725,-0.007071302,6.9272464e-05,-0.0009205467,0.014858628,-0.0043315,-0.015394736,-0.0010047609,2.6839467e-05,0.0031747296
SH3BGRL3,-0.00528523,0.007332908,0.0019265852,0.024546256,-0.008332421,-0.027921524,-0.0020605747,-0.011793327,-0.017786536,0.017822482,0.0060506053,0.022815164,-0.008155158,-0.01364756,0.020410577,-0.030625464,0.0071245604,0.0049784007,0.008369219,-0.015667237,-0.0013278305,0.013146192,-0.0016748707,0.0053592487,0.010946598,0.0073531144,0.02561457,0.040488064,-0.014160864,0.028520755,0.0066258884,0.0020263218,-0.00860029,0.016708454,-0.017435253,-0.026170647,-0.031120079,0.011115487,-0.044020344,0.015454256,-0.009332934,0.00497598,0.024587266,-0.0057824706,-0.015890028
CD52,-0.005259484,0.0018411638,-0.005843381,0.02114068,-0.0025802578,-0.01654825,-0.010134505,-0.0072257067,-0.016644774,0.016498547,0.0021280276,0.018522142,-0.0044474006,-0.012512457,0.011714371,-0.023636673,0.0035939761,-0.0011646729,-0.00277395,-0.0064392565,-0.016257448,0.0020468158,-0.0018223752,-0.00326851,0.0048442534,0.0038059247,0.006697617,0.015603665,-0.014602242,0.016703743,7.269865e-05,0.0063176197,0.010092934,0.019292023,-0.008822295,-0.006251022,-0.022527246,0.015640898,-0.018789286,0.0036660705,-0.0010578306,-0.004868318,0.033810705,0.0038827981,-0.017177824
LIN28A,-0.0005593529,-0.0005567568,0.0012195231,-0.0007363832,-0.00014732839,0.00042092177,0.00075100345,0.0011899217,-0.0009202949,0.0013244019,-0.002145306,0.0006976792,-0.0012470876,0.0023695421,-0.00011839337,0.00073639385,-0.00032729056,0.00025726657,-0.0031930609,-0.0013016405,0.00039514882,-0.00041659764,-0.000360714,0.00092335977,-0.0017983959,-0.0036479272,0.0014651028,0.0006794847,-0.0003409317,-0.0012477981,-0.00024362378,-0.00046210145,0.00012964832,0.0001556935,0.0014948152,0.0013223,0.0032768326,0.0006541283,0.0009360093,0.0011907618,-0.0018011167,0.0005736024,-0.00032716262,-0.0011594692,-0.0020011384
HMGN2,0.0041629444,0.004179127,0.010794234,-0.012817167,-0.0063656475,0.003291396,0.0054101218,0.008271132,0.018012403,0.007441897,0.012664258,0.0011842662,0.005431353,0.012714511,0.018781856,0.029082108,0.01916029,-0.013038638,-0.0068964027,0.006892963,-0.009094738,0.009255661,-0.009598491,0.012641,-0.009334937,0.0019514861,-0.0021611543,0.0059735524,0.023163345,0.0026713863,0.020174433,0.0016697184,0.011597369,0.021188945,-0.00071793573,0.002954258,0.011177196,0.03273173,0.029314704,0.0047159772,0.0038904888,0.006313277,-0.046809718,-0.018033043,0.0090774875
NUDC,-0.006934237,-0.00078373967,-0.0059684827,-0.008714394,-0.017525818,-0.0071485126,0.008242755,0.030537564,0.009202097,-0.0008081848,0.0001571233,-0.0019376675,-0.012324907,0.0060207862,0.01391718,0.0117837,0.014270673,-0.0017987274,-0.0018746903,0.00325977,-0.009575518,-0.01345986,0.0010396631,-0.017654665,-0.009197786,0.0050920765,0.0033083444,-0.005746065,-0.0006446304,-0.015678558,0.0012469882,-0.014765864,-0.016214982,-0.00024270167,-0.03119951,-0.008444121,0.004386448,0.03393495,0.012485569,0.017305078,0.020359427,0.04116331,-0.037027292,0.012500978,0.026841044
SYTL1,-0.0015136265,0.0015150452,0.00093318213,0.0023763236,-0.004373836,-0.004476718,-0.0043184687,-0.0037286808,-0.00474776,-0.00029617263,0.004127201,-0.00029527108,-0.004421999,-0.00533351,-0.0037137792,-0.0044836528,0.0019239482,-0.0035500245,0.0032518094,-0.0018497107,0.001276076,-0.0031846585,-0.006034863,-0.002586105,-0.00076026784,0.0028633939,0.006767353,0.0001442877,0.0031797555,0.002780341,0.009511882,-0.0021969136,0.010387123,0.023756288,-0.0019320672,-0.0040897788,-0.0048102387,0.0035035112,-0.006915062,-0.0003537474,0.011319527,-0.007909019,0.013201662,-0.0097170975,-0.007147357
IFI6,-0.003965648,-0.0031355536,-0.006500262,0.007793756,0.0012049779,-0.006319067,-0.0079354765,0.0024002243,-0.009386296,0.0056306366,0.0072558145,0.00017301322,0.0060395254,-0.0016067411,0.004605851,-0.007596662,0.0024783104,0.0035019894,0.0079304585,0.0024137232,-0.0055301073,-0.0005329879,-0.0021311452,0.0021816983,0.0067498763,0.000940064,-0.01457575,-0.00842805,0.0072663208,0.0041138614,0.0027985438,0.0029172674,-0.004469354,0.0005076102,0.004239196,-0.00450237,-0.0001423425,-0.0012487648,-0.0065512764,0.0009837458,-0.0046356358,-0.0038539574,0.012890814,0.0036306414,-0.0050296998
THEMIS2,-0.004321657,-0.0058235675,0.0014700823,-9.361951e-05,-0.004486222,-0.00613684,-0.005504882,0.000102067715,-0.0059818556,-0.010307779,0.0073837265,-0.00030324975,0.010441419,0.00051041215,0.000820752,0.011451406,-0.0029438953,-0.004914884,0.000107984735,-0.0037528335,0.00010765447,0.00032319262,-0.008374232,-0.0012416997,-0.0072879298,0.0073435525,0.0038164896,0.002796512,0.00046425808,-0.0018852811,0.0061621596,0.0039171902,0.0072007696,0.027425809,-0.0038362362,-0.0020523996,-0.0002832658,0.008267437,-0.008993992,-0.004417336,0.0078031574,-0.004517419,0.023475153,-0.0093665505,0.0023490072
PTAFR,-0.006706967,-0.005878855,-0.0006683144,0.0023753028,0.0010272154,-0.005850425,-0.009282373,0.0071851145,-0.011945425,-0.0016285268,0.012457943,-0.004327509,0.017604029,0.011826304,0.006917261,0.028530343,0.010115506,-0.0041807094,0.006090309,0.006988167,-0.000990253,0.009427907,0.010223191,-0.0052152216,-0.0064278916,0.0017038027,0.0021692587,-0.0035786168,0.0020022949,0.0035379974,0.0039320146,0.004595973,0.0013655551,0.02296513,0.010062185,-0.00053182757,-0.0009808886,0.02348497,0.0021725553,-0.0024892981,0.011305936,0.005588388,0.03858489,0.016340677,-0.0011924879
SESN2,0.0021593974,0.007921116,-0.0025800134,-0.009039015,0.010552727,-0.009529107,0.0047500585,-0.0038131627,0.0054593766,0.0061843456,-0.0016675924,-0.011930422,0.0070430995,-0.010153395,0.013672584,-0.0124010015,0.0010129478,0.002340106,0.0009763588,0.0029089216,0.0034899216,-0.0005504444,0.008258375,-0.0026730257,0.0005596159,-0.00789457,0.0020544708,-0.006806919,0.0038658325,-0.005120573,0.0023964227,0.0050469493,0.007544072,-0.010645788,0.018344965,-0.0018255884,-0.015424684,0.0135206515,-0.017140247,-0.0012008236,-0.0024375187,0.0009876288,-0.000472939,0.00018154069,0.0036438724
OPRD1,5.6369026e-05,0.00043115977,0.002153438,-0.00249786,0.00079603,-0.0006409337,-0.00067529746,0.0002942123,0.0004574083,-0.0005238726,-0.00049891527,-0.0001212995,0.00011925433,-0.00023455624,0.0022817224,0.0005336139,0.0019039485,0.0009574205,-0.0030284368,0.002638842,0.0005445498,0.0009965386,-0.0036631515,0.0018450061,0.0010672609,-0.0043257587,-0.0010965565,0.003307978,0.0034137643,-0.00057630095,0.00022632263,0.00039312223,-0.0023469462,-0.0020192154,0.0029655832,0.0014097805,-0.001630404,0.0016728007,0.0003199093,0.00011222967,0.0028761954,-0.00017536909,-0.0003542945,0.0015779985,0.0019519608
LAPTM5,-0.00029049558,0.002199609,0.00027063035,0.00821253,-0.014504597,-0.019168945,-0.0054539186,-0.0074823922,-0.0033390408,-0.004768871,0.0011687143,0.015079345,-8.124065e-05,-0.0049811015,0.01047361,0.0021797947,0.013442312,0.008240726,-0.0035478193,-0.0065567684,-0.0005824438,-0.002079881,-0.0012079936,-0.0027784342,0.0027506305,0.015636511,0.007957706,0.009377918,-0.010043286,0.0002853041,0.010695202,0.0029753617,-0.0057141325,0.029512495,-0.023465449,-0.016337762,-0.02748078,0.02024729,-0.024004502,-0.0028834334,-0.0024740915,0.00060563826,0.017786032,-0.013606237,-0.0022485855
FABP3,-0.0025871014,0.0017706671,-0.00573922,0.0019102045,0.005357179,-0.0057745883,5.1861283e-05,0.0009870444,-0.0069746184,0.0075859306,-0.019565197,0.00038833654,0.01884109,4.760839e-05,-0.0050548147,-0.00074143574,0.0019430864,0.0113729285,0.009233403,-0.01819479,0.00041276633,-0.0015923396,-0.00019082651,-0.00069455773,0.00086344127,-0.00936078,-0.0011905979,0.0012157307,0.0035171513,0.005015893,0.004469898,0.010288603,-0.006631841,-0.002361792,0.0037878708,0.0046275877,-0.0036599273,-0.011750457,-0.004901013,-0.0015879916,-0.0057579856,0.009526429,0.0018097991,0.007503444,-0.007827034
SPOCD1,-0.0020775478,0.0012796709,0.002078136,-0.003997394,0.0008189954,-0.0051080827,-0.0010459479,-0.00026701018,-0.0022854614,-0.003799467,0.0069505773,-0.0051862034,-0.010569673,0.0010197205,0.011099986,0.00042859744,0.00020517732,0.008999488,-0.007206945,-0.012952079,0.004967626,0.0071599055,0.004955119,-0.014435813,-0.0081363395,0.007526164,0.0034603092,-0.004280541,0.0036562213,0.015041646,0.008656223,-0.0027031917,0.0003703547,-0.009699336,0.016371818,-0.0073640943,0.004835978,-0.008661424,-0.0074814237,-0.00873684,0.0011195136,-0.005258091,0.007332792,-0.004548492,0.008746243
LCK,-0.001304828,0.0001358668,-0.00028759427,-0.0018765605,0.0009646244,-0.0007242996,-0.0026966112,-0.0007114454,-0.0015542671,-0.005500683,0.0019523652,-0.0006475758,-0.003908025,-0.0015210646,-0.0032039213,-0.0015527739,0.0062939594,0.00026678084,-0.0017381033,-0.011973146,0.002493103,0.012804561,0.005038775,-0.005487596,-0.007298863,0.005558502,0.005464476,0.0022886458,-0.0018880875,-0.008071916,0.0063911104,-0.0076259505,-0.014383919,-0.007386172,0.014128086,0.0036469705,0.013038391,0.0037605383,-0.009536739,0.0026743298,0.010477854,-0.004224953,-0.00025046605,-0.010410051,-0.00758088
MARCKSL1,0.0026235136,-0.0062769367,0.005412822,-0.0153551055,-0.013189818,0.00410389,0.0033710757,0.013202299,0.004598613,-0.010034856,0.010271418,-0.014282753,0.011250826,0.009383935,-0.032691516,0.025460621,-0.0021831323,-0.005466009,-0.00695734,-0.003524303,0.008064004,-0.009385611,-0.0033833475,-0.0028514238,-0.013150194,0.0041534323,-0.01673821,-0.03584601,0.017926468,-0.013144271,0.009845985,-0.012007157,-0.0017657913,0.03301088,-0.013221745,-0.0068838145,0.014501876,0.030970523,0.02730459,-0.0077126743,0.03357379,0.007291338,0.0029970119,0.0019462863,0.02083894
BSDC1,0.005207597,0.0022084774,-0.003133275,0.0058649178,0.008616432,-0.0054366332,0.0022395474,-0.013951551,0.0005180167,-0.0014191687,-0.015550482,0.00950314,0.010360682,-0.003920961,-0.0010042113,-0.008487059,-0.0023073074,0.014740492,-0.011632943,-0.008208698,0.008886088,-0.0030829224,0.008016077,0.0034756898,0.0049394453,0.0023779345,0.0022135065,-0.0067342035,0.0019167949,0.0066931886,-0.005878046,0.017745433,0.0037097554,-0.00837445,0.008916954,-0.003617313,-0.009886088,-0.0027158887,-0.020137165,-0.0040316563,-0.013420314,-0.007729422,0.006109619,-0.012001296,-0.013775789
TMEM54,0.004743975,-0.012949497,-0.0073458343,0.017684672,0.016650964,0.009422638,-0.009014821,-0.0035709485,0.011672396,0.00042407258,0.0060720257,-0.0044944435,-0.010706162,-0.032116555,-0.012266327,-0.0027046085,-0.0106403325,-0.0052041193,-0.011646052,-0.016136197,-0.02620173,0.0033515769,-0.0015156034,0.0012276656,0.0015746184,0.018721623,0.023872938,-0.003459955,0.009555304,0.015060107,0.009226279,0.03536292,0.0153399715,-0.008183772,0.012816328,0.03052716,-0.005766223,-0.014404847,0.019617489,-0.0039505884,0.0015444051,-0.0009808003,-0.015240864,-0.019554637,-0.0072995825
PSMB2,-0.008271892,0.0030860396,-0.022193594,-0.0043628584,-0.0135630835,-0.007567945,0.005847214,0.030115658,0.005555223,0.013189846,-0.015670158,0.00033226746,-0.010841157,0.007238763,0.021097336,0.005407947,0.014235714,0.005256082,-0.000116809286,0.0048056254,-0.020668888,-0.030442951,0.014923297,-0.029007332,-0.007872119,0.0061874418,0.0037604687,0.002293544,0.0070005506,-0.007642271,0.0005038222,-0.011668135,-0.019344568,0.003199136,-0.029437995,-0.015588607,0.0023933447,0.02944371,0.009829427,0.017450137,0.007518193,0.033017993,-0.042074457,0.005218628,0.01771362
CLSPN,0.0046720114,-0.0013556577,-0.00026594388,-0.0036497852,-0.006931309,-0.0006271763,0.015091385,0.010405504,0.0076295566,-0.0025177833,-0.0032909287,0.002697339,-0.00893562,0.0030711165,0.006288914,0.019989666,0.0063123116,-0.0053027417,-8.018327e-05,-0.0024468678,-0.0056629647,-0.009475338,0.00068389496,-0.0001943581,-0.005896357,0.0012035937,0.0021746627,-0.001559245,0.0017898094,-0.0026522626,0.004519836,-0.0058163297,-0.0047791204,-0.0022798518,-0.010717324,-0.011224341,0.012005514,0.022944352,0.0063533825,0.0111315735,2.8589418e-05,0.018536773,-0.02947827,-0.0061790664,0.011984264
MAP7D1,0.0062391507,0.0046458375,0.003620249,-0.002598864,0.00020102358,-0.004581819,0.0041984525,-0.0017019728,0.010554225,0.0028575212,0.0022409,-0.0068133096,-0.0028201574,-0.005424078,0.0023595083,-0.001518422,0.005455251,0.0065410715,-0.002436202,-0.0056951027,0.007166034,0.004305027,0.0022451142,0.0047507077,5.7049223e-05,0.004550706,0.0042866906,-0.0070720916,0.00796638,-0.0034683289,0.00013933663,0.001218136,0.0033839687,-0.002358187,-0.00080201996,0.00069286436,-0.0032750845,0.02100429,-0.004822696,-0.003405389,-0.0013246039,0.0024245393,-0.010288214,-0.004895188,0.0073517743
CSF3R,-0.0066401917,-0.008669664,0.0034871774,0.0062214,-0.0077013155,-0.018843792,-0.0135885235,-0.009842813,-0.014929744,-0.011983884,0.018754961,0.00359327,0.0068852548,-0.0092559755,-0.0040333914,0.015867436,0.00277142,-0.011708732,0.0002943896,-0.011071654,-0.009919776,0.0068862955,-0.008225727,0.0012578185,-0.0010381291,0.011057942,0.0034419275,0.004645523,0.00013288058,0.0049743545,0.009374141,0.005556273,0.012104784,0.05382056,0.0058214907,-0.008147439,-0.012852608,0.026709836,-0.020868676,-0.00648992,0.010061421,-0.009699031,0.064845055,0.0010261683,-0.0068734298
CDCA8,0.007526151,0.0005387668,0.009166666,-0.008400724,0.01198614,-0.014534888,0.00480586,0.0020076826,0.026013216,-0.0072905496,0.008083764,-0.0034246563,0.005228828,-0.017320301,0.0033673765,0.0101543,0.0033376294,0.0002968922,-0.0059532537,0.001081471,0.0001709433,0.015825463,-0.004880682,0.013606424,0.00052164117,0.006477603,-0.0050076507,-0.013627941,0.0020283947,-0.013954476,0.0020409585,0.022183407,0.013214599,-0.0049562147,0.008858333,-0.021126924,-0.025980864,0.026153645,-0.0049516605,0.0032395576,0.00848497,0.017840063,-0.020453788,0.0013732215,0.026890988
RHBDL2,0.0019040471,0.00020167677,0.00014943254,-0.002341791,0.0017887142,0.0023558496,0.0007358401,0.000379574,0.0018158006,-0.001182641,0.00062450673,-0.0012187632,-0.00028881204,-0.0007455892,-0.00055102404,0.0015634949,0.0015262016,0.00014064278,0.0008586452,0.0022692394,0.00020374158,6.470206e-05,0.0014227318,-0.000268779,-0.00145214,-0.00023519377,-0.0023054187,-0.00096424296,0.0010994475,-0.0015572242,0.0004597244,0.0020553635,-0.00026473348,-0.00038258496,0.0016809751,0.0026172742,0.0037178216,-0.0001588919,0.0027009023,0.0019234924,0.0012843953,-0.00023995979,-0.00204674,-0.00052646315,0.0015849097
MACF1,0.0045325584,0.007241123,0.011474874,-0.00048700225,0.002045712,0.000551588,-0.002134755,-0.006156845,0.0034912515,0.008917284,0.00770196,-0.00024020954,0.0025019622,0.002531211,0.0028640416,-0.006079489,0.0010610186,-0.0017813001,0.0030985898,-0.006786872,0.0046808473,0.007662754,-0.013132292,0.012434165,-0.0034511618,0.006730766,-0.006032402,0.00069685763,-0.0008400303,0.006856206,0.003541894,0.0021647443,0.0066051595,0.002068277,0.002758565,-0.006345343,-0.004183938,0.00075060857,-0.002545878,-0.009157616,0.010875026,-0.008761309,0.0025714298,-0.0034645954,0.0027992409
CAP1,-0.00065365504,0.01073372,0.0022147323,0.002616573,-0.0059626037,-0.014981949,-0.004507627,-0.0023189336,0.0023708874,0.012441807,0.008658214,0.0025722063,0.0013569621,0.003462979,0.0069781565,-0.0129344035,0.011415322,0.004853655,0.003486841,-0.0052246586,0.004874001,0.00360565,-0.006529129,-0.0065050377,-0.005464118,0.0026850349,0.0017095138,0.0027744495,0.004670142,0.0063474374,0.003013588,0.0035486866,-0.0058792336,0.00998134,-0.011253015,-0.012424046,-0.022201726,0.02394295,-0.01337216,-0.0017444253,0.0065380675,0.0018770812,0.0011060758,-0.005264892,-0.0018398176
COL9A2,-0.0021811894,-0.003067604,0.0013830131,0.0020543905,-0.003880904,-0.008869431,-0.008463217,-0.0081035,-0.008904788,0.00023048201,0.008643609,1.5198595e-05,0.004178757,-0.0042463783,-0.0021327706,0.005008801,0.0020484629,-0.004667031,0.0044611166,-0.0022224153,-0.004892483,0.0030058832,-0.0014028081,-0.0009128723,-0.0050928365,0.004528823,-0.0006524375,0.0013971139,-0.0010706814,0.0043924404,0.002373875,0.005081367,-0.001785156,0.017683603,0.003190288,-0.0035107227,-0.0122929765,0.013449345,-0.008368064,-0.004378803,0.003246229,-0.006754176,0.037642617,0.004437131,-0.0065297377
SMAP2,0.0023203103,0.0041393596,0.0011139001,-0.00066180446,-0.0002316452,-0.0021272341,-0.001773152,0.0006270486,0.0003471556,0.005462027,0.0039310404,0.0014062646,0.0048052697,-0.0029628712,0.0025773954,-0.007828996,0.00050505635,-0.00083708414,-0.006679319,-0.0077541703,0.00286715,0.0051778336,0.00018745074,0.0037054247,0.002612722,0.0051069637,-0.0027878305,-0.009677679,0.0013867457,-0.0016734125,0.0036613485,0.0037983574,0.014585524,0.009828109,-0.0019043502,0.0006774929,-0.0033675847,0.012622068,0.00046300818,-0.00024820265,0.010930531,-0.0008433735,0.0028596597,-0.0017434834,0.0026486705
CITED4,0.0003023755,0.0008584348,0.004560567,-0.001165863,0.0023075044,0.0010421295,0.0034431776,-0.0026783925,-0.002295615,0.002812646,-0.00184829,-0.005796831,-0.0036074182,-0.0020400353,0.0047017825,-0.0009957417,-0.0013148123,-0.0015701423,0.009686927,-0.0046299193,0.013597438,-0.00067035697,0.00010474468,0.005727586,-0.003960342,0.005224269,0.0063298424,0.0043763677,0.003058772,0.0022598065,0.0041827853,0.0032660367,0.0066574733,-0.012435202,-0.00028118084,-0.000615427,0.0076006535,-0.0049311486,-0.0005960756,0.004191296,-0.0011865839,-0.006153739,0.0014748349,-0.005532989,-0.008603195
FOXO6,0.0001399567,0.00042014153,-6.97308e-05,0.0022556658,0.0016125629,-0.0008439469,0.0013361505,-4.6101126e-05,-0.0021438084,-0.00085202424,-0.0043332796,0.0027917237,-0.0008359501,0.0008493478,0.0038363913,0.0013845604,-0.0037487715,0.0053002974,-0.0030381144,-0.0009829887,0.002869146,-0.0027129585,-0.002047684,0.0016806388,0.0037746693,0.008062449,0.00037123388,0.0021534709,-0.0048982897,-0.0017068314,0.0011611286,0.007034504,0.002705606,-0.0047842716,-0.0013415158,-0.005809756,0.0040793857,-0.0012128906,-0.00038445572,-0.0012148635,-0.009598859,-0.005120176,0.0007552621,0.0045050224,-0.00097085175
PPCS,-0.000995288,0.0019392467,-0.0025363693,0.0005588162,-0.0039791213,-0.0042146835,0.0011113897,-0.0030396206,-0.0071735913,0.0036294572,0.0044760304,-0.0014758193,-0.00049600407,-0.0038779739,0.0038727736,-0.008905758,-0.00089601637,-0.0033688,0.0066926614,-0.00062080135,-0.0024332635,-0.013227465,-0.0066591995,-0.009543143,-0.0015428315,-0.00082185114,-2.4577373e-06,-0.004019667,0.0040024035,0.0049561067,0.00041252119,-0.0078125335,-0.0056740493,0.0018099592,0.0023551893,-0.008687814,0.00084361446,0.006588763,-0.008373408,0.00070225657,-0.0035666886,-0.005654129,0.013581572,0.0021766657,-0.0029014298
YBX1,0.0047892937,-0.0017234497,0.01297627,-0.020222867,-0.01293431,0.025152195,0.011730383,0.021607343,0.025963968,-0.0051733037,-0.0034705678,-0.0073307035,-0.011589523,0.025670817,-0.0017188562,0.05298098,0.009161848,-0.0033248174,-0.007407518,0.00291561,0.011324976,0.0011517908,-0.010112724,0.020486139,-0.013288629,0.009729895,0.016774511,-0.003653013,0.044225782,-0.0075003225,0.016144855,-0.012865479,0.0007806475,0.025911333,-0.012464524,0.01127481,0.030759929,-0.010788646,0.05460204,0.009697124,0.022447009,0.024005678,-0.0925224,-0.025468683,0.023744533
CLDN19,-0.003711752,-0.0017664337,0.00084750843,-0.0010993743,0.000512657,-0.0007452525,3.21854e-05,0.001978642,-0.0019859914,0.01005262,0.01192909,0.027987065,-0.013706227,-0.000827972,-0.0039919326,0.009652903,-0.011353385,-0.007286564,0.0131785385,-0.0082238605,0.00023119817,0.0028030912,0.007530217,-0.0061275726,0.009833053,-0.007906815,7.421174e-05,0.003668742,0.019825552,-0.016832272,-0.0062526404,-0.0035682407,0.0070674745,-0.0067020464,0.007915581,-0.0122132385,-0.0002478544,-0.0074201133,-0.0015523694,-0.00012688179,0.0044524316,0.002140303,0.00082969374,-0.007947703,0.0019243547
SLC2A1,0.0017406835,-0.0012394399,0.0012493575,0.003524653,0.010701786,-0.0040753568,0.010121084,0.0034250047,0.004112327,8.598401e-05,-0.008361901,0.0032140582,0.00247078,-0.0057510585,0.009043568,0.007418976,-0.002657658,0.0017700992,-0.0090433955,-0.009022835,-0.0005604207,0.0036136059,0.003395297,0.011529227,0.008813792,0.012999854,0.0044874563,0.011216666,-0.007952181,0.001889238,0.00013591119,0.013912157,0.011161672,-0.008704266,0.012047765,-0.0141401095,0.004533122,0.0029474935,-0.003687976,0.01822014,-0.005784139,0.020840192,-0.014519107,0.0017464807,0.0031527341
SLC2A1-AS1,0.000991914,0.0045456816,0.0009739669,0.0058215447,0.008611829,0.0016527479,0.0038945281,-0.007838787,-0.0059931497,0.002377148,0.00024925615,0.010039967,0.0059385058,0.002238179,0.011696901,-0.01109017,-0.0027661582,0.0014802162,-0.0068463115,-0.0033338221,-0.0014773083,0.0019489783,-0.004961596,0.00042422293,0.008432133,0.0066844346,0.0045149587,0.010413432,-0.013662547,0.00013042947,0.00013322728,0.019458637,0.0060607004,-0.015677975,0.0057169995,0.0029100839,0.003150071,-0.01582067,-0.013854791,0.004591266,-0.010898604,-0.0102351345,0.009186252,0.0008670708,-0.010922534
FAM183A,-0.00254015,-0.0005460742,0.00011632902,-0.0018773726,-0.002104355,-0.0020872033,-7.623464e-06,0.002291581,-0.0023715484,0.007600611,0.004590012,0.00086081226,0.0042012907,0.0002441303,-0.00044660154,-0.01021477,-0.0042736554,0.0015443161,0.006332488,0.00260591,0.00027008884,-0.0037799291,-0.0054443525,0.00011694268,-0.00375431,-0.0043809586,-0.004613098,0.00077339297,0.00024899337,-1.5160803e-05,-0.00066936645,-0.001252725,-0.0051480243,0.002236611,0.0022343805,-0.0027118747,-0.0034532133,3.4090182e-05,0.0020007754,-0.00021007689,0.0023534126,0.00039456386,-0.0011218064,0.0045628534,-2.7677343e-05
EBNA1BP2,-0.008065539,-0.0043913317,-0.0102980845,-0.007925692,-0.017020576,-0.00012035242,0.007622732,0.035665914,0.0053911516,-0.0044204355,-0.003988784,-3.8201055e-05,-0.013385524,0.0069703106,0.01131521,0.01588231,0.007538127,-0.0044949464,0.00021304333,0.003644116,-0.011963985,-0.017226793,0.0065972405,-0.01594707,-0.0061478447,-0.0006685301,0.002015906,-0.0063323593,-0.0007141634,-0.0184306,0.004703698,-0.019646214,-0.023964424,0.004789826,-0.031237412,-0.004812014,0.009651675,0.017265221,0.01761762,0.016603602,0.021113463,0.041972604,-0.037093587,0.015862213,0.024773056
CDC20,-0.0029906682,0.004912199,-0.007771091,-0.0073790844,0.0010988228,-0.00986073,-0.0018795851,0.0113641685,0.011343162,-0.0020164375,0.0015815828,-0.004553901,0.0034586678,0.0010199553,0.014452437,0.0064866613,0.015721101,0.0017828784,-0.0015760354,0.01018216,-0.011178252,-0.0063687423,0.008675724,-0.011228155,0.0006179676,0.012453585,-0.0036569918,-0.00510765,0.0071847904,-0.012975557,0.004471542,0.0027954818,0.0051281475,0.001349181,-0.011115983,-0.008775276,-0.009269893,0.019870043,-0.0002983991,0.0027175057,0.011208013,0.018672274,-0.019250734,0.0027270431,0.017005576
ATP6V0B,-0.007261028,0.007997919,-0.010192898,-0.005059628,-0.016329598,-0.015947195,-0.00090304547,0.015146631,-0.00017928978,0.016592378,0.0018004838,-0.007946383,-0.010148408,0.0018913456,0.015529253,-0.018059727,0.011024581,-0.00017736453,0.0053655673,0.0070839883,-0.009147453,-0.009814461,0.005532492,-0.016113667,-0.0054718237,-0.0031696167,0.007503431,-0.0014740129,0.012769773,-0.00090345304,0.0016830524,-0.0076041515,-0.022813167,0.016871648,-0.024974547,-0.014357635,-0.0185464,0.027266337,-0.016628912,0.00549563,0.0155458,0.020414693,-0.006398868,0.012390882,0.013941962
KIF2C,0.010025551,0.0046564178,0.0071824547,-0.003265185,0.011141841,-0.012112568,0.004284632,-0.00187091,0.025669765,-0.005447964,0.0049150772,-0.0013375847,0.0075224107,-0.009648553,0.010435722,0.0061392942,0.008534768,0.00059635204,-0.006228836,0.0013783297,-0.0049085952,0.010679539,-0.0030013083,0.0106132245,-1.9062956e-05,0.009057344,-0.0055474415,-0.003342627,0.0041715438,-0.005789999,0.0029795088,0.01863942,0.014005911,-0.00067159696,0.007841966,-0.018028174,-0.020085178,0.025059853,-0.008401265,0.0015947114,0.0068853665,0.008356177,-0.019785874,-0.010947961,0.019129835
BTBD19,0.00028673027,0.002462037,0.00076783093,0.0017156193,0.0010546847,-8.5680054e-05,-0.00132106,-0.0019958543,-0.0042676646,0.0083873095,0.0027872354,0.0004271362,0.006344018,0.0042572552,-0.0020704882,-0.009744692,-0.0063527417,0.0009990343,0.002509107,0.003088512,0.0014753729,0.0012614772,0.0012852012,0.0027950667,-0.0021005627,0.0017825376,0.0025737358,-0.0030665277,-0.00019054991,-0.00048676977,-0.00059565407,0.005565977,-0.0020316287,-0.0010115784,-0.0042314623,0.00019354392,-0.0047712773,-0.0024917189,0.0024644625,0.00024333624,0.004267986,0.004365115,0.0031798596,0.0063864393,0.0013861897
PRDX1,-0.006970776,0.0049700993,-0.028531061,-0.00868322,-0.024611846,-0.0025167358,0.00886446,0.029141206,0.003197665,0.0139252385,-0.020531956,-0.0048313267,-0.022356045,0.011443635,0.010401588,-0.003101034,0.010936135,0.0052863406,-0.00015113375,0.006843298,-0.02162181,-0.047141008,0.020979118,-0.039444212,-0.0114787705,0.0041347975,0.00042026056,-0.008636253,0.012778717,-0.009087005,-0.0013279893,-0.026066454,-0.04245883,0.0011403378,-0.04816281,-0.01253057,0.0067415987,0.020414062,0.012118583,0.01798446,0.0128187705,0.03247491,-0.045638084,0.0062112766,0.015272009
MKNK1-AS1,0.000777736,-0.000284559,-0.00018564811,0.0014418088,0.0013116342,-0.0011408874,-0.0024996696,0.00040837954,0.00091094465,0.001763749,-0.0025725905,0.00028474713,0.0013877117,-0.0017825544,-0.0011185603,0.0007680913,-0.0018046736,-0.0010407349,-0.0030006273,-0.0027182228,-0.0026729717,0.00026825003,-0.005267523,-0.0018374402,0.0030986692,0.0037209103,-0.0022426548,-0.0010079995,-0.0046587805,-0.005433359,0.0019670553,-0.0004121846,0.0015918581,-0.0012850399,-0.00023652473,-0.00039470106,-0.00029955467,0.00605382,0.0031362548,-0.0009077137,-0.0027596126,-0.0023842677,-0.0006097957,0.0013948744,0.0033707332
LINC00853,0.0017188933,0.0001155664,0.0032568986,0.0015004134,-0.0013425576,-0.0019084791,0.0015571938,-0.007095978,-0.0020385631,0.0024183553,0.0032624626,-0.0011614613,-0.0028950132,-0.0041146595,0.0025174615,-0.0029128932,-0.0012612117,-0.002894234,0.002952362,-0.007230967,0.0017309546,-0.0010708959,-0.0035667715,0.0019002017,0.0020374514,0.0019421366,0.0053858864,0.0029611434,-0.0019377364,0.0025959413,0.00028371328,0.00043902788,0.004153559,0.0034660802,0.003019734,-0.0016456159,0.00026137,-1.4916217e-05,-0.006753681,-0.0012665741,-0.009577947,-0.0053651514,0.005533402,-0.003169786,-0.0063329223
PDZK1IP1,0.00023938842,-0.0013675006,0.003056553,-0.003079165,0.0020408377,-1.5293803e-05,-0.002036982,-0.0029552006,7.6952296e-05,-0.00085802283,0.00034785445,-0.006805042,0.002595062,-0.0029078803,-0.0008553259,-0.002160595,0.0035892837,0.0004883214,0.0022229597,0.010991015,0.0064878236,-0.00057507545,0.005861661,-0.002873091,0.00847888,-0.0028035513,0.008508121,0.0015188038,0.0017116624,-0.0070570037,-0.0008192218,0.008100602,-0.0025731272,-0.012089096,0.00063870876,0.0076961475,-0.00039699217,0.0013252904,-0.0067124674,-0.0008904896,-0.00044339278,-0.0020450351,0.0051431064,-0.00065263547,-0.0035105327
CDKN2C,0.004443381,0.003342644,0.009226832,0.00096883613,0.0028118521,-0.005075041,0.0002852409,-0.00906897,0.0037272521,0.006979415,0.010588034,-0.0015812203,-0.003379561,-0.007370562,0.00301305,-0.008863246,0.007042507,-0.00899113,0.0030631213,-0.0013967286,-0.00055664306,0.0120557435,-0.0076637324,0.008875214,0.004034129,-0.0026563602,-0.000678585,0.0042555085,0.005496207,0.008042426,-0.0018716113,0.010123303,0.008763983,0.0029048955,0.015537138,-0.0072250525,-0.007105828,0.014280234,-0.0046888967,0.0025186897,-0.003419847,-0.0071182037,-0.0042089457,-0.011020231,-0.0035076388
TTC39A-AS1,0.00032820908,0.0038614688,-0.0063353325,0.00044668524,0.0017644584,-0.0037015371,-0.0016492234,-0.00090295036,-0.0005780694,0.0021634917,0.0005484249,-0.004834506,-0.0005624307,0.0044165673,0.0018160731,0.002912099,0.011907001,-0.007207195,0.006229739,0.005286014,0.0008860287,-0.0030454367,0.008310146,-0.006448909,-0.0023812943,0.004561298,-0.0050463323,0.008179595,0.0029538735,-2.1041946e-05,0.0107765,0.014131846,-0.0074803345,-0.020187834,-0.0041787378,-0.00084581104,0.0019113078,0.004680732,-0.0061339326,0.0038859532,0.004884823,0.0015124214,0.004353062,-0.0019309911,-0.0056713712
RAB3B,0.0027509215,0.003970096,0.0012622927,-0.0018645155,-0.0003664184,0.0014199989,0.0013964048,-0.005649125,0.0014192401,0.001693523,0.0009561975,0.002168876,-0.0052482435,-0.0007272353,0.00012702694,-0.008420232,-0.0004371195,-0.0013993114,0.00097313535,-0.0035625186,-0.0027248724,-0.0030264142,-0.008685561,0.0016892786,-0.0028031329,0.0013664829,-0.0009595565,0.0017203322,0.0016576645,-0.0017153941,-0.0005032311,-0.003684735,-0.0013519971,0.003164344,0.003275541,-0.00028360795,-0.00041115802,0.0007565029,-0.0018654293,-0.0019499839,-0.001938445,-0.0027112626,-0.000546647,-0.0067083538,-0.0024193237
GPX7,-0.0028293806,-0.0023219055,-0.00044342258,-0.0002468268,-0.0007207594,-0.0017744667,-0.0028851295,-0.0010479349,-0.0036107693,0.0019074917,0.00071764825,-0.00093277934,-0.00042270098,-0.0059573483,0.0006532313,-0.0057115615,-0.00392438,0.0015573906,0.0006136429,0.0072710863,-0.0019612596,0.0025551843,0.0027359643,-0.0021192792,-0.0044505373,-0.0031679873,-0.0039043021,0.001972183,0.00076351565,-0.0018877967,-0.00067544176,-0.0006758221,0.0043773027,-0.002130837,0.0024409636,0.0010816524,-0.002079799,0.003398924,-0.0022063365,0.0029909313,0.00059249456,-0.0012976577,0.001624363,0.0001910682,-0.003375547
JUN,0.0035517667,0.023095941,-0.025574349,-0.019802798,0.016524974,-0.010940143,0.006228293,-0.0138578,0.003739385,0.020595605,-0.025794622,-0.03918094,0.010602332,-0.007430787,0.03978262,-0.024611576,0.024500042,0.0139993485,0.013339601,0.017012125,-0.004782111,-0.039111886,0.04118449,-0.053157575,0.0012271795,0.0006416122,0.017945388,-0.022494761,0.027370766,-0.006811589,-0.0038431613,0.016653018,0.014882258,-0.025577318,0.022257386,-0.007947103,-0.017064359,0.024522424,-0.03287089,-0.0003414152,-0.020730406,-0.014428005,-0.00045324708,-0.014285119,-0.016094636
LEPROT,0.00090037467,-0.0009046463,0.0037137629,0.0015279915,0.010967995,0.005783481,-0.0010718341,0.0010594896,0.0012185533,0.0047154156,0.006129449,-0.0022916337,0.0024472815,-0.001594232,0.004652794,-0.0019140572,-0.0050098617,-0.0048565585,0.005613644,0.0042325794,0.0013817536,0.010304229,-0.0068723895,0.0045741745,0.00318954,-0.0043990375,0.006302793,0.0012239849,-0.0071260193,0.00030595352,-0.006071596,0.0049015395,0.014129815,-0.015214696,0.012954202,0.006589316,-0.001925048,-0.0035429972,0.009579343,-0.0024776876,-0.004127361,-0.005031859,0.0020234017,0.004591293,-0.0024757471
C1orf141,0.001916595,-5.916434e-05,0.0029492762,0.0029151177,0.004130293,0.0006383758,0.0011738025,-0.00404452,0.00065138075,-0.0008346001,0.0015221183,0.00112929,-0.0005415296,-0.0018736803,0.001383335,-0.0022922272,1.5667378e-05,0.00023795983,0.0031377561,-0.00046633394,0.0034358096,-1.9508749e-05,0.00096769264,0.0056801513,0.003633598,-0.0008376543,-0.0031322283,0.002106192,-0.0028265666,0.0018227529,0.00051191455,0.0045854845,-0.0037206528,-0.0022612226,0.0068482505,-0.000108651206,0.0017487898,-0.0007275673,-0.0014345585,0.00015586907,-0.0025727262,-0.0034940212,0.0021362642,0.0012121275,0.0004478326
GADD45A,9.951469e-05,0.0019185237,-0.0067973,0.002250907,0.008153614,-0.0017511657,0.0077692424,0.010191159,0.0028727439,0.0028012486,-0.00064049766,2.507995e-05,0.0049750675,0.0034393463,0.02628986,0.0060664546,0.006793477,0.007262606,-1.3038948e-05,0.011420106,0.006092404,0.0046495404,0.009356571,-0.01584559,0.007780168,0.0002796409,0.015516265,0.0046008453,-0.00860745,0.002115832,-0.0066512036,0.0019193139,0.0046498417,-0.019718027,0.0051912838,-0.0034625311,0.0053754966,0.01447031,-0.003768279,0.011157256,-0.0077617792,0.011561777,-0.016589811,0.006513304,0.0031865314
FPGT-TNNI3K,0.0011054127,0.00079800014,0.00075207127,-0.0010377144,-0.0015809832,-0.00022670918,-0.0010044897,-0.0007828918,-0.0021859538,0.0016414719,-0.0011033133,-0.0013205678,-0.0048424834,0.002900414,0.0011785637,0.0010364195,0.0011032305,-0.00035034667,0.0015927157,0.0020247,0.00071551255,0.0019052644,0.003500064,0.0038477539,0.0015858918,0.0009527772,0.00060516,0.0022291013,0.006007273,0.0034269914,0.0011392703,0.004465371,-0.0006398311,-0.0024779192,0.002397751,0.0019193077,0.0036600977,0.006686232,0.0019267565,-0.00087247253,0.0015195464,-0.0015252086,0.004367222,0.00349226,-0.0007868151
SLC44A5,0.000980708,0.0033994897,0.004301316,-0.0018707226,0.0014587536,-0.00068225054,0.001969874,-0.003927091,-0.0022914298,0.012955672,0.0058931373,-0.00033879452,0.01012206,0.0010955252,-0.00071596366,-0.013858477,-0.0076194047,-0.0012772069,-0.000239462,0.003435464,-0.0049455445,-0.0044784434,-0.007748109,0.002828561,-0.0020275693,-0.0018560457,0.00019416305,0.0022661504,0.0025595566,0.0022949786,0.0030054704,0.0025731074,-0.0006185245,0.0018157709,0.0065955096,-0.0047819684,-0.0043276018,-0.003789035,-0.002184687,0.0021545491,-0.0009890329,-0.0011049724,0.00019826271,-5.130592e-05,-0.0034463855
DNAJB4,-0.0026017425,0.0036901382,-0.0011446781,-0.0025005995,0.0014868837,0.00029158514,-0.0041563814,9.3208e-05,-0.0045838817,0.0066135945,-0.0018925722,-0.0012593417,0.0030449831,0.0045814123,0.008055071,-0.007852187,0.002880181,0.003209136,-0.0008134528,0.0077449875,-0.004307631,-0.00019635343,0.0024420733,-0.0006790674,0.00040598222,-0.000774489,0.0011240786,0.001625595,0.002566003,0.0032805647,-0.002814424,-0.0025888535,0.0044299187,0.0014651666,0.002523347,0.0042923475,-0.0034518489,-0.002303591,0.00705135,-0.0024912558,0.0015544347,-0.0059807943,-0.0017906653,-0.007844822,-0.0026783573
GIPC2,-0.0026234859,0.00030399632,-0.0051875683,0.0032400903,0.0011526665,-0.0036760522,-0.0030059868,0.0029928456,-0.0033557483,0.0070380038,-0.0024917074,-0.008082634,-0.009003569,0.0017282781,-0.0018998942,-0.0027024245,0.007249617,0.0007665581,0.0073014796,0.0052341153,0.003260738,0.0073821936,0.011033101,-0.0020656865,0.00083478296,0.0075314213,-0.0014270563,0.0049426793,0.0007861205,-0.0009974503,-0.003939344,0.0094925715,0.005235525,0.0011934593,0.0006440834,0.0016510487,0.009712319,0.013378871,0.0024699369,-0.00020200148,0.011280667,0.00225611,0.003937753,0.003497306,-0.0032748382
TTLL7,0.00014762257,9.228398e-05,0.0003569624,0.0019367601,0.0054239095,-0.0008868612,0.0042261938,0.00047930246,-0.0007481122,0.023205034,0.0010860297,-0.0015657467,0.006640442,-0.0015992057,-0.0020840236,-0.024060752,-0.008992452,-0.0061353617,0.0065595997,0.0015524826,-0.0071553406,-0.005504983,-0.005312677,0.0028343995,-0.0039183614,-0.0006545753,-0.0043187756,0.0018508795,0.000715578,0.00744528,-0.0023785885,0.004608645,0.0056448607,-0.006271816,0.010323085,-0.006003013,0.0011295431,0.0026028412,0.0014057193,0.0011039235,-0.007075427,-0.0027314231,0.003459598,0.0067740143,-0.0034663314
CLCA1,0.0011728674,0.004331936,-0.0049846563,-0.0006428224,-0.003094388,-0.0037804018,-0.0030432714,-0.0056590918,0.0023263518,0.004800686,-0.006118388,-0.004353486,-0.013842352,-0.003430876,-0.0031594916,-0.005637409,0.00663698,0.0024489092,0.0047586975,0.0016809537,-0.002046,-0.0044440916,0.004705353,-0.008317163,0.00017294115,0.010236007,0.0021820269,0.0025102326,3.3450917e-05,-0.003945559,0.007965042,0.010483443,-0.0057681086,-0.002927723,-0.014854286,-0.006403067,-0.008308344,3.087294e-05,-0.011552762,-0.0011585662,0.00015977798,-0.0029467328,-0.004393102,-0.00888732,0.0004081974
LINC01140,0.0005383427,-0.008595604,0.0017507214,-0.0001722447,-0.012285911,-0.008572025,-0.005111596,-0.010855673,-0.000594337,-0.0037321763,8.862795e-05,0.0059132557,0.010400289,-0.0069809365,-0.009206601,0.007878354,-0.007267356,0.00029117792,-0.0065727197,-0.005913665,-0.0014352289,-0.0003950817,-0.007058907,0.0007742902,-0.0065879263,0.013031993,0.0069334195,0.0026725144,0.0029307299,0.002301743,0.016882233,0.0051467875,0.002237493,0.023780156,-0.015468901,-0.0037843403,-0.0070318794,0.0062187035,-0.0073068696,-0.0047207405,-0.0046178647,-0.0058089616,0.0033881199,-0.019596843,-0.002339412
LMO4,0.0026231997,-0.003679919,0.012000912,-0.0058477013,-0.011174434,-0.016318904,-0.0063862917,-0.0155133335,0.0021169167,0.0032241673,0.0101272,0.001358474,0.019662991,-0.009924798,-0.008181675,0.00073490565,-0.0010003772,-0.0049785823,0.00029569078,-0.004266557,8.594443e-05,0.008335498,-0.02425657,0.008056759,-0.0013773905,0.01321173,0.001473955,-0.006374088,0.006490804,-0.0027105408,0.016750455,0.011115789,-0.0003342666,0.035581663,-0.007786473,-0.012218947,-0.028408002,0.023167605,-0.014553158,-0.009326812,-0.0027716586,-0.010886941,0.018973285,-0.019042013,-0.00013257425
GBP2,-0.0023682253,0.0013607044,-0.008493069,0.002941974,-0.0017453169,-0.006677616,-0.008200925,-0.005140906,-0.012042387,0.0019465297,-0.010130523,0.008658323,0.016047781,0.0076887007,-0.0046367673,-0.0028841044,-0.007213783,0.0012438769,-0.01439137,-0.0024295226,-0.0061416957,0.0063972315,0.016151156,0.0030813445,0.007720252,0.010648383,0.008304691,-0.011603304,-0.003357423,-0.0024397862,-0.003173376,0.014273129,-0.0017435602,0.013957147,-0.008033837,0.004338033,-0.0077950675,0.0070485864,-0.012781916,-0.0060261195,0.011449461,-0.000118400465,0.020235298,0.0045521175,0.0006187575
BTBD8,-0.0005210038,0.00018559513,-0.0005554381,0.0020537963,-0.00074392057,-0.0009284385,-0.0005244506,0.00094604446,0.00077689905,0.0060808384,-0.0061130035,0.0006420973,-0.001032115,0.011611147,0.0027200943,-0.00085303286,-0.0022914973,0.00048612995,-0.0015059914,0.0039585577,-0.011757238,0.0069592185,-0.0019934755,0.0008460724,-0.0056715165,-0.0015960594,0.0021847992,-0.0023509092,0.0008244568,0.0016423762,0.0018112053,-0.010102896,0.008759623,0.001965658,9.844508e-05,0.0038118113,0.0005427709,0.0021920782,-0.0018642467,-0.006025844,-0.003140445,-0.003039795,0.0014617073,0.0028614078,0.0010850432
KIAA1107,0.0007740684,0.002361336,-0.0024403231,0.0028619354,0.0033500271,0.00044043193,0.0028526585,-0.00027065983,-0.0005392544,0.0019604762,0.0010884514,0.0015353622,0.0027864063,0.0014293632,0.0035528298,-0.0018792956,0.0019661488,0.0004752524,0.0019510165,0.0027764922,-0.000595663,-0.0015434783,0.0011336252,-0.0025901836,-0.0024214264,0.0016446162,-0.0006811326,0.0005200848,0.0020296618,0.005289784,-0.00081105286,0.0032816776,0.0028006164,-0.0007547056,0.0044528097,-0.0016908835,0.0008888286,0.0030148025,0.00328957,-0.0005605931,-0.0039099697,-0.0041650427,0.0016804001,0.0040436457,-0.00021421463
FRRS1,-0.0017747812,0.00066263246,-0.0012182236,0.00015616279,0.001038956,0.0010784211,-0.0013367743,0.0012747464,-0.0048045255,0.0010340875,-0.0016947391,0.0043878374,-0.0011402998,0.0032323021,0.0031067133,-0.0030722742,-8.354274e-05,0.00236147,0.0019151941,-0.0034538337,0.0021356905,-0.0012569452,-0.0012958602,-0.001968208,0.003481757,0.0031109368,0.0039766813,0.0038313176,-0.0026353258,-0.004248399,0.0021235265,-0.0030501282,0.008529061,0.0012022405,0.0038862412,-0.00035210073,0.003066304,-0.0027326646,0.0026211357,0.0004150589,0.00015008751,-0.0037474888,0.008322662,0.0055366433,0.00014978835
LRRC39,-0.00071817264,0.0023969456,-0.0012120777,-0.0036666242,0.0014140164,-0.0030529539,0.0009413989,-0.0018770962,-0.0014011943,-0.002087032,0.0014603483,-0.00020775449,-0.0039873286,-0.0033542735,0.004796201,-0.00536094,0.00041477027,0.0030356452,0.0034460223,-0.0030545655,-0.0014393998,-0.00086969294,0.00063060824,-0.0008411295,0.00023347443,-0.0014285081,0.008268946,-0.0014477555,-8.5059575e-05,0.0037065258,0.0003808227,0.0037871397,-0.001603086,-0.0047763265,0.0017757532,0.0021719974,-0.0034089482,-0.0027320446,-0.0024966833,0.001965498,-0.0040828735,-4.0762798e-06,0.0026485268,0.001469435,-0.0005715862
S1PR1,-0.0032048537,0.0022849638,5.210011e-05,-0.0019464266,0.0010119493,-0.0003503168,-0.00423379,-1.3324226e-05,-0.0070247785,0.018865794,-0.007223623,-0.0011439334,0.006119301,0.0047188113,0.0026581232,-0.012347602,-0.016241504,-0.0052741948,0.0035160976,-0.00092406006,0.0046065478,-0.0038396285,-0.009064846,0.0053469986,-0.011922481,-0.008371512,-0.009242734,-0.008879471,-0.003164034,0.0070043984,-0.008649923,0.0034479764,-0.005964103,-0.008938222,-0.006180529,0.0049034683,0.0057652975,-0.0035103965,-0.012323888,-0.001992018,0.010622585,-0.007116046,0.0058993003,0.0041708304,0.004242581
AMY2B,-0.0005116683,-0.00052229315,-0.0016511526,0.00022081658,-0.0017397626,-0.0006738547,-0.00076806697,0.0012057751,0.0007530045,0.00035709367,0.000121517056,9.196712e-05,0.00017605185,0.0010593768,0.0005918361,-0.0006050784,0.0012681719,-0.0010579941,0.001643181,-0.001426173,0.0012142191,-0.00050140556,0.0001528725,0.0012103105,0.00024750206,-0.0018543756,-0.0012679473,-0.0006313512,0.0004391566,0.00236316,0.00011339116,0.0011436873,-0.00411988,0.0004620165,-0.0007135645,0.00063003006,-0.0011572705,-0.0008415636,-0.000980293,0.00034878816,-0.0002210418,-0.00032697222,-0.00080598466,0.0009878713,0.0007867617
SCARNA2,-0.0008336608,-0.0017414935,0.00088729395,-0.00046936588,-0.00450895,0.0008056947,0.0031496137,-0.0011754725,-0.001980945,-0.0077859764,-0.003261253,-0.0004852463,0.007817502,-0.002538706,0.002941809,-0.0005558131,-0.0030608748,0.0016930499,-0.013584814,-0.00035358669,0.0014281978,-0.0108148595,-0.0034474614,0.0014435825,0.008082174,0.0032145872,-0.009830057,0.01109446,0.0014449568,-0.0063241203,-0.0041012047,-0.0036289855,0.009129124,-0.007215676,-0.012979421,-0.0006261199,-0.0036641192,-2.482047e-05,0.005116216,-0.0011851216,-0.004609538,-0.0053092544,0.004612298,0.00019805199,-0.00031450187
SARS,0.0025589252,0.0029162187,-0.0047720843,-0.011226616,0.009183398,-0.0067938687,0.009261012,0.0029633774,0.007928076,0.0006689868,-0.0026399612,-0.015420131,0.0020680244,-0.009819112,0.008677183,-0.002794797,0.005491337,-0.0048622843,0.0030791797,0.001610806,-0.0091903815,-0.010917643,0.0077377176,-0.006812707,0.0029437414,-0.009025206,0.009898694,-0.015966654,0.011452974,-0.005878344,-0.0029431307,0.0011153221,0.003772524,-0.01617977,0.0153942555,-0.004240532,-0.011863444,0.020648757,-0.012377738,0.006783897,-0.0068285493,0.015266488,-0.009521162,0.0010009133,0.006839825
PSRC1,0.0051309336,0.0052664177,0.0033901376,-0.0034186589,0.0055864267,-0.0049553225,-0.0009361375,0.00060128816,0.015241661,0.0002612303,0.00648256,-0.003350965,0.008937678,-0.0034536165,0.0067482176,0.0037096846,0.010375011,0.0022329136,-0.0033056845,0.007069102,-0.002564943,0.0032917398,-0.001232851,0.00018658265,-0.0023291975,0.00070257654,-0.004981603,-0.0065446096,-0.00089603144,-0.008063857,0.00015051909,0.007149076,0.008913607,-0.00031499122,0.0054701697,-0.0075342013,-0.0056620785,0.014997211,-0.0016309065,-0.0017468544,0.007682332,0.0037387277,-0.014062774,-0.0066814255,0.008486072
MYBPHL,-0.00054091576,-0.000249665,-0.002796874,0.0019376251,0.004583841,-0.002268361,0.0014205247,-0.0013585069,0.000662759,0.0062874416,-0.004076751,-0.005010161,-0.006272164,-0.0085715065,-0.0017180647,-0.013227527,-0.0055395043,-0.008577215,-0.000838514,-0.006230443,-0.0088718515,-0.002607159,0.0025899666,0.00029636038,0.0054983506,0.0028303638,0.004952283,0.0046092086,-0.0017979721,0.0045811683,0.0012639395,-0.0031087396,0.0043807835,-0.0075726802,0.0061826124,-0.005739936,-0.0018021245,0.002691029,-0.00527502,0.0009446134,-0.010624513,-0.003604315,0.006157671,0.0039501274,-0.0019969079
GSTM2,0.0009054817,0.0019185086,0.00013349003,-0.00046600812,-0.00028923317,0.00039974047,0.00028752853,-0.0025896498,-0.0024781334,0.0013885918,0.0015636646,-0.002284199,-0.002078814,0.00064551266,-0.0028413082,-0.004006865,0.0008729039,-0.0021706182,0.0028658183,0.00022214105,0.0024765467,0.0027024224,0.00056334084,-0.0006314276,-3.0194418e-05,0.0017389095,0.0005315324,-0.00058934465,0.00052443537,-0.0007636984,-0.0025574365,-0.00093516667,0.0017753096,0.0020677682,0.0056939167,-0.0010078526,0.0005675464,0.0015108918,-0.00058705494,-0.0023280112,0.0034183094,-0.00036167624,0.002398036,0.00024327368,-0.0045556403
GSTM3,-0.0014549076,0.0011145218,0.0010071755,0.0010015478,0.00063842,-0.0047750673,0.0034708853,-0.00041263574,-0.002294476,0.0042788875,0.0055582756,0.0012146579,0.0023066413,-0.00079915946,0.0041867276,-0.0048054946,-0.00093326176,-0.0037037313,0.0028992833,0.0036583797,-0.0014997795,-0.0036098508,-0.009453813,-0.0070970487,-0.0031441327,-0.0010258089,-0.004157192,0.0033807,-0.008894459,0.0027568694,-0.0013151655,0.008185574,-0.0035827802,-0.00991866,-0.0033504386,-0.0059896763,-0.007746405,0.002207106,-0.00903545,0.000118097094,-0.016999817,0.0014613976,0.005301076,0.0043320083,-0.0016652327
PROK1,-0.00029890047,0.0036349667,0.0040182043,-0.00044110647,0.00040006833,0.0020544669,-0.0037771603,-0.00093283027,-0.0033068364,0.0034077559,0.010074392,0.0030268088,0.0069608744,0.005907213,-0.0041181077,-0.009664721,-0.0010579176,0.004538032,0.007724466,0.007022041,0.008470016,-0.003724691,-0.012356509,-0.005783487,-0.0074126907,-0.0024994463,0.0015552102,-0.0069851773,-0.0038687126,-0.0025001618,0.002071143,0.005208217,-0.005769922,-0.003612394,-0.0057809274,0.0006215396,-0.0045547816,-0.0068984223,0.00055245304,-0.0020202254,0.003735771,0.0008559372,0.0010504215,0.004430161,-0.0012424375
CD53,0.0038270974,0.008705657,-0.0036796832,-0.0061549675,-0.011798387,-0.009973587,-0.0036119423,-0.012214461,-0.0028729208,0.006994662,-0.0081783915,-0.001064704,0.0064571495,-0.003312388,-0.0046548177,-0.01618501,0.00097400916,0.00399883,-0.0023317137,-0.0005368828,-0.0040989257,-0.018483736,-0.0030654268,-0.0070249685,0.0074689253,0.0069317557,0.0036596367,-0.013199302,0.00355762,-0.0026029584,0.00068048463,-0.00033438683,-0.016684536,0.008878251,-0.018579908,-0.0105884485,-0.018880086,0.011061619,-0.012447833,-0.00907724,0.0068687107,-0.0060401238,0.013869155,-0.0045931707,-0.0032171162
CHI3L2,-0.004562895,-0.002702723,-0.0032924612,-0.010131495,0.0036426494,-0.005966063,0.009320579,0.0059645777,-0.007121156,-0.0028457064,-0.002534095,-0.0031725757,-0.001588601,4.40489e-05,-0.0017424333,-0.00011307739,-0.004355119,-0.0011397378,-0.0006721243,0.006926407,0.002217602,-0.018948661,0.00044132143,-0.011924655,-0.008125173,-0.0008392057,-0.0031614762,-0.013115272,0.0021154454,-0.010112331,0.008441998,0.011504056,-0.0031703478,-0.008000588,0.0067888056,-0.012161645,0.007930345,-0.0018765277,-0.007131618,0.015110238,-0.00474223,0.015425464,-0.0050681755,0.007214794,0.003183248
ADORA3,-0.0024162086,0.0020694204,0.0015210324,0.00047011022,0.0011845322,0.0005714505,-0.0033832488,0.0028218555,-0.0033724953,-0.004335315,0.005913296,0.0045289416,0.009312658,0.0051943483,0.0025242663,0.0019753904,0.0009916178,0.0012426928,-0.0049721026,0.0028460121,-0.0025627925,-0.0014997965,-0.003655178,-0.00092116476,-0.00021377519,-0.005351879,3.144843e-05,0.006751335,0.0060161124,-2.9264968e-06,-0.0013115819,-0.0060054315,-0.0034180905,0.0058943476,0.003715191,-0.0014677019,0.0005574085,0.0017679669,-0.002364731,0.00042375055,0.008654661,-0.00038122135,0.015818283,0.0053245495,-0.0016134087
CAPZA1,-0.00072115846,0.0022887965,0.007041652,-0.00330536,0.0033169133,-0.002768976,-0.0013359562,-0.0013551712,0.0015636227,0.0012854581,0.0029453293,-0.002004466,0.0018589774,-0.0044647614,0.0028994356,-0.0028357073,0.0039232364,-0.0006622246,0.0070291567,0.004154207,0.0022737342,0.005440494,-0.0082541015,0.0079938015,0.001391257,-0.0022645192,0.0046495376,0.00047590808,0.0039261193,0.0009790168,0.0038528494,-0.0005419416,0.0034423305,0.000818821,0.008073325,0.00071562186,-0.005161921,0.0020780906,0.0029049101,-0.005764907,-0.00021720096,-0.0018244328,-0.0028526443,-0.0074907024,0.0028847891
RHOC,-0.0021767388,0.010416022,-0.008179299,0.008218658,0.0023894715,-0.013203153,-0.00040728354,-0.002354234,-0.0062949266,0.014105863,0.00013393628,-0.0011004013,-0.0038158007,-0.007541519,0.020427441,-0.027862968,0.0057169255,0.0014525664,0.0114660915,-0.0024962411,-0.004135189,-0.009863741,0.0055415635,-0.010411637,0.0021710186,-0.0019092865,0.006359823,0.0066032843,-0.0037784553,0.016189035,-0.005950195,0.0012655925,-9.72896e-05,-0.011822462,-0.00035763063,-0.00645187,-0.019007271,0.010519271,-0.024450148,0.0051023704,-0.010250036,0.0023918913,0.00871541,0.0046923007,-0.0120907575
LINC01356,-0.0008996862,0.00019458745,5.7853427e-05,0.0012457195,-7.601772e-05,-0.00026578136,-0.00065037754,-5.696955e-05,-0.0019910168,0.00032416324,-0.0021587096,0.0059214653,0.005346567,0.010883152,-0.007772362,0.0029964435,0.0008535314,-0.0004984502,-0.0073629064,-0.007357314,-0.00332376,9.1393056e-05,0.001614472,0.004222565,0.0069817323,0.014065406,0.02291828,-0.011023329,-0.0037145473,-0.0032014118,0.0058435663,0.012717896,-0.010705094,-0.00065137545,0.0016949201,0.0035009598,-0.010232592,-0.009866573,-0.0048746984,0.0021477363,0.002294653,0.008252382,-0.0024973159,0.00031340553,-0.0044468814
HIPK1-AS1,-0.0022279883,0.00089759525,-0.003481868,0.0017258809,0.0011391001,-0.0007650347,0.0005864271,-0.0014532479,-0.0037954422,0.004605786,-0.0018715776,-0.0032942726,0.00017570629,-0.002900941,0.0063477987,0.0008741429,-0.0021892753,-0.0012617023,0.0021330083,-0.002957133,-2.5615189e-05,-0.0037980825,0.00056381704,-0.002120296,-0.0044946116,-0.0012277432,0.0023542026,0.00076298177,-0.0047366577,-0.0001064558,0.0022674657,-0.008339027,0.001515662,-0.0017014282,-1.8459703e-05,-0.002254479,0.0019434612,-0.004953822,0.00061938865,0.0022485624,-0.00030436943,-0.0033528528,0.005107013,-0.0019933295,-0.0060779373
OLFML3,0.0015879932,0.0037900817,0.0025876684,-0.0025291205,0.0026214866,0.00042542943,0.002568005,-0.005314344,-0.0018856896,-0.0077598076,0.0021219545,-0.0018209491,0.009786651,-0.01179967,0.0017685085,-0.0171187,-0.0032498452,0.006286201,0.040239975,0.021104509,-0.016831215,-0.00804202,-0.0035780156,0.010820846,0.026997628,0.040137988,-0.031807996,-0.017500307,0.008983273,0.026272485,0.0017830328,-0.022357445,-0.01819753,-0.0031260664,0.022685032,0.0009925208,0.003974517,0.0038786083,-0.0063677286,-0.0027938236,-0.003404522,-0.004508461,0.002223552,-0.0008639671,0.0004933734
CD2,-0.0027857325,-0.002630888,0.000103957835,7.676288e-05,-0.0026319262,-0.0022447763,-0.0019965016,0.0021685816,-0.0006329831,-0.001204844,-0.0006765499,-0.0038537378,-0.008952265,-0.0060867085,-0.0058501237,-0.003049636,0.0018176883,-0.0058010104,0.0022009446,-0.00451277,-0.0020814743,-0.00026863426,-0.0042396383,0.0015102521,0.0001386232,0.0018984865,-0.0004972869,0.0058610267,0.0036215684,0.0012002022,0.002630282,-0.0029361486,0.0010638629,0.01013632,0.00094147224,-0.0028702985,0.00049013377,-0.0035940749,-0.00312345,-4.4168835e-05,0.006459164,7.8921636e-05,0.0055719567,0.0016659241,0.00015204237
CD101,-0.0048229084,-8.814443e-05,-0.0033117447,0.0013666317,0.0031360476,-0.001964026,-0.0027486314,0.007235825,-0.008178748,-0.004249975,0.0012695864,-0.004574161,0.009069431,0.011639027,0.005383804,0.006488279,-0.0018522093,-0.0105345,0.0038135336,-0.00082039763,-0.0046090996,0.004599372,0.005727814,0.0014402326,-0.0055079213,-0.0013155026,-0.00081917306,0.0050169555,0.0040957103,0.001231723,-0.0024765534,0.0066132788,0.00072334614,0.018327836,0.00611786,0.009173051,0.0077803847,0.019225845,-0.016388284,-0.0015566854,0.007854135,-0.001235306,0.021673404,0.008625068,0.006749374
PHGDH,-0.0004691176,0.007981067,-0.0080224695,-0.01415564,0.0044824146,-0.010562895,0.008232345,0.004156966,0.0059711,0.0056105764,-0.0049999286,-0.023458287,0.0015893487,-0.0062652123,0.010534863,-0.0047364403,0.011810723,-0.012196859,0.0018944159,0.007432375,-0.013507135,-0.012682639,0.014167697,-0.015794989,0.0078810835,-0.0035692442,0.013099251,-0.018723339,0.011374223,-0.011177628,-0.001118497,0.00062579237,-0.0017175518,-0.013073651,0.009538384,-0.005529386,-0.009503732,0.024053466,-0.013015551,0.009020005,-0.00064247864,0.016953232,-0.008767715,0.0017968864,0.004911185
FCGR1B,-0.0021434086,0.00022942906,-0.0021008386,2.3984847e-05,-0.00018235402,-0.0066130254,-0.0047794804,-0.0028160266,-0.004933006,0.010211631,-0.0035124265,-0.0075602424,0.0027459837,-0.0057435604,-0.0058737295,-0.008217272,-0.0029426725,-0.0036928111,0.0011352849,-0.0037840148,-0.0025977856,-0.0038644818,-0.0005320634,0.00088862615,-0.0012452427,0.0084372265,0.00515179,0.005302314,0.01626513,0.0070943753,0.004073983,0.005440706,0.0018730077,0.011135805,0.002803112,-0.0027848158,0.0008290277,0.014144823,-0.0004670826,-0.0002409052,0.011016374,-0.0029433523,0.0135253435,-0.0011568704,-0.0022955139
PDZK1,-0.0021216127,-0.00022841773,0.0020227411,-0.0023603267,0.0021092156,-0.0017606639,0.0011759576,0.0019219595,-0.00018920255,0.0008689886,-0.0020971189,-0.001531991,0.0005797415,-0.00070251524,0.0018130575,-0.0018028088,0.0016382013,-0.002678727,0.0014541446,-0.0074700788,-0.0026328235,-0.0011331039,0.0041549043,0.0023000122,-0.003461708,0.003846868,-0.00045741536,-0.0010036353,0.003064474,-0.0017984982,0.00035434065,0.0009618971,-0.0028697143,-0.0048211073,0.008496214,-0.001156264,-0.0015064171,0.0038229923,-0.005343207,0.0007119375,0.0031994712,0.003878912,0.00052207254,0.0013613611,0.00042027037
CD160,-0.0016725347,-0.0024413182,-0.0025184206,0.0032729788,0.0007086541,-0.002231612,0.00017956499,0.00087783206,-0.0014717823,-0.00026114544,0.002628448,-0.0011542337,0.0022107516,-0.00509295,-0.0036253019,-0.00047642746,-0.0022175554,-0.005133993,0.0016382501,-0.0032335834,-0.00039085498,0.0010265392,0.009436896,0.0014364865,-0.010338709,-0.0003409481,-0.0072889403,0.0056976797,0.0038418286,0.003128498,0.011581016,-0.0051067034,-0.012608465,-0.017242378,-0.005568014,-0.0023611966,0.0060755154,-0.0001505312,-0.0022516623,0.0031461897,0.0061985063,0.004083109,0.0030251595,-0.002005611,-0.004028768
POLR3GL,0.0020899351,0.0073825303,0.010358751,-0.0037103018,0.0014974737,0.0029084971,0.0017424283,-0.008384678,-0.004228115,0.006257236,0.014954577,-0.0059295828,0.009036848,0.015026999,0.003689655,-0.007105308,0.0019299656,-0.009581727,0.009007866,0.011330949,0.0023407792,0.0029175435,-0.01659314,0.0006681408,0.0023670217,-0.0043519507,0.0008431454,-0.008908954,0.0013683406,0.004176933,0.0035451765,0.000663586,0.005092264,0.0001691946,0.0077107293,0.0008667778,0.004380994,-0.004730856,-0.004968892,-0.0016265464,-0.0050458675,-0.019332048,0.0061445124,4.4915938e-05,-0.009322204
TXNIP,-0.0055283303,0.005663765,-0.0046352856,-0.004889397,0.008220256,-0.009801704,-0.005987565,-0.0097221555,-0.011911576,0.022268731,0.006376016,-0.01222974,0.025082054,-0.0037702206,-0.0050297384,-0.022120452,-0.005268474,-0.011001606,0.0112990355,0.014084447,-0.0061526536,-0.015791276,-0.005333282,-0.017888142,0.0015099915,-0.0051190387,0.0033199787,-0.00866075,0.0018478154,0.0065950067,0.00028947674,0.015133973,0.0022321464,-0.011645369,0.01057901,-0.006670574,-0.012883719,0.0014137917,-0.013009635,-0.004042019,-0.011845889,-0.015862782,0.036054377,0.013976177,-0.009759288
FMO5,0.000671982,0.0037554132,0.00079058716,0.0037238384,-0.001147825,-8.463265e-05,-0.0030111435,-0.0011701875,-0.0013608194,0.0041016056,0.0010806489,0.00070565724,-0.0021942412,0.0015616068,0.0034088122,-0.0034818992,0.002939506,-0.0010028956,0.0019134437,-0.0032742925,0.00078356854,0.0020298585,-6.332115e-05,0.00018800086,-0.001124118,0.0022651262,0.0009921223,-0.0001223173,0.0009410472,0.0052473196,0.001447306,0.002163055,0.002690153,0.002761405,-0.0038583805,-0.0048528872,-0.0031086449,-0.0031063939,-0.002632404,-0.0010505241,0.0048189177,-0.0001886389,0.005398558,0.0027201667,-0.0010910967
PPIAL4G,-0.0002754202,0.0024243994,-0.00057620084,0.0002689266,0.002902865,0.0008564234,0.0030950035,0.0028124684,0.0007555615,0.0009602528,-0.0006542807,0.0005043143,-0.00587676,0.00087900745,0.0009740907,-0.0010175183,0.0023800055,-0.000620219,0.0028746885,0.001885485,0.0005591812,-0.0023319833,-0.0016301733,-0.0011887683,0.00021217146,0.0071227476,0.0023637533,0.00083297223,0.0020846108,-0.0017428554,-1.2655427e-06,0.0066931266,0.0017386478,0.0012864522,0.0031090486,0.0015433333,0.0028458086,0.0075727087,0.0013484807,0.00036436963,-0.0013918176,0.00018414376,-1.7197814e-05,-0.0021814797,-0.0010100321
PDE4DIP,0.0074396813,0.016981103,0.0014785599,-0.010144143,0.007971682,0.009646471,0.002391566,-0.0039023703,0.0016665795,0.015301814,-0.0040409938,-0.011770101,-0.004643484,0.007472162,-0.008364151,-0.027180364,0.0011726456,-0.0032984528,0.0021776343,0.0031293253,0.004612513,-0.014531337,-0.012327021,0.00053764513,-0.0049144416,-0.00624705,-0.015385634,-0.023725431,0.0044551976,-0.008603,-0.005949193,-0.0055584484,0.0058123753,-0.02149794,0.014930814,-0.006882631,0.0045006173,-0.015980022,0.008479144,-0.009179323,0.005220517,-0.013481508,-0.010115257,0.0050547114,0.0035607151
FCGR1A,-0.0051692636,-4.833045e-05,-1.8073779e-05,0.00062195165,-0.0024014285,-0.007531902,-0.0065868096,-0.0005794994,-0.01206621,-0.0021318016,-0.0029413928,-0.006293362,-0.0034599993,-0.0031511963,-0.011466018,-0.016703626,-0.004206696,0.006024583,0.01293253,-0.010100021,-0.003776783,0.0037368627,0.002303556,-0.00048164293,-0.0059720296,0.0010264033,-0.002601689,0.008761134,0.012233792,0.0024800473,0.001579954,0.0046374677,0.0012990843,0.015802717,0.0009697086,-0.0051738024,4.5978435e-05,0.014902872,-0.0058905534,-0.0006205286,0.018267272,0.005389589,0.02474053,0.0035377461,-0.005137887
HIST2H2BE,0.0010948456,0.004032175,-0.004608608,0.0031285605,0.0024766435,-0.0015385476,-0.0011320065,-0.0044405516,-0.0019965896,-5.9463525e-07,0.0014063152,-0.0009845536,0.0041176854,-0.0016572359,0.007027506,-0.0007861527,0.0031167346,-0.0016062307,-0.0020733832,-0.0012768699,-0.0006963413,0.0012703696,0.0042100884,-0.00435494,-0.00048273118,0.0008264404,-0.002915205,0.0037205382,-0.0016105463,0.0034590352,-0.003711415,-0.0026970839,0.004773673,-1.7223783e-05,0.0007536138,-0.0016599625,-0.00085838285,0.0044534924,-0.0022522127,-0.005451134,-0.008037914,-0.008981146,0.0029940926,-0.001890072,-0.008468254
HIST2H2AC,0.001253984,-0.0056339237,0.006912632,-0.008209649,0.008990954,-0.015032888,0.008389678,0.006219659,0.015256908,-0.009637665,0.003391004,-0.0030510935,0.0067462595,-0.019744167,-0.0011269198,0.0020331328,-0.0041582664,-0.00056371256,0.0026241234,-0.0060986183,-0.003405687,0.010994069,-0.0030547134,0.01118417,-0.0012211691,-7.6744516e-05,-0.0026763887,-0.015035994,-0.003251021,-0.005833408,-0.002467203,0.016325574,0.011366829,-0.002668657,0.01444753,-0.015963936,-0.019795371,0.01860812,-0.011294246,0.011952174,0.012722455,0.03483235,-0.011810133,0.0075731874,0.023812706
MTMR11,-0.0015552889,-0.0013397433,-0.00094802526,0.002698732,-0.0018211614,-0.0045580063,-0.0005254668,-0.002652455,-0.003522483,0.0026020573,0.007847839,-0.0014279182,-0.002471783,-0.0017258503,0.004055243,-0.0072650686,-0.0099126175,0.0246868,-0.012580718,-0.0054369355,0.016861163,0.01336524,0.0035329752,-0.015182579,0.0042535528,0.012573598,0.002430815,-0.0028423942,-0.013952483,0.0031156626,-0.00253513,0.0021364312,-0.004258565,-0.006979989,0.004139547,-0.0016178588,0.008856374,0.004880417,-0.0051826164,-0.0047139525,0.0037518865,-0.00081188546,0.0031669142,0.0041539664,0.0024698486
PLEKHO1,0.0027998139,0.0067796186,-0.0041913367,0.0014562407,-0.009317119,-0.00023352305,-0.008636611,7.4760996e-05,0.0002602933,0.016728293,-0.0057561016,-0.011429704,-0.0057897484,0.0029481428,-0.004248844,-0.015242204,0.003346129,0.0063639474,-0.004222609,-0.00018167304,0.00634729,-0.00097070483,7.710381e-05,0.00024941075,-0.005147538,-0.0025829254,-0.0131703885,0.0026577655,0.0036867626,-0.00030807112,0.0010594234,0.0020075454,-0.018813789,0.009063583,-0.01028815,0.0005924972,-0.0030367128,0.014986545,0.005834201,-0.017815677,0.0099887885,-0.01393576,0.0036510362,-0.007300616,-0.0024797898
ANP32E,-0.0006471278,0.0018801945,-0.00061102345,-0.009446519,-0.0033586468,0.0009020429,4.2975156e-05,0.015829448,0.011962833,0.0038421333,-0.0020606583,-0.0059204786,-0.0023430905,0.008882569,0.013307185,0.013011903,0.0103950575,0.0018648949,-0.005431602,0.005818595,-0.00042179468,0.005391302,0.0056930347,0.004148459,-0.0031645757,0.003359517,-0.0044086576,3.0813946e-05,0.006975789,-0.010306525,0.0049541704,-0.004033365,0.0018946215,0.0039480166,-0.012106283,-0.0013112978,0.0055204374,0.017492661,0.017232193,0.001393096,0.014687057,0.010895494,-0.032182876,-0.00038366922,0.020007601
ECM1,0.0018432555,0.0042136298,-0.0020715955,0.0032928563,0.0053621684,0.0007043593,0.0001303827,-0.0029549953,0.0005643105,0.009837605,-0.005166521,0.004860117,0.004253831,0.0008445283,-0.0060788197,-0.016228374,0.0026741535,0.0016403712,0.0019125884,0.0029146648,0.0006136593,-0.007321927,0.008207158,-0.0042276513,0.0008733218,0.013082245,-0.011251388,-0.0010887715,-0.003728734,0.0027214251,-0.00067622267,0.0014616095,-0.0007645999,-0.008842081,0.006083325,0.002452995,-0.0024462612,0.00049179234,-0.0050181374,-0.0010707142,0.003034822,0.0038272182,-0.00173136,-0.00447715,-0.0050212913
ADAMTSL4,0.0037954731,0.00289983,0.01108463,0.0015696252,0.013912864,-0.0016719548,0.0026654592,-0.009811038,-0.0016336741,0.0075918944,0.01411613,0.0046519446,0.014330195,-0.006583544,-0.0007381146,-0.020939605,-0.005359994,0.008307155,0.008676393,0.0006337586,0.0050808834,-0.0018537245,-0.02419321,0.0104605425,-0.0049918313,0.0069118547,-0.0031106097,0.0011191543,-0.0070863627,0.004081838,-0.003693228,0.02037947,0.0058421474,-0.016435208,0.016683813,-0.0060813297,-0.012110577,-0.016610855,-0.01044144,-0.0016818387,-0.013661495,-0.0076947277,0.0054371725,-0.0009327022,-0.008239214
CTSS,0.00084435975,0.002935804,-0.0012332093,0.00039734333,-0.0019968972,-0.004902022,-0.0044879587,-0.007828134,-0.002071318,0.0094298795,0.0035154438,-0.0124465665,-0.0022021527,-0.0028757695,-0.006026888,-0.016502269,-0.004683378,0.0007175098,0.013400654,0.004827229,0.00563073,0.001850924,-0.001395743,-0.0034095396,-0.003969789,0.0021350456,-0.004788952,-0.0006507974,0.00364469,0.0020810198,-0.0030541562,0.0014265557,-0.00811852,0.0007024231,0.0013473559,0.0016679154,-0.011033892,-0.006138927,-0.019182848,-0.010298799,-0.0014975296,-0.00898889,0.017738834,0.0013747658,5.236758e-05
C1orf56,-0.0038824147,-0.0033636007,0.0022080408,0.0018040579,0.00038475092,0.002773666,-0.00247665,-0.0016322482,-0.004253828,-0.002379692,-0.002311713,-0.00015924365,0.0014954684,6.1032104e-05,0.0018082,-0.004601038,-0.0051527866,0.003810844,0.0052513042,0.007293323,0.013243716,-0.0010416505,0.0005307287,0.006436618,0.0054211137,-0.0040873154,0.0024291256,0.0028218846,-0.001803919,0.0029624954,0.00061310263,-0.0047629448,-0.0044253967,0.0005662741,0.010445104,0.009449039,0.0037767105,-0.016838826,0.0070962403,-0.0015556383,-0.011454999,-0.009116811,-0.00042678192,-0.0061051645,-0.00049825764
CDC42SE1,-0.0025871508,0.0010625588,0.006294162,0.003619084,0.0016721251,-0.009755735,-0.0010491556,-0.0014544138,0.00092604867,0.0012880947,0.0021214345,-0.000563597,0.0014821036,-0.0092600165,0.0031724025,-0.007375322,0.0021423646,-0.0023891348,0.0048396885,0.0012295072,0.0032113853,0.0015844102,-0.0082852,0.007960462,0.0049565337,-0.0034449748,0.0026852365,0.0043902607,-0.0028957883,0.009097663,-0.0049188063,0.0046872073,-0.0028421206,-0.0023736728,0.0010289908,-0.0014795427,-0.010418592,0.003536895,-0.008819337,-0.001508573,-0.00066066184,0.0020162424,-0.0031379499,-0.005483434,0.0030634967
MLLT11,0.0023716649,0.010182143,-0.0036901429,0.005197509,-0.000928585,-0.00054597005,0.006381631,0.0041023875,0.00048385983,0.01924571,-0.0059213443,0.0007834601,-0.003243222,0.008615087,0.0098671075,-0.00984735,0.008715981,0.00077457604,-0.0051349467,-0.001880526,-0.009419048,-0.005533543,0.0035671627,-0.0043010213,-0.00046500377,0.0033512511,0.0052868505,0.008658135,-0.00012599962,0.004600049,-0.004606489,-0.006438123,-0.00592194,-0.00091737026,-0.0046446836,-0.008455722,-0.0004503937,0.007423637,-0.0027807183,0.0022917304,0.0038730134,0.009877301,-0.019319415,0.0037810034,-0.0019795492
GABPB2,0.002952164,0.00087506283,0.0039880816,-0.0020476303,0.0029230511,-0.0037014147,0.0011700616,-0.0042748754,0.0050755115,-0.0009696686,0.00019478568,8.646687e-06,0.0035159388,-0.0029793668,-0.00016884692,0.00049952953,0.00087520375,0.0012306544,-0.0012870805,0.0029368617,-0.00327531,0.008514013,-0.0038440842,0.0017781255,-0.0025875797,0.0015501349,0.0016289328,-0.0069237784,-0.00029409982,-0.0015188444,0.0037562114,0.0010377198,0.009974204,-0.0019106889,0.00478706,-0.0025539005,-0.0075312904,0.0042070826,-0.0062492797,-0.0047919536,-0.002309691,-0.0010648123,0.003956694,-7.636417e-05,0.0019575066
LYSMD1,0.0017100505,0.0014481092,-0.00015260873,-0.0017592094,0.00054159696,0.0021899934,0.002003571,-0.0029984133,0.001514376,-0.0016684973,7.4910284e-05,-0.0024947587,0.00047409956,0.0017302163,0.0015773368,0.002386219,-0.0006332991,0.00024677825,-0.0029342636,0.0014705991,-0.00091909245,-0.00014400555,0.0010708827,-0.000111330286,0.001684363,-0.0012203855,-0.00073544914,-0.001486873,0.0028986142,-0.0005668058,0.0034168558,0.0017204368,0.0014409921,-0.0005035817,-7.176642e-05,0.0024737522,9.876851e-05,-0.0055779098,0.002293403,-0.00093336013,-0.0037491885,-0.0021810897,-0.0018513568,-0.00053181074,-0.0017427299
S100A10,-0.01045939,-0.008134866,-0.009429407,-0.0034927845,-0.004395709,-0.019699488,0.015224365,0.013853268,-0.015373422,-0.0032853028,-0.0017887653,0.008968828,0.0023536137,-0.013371665,0.0071133957,-0.00029491115,-0.0057002683,-0.0055849226,0.010957282,-0.00095574657,-0.014354689,-0.02748555,0.002469702,-0.023328774,-0.009376385,0.005762574,0.013917377,0.0043292213,-0.0022723884,-0.008001153,0.0048874114,-0.0014077044,-0.0018753115,0.0008921796,-0.0044479556,-0.021266976,0.005290767,0.018544577,-0.023665749,0.04039691,-0.014687725,0.02711236,-0.0019585402,0.00877579,0.0031914047
S100A11,-0.004099506,0.009479449,-0.0146575,-0.0040202187,-0.016357617,-0.019053455,-0.004139791,0.0028279917,-0.0095455125,0.023891013,-0.001450338,-0.016504996,0.0033732976,-0.0019691442,-0.00412365,-0.024720544,0.005693911,-0.008136455,0.010402101,-0.0023421755,-0.016222395,-0.035271794,0.0051135244,-0.030676562,-0.017808862,0.009282537,0.005711252,-0.013180189,0.0155521305,-0.0030598142,0.011886466,-0.007403951,-0.013293433,0.029622016,-0.020680439,-0.0144734075,-0.021685718,0.029745447,-0.020515922,-0.0028388018,0.016223913,0.0056121554,0.018925907,-0.005660763,-0.0033478301
PRR9,-0.0012494127,0.00981763,0.00089961383,-0.0065027825,0.0013818343,0.0053299456,-0.0146769015,0.0073271557,-0.0012899335,0.083605975,-0.004683978,-0.14500274,0.023022387,-0.02467587,-0.09624915,0.05967024,-0.073889785,-0.044231717,-0.03251956,0.030654782,-0.00071553607,0.007469091,0.038985036,-0.00787867,0.07163669,0.0030764563,-0.0018604025,0.06998014,-0.048078366,0.066550165,-0.009031312,0.029025268,-0.026129158,-0.0032961254,-0.030634396,-0.038446847,0.005339965,0.015997602,0.014963782,-0.0017284699,-0.062765844,0.04195716,0.0015047566,-0.017966727,0.007256323
PGLYRP4,0.0019775291,0.004593093,0.0021412051,-0.0016269535,0.0061107334,0.00047763856,-0.00140232,-0.0046418286,-0.0013139391,0.007636791,0.0043458752,0.00072397536,0.013017328,0.009079784,-0.0048835305,-0.004086442,0.0008099062,-0.0029249233,0.002661131,0.0051455093,0.0036459807,-0.004722123,-0.005895412,-0.0029289448,0.00013583072,0.0012406695,0.007653197,-0.01109032,-0.0045831823,-0.0032872804,0.0034640823,0.013112205,-0.0034893232,-0.008393954,0.0018083265,0.0012402887,-0.0121862,-0.0066982894,-0.0049775504,0.0031198114,-0.001082202,-0.000701091,0.0011275382,-0.0018635221,-0.0066723805
S100A8,-0.002239889,0.0016635864,-0.00032134814,-0.0008474818,0.0023964816,-0.0011734419,-0.0022753666,0.002407212,-0.003727679,-0.0057745716,0.0020751487,-0.0016311837,0.006344139,0.0040518884,0.006799137,0.0054822895,0.0043421946,0.0014774617,-0.0056258766,0.0018393043,-0.0011849747,-0.0010483694,6.2293104e-05,-0.002933054,0.0058067804,-0.0010108443,0.004517781,0.008598512,0.01121219,0.0036513747,-0.004234463,-0.0012805762,-0.00015836363,0.003173384,0.0033066573,-0.0011479201,0.0009318237,0.006898087,4.5552617e-05,0.0010895231,0.0077992515,0.002074938,0.009628274,0.0063588424,-0.0017866165
S100A5,-0.0018891414,0.0022662927,-0.0043000137,0.0032861375,0.0023787664,-0.00038125765,-0.0019289206,0.0008292176,-0.0063344263,0.017609127,-0.010018508,0.008008664,0.01196504,0.011005405,-0.0078296615,-0.011456601,-0.0047075287,-0.0019677235,-0.0048071337,-0.006849757,-0.0010513929,-0.008093214,0.009614938,0.00616406,0.001775913,0.015540998,0.008930447,-0.0062341923,-0.0030810225,-0.0054168566,0.004435526,0.010432565,-0.0026763398,-0.0006534078,-0.007255376,-0.0010519419,-0.010085216,-0.001454232,0.0018813752,0.0015368914,0.0013788979,0.0036175922,-0.0010165531,0.0035825975,-0.0055146613
S100A4,0.0019402903,0.0053753005,-0.00085616205,0.003633538,0.0030718942,0.0028195858,0.00039276056,-0.0053004613,-0.007845243,0.0038123257,-0.000723015,-0.0018047716,-0.018133832,-0.0049833325,-0.007875394,-0.02077046,-0.005157672,-0.011081232,0.00655637,-0.0044995258,-0.007277643,-0.012793613,-0.002230678,-0.000808311,-0.0057038856,-0.009667104,-0.0021280088,-0.0016781748,-0.0018312492,0.008341835,-0.002523627,-0.00080141664,0.0058580204,0.003711333,0.016559904,-0.001169322,0.0016974226,-0.012683326,-0.0031361743,0.0038352846,0.0034064185,-0.0016460678,0.010759313,0.0058387946,-0.005219314
S100A3,0.00026966826,0.0018682326,-0.00031167484,-0.0041793487,0.002046957,-0.0037028424,0.0035875556,0.00016256447,-0.0014644553,0.0011367114,-0.003838384,0.0030420301,0.0062445602,-0.006984628,-0.00396872,0.001469258,-0.0021396647,-0.006391457,-0.0049827793,-0.009325987,-0.0020286273,-0.005516977,-0.005028753,-0.002897056,-0.0069208113,0.006184713,0.00029566008,-0.0018468407,-0.002740727,-0.0072946795,0.0071601504,-0.0076533887,-0.003587424,0.0010452789,0.010093725,-0.00064293336,0.0053935573,-0.0059736148,-0.0040371553,0.004447242,0.0025329718,0.00881147,-0.0034488314,-0.0034219692,-0.0038097487
S100A16,6.826818e-05,-0.0008967323,0.000902264,0.0010618846,0.00057354575,-0.00040021617,-0.0014433572,-0.0030771275,0.0006255507,0.0022086166,-0.0020493437,0.007069255,-0.0029261757,-0.0011829233,-7.307205e-06,0.004113032,0.0022339902,-0.0026429093,-0.00316655,-0.005991579,0.0057258178,0.002774684,0.005247603,0.0028229645,-0.0013908854,0.0018067419,-0.0065337354,0.0010195656,0.006123868,0.0056965,0.007561802,0.0017757314,-0.008797899,-0.012151842,-0.008736272,-0.0017143048,0.0026035437,-0.0037007718,-0.001705419,-0.0031371335,-0.0009779717,-0.0016057596,0.00036364503,-0.0024724356,-0.0028192105
S100A13,0.0011418323,0.016466687,-0.005417873,0.0041781454,0.004238156,-0.0052974923,-0.008081133,-0.009704273,-0.008049498,0.030295279,-0.0012642806,-0.00072337256,0.0115465475,0.0014429605,-0.00020018223,-0.049809758,-0.0009500015,-0.0012064516,0.011851526,-0.0006712087,0.0041339565,-0.013013123,-0.008634218,-0.014406613,-0.005663374,-0.007351411,-0.0025373348,-0.0039431946,-0.0040563643,-0.0010611713,-0.0026480556,-0.010562092,-0.0048794374,-0.013285626,0.00038525264,-0.0065944716,-0.015058289,0.002033488,-0.011936274,-0.0073470306,0.0074151927,-0.014674221,0.009870791,-0.00050958485,-0.015049081
S100A1,-0.0034232663,0.0029173526,0.00048405761,0.0025127833,0.008015991,-0.0037563262,0.0015179887,0.0015756002,-0.012826406,0.014874703,0.013154544,0.007615697,0.012145087,-0.0052249725,0.0026857725,-0.028516332,-0.006582071,-0.005561214,0.008169835,0.0046269475,-0.0058602416,-0.011828997,-0.015006358,-0.004754982,-0.0047313236,-0.0008921814,-0.007890838,-0.00076289946,-0.0038797332,0.0050760936,-0.0020070141,0.002544344,0.011820579,-0.006354678,0.009003284,-0.005565498,-0.0040668417,-0.0028721897,-0.0065310025,0.011381854,-0.0007030306,0.0015579003,0.009264623,0.011634284,-0.009191539
RAB13,0.001746985,0.0029535326,-0.0004457274,0.00089589664,-0.000829993,-0.0008470284,-0.001645607,-0.0035533574,0.0015646332,0.0017552914,-0.0039052076,0.001234208,-0.0055801724,0.0012577819,-0.00046137068,-0.0022181843,0.0036059928,0.0012732625,0.0030970036,-0.011631834,-0.0043693096,0.0018944376,-0.0009833272,0.0021515472,0.0066785947,-0.0015543471,0.0011973125,0.0051574167,-0.0005177895,-0.0009954986,0.004090716,0.0036940721,0.00016479049,0.0018753757,-0.0019786041,-0.0057754377,-0.005543166,-0.0022867187,-0.003397254,-0.0040404107,-0.00094839226,-0.0022061092,-0.0025233096,-0.0018534746,-0.00128647
IL6R,-0.0021129434,-0.0037811026,0.00033678501,0.0030028776,-0.0035136726,-0.0078958785,-0.0033242116,-0.0018051993,-0.003566384,0.0019544365,-0.0024362998,-0.007325736,-0.00250292,-0.00021756506,-0.0035942686,0.012272192,0.009176001,0.014870228,-0.004528118,-0.008963808,0.0069606146,0.025934076,0.004463297,-0.010009958,-0.0048801918,0.0077108294,0.010913946,0.0032922598,-0.013782824,-0.009320937,0.014136437,-0.009445451,-0.011792372,-0.0049473247,0.0023197746,0.010121566,0.011580638,0.025084632,-0.011009192,-0.0072338586,0.0046405704,-0.00013823973,0.011074332,-0.012514583,-0.00956884
KCNN3,0.00019275217,0.0023828857,-0.0009940759,0.0018565475,0.0024946397,0.000888911,0.000256675,0.0007034321,0.00012486435,0.0020254434,0.0025985881,0.010887363,-0.008356411,-0.0028866571,-0.0029447752,-0.00029932946,-0.0038877488,0.00028029995,0.006614071,-0.0031678602,0.0013706269,-0.0010617428,0.0015982824,-0.0014979631,0.0029134953,-0.0018715644,-0.0021175852,0.0007134223,0.0018248438,-0.009373608,-0.00022230539,-0.001438593,0.0057340204,-0.0023380234,0.0034172356,0.00052655407,0.0020342914,-0.0034409636,-0.0009959813,0.0023768058,0.0024539274,-0.003379471,0.00075539,-0.0023423014,-0.00056164473
PBXIP1,0.0005700684,8.416532e-05,0.0007107761,0.0001356296,0.00047090597,-0.0029593382,-0.0010847243,-0.0036877564,-0.0018417217,0.00369798,0.0040794453,0.004170904,0.009492431,0.00292197,-0.00047197772,-0.0011545218,0.0008763105,-0.0004812897,0.0013052755,-0.002705401,-0.005684669,0.0010894736,-0.0051383083,-0.0045008957,-0.003956094,-0.0013466732,0.0012438295,-0.0037926508,0.0011919999,0.004127943,-0.0012554587,0.0030327104,-0.003992486,0.0061295154,0.0080367215,-0.0026260507,-0.00902122,0.0058233906,-0.0017369363,-0.0036016689,-0.0036852628,-0.0008975485,0.009870389,0.0032686123,-0.0042558685
LENEP,-0.0001544194,0.0015202175,-0.00321474,0.000564683,-0.000330139,-0.00059554947,-0.00083108124,0.00080384995,0.0012746945,0.00012783572,-0.0015649622,-0.00028062103,-0.00010835428,0.0050071543,-0.0011190779,0.00086605333,0.0023636608,0.00026632784,-0.0010928343,-0.0010596785,-0.0036738382,-0.00071204954,-0.0040514283,-0.004505048,-0.0017067997,0.00052933104,0.0045832614,-0.001622907,0.0011079051,0.00036931224,-0.0019946054,-0.0039593293,0.0034169876,-0.0032231074,-0.00048212247,-0.002395138,-0.00053694966,0.001981763,0.0006769186,-0.0015411308,-0.0009223322,0.0016298395,0.0006817297,0.0007273564,0.0015086014
SYT11,-8.243197e-05,0.00018631891,-0.00095415505,0.00038483783,0.0009684896,-0.0024094207,-0.0010396902,-0.0014551182,0.001726695,0.0019119517,-0.0038393636,-0.0047865463,-0.0037213399,-0.0058240243,-0.00074825285,-0.007639711,-0.0023447154,0.005720341,0.0065297885,0.0022561029,0.0025408184,0.00077989383,0.0064455005,-0.0010558364,-0.0002541787,0.002421795,-0.0019895295,0.0030698816,0.0063698534,0.0005301902,-0.0022947397,0.004905638,0.0011123384,3.4248784e-05,-0.0033943912,-0.0015503789,-0.0012634122,0.0042781043,-0.0025591808,-0.00060820207,-3.2493997e-05,-0.0020684318,-0.00040446632,-0.00500289,0.00040927203
RIT1,-0.0033264158,0.006081465,-0.0049335295,-3.6484336e-05,0.0031159294,-0.006059155,-0.0009802611,-0.0008272284,-0.006862544,0.0076698866,-0.004287881,-0.0013342482,0.00405947,-0.0031225614,0.010659793,-0.010930576,-7.958974e-05,0.0022004219,0.0026745256,0.0027702926,-0.002020428,-0.007520838,0.0028400228,-0.0032790492,0.006984563,0.01179786,-0.00025625373,0.0011788164,0.0028681592,0.0033080769,-0.0007830512,0.004085164,-0.0022447247,-0.008370008,0.005602984,-0.0015150087,-0.0027833064,-0.003076512,-0.017135194,0.0006600301,-0.008250557,-0.004554211,0.009369718,0.0051872907,-0.0056737047
LMNA,-0.0054872767,0.002479023,-0.0031064574,0.0035372057,0.0014676652,-0.013518127,0.007020421,0.0038970108,-0.010158745,0.0047587445,-0.0022906994,0.009369653,0.0020131655,-0.010683656,0.023132725,-0.014434121,-0.0038040234,-0.00047405346,0.0015671694,-0.005175287,-0.009032726,-0.0134839555,0.005203294,-0.010233652,-0.0018653106,0.010050598,0.008687338,0.019275969,-0.0060839485,-0.0005082942,-0.0005765212,-0.0018840824,0.0070276167,-0.0057353033,-0.0022479717,-0.0074496455,-0.0050550583,0.010295658,-0.019541586,0.021665568,-0.015841352,0.009666696,-0.0043972973,-0.005201814,-0.008596612
