gene_symbols,phi_0,phi_1,phi_2,phi_3,phi_4,phi_5,phi_6,phi_7,phi_8,phi_9,phi_10,phi_11,phi_12,phi_13,phi_14,phi_15,phi_16,phi_17,phi_18,phi_19,phi_20,phi_21,phi_22,phi_23,phi_24,phi_25,phi_26,phi_27,phi_28,phi_29,phi_30,phi_31,phi_32,phi_33,phi_34,phi_35,phi_36,phi_37,phi_38,phi_39,phi_40,phi_41,phi_42,phi_43,phi_44
SAMD11,-0.0021301433,0.0040946812,0.006499163,-0.0038353694,-0.001499628,-0.005458515,-0.0016693036,-0.0044568344,-0.004281868,0.026790848,0.028075455,-0.016811788,-0.026868131,-0.013238842,-0.0073044254,-0.038256206,0.0023740598,0.0013438762,0.0022989912,-0.009827901,0.006025018,0.0012496677,-0.01822177,0.002291284,-0.003511842,0.00883815,0.0024564685,-0.002867572,0.015560327,0.002277854,-0.0014884401,0.010207859,0.0031628003,0.009251559,-0.00052365294,-0.0015700747,0.0011102635,0.0042391913,-0.017742516,0.0016613941,0.0041028527,-0.0045291,0.004551861,-0.001483419,-0.005959351
HES4,0.010777999,-0.009309806,0.013192913,0.005308133,0.013769884,0.012358298,0.026817948,0.017422883,-0.008682629,-0.00636628,0.01082369,0.0003802563,-0.006432864,-0.014639938,0.015746757,0.006404347,-0.017821418,0.0106177535,-0.0043053515,0.00825125,0.018690275,0.014269029,-0.016036678,0.011644703,-0.004420987,-0.0059186695,-0.011629235,-0.028633343,-0.008755523,0.019205404,-0.0033200302,0.01535472,0.0039993883,-0.011105787,0.013011849,0.014102068,0.039370034,-0.004134703,0.0060733706,0.03393084,-0.019798214,0.035215884,-0.009863622,0.014529671,-0.01981851
ISG15,0.0036245035,0.0026164646,0.006805636,-0.006537777,0.004541488,0.0017008315,-0.0015509567,-0.0033423388,-0.0020870266,-0.0026070543,-0.002570108,-0.018276243,0.0012031392,-0.006171752,0.002230698,-0.007987989,0.00043520043,0.0057002753,-0.00037553205,-0.0009889362,0.010482969,0.004576137,-0.00254392,0.013901473,0.0045014736,-0.008324663,-0.013748933,0.0028275282,0.010923112,-0.004816605,-0.0031039051,-0.0012675156,0.0027832582,-0.012267002,0.00094851514,0.0028477036,-0.010783587,-0.004374336,-0.0063627553,-0.00297421,-0.008691,-0.008244154,-0.003939809,-0.0031198142,-0.00918118
RNF223,-0.00017576438,0.002119616,0.0010002482,0.001846891,0.00034343702,0.00091538514,0.0021811067,-0.0012401601,0.0005382015,-0.0010469732,-0.002396196,-0.005622824,-0.0018257776,-0.00096373394,0.004270948,-0.00636344,0.0003321512,0.0028785833,0.0018031201,-0.00059654954,0.0037915206,0.0012555046,-0.00041330402,0.002397838,-0.0027673978,0.0001537602,0.004764739,0.0005271836,-0.0021040658,0.0029989372,0.0033976915,0.00062082586,-0.0027950911,-1.9712952e-05,-0.0011157072,-0.0041215713,-0.002702203,7.521138e-05,0.00089024584,0.0018649059,-0.00672519,-0.0010681051,-0.0010155628,0.00031756287,-0.0020903752
TNFRSF4,-0.00011803172,0.00064676127,0.0017588912,-0.00047788137,0.002107231,0.0011688024,-0.002632043,-0.001449033,-0.0014427081,0.0012594747,0.0053685377,-0.004229064,0.000581977,0.0051815887,-0.00673176,-0.0065951766,-0.0069656367,0.0006336426,0.000543933,0.0022672545,0.0011440903,-0.008274234,-0.009955577,-0.0011491352,-0.0018574704,-0.0041393656,-0.00046191787,0.0068073785,-7.4846316e-06,-0.0026065065,-0.002155692,0.0064910757,0.0036545473,-0.005046856,-0.00012007739,0.0010804663,-0.00040197966,-0.008687678,-0.0006624076,0.0035471777,0.009698298,0.0013349508,0.0012152096,0.0008390663,-0.0018749994
MMP23B,0.0016891529,0.003003568,-0.0025171458,0.0017649626,0.00248445,0.0003831416,0.006805152,-0.007686017,-0.0021757535,0.0020032863,-0.006424331,0.0011091647,0.0027064688,-0.0029602624,0.010988319,-0.011612258,-5.2667536e-05,0.0072559263,-0.004465943,-0.0026984597,-0.0003549834,-0.0052947244,0.011146546,-0.003201726,-0.0065172827,0.0016590451,0.0030786176,0.0023934853,-0.0038322317,0.004227248,-0.0012657441,0.0005407822,0.00041989298,-0.007085255,0.0030676776,-0.0016303776,0.0011778662,-0.0047783805,-0.00015556313,0.0039350404,-0.0211001,0.008446231,0.0044621928,0.0026636145,-0.010623774
TNFRSF14,-0.0002516209,0.0017549646,0.00063486426,0.00078010163,0.0034531434,-0.005072315,0.0018106713,-0.0070499023,-0.0065046605,0.0012728114,0.0014087162,-0.0089668445,0.00017605041,-0.0031458323,0.0031592832,-0.0052720658,-0.0033910049,0.0014429844,0.011200268,-0.0037845518,0.0026454572,0.006371387,0.0024838857,0.0032560017,0.0014061313,-0.004860251,0.0032024551,0.0009406403,0.011906472,0.014822556,-0.0018264801,0.0014751549,0.0036233198,-0.005080878,0.0054364186,-0.0019585602,-0.0030292305,0.004448092,-0.004703058,-0.00055960455,-0.007861379,0.00409591,0.009451658,0.006643298,-0.0051994617
TTC34,0.00040763823,0.0030123128,-0.0006844836,0.0025985201,-0.0014947535,0.0010265454,0.0019981796,-0.0014355464,-0.00048161708,-0.0007410473,-0.00079307857,-0.00027246328,-0.0030416767,0.0016275002,0.0012841775,-0.005685018,0.0001911263,0.0020759786,0.0008757841,-0.0010171351,0.0030353265,-0.005645419,0.0016587388,0.00021185284,0.0004668087,-0.0022358554,-0.0002412751,-0.0024541907,-0.0050458666,-0.0020542871,0.003343467,-0.0072734277,0.0033671681,0.000119191114,-0.0027243053,0.0003471528,-0.0036191496,-0.0020058649,0.002270331,0.0028556893,-0.0027646883,0.00343997,0.0018040536,-0.00058461365,-0.0022333933
SMIM1,-0.0014898434,0.0046141003,-0.011560287,0.008647638,4.8972793e-06,0.0010509997,0.01041646,-0.001586554,-0.0059194528,0.0051786317,-0.022657502,0.003318379,0.00021196842,-9.198134e-06,0.019859558,-0.017546073,0.00091761677,0.009217817,0.003369097,-0.0062759267,-0.0071969004,-0.017156342,0.021330774,-0.01461371,-0.013280472,-0.0027064034,0.005816399,0.009791123,-0.0028857659,0.019280242,-0.0027558443,-0.0029189845,-0.0009361628,-0.004458905,-0.0001515239,0.0040178243,0.015246258,-0.004467292,0.0020784682,0.010512064,-0.023957346,0.014796911,0.0021729027,-0.0002521596,-0.01065574
LINC00337,-0.00013448957,-0.00090636144,9.793953e-05,0.0012762987,-0.00010704799,-0.0027093058,0.0016461639,-0.00084012013,-0.00030736308,-0.00082855683,0.0030585509,0.00082676974,-0.00258874,-0.003397953,-0.0013688963,0.0019795448,-0.0029194546,-0.0028291272,0.0066612717,-0.0013370096,0.0004973091,0.0011124779,-0.0026619644,0.0018116676,0.002159052,0.0016126892,0.0024800138,-0.005601395,0.00360074,0.0019693878,0.0010886636,0.0005364759,0.001700801,0.0017384127,-9.8443954e-05,0.002301058,-0.0010748664,-0.0006818154,-0.0022034987,0.002808152,-0.007896107,0.0024953347,-0.0012668913,-0.0038066248,-0.0018599482
HES2,-0.0022785487,0.0015649919,-0.00036625654,-0.0026805608,0.005522897,-0.004587808,0.00047088452,0.0023021158,-0.005437159,-8.823998e-05,0.0017687924,-0.010447652,0.0031556026,0.005656615,0.0037421312,0.00024352926,0.0029298686,0.0031524547,0.00016757988,-0.0063512367,-0.0029016167,-0.0024730146,-0.0018179643,-0.0020396758,0.010478491,-0.008799477,-0.010017648,-0.014603136,0.00080238696,-0.0048378287,-0.0003463277,0.003400947,0.0056220912,-0.0055528027,0.008391946,1.5778043e-05,0.000701051,0.005103357,-0.008317354,0.006727761,-0.0007322871,0.002375059,0.0011846296,0.0031734123,-0.007194739
ESPN,-0.0010543456,0.0007827761,0.001995347,-0.0042571765,0.0057839104,0.0016272492,-0.0010326197,-9.755022e-05,-0.0039667976,-0.0015481175,0.004395546,-0.005144794,0.0045165815,0.00956815,0.0035465478,0.001349932,-0.005150817,0.0049838326,-0.009197584,0.012474048,0.0033782108,-0.006467062,-0.00035965457,-0.008934247,0.0018483185,-0.012454795,-0.010987062,0.0020841218,0.0004093093,0.007894126,-0.00035322545,0.013595858,-0.008050723,-0.0020588955,-0.0037966757,0.0009395125,-0.0070244116,0.0003359108,-0.01311519,0.0013869093,-0.0011263352,0.009521918,-0.0017838564,-0.0046392577,0.002288023
TNFRSF9,-0.0031462105,-0.000894632,-0.00015762441,0.0041799536,0.0024838962,-0.0009186731,-0.0026706026,0.0012174959,-0.008185268,-0.0010963795,0.011715816,-0.013826694,-0.0009996566,-0.01653474,0.013379013,0.0030081696,0.0046414672,0.03400271,0.02565372,0.04564327,0.012381652,-0.0075955815,-0.017810715,0.0007791179,-0.0022167226,0.020591186,0.006571061,-0.0009810784,-0.008947992,-0.006114658,0.014431296,0.015169097,-0.025123455,-0.008291757,0.008272677,0.0006580843,-0.0076862876,-0.020353938,-0.004614216,-0.005009995,0.010760674,0.009132756,0.003892379,0.002734649,-0.008754135
ENO1,-0.013506847,-0.012562539,0.02884712,-0.03449945,0.018412085,0.004651761,-0.011176505,0.032729223,0.001176982,0.0017952004,0.021377025,-0.019012714,0.009854556,0.010371982,-0.018770222,0.040158458,-0.011434419,-0.023165908,-0.022203114,-0.007023212,0.023525719,0.020221002,-0.045482695,0.043152314,0.043980714,-0.024408024,-0.055426452,-0.014541903,0.016714668,-0.066212885,0.0031147236,0.019401273,0.007363031,-0.021620106,0.031295627,0.01762113,-0.008421619,0.009386863,0.028491624,-0.032379977,0.020901525,-0.011428305,-0.049539134,0.045964304,0.030504808
GPR157,-0.0001210755,0.0012996687,0.0005478274,0.0003769496,0.0028015138,-0.0007107175,0.00058053026,0.002452089,0.0008540996,-0.0017149141,0.0010729358,-0.0034518063,0.00086908124,0.0034912983,0.004192789,0.0022721963,0.0018373661,0.00044050458,-0.0036763328,-0.0025510767,0.0012456815,0.006520745,-0.0014964925,-0.0019770383,0.00020619768,-0.0016162414,0.004095333,-0.004686923,-0.0027553902,-0.0007953426,0.0007484504,0.00021409469,0.00037808676,0.00044815836,0.004585518,-0.0040015467,0.002034809,0.00023269928,-0.0006670156,-0.0003227295,0.001121438,0.0003025138,-0.0038769236,0.002084246,0.0026910629
H6PD,-0.0017072518,0.0011181408,-0.0024255582,0.0022189135,0.0033137812,-0.004736148,0.0011434772,0.002456625,-0.0011521728,0.0069709755,0.0010952159,0.0013527002,-0.0014674629,0.0006010702,-0.00013188983,-0.0057079988,0.0026011292,-0.006286743,-0.00071670185,0.0009715014,-0.0031023556,-0.00256886,-0.0015471887,-0.004140444,0.0022088138,-0.0035233696,0.0019119893,-0.0023443277,-0.001350406,0.0023910499,-0.006932508,0.00973557,0.0006585583,-0.0015265754,0.0005628134,-0.007950442,-0.0009339769,0.010705481,-0.005932213,0.003951393,-0.002002283,0.0055395938,0.006189101,-0.0026251094,0.0054248627
PGD,-8.70118e-05,-0.007639798,0.009106247,-0.0033875403,-0.0008298486,-0.0068121734,2.5242442e-05,-0.007410337,-0.0083059445,-0.010469483,0.0072628264,-0.001484839,-0.0049570026,0.0034566144,-0.0023423291,0.025272531,-0.014300254,-0.0071966285,-0.005483142,0.0041479548,0.0072052428,0.007935596,-0.014849489,0.009113642,-0.009020045,0.0045506833,0.0014474387,-0.0015437059,0.021023884,-0.0020194908,2.7155786e-05,0.0045255986,-0.004097657,0.015857067,0.0052575967,-0.005888363,-0.0059367465,0.010622948,-0.008141753,-0.0006236872,-0.008733206,0.00024603354,0.034988604,0.010848788,-0.0044619963
MASP2,0.00033215145,-0.0013489574,-0.0015481529,0.0014106303,0.0017020411,0.0010382752,-0.0018855263,0.00065114617,0.0016529271,0.0012301806,-0.0038991633,-0.0040830183,0.0013372549,-0.0058679217,0.0019894186,0.0021733507,-0.0013532784,-0.0016223108,-0.0025773644,-1.1646708e-05,-0.005952104,0.0049576713,-0.00024154918,-0.0003222754,-4.7161222e-05,7.125459e-05,-0.00019986583,0.00087255915,-0.0034448686,0.002242088,-0.0011017129,0.0041469545,-0.0010924687,0.0020974933,0.0032621338,-0.0018499879,0.0016010292,-0.0029134897,0.0033684906,-0.0042261463,0.0040889597,-0.0024887554,-0.0013123256,-0.00062538276,0.0022336147
SRM,0.0014429796,-0.0102312565,0.005238947,-0.023451151,-0.004332208,0.011909615,0.0069551673,0.035831094,0.011653245,-0.013077148,0.0015795595,-0.014967764,-0.0010148771,0.009334742,-0.007650185,0.020031204,-0.017332554,-0.008380049,-0.008589232,-0.005796938,0.0069982586,0.006120713,-0.0051274695,0.009426352,0.022212151,-0.010217677,-0.02845284,-0.018793914,0.0041579977,-0.053002287,-0.003073266,-0.011112451,0.00139644,0.0048638475,-0.008511252,0.007076619,0.0083840955,0.0095247375,0.02696922,-0.0004510393,0.010006983,0.022028198,-0.056003787,0.024724497,0.02785029
DRAXIN,0.00029567652,-0.0012256395,2.3292092e-05,-0.0012561871,-0.00055305095,0.0001862753,0.0009889865,-0.0015519221,-0.0007350029,-0.0034117491,0.003161248,0.0039219954,-0.0028301552,0.002723763,-0.0024761672,0.0026058175,0.0012704422,0.0027234822,-7.333701e-05,-0.0019389228,0.0037893003,-0.004072688,0.00268549,0.0004784996,-0.0013518039,0.002037483,0.0020943293,-0.001431245,0.0036870106,-0.0011658818,-0.00060312334,-0.0017698281,0.0017173069,0.0016854404,-0.00022598861,0.0010748024,-0.003813397,0.001122877,0.0004521475,0.0032707974,-0.0041382364,0.0014799302,0.00073159946,-0.000531566,-0.0018408288
MTHFR,0.0025920954,0.0056621353,-0.0036470527,0.0072300225,-0.004167692,-0.00066798535,0.005718727,-0.0066012763,0.0018809845,0.00030516705,-0.0036479116,-0.00066989474,-7.5994605e-05,0.0020152347,0.0128879,-0.006162683,0.0044111595,0.0041030953,0.0021368111,6.248334e-05,-0.0066591282,-0.0018692038,0.008701279,-0.00040085733,-0.0076216892,0.0019683156,0.014702623,0.008105777,-9.7121054e-05,0.014739307,-0.0011037004,-0.0072031813,-0.002999972,4.2349864e-05,-0.010660084,-0.0019813806,0.0047289357,-0.0006916796,-0.0029265913,0.004633945,-0.011331749,0.009119579,0.004521891,-0.0013968984,-0.0028401974
PDPN,0.001133095,0.0019652974,-0.0001335191,0.0013454638,0.001262694,-4.1231935e-05,-0.0025819633,-0.0017089114,0.002114128,0.0019917043,-0.003856428,-0.0032581987,0.005105024,-0.0029322652,0.0016584079,-0.0006476311,0.0013736864,-0.0023198745,0.0016347169,2.3618408e-05,-0.003992394,0.0041544833,-0.00075006793,0.001445139,6.537939e-05,-0.00071565027,0.00081930135,0.0021242127,-0.0021449889,0.0021893105,-0.00082452426,-0.0010800546,-0.0008561723,-0.0020423222,0.00033994677,-0.0008314026,0.0012085158,0.001948517,-0.0009774307,-0.002570238,0.0041554146,-0.004428245,0.00035410924,-0.004087729,0.0006814224
CELA2A,-0.0020909063,-0.0030464842,0.00029711114,0.0014179385,0.00010897327,-0.0025187195,0.00089607446,0.00259401,-0.0028944116,0.008871869,0.0009418718,0.007200405,0.008652252,0.00650967,0.00096062163,-0.018798381,-0.009769012,-0.003989454,-0.00089043804,-0.006574134,-0.00020405625,-0.0023329998,-0.004357326,-0.0027340793,-0.0014603197,0.0020539472,0.0055927536,0.002287817,-0.0046258555,-0.00060485094,0.00093847007,0.004814252,-0.0009819365,-0.009175354,-0.0050936006,0.0015555485,-0.002737033,-0.0016542827,-0.0051629622,0.00085306435,-0.0033154732,0.0061423555,0.004017331,0.006825073,-0.00023659207
CELA2B,-0.0016253515,0.00027197425,0.0034578918,-0.00036058313,-0.00070602796,-0.0003850919,0.0022465703,0.0020902534,-0.003265555,0.0040440015,0.004162589,0.0050573475,0.008650053,0.0065762675,0.0031986197,-0.0035314136,-0.0064640897,0.0025710212,-0.0010241489,-0.0024321044,0.0040382445,0.0012995802,0.0024817844,-0.0019757852,-0.00037409502,0.0026719277,0.005584489,0.0054589333,-0.0016883997,-0.0020345547,0.0026621837,0.004140718,0.0033100892,-0.0061781155,0.0028969953,0.0010615459,0.0021800182,-0.0047652894,-0.0017445356,-0.0034997487,-0.008492681,0.0033144166,0.0007339539,0.0032139455,-0.0015653918
PLA2G2C,-0.0020986067,-0.0043376605,0.0013103782,0.00087386323,-0.0016059442,-0.003119819,0.00013993848,-0.0024439231,-0.0077388072,0.0009188448,0.00458475,0.003498867,0.0018247195,0.0021927087,0.0019916645,0.012529253,0.00327167,-0.0014290399,0.00083825935,-0.0009897188,-0.0018196864,0.001005281,-0.009048533,-0.0018441743,0.0014765065,-0.0019851804,0.002070604,-0.0029437507,0.0030637821,0.007297601,0.0008669045,-0.0024484862,-0.0008152712,0.006660678,0.0020896832,-0.00120033,-0.008942324,-0.0015014615,0.0018503033,-0.0032757407,-0.00974682,-0.002146523,0.014042261,0.013912009,4.2559248e-05
HP1BP3,0.0043779113,0.0015667961,0.0096508,0.009784436,-0.004818559,0.0028209458,0.011950542,-0.006185229,0.004178818,0.0034065722,0.011697747,0.00929591,-0.013062239,0.0043949797,0.0027994227,0.009160779,-0.00045767732,0.00033062007,-0.0008945883,-0.008184585,0.009689423,0.011002084,-0.014865188,0.01082788,-0.013224392,0.006744146,0.017004436,0.006342131,-0.005278427,0.0236989,-0.009255214,-0.0010975709,-0.007986235,0.0007123575,-0.00934833,0.0029949192,0.011451076,-0.0032493647,-0.00076550065,0.010344381,-0.012376183,0.017559236,-0.0041595185,-0.00086105464,0.005203391
CDC42,-0.0017745888,-0.002594897,0.0079909535,-0.004883016,0.00040054147,0.0015789872,-0.0026960166,3.431848e-05,-0.0035500808,-0.0003409367,0.0068293368,0.0019209149,-0.0018244671,-0.003388625,-0.005696594,-0.00412112,-0.0065732272,0.002864173,0.0012145155,0.007704405,0.0071824887,0.0013022205,-0.0113299545,0.004570355,0.0082235895,0.008798584,-0.010035654,0.002595404,0.003933381,-0.0026012752,7.5777134e-05,-0.0009112557,0.0033123968,0.0043781092,0.005938542,0.002623141,0.0053679827,0.0032405134,0.002817422,-0.0012519609,0.0010752726,-0.007473647,-0.0033756916,0.0066459673,-0.0032515002
ZNF436-AS1,0.00026562676,0.0056853667,-0.00638776,-0.0008282556,-0.00061340805,-0.0036516879,-0.0028277345,-0.0045665647,0.00072363473,0.011563258,0.00016236305,0.0034444535,-0.0033213366,-0.003654141,0.00074203574,-0.01577883,0.005191,0.0075314855,0.011679917,-0.0038459871,-0.012642825,-0.0028405238,0.012763237,-0.0037016883,-0.0022264002,-0.0025439395,0.001680923,0.0056908336,0.0053679664,0.0038305626,-0.0017614259,0.007708335,0.0009669672,0.002748701,0.003221567,9.393748e-05,-0.0011910802,0.00036949237,-0.010951773,-0.00786578,-0.01020444,-0.00828631,-0.0010598326,-0.0065033785,-0.0007658666
ID3,0.0011026356,0.036914714,0.024485478,-0.015692938,-0.0068588927,-0.02544595,0.0012296964,-0.013762202,-0.007283637,0.05170112,0.056140915,-0.05440178,-0.035862263,0.01683277,0.026819175,-0.06799596,0.03748279,0.009087886,-0.030314581,-0.029830152,0.02545007,0.031945653,-0.045717143,0.015735695,0.028246967,0.012696692,0.0028389436,-0.03921748,0.048718937,0.01418559,4.3632903e-05,0.0018022108,-0.012767388,0.022585234,0.00010774386,-0.034183,-0.013164014,-0.001090251,-0.070273675,0.0074785864,-0.007948998,-0.020651331,-0.010194938,0.00033818447,-0.02661048
HMGCL,-0.002507851,0.001319647,0.0008807737,0.0050005126,0.0055931816,-0.0034764255,-0.0017040083,-0.0023587456,-0.0033581273,0.010230674,0.012729378,0.007925196,0.0035064206,0.0025932335,0.005851336,0.0011238867,0.015953252,0.0009629113,0.002257283,0.004312044,0.0007986206,0.00947972,0.0012207323,0.006264731,-0.0055228146,-0.0021306907,0.0055940854,0.007567068,-0.002148901,0.0063913492,-0.00400691,0.0019690392,0.006576537,-0.0056243488,0.009488324,-0.0018554932,-0.00018138846,0.005285067,-0.006895854,-0.0087789595,-0.006905526,0.00032443626,0.01191693,-0.0046905866,-0.0026358513
FUCA1,-0.0019490496,0.0050099543,0.0034628576,0.0050941533,0.0014807428,-0.0041770157,-0.0009002231,-0.0013607354,-0.004245276,0.008120891,0.00059165957,-0.0016976716,-0.0048754876,0.004607319,0.007069253,-0.010223681,0.0030220393,0.0010499072,-0.0006866926,0.0030608575,0.0014690431,0.005469606,-0.0061399937,0.0034455284,-0.009204378,-0.009681642,-0.0055532004,0.009794155,-0.009429125,0.004034709,-0.004369163,0.006333583,-8.381585e-05,-0.00092150527,0.0035052986,0.0028727546,0.0046929196,0.007355407,-0.001130163,-0.0010409193,-0.0016564388,0.0019730462,0.012923585,0.0067907404,-0.0011937334
CNR2,0.00076872925,-0.00252199,0.0015451567,0.0007571184,-0.0016118715,-0.00010051157,0.00073330314,-0.0012799624,-0.00069281063,0.0010776174,-0.0031669408,0.0005761011,0.00084627216,-0.0042656003,0.0016835316,0.004226961,-0.0028241037,-0.0026889183,-0.00011199022,0.0022511843,-0.003283304,0.0034432681,-0.0027958285,7.3099174e-05,-0.0006376709,0.0009257685,-0.0006053606,0.0041046524,0.00022587295,0.0030439063,0.00011441123,0.002606189,-0.0025351304,-0.0010278308,-0.004813593,-0.0015094907,0.0030454341,-0.0025451435,-0.0014315309,-0.0028500198,-0.00027423902,-0.0011021764,0.0033498737,0.0023494035,-0.0009164832
SYF2,-0.0027619451,-0.004491791,0.0066847624,0.002840764,0.011228024,-0.0020006064,-0.0051892283,-0.0022339148,-0.0034637928,-0.008166212,0.005703193,0.001085211,0.0017458732,-0.009558082,-0.0022354638,0.0035763015,-0.0017219593,0.00017967509,0.0069078067,0.01497673,0.0046969033,0.0057687024,-0.013411579,0.015994957,0.0024634788,-0.005230097,-0.0041194716,0.006530397,-0.0032328414,0.0032039399,0.008439426,0.007867103,0.0027105457,-0.012851948,0.017930739,0.0016663733,-0.0036742478,0.005867522,-0.0011966311,-0.010508899,0.004028983,-0.010273833,0.009251785,-0.0101676,-0.0035573947
RSRP1,-0.003882844,0.0029750683,-0.0029547312,0.0055266586,0.0013512308,-0.0044886153,-0.0052331393,0.0019261807,-0.0051191025,0.015173744,0.0045066653,-0.000520809,-0.008439493,-0.0030289418,0.0019066556,-0.008065751,0.0050033717,-0.0037268114,0.004965301,0.00396349,-5.579546e-05,0.0009900426,0.005996118,-0.0050158156,-0.004297766,0.00980274,0.0030499909,-8.671679e-05,-0.0041905157,0.008867981,0.0074320138,0.006214447,-0.0014040056,0.007073685,0.006819493,0.0027228561,0.0046695718,-0.0025171118,-0.0034131971,-0.006107737,-0.0019800267,-0.009054418,0.011408712,-0.0037480334,-0.0020063834
MAN1C1,0.0012571333,0.00039866508,-0.00062153884,0.0002716802,-0.00095264765,0.0009798838,-6.316848e-05,-0.00094827515,1.925966e-05,0.0024185071,-0.00357702,-0.004322753,0.001242863,-0.0018998014,0.0017708606,-0.001580242,-0.0004984859,-0.00061340164,-0.00038229255,0.0034578023,-0.0020017189,0.0028973145,-0.0015087439,-0.0007124991,0.002015628,0.00053577503,-0.00096727133,0.0009396754,0.0010650898,0.0011736265,0.001731799,0.0019708266,-0.0025416363,0.0017819126,-0.0027605814,-0.0012586875,0.0020990141,-0.0037070308,-0.00033589196,-0.0005261983,0.0021747644,-0.0028770652,5.2757234e-05,-0.0008289729,-8.303392e-05
PAQR7,-4.962304e-05,-0.0012727146,-0.0007778585,-0.0024936858,-0.00016612784,6.770037e-05,-0.0007479035,-0.000897915,0.0023777573,-0.00051780976,-0.005370095,0.0013599929,0.003166541,-0.004026256,-0.0025884355,-0.0047331713,-4.8115136e-05,0.0008768824,0.008742569,-0.004234892,0.0012920414,0.0024809195,0.004695474,0.0032439237,0.006223706,-0.0019486063,0.0030822214,0.0050238282,0.008264564,0.0053986623,-0.0037709714,-0.0001857196,0.0005822788,-0.0032034146,-0.0029200234,-0.001486863,-0.0019012504,0.00059376605,-0.00012615419,-0.0013134476,0.0034040427,-0.0025905212,-0.004355098,-0.0016099695,-0.0012361031
STMN1,0.007689206,-0.0033205594,0.014180617,-0.0065003457,0.0025547955,0.0104260575,-0.006704222,0.004212419,0.02172552,0.000882547,0.017335095,0.0015531259,-0.009865241,0.009870096,-0.015671127,0.048230477,0.017094366,-0.010434708,0.0044675674,-0.0018757371,-0.0035619678,0.0048683845,-0.03969215,0.013450904,-0.00091904437,-0.0060116365,-8.4034524e-05,0.020911654,0.020706562,-0.0019719137,-0.007158085,0.0017610638,-0.0040125246,0.00015711987,0.007107594,0.0049943374,-0.010971576,-0.0049178405,0.018134277,-0.0245609,-0.0015123425,-0.014919928,-0.042806923,-0.0012407617,0.036778312
EXTL1,0.0015943389,0.00037503045,0.0011907449,0.00029566957,-0.001154651,0.0010836069,0.00057567935,-0.0039624805,0.0021587843,-0.0022410487,0.0018692941,-0.0005736632,-0.0052597607,-0.0032166527,0.0009292304,-0.0023256447,0.000712893,0.00048223045,0.0013624462,0.00051223335,0.00028104964,0.0042996653,-0.0023587765,0.0006454951,-0.0015925074,-0.0034594466,0.0020607056,0.0048467084,-0.0028122817,-0.0005568239,-0.003466292,-0.0026608664,0.0015722186,0.0041468656,-8.16817e-06,-0.0010341107,-0.0018668508,-0.00021997381,-0.0006214265,0.0067441817,0.0019416334,-0.0045333505,0.0034701973,-0.004658574,-0.00079175434
TRIM63,-0.00029208005,0.0015064331,-0.001725257,-0.0005783431,0.00022453563,0.00301195,0.0013408179,-0.0019456326,-0.0021175405,-0.0023169555,-0.0009976545,-0.006204452,-0.00249104,0.004123441,0.00049794634,-0.0010849122,0.00022320867,0.0004353721,0.0034289712,0.004385496,0.0012679228,-0.0017085111,0.00025387097,-0.0006629492,0.00023707081,0.0051364354,-0.0032604567,-0.0032355876,0.0035758999,0.0057581817,0.0024353897,0.0013343965,0.0015312638,0.0075973957,0.0035904841,0.005757126,0.0026760742,-0.00347304,0.004266604,0.00381978,-0.0010893176,-0.0033884158,-0.0021124557,-0.00010094253,-0.0077517927
SH3BGRL3,-0.0062988694,-0.003038304,0.011438924,0.0132219475,0.004292831,0.007049645,-0.005702327,-0.011518703,-0.03140888,0.0019321158,0.0060098483,0.001545874,-0.00696165,0.0013915047,0.009808012,-0.019884085,-0.012160542,0.0031350444,-0.0067238,0.0014321588,0.014004819,0.007626461,-0.010560112,0.018187229,-0.00019396862,0.010819807,-0.026402878,0.0010486735,-0.003531374,0.041063774,0.0024933103,0.017027289,-0.0029675795,0.0041376776,0.0042723836,0.046015326,0.022232078,-0.038691442,-0.008221778,0.008365629,0.003491775,-0.01763049,0.034316212,0.0027408085,-0.054100905
CD52,-0.004410316,-0.00047663713,0.0019561173,0.014327894,0.006560693,0.00083048147,-0.010615483,-0.010288041,-0.023014871,0.008056714,0.0129260495,0.00045714667,0.0016532599,0.015538621,-0.0062922947,-0.017614877,-0.0149608115,0.0018112729,0.0023147215,-0.006642305,0.0023503252,0.006012417,-0.012847128,-0.0053295926,-0.005504,-0.002912802,0.00021412567,0.0055382755,-0.008221874,0.019316787,-0.0035042306,0.012834872,0.0048268074,0.0033954838,0.011000993,0.014233168,0.006646689,-0.0228632,-0.0120621035,-0.004054397,0.010802921,-0.016471837,0.039097194,0.008472213,-0.02502342
LIN28A,-0.00042801455,0.00045896554,-0.00025688167,-0.001513513,0.00093774777,-0.00021777289,0.00010973598,0.0018732856,0.00032641995,0.0006258266,-0.00023244669,-0.002040333,0.0013284367,0.0011455707,0.0002208351,-0.00023290499,0.0012070417,-0.0009992031,0.0020464493,-0.0008031089,-0.0017985778,0.00035631665,-0.00039724342,-0.00032106932,0.0026362464,-0.0023524868,-0.0012280379,-0.0023146179,0.0007406955,-0.0031921146,-1.2941067e-05,0.0009891801,0.00046642224,-0.0008179273,0.0015795312,-0.00043808497,0.0002994005,-0.00045481065,-4.1779185e-05,0.00010811121,-7.771383e-05,0.00044464594,-0.0006499079,-0.0002950904,0.0011572476
HMGN2,0.0047407737,-0.002864379,0.015337383,-0.009007457,-0.006780192,0.008116634,0.0021711525,0.009224462,0.014526863,0.0020914504,0.013692955,0.005214703,-0.007326758,0.024307152,-0.0040830346,0.048963446,0.013399336,-0.017065465,-0.0007709772,-0.009507102,-0.0019179112,0.012814969,-0.035677318,0.0133135,0.0012950132,0.0074561997,0.0031201097,0.018488402,0.022966236,-0.0045632967,-0.0091133835,-0.0035812086,-0.008076301,0.008479572,-0.012191523,0.008339935,0.0056337556,-0.001889918,0.01791397,-0.013156904,-0.011779065,0.003373166,-0.037348155,0.018027093,0.030093664
NUDC,-0.0047461973,-0.009832208,0.013790457,-0.01603833,0.0073078587,0.0071498808,-0.0017760895,0.021634012,0.0031597007,-0.0026419612,0.0019106201,-0.0036135972,0.0028282744,0.0008382837,-0.00896859,0.015977575,-0.010088509,-0.00813568,-0.015405909,-0.0015535178,0.018795766,0.007080822,-0.014847735,0.023359366,0.02361056,-0.009767085,-0.0305825,-0.005820167,-0.0040505817,-0.037971217,0.0071554147,0.0056485976,-0.0014414825,-0.0028806566,0.01615846,0.015423273,0.0036024007,0.010167161,0.018822243,-0.019721666,0.0077778506,-0.0021867387,-0.032125168,0.022029473,0.012547413
SYTL1,-0.00062193687,0.0005366933,0.0026132532,-0.002673166,-0.0033176667,-0.0011946898,-0.0016829398,-0.004461567,-0.005650008,-0.008451903,0.0018654603,-0.0017877321,-0.009436534,0.00381691,0.0008917463,0.0009163255,-0.006965627,0.003019527,-0.0006997055,-0.0009815576,0.0006493908,0.001898288,-0.013615151,0.00024210948,0.001510401,-0.004674899,-0.0030684075,0.002168647,0.012341469,0.0025726915,0.003368586,0.0003440212,-0.0020539095,0.02152678,0.0029833564,-0.007890525,0.0022882917,-0.0053116553,-0.008408944,-0.0033724175,0.0047413227,-0.0068448354,0.01784779,0.0007198284,-0.015244217
IFI6,7.5752745e-05,-0.00074638566,0.0019432317,0.0031481602,0.0026025625,-0.002337364,-0.0012621366,-0.005900002,-0.0053836633,0.0037269434,0.0031402484,-0.00045215402,-0.0037001425,6.132589e-05,-0.0028052898,-0.0057158405,-0.0023734914,-0.0027847402,0.0062910765,-0.0042116656,0.0040698834,0.0043549356,-0.002291287,0.0029383074,0.0022031826,-0.006958483,0.0029393076,0.0081938915,0.004663618,0.010434268,0.0034002087,0.0024260308,0.009635311,-0.004049755,-0.0020840045,-0.0011977436,0.0036962149,0.0006044519,-0.004243317,-0.0005985531,-0.00030950084,-0.0056037544,0.010282624,0.0019662492,-0.003559136
THEMIS2,-0.0014333382,-0.0060193967,-0.0014894465,-0.0013068216,-0.0028136978,-0.003091681,0.002299337,-0.0032503086,-0.0066866255,0.0037049898,-0.0002880784,0.008600497,-0.0015825938,-0.004622723,0.011272306,0.022114877,-0.010777765,-0.00415244,-0.0063465806,0.00820697,-0.0026079004,0.0022362797,-0.005408708,-0.0018350484,0.00068229146,-0.0020274597,0.005061762,-0.0022536835,0.017275237,0.0055461884,-0.0039711185,-0.004877776,0.004053566,0.013896297,0.0021752082,-0.00647953,0.0022645586,-0.0008335249,-0.00061336224,-0.0023173385,-0.0016110606,0.0027544561,0.027244449,0.008395757,-0.0075684935
PTAFR,-0.007334296,-0.004501194,0.00050394086,0.0052259224,0.0008121732,-0.006986497,-0.0037462667,0.008666107,-0.0098363245,0.00036296184,0.008767022,-0.0026156704,-0.0005092225,0.0035391182,0.0018662035,0.03048619,0.004930157,-0.005298215,0.0036183528,0.008700528,-0.0073471996,0.011070166,0.0021892595,0.0041036806,-0.011128686,-0.0053634187,-0.0058446266,0.009912609,-0.0059154173,-0.0048104613,-0.008764476,-0.0010144319,0.0012858177,-0.0054885834,-0.00060232665,0.0026793128,0.004505664,0.017058793,-0.002751984,-0.004923912,0.008501412,0.001057159,0.041478783,0.01909698,0.0007145179
SESN2,0.0013514357,0.0036316286,0.012258096,0.005614481,0.0055434788,-0.0018293373,0.0040639048,-0.0029497617,0.0036877864,0.0067475773,0.01471272,0.0006028716,0.0010415518,-0.0034220105,0.015403919,-0.001931405,0.0033688599,0.005253869,-0.0021228818,0.007846242,0.0081371805,0.008622723,-0.01153283,0.021142688,-0.009656473,0.0023395724,0.0060594426,0.002091247,-0.011987635,0.009135828,0.0068486286,0.002308254,-0.0009971366,-0.011672998,0.0074166185,-0.0040149814,0.0039729592,0.0025317734,-0.002898097,0.0017963898,-0.0045352937,0.00594699,-0.00026739895,-0.007916895,0.0026218537
OPRD1,0.00018871627,0.00052777724,9.4156945e-05,-0.0024795989,-0.0011912709,-0.00067487056,0.0008260844,0.0012236881,0.0008160857,0.0009803523,0.0035205733,0.00011466849,-0.0031623857,0.0008146855,-0.002344102,-0.0008785303,0.0014855943,-0.00057461084,0.0019514494,-0.0029653278,0.00076467753,-0.0009805197,0.0006393356,-1.8691386e-05,0.001030958,0.0033736106,-0.00048222282,-0.004822725,0.0008484143,-0.0008756833,-0.00431215,-0.0045019225,-0.0036589666,0.00032077645,0.002003868,0.0006477213,-0.00079507334,0.004776864,-0.0013549967,0.0009790747,-0.0013579488,0.0017062997,-0.0020875104,0.00017744926,0.0009642779
LAPTM5,0.0017984004,-0.0057199053,0.012380744,0.0013662089,0.00082069455,0.0036298013,-0.0023847562,-0.014532447,-0.0122137265,-0.00974027,0.00038608513,0.010744761,0.008374672,0.0027391114,-0.00086455396,0.0141705265,-0.009785437,-0.002763926,-0.010518918,0.0014501131,0.0147226015,0.011069307,-0.012763705,0.015988994,0.007927043,0.006177091,0.0025953962,-0.0015305444,0.011231069,0.010656515,0.0044395616,0.0060383286,-0.0050111804,0.009314727,0.006745561,0.013198039,-0.002318412,-0.023245359,-0.010730459,0.0027269004,0.0015526008,-0.016715085,0.02831691,0.0018549035,-0.026448678
FABP3,-0.0029599415,-0.0009295104,-0.0036820804,0.005500121,0.009085817,-0.00027105786,-0.002153668,-6.6079556e-05,-0.005427961,0.00285799,0.003635102,0.0014732449,-0.011775897,-0.007056605,-0.0038916576,0.0022978631,0.007842114,0.00086726696,0.0067934776,0.0029218353,-0.0023312375,-0.0002764496,0.009491476,-0.0046495195,0.0029765733,0.004074346,-0.014272134,-0.014883113,-0.0029569352,0.010546394,0.020020029,-0.0020511239,-0.0007721156,-0.019148272,0.0023468032,0.0006696087,0.018998507,0.005174379,-0.00041934784,0.0010909005,0.0014017727,-0.017308539,0.0012070854,-0.0065679904,-0.0031554194
SPOCD1,0.00069496135,0.003066664,-0.0028848737,0.00095827214,0.00034685337,8.288349e-05,0.00086148566,-0.001881391,0.0009809566,4.1218125e-05,0.009997536,-0.011321587,-0.006924312,-0.006199685,0.011349541,-0.00029921968,0.00040726806,0.007331519,-0.016048912,0.00047870257,-0.007010779,0.0048603374,0.010919596,0.00014737225,0.0012821688,-0.0003025477,0.015496019,-0.0008310454,0.0034897826,-0.000485203,0.009495865,-0.0005544548,-0.012138786,-0.009798777,0.006265921,0.0040175924,0.0011696912,0.006308258,-0.0020924706,0.0003785098,0.0019462917,0.0029873427,0.0040531033,-0.009707948,-0.0047184904
LCK,0.0007083732,0.0021909548,-2.3140195e-05,-0.0009576003,0.003616475,0.0017111314,0.0006640832,0.000101122285,-0.0005100504,-0.0026261965,-0.00411569,-0.0032691546,0.000572305,-0.00042869503,0.00028308592,-0.002406507,0.005476251,0.0049820207,-0.0053412924,-0.0009869053,0.001494331,-0.0007212738,0.00238887,-0.002997937,0.00038149182,-0.0012561422,-0.0035007452,-0.0030037542,0.0016887805,0.0014187505,0.0004059916,0.002552905,0.0024537542,0.0022820248,0.00466667,-0.00024042398,0.00087126816,-0.0015161593,0.004895138,0.0018028351,0.001187394,-0.0005856757,-0.00058355165,0.00081180217,-2.3589988e-05
MARCKSL1,0.002406588,-0.009069089,0.0077252677,-0.016337266,-0.003877643,-0.005430386,-0.001335061,0.011576483,-0.00034140417,-0.008343939,0.016303759,-0.004331168,-0.011387275,-0.013263463,-0.010221174,0.03145238,-0.008023117,-0.011587572,0.001223634,0.0035180647,-0.003617834,0.0013117403,-0.019817099,0.009838392,0.016283788,-0.004233857,-0.0052112057,-0.018784983,0.021978885,-0.040055763,0.00114812,-0.011737076,-0.0018793052,0.0180079,-0.004694462,-0.033908226,-0.01894048,0.019392902,-0.005721839,0.00014448645,0.0036872493,0.0052298056,0.014428604,0.030645661,0.013552978
BSDC1,0.0037398506,0.0032440762,0.0018193797,0.006762391,0.005106473,-0.0016136246,0.006177784,-0.011510602,0.001280107,-0.005429634,-0.0022625194,0.0074063824,0.0033277813,0.0014808909,0.0071587195,-0.0021298674,0.0038367985,0.004914173,0.0025872104,0.00744677,-0.00031854253,-0.0044661877,-0.009038962,0.0030406816,0.0024365543,0.002332864,0.010836983,-0.015767956,-0.006319779,0.031764627,0.0035851933,0.011661672,-0.0052168192,-0.01196645,0.0033047071,-0.0009330202,-0.011545846,-0.0003948935,-0.0092161475,0.0122403195,-0.011323751,0.0010403164,0.004859773,-0.020793207,-0.01105527
TMEM54,0.0021128587,-0.012144077,-0.015552873,0.00996414,0.008836464,0.004210772,0.00286117,-0.0024931205,0.0054563456,0.0021402473,0.025105638,0.010377332,-0.010996845,-0.015835382,-0.022198942,0.0004250107,-0.026114957,0.03396644,-0.004718887,-0.016559947,-0.011939733,-0.00585145,-0.0030679412,-0.058553975,-0.010750648,0.00016366584,0.012685179,-0.011248165,0.016081918,0.025977813,-0.005875098,0.012569046,-0.00020655242,-0.00020604634,0.017967902,-0.011296688,0.012057342,-0.018801527,0.012721089,-0.005526705,-0.0035252979,0.013497625,-0.017116167,-0.0068631913,0.023523323
PSMB2,-0.004318411,-0.0048028454,0.016478507,-0.014335389,0.015738321,0.0066792173,-0.011268282,0.019310294,0.0015062012,-0.0039284485,0.0040299054,-0.012896402,0.0077325567,0.0056672324,-0.014526936,0.011852576,0.0035550825,-0.00997409,-0.010642384,0.0021213451,0.01574151,0.0019129232,-0.028167024,0.02621731,0.026367137,-0.01145221,-0.029587915,-0.0013660348,0.0015069634,-0.031096956,0.0061318553,0.02117784,0.0035039831,-0.0123075275,0.027323168,0.01817599,-0.0055207587,0.006060508,0.021045413,-0.01824159,0.011289578,-0.021607518,-0.03311181,0.012349975,0.010754849
CLSPN,0.0030683717,-0.0051500155,0.009694099,-0.010135507,0.0038433387,0.008665045,0.0033519624,0.012895651,0.002369783,-0.005058095,-0.0007673454,-0.0032835659,0.0018690225,0.0029992822,0.0037415624,0.02158086,-0.004683795,-0.0074606165,-0.006916564,-0.00021780233,0.00509486,0.0028454755,-0.01367962,0.017197743,0.014018614,-0.009233271,-0.018208759,-0.008686082,0.0038832847,-0.017425572,-0.0046586897,-0.002275644,0.00061804056,-0.00301801,0.0010075541,0.006855872,0.0026354934,-0.003601567,0.01444346,-0.0038090819,-0.00093473453,0.004766002,-0.025267517,0.015164042,0.0043185046
MAP7D1,0.0049704146,0.00062750955,0.011300361,-0.0041946326,-0.0015386529,0.0048764246,0.005925123,0.0020696288,0.0053171525,-0.007224517,0.0061273375,-0.0018001699,0.0032254676,-0.0008041903,0.007117369,0.008620781,-0.001186185,0.0040254793,-0.0035252136,0.0033387146,0.0075812796,0.0065185963,-0.023188714,0.014291085,-0.0010447568,0.006382915,-0.001325773,-0.006015334,-0.0037242111,0.0023061836,-0.0011200443,-0.008135293,-0.00061771175,-0.0012538008,-0.0003192923,-0.008086387,0.0016621944,-0.002479922,0.004345696,0.002430188,-0.003858576,0.005970474,-0.007571476,0.0022688264,0.0028820143
CSF3R,-0.005019596,-0.0130142635,0.0033461167,0.0030540228,-0.0035523642,-0.009731234,0.0006139877,-0.015288726,-0.02398236,-0.011594129,0.015719665,0.0044295434,-0.00022674455,0.002601798,0.00526165,0.025265438,-0.021473642,0.00014014186,-0.0043629273,0.003568868,0.0033890982,0.018253237,-0.007925298,-0.0024432368,-0.0138582485,-0.00032336704,0.0037449219,0.0032341357,0.011691545,0.004981333,-0.0070476397,-0.005880068,0.005989116,0.027254643,0.005438278,-0.0062117954,0.001953446,-0.003957566,-0.017248986,-0.0033401728,-0.0077553196,-0.0019509568,0.076202765,0.023715945,-0.023897009
CDCA8,0.0034013316,-0.009155723,0.023678241,0.0072210603,0.0008594127,0.005708407,0.015243549,0.0050542965,0.00850942,-0.0076264194,0.009172609,0.016029093,-0.0024970344,-0.0064105038,-0.0002265321,0.019986585,-0.013583047,-0.000105274354,-0.024796344,-0.0069544856,0.023889415,0.02219015,-0.024547448,0.030593636,-0.011972071,-0.00015340926,0.014223296,-0.0016034611,-0.012296806,0.004730211,-0.008756195,-7.196202e-05,-0.0070748124,-0.0018310244,-0.0039527835,-0.0011305427,0.014164083,0.0028691604,0.014268105,0.011243118,-0.011996592,0.028487569,-0.01686429,0.008152895,0.01762734
RHBDL2,0.00039107294,0.001957001,-0.001176817,-0.0007964623,0.0005979396,-0.0009163659,0.00086728076,-0.0021593056,0.0016072101,0.0006124545,0.0015542827,0.0009011974,-0.00091335026,0.0035319505,0.0026945835,0.0002607389,0.0039368733,0.00089474843,-0.00030010304,-0.00064908736,-0.0005863188,-0.0015736369,-0.0009436592,-0.0009423158,-0.0013292544,0.00047591393,0.003389023,-0.0015973401,0.00022527271,-0.0012241175,-0.00096573686,-0.0014370325,-0.0008130237,-0.0019716634,-0.00040296192,-0.0025555224,-0.00029425672,0.00010068489,-0.0010069953,0.002946284,-0.0014509676,0.004408158,0.0004527085,-0.0017562836,0.002303561
MACF1,0.0020872317,0.0027055908,0.007221273,0.0027632797,-0.010042304,0.00037716955,0.00089480047,-0.0015498168,-0.0009904691,0.011690094,0.0024962865,-0.0012674714,-0.010259116,4.1428226e-05,-0.00039596623,-0.0055376347,0.0008617015,-0.0041151033,-0.0100844465,7.112411e-05,0.00657061,0.0052748313,-0.008456959,0.00692538,-0.0031592168,0.010592905,-0.0034493909,0.005772702,0.002315655,0.010387606,-0.00013406172,-0.0050912984,-0.009950639,0.012990306,-0.016698753,-0.0043657105,0.002311472,-0.000789992,0.0008809077,-0.0011026604,-0.0058910274,-0.0015698288,0.0039992984,0.00038199185,5.171135e-06
CAP1,0.0006268375,0.0020893998,0.016664295,0.0026660913,-0.0029387127,0.0022805007,-0.0041085314,-0.0050053135,-0.0053960388,0.0027134635,0.007780377,0.0005089433,-0.010041539,-0.002435094,0.0038572561,0.00041996344,0.011207698,-0.0016708621,-0.009619337,0.0045194947,0.018005764,0.009101513,-0.028887091,0.022316234,0.00298607,0.009242387,-0.008030034,0.0053659533,0.00022035271,0.0055164252,0.006529126,0.0023347004,-0.008361538,0.0018127381,-0.0020884313,0.007675429,0.0039286595,-0.0021035469,0.00036115965,-0.005889359,0.0015386756,-0.010097717,0.007930551,-0.00028669095,-0.008840275
COL9A2,-0.0011911113,-0.0034682553,0.0005107489,0.002732013,-0.00020304862,-0.005464499,4.0345676e-05,-0.009378144,-0.010345201,-0.0009796569,0.0091542015,0.003858283,-0.003051056,0.0024190678,-0.000412492,0.006056913,-0.008655063,0.00047979053,-0.0022046706,0.00043156787,0.0027292583,0.003602751,-0.0014175045,-0.0032283498,-0.011201744,-0.0031279582,0.0017962478,0.0055909054,0.0017598257,0.004618802,-0.007317318,-0.0048764874,0.0033012053,0.0019741813,0.0023337547,-0.003250736,0.0033525424,0.0039169258,-0.014339948,-0.00051820424,7.5019307e-06,-0.0011215558,0.041921344,0.0067026503,-0.015165944
SMAP2,-0.0014956859,-0.0006664256,0.0057737012,0.0024677028,-0.001300898,-0.00071421155,-0.0038789634,0.0050735762,-0.0065007354,0.0044522276,0.014071444,-0.00011723866,-0.0013136333,0.011330301,0.00044812914,0.0076651075,0.0014008762,0.0018127483,-0.003922161,0.0018471841,0.0072829863,0.0018800382,-0.013098039,0.0069954335,0.006199854,0.0037473177,0.0017420261,-0.009661557,-0.0050786105,-0.0011379159,-0.0013326231,-0.003565626,-0.0007043377,0.009965507,-0.0016833608,-0.010229275,0.0012900677,-0.0052952743,-0.0008696673,0.0034747992,0.0077723013,-0.0008470597,0.0077238507,0.009465844,-0.0017757226
CITED4,-0.00117821,0.005943449,-0.0029493151,-7.92689e-05,-0.0018563077,-0.0017211776,0.0024504294,0.0014935022,-1.4472969e-05,0.011201351,0.0015751346,0.0006122261,-0.00589056,0.010298438,0.009109783,-3.2120242e-05,0.0068494435,0.008554165,0.003162659,0.010871027,-0.0035580536,-0.008078283,0.0028269282,-0.0041274787,-0.0011154189,0.003412256,-0.00508979,0.0016980129,0.007587742,0.0027008113,0.007830896,-0.003998678,-0.009874564,-0.0024371033,6.729607e-05,-0.0010485214,0.0007082269,-0.00044612653,0.0004578747,0.0016524852,-0.0015654713,0.0071735135,-0.0025107274,-0.00521713,-0.0061095
FOXO6,-0.0016053643,0.0021647217,-0.0004761629,0.0037458001,0.004386736,-0.00044254912,0.0005609183,-0.0013087185,-0.0015031334,0.00058784167,-0.007368244,0.007218625,0.010895278,0.0016972311,0.0025927036,-0.0063541364,0.0035197777,-0.0014407149,-0.001309306,-0.0043525086,-0.002159836,-0.0052646324,0.0015862897,-0.0013537877,0.0021585836,0.0048706103,0.005358907,-0.0038331083,-0.0025070792,0.0049073026,-0.0006477049,0.002710222,0.0011328906,-0.007824971,0.001354587,-0.001489848,-0.005396857,-0.0036520492,0.0006871429,0.004539442,-0.006077329,0.0015759378,-0.00025424547,0.0009859633,-0.0033585127
PPCS,0.001458314,0.0036704014,0.004900709,-0.00018366134,0.0044103656,-0.0035976777,0.0006887742,-0.0063458635,-0.003485894,0.004475343,0.006819757,-0.005013635,0.0001599133,-0.0018336355,0.0027337736,-0.009690065,0.0030060578,-1.6128625e-06,0.0048116324,0.0038676944,0.002458901,-0.001697011,-0.0024317573,0.009896106,0.0045783133,-0.0014603765,-0.0025575042,0.0036511193,0.0015134118,0.0012519298,-0.001198878,0.0068213292,0.0057043144,0.004458004,0.009068086,-0.002571695,-0.0058036833,0.0035879165,-0.0022141289,-0.0036700754,-0.01381408,-0.0023027665,0.0114810895,0.00019714446,-0.009095726
YBX1,0.008085372,-0.005278629,0.0017930247,-0.032370195,-0.01424457,0.013697727,0.0013132265,0.019699628,0.022547057,-0.00938911,0.0032582653,-0.019023784,-0.015696555,0.009197728,-0.011439887,0.061188456,0.013602442,-0.00039232013,-0.0019271452,0.0067003197,-0.0073501277,-0.0046660965,-0.010166498,-0.002716233,0.022524843,0.0143945515,-0.024703149,-0.013593021,0.051424827,-0.038930427,-0.0016427954,-0.008528755,-0.011494436,0.031010538,-0.012391712,-0.0015874442,0.0055292784,0.0073494287,0.036810096,-0.00072673557,0.01145494,0.005526597,-0.084364854,0.010671254,0.03469296
CLDN19,1.3607405e-05,0.000625262,-0.0002532789,0.00072788436,-0.00079751026,0.00035237393,-0.0007518355,0.00096285815,-0.0011301915,-0.00037673666,0.0022957353,-0.00069360883,-0.0029635394,0.002236554,-0.0012208703,-0.0020010632,-0.00046678365,0.001557763,0.0011394286,0.0019296788,0.0040256116,0.0011331405,0.00417057,-0.002072919,-0.0024621096,0.0016320867,0.0014201483,0.00021866562,0.0006669106,-0.00080246036,0.0012013668,0.0013337624,0.0017951416,0.004339607,-0.00042540958,0.0024876257,0.004463395,0.004779175,-0.00044548267,0.0026441047,0.0031648146,-0.0012171917,0.0016532964,-0.0037441351,-0.0012535843
SLC2A1,-0.002129641,0.0018441478,0.00038463395,0.0063689398,0.008057458,0.006666993,0.008427282,0.010480122,-0.00068050256,0.0022861278,-0.002289765,-0.0038506426,0.0018781476,0.0121394,-0.0014870347,0.0048156036,0.0038368506,-0.004164376,-0.006561833,-0.005773126,-0.0025776376,0.0017616717,0.0017780634,0.00046483666,-0.0010311243,0.007812584,0.0019930983,-0.009577707,-0.01367889,0.009149414,-0.0063008447,0.017713046,-0.0009250251,-0.0070504895,0.009898444,0.016745076,0.014978614,-0.007844878,0.019391676,0.018821565,-0.0032991436,0.019472886,-0.01693431,0.0089636175,-0.00060796534
SLC2A1-AS1,-0.00213624,0.007439045,-0.006316486,0.008742157,0.003365296,-0.0010777111,0.0027874857,-0.0028951326,-0.0044592996,0.015378604,-0.007884978,0.0032284006,0.00391588,0.0029758841,0.016341632,-0.008664611,0.011931843,0.0034885074,-0.005505686,-0.00715938,-0.006252279,-0.008370246,0.016829342,-0.009449555,-0.0023915304,0.0019407826,0.012942012,-0.006173399,-0.0063570724,0.022707742,-0.0031070106,0.013675815,-0.0023592783,-0.0051934132,0.0012300112,0.00263762,-0.0030741876,-0.012654458,-0.0003795901,0.011735976,-0.0036080442,0.00029100876,0.0014171202,-0.008278348,-0.008398461
FAM183A,-0.00062036695,8.902769e-05,0.002013322,-0.002118501,-0.0005700249,-0.0016706225,0.000674374,0.0003770054,-0.0006425359,0.007684088,0.006591613,-0.0012348949,-0.0066051628,-0.0044393344,-0.001897112,-0.010538849,-0.0007350259,-0.001521382,0.0008201175,-0.0027668874,0.0021056123,-0.0035127148,0.00015485617,0.0038092106,-0.0014263052,0.00041380603,0.00010939862,-0.0015060091,0.0006964786,-0.0025705388,-0.0004770683,0.0034036282,0.0024977122,0.0029383549,0.00095224817,0.0045679724,0.0002887557,0.0047916607,-0.0016514363,-0.0006636669,-0.0008921466,0.0014902065,0.0010776919,-0.00065759046,-0.0013320076
EBNA1BP2,-0.0069744443,-0.009501802,0.0062695434,-0.019067291,0.004843157,0.004559598,-0.0058828127,0.029218279,-8.760271e-05,-0.006532054,-0.0025015902,-0.008662663,0.006063745,-0.0012521109,-0.012975828,0.014003656,-0.006240804,-0.008785369,-0.013954448,-0.00118386,0.009052386,0.005826035,-0.005159588,0.015694162,0.026718972,-0.011608604,-0.036976792,-0.01202742,0.0034793967,-0.04685623,0.0028828431,0.0039452626,0.0065289154,0.0014322242,0.013410741,0.014327178,-0.0004664228,0.011476469,0.020821415,-0.015827058,0.017141331,-0.0079174135,-0.03239917,0.020928083,0.011973205
CDC20,-0.0023314958,-0.0076434123,0.017782273,0.00096023513,0.0078933,0.002731866,-0.0020801316,0.004086535,0.006020718,-0.0045799706,0.0003228731,0.005524765,0.007857475,-0.0018098217,-0.007214562,0.022717545,-0.00043373095,-0.0070993956,-0.012674452,-0.0016478251,0.019144781,0.010909273,-0.021699404,0.028511563,0.0023325598,-0.009672586,0.00018543036,0.012977594,-0.0028908919,-0.005165243,-0.0020191143,0.0125486795,-0.0027838815,-0.004344128,0.013146698,0.0005900254,-0.00063227233,0.0062808404,0.017222684,-0.01049809,0.004970606,-0.0037182868,-0.013666196,0.0064252284,0.016233519
ATP6V0B,-0.004140884,-0.0029317671,0.020263381,-0.006180765,0.0076953107,0.004055006,-0.007841989,0.0059387935,-0.0047373357,0.005643333,0.009337946,-0.009719015,-0.0034787948,-0.013676228,-0.009104818,-0.004079673,-0.0066796984,-0.0043370486,-0.011327814,0.0010051952,0.02206721,0.009710452,-0.031632766,0.03516737,0.0065553007,-0.005537673,-0.03154589,0.006724263,-0.001301933,-0.006726507,0.0018958052,0.0031739364,0.006652411,-0.00034857224,0.015965117,0.010631521,0.004440523,0.0056418176,0.01030371,-0.011853318,0.012311458,-0.020750862,0.0036875438,0.0053393217,-0.009405093
KIF2C,0.0052732136,-0.009135706,0.021139313,0.007332736,0.002709086,0.0070417533,0.013579886,0.001163207,0.011635491,-0.008536533,0.009238089,0.014236902,-0.0032434268,-0.0033440301,0.0022606258,0.023565883,-0.010039305,-0.0027599914,-0.019082677,-0.006690535,0.020021098,0.020045545,-0.029766887,0.029170243,-0.0102472445,0.00067021424,0.02048772,0.0073473835,-0.005147667,0.01283898,-0.0063422206,-1.8093615e-05,-0.00814533,-0.0039141993,-0.0013703327,0.00021942245,0.013575933,-0.0016270179,0.010358304,0.008110038,-0.010732814,0.017768322,-0.01815365,0.0031829167,0.011479962
BTBD19,-0.0040174765,0.0014116218,0.0009122495,0.005262069,0.00080491306,-0.0032730037,-0.003694926,0.0015788979,-0.0040481687,0.0075520906,0.008276101,0.0058161765,0.003186444,-0.008443645,-0.003416854,-0.0057942076,0.0042300923,0.0054196934,-0.00051315,0.0038877653,-0.0023615928,-0.0015635518,0.0037546826,-0.0013427592,-0.0001089084,0.0020118866,-0.007846691,-0.0019473444,-0.0046014413,0.0060692593,0.0003052588,-0.00048614413,0.0010204456,-0.000997153,4.17877e-06,0.002168812,-0.00079721527,0.0033881124,-0.0013522864,-0.0006278342,0.0025953215,-0.00057858863,0.0011679588,0.00096465996,-0.0023415266
PRDX1,-0.0030264063,-0.0020196189,0.016318155,-0.024383176,0.019211885,0.0071784994,-0.018108902,0.018369492,0.004363416,-0.0024293298,-0.0016651852,-0.022740236,0.011032903,-0.0026605122,-0.022248141,0.0018886687,0.00016313592,-0.0077844122,-0.008306347,0.0039147213,0.016953124,-0.0064923046,-0.020182637,0.027329763,0.04374431,-0.02615955,-0.048931725,-0.0060740965,0.008394314,-0.04677354,0.00930671,0.017650284,0.0086520165,-0.0141327195,0.032724544,0.007000514,-0.023425452,0.0030307428,0.0147568295,-0.0265428,0.022390366,-0.033080555,-0.04010896,0.0064676534,0.0073976098
MKNK1-AS1,0.00016418454,0.00063129666,0.0007813233,0.0051077274,0.0025507656,0.0010646074,-0.00066390546,-0.0009281471,-0.0011218395,0.0023708602,0.001434302,0.0073641315,0.0052818945,0.0048969598,-0.0009856719,-0.0012145733,-0.0038441774,-0.0026797503,0.00093402155,-0.0031735355,0.0039620944,-0.002440875,0.0007542071,0.0017036217,0.0018874358,0.00062974246,0.006959385,0.0028054528,-0.0025931555,7.371755e-05,0.0024492147,0.00011182251,0.0024133546,-0.0038788612,0.00073748385,-0.00048114767,-0.006900405,-0.0009912427,-0.00091775006,-0.0023865679,-0.0028717327,0.0023632655,-0.0012604637,0.0027256738,0.0007478815
LINC00853,0.0012305075,0.003061086,-0.000418262,2.3880073e-05,-0.00011518701,0.0019902887,0.002816891,-0.0056015374,-0.002002166,0.00050768413,-0.0007518295,-0.0010399767,0.0015338858,0.0033008915,0.0068013896,-0.006106593,6.8889494e-05,0.0048179263,-0.0007380997,-1.854046e-05,0.0020554746,-0.0032662505,0.00335272,0.0007480126,-0.0034151883,0.0010063079,0.004855799,0.0024215062,-0.00044076002,0.0052823885,0.000687763,-0.0053311805,0.0012979846,0.0007773091,0.0033929893,-0.00017701047,0.0014852667,-0.009268478,-0.0077311923,0.0010221848,-0.011462159,-0.0028063895,0.004601677,0.0025449444,-0.004926939
PDZK1IP1,-0.00081007875,-0.0015703887,-0.0045791995,0.0026919763,-0.0034165944,-0.0038350907,0.0015999685,-0.0017859302,-0.0012826697,0.001507654,0.011332817,0.0038012667,0.0037389966,0.0030750427,0.00014245023,0.003440856,0.0005948888,0.0070961816,-0.0066280323,0.020464119,0.004713053,-0.002493264,0.0024416414,-0.0007913448,0.0017311265,-0.009265241,-0.010549218,0.0062460457,-0.008083196,0.0151382135,-0.0016856312,0.01810626,-0.009826629,0.0030709864,-0.007865557,0.0052589914,-0.009548513,0.003754759,-0.013245521,-0.0027950243,-0.0015120995,0.008745467,0.0016010246,-0.00883184,0.005656042
CDKN2C,0.0021754373,0.0028111434,0.0076277363,0.006632941,-0.0005920939,0.0004235021,0.005836532,-0.0065366407,0.0010665345,0.0017503903,0.013531554,0.00013713546,-0.008357747,0.013219596,0.011011458,0.00060248876,0.0018262899,0.0073080547,0.00381188,-0.0028836823,0.0030187499,0.011801435,-0.020097649,0.008083635,-0.013240365,-0.00087154884,0.011587508,0.0062661446,-0.002541568,0.018500837,-0.008586255,-0.006809993,-0.001500124,0.0041137584,-0.0028351832,-0.0027946369,0.010878196,-0.011486008,-0.004201716,0.0028278034,-0.013993463,0.0070890305,-0.002214199,-0.0015569752,-0.004043349
TTC39A-AS1,-0.00039989356,-0.0037852651,-0.0016842439,-0.00034319077,0.0062349997,-0.000539322,-0.00075903407,-0.0044308803,-0.0042704195,0.010031732,0.01574091,0.006413158,-0.0115178665,-0.0035982176,0.0013731901,0.013367684,0.010904367,0.0006808594,7.4829346e-05,-0.00537327,-0.0041868174,0.0037316247,0.005012513,0.0063500633,-0.0039455267,-0.011596594,-0.004793237,0.0021860234,0.003634788,0.0048136036,-0.0003539471,0.00399075,-0.00060713646,-0.01636521,0.0017692981,0.003627436,0.0044586854,-0.008106736,-0.009868551,-0.0037094706,0.0026256784,2.0617796e-05,0.00074337487,-0.001052896,-0.00055349496
RAB3B,0.0016780902,0.002886177,0.0024132736,-0.0019649095,-0.0005638621,-0.0025297813,3.2810858e-05,-0.0062088366,-0.0014705511,0.0010118724,0.0047497987,-0.007713853,-0.003181868,0.003488452,0.0007781874,-0.0063218353,-0.0016946027,0.0011990872,-0.0014353199,-0.0031981969,0.0012585981,-0.00014608291,-0.0053249937,-0.0006088935,-0.0015520119,0.0032098521,-0.0012150059,-0.0014333093,0.0075037563,0.0047049355,0.0011704395,-0.0002793335,0.00040749484,0.004841876,-0.002249075,0.0008011454,-0.0047639804,0.0019194394,-0.008467874,6.498198e-05,-0.006370219,-0.0012156005,-0.0008906827,-0.0020319584,-0.00581819
GPX7,0.00023663486,0.0006040767,0.0016190357,0.0009408913,1.9650766e-05,-0.0018608253,-0.0021627152,-0.0033526404,-0.0010291145,0.0020962434,0.0019316389,-0.0002830993,-0.0019383535,0.005174576,0.002227511,-0.0040079136,-0.0031006483,-0.00053520966,-0.00013341551,0.00072543917,0.0028554052,-0.0069126165,-0.007879352,-0.001795089,-0.0030289718,-0.00031039098,0.0026750397,0.0029928598,0.00033218562,0.0004989632,-0.002785657,-0.0017706116,0.0010002046,-0.00408702,-0.0005408152,-0.0028397338,0.0042233877,0.0035214738,-0.0030723466,0.0048031635,0.0027858224,0.0036252683,0.0012288755,-0.0013248132,-0.0038517367
JUN,-0.00048477665,0.008570195,0.016457843,0.009566904,0.027991239,-0.0019339038,-0.004826854,-0.008864276,0.008686504,-0.0048619644,0.010670486,-0.008064845,0.031032374,0.0014968176,0.010981725,0.00029290692,0.030322356,0.022294873,-0.0008816897,0.022388315,0.014079614,0.001592138,-0.0358416,0.042886652,-0.015928667,-0.024004318,0.0062064715,0.034977023,-0.015027198,0.027249396,0.019988013,0.025644138,0.01227777,-0.043368027,0.0599532,-0.021298423,-0.023664042,0.007708491,0.011694306,-0.023512281,-0.01016335,-0.019473976,-0.001590934,-0.026463876,0.005082821
LEPROT,0.00022626144,0.0023225052,-0.0060596233,0.0091614835,-0.004053563,-0.0002777882,0.0023839087,0.0026913586,0.0036959522,0.008996802,0.00074388244,0.0083677415,0.0019827567,0.0042040297,-0.0005368336,-0.0081797885,0.005081162,0.0017671509,0.005096581,-0.0007227935,-0.0070574223,0.00020659766,0.0062972745,-0.010113857,-0.013277719,0.0017703649,0.012794918,0.010365622,-0.010701235,0.00692766,-0.004879093,-0.0056175236,-0.00372817,-0.0026514789,-0.008172416,0.0007013943,0.008524049,0.0014672193,0.0007084702,-0.0017623942,-0.008045978,0.009044548,-0.002163539,-0.002246663,0.010847559
C1orf141,0.0011257636,0.0032799237,-0.0026181282,0.00079036225,-0.0012096597,0.0009012224,0.0026304722,-0.002219597,0.0017516598,-0.001229153,-0.005159199,0.00065945677,0.0013813726,-0.0007228602,0.0016819526,-0.004455807,0.002743317,0.0022452755,0.001618281,-0.0007396001,-0.0027115082,-0.0023188042,0.0016702319,-0.0011151726,-0.0032200506,0.0021282008,0.0006717446,0.0011966709,-0.001943568,0.0021721069,-0.0019403977,-0.0049281353,9.351626e-05,-0.000953349,-0.0020102377,0.00036041712,0.0008462099,-3.6961068e-05,0.0037117295,0.00026266387,-0.004801092,0.0018801275,-0.00048372633,-0.0023050038,-0.000145314
GADD45A,-0.00395184,0.0037932307,8.08666e-06,0.008112507,0.005481378,0.0067899534,0.000735858,0.01583706,-0.001425445,0.0036623,-0.008121334,0.0025546758,0.0064944406,0.009713438,0.006872604,0.007805212,0.017341346,-0.0030154549,0.004197638,0.0035630607,-0.0019802745,0.004664493,-2.4224537e-05,0.0111813815,-0.006887943,-0.00030889997,0.001954391,0.008971054,-0.018255983,0.01006606,-0.0007192767,0.007217475,-0.005946918,-0.015291642,0.01357534,0.020010214,0.0038707522,0.00040185134,0.023841998,-0.008292575,-0.0073583527,0.0026856011,-0.019469798,0.005957645,0.008488717
FPGT-TNNI3K,-0.0007656889,0.0020800214,-0.00033698292,0.0023884976,-0.00019739625,-0.0036091148,-0.0015304497,-0.0011946678,-0.0045479694,-0.0007281538,-0.008657355,-0.0056355563,0.0037054399,0.0061606932,0.0038478205,-0.00028290786,0.0011163632,-0.0018606518,0.002231987,-0.00041121984,-0.0021858672,-0.0017231898,-0.010254149,-0.0060311467,-0.0022058415,-0.0010527483,-0.0049867816,0.0010879365,-0.005770897,0.003437478,-0.0013458753,-0.007496397,-0.00352659,-0.012269592,-0.0055488725,0.0007760343,9.21597e-05,0.010344301,0.001796666,-0.002318459,-0.0027878573,-0.001159757,0.004768849,0.0065023433,0.0012872423
SLC44A5,-0.00037536598,0.0037845236,0.0019256859,0.00048191522,0.001906334,-0.0013356989,0.00160616,-0.0018878332,-0.0035474915,0.012087654,0.008314673,0.0037430327,-0.0030501694,-0.0007914377,0.0033038394,-0.006344406,0.010149236,0.0010816018,-0.0008580119,-0.004725755,0.0044948477,0.0006561516,-0.0002896283,0.0019821813,0.002688517,0.004042807,-0.00039276786,-0.004768613,0.004809057,0.00750496,-0.0013115046,0.00035266508,0.0043651806,-0.0004797396,0.006138322,0.003296142,0.001515207,0.002861576,-0.0045943274,0.0026889935,-0.008146572,-0.00039860065,-0.0016628912,-0.00079357246,-0.0045592673
DNAJB4,-0.00042551063,0.002470894,0.0005867856,0.0055152704,-0.0005773271,-0.0005142986,-0.0027532077,-0.00064270553,0.0024337005,0.0026168255,0.0046317037,0.00035038593,-0.0015714044,0.0024104381,-0.0003200252,-0.0032795374,0.005204198,0.0005536894,-0.002194399,0.004365582,-0.002561129,-0.0001508518,-0.008113061,-0.0017240054,-0.00064313086,-0.0009057112,0.01158516,0.004285397,-4.8495647e-05,0.010080913,-0.0012791407,8.511431e-05,-0.0014645742,0.00077048823,0.0009472689,-0.0003988178,-0.0013456339,0.003611715,0.0015636674,-0.0029088564,0.004832022,-0.0061112074,-0.002281246,-0.004074192,0.003125018
GIPC2,-0.0013812433,-0.0012959157,0.0016516397,0.0041314396,0.0014150358,-0.0004909484,-0.0050858613,0.0019616478,-0.0012198166,-0.0012676124,0.002910739,-0.0051764254,-0.00049865275,0.0009391608,-0.0014405792,0.0046867067,0.002443656,0.005864913,-0.0028579202,0.0032190199,0.0010923448,-0.0077350223,-0.0134939635,0.0018963349,-0.00644248,-0.007860923,-0.0041469643,0.0064239656,-0.008474067,0.00069605577,-0.0047805696,-0.0041090623,-0.0018768925,-0.011817778,-0.0027323915,-0.0053860177,-0.0012040035,-0.0031369012,0.0011083295,0.0028579335,0.013555932,-0.0013339652,0.0073579676,0.005004086,-6.211306e-05
TTLL7,-0.0022135486,0.0042472742,0.0011046954,0.006395784,0.0016879651,-0.0028263216,-0.0007754246,0.00075435586,-0.005164242,0.025107514,0.013402456,0.010437852,-0.007346948,-0.006191489,-0.001937345,-0.023584154,0.005094082,-0.0011519246,0.0050877426,-0.0021091697,-0.0030922885,-0.0087667145,-0.0083965855,0.0006183885,-0.005334802,0.0009066115,0.0021380342,0.007870645,-0.002172457,0.011130644,-0.0030849401,0.014253011,0.0009420954,-0.0038450125,-0.0011138566,0.0036389094,0.0027506268,0.0031173276,-0.0057671233,0.00039559221,-0.0014692596,0.004201572,0.003689973,0.0025405262,-0.0020533707
CLCA1,0.0015470252,-0.0014463986,0.0074475375,-0.004759886,0.0015786329,0.0028327748,-0.002578054,-0.003809236,0.0013291196,-0.002837147,-0.0011695815,2.3525185e-05,-0.0010435046,-0.0071553113,-0.0019112135,-0.000112013906,0.00010126126,0.014843953,-0.01723918,-0.003132211,0.02342618,-0.011131287,-0.005243673,0.014119409,0.0032853,-0.0075455057,-0.0078037847,0.0051521454,0.008423171,-0.004079111,0.0016480178,-0.0011484666,0.0007338104,-0.0059859487,0.006361908,-0.0032896164,-0.0098896865,-0.0048874416,0.0053053205,0.00075078104,0.0028332835,-0.009712483,-0.00466675,-0.007969627,-0.0086786905
LINC01140,0.0025223717,-0.010256564,0.0043706214,-0.0066479323,-0.003841731,-0.0014818147,-7.8015764e-05,-0.012029629,-0.004789275,0.006235956,-0.0044451864,0.02384161,-0.0042137583,8.841047e-05,-0.006852221,0.020608138,-0.005555228,0.002115189,-0.0052329353,0.0015556948,0.0008137477,0.0058937324,-0.0088695865,-0.000999866,0.009861108,0.008331503,0.001504239,-0.0063965023,0.025423609,0.007883976,-0.0038526354,-7.482138e-05,-0.0014613929,0.010146975,0.0029524858,-0.0026850076,-0.0034285926,-0.008259763,-0.008292784,-0.002069852,-0.008203301,-0.0040477533,0.0056541217,-0.0005007437,-0.007737444
LMO4,0.0021854916,-0.011666031,0.013521304,-0.0028775863,-0.010350766,-0.007210547,0.0061394833,-0.01862356,-0.00953081,-5.9693124e-05,0.014599266,0.029732332,-0.007608695,-0.008632006,-0.0018565373,0.018133424,-0.007504568,-0.0024416258,-0.008606089,-0.0072681345,0.010817428,0.0213673,-0.021116523,0.019399425,0.0030185243,0.016267322,0.008495212,-0.0028908218,0.027732685,0.016060442,-0.007458197,-0.0023089822,-0.00060027884,0.025039028,-0.005992318,-0.004168666,0.005592663,-0.0005586341,-0.026214477,0.0007317824,-0.022706073,-0.0022930836,0.028149972,0.002901924,-0.015867421
GBP2,-0.0034944306,-0.0026588936,0.0014609214,0.0073389458,0.004483748,-0.006725614,-0.006246209,-0.006010062,-0.008569728,0.0032115504,-0.0017371592,0.00987307,0.016391516,-0.00678864,-0.0010198259,0.00820609,-0.0042693825,-0.0021895187,-0.0044119223,-0.0015510696,-0.0010257905,0.002000976,-0.005174844,-0.00012143174,0.005852549,0.003501411,0.00232572,-0.01971852,-0.0068645086,0.015004624,-0.007917656,-0.0009706636,0.006336579,-0.0045276643,0.0007714555,-0.0044623977,-0.0035039065,0.0031837705,-0.0042043817,0.008899985,0.016332848,-0.010436129,0.023184095,-0.0069032875,-0.0043587144
BTBD8,6.3617066e-05,-0.0010686455,0.0028337406,-4.7064786e-05,-0.0024572664,-0.0017177387,-0.0037119722,-0.0037063132,-0.0008103854,0.005147083,0.0025703972,-0.0009231847,-0.0025706366,0.002911863,0.0012545373,-0.007121784,-0.008900799,-0.003952355,-0.0021463914,-0.0032093127,-0.00068112486,-0.0054555642,-0.0012465033,0.0035412908,-0.004752794,0.0047021294,0.0075952043,0.0030384897,0.0033277706,0.00034440952,-0.00046666985,-0.00080283516,-0.0005486234,0.0029536441,-0.0009245321,-0.0029195044,0.0008083121,-0.0011037162,-0.0049152407,-0.0010969704,-0.0024932045,-0.007141212,0.0033148667,0.005135703,0.006338099
KIAA1107,0.0008291496,0.0029878393,0.0007923134,0.0031596832,0.0017889282,-0.00029232996,-0.001040239,-0.0009950547,0.00047410428,0.004400382,0.0021141304,0.0022120352,-0.0011559775,-0.00067718996,0.0015538733,0.0005693516,0.006284253,0.0011001633,0.001034549,0.00061064627,-0.0014911974,-0.0011125181,-0.0032646859,-0.0007020583,-0.0031676553,-0.00095737394,0.0017464875,0.0027896469,0.00082325726,0.0041589784,-0.0021124939,-0.00056229316,-0.00065414235,-0.0023191944,0.00050722173,-0.0015278052,-0.001737598,0.0007569624,0.0016184653,-0.0024481297,-0.0018809303,0.00045804016,0.0035355806,0.0025857247,-0.00012802584
FRRS1,-0.004076193,0.0002680949,-0.0029477233,0.0028894572,-0.0020137164,-0.0025010156,-0.0032611878,0.004968043,-0.007338015,0.0029245669,-0.004792586,-0.001202736,0.0034300478,0.0059290244,0.0033333064,-0.005457583,0.0052005243,-0.0017514506,-0.00090655196,-0.00022981717,-0.0019771345,-0.00011414824,0.008780067,-0.00086025184,-0.0056954687,0.007034695,0.0062874844,0.0029240886,0.001138132,-0.0037761878,0.004486085,0.0028097488,-0.0019868263,0.0037884598,-0.0031682965,0.000149646,-0.0020739837,0.0051688217,0.0041358657,-0.0019457096,0.0029593061,0.00075795845,0.009085025,-8.358073e-05,0.0022397744
LRRC39,-0.000885467,0.0029808092,-0.00059494365,0.0023200114,0.0021080878,-0.0008686241,-0.0009329039,-0.002721467,-0.0007501061,0.00047087806,-0.0023492642,-0.0015070301,-0.005220536,-0.004681936,0.0046279165,-0.007220466,0.0013908467,0.0034371368,-0.0056357584,-0.0016171138,-0.0010000747,0.0018855741,0.0067569334,-0.0047492604,-0.005773274,-0.0010301381,0.0010102581,-0.0015856577,0.003291036,0.0054884595,0.004005504,0.0027523125,-0.0051567964,0.0031928695,0.007169585,-8.279444e-05,0.0031054975,-0.002938468,0.0036788008,-0.0012313996,-0.0020119569,-0.0017463495,-0.0006564452,-0.0028526408,-0.0035971075
S1PR1,-0.0019066668,0.004029503,1.706668e-05,0.0035938318,0.000567633,-0.0049116146,-0.0010363365,-0.00041759506,-0.0022412974,0.025798487,0.004415399,-0.004442937,-0.007726695,-0.013059593,0.009739963,-0.012271157,-0.0072871554,-0.0056488775,-2.0546771e-05,0.00041218466,0.0012055509,-0.0135836955,-5.496353e-05,0.00442514,0.002273921,0.0004157222,-0.0013784338,0.00040488277,-0.010703395,0.0064307335,0.0003734653,-0.0020018404,0.0074334783,0.0049730493,-0.004571352,-0.0062540593,-0.0007774652,0.0065689078,0.0017123184,-0.0006653945,0.0029160262,-0.0009632245,0.005192488,-0.010219754,-0.002863647
AMY2B,-0.0014705837,0.00055055344,-0.0008024336,0.002124061,0.0012262587,-7.379707e-05,-0.0033475338,0.001241147,-0.002096738,0.000769626,-0.01146045,0.009635504,0.008026122,-0.0064397953,1.36082e-05,-0.006852564,0.003986803,0.00014489244,-0.006824561,-0.0042930106,0.0055734375,0.0046106437,0.006433345,0.001042232,0.0019531157,0.0015113885,-0.0034408749,-0.00011955375,-0.0036319704,-0.0007044015,-0.0026895825,-0.0010602956,0.0003000794,-0.0020049259,0.0028022593,0.0016790557,0.0043741907,0.0044923555,0.0025973169,-0.002660807,0.0036903003,-0.004039087,0.00042218447,-0.00027670697,-0.00017301759
SCARNA2,-0.0013023298,0.00034753044,-0.0034821203,-0.00014007855,-0.0023604324,0.00032581878,0.00062478834,-0.00013649512,-0.0018025871,0.000591953,0.0005572887,0.0031122325,0.004798846,0.00097340945,0.0006914098,-0.0024503032,-0.0043078302,0.0020641969,0.0073008756,0.008299681,0.0023039933,-0.0022243618,0.0023265588,-0.003948693,0.0020927629,0.011462584,0.010680476,0.0020016797,0.00065078144,-0.010117389,-0.0017899171,0.0079991445,-0.002363857,0.005909315,-0.0021610656,-0.00014350751,-0.0015428216,-0.0025102717,-0.0038249935,-0.0027548254,-0.0011946916,0.0057450924,0.00018453969,-6.068098e-06,-5.7833284e-05
SARS,-0.00047388882,-0.002426542,0.011289859,-0.0024043822,0.011522986,-0.001471469,0.007704253,0.0041984334,0.003012541,-0.0025528413,0.018526273,-0.010877834,0.0064346227,-0.002283946,0.008933859,0.0041977935,-0.0027693447,0.0061450535,0.0015398617,0.010688556,0.0042505544,0.013497371,-0.017654223,0.023896445,-0.0050651566,-0.012724872,-0.0063194893,-0.0068338187,-0.013977238,-0.006377859,0.001384385,0.00649552,0.00942027,-0.016441183,0.014243498,-0.0013385995,0.00065235543,0.010939494,0.0014918966,-0.0013790115,-0.010267869,0.01609483,-0.010552756,0.0010810262,0.004503473
PSRC1,0.0026300426,-0.0032434117,0.01277628,0.004554288,-0.0015846825,0.002866295,0.005053772,0.0016810219,0.009566906,-0.0049007195,0.004262108,0.0093142735,0.00031801892,-0.0005664525,0.0026119365,0.0144178895,-0.00022476556,-0.009946451,-0.004394199,-0.003973383,0.0058054104,0.011459007,-0.016808126,0.020326165,-0.009373547,-0.0014418078,0.014650823,0.009370683,-0.007167661,0.007108573,-0.003642879,0.0019551527,-0.003573022,0.0005627735,-0.00078435894,-0.0009736312,0.00019898415,0.0035789798,0.003654432,-0.0025618582,-0.005506217,0.006629058,-0.012855043,0.0035113024,0.01641124
MYBPHL,-0.00063168106,0.0013601009,0.0017968703,0.004651453,0.004722168,-0.00015991334,-0.0012389348,-0.0022281732,-0.0048751854,0.0061191865,-0.0025326083,0.0037098464,0.009192059,5.326193e-05,0.002853975,-0.015113301,-0.0013218814,0.0038284492,-0.0056567458,-0.007033939,0.0051318035,0.0019013593,-0.00028999668,-0.0036778094,-0.0015467544,-0.0010574419,0.0027308841,0.0024999036,-0.0031433287,0.0034719566,3.727376e-05,0.0008490721,0.0012453982,-0.009547006,0.0021962377,0.001318807,-0.0031707324,-0.003003021,-0.008188913,-0.0018029965,-0.001528421,0.00025815624,0.0052296673,0.0017146721,-0.006482411
GSTM2,0.00047355736,0.0018496121,0.00086954026,0.0014322044,-0.0020134184,-0.0006037673,-0.0007062889,-0.0012222306,0.00048571065,0.0005521874,-0.0002856029,-0.0027993761,0.001955669,0.0014142665,0.0003849227,-0.0006597069,0.0035737657,0.00012094747,0.0062078233,-0.0018678387,-0.00036194926,0.0014806528,0.001816975,0.0036165414,0.0009541065,-0.006393138,0.0012054625,0.0018916195,0.00029612074,0.0021923946,-0.0042675077,-0.0031843588,0.0022144052,-0.0047743553,-0.0014653597,-0.0031837972,0.00067281036,0.0004580949,-0.0010697454,0.002770532,0.0032573193,0.0010616957,0.0034058369,-0.00051716686,0.0007250422
GSTM3,-0.0003855457,0.0043400726,0.003277049,0.004586825,0.0009526969,-0.0007135113,0.0028826403,-0.0031778766,-0.0034301577,0.011145785,-0.0059391945,0.0063219653,-0.0036132776,-6.9499816e-05,0.0074055158,-0.008777893,0.0051930053,0.00085692847,-0.004807344,-0.0049479697,0.0014648066,-0.0013713095,0.00059111445,0.0026176549,0.00016265715,-0.0017352373,0.0019635207,0.0075317626,-0.0050867656,0.010525451,-0.0035303445,0.007618132,0.0006470772,-0.005715317,0.0025684112,0.0021168052,0.00012977152,-0.0012872092,-0.00079276925,-0.0047033494,-0.019884672,-0.00066489127,0.003395264,0.002039467,-0.005499617
PROK1,0.00015485064,0.0049593244,-0.0028436168,0.0040156827,-0.0023403428,-0.0030330918,-0.0009365952,0.00010095562,-0.000718817,0.013166403,-0.0040792082,0.01130399,-0.008660002,-0.010539223,0.00095165014,-0.0121204965,0.0077294107,-0.0013309948,0.0010396845,-0.005009852,0.0041558873,-0.0040615485,0.004832937,-0.0030029663,0.0015144513,0.0015414166,-0.0013496538,0.0013861106,0.00042811903,0.0038409822,3.2187334e-05,0.00094865,-0.0005849107,0.0025618451,0.0019823122,0.0015714652,0.003943315,0.008704713,0.0007696512,-0.001598889,-0.0018288043,-0.0010455298,-0.00024592594,-0.0035981685,0.0012527871
CD53,0.0016091812,0.0019458131,0.012744398,-0.0014092978,0.0026600652,-0.0046499944,-0.0086741885,-0.012488349,-0.005914604,-0.0016377582,0.004209819,0.0035598325,0.0034282154,-0.003065164,-0.0044402787,-0.011884919,8.1380604e-05,0.0055884374,-0.011644412,-0.00027782167,0.014384346,0.0028500748,-0.011830452,0.018458987,0.016681386,-0.002992911,-0.007189738,-0.0034685705,0.004876114,0.0067388783,0.0032261314,0.0028166112,0.004888109,0.0041700928,0.0062912344,-0.012958607,-0.011560095,0.0008025091,-0.011615886,-0.007039672,0.0038248124,-0.019283732,0.01675503,-0.0055618044,-0.015314889
CHI3L2,-0.006088059,0.0024044435,0.0014862709,-0.003654551,0.0077837114,-0.00952119,0.005203427,0.0073487055,-0.0065783868,0.00061963865,-0.001198404,-0.0102363285,0.0055407085,0.0023300538,0.009920359,-0.00092299236,0.011580942,-0.0019848407,-0.011895878,0.007818695,0.0075806454,-0.005495466,0.0054534134,0.004229033,0.020913003,-0.027920948,-0.024012739,-0.019496541,-0.005397094,-0.007755541,2.1081694e-05,0.018675689,0.002566855,-0.00055050675,0.012161025,-0.0018429196,-0.005817778,0.018190216,-0.013389357,0.0112028755,0.0011436695,0.015265031,-0.006730013,0.006879521,-0.0073257196
ADORA3,-0.0020658097,-0.0022678932,-0.0022806048,0.0019206493,-0.001954845,-0.0012502532,-0.0024088086,0.000609658,-0.0056537543,0.0003750096,0.0024341252,-0.0015891116,-0.0015262805,0.0003274704,0.00051042356,0.005574652,-0.0010282985,-0.0035843058,0.0034481327,0.006573274,-0.0028231936,0.004728154,0.005876536,0.00047408376,-0.0050837104,0.0003551193,0.0008539852,0.0032789751,0.00080357573,-0.0016215248,-0.00026397186,0.0019041168,-0.00056666596,0.006463478,0.0019023056,0.0009117816,0.0025170224,0.004190248,0.00038937933,-0.0026429975,0.0035141485,-0.0010609492,0.016416145,0.007809652,-0.002652432
CAPZA1,0.0018307486,0.002369522,0.003098601,-0.0005767252,-0.0028945245,0.0020419124,0.0048417402,-0.0016292611,0.003695036,-0.0012825582,0.0029245259,0.00097158924,-0.0023085284,-0.0043048826,-8.457537e-05,-0.000702885,0.00023579062,0.0017094836,-0.0021386105,-0.00048830855,-0.00027633397,0.003449089,-0.0068580224,0.003487965,-0.004231743,0.005038495,0.002577421,0.006337376,0.0053037684,0.004525211,0.001968431,-0.0052668406,-0.001321998,0.0012579048,-0.0023595407,0.0034371517,0.0050627715,0.0018165836,0.0030575655,0.0005199306,-0.009123162,0.0033763682,-0.0050021764,0.00083911914,0.0008422432
RHOC,-0.0006308861,0.008191342,0.00702893,0.010944993,0.010173772,0.003253504,-0.0043537687,-0.004524752,-0.0047247526,0.00915893,0.0025372966,-0.002783787,0.0012050688,0.0005118882,0.005989716,-0.023481462,0.0026787154,0.00560813,0.004933264,0.00619389,0.009571844,0.0034771655,-0.013161627,0.011773302,-0.0084912935,-0.0037138448,-0.0075341095,0.011932167,-0.014597174,0.025457986,0.009245671,0.008608895,0.0014585234,-0.012295431,0.016577348,0.013854018,0.0055505782,-0.009960774,-0.002232817,-0.007925213,-0.0015752162,-0.010735335,0.006368423,-0.0031761865,-0.01482369
LINC01356,-0.0013056595,0.001687891,-0.0008694748,0.0053238226,0.0030674303,-0.0016795108,-0.0033169603,-0.0009865555,-0.0040444457,0.001172083,0.003281671,0.0021781272,-0.0014119,-0.005535287,-0.0014405223,0.0026569138,0.009323419,0.0057702484,-0.008191495,-0.0056431512,-0.0010792955,0.010258873,0.012242268,-0.005282318,0.008256996,0.0029367649,-0.0033845236,-0.0205537,0.00025658423,0.01270838,-0.0007402645,0.0044412958,-0.0021684116,0.0006894481,0.002789187,0.0024336823,0.00018360524,0.0001300798,-0.005249267,0.0068470566,0.0037912298,-0.0060790735,-0.0013983749,-0.0035829728,-0.0016104655
HIPK1-AS1,-0.00089132384,-0.0008488583,-0.00052927475,0.00012267631,-0.00031462693,-0.0028513812,-0.0013321067,-0.004991694,-0.0011707372,-0.0015178281,-0.0033892451,-0.0035571542,0.0034813227,-0.0013410277,-0.000105842446,-0.0014702085,0.0009393442,-6.195156e-05,0.00032579267,0.004948013,-0.004047321,0.0025388505,0.0023750842,-0.0010696043,-0.0040492974,-9.43314e-05,0.0042071478,0.0037707812,0.004521167,0.005088394,-0.00156421,0.00544999,-0.0006605714,0.003028403,0.00044413595,-0.0034062199,0.0003577512,-0.00033556853,-0.003048751,-0.00013294315,0.00075530884,-0.0025792373,0.004561397,-0.001025979,-0.002400943
OLFML3,-0.002207545,0.005324327,-0.0010784328,0.0005795685,0.003583919,-0.0017483897,-0.00039307823,0.0025361278,-0.007753412,0.002105861,-0.010945998,-0.010226211,0.008269386,0.004317808,0.0010613423,-0.031102216,-0.014204129,0.009209981,0.040820803,-0.006893654,0.013722424,0.018763361,0.017751932,0.012770244,0.026871098,-0.008845502,0.0012315781,0.0139823295,0.032241516,0.024840707,0.0038478593,0.010474909,-0.0024170578,-0.016924048,-0.011860674,-0.012608422,0.006072681,-0.00058202085,0.009411002,-0.010527945,0.007935532,0.010055214,0.00039549553,0.019574929,0.0032138461
CD2,-0.0007645757,-0.003699653,-0.0015628018,0.0004054156,0.00087207614,0.00056020636,7.1204275e-05,-0.0032492767,-0.004257046,9.986549e-05,0.0052320636,-0.009018279,-0.004881412,0.0006875368,-0.0034321148,-0.0042658374,-0.009359473,0.0032309338,-0.0054229163,0.005317376,0.0007092098,-0.0049069244,-0.0023536913,-0.0038877588,0.0016359529,0.0044579287,-0.0019373209,0.0051528346,0.007010575,-2.8287906e-05,0.0011175354,0.003157981,0.004417664,0.008700299,-1.3050084e-05,-0.0051026624,0.0023103254,-0.008521562,-0.00033240192,0.006568215,0.006135411,0.00089137827,0.00858753,0.0047694915,-0.00531071
CD101,-0.0032921943,-0.0009738117,-0.0007964458,0.0019011976,0.0026543082,-0.0022302333,-0.0005681188,0.004434803,-0.0054394435,0.008235575,0.0029915802,-0.013254602,0.0065387096,-0.0037859345,0.014187488,0.019546723,-0.009771899,-0.006210461,-0.00014952265,0.008963126,-0.0028875903,0.001116485,-0.0055119386,0.003184159,-0.011114605,-0.0069366517,-0.0038257814,-0.0017987693,-0.0042043957,0.0028683026,-0.005889091,-0.0028846692,0.0077703535,0.002312184,-0.0035891053,-0.0043350533,-0.0011761931,0.0023479268,0.005147727,-0.0023446167,0.009680173,-0.00071801356,0.027147759,0.0128136175,0.0012391609
PHGDH,-0.0028567116,0.0011460262,0.015169719,-0.002148146,0.01371617,-0.0040158145,0.0025758878,0.003932076,0.002184983,-0.003915177,0.016824488,-0.009725083,0.014571062,-0.003081497,0.0051985704,0.009889575,0.011609746,0.018166,-0.00019932502,0.00058822654,0.001242899,0.018991882,-0.015499282,0.031271134,-0.0010456942,-0.020279456,-0.0071698744,-0.003639579,-0.014543626,-0.009479768,-0.0011099878,0.0093387915,0.015233328,-0.012425914,0.022742052,-0.004251403,-0.009853506,0.01010655,-0.0059614456,-0.008505193,-0.0020304257,0.012670942,-0.007666198,0.0033624072,0.0027688926
FCGR1B,-0.0040872004,-0.00061053707,0.0037844358,0.0008626698,0.0025008877,-0.00291939,-0.0040871603,-0.0015797707,-0.0069535524,0.005485279,0.016524093,-0.0084870905,-0.008417458,0.005421907,-0.0051942756,-0.0033784858,-0.002448412,0.0035093674,-0.0057854885,0.001440374,0.0011988091,-0.0091284625,-0.022406282,-0.00073582784,-0.0024094165,0.00037065934,-0.003205728,0.0021054137,0.0036935024,0.008799102,-0.0043095984,0.00021746256,-0.0005904165,-0.0017567121,0.0043900525,-0.008222488,-0.0050297133,0.0007783557,0.00026850935,0.005351767,0.0066620097,-0.0001787687,0.017036771,0.008383156,-0.0034258203
PDZK1,0.0006298011,0.0010150602,-0.0011557256,0.0012714183,-0.00055409793,-0.00016308135,-0.002061202,-0.0028164557,-0.0014921195,-0.0012998155,0.003887601,-0.0050459914,-0.0010450637,-0.0028452924,0.0010883874,-0.00011764724,0.0030440192,0.002695725,-0.00094381766,0.00071734126,-0.0012710041,0.0042224415,0.0021467046,0.0049512475,-0.004032695,0.0016793903,0.0052249124,-0.0028317135,-0.001220696,0.002014815,0.0014319312,0.006842914,-0.0020449273,-0.00090389367,0.0018848781,0.0014049028,-0.0021798904,-0.0005560303,-0.0019381568,0.005248741,0.006982285,0.0009329528,0.0037977442,-0.0020162412,-0.001332728
CD160,-0.0013859114,-0.003951091,-0.0018975288,-0.0018190772,0.0035553763,-3.6446207e-05,-0.0023411913,-0.00038788386,-0.0037435237,0.010327701,0.015026681,0.0061865347,-0.018122088,-0.007572891,0.0023211895,0.008174206,-0.0028389595,0.00035372903,0.0021560222,-0.007463864,-0.0044181035,-0.0058134147,0.009627825,0.0043022754,-0.0056537064,-0.008086071,-0.0064306157,0.0020171683,0.004251762,-0.0055179144,0.009901691,0.0017502075,-0.01280106,-0.015947055,0.0024678463,0.0016701295,0.0065820217,-0.0050583095,-0.0044220174,-0.000452209,0.012295437,0.009454858,0.0021474173,-0.00057364727,-0.0035996824
POLR3GL,0.0018095908,0.010097389,-0.0014308346,-2.0494666e-05,-0.0052624997,-0.0014659473,0.0019157839,-0.0050062696,0.003255602,0.015218168,-0.0034560915,-0.008025107,-0.002009156,0.00086673663,0.015587625,-0.0049086222,0.02047822,0.0005805562,0.0067543234,-0.00317303,-0.00642185,0.005219783,0.00457138,0.0035152682,-0.008229725,-0.0043333434,0.006235498,0.01035131,0.006581425,0.0064117806,-0.0072329976,-0.0075353263,0.0017761968,0.00626169,-0.0062122396,-0.0072642257,-0.006045163,0.0027869288,-0.0050322046,-0.0034879425,-0.01160826,0.0023953046,0.003427275,-0.0011355655,0.0024418011
TXNIP,-0.0050175926,0.0025664228,0.0022915306,0.009981225,0.004969717,-0.011439913,0.0019620876,-0.007556103,-0.005888854,0.020499777,0.008542397,0.018873343,0.0031600727,-0.022519542,0.0067244633,-0.015846126,0.022212375,0.006143775,0.00088061905,0.0014890935,-0.005608017,0.0018647915,0.003389796,0.011510128,-0.008783219,-0.007340648,0.00932174,0.02233144,-0.012910024,0.017138368,-0.0111608505,0.017197074,0.012287388,-0.0066294963,0.008476517,-0.0071418276,-0.001161705,0.015439099,-0.0108883185,-0.013205018,-0.021140393,0.0043400344,0.031700518,-0.008318664,-0.0035358048
FMO5,0.00016819697,0.0024846378,0.0017485959,0.005040389,0.0002077176,-0.0015917947,-0.0020636804,-0.003077086,-0.002033571,0.0018647569,0.0005281832,-0.0017566882,-0.003677461,0.0013294007,-0.0010693563,-0.0036650577,0.0010086331,-0.003590974,-0.0030071854,-0.0011605106,0.0005303338,-0.0017406323,-0.0040178406,0.0014786525,-0.00022058401,0.0014575617,0.0019140246,0.003989106,0.00039933593,0.0049119927,-0.0017900995,-0.0014605682,0.0019739089,-0.00041793927,5.075844e-05,-0.0014701339,-0.0007805659,0.0008072651,-0.0015012426,0.0010847149,0.002905911,-0.0033128376,0.00506438,-0.0002896096,-0.003654883
PPIAL4G,-0.00046221836,0.0022709558,0.003720215,0.0005859876,0.0005143806,0.00090982334,-0.0008031217,0.0016776712,0.00025334687,-0.0012875658,-0.0046730177,-0.0016954587,0.00035705225,0.0013514813,0.004900537,0.002813817,0.001917691,0.0028369431,-0.0060128495,0.001035279,0.0024686723,0.000109484594,-0.01264963,-0.00045663235,-0.0028016695,-0.0027378916,0.00013621947,0.0071454733,0.0015706061,0.0040764376,-0.0021546402,0.0020155734,-0.0009203479,0.0017474194,0.0033121882,-0.00512873,0.0015920803,0.0030189715,0.0052648694,-0.002519256,-0.00041475715,-0.0012698957,0.0026757482,0.0031151334,0.00028418974
PDE4DIP,0.0045413105,0.018344998,0.0023148383,0.00045458303,6.390806e-05,-0.0023752954,4.667673e-06,0.0017714243,0.008560472,0.008834561,0.0044364007,-0.02553629,-0.013928724,0.005101804,0.00838545,-0.03698617,0.017338596,0.004024864,-0.004261297,-0.007040342,-0.0004960224,-0.0036293021,-0.0016910068,0.008795014,0.0020954274,-0.007747743,0.013140663,-0.0010218192,-0.003776223,-0.0110737085,0.006288444,-0.007505978,0.007112179,0.0008229537,0.00081785856,-0.030583369,-0.016276294,0.012529606,-0.0023658264,0.0078000054,-2.6059735e-05,0.0021185733,-0.020240447,-0.0039943615,0.0062534125
FCGR1A,-0.0051420396,0.0006773223,0.0043394775,0.00060299895,0.0012068021,-0.0071408357,-0.0013012697,-0.00036184618,-0.009110266,-0.009299266,0.004099001,-0.014277251,-0.007911065,-0.003858352,-0.008209361,-0.01705242,-0.014977411,-0.0060970755,-0.00077772094,0.00912977,0.007471381,-4.440713e-05,-0.02435192,-0.0011915545,-0.011844987,-0.0020819567,-0.005690886,-0.007923858,0.00078746706,0.002683568,0.0069646966,0.0023974082,0.0024089578,0.0024457555,-0.00018891836,-0.0028771053,0.0016168199,0.0154472785,-0.004090582,0.010361349,0.007558567,-0.0030035244,0.029228644,0.008173664,-0.0066217775
HIST2H2BE,0.0027711967,0.004771825,-0.0007803283,0.0007354401,0.0006796515,0.00084159063,0.0011834006,-0.0054699574,0.0017948977,-0.00082937547,0.003576081,-0.0030746446,-0.0020114873,0.007949018,0.007416318,-0.0005212232,-0.00096491573,-0.004740036,0.004574132,-0.0016282345,-0.003415318,0.0065714223,-0.0070664203,-0.0069396244,-0.006627623,0.0020843782,0.008288072,0.007305722,0.0011161432,0.0033336678,-0.0037844493,6.327143e-05,-0.0009995581,-0.0024868879,0.0033484343,3.9229875e-05,-0.006052506,-0.0028329322,-0.0037778849,-6.9969195e-05,-0.006112889,-0.0026791927,0.0036794122,0.0006906975,-0.0024530727
HIST2H2AC,-0.003430239,-0.010616499,0.015554002,0.0014699968,0.0023023558,0.0010104404,0.014007887,0.014173381,-0.0026484441,-0.009084475,0.014669945,0.009390164,-0.005242241,-0.005073701,0.004637748,0.008826316,-0.014183765,0.0051240157,-0.020416846,0.0003948758,0.022391021,0.022796312,-0.013230327,0.021113928,-0.0019026638,-0.0035608253,0.0018456425,-0.019650796,-0.015472291,-0.004000248,-0.0066663274,-0.004661359,0.0037746606,-0.00033730327,0.0014317606,0.00408492,0.025635198,0.013432511,0.011404269,0.019868823,-0.0045636864,0.02741841,-0.012407068,0.017058171,0.0045102295
MTMR11,-0.0013913686,0.0012674257,0.0013493113,0.0027917167,-0.0029884165,-0.00103632,0.00010553144,0.0006100745,-0.0029810292,0.0040762397,-0.011620557,0.0040089064,-0.0065458845,-0.009622348,0.0034743818,-0.0085037565,0.0036966559,-0.0029685528,0.0069459914,-0.0044341474,0.003032499,-0.0025210597,-0.010041351,-0.0022734231,0.0070161666,0.010488117,0.006131798,-0.008467697,-0.012488259,0.0040521543,-0.001276034,0.0069550606,-0.011746124,-0.011365559,0.0068615223,0.0044565513,0.001902794,0.0018270337,-0.005006681,0.0028745488,0.0023283514,-0.0007382383,0.0037354832,-0.0041334503,0.00047950997
PLEKHO1,0.005116593,0.0011230778,0.0098423585,-6.8025794e-05,-0.005876138,0.0021104682,-0.013863493,-0.0033612493,0.00075079704,0.0042696996,0.008271261,-0.0012883451,-0.012075081,-0.00874016,-0.012555108,-0.011766962,-0.005831009,0.0036231976,-0.0013044819,-5.787108e-05,0.013466523,-0.0008604507,-0.027513629,0.0012269444,3.7856975e-05,0.0075096907,-0.005407179,0.0050336584,0.0063272407,0.004457812,0.010797805,-0.015600234,-0.0032587626,0.0016793029,-0.0076603484,-0.009689562,-0.0115669435,0.001525453,-0.005304489,-0.0085738,0.015197935,-0.024238866,0.009839373,-0.0036627275,-0.0007985049
ANP32E,0.00031535744,-0.006068128,0.012601633,-0.006932444,-0.0045821113,0.0064131995,-0.0033777894,0.012692048,0.007619227,0.000606822,0.0070236353,0.00069882435,-0.0019193667,0.0031847972,-0.007791839,0.02259424,0.00022312613,-0.010868812,-0.012065514,-0.0011064742,0.009024211,0.0060617477,-0.02025454,0.017361498,0.004516051,0.004564226,-0.0060245097,0.006938873,0.0015464704,-0.013515014,-0.0024467218,-0.0037601646,-0.0066933474,0.003538799,-0.009910912,0.00595949,-0.0012807724,0.003890317,0.015830664,-0.0070143505,0.015409093,0.0012376765,-0.027278956,0.009712277,0.021390503
ECM1,-0.0020255963,0.0040150797,0.00179599,0.0066043613,0.0051861783,-0.00083301315,-0.005684073,0.0014076086,-0.0017161841,0.007867138,0.0010302594,-0.00755394,-0.010471627,0.0010376016,4.352209e-05,-0.009994963,0.0063945274,0.0020210815,0.010944074,-0.00012514596,0.0067634005,-0.0076990435,-0.008496315,0.0035103487,0.007955785,0.0013420775,0.005165437,-0.0025508848,-0.00419191,0.010216182,0.003119655,0.009640746,-0.0072465474,-0.013382056,0.00627164,-0.006401783,-0.0014797397,-0.0029677656,-0.0009885225,0.005128122,0.017694052,-0.0022450362,-0.0031488384,-0.0024001934,-0.0007591209
ADAMTSL4,0.0041096373,0.010376404,-0.00030948277,0.010092812,0.0019277432,0.0005100537,0.009238233,-0.006816926,-0.00020675638,0.018783184,-0.0071644555,0.0060746535,-0.0089260675,-0.007966317,0.013363767,-0.029618006,0.010115272,0.005052619,-0.0007453171,-0.0049824193,0.003004631,-0.0013482752,0.0034878326,-0.0063748094,-0.007814876,0.010005543,0.015116315,0.00048373418,0.0054200343,0.0268144,-0.0038307395,0.008430112,5.7335685e-05,-0.004343011,-0.0022074694,4.519734e-05,0.011795283,0.0067703295,-0.0003202543,0.012333131,-0.019945728,0.009667651,-0.0048283515,-0.004948466,-0.00957689
CTSS,0.0018541024,0.0005659259,0.0049905116,0.0018918418,-5.1517858e-05,-0.0020485262,-0.0013847583,-0.009158935,-0.0013573423,0.010125041,-6.133511e-05,-0.0043016393,-0.008481258,-0.01847451,0.00827027,-0.0139476685,-0.005004102,0.0039014656,0.0033219908,-0.0005763164,0.0061217877,-0.003170514,-0.0056124493,0.008411221,-0.005164594,0.0026810793,-6.6627945e-05,0.014889024,0.0024904897,0.009978741,0.0004169618,-0.005381097,0.0024333042,-0.0019781224,-0.0022697244,-0.007283394,-0.0005812787,0.0068559824,-0.0073521007,-0.0037498872,-0.003394988,-0.0054852967,0.015917756,-0.013930801,-0.008745482
C1orf56,-0.00074342906,0.0004970438,-0.004361302,-0.00018355406,-0.00049139647,-0.0006106375,-0.0006795144,-0.004099217,0.0018219488,0.0037908587,0.0058321096,0.0056251115,-0.000647728,-0.005316934,0.00093850325,-0.0021495945,0.0014486363,0.008432552,0.01149847,0.011904426,-0.008286967,-0.0074195242,0.013706343,-0.0044037304,0.0024666563,0.0034922156,0.0016068146,0.0056534545,0.005104521,0.0047810343,0.0027594334,-0.0031027708,-0.0013069693,-0.002746657,-0.0041755713,-0.0012013196,0.0042748237,-0.0015925583,-0.0031099482,-0.0013073385,0.0013376756,-0.0015014595,-0.005361814,-0.006823105,-0.0037864277
CDC42SE1,0.00064244395,-0.0010692542,0.007122721,0.0025342258,-0.003207228,0.0055861827,0.0019652238,-0.0048090415,-0.002062329,-0.0011768264,0.005140157,0.0014815081,-0.0052510477,-0.0082502235,0.0006628937,-0.0023697466,-0.0049695275,0.011228867,0.0022131067,0.0023002962,-0.0005798881,0.0033860756,-0.009180852,0.007921579,0.00034585712,0.0067508216,-0.0036110952,0.00327129,-0.006204435,0.010670449,-0.0015205088,-0.0064638364,0.0024906253,0.0011071885,-0.006957393,0.0068348413,0.009565265,-0.0045191883,0.0067678518,5.2947482e-05,-0.008497114,0.00040379504,-0.0025363152,0.001386359,-0.008290305
MLLT11,0.002626423,0.005945617,0.0074226446,-0.0026857276,0.0064337365,0.0076973536,-0.008160872,0.0045174365,0.0009475325,0.0050729173,0.0058537396,-0.018561961,-0.000613629,0.006031134,-0.005156014,-0.0068216836,0.005670873,-0.0055900197,-0.0035808017,-0.0040636603,0.004366722,0.0027272806,-0.012701479,0.013465665,0.0065585026,0.0065099127,-0.014893909,-0.00045315354,-0.0011135655,-0.0017872945,0.0010664812,0.010939372,0.0053919265,-0.006618439,0.005651693,0.0135366535,-0.00196418,-0.0072831446,0.005872116,-0.00396691,0.01286301,-0.0164265,-0.014541729,0.006098239,0.0006290813
GABPB2,0.0012409186,-0.0027627859,0.0037839948,-0.0006616826,-0.00085401937,-0.00051268656,0.0042498102,-0.0017396823,0.0021847922,-0.0028104107,0.0010877362,0.006524866,0.0014752996,-0.0016927643,0.0059842584,0.0010983109,-0.002650726,0.0015571387,-0.0049985684,-4.6983634e-05,0.0027328462,0.008385305,-0.000101449,0.004016796,-0.0027101112,0.0029012416,0.005165287,0.0012836473,-0.002195851,0.00016624246,-0.0016370831,0.0021465865,-0.001065464,-9.5744745e-06,-0.003019068,-0.008063232,0.0023004399,0.003074964,-0.0018849481,0.0029546728,-0.004246587,0.006684761,0.001263866,-0.002571902,0.0001684626
LYSMD1,0.001239547,0.001049139,0.0012227445,-0.0002477438,-0.001359148,0.0012253103,-0.00022160124,-0.0006335359,0.0016428176,0.00059032696,-0.0037781126,-0.0012750579,0.0053201183,0.0020634558,0.0019686136,0.001807716,0.0013280157,0.0031117303,0.0019488774,-0.0052378024,0.0006751757,0.00031188456,0.0025065676,0.000329626,0.0009429365,-0.00058376533,0.0053621535,0.003976566,0.00037794514,0.00011093714,0.002277556,-0.0014808142,0.004572446,0.00021349262,-0.003569558,-0.0008902291,0.00035823538,0.003965515,-0.0022283287,0.0011543792,-0.00023080692,-0.002311751,-0.0038392232,-0.0028471556,-0.00040526764
S100A10,-0.009441299,-0.0019468731,0.004212005,-0.009731744,0.020213705,-0.0009092168,0.005211629,0.013304388,-0.022069754,0.008177923,-0.0026997526,-0.011166693,0.020466968,0.0075888424,0.022968836,-0.0018542142,-0.0009485747,-0.004734966,-0.0054077674,0.0076687518,0.0077868854,-0.0054050414,-0.0022274705,0.006958809,0.029622406,-0.029344285,-0.034712393,-0.026021175,0.0044553955,-0.020923061,-0.00056325906,0.021961367,0.01951721,-0.01208296,0.041881684,0.016144304,0.016062576,0.0053052246,-0.0027124945,0.0068329033,-0.0073911655,0.012176705,0.0029916812,0.02169791,-0.028171813
S100A11,-0.004272572,-0.0005598297,0.018867597,-0.009931448,0.009873968,-0.008002381,-0.01680606,-0.0036226376,-0.017012583,0.009533362,0.025724405,-0.01392865,-0.0014341482,-0.0066361194,-0.0021254658,-0.0050038225,-6.321191e-05,0.0046731117,-0.0096337125,0.0065270653,0.020268016,0.0053891735,-0.03552906,0.022343695,0.021415573,-0.01622305,-0.027301364,-0.0032136322,0.020398756,-0.018808214,0.008595685,0.007842188,0.00966744,0.0014887466,0.028870963,-0.020721076,-0.0140879555,0.0102636395,-0.026403239,-0.017686354,0.012899816,-0.027359158,0.031246755,0.01340864,-0.021508437
PRR9,0.0009872859,-0.0041050394,0.0007159715,0.0012296898,0.0006053069,0.0020088486,4.9692517e-05,0.00011427565,0.0021999192,0.0021699236,-0.007704644,-0.005469721,0.0048058233,-0.010346004,0.0038687233,-0.00016251311,-0.0074558677,-0.0030967747,-0.0036755465,0.0034878133,-0.003021873,0.00489664,-0.0045370176,0.0032268192,0.0002581153,0.0008155985,-0.0018744672,0.0057932273,-0.0053849695,0.0015913863,0.00064225495,0.003242339,-0.0019070965,0.0023848522,-0.0025900141,-0.0017431693,0.004355906,-0.004303573,0.003555133,-0.0042341254,0.0042283577,-0.00088415854,-0.00023321602,0.00020225985,0.0025040144
PGLYRP4,0.0003369978,0.006581514,0.0016988125,0.0057028164,0.0018236341,-0.006286703,-0.0034685754,-0.0022642487,-0.0011175787,0.01265843,0.004186388,0.013004747,-0.0020223865,-0.005217514,0.00085276534,-0.0060243933,0.015721709,0.0027417014,-0.0017851443,-0.006968461,0.008867012,0.00059697806,0.010733886,0.0019979195,-0.0030389228,-0.0015858002,0.0031670474,-0.0022203068,0.0029375246,0.005502644,-0.0046340697,-0.0015221797,0.00429189,-0.004764636,0.002409782,0.0010415852,0.00027986875,0.010814026,-0.008872884,0.0013690905,-0.0032573189,-0.002354902,-0.0019550466,-0.0077218893,-0.0025944947
S100A8,-0.00095452357,-0.0014746066,0.0010344633,0.0014990594,0.00079032156,-0.0037352298,-0.0023592904,0.0006602789,-0.0053119236,0.001750556,-0.0013029209,-0.0004897942,0.0038139434,0.003290677,0.0034567707,0.009156667,0.0019661922,-0.004987421,0.0014298224,0.0054998985,-0.004400503,0.0085789785,-0.0016257581,7.392547e-05,-0.0029939564,0.0006731454,-0.00221964,0.004616661,-0.00070206943,0.0028470738,-0.002222681,0.0036389912,-0.004602449,-0.00068131665,0.0017939161,0.0017027336,0.005802122,0.0069880863,0.0027054984,-0.0035937114,0.0032043112,0.00018083495,0.01158575,0.010350553,0.003775164
S100A5,-0.00056426716,0.0034960364,-0.0015659886,0.0065360996,0.0031846287,-0.00083914155,-0.0067996588,-7.900569e-05,-0.0027364097,0.013630896,0.007947333,0.017795235,0.0084171165,0.0063077444,-0.007447892,-0.0059774728,0.007868721,-0.0021907252,-0.00044465772,-0.0055223894,-0.0016507875,0.0028098552,0.00073111575,-0.003283292,0.009392665,0.0060786796,0.00076472305,-0.011451707,0.002715254,0.0017370804,-0.0027565558,0.0041173617,-0.00036067984,-0.006617739,-0.0015359011,0.00034091691,0.00086070306,-0.0020662388,-0.007430576,0.0011158979,0.010817512,-0.004225069,0.0016577716,-0.0010070237,0.0026433596
S100A4,0.0022178858,0.008838434,-0.004118984,0.0025523307,0.0013969748,0.0041210526,-0.0031427662,-0.0038529485,-0.0049077147,-0.0003075027,0.005486169,-0.023790991,-0.007265131,0.009583351,-0.0017227317,-0.028534904,-0.00849136,0.0025111497,0.0011183063,0.0015543385,-0.0029217638,-0.003549014,0.00037246442,-0.01165204,-0.005942009,-0.014490711,0.0032684316,-0.002369958,-0.0018384825,-0.0073873573,0.0044624675,-0.003656551,0.010624895,0.011938295,0.011834295,-0.0116702905,0.0016935046,-0.0054070023,0.0031956325,0.0019432054,0.0064073303,-0.00035237888,0.007951057,0.0064817155,-0.008363975
S100A3,-0.0022469587,-0.00094262796,-0.0020005167,0.002212826,0.0054662973,-0.004439701,-4.9215436e-05,0.002130034,-0.0028515654,0.0058456664,0.0074241734,-0.014906248,-0.009930592,0.0014331384,0.0054960805,0.0021815288,-0.00085123803,-0.0033574668,-0.0024373757,-0.009318534,-0.0039125285,0.0042251176,0.006866354,0.00031038394,0.008654627,0.006068912,-0.0041873353,-0.010424273,-0.0038784503,-0.007532895,0.009307177,0.002794237,-0.0018930221,-0.007867118,0.0071665924,-0.002239061,-0.0027319724,0.0062652426,-0.0029672817,-0.00044613154,-0.002231869,0.0030637144,-0.0007328421,0.0056484644,-0.0060705612
S100A16,-0.0045472146,-0.0025245163,-0.0016920937,0.0058123237,0.0022677062,-0.0044711335,-0.006691851,0.0012282375,-0.006758253,0.0016284926,0.0036166399,0.0011435,-0.006648216,-4.3270484e-07,0.0038819173,-0.0005833951,-0.0019521939,-0.00042615843,0.00096539914,0.0010321254,-2.1153084e-05,-0.005612635,0.002197734,-9.4468465e-05,0.0015442945,-0.0019766681,-0.002485905,-0.0052038617,0.0038512952,0.0017736276,0.011645642,-0.0010246976,-0.01667639,-0.0055160034,-0.00582448,0.0012934381,-0.007340332,-0.007916261,-0.0054174266,0.0027101603,0.0033485398,0.002258425,-0.00036695268,-0.007046185,-0.005215365
S100A13,-8.905937e-05,0.016674874,0.0061931275,0.009812432,0.004450827,-0.007878858,-0.008694548,-0.0073501794,-0.004059438,0.026671458,0.020107042,-0.004474036,-0.01438883,0.0055446257,0.0040364233,-0.04347802,0.015567786,-0.009300844,0.011245802,-0.00019986974,0.0062956964,0.0011657203,-0.010284088,0.01214478,-0.0015679935,-0.0025699602,0.00016710907,0.009398836,-0.001393378,0.012484428,0.02008707,0.006711095,-0.0028373173,-0.0059537683,0.0024082623,-0.005347201,-0.0066784984,0.006314525,-0.024569154,-0.011332283,0.002638747,-0.0133341225,0.0060290135,-0.011332774,-0.0056525017
S100A1,-0.006256474,0.008562697,0.000565071,0.008286855,0.0069185356,-0.0072824014,0.0017897972,0.004856137,-0.011184739,0.023284182,0.010752757,-0.0018094244,-0.0059156963,0.009529224,0.008368321,-0.030651608,0.0008233928,-0.0065610805,0.0067691864,-0.0026964475,0.0030895781,0.003052735,-0.0014044896,-0.0003067192,0.0020508287,-0.008024957,0.0037768218,-0.00050967693,-0.0019618962,0.0055517647,0.0017692713,0.017616995,0.005745535,0.0031581663,0.013708422,0.00223983,0.008033432,0.010331856,-0.008974398,0.0008838047,-0.008961074,0.00704969,0.004966621,0.008473744,-0.011648155
RAB13,0.0033186427,0.0010605167,0.0022644189,0.00023060106,0.0015687442,0.0040128324,0.0014017391,-0.004812002,0.0016456309,-0.0027660932,0.0017310266,0.00030565017,0.005341096,0.005869669,-0.0038287016,-0.00495581,-0.0008861962,0.0033909471,-0.005803851,-0.001562181,0.005469844,0.0015723786,-0.0056684446,-0.001755317,0.001052405,0.005842109,0.0031260513,0.00019093746,0.007967181,0.0025081052,0.0042298217,0.006426161,0.00874043,-0.004173711,-0.009905374,0.0007856096,-0.0045130127,-0.008293857,0.0026352194,0.0065831994,-0.0051379176,-0.009803066,-0.002474998,-0.00055501756,0.00021556158
IL6R,-0.00045602152,-0.0021672384,-0.0003083859,-0.0021651916,-0.0012743919,0.0015552153,-0.0041029505,-0.003317306,-0.005631054,-0.0019771734,-0.0018671019,0.0002881838,-0.015042115,-0.005314796,0.011463299,0.0083278315,0.000502653,-0.0044806153,0.0025351555,-0.0042578536,-0.0008892697,0.0024886113,-0.003242877,-0.0023759862,-0.0025348447,0.009651517,-0.003055066,-0.008817555,0.0046535595,0.002910133,0.01846504,-0.008279293,-0.022441378,-0.009264038,0.009085812,0.0061951275,-0.0076062293,-0.014249719,-0.010495824,0.00013476022,0.008764898,0.00971811,0.009834022,0.0036518096,-0.006984512
KCNN3,-0.016864322,-0.0119737685,-0.001648713,0.011573088,0.0049070027,-0.011368395,-0.0098220585,0.020030495,-0.026382757,-0.0036178625,-0.0025016833,-0.0071042227,-0.0016581669,0.0027500356,0.0025003473,-0.009005043,0.0033616798,-0.0033109344,0.0025524653,-0.0021008058,0.0006105837,-0.0011594662,-0.0015735491,0.003450021,-0.0039042328,0.0027993112,0.005868117,0.001850354,0.0021515237,-0.006136235,0.0014581992,-0.005683962,0.0016879784,0.0039045236,-0.0042891772,-0.002939795,-0.0009197322,-0.0044716154,0.005512849,0.0028856583,-0.008142273,0.0061624344,0.0061471914,-0.019804772,0.010697707
PBXIP1,-0.00067992765,-0.00054030144,0.001377932,0.0017414943,0.0020498398,-0.002920263,0.00026711536,-0.0018707473,-0.0046030544,0.006145689,0.007360873,0.0052320333,-0.008204646,-0.0035430829,0.0012003822,-0.0028222227,0.0043247174,-0.0058157733,-0.001123514,-0.00038431014,-0.000702403,0.008121351,-0.0010965837,0.0043524452,-0.0022423298,-0.0023554491,0.0013285528,-0.00085572375,0.0026670073,0.007924741,-0.0040917397,0.0063109547,0.0005259587,0.0010365671,0.0029484157,-0.0028068284,0.0012561477,-0.0028503067,-0.004464361,-0.002248257,-0.0073887585,-0.0008427479,0.010666843,0.0034740209,-0.00036510165
LENEP,0.00055158435,-0.0014004802,0.0024045852,-0.00079902034,0.002278441,0.0016224784,0.00018482978,0.0013141178,0.00078664796,-0.0014212722,-0.0042331903,0.0011937725,0.002072547,-0.0022157119,0.00091400766,-0.00087300077,-5.0060447e-05,-2.4433677e-05,-0.0029692068,-0.0008818131,0.0011220865,-0.0012209557,-0.0007055846,0.0024430505,0.00016508518,0.00038198882,0.00036797635,0.0014739658,0.0008923862,-0.00017414434,0.0013250544,0.0014317317,0.00023069084,-0.00045125207,0.0028988956,-0.0009436604,-0.0025016756,5.8620175e-05,0.0042576324,0.0010739304,-0.0034520545,-0.00011457479,-0.0013473129,0.0018981011,0.00052858563
SYT11,-0.0017472511,-0.0017225913,0.0011716828,0.0010095547,-0.0002814214,9.528467e-05,0.00023598768,0.0005211651,-0.00019192939,-0.0059436094,-0.0017370654,0.0036870183,0.0086818095,0.0010109713,-0.0010744157,-0.005374798,-0.0068296785,0.006700874,0.0003025101,-4.4293e-05,0.001788925,-0.009823122,-0.013701115,0.0023915512,-0.0028536795,0.0030718928,0.00055369595,0.0025189559,-0.002736101,0.0035453949,0.00056880835,-0.00018542167,-0.0018750852,-0.0061748615,0.0014047978,-0.0026566177,0.0002304319,-0.0021940088,0.0024054742,0.003923607,0.003946601,-0.00075454166,-0.00036920313,-0.0042947717,-0.0038152162
RIT1,-0.0024944192,0.005144532,0.0008020224,0.005499023,0.0064946148,-0.0032908528,-0.0019540668,-0.0034189448,-0.0036252968,0.009960268,-0.0020495919,-0.0064682136,0.008848051,0.00047080693,0.012712853,-0.0099351555,0.003016451,0.006182667,0.005893162,0.0031027778,0.003609771,0.0012402117,0.0029198185,0.007450894,0.00060474523,0.004400976,0.0027472295,0.002194916,-0.004815605,0.015560802,0.001823454,0.010604366,-0.001323789,-0.009692819,0.0066960505,0.0027219062,-0.0039430847,0.0028312788,-0.003528963,-0.0042549027,0.0020147904,-0.004936728,0.006708242,-0.0069061066,-0.008451918
LMNA,-0.0041991035,0.0029934298,0.002759632,-0.0019152724,0.016082406,0.0017668206,0.003490661,0.004478286,-0.010653178,0.010360965,0.009314203,-0.013435631,0.014785785,0.024289353,0.018554008,-0.0073117777,-0.002588563,0.0034949013,-0.0015294338,0.0058240187,0.0044782544,0.004563186,-0.004742308,0.002911635,0.006851077,-0.0050778533,-0.008930613,-0.009978366,0.0018260775,-0.0023392276,0.004976773,0.023063995,0.004601154,-0.014414435,0.028412268,0.017382922,0.008219686,-0.0064449743,-0.0051954263,-0.00023006502,-0.00090555917,0.0047190385,-0.004547856,0.0024969191,-0.01835253
