gene_symbols,phi_0,phi_1,phi_2,phi_3,phi_4,phi_5,phi_6,phi_7,phi_8,phi_9,phi_10,phi_11,phi_12,phi_13,phi_14,phi_15,phi_16,phi_17,phi_18,phi_19,phi_20,phi_21,phi_22,phi_23,phi_24,phi_25,phi_26,phi_27
SAMD11,-0.005351699,0.0023164186,-0.0059810923,-0.0018240514,0.0026994508,-0.0026620294,-0.005021933,-0.0012326846,0.009873532,0.023405008,0.009522107,0.007135287,0.012894709,-0.005650144,-0.0049120253,-0.008332682,0.00036310902,-0.004994545,0.03332906,-0.016351197,0.05749411,-0.007816621,0.0013632574,-0.0019916568,0.0028558818,0.0029543755,-0.007436067,-0.014511062
HES4,0.01662744,-0.026420621,-0.013102279,0.03163019,0.0010681463,-0.0038801075,0.0042430875,0.045340694,-0.0018442412,0.015126613,0.009496186,-0.0011723902,-0.027725425,-0.024476413,0.040120378,0.010482957,0.0014440963,-0.013016471,-0.010718853,-0.0047444007,-0.009462744,0.008506527,0.0034502172,-0.0015261392,-0.007331597,0.0002997218,0.0064928276,-0.003964649
ISG15,0.004079455,-0.0019959058,0.0007691431,-0.00630291,-0.010110859,-0.011994263,-0.005208331,0.004644668,0.0067141266,0.016646558,0.006106018,-0.0013456692,0.006522349,0.003900172,-0.004394817,-0.0055570593,-0.015946554,-0.00073011394,0.0049133147,-0.0015183847,0.010764656,0.008499046,-0.0008358657,0.006813866,0.0014721643,-0.0058400803,-0.00085118803,-0.012440243
MMP23B,-0.0008163316,0.0007490137,-0.006287439,-0.0064737108,0.0003321636,0.002764862,0.0060944105,-0.0025405025,0.0074793748,0.0025817628,0.00037031298,-0.0012605187,-0.009655278,-0.010662012,0.0057571526,0.010268862,0.0009005869,0.0019027537,0.0005003281,-0.010418922,-0.0026667241,-0.010604907,-0.005569162,-6.5139095e-05,0.0010924787,-0.0034843467,0.007929174,0.014199833
TNFRSF14,-0.0014775037,0.0028730226,-0.0052123154,-0.0010895275,-0.0032892483,-0.00030462304,0.0054554003,-0.00012120832,0.0048981127,0.00033965,0.0033258605,0.001210739,-0.0023913763,-0.0070969197,0.0029644486,0.0034606033,-0.0028400118,-0.000109584515,0.009879901,0.0013263022,-0.0077600405,-0.005296406,-0.0013908361,-0.0056359083,0.001132714,0.0022802206,0.0036557056,0.0027900336
TTC34,-3.5557383e-05,-1.1966391e-06,-0.0024850727,-0.0011941644,-7.98693e-05,-0.0006725232,0.00076519337,0.0026376436,0.00010889286,-0.0014174451,0.0024702263,-0.0028150217,0.00434948,-0.0031018616,0.0023981726,0.0028698803,-0.0017735793,-0.0004361649,0.002661691,-0.0037303444,0.003801223,-0.005831604,-3.5459503e-05,0.0021939902,0.0004375604,-0.0030554004,-0.00067306607,-0.0001237464
SMIM1,-0.004482926,0.0032530732,-0.012457009,0.00023305805,0.0087055545,2.6234098e-05,0.01143421,-0.0027915023,0.011431538,-0.0023744628,-0.0023493909,0.0027261185,-0.022149293,-0.011895144,0.0058776317,0.02211234,-0.003037692,0.013168966,-0.0009365708,-0.016206125,-0.001531563,-0.019766863,-0.0063771815,-0.0074350066,0.010653357,-0.0009404193,0.01036546,0.025082437
LINC00337,0.0029271003,-0.0010284538,0.0012879998,-0.0017101468,0.00045894034,-0.0011788852,0.0017858152,0.0024854534,0.0003462925,0.0042754477,0.0023215048,-0.00064346456,-0.0022372194,-0.0013388314,0.0008121988,0.0021860416,-0.0032135434,-0.00031405932,-0.0008850829,-0.001796376,-0.0032090272,0.0030405722,-0.0010812555,0.00033189743,-7.185468e-05,0.0010007423,0.00038567098,0.0005350568
HES2,-0.007023429,0.0088020405,-0.0062663555,0.008203201,-0.0025773563,-0.0037145955,-0.0061989827,-0.0020853097,-0.009403062,-0.007971437,0.002686679,-0.0038969452,-0.0049221558,0.003815532,-0.0024472307,-0.006953508,0.0015229753,0.007989923,0.004078126,0.008005339,0.0057709436,0.0046446146,-0.0007130551,0.0007596575,0.0023904718,-0.00013295234,0.0027322795,0.00056336465
TNFRSF9,0.0024983352,0.0030704008,-0.0020994789,-0.0059646433,-0.0052663027,-0.00032574506,0.00557785,-0.002803246,0.009050338,0.009613526,0.012661963,0.0034561593,-0.006931091,0.00040494354,0.0073400782,0.01992399,0.00090799225,-0.01300955,-0.0030313723,0.021802692,0.0131332865,-0.0064244363,0.03436462,0.0012021179,-0.031062575,-0.005371537,-0.0049702465,0.00037059293
ENO1,-0.013300945,-0.029754385,0.037273224,0.03730281,-0.039312933,-0.010721862,-0.055233933,0.044621184,-0.09953503,-0.020607647,0.034735356,0.012244468,0.012074089,0.0571462,0.009068946,-0.06300907,0.003619816,-0.02163345,-0.030769406,0.028731113,0.020291314,0.08190416,0.004517026,-0.005409097,-0.013347888,0.0072174734,-0.03290553,-0.08956588
GPR157,0.0008244885,-0.0005825249,1.41198525e-05,0.0024255132,-0.00036837123,0.0013239894,-9.3010254e-05,0.002755419,-0.0012347974,-0.002452265,0.00011459178,-0.0015976427,0.0006488618,-0.0024697592,0.0017763358,-0.00067349256,0.0006024108,-0.0017098279,-0.0044446005,-0.0005680733,0.0011458346,0.0027417543,-0.0019729557,-0.0013341494,-0.001384211,-0.001644558,0.0013060174,-0.0012459519
H6PD,0.00015984684,4.170599e-05,-0.0018317656,0.004666304,0.0014928889,-0.00051975215,0.0059701484,-0.009348379,0.0011298876,-0.0039462936,0.0043922537,-0.0068005305,-0.0013229728,-0.007102683,0.005160706,0.002262342,0.0060971715,-0.003489487,0.0071199355,-0.009548993,0.00850053,-0.010408848,-0.004555076,-0.0018373582,-0.00028047216,0.0007836162,0.0018662525,0.0032125872
PGD,-0.001707595,-0.0011523352,-0.01144364,-0.006196306,-0.006311499,0.004058865,-0.0055950405,0.0010988122,-0.0011659621,0.005142179,0.004022116,-3.989774e-05,0.00042571843,-0.0094334595,0.0063356385,-0.0071538137,-0.00590254,-0.021395076,0.03361508,0.02093449,-0.037252333,0.006384051,-0.00015164497,-0.012847495,-0.0031914166,0.012073976,0.008495316,-0.016387865
MASP2,0.0014025667,0.00023859472,0.0019560014,0.0022345653,-0.0028967008,-0.00012482915,0.0007346584,0.00046489201,-0.0030878005,-0.0015947134,0.0020277477,-0.0011746904,0.0009769324,0.0028710607,-0.00056343444,-0.0024995091,0.0014883006,0.0013870995,-0.00076060416,0.0014540417,-0.0013229818,0.0010143066,0.0017043775,-0.0012232163,0.0006475799,-0.001156639,-0.000358478,-0.0001364823
SRM,0.012807056,-0.030184947,0.034806173,0.02688174,0.01319969,0.009272704,-0.018551126,0.034718115,-0.048661005,-0.007183872,0.0061896355,-0.014997227,-0.00012298848,0.03926992,0.011513607,-0.007605317,0.010255588,0.0014895874,-0.04942085,-0.006474822,0.0033093372,0.048942216,-0.009111399,-0.002093312,0.021435969,-0.008340251,0.007365962,-0.037768368
MTHFR,-0.00058214384,0.0006442851,-0.007747401,-0.0056060306,0.0099381665,0.000557185,0.0077846586,0.00060116017,0.009383945,0.009189148,-0.0034733673,0.004395586,-0.009129807,-0.014660437,0.0013908319,0.011944775,-0.0025034102,0.0013421191,0.001027828,-0.010228064,-4.624852e-05,-0.011318474,-0.005090573,-0.0023457413,0.0033085968,-0.00024519413,0.009313689,0.012913644
HP1BP3,-0.0004260055,-0.007662994,-0.015635595,-0.004956439,0.0011175986,0.0067801923,0.0067106886,0.021198882,0.009510316,0.02038477,-0.0025180315,0.0053842985,-0.014946185,-0.024078906,0.009511979,0.00799201,0.008662956,-0.0046400256,-0.0020482608,-0.0039123674,-0.0021534152,0.0010864082,-0.002725934,-0.00627135,-0.0078713745,0.0038613554,0.000920185,0.0014801153
CDC42,-0.0028063697,-0.001806638,0.0023144847,0.001412009,-0.003976856,-0.002263316,-0.008740323,0.0027257039,-0.007558049,0.0028911098,0.0069468087,0.012393824,0.0013543672,0.0031114325,0.00026808667,-0.012185992,-0.0015187387,-0.007084042,0.0024064903,0.0006643507,0.009205076,0.010511991,0.0035287486,0.00057205075,-0.0028566655,-0.0017847152,-0.0049356935,-0.010829088
ZNF436-AS1,-0.0015581626,0.013099379,-0.00410571,-0.0070757694,0.0041247527,-0.0022814807,0.0016157287,-0.013888423,0.010571831,-0.0011417448,-0.0015998067,0.0042116162,-0.0017116064,-0.0025772783,-0.007919504,0.004389088,0.0044971327,0.008806796,0.0053765043,-0.012313137,0.016257554,-0.012444589,-0.00046830345,-0.0005869867,0.006462322,0.00014811031,0.0037603276,0.008229533
ID3,0.008895201,-0.002521298,-0.003909788,-0.04890044,0.010800215,-0.028579041,-0.014783082,0.013996451,0.038747605,0.07846048,-0.0056659346,0.036626626,0.04719294,-0.03075499,-0.041221276,-0.014752144,-0.0052733296,-0.016340366,0.05522154,-0.015959451,0.11960577,0.015459611,0.0041609816,0.006208288,0.0046516825,-0.0006887953,-0.020033997,-0.04636636
HMGCL,-0.0029621676,0.008268035,-0.008112901,-0.0027016883,-0.01177448,-0.007041366,0.003862092,-0.0022538984,0.008648178,0.0026851764,0.012222463,0.0031794072,-0.0047100633,-0.009638951,0.0037296047,-0.00069571665,-0.0046134023,-0.005748788,0.013184289,0.002211295,0.0037393863,-0.012325388,0.002994163,-0.00905385,-0.005884359,0.0017162871,-0.0029821917,0.0038200403
FUCA1,-0.006355675,0.0065257996,-0.010335999,0.0067905975,-0.000916867,-0.00850344,0.001513997,0.005656483,0.0047356156,-0.0031094947,0.007193505,0.010701219,-0.004621352,-0.008199455,0.004817358,-0.00076575513,-0.0041771927,-0.003906083,0.013201744,-0.004569022,0.008605621,-0.013854723,-0.0024010057,-0.004828639,0.00096866454,-0.0023691922,-0.0034839613,-0.00058872363
SYF2,-0.0025973334,0.0037956682,-0.00361307,-0.0012384942,-0.019999392,-0.006112682,-0.0029023602,-0.00090742175,0.00029393774,-0.0037833268,0.018540695,0.0024045976,0.0034933707,-0.0046000704,-0.0004994377,-0.018836172,-0.0051512765,-0.0046086414,0.008722332,0.011318512,0.0041113175,-0.0005331229,0.019105697,-0.0031047987,-0.018279783,-0.0012249091,-0.001732684,-0.0064820144
RSRP1,-0.0013230997,0.008287047,-0.0039024167,-0.0049345638,0.0043518087,-0.0066096717,0.005066698,-0.009639594,0.008915229,-0.0039802617,-0.00067777745,0.011374301,0.0029133665,-0.005022956,0.0006121171,0.009825009,-0.00045064208,0.0073915175,0.01405157,-0.0043048933,0.011982058,-0.012920954,0.00886128,-0.007836951,-0.0039665145,0.0027361005,-0.006581249,0.0052417237
PAQR7,0.0008228174,0.0003734119,0.0013798556,-0.003200573,-0.0009653646,0.0038425482,-0.00021596307,-0.0050629866,0.0028965045,0.0019172407,7.8467365e-06,-0.0016285112,0.0009313074,-0.0011373695,-0.0028058414,0.0020381263,0.00047213488,-0.00048177078,-0.002363,-0.0015561198,0.0016088856,0.0010397187,-0.000824956,0.0061147097,0.002872882,-0.0028060416,0.0016961908,-0.000400777
STMN1,0.008822899,-0.0022748106,0.01841257,0.0006773077,-0.014737888,-0.008566604,-0.0034491355,0.009581839,-0.018570062,0.015396397,0.00039339886,0.013929277,-0.007140675,0.024641326,-0.013356871,-0.027032591,0.0021975809,0.007552747,-0.035921287,0.016570052,0.008168184,0.055180565,-0.0005505257,-0.0024227516,0.003432573,0.005609897,-0.00082842115,-0.036311615
EXTL1,-0.00018440821,0.0019497618,-0.0021481775,-0.0018135245,-0.0014137455,-0.0011677836,-0.0004607398,0.0022505028,0.0034049058,-0.00058946287,-0.0054956935,0.002059837,0.0044398084,0.0004618476,0.0012682616,-0.004814101,0.0031084237,-0.0038084565,0.0033195144,0.0012798164,0.0013006962,-0.0068595544,0.000905894,-0.0030873262,0.0018105202,-0.00019807329,-0.00057740114,0.00028436532
TRIM63,-0.002007266,0.008717997,-0.0077801254,0.0033586386,-0.009163354,-0.0068981037,0.0015436676,0.0036703649,-0.006040396,0.0063239983,-0.0131652,-0.0010886509,-0.0028746745,-0.00073607976,-0.010738705,0.010234135,0.0009948752,-0.00059220556,0.0030295195,-0.004619385,-0.0029782038,0.0056675104,0.0019801424,0.006844991,0.0036665627,0.00217674,-0.0037334014,-0.00094680156
SH3BGRL3,-0.009526458,0.006117002,-0.03181474,-0.012568446,-0.013992601,-0.026539342,-0.003931868,0.01693741,0.012076729,0.018860713,-0.007795977,0.04711975,-0.008786007,-0.035971835,-0.002371282,-0.0029217498,-0.030687228,-0.013407305,0.035865463,0.02100216,0.00017707668,-0.007579694,0.0030006885,0.0015769999,-0.015280003,0.013762103,-0.04716694,0.0070360666
CD52,-0.00960455,0.020572789,-0.02611181,-0.00055572373,-0.015068462,-0.015596953,0.0017206447,0.00017944901,0.01346085,0.004337198,-0.0057847523,0.028422939,0.0048819506,-0.025446963,0.0011715638,-0.010590568,-0.006009669,-0.008730486,0.037963364,0.02271304,-0.0013190608,-0.017273499,-0.007945216,0.004185529,-0.014628685,0.020037815,-0.02751242,0.009771279
HMGN2,0.0075722765,-0.013435593,0.018929632,0.002408185,0.007822116,0.0019208983,-0.007600663,0.021518763,-0.017384777,0.023422182,-0.013912451,0.019844264,-0.017866036,0.015452861,-0.0043758894,-0.0050573274,-0.0003226633,0.003714346,-0.029495986,0.009629233,-0.016234457,0.057520684,-0.011377452,-0.0104904305,0.023379212,0.0067783548,-0.002168456,-0.029466907
NUDC,-0.0032079963,-0.016352234,0.018880107,0.019819926,-0.0143427225,-0.0023644592,-0.029023273,0.027642086,-0.053110406,-0.014328221,0.019202774,0.007338066,0.0033994822,0.03131421,0.013480067,-0.024546701,0.0067970995,-0.0118795205,-0.023019928,0.0064652506,0.012151263,0.03811413,0.0036349264,-0.0040208288,-0.004711031,-0.0020569514,-0.013355451,-0.040787697
SYTL1,-0.006560271,0.012544632,-0.009611729,-0.0002616176,0.00353416,-0.0010848204,-0.003615746,0.0029365597,0.0030306783,0.0041701985,-9.420884e-05,0.0065865493,0.006767575,-0.011373938,-0.00616344,-0.0077695237,-0.0019251223,-0.0022902344,0.021487264,0.011375656,-0.009067484,-0.00011349602,-0.0029346535,-0.0010520156,-0.0016278104,-0.0058864183,0.0011286859,-0.012902627
IFI6,-0.002135978,0.004310733,-0.0041936045,0.0020653293,-0.0027214459,-0.0021174233,-0.0014756493,0.0016311404,0.0061559416,0.0011570103,0.001424901,0.003340504,0.0034177133,-0.0044695265,0.009152099,-0.005062224,-0.007477028,0.007135945,0.013831491,-0.005981404,0.0016759647,-0.0033095058,-0.003343248,0.006291047,-0.0013966223,0.0018050724,-0.001258271,-0.0021811493
THEMIS2,-0.0033621832,0.0017999191,-0.0072855805,-0.00576316,-0.0016614251,0.00769552,-0.004619656,-0.0035787916,0.00048839033,-0.0008110041,-0.004741506,0.00094305165,0.00261182,-0.012100095,0.006338043,-0.004307817,-0.0005058362,-0.008295499,0.025934491,0.0145155275,-0.03383822,4.1824856e-05,-0.004580059,-0.010206456,0.0016137223,0.007398199,0.004219788,-0.008997283
PTAFR,-0.00856401,0.0054942477,-0.0122260535,0.013348879,0.00017394358,0.002169827,-0.004281481,-0.00797447,-0.0071345395,-0.029468114,-0.0048726457,0.013834458,-0.007117791,-0.0053842,0.013571512,-0.0015616585,-0.0031540866,-0.011370031,0.03193675,0.016404781,-0.05199849,-0.00827534,0.0011515808,-0.022468414,0.00020241745,0.011347537,-0.0011132812,-0.0060764593
SESN2,-0.0025775975,-0.0067678913,-0.009167281,0.00033556085,-0.012375442,-0.0018071565,0.00430177,0.013015093,0.006037689,0.012830072,0.012666338,0.0034560466,-0.018526806,-0.015191498,0.010736543,-0.0062652905,-0.0015673767,-0.0100000575,0.00065817626,-0.00039503025,0.013060863,-0.010234509,0.015909912,-0.006796581,-0.012201966,-0.0027913612,0.005755897,-0.00069501385
LAPTM5,-0.0036614046,0.003032845,-0.019057708,-0.018642105,-0.014373188,-0.0049289484,-0.0115450155,0.011861155,0.005127565,0.011847091,-0.004049059,0.013606018,0.0072013973,-0.018801607,0.00074026524,-0.016918112,-0.00937009,-0.025689386,0.024598764,0.028192097,-0.027415683,0.007299624,-0.0002982647,0.0055026133,-0.016105223,0.011509307,-0.02217342,-0.009203995
FABP3,-0.0018112301,0.000622103,-0.004936658,0.005644835,-0.0052165096,-0.0046665473,0.0051355953,-0.0038696353,0.0044905203,-0.014517892,0.009252869,0.0058117895,-0.0027468854,-0.009659812,-0.004092102,-0.0026747726,-0.0021269452,0.0027995338,-0.0018354452,-0.01784588,0.0015674488,-0.0062080137,0.023053218,0.007952921,-0.009006859,0.0061997524,0.003737199,0.005385071
SPOCD1,0.0002489139,-0.0015603716,-0.0029454315,-0.0042188186,-0.0010294152,-0.0017451074,0.0032775553,-0.00435515,0.00553044,0.002460326,-0.00086044124,0.004562338,-0.0018185853,0.0035792722,0.002039409,0.016409148,-0.0016269583,0.0039485404,0.00068958354,0.00275286,0.0020928828,-0.0015675601,0.011191974,-0.0061947745,-0.0013836067,-0.010688741,0.0016125714,0.003963447
MARCKSL1,0.008345797,-0.013559716,0.020242363,0.008148583,0.010462742,0.013412855,-0.017533965,0.008113519,-0.026661484,-0.015373071,0.0057815476,-0.030763654,0.02862059,0.017212229,0.0067488314,-0.009063798,0.011156657,-0.028243208,0.018973973,0.010187665,-0.021389805,0.021442505,0.0036156606,-0.011956766,0.0033576342,-0.0013299932,0.019546472,-0.044266995
BSDC1,0.0027011647,0.003388826,-0.01201566,-0.008250616,-0.0020554531,-0.0024967503,0.011762295,-0.0027095233,0.0156517,0.010860281,0.0009618727,-0.007244214,-0.007033197,-0.017473973,-0.0022249185,0.005106977,-0.0018256817,-0.0032693094,-0.0012392444,0.003879104,-0.0009813259,-0.009215406,0.006923442,0.015065614,-0.0232616,-7.681064e-05,-0.0015294363,0.020218533
TMEM54,0.006337361,0.007001596,-0.002790742,0.0060528605,-0.006972962,0.015930267,0.025089795,-0.006081327,0.027408222,0.01993524,0.0006957472,-0.0023249467,-0.0008583148,-0.006426039,-0.0043501244,3.9833827e-05,0.04617373,0.024653917,-0.018139819,0.00025066614,0.012245514,0.013110119,-0.012712104,-0.01016971,-0.004756842,0.023071922,0.029709015,0.017200522
PSMB2,-0.0025864614,-0.00694725,0.018223263,0.02096668,-0.028826693,-0.015445384,-0.021778122,0.01607341,-0.04585312,-0.00881662,0.025219845,0.009339854,0.0023198733,0.037791148,-0.002545064,-0.036690593,-0.008872903,-0.006546287,-0.02167925,0.014302171,0.01891314,0.043201566,0.006059894,0.007278146,-0.0077977884,0.0017216197,-0.025592508,-0.03696641
CLSPN,0.00885859,-0.013881718,0.01425239,0.011167742,-0.0034197809,-0.0026219902,-0.009306907,0.017640032,-0.025293853,0.002153144,0.0064323028,-0.002388842,-0.0070205857,0.012445576,0.010446613,-0.006557728,-0.008693773,-0.006254287,-0.021895083,0.009826131,-0.0069316085,0.034279466,-0.006473407,0.0046708514,0.004422534,-0.0035921626,-0.0035670502,-0.01718863
MAP7D1,0.005081951,-0.0100080315,0.0035475881,-0.0006097373,0.00068628514,0.0017484914,-0.004573707,0.016942183,0.0047996175,0.018007535,0.0068128286,-0.001483362,-0.004833177,-0.007005362,0.009605751,0.00030307018,0.00016362708,-0.003976237,-0.006540219,0.009281946,0.0077232514,0.015239081,0.0064578108,0.0059607597,-0.008795671,-0.0048994315,0.0050642355,-0.01157557
CSF3R,-0.012630168,0.0132179065,-0.024993997,-0.0067229625,-0.008736148,0.010569743,-0.0052906354,-0.0010701201,0.0131179625,-0.0011073692,-0.008077086,0.010877025,0.008943331,-0.029923884,0.016847221,-0.009515645,-0.009266169,-0.022308595,0.06629368,0.03318989,-0.07205247,-0.015672171,-0.013071665,-0.017868223,-0.0033132322,0.019822886,0.0029229426,-0.006777785
CDCA8,-0.0020923216,-0.028462227,-0.017411131,0.0059146187,-0.0116704665,0.008826362,-0.0014248026,0.054230466,-0.009808487,0.026060347,0.008754161,-0.014225099,-0.016617669,-0.019423213,0.024257813,-0.007646225,0.01624798,-0.022953425,-0.012322604,-0.00028130293,-0.00081421196,0.015374914,-0.00726157,-0.008832283,-0.008725706,0.0071602296,0.012424228,-0.01297771
RHBDL2,0.0005785171,-2.2493286e-05,0.00066679216,-0.000100955265,0.0018999572,0.0010136542,0.0005528387,-0.0005773083,0.0013466553,0.0010306427,-0.00086948974,-0.0012178223,0.00052967336,0.0004002069,0.0010169153,0.000536156,0.0029445232,-0.0006754676,0.00011658971,-0.00033531315,-0.0005365711,-0.0007826898,0.0008251352,0.000576236,0.0022896056,-0.0011898482,-0.0012613112,0.00035973883
MACF1,0.0034941179,-0.004969416,-0.002826631,-0.009526727,0.005886959,0.00095513265,-0.0008075793,0.003938249,0.010565233,0.0111702345,-0.00015527736,0.008741963,0.002613213,-0.015187189,-0.0035532133,0.0085649965,-0.0026139852,-0.0077513386,0.010972994,-0.0042920117,0.01006259,-0.0012947574,0.0031586504,-0.0032758962,0.0015405585,-0.0005864806,0.0012699845,-0.0031494228
CAP1,-0.0019296077,-0.0016846099,-0.00968422,-0.0065402435,-0.007068108,-0.012391636,-0.009373088,0.014413788,-0.0034748581,0.019691836,0.0062098447,0.016639585,-0.0008470201,-0.013824925,-0.00010106532,-0.004131676,-0.0070076548,-0.011911429,0.016751798,0.004506062,0.014235462,0.00638591,0.011329457,-0.0021698512,-0.01284866,0.003264514,-0.017012315,-0.02412646
COL9A2,-0.0036355907,0.0051752017,-0.013661462,-0.006757293,-0.00424303,0.0021470897,0.0006801494,-0.0048080217,0.00816787,-0.001120275,0.0014481492,0.005365947,0.00044623108,-0.014960378,0.005331062,-0.0017792089,-0.00029069753,-0.0128573105,0.035125364,0.012635477,-0.028698977,-0.017305302,-0.001794504,-0.01159546,-0.0014864956,0.012495605,-0.00039297866,0.0019086523
SMAP2,-0.0007207402,0.0020965664,-0.0048008393,0.0027771315,0.0034187348,-0.0005371235,-0.0038371447,0.010973434,0.0012978463,0.004655006,0.0039430982,0.004170568,0.007084666,-0.00774996,0.004977349,-0.00021468356,0.0051467437,-0.010320868,0.00957996,0.008943456,1.6722412e-05,0.0038496084,-2.9478046e-05,-0.0026687137,-0.007949001,0.005366163,-0.007176213,-0.0028494208
CITED4,0.0008174194,-0.0012898281,0.0017342648,-0.0020629065,0.006600909,-0.0023157694,0.004674323,-0.0047690356,0.0041967733,0.0015312146,-0.004629306,0.006197019,-0.008567541,-0.007866974,-0.003985676,0.005870385,-0.0052533043,0.006548118,-0.0038349468,-0.002900162,0.005934782,-0.0033778741,0.012700961,-0.003742455,0.000835738,-0.004228591,0.004020766,0.0022000484
FOXO6,0.00083353627,-0.00062234246,-0.00051959767,-0.0013690763,0.00026099684,-0.0014331862,0.0018394492,-0.0026936792,0.0035298835,-0.001047355,-0.0010621229,-0.0027672637,-0.002702074,0.0009032644,0.00032601325,0.0014457161,-0.0014208377,-0.0022938233,-0.0018740987,7.540733e-05,-0.0037859506,-0.0018152251,-0.0049642944,0.0038141927,-0.002734163,0.0019457017,-0.005660895,0.010643889
PPCS,-0.0038171264,0.0057031387,-0.0044112303,-0.0019001552,-0.0076261843,-0.0062978934,-0.003929521,-0.0014513647,0.0065843295,0.0005055354,0.01241888,0.00037781816,0.0020154133,-0.0009819047,-0.00019516071,-0.0015851458,-0.0137594575,-0.007960783,0.016344626,-0.0014011527,0.0048726564,-0.0022736264,0.0036749565,-0.0058555957,0.0028687806,-0.0030886608,-0.0054584737,8.4679756e-05
YBX1,0.022571862,-0.022495886,0.050514784,0.0009932058,0.031012286,0.009119825,-0.0132856,0.0073446776,-0.04535105,0.008766124,-0.007823347,-0.0023288026,-0.0037902445,0.056788925,-0.021554338,-0.0022043753,9.829632e-05,0.022536455,-0.06290386,-0.0037193934,-0.006542006,0.09655845,0.00095176365,-0.0031640385,0.03899238,-0.008688244,0.012147438,-0.052201003
SLC2A1,-0.003644215,-0.0129256155,-0.0079874,0.013134547,0.00059310754,-0.002075039,0.005465169,0.018406713,-0.009733896,-0.0028377133,0.00038178364,0.004599237,-0.023801414,-0.0046585565,0.014579189,0.0070470176,0.0013682005,-0.00043530876,-0.020058453,-0.0009052707,-0.007106125,0.013167051,-0.007022334,0.002517959,-0.0034602936,0.0054483414,-0.015757028,0.016853193
SLC2A1-AS1,-0.0058094044,0.0064767003,-0.0121786,-0.0021003669,-0.001734567,-0.0072442135,0.009190734,-0.0073908833,0.013465544,0.0023871579,-0.005981521,0.0054908064,-0.008111882,-0.009069643,0.0009021788,0.012779335,-0.00095974584,0.0038052343,-0.0016136391,-0.0077079977,0.0049713785,-0.016352037,-0.004536535,0.00301399,-0.00082038186,0.006241812,-0.0107528595,0.028582184
EBNA1BP2,-0.0011236598,-0.012649527,0.025550272,0.02502045,-0.0076839915,-0.0033220917,-0.03070599,0.013829971,-0.053418107,-0.023807446,0.015395653,-0.0010537336,0.0105300015,0.03962366,0.009437687,-0.029340226,-0.00056648377,-0.0068499087,-0.024945201,0.0036300856,0.0063047004,0.033823293,-0.00062399637,7.8030826e-05,0.0022478898,-0.0035729818,-0.010341458,-0.03917306
CDC20,-0.00555962,-0.01147227,-0.0020496328,0.004879095,-0.02052158,-0.00058958813,-0.009216828,0.021442194,-0.020578198,0.0022558968,0.014177521,0.0010800277,-0.0019688024,0.0059237173,0.009349077,-0.020862157,0.00539669,-0.010386167,-0.010359421,0.011875741,0.0019939237,0.022649502,0.0010890032,-0.006616339,-0.0072861165,0.0025179817,-0.0044456925,-0.019923916
ATP6V0B,-0.007627019,-0.004767941,0.00066585356,0.009099716,-0.021556748,-0.016142186,-0.0201787,0.018532978,-0.02290598,0.004863365,0.020023728,0.016555425,0.0055924566,0.006802972,0.0038645905,-0.031718045,-0.013121,-0.02109915,0.017582724,0.011826894,0.023729946,0.0120169185,0.0074502123,-0.0036267387,-0.012489873,-0.0017529207,-0.016851498,-0.035157856
KIF2C,0.0026102317,-0.022007171,-0.01288633,0.0021458543,-0.01270869,0.0039039406,0.0025526832,0.04233492,-0.004870366,0.027768323,0.0072241067,-0.002589402,-0.014730896,-0.0205051,0.015432062,-0.005493516,0.006853936,-0.013721302,-0.012641218,0.0067590005,-0.0039607193,0.021173906,-0.007457437,-0.0039995117,-0.008480176,0.0043762308,0.005767106,-0.012409987
BTBD19,-0.0024672542,0.00019966293,-0.0045405,0.001639679,0.0036244444,-0.004185754,1.5761001e-05,4.7578007e-05,-0.0028059545,-0.0031973647,0.003427848,-0.0012680272,-0.0013017526,-0.0040422776,0.0038599365,-0.0018945171,0.0032869824,-0.0041038054,0.0035274024,-0.0075023626,0.0123394495,-0.00657779,0.0009246147,-0.0081719225,-9.7794065e-05,0.0038704583,-0.0021938821,-0.0005140435
PRDX1,0.0013568178,-0.0034733936,0.027348666,0.01492443,-0.036381572,-0.021296484,-0.027521838,0.0020108437,-0.052531876,-0.01573097,0.029714977,-0.0029865387,0.024290781,0.052787326,-0.013629974,-0.04261814,-0.009466083,-0.008621456,-0.02092136,0.015009901,0.040480375,0.043570217,0.010571061,0.015793504,-0.013906832,-0.009562165,-0.021899931,-0.04842608
LINC00853,-7.021085e-06,0.0029967055,-0.0022413079,-0.004346913,9.222213e-06,0.0007354482,0.0024913962,-0.002121888,0.008103291,0.007294876,0.00034704176,0.0043562837,-0.0020425578,-0.0078977635,-0.00041792568,0.004520233,-0.0032284106,0.005092385,0.002570902,0.0006379456,-0.0028044295,-0.0021284872,-0.0033725628,0.0036481745,0.0015461487,-0.0026101323,0.0022904945,0.0040734536
PDZK1IP1,-0.00087170745,0.0025901448,-0.0014376631,-0.0017032536,0.0022401237,-0.00020041189,0.00063369155,-0.0014684265,0.0009054493,0.0010034213,0.007943586,-0.0006129441,-0.006420167,-0.0040135016,0.0040177857,0.0009640363,0.0010520442,-0.0030761203,-0.0015757189,-0.00069630705,0.0032156697,-0.0062404866,0.0046733418,-0.003026998,-0.00605068,-5.8287856e-06,0.0049455822,0.0062787617
CDKN2C,-0.002875815,0.0043997853,-0.013468201,-0.0021997895,-0.00026674068,-0.001359483,0.003677175,0.01941126,0.008182255,0.024004104,-0.004482318,0.012029568,-0.005379999,-0.01622918,0.0016143748,0.0055219326,-0.0032796713,-0.0010553447,0.0026360045,0.0042856326,0.0032192445,0.0035092575,-0.004436439,-0.0018600323,0.0049687424,0.0032966444,0.0038282906,0.0018645282
RAB3B,-0.0013291525,0.0045140944,-0.0044599217,-0.005769797,0.0013369973,-0.0021878493,-0.0021315205,-0.0005795367,0.0041576587,0.012355696,0.0032597354,0.0018447756,0.0013350822,-0.0018531557,-0.0070777433,-0.00065945316,-0.0025752224,0.00053832313,0.0054378835,0.000101323916,0.0073600276,0.00031207904,-0.0011244598,0.0017060116,0.0020684404,-0.0018865925,-0.0010317162,-0.0010986523
JUN,-0.015511188,0.020447547,-0.02163125,0.002461315,-0.039266005,-0.019816643,0.012653572,-0.0028900208,0.020559795,0.012817114,0.050242722,0.013874039,-0.023271374,-0.008654255,-0.014768675,-0.034364384,-0.030730594,0.006185039,-0.0045233793,0.025257083,0.03334314,-0.004838275,0.036920737,0.008792066,-0.04154242,-0.01569443,0.006461102,0.0030699668
LEPROT,-0.00033845977,0.0011081757,-0.0022006829,0.003998938,0.008532259,0.0034511723,0.0080262935,-0.00050531205,0.00911457,0.0001310265,-0.00023009567,0.0027816761,-0.014924181,-0.0063344804,0.0060267486,0.010450733,0.010071398,0.01212095,-0.004849795,-0.008180089,0.005454986,-0.013302362,-0.0062185447,-0.007157921,0.0033492302,0.0024605475,0.0071618767,0.011850354
C1orf141,0.0012786082,-0.00060578185,-0.0005399196,-0.00061180326,0.00035949727,0.0011199806,0.004655033,0.0005920737,0.0026955109,0.0013960983,0.0004677342,-0.0009174688,-0.002606496,-0.0022524293,0.001125231,0.005656102,-0.0032847915,0.0020727704,-0.00017950445,-0.0018685802,-0.00095142727,-0.003450849,-0.000873485,-0.0001291396,0.00079869933,9.9587836e-05,0.004278283,0.0048197336
GADD45A,-0.004782378,0.00081970333,-0.00585557,0.018796744,-0.0044556037,-0.012903149,0.0018955829,0.012417943,-0.015755024,-0.008230025,0.0039762035,0.012810693,-0.0203135,0.0044203484,0.010875041,0.0051703695,-0.005302154,0.00816389,-0.02624688,-0.0016417416,0.004809411,0.004527423,0.0075165867,-0.0047537307,-0.0064365356,-0.0019751827,-0.016860222,0.0048171673
SLC44A5,-0.0013157581,-0.00096243207,-0.0032295948,-0.0025483796,0.0004887988,-0.0006375894,-0.0008861013,-0.0009798224,0.002643275,0.004693191,0.0022055593,0.0049326164,-0.0009913415,-0.006387773,4.1548858e-05,0.0021927655,0.0053594923,-0.0017150495,0.007360188,-0.007793913,0.015342179,-0.002526013,-0.0012930015,-0.004528295,0.0010906192,0.00067645893,-0.004153707,-0.002162771
DNAJB4,-0.00085586275,0.0031160081,-0.0010994396,-0.0031819681,0.0022799855,-0.0047482173,0.003576298,-0.004960338,0.0021992149,0.000762469,-0.0044519785,0.011873695,0.0014057426,0.0005590572,-0.008242032,-0.0004340193,0.00082667684,0.008019601,5.567585e-05,0.0018568028,0.008364189,-0.0009664133,0.00024331425,0.001010528,3.8920203e-05,-0.00067873887,-0.0050024497,-0.0009309245
TTLL7,-0.005602836,0.0039501037,-0.0078051058,0.0062473747,-0.00180135,-0.0014410793,0.0027029505,-0.007059526,0.0067929802,0.00291604,0.0038332697,0.006758593,-0.004272435,-0.010362746,0.004702382,0.003800545,0.002582258,-0.003113545,0.011503968,-0.010080221,0.025495838,-0.012986387,-0.0022996208,-0.0009219148,0.0007166982,0.003995013,-0.006848821,0.005283147
CLCA1,0.0016496953,-0.00021460323,-0.0014308684,-0.008773357,-0.010810577,-0.0057553533,-0.00012771838,0.0043397294,0.0007535998,0.016107006,0.0072869128,-0.0026319104,0.007852774,0.00013871795,-0.0114884535,-0.012052603,-0.00043065273,-0.0087257875,0.0010324928,0.0066471505,0.010872126,0.008438586,0.0032083353,0.007144354,-0.005880577,2.1721688e-05,-0.0012143636,-0.009113335
LINC01140,0.0039218883,-0.0018371656,-0.0019081852,-0.02044197,-0.003387211,0.011347679,-0.0075499928,-0.004397231,0.0031451187,0.014561017,-0.003610394,-0.00024562053,0.0032908062,-0.0070768846,-0.00476568,-0.0029861769,0.0043163146,-0.010649765,0.0092805335,0.012085719,-0.018653223,0.0160947,-0.004093329,-0.0017624807,-0.0015692769,0.0106405,-0.004783757,-0.0053595332
LMO4,0.0021923503,-0.00057931634,-0.016715623,-0.027096499,-0.0019053236,0.014753175,-0.010637912,0.013443658,0.011357942,0.033806823,0.0015177961,0.003971154,0.00093114754,-0.028580433,0.003399901,-0.010846332,0.0050048823,-0.027070142,0.03596686,0.008751784,-0.027085954,0.006189943,-0.010155899,-0.0062058135,-0.0025186334,0.014093364,-0.002289712,-0.015969738
GBP2,-0.003992193,0.008504401,-0.010802908,-0.001018327,-0.006822456,-0.0021642833,0.0013262905,-0.0038906604,0.002485287,-0.0078236405,-0.003694535,-0.01264576,0.010732735,-0.0087856585,0.0040013148,-0.008168688,0.009038865,-0.020847695,0.01801445,0.016505584,-0.014298721,-0.010499085,-0.0069018174,0.0021782294,-0.017667161,0.012442582,-0.014855474,0.008334746
BTBD8,-0.0019225524,0.0040517175,-0.0030302631,-0.001752067,0.00034732796,-0.001004766,-0.00090190704,-0.005179397,0.0028831968,0.0038015866,0.0005825807,0.0023929053,0.0022966284,-0.0010925729,-0.004656221,-0.0035394388,0.004084553,0.0009200354,0.0060985116,0.004100219,0.00086248905,-0.0039882916,-0.00016311268,0.0028125048,0.0013820749,0.0049025696,-0.00041687398,-0.001582213
KIAA1107,-0.0006439487,-0.00017948342,-0.00055877503,0.0026856605,-0.0017625708,0.0004723593,0.0012775699,-0.0033704848,0.00042358096,-0.00025278766,0.0007867086,0.0019852694,-0.0013580308,-0.0024158573,0.00023693687,0.0013312694,-0.00044751223,-0.00037521278,0.0036001166,-6.571651e-05,-0.0010941346,0.0009109609,-4.5100296e-05,-0.0053297994,0.0020628814,6.4828724e-05,0.0007065576,-0.0030792763
FRRS1,-0.0057307035,0.004641707,-0.0043202657,0.0022546102,0.0030705617,-0.0005182405,-0.0016220781,-0.0055793733,-0.0038975773,-0.0043818573,0.0003763279,-0.00019230026,0.0012419806,0.0016573718,-0.001744524,0.00315773,-0.011369057,-0.0007552922,0.004407747,-0.0007884607,-0.0011170019,-0.0057783267,-0.0022004955,-0.0027484326,0.00080453046,0.004443543,-0.0012713099,0.0068334714
LRRC39,-0.0018187691,0.00047823935,-0.0026076697,-0.0021388,-0.00262704,-0.0017127346,0.0026576875,-0.0014375501,0.0041623455,0.0005006217,-0.00022306698,0.002417505,-0.0015453098,-0.00065135275,-0.0013960873,0.0015858051,0.0010288928,0.0067766774,0.00040308412,-0.003950243,0.005298258,-0.006478505,0.0032354486,-0.007196469,0.001004912,0.0004645401,0.0028246965,0.00450183
S1PR1,-0.00044248448,-0.0006501764,-0.0016404506,0.00014079145,0.001205979,-0.0010647869,0.0024100528,-0.00391436,-0.002240445,-0.002326341,0.0049569057,-0.0058364556,0.003852984,-0.0032568227,-0.0028136563,0.002847855,9.089335e-05,-0.001716073,0.012783534,-0.01500324,0.023623962,-0.013066097,0.0056872107,-0.0058572367,-0.0020675717,-0.0035816152,-0.002143137,0.00051134283
SCARNA2,-0.0020946579,0.0027207977,0.00041777475,-0.0041238707,0.001787272,0.0031657016,-0.0015982505,-0.0035677603,0.0063942242,-0.0018081915,0.004200584,-0.00054719194,-0.0022803089,-0.00031498383,-0.0033066787,0.0046023163,0.005497585,-0.0048676394,0.0006728662,-0.00043900622,-0.0031554173,-0.0029354987,-0.001582177,0.009421091,-0.004673226,0.0014954836,-0.0053377775,0.008760942
SARS,-0.0025147533,-0.008649538,-0.0024400514,0.011057107,-0.012484006,-0.0012054438,-0.0024296357,0.019266574,-0.0089908615,0.0062943655,0.028653812,-0.0036438322,-0.021414487,-0.006915924,0.014847738,-0.0094949175,0.0015062855,-0.005640352,-0.010377275,0.00063369866,0.013260294,0.0047655967,0.004624872,-0.0006101782,-0.016722893,-0.0057466417,0.01229857,-0.0067647574
PSRC1,0.00024999975,-0.0091547845,-0.005883702,-0.0019337523,-0.0062289857,0.0025457137,-0.00036802256,0.02239518,-0.0024814291,0.01140699,0.0037416995,0.00049757236,-0.0062187384,-0.008026295,0.006348056,-0.0055077937,0.007940212,-0.0036435183,-0.0076876148,0.0025168636,0.0005153962,0.010009011,-0.0013965386,-0.0011619994,-0.0041224156,0.0011323597,0.0040872893,-0.009238601
MYBPHL,-0.00023099256,0.00024811388,-0.004043825,0.001329721,-0.0074627963,-0.0036639876,0.005847328,-0.0021387537,0.008708912,0.005098602,0.005684558,-4.589107e-05,-0.0033833578,-0.008395118,-0.0001626046,-0.00038432097,-0.003782672,-0.0036080254,0.0061824652,0.0027496477,0.00931573,-0.00969562,-0.0040231096,0.003641965,-0.0039383704,0.0013788043,-0.0037830737,0.007926001
GSTM2,0.0004471023,-0.0003569099,0.00034833563,0.0011632047,0.0027622485,-0.00054677716,0.0018661853,0.0011644532,0.0004987669,0.0012592851,-0.0002939894,-0.0016224689,0.00017725353,-0.0007217142,-0.0014849484,-7.093306e-05,-0.0016276733,-0.0011530006,0.0014398191,-0.0018977709,0.0017089328,-0.002285719,2.8025537e-05,-0.0002599714,0.0012712755,-0.0014485618,0.0014578892,2.279332e-05
GSTM3,-0.0031750794,0.0005627737,-0.009032414,-0.0043359636,-0.0075169685,-0.004998049,-0.0004505138,0.0025361425,0.0006771957,0.0060506295,0.009552963,0.0067673577,-0.00010548903,-0.004817642,0.006212212,0.0025490415,-0.0037418948,-0.0053236233,0.007391183,-0.0061866143,0.008133706,-0.008918376,-0.0019238251,-0.0037445235,0.0040430296,0.0012980176,-0.0016472596,0.010499317
CD53,0.00071908685,0.0044292463,-0.005806138,-0.017106492,-0.015577526,-0.0064817285,-0.008241659,0.001758409,0.00065468467,0.007949716,0.0137939975,-0.008036148,0.016657377,-0.011972225,-0.0095385015,-0.021093732,0.00024932023,-0.022796864,0.023263505,0.009561933,0.012102914,-0.0068368865,0.0020873793,0.0066306377,-0.019213816,0.0029837177,-0.009567304,-0.011775632
CHI3L2,-0.0063794446,-0.0026553723,-0.0070747193,0.00892199,-0.0023543045,-0.0039196694,0.00093754154,0.0067695114,-0.013086589,-0.007334984,0.007486211,-0.00813154,-0.008431198,0.006139965,0.016016968,-0.0066759274,-0.002795476,-0.005030198,-0.0011993645,-0.009631985,0.0038358907,-0.0059097405,-0.0022277823,0.00076857634,0.0022351057,-0.009166262,-0.0009157458,-0.0026101333
CAPZA1,-0.0008088133,-0.0033577082,-9.8672375e-05,-0.0036020793,0.007093918,0.0025312426,5.7341604e-05,0.0053887167,0.004451213,0.008724598,0.0019183975,0.0056100152,-0.0044698203,-0.007920155,-0.0013546163,-0.001837182,-0.0015995265,0.0012001179,-0.0011776375,-0.0026156767,-0.0013040638,0.004153213,0.0007311624,-0.005217139,0.0052405368,-0.00063983526,0.0051518613,0.0001469531
RHOC,-0.0062168543,0.010330727,-0.01408727,-0.0009725093,-0.01698707,-0.017538778,0.0024452587,0.007288424,0.009163265,0.006810014,0.013585158,0.023158604,-0.008885059,-0.015278456,0.004120245,-0.0042275763,-0.012167277,0.0037529864,0.012047648,0.0038633053,0.02610167,-0.014428704,0.011737315,0.0018109229,-0.017009268,-0.001891978,-0.012804239,0.004540693
LINC01356,0.00045847995,0.0021270069,-0.0040458543,-0.006047348,0.0011776123,-0.0038766048,0.003273676,-0.0008171405,-0.0025906845,-0.0007565738,-0.0015792312,-0.0068557775,0.0024815146,0.0011557086,0.0021224446,-0.0046596243,0.014773326,-0.0065229814,-0.0010461397,-0.0033576463,0.0030461743,-0.0012955798,-0.0041494844,-0.002573031,-0.005283353,0.008485385,-0.0061949133,0.0038800524
HIPK1-AS1,-0.0016980252,0.0031682015,-0.0002604018,-0.003381408,-0.005258204,-0.00012244596,0.002970325,-0.0044067106,0.0058999537,-0.0014977806,-0.0010548924,0.001682897,-0.0006743694,0.0006190636,-0.0017485953,0.0021930907,-0.0036109777,0.000897788,0.004902584,0.0026039889,-0.0027181553,-0.005703402,0.004716659,-0.00044592848,-0.0010003392,-8.320675e-05,-7.180178e-06,0.0051375823
CD2,0.00015344626,-0.0011938448,-0.0020276953,4.4449143e-06,-0.0017414453,0.0018943173,0.0008264093,-0.0034295144,0.0010426157,-0.000106600644,0.0012229105,0.0014579588,0.004608724,-0.0071813217,-0.0037453177,-6.4354375e-05,-0.00245233,-0.0008288397,0.013099704,0.0022335085,-0.0009697098,0.0021147057,-0.002446113,-0.0022875369,-0.0005319091,-0.00024135197,-0.0013866336,-0.003364573
CD101,-0.004152447,0.0028181481,-0.005453512,0.011736531,-0.0015825717,0.00032415523,0.00072830793,-0.0063089165,-0.0023709633,-0.009935814,-0.00330912,0.006740931,0.00014853863,-0.00786979,0.008173215,-0.0027936301,-0.0059798067,-0.007848629,0.022309057,0.0143198185,-0.025990583,-0.006379868,7.3657604e-05,-0.011118651,0.0012480288,0.0063151345,0.0034400302,-0.0072828056
PHGDH,-0.010064725,0.0027767061,-0.009005338,0.015015595,-0.017151706,-0.00913747,-0.008632676,0.019642437,-0.013118489,0.0063138045,0.029980673,-0.0037916296,-0.011045777,-0.0007949319,0.010386216,-0.019881103,-0.00014832219,-0.0048665907,-0.0046238056,0.0080888625,0.011986063,0.0018914215,0.002201568,0.002854399,-0.017023774,-0.008151047,0.0059640184,-0.010323201
FCGR1B,-0.0035100027,0.002245671,-0.0014424731,0.0056016725,-0.0048724227,0.00065942644,0.0034858715,-0.0011449753,0.008019179,0.0045097833,0.004057439,0.00403523,-2.981935e-06,-0.008560684,-0.0032909184,-0.005941721,-0.005064885,-0.009959306,0.019814787,0.010036495,0.0009929455,0.0043669683,0.004069762,-0.0071804193,-0.00471969,0.0035644737,-0.002918102,-0.0071801115
POLR3GL,-0.0016517981,0.009584323,-0.0058732852,-0.010939519,0.009551039,-0.0061941063,0.0057176147,-0.0062789656,0.007463894,0.008836954,-0.00807372,0.005810479,0.0011569082,-0.0076542017,-0.0034242484,0.011474292,-0.0068404013,0.007136001,0.0129166655,-0.013411508,0.008103946,-0.013253507,-0.005111481,-0.0033734045,0.013486206,-0.0046563903,0.006272603,0.0010667605
TXNIP,-0.0126011195,0.017771149,-0.024185318,0.0010975022,-0.012276616,-0.009397714,0.0056887073,-0.017928902,0.011238777,-0.001953927,0.020435624,-0.0011440051,-0.009878694,-0.020173624,0.0060997023,-0.00030921155,0.0039500752,-0.0098225195,0.033955757,-0.015811516,0.016063796,-0.03791052,-0.002679311,-0.011285094,-0.005353595,0.0040032305,0.0017396035,0.013571509
FMO5,-0.00060935394,0.00136291,-0.0031842492,-4.3600205e-05,-0.0021695376,-0.0036415341,0.0014816987,-0.0029544213,7.466551e-05,0.0012316161,0.00041496856,0.0025664344,0.0014934383,-0.003927246,0.00093958183,0.00021905401,-0.0028817,-0.0021078142,0.008286949,0.0012285562,0.0014532404,-0.0021839645,-0.0013446773,-0.00059310865,0.00041583492,0.0007823133,-0.0045021945,-0.0014509308
PDE4DIP,0.0056016156,0.0019099195,0.0066285506,-0.0012011906,0.007906466,-0.0042691627,0.00535113,-0.0035161835,0.0074103046,0.007353035,0.011201157,-0.017172152,0.009506103,0.0023532994,-0.010477761,-0.0022989134,-0.0030226759,0.000950678,-0.0002624443,-0.028356839,0.050111048,-0.010559748,0.0013335472,0.010459422,0.0072967364,-0.0214717,0.015083329,-0.0026057176
FCGR1A,-0.0048977463,-0.00056642847,-0.00030362478,0.005062733,-0.00025978492,0.0028260052,-0.002532515,-0.0034581001,0.00071670586,-0.0057208673,0.00089100155,0.0077494904,0.0070650647,-0.0141808875,0.0037729207,-0.010527864,-0.008730818,-0.005938393,0.027216187,0.011301329,-0.009848393,-0.009879873,0.0089848265,0.001995726,-0.0026062126,0.0050933105,0.0044302857,-0.015917651
HIST2H2BE,0.0014117243,0.0050034937,-0.0015247216,-0.0036771183,-0.0058806688,-0.0022801664,0.003969433,-0.007588741,0.00988921,0.0024173195,-0.0024586103,0.007166316,-0.005253695,-0.0030010385,-0.00044581926,-0.0022784786,-0.0010322375,-0.004230874,0.0008116084,0.0048899436,-0.0046489816,-0.0011621241,0.0009977223,-0.00047662976,-0.0015761083,0.00075212395,-0.0010261761,0.004595787
HIST2H2AC,-0.0052322675,-0.02420922,-0.009595973,0.016341774,-0.007062993,0.0111313425,-0.005842206,0.047216997,-0.01764574,0.0042690868,0.018896151,-0.0074099945,-0.015301612,-0.0151416715,0.03097173,-0.0063766986,0.012380405,-0.017309269,-0.007958626,-0.004669097,-0.002957419,0.0066992017,-0.0077706496,-0.005009903,-0.008749333,0.0017776358,0.010039763,-0.012099247
MTMR11,-0.0038613572,-0.0009220482,-0.007791264,-4.223692e-05,0.005223001,0.001329616,-0.004164628,-0.001073791,-0.0004982066,0.0007622435,-0.002347596,-0.0005115535,0.0016148143,0.0075438586,0.009582088,0.016936528,0.008022,-0.004905354,-0.00022947547,0.006704523,0.011715818,-0.01058464,0.011374336,-0.0014206436,-0.013926627,-0.0024449995,-0.010379478,0.0049552415
PLEKHO1,0.00796286,0.0017435342,0.0080113,-0.0097266855,-0.002773452,-0.005464797,-0.008420466,-0.0069148187,0.012650205,0.014958626,-0.0068645813,0.0043976987,0.022206469,-0.001017092,-0.011494858,-0.017961588,-0.0037636068,-0.013128408,0.016079621,0.007646014,0.018866774,-0.0039827703,0.01548233,0.006868167,-0.0068926723,-0.0034617903,0.00072898716,-0.019096319
ANP32E,0.0026466893,-0.015615588,0.011119084,0.0070211897,0.0009822074,-0.0011548703,-0.011133713,0.01616745,-0.024315853,0.0040030372,-0.007498055,0.006280917,-0.0038811234,0.015313423,0.0017964166,-0.013067433,0.0028309373,-0.0036350486,-0.02042104,0.0070041064,0.00227849,0.027902003,-0.0010756755,0.0017249477,0.0017891127,0.00012409555,-0.0075742234,-0.026147565
ECM1,-0.002201503,0.00449513,-0.006991309,0.0027971494,-0.0070879515,-0.005707411,0.0037876812,-0.004155434,0.0045039724,0.0030603476,0.0022337139,-0.0013730807,0.00182621,-0.0013533751,-0.0020271002,-0.0005089227,0.0031953924,-0.0064541353,0.00046831326,0.0035687787,0.024164515,-0.005871369,0.010529509,0.0024663226,-0.014795221,0.0011163042,-0.008759816,0.003277893
ADAMTSL4,0.0017100404,-0.0063353544,-0.016530018,-0.012101251,0.007287763,-0.003534143,0.0127970595,-0.0012886067,0.017310882,0.016622834,0.0017586447,0.0018989053,-0.018307444,-0.024813566,0.008033393,0.0145087205,0.007853711,0.00042837512,0.010238798,-0.024959113,0.02694346,-0.016748568,-0.0039956747,-0.0019069683,0.006052307,0.003112881,0.003366016,0.019665018
CTSS,-0.0032163209,0.00198017,-0.011694415,-0.008139746,-0.004977776,-0.0006068868,-0.0016783647,-0.0035231982,0.013079084,0.012159048,0.009920513,-0.0015529381,0.004352029,-0.009151173,-0.0021848183,-0.00019005718,-0.0045895586,-0.0023635225,0.021754248,-0.002871858,0.015724298,-0.013820933,0.0068188207,-0.0052308454,-0.00476646,-0.008470297,0.007079414,-0.0035791253
C1orf56,-0.00030979657,0.0039751576,0.00424192,-0.0072550396,0.010663697,0.00553345,0.005019132,-0.0111192465,0.006866288,0.0017467481,-0.0060947374,-3.3825854e-05,-0.0012607245,0.0037613532,-0.002670598,0.00034266745,-0.0015919207,0.005848402,-0.0042275707,-0.005564796,-0.0008561968,-0.0064638956,0.007314132,-0.0013620907,0.009395437,-0.0067702145,0.0025115043,0.009735462
CDC42SE1,-0.0016689341,-0.0027292469,-0.0056888815,-0.00492133,0.0026959733,-0.00064445165,-0.001311544,0.0120934285,0.0027938315,0.008121382,0.0061271465,0.008824143,-0.0019971537,-0.010520682,-0.00015765133,-0.00021285891,-0.004880493,-0.0021895454,0.0009421498,-0.0022966014,0.006010159,0.0013583992,0.00067445764,0.0010206065,-0.0010338447,-0.001848209,0.0022852588,0.0029396173
MLLT11,0.0024862732,-0.001263493,0.0026736583,0.006045596,-0.009213879,-0.016416976,-0.0015145263,0.0035166317,-0.0119556375,0.0028739453,0.0078106206,0.013767913,-2.4330164e-05,0.0068697636,-0.0052355123,-0.0075374735,-0.009346692,0.0011376037,-0.0059237573,0.0034518451,0.023448776,0.0151824355,0.002875098,0.010262764,-0.005771878,-0.0014986644,-0.0167196,-0.011256677
GABPB2,0.00039930688,-0.008264735,-0.0015535458,-0.00019817389,-0.0019608608,0.0057486324,-0.0016334286,0.010081269,0.0008921959,0.010913927,0.00674052,-0.005822067,-0.007385641,-0.0065727974,0.0027417548,0.00035277853,0.0025661038,-0.004891362,0.000885218,-0.0012704764,-0.0024894967,-0.0019466585,-0.0023564538,-0.0007716218,-0.0026249248,-6.387528e-05,0.0063578044,0.0038335004
LYSMD1,0.0023758295,-0.0034960452,0.001456351,-0.0021154017,-0.0029567261,0.0010450801,0.0029152343,-0.00023378823,0.0027346679,0.0036327355,0.0016524979,-0.0037911232,-0.0011665861,0.0034859497,-0.0011908403,0.0023623374,0.0029411265,0.004905251,-0.0053102523,-0.001022783,-0.00140594,-0.00086938095,0.00209054,0.0009908016,-0.00028096052,-0.0009128889,0.003353104,0.003342501
S100A10,-0.010301103,-0.003760917,-0.0072966865,0.021845918,-0.017818179,-0.0070854533,-0.011596932,0.012627897,-0.030211786,-0.016295169,0.018192492,0.0063834554,-0.018494537,0.0064701186,0.02164003,-0.00912333,-0.014877175,-0.008874141,0.0050491304,0.0009664955,-0.010308235,0.012367595,-0.0037346166,-0.0053231833,-0.0034638075,0.0011074777,-0.017266296,-0.006204906
S100A11,-0.0025381967,0.009845252,-0.0040813996,-0.0036966803,-0.029396728,-0.013692069,-0.018744232,-0.003578814,-0.007144917,0.0050772587,0.030331379,0.010361026,0.024043867,-0.0035877943,-0.005861406,-0.037415408,-0.008718387,-0.028362311,0.04943107,0.022884369,0.022307824,0.004923126,0.014366721,-0.0058763986,-0.022096936,-1.2901083e-05,-0.006140363,-0.043549385
PGLYRP4,-0.0011043987,0.0066770017,-0.012239506,-0.007863457,0.002490504,-0.011576856,0.0070334957,0.0019400698,0.00059556996,0.0044271243,0.0042840745,-0.0024999015,-0.001076174,-0.002174982,-7.7248646e-05,0.000118590004,0.008324877,-0.0045932275,0.005987275,-0.00829278,0.0146252215,-0.009956718,-0.00036774774,-0.0020870517,-0.0001293685,0.006578085,-0.0032560444,0.0041512894
S100A5,-0.0019033232,0.0017997405,-0.004688736,0.00054757536,-6.598584e-05,-0.0062796334,0.0016716471,-0.0048406455,-0.0012812966,-0.0031686446,-0.0050009564,-0.0028736794,0.008383999,-0.0016554843,-0.00020004918,-0.006526762,0.013444868,-0.01055059,0.0013536287,0.005472819,0.014010719,-0.0065068635,-0.0022110164,0.0052087847,-0.010011063,0.01320446,-0.016632183,0.0038235877
S100A4,-0.00086595403,0.006816938,-0.0023444903,0.0043872134,-0.0049738484,-0.0016865912,0.008374929,-0.0007759058,0.013187335,-0.0062080487,0.0020660958,0.0051553044,0.006769654,-0.0039377715,-0.0039782617,-0.0023998076,-0.007881306,0.0068582175,0.01180023,-0.005359178,0.011671569,-0.016854364,-0.0047020153,0.0016823929,0.004723306,-0.010027584,0.010801008,-0.0007967939
S100A16,0.0023781455,0.0018858282,0.0022264558,-0.004443372,0.00014644698,-0.0015837642,0.0018872129,-0.0013347755,0.003659743,0.0008592972,-0.006356523,0.00095937995,0.0009536881,-0.0037460723,-0.00884236,0.0005240753,-0.0028153232,-0.0014879628,-0.0028945878,-0.00090688583,0.0028664852,0.0016305,0.007785374,-0.0024477483,-0.0047631753,0.00059098646,-0.0036330782,0.0010922424
S100A13,-0.0012466102,0.011883681,-0.012864062,-0.012314549,-0.006463098,-0.017010108,0.005162553,-0.0033411945,0.013481658,0.007659604,0.01234133,0.009727694,0.011438898,-0.01806641,-0.012060417,-0.0058239102,-0.0065364577,-0.0054246774,0.025369877,-0.019879257,0.0598999,-0.030717093,0.020691967,-0.0029061246,-0.01571011,-0.0027108137,-0.012000885,-0.0070041707
S100A1,-0.006563772,0.0038146952,-0.011333902,0.008117312,-0.00015876643,-0.00818969,0.0039713224,0.0049015135,0.0028400295,-0.0039246553,0.00776691,0.0140032545,-0.007449837,-0.013546619,0.010218716,-0.00011211437,0.0026724103,-0.00012804776,0.0152785685,-0.018973548,0.028514365,-0.014848762,-0.0042142756,-0.008386114,0.0014751693,0.0026066662,-0.011477715,0.0026305395
RAB13,0.0011849189,-0.0010354843,-0.0010827158,-0.0046100244,-0.0028976942,-0.0017726391,-0.00019919295,1.8419756e-05,0.0071508377,0.008391238,0.0033317185,0.001637504,-0.00022886386,-0.004821525,-0.0070521086,-0.0012387799,-0.0003901149,-0.0025315832,0.0004408276,-0.00062394544,-0.0010146777,-0.0002117007,-0.001466639,0.013400462,-0.0018209497,0.0037607844,-0.002100745,-0.004153639
IL6R,0.0015014817,-0.0020851057,0.001504085,-0.009473905,0.0034551073,0.004968849,-0.0046914136,-0.0013941077,-0.0007246061,0.0007492362,-0.021476932,0.0034903227,0.0015071782,-0.0055448147,0.002124398,0.0031246992,-0.0025354684,-0.0008962656,0.0036478955,0.010764496,-0.014314457,-0.0010416987,0.025323331,-0.0064607942,-0.0099835945,0.0060583684,-0.0017986792,-0.005645046
PBXIP1,0.0006670921,0.0024857318,-0.006689909,-0.0070422245,-0.0026556298,-0.000995787,0.0010498584,-0.003054787,0.0033893012,0.0016951829,0.002100177,0.0027925647,0.00086755876,-0.009189439,0.0052117896,-0.00026050326,0.00019059086,-0.0043613757,0.014518246,-0.0014381794,-0.0039714365,-0.007657716,-0.0021232073,-0.003234072,-0.001402395,0.0045463624,-0.0010317583,-0.0008572816
LENEP,-0.0011391917,0.001108355,-0.0026976757,0.00078567595,-0.0033080182,0.00014534521,0.00040911286,0.0010995046,-0.00012595273,-0.0012903261,0.0019945253,-0.0022576442,0.00014581397,9.3840164e-05,0.0025909522,-0.0012967157,-0.00032052115,-0.0022066466,0.000148286,-0.0016254274,0.00019936793,-0.0017546217,-0.0009190464,0.00038893084,-0.0006034632,0.00039514364,0.0016000438,-0.00080317515
SYT11,-0.0022664343,0.0017365773,-0.001972473,0.0035993843,0.0004267617,-0.0005314308,0.00045094162,0.007872766,0.012454539,0.0038824412,0.006448642,0.001377034,-0.006995112,-0.0015539109,-0.014259068,-0.003995793,-0.0019484155,-0.0016894704,0.0028545323,0.0053227292,0.007323086,0.0005017647,0.0013713583,0.0030567592,-0.0073509845,-0.0082523385,0.0029822362,-0.0010177409
RIT1,-0.0061098854,0.005990121,-0.007958744,0.0007973867,-0.004918877,-0.0044337204,-0.0011823091,-0.0054247943,0.006219862,0.00054208253,0.0081539685,0.005215687,-0.007638413,-0.0055682864,-0.0019442514,-0.0015676967,-0.0050368095,0.0013428151,0.00769626,-0.0017094006,0.012079842,-0.0048856046,0.0024959275,-0.00015007627,-0.011164674,-0.0052873325,-0.0063400907,0.008802531
LMNA,-0.0052203834,-0.0020922252,-0.0067590787,0.0067030108,-0.008814175,-0.010068985,-0.0044060866,0.0051489864,-0.0044638384,0.0032217887,0.007652395,0.021480894,-0.020702325,-0.0028913214,0.0046622246,-0.0020278126,-0.009692714,-0.0012817788,-0.0034598678,0.0075932317,0.005637518,0.005563906,0.0010717039,-0.0021240811,-0.011832405,0.0069831717,-0.024498189,0.005733415
C1orf61,0.000874504,0.00043544295,-0.003518352,0.007547555,0.0014452082,-0.0035643617,0.0032340677,0.009956071,-0.003684106,-0.0011076526,-0.013748495,0.013920747,-0.0105507625,-0.002946853,0.000881987,0.007866935,4.7764686e-05,0.0034556068,-0.006368572,0.0015127801,-0.014146422,0.013521232,-0.0015533732,-0.0055614742,0.0014360432,0.007419461,-0.00887202,-0.0019067702
CRABP2,-0.0009343009,0.002629571,-0.0014927735,-0.0011236325,0.0012106828,-0.0010898329,-0.0016071028,0.00083106424,-0.0023289572,-0.0025731064,0.006117944,0.0013053694,0.006429781,0.0014952249,0.0051908973,-0.0066487906,-0.0017819625,-0.0017490323,0.0068500377,-0.008905817,0.015544274,-0.0014067824,0.006936972,0.000809454,-0.002494224,0.002327246,0.00021889726,-0.0028127704
SH2D2A,-0.001402087,0.0014856501,-0.006421839,0.0044462853,-0.0046070796,-0.0063671824,0.0007004292,-0.0019108282,-0.0032350458,-0.004206583,-0.013215,-0.02320146,0.01987749,-0.002555883,-0.0023940038,-0.006565506,0.01742967,-0.018563945,-0.005802369,0.012928185,-0.00095268106,0.002801446,-0.013063512,0.0384871,-0.041713014,0.014415985,-0.045959696,0.025835501
NTRK1,-0.0010913525,0.005864453,-0.008290845,0.00024565012,-0.0037505892,-0.0068884185,0.0047614546,0.022118827,-0.0017042699,-0.007103264,-0.024229921,-0.010974657,0.025476849,-0.0061673764,-0.0016924742,-0.001616762,0.01152237,-0.008952482,-0.010150136,0.012197858,-0.003967564,-0.0021900581,-0.008671196,0.025645372,-0.028419102,0.008091359,-0.03199819,0.015241753
NHLH1,-0.009934277,0.011546819,-0.015715277,0.0094413785,-0.008788467,-0.0037565173,-0.0053967074,0.0033681726,-0.002151433,0.00532823,0.015381992,0.0069271578,-0.015569233,-0.0034549644,-0.0045833825,-0.014482476,-0.00464883,0.008890256,-0.005242425,0.0078114225,0.004678827,-0.004099807,0.0062472485,-0.0015811707,-0.013145165,-0.004297207,0.0024631212,0.0043455283
CD84,-0.011306802,0.008216719,-0.017010968,0.0012333288,-0.004002473,0.0047492445,-0.0038333412,-0.013825378,0.002304054,-0.019859735,0.0033595336,0.0036362426,0.0010006247,-0.016032834,0.016445216,0.00074396224,-0.008755266,-0.0128077855,0.05198746,0.0019465032,-0.04079901,-0.0342705,-0.0034964662,-0.018682124,0.0036597233,0.0047232714,0.009219534,0.001346355
CD48,-0.009502298,-0.0012149523,-0.0008268558,0.012907137,-0.0077869743,9.132421e-06,-0.003237585,-0.013291019,0.012871519,0.0021276278,0.010618916,0.0021362004,0.011237,-0.010095592,-0.004501627,-0.0039589126,-0.01134166,-0.011164712,0.047075212,0.00054744806,0.021051938,-0.026610365,-0.006434732,0.0060083335,0.0014471554,-0.0035890553,-0.0035493993,0.0006045403
ITLN1,8.570237e-05,0.0012227787,-0.000107187014,-0.002105512,0.0049038134,-0.00439435,0.0006200851,-0.0032866248,0.0016717562,-0.0007346862,0.0033469042,-0.0062342957,-0.0020645063,-0.004212102,0.0017593222,-0.0042028525,0.0059950105,-0.010396614,-0.004458286,0.010226454,0.005870778,-0.0068208524,0.0106363,0.003888432,-0.016708592,0.0053852648,-0.0076774796,0.0062650032
ARHGAP30,0.00089706463,0.0043604644,-0.008811982,-0.009139832,-0.01192271,0.004367254,-0.0028485716,0.005045632,-0.0019128334,0.024991842,-0.008672735,-0.0039011224,0.009830736,-0.007555575,-0.011896754,0.002549979,0.0069904784,-0.0127220135,0.015977344,0.0029440292,-0.0083940355,0.010713033,-0.0019181864,0.004416831,0.00024489002,0.007463289,-0.0018742664,-0.014875392
FCER1G,-0.014823992,0.011003063,-0.019272607,0.019770721,-0.011017306,-0.020453041,0.0043073473,-0.0004193564,-0.0039412845,-0.010582777,-0.0010904716,0.039816853,-0.010216651,-0.0130730765,0.008498647,-0.0044096536,-0.023830805,0.0060486207,0.036036417,0.0062176664,0.019368196,-0.020403294,-0.003775217,-0.013077899,0.0055358387,0.008813538,-0.0238716,-0.00028039378
FCGR2A,0.0042787655,-0.000877842,-0.0062620956,-0.017007513,-0.006203538,-0.008507412,-0.0042571994,0.0040056184,0.0072338227,0.017949808,0.001009874,0.010862441,0.0067907823,-0.0122759575,-0.008660011,-0.008193686,-0.0017159275,-0.01389333,0.01714739,0.015011204,-0.0027252762,0.0061102384,0.003730478,-0.0032745951,-0.007369951,0.008488354,-0.0055502807,-0.01713837
HSPA6,0.00049025705,-0.00039901998,0.0029028316,-0.00013044123,0.001752628,0.0017924297,-0.00083535485,0.00044967665,0.00090969825,0.0030742472,-0.0010362462,0.0018138898,-0.0030358683,-0.0044011604,-0.0025886642,-0.0027433226,-0.000327732,-0.001904353,0.003138148,0.0074156625,-0.0052047,-5.4258085e-06,0.0026097624,-0.0004111706,-0.004817073,0.0034648855,-0.00077066006,-0.0036316062
NOS1AP,0.00062492857,0.00035889688,-0.0012742468,0.0029649178,-0.001203108,-0.0020910262,0.0028011089,-0.0007857049,-4.8590304e-05,-0.0004603944,-0.00090078625,0.0011064324,-0.00075074943,-0.0018918962,0.0014402,0.0009680098,-0.0034271893,-0.0040713344,0.0011053778,0.003373927,-0.0016677026,0.0019129098,-0.0026429256,0.0014655015,-0.0031104798,0.0011013177,-0.002555382,0.0051015327
PBX1,0.0027719222,0.030100357,-0.0507332,-0.03843034,0.06541391,-0.05271285,0.012007711,-0.0013903277,-0.04598446,-0.029506428,0.013961351,-0.011165222,0.0032244204,-0.0038319465,0.03216268,-0.021135174,0.06813302,-0.03544362,0.020699404,-0.07334142,0.07245715,-0.027067883,0.029383156,-0.08459517,0.013443295,0.045139432,-0.02765773,-0.034136176
MGST3,0.0015613874,-0.0002474283,0.0003805055,-9.364103e-05,-0.010395307,-0.0071516894,0.002735845,0.0046323007,-0.003917754,0.0050923163,0.0052794986,0.002631475,-0.0031202282,0.0021617317,-0.0020128258,-0.0012272614,-0.0028883102,-0.00064121274,-0.0076534757,-0.0010531517,0.010037337,0.0091661345,-0.001513255,4.2583804e-05,0.0004055826,0.0016984529,0.0014023053,-0.0036067707
CREG1,-0.0028297862,0.0020367587,-0.0133796735,-0.0098361485,-0.007681552,0.004964604,-0.00090997736,-0.0053384253,0.006041276,0.0024445723,0.01032111,-0.00033505962,-0.0076792906,-0.012797292,0.007904596,-0.002018853,-0.0009875546,-0.011948141,0.024000892,0.004203445,-0.022798795,-0.0072560413,-0.007465913,-0.015244414,0.0006697682,0.006710047,0.009148194,-0.0015664921
RCSD1,6.310351e-05,0.001078444,-0.010543436,-0.008876076,0.0030236084,0.00264321,0.002472042,0.0010443636,0.0053384104,-0.00068128866,0.0034854128,-0.0041120322,0.00732318,-0.016779754,0.012381051,0.0007913271,0.0005927224,-0.016829366,0.03049378,-0.0037543897,-0.013278146,-0.013456011,-0.0031381294,-0.01442876,-0.0016158649,0.0026608272,0.013049544,-0.007963903
MPZL1,-0.00055559626,-0.013630782,0.014491372,0.0075692367,-0.0024461532,0.00038686497,-0.0067805178,0.012766896,-0.0028137772,0.025945919,0.017252272,-0.0045727766,0.022843933,0.009404549,-0.026497766,-0.017487904,-0.0007414564,-0.01107955,0.0067706713,0.011237063,0.041103993,0.024666928,-0.001676096,0.01749823,0.0016331996,-0.009959658,0.0071140276,-0.0342023
MPC2,-0.0032783358,0.003922232,-0.0071436907,-0.0043418985,-0.009245698,-0.012681366,-0.0020154237,0.005146773,-0.005565512,0.010700194,-0.007920901,0.030611845,-0.005534274,-0.004507299,-0.002599782,-0.0058670193,-0.007493528,-0.0033311942,0.0074009816,0.0105434805,0.001296993,0.010285349,-0.0014963654,-0.00032035328,0.0014067458,0.0063562305,-0.019036591,-0.009978897
ATP1B1,-0.00075884466,0.0069481665,-0.0045854193,-0.0015955576,0.0007443399,-0.0127098495,0.00094107847,-0.0033968613,-0.0032218117,0.005754221,-0.0027651056,0.0056206365,0.0033052021,0.0012542463,-0.004431878,0.0061602066,-0.0029323837,-0.0047148196,0.002342236,-0.010147743,0.019211404,-0.0037258319,0.006025767,0.00017782017,0.0043963185,-5.808726e-05,-0.008793415,-0.0060337326
RABGAP1L,-0.00086672103,0.0077550053,-0.009736074,-0.0019214225,0.00091448904,-0.0068365186,0.005003356,-0.001722736,0.0067296633,-0.0040854854,0.0014765827,-0.0013468412,-0.0020122945,-0.008140354,0.008184683,0.0046874136,-0.00356285,-0.00016405739,0.009960167,-0.011051267,0.0022467868,-0.018964825,-0.0064443313,0.0023076832,0.001304484,-0.001507608,0.00051088433,0.010386778
CACYBP,-0.0008582186,-0.016060116,0.02628062,0.026319476,-0.017717468,-0.0047672335,-0.031090517,0.016751612,-0.06220118,-0.023259215,0.01883138,-0.0014015043,0.0042542466,0.043310653,0.0075590457,-0.029227493,-0.0027570687,-0.0066265897,-0.023737367,0.007139334,0.008424285,0.042104144,-0.00026857952,0.00048206912,-0.0019607686,-0.0059884624,-0.013927274,-0.046603218
TOR3A,0.002843539,-0.008170956,0.010804627,0.008239626,-0.0021034156,-0.0026899104,-0.010567046,0.009450095,-0.023536874,-0.00072443846,-0.002797243,0.007898528,-0.0050679557,0.0088801645,0.0040758643,-0.0029642822,-0.0017627719,-0.0063455957,-0.013042614,0.003904348,-0.004810437,0.021132465,-0.0068132603,0.004802335,0.00045714094,0.00056971994,-0.013478149,-0.008158498
ABL2,0.0030136101,-0.003819425,-0.0015329511,-0.002444004,0.004902776,-0.00026234105,0.0028442363,0.005423686,0.007771846,0.009397661,-0.003167806,-0.0012678319,-0.0010291351,-0.00951671,-0.0024054896,0.011315458,-0.0021856949,-0.0030760479,-0.0017342838,0.00022512849,0.0040658657,0.0015317599,0.021862265,0.0040518413,-0.015799832,-0.00536865,-0.0037562249,0.0055335485
TOR1AIP2,0.0040533887,-0.0014145972,0.0067154574,0.0010026965,0.010541872,0.0025941515,0.003949356,-0.008371426,0.0025314982,0.0048466525,-0.009420135,-0.0004704226,-0.0033295867,0.0052362117,-0.0031208622,0.0034339833,-0.0041509247,0.0048973444,-0.01024548,-0.008465673,-0.0012166941,0.0074182833,0.0014762592,0.0018050127,0.009071504,-0.004971495,0.006145495,-0.00383374
QSOX1,-0.0006792218,-0.00053021504,-0.007469194,-0.0034185245,-0.004236123,-0.00018562275,0.0015029456,0.00026298294,0.0063131414,0.012967997,-0.00036250113,-1.3564895e-05,0.0022248952,-0.007765485,-0.0013141803,-0.001903951,0.0002848121,-0.005624544,0.01156216,0.013031801,-0.013851792,0.0054433895,-0.0044546407,0.0008587376,-0.0052913083,0.0060079223,-0.006142702,0.0018532849
MR1,-0.0050466154,0.0049709477,-0.0075957873,-0.0024079343,-0.003150164,-0.0028599387,-0.00053936854,-0.003137714,0.009021388,0.0034157296,-0.0023784095,0.0070932894,-0.0034491515,-0.008677604,-0.002601553,0.0016558709,0.0007282387,-0.0006124845,0.009703275,0.0039628507,-0.0005503383,-0.009648929,0.0007520892,-0.004378021,0.00032963807,0.003159884,0.00077919185,0.0039035466
GLUL,-0.00089892186,-0.004447986,-0.0051510623,1.081855e-05,-0.0075834873,0.01016389,-0.0026677754,0.011742494,-0.0047570956,0.0039627943,-0.00063828734,0.00145962,-0.00448211,-0.009647755,0.009165925,-0.007050278,0.016962463,-0.008268411,0.0028772994,0.0064303563,-0.009868891,0.008428956,-0.0018491828,-0.009397703,-0.011473843,0.013343627,0.005134356,-0.0059744623
RNASEL,-0.0040261764,0.0037950568,-0.007764591,0.0004553728,-0.0023115983,0.0013692498,-0.0037827033,0.005018596,0.008929557,-0.0017072964,-0.00012623581,0.010324882,-0.00047870242,-0.0038509904,0.0006997516,2.6391863e-05,-0.0032913901,-0.002155537,0.009619614,0.00025722277,-0.0057550333,0.0019822381,-0.0028688908,0.0008238409,-0.0060644154,-7.517535e-05,-0.006111351,0.0046238927
RGS16,0.00047317607,-0.008462935,-0.0021298255,0.005867935,-0.0064654294,-0.0039668432,-0.0062461486,0.0138944555,-0.0050056987,0.0041010836,0.012233838,-0.0033832197,0.00096861133,0.0040010256,0.015043839,-0.00445231,-0.0008503321,-0.006126862,-0.0020494896,-0.0010196482,0.0049600727,0.005414809,0.00071463274,0.0028778524,-0.003320616,-0.0042938353,0.0026737878,-0.010480738
LAMC1,-0.0008758289,-0.001347287,-0.000262498,0.0018922877,-0.0009791225,-0.0023791972,-0.0009991219,0.0017615306,-2.6581405e-05,-0.0013875159,0.0016703,-0.002719659,0.00078015664,-0.0016673132,-0.0013843875,-0.0022947048,-0.001772829,0.00143328,0.0007370903,0.0016074501,0.0019596256,-0.0032821426,-0.0006904364,0.00034716772,-0.0012077614,-0.0020318131,-0.0014216143,0.00046340827
NCF2,-0.007818878,0.0029190744,-0.007535999,0.011137442,-0.0012442815,-0.00045352304,-0.0027326448,-0.0074861543,0.0012312031,-0.019005774,-0.0006876231,0.0057275016,0.0010277043,-0.0058935042,0.0154550765,0.0010483224,-0.013140939,-0.0068567176,0.03342849,0.014585578,-0.030452179,-0.02024144,0.0048450194,-0.014796939,-0.0029270411,-0.001090302,0.008162052,-0.0019279581
ARPC5,-0.0025718973,0.0023316778,-0.0025534946,-0.0056988993,-0.01751882,-0.00821779,-0.008605436,-0.0012194673,-0.0058668884,-0.006192812,0.0023369824,0.020883273,0.00575954,-0.005731012,0.0025686666,-0.010806172,-0.016160542,-0.017345188,0.030967463,0.020241473,-0.014152371,0.0054260106,0.0064475276,-0.005586108,-0.006712117,0.0055348226,-0.014935114,-0.022155255
COLGALT2,0.0026227224,-0.0066866954,-0.007986229,-0.016585097,0.0038993629,0.013693811,-0.01230235,0.012006435,0.004334249,0.016533917,-0.0020991631,-0.013197299,0.002155901,-0.01440073,0.014142458,-0.0066677104,0.004083449,-0.02235458,0.023537884,0.005717648,-0.03536871,-0.001407664,-0.0042916485,-0.0048316335,-0.0025897685,0.002456953,0.009861279,-0.011925612
RGS18,-0.0069173393,0.0036846113,-0.0101825185,0.00060971046,0.00026530694,-0.0020841341,-0.00660496,-0.006102063,-0.00010538354,-0.0034742488,-0.0015066711,0.01254097,0.0059549804,-0.013061281,0.006648137,-0.0058468734,-0.0072004087,-0.013791315,0.039089937,0.01587131,-0.031591266,-0.006692144,-0.0017143735,-0.011705826,0.003431828,0.009696034,-0.003154004,-0.0086099645
RGS2,-0.0020271137,0.0010365462,-0.0016550758,0.0031996563,-0.002744556,-0.0017111386,-0.0012335692,-0.0032145176,0.0027935896,0.0038721454,0.0030995123,0.006258975,0.0007357398,0.0037747512,0.0024422058,0.0055823857,0.0045841467,-0.0008350894,-6.615896e-05,0.0045399284,0.01009859,0.0005006674,0.0033869713,0.00033485095,-0.0019331999,-0.00030951257,-0.0023254924,-0.0036953078
KCNT2,0.0002655243,0.0016433466,-0.0015511631,-0.001893299,-0.002388582,-0.00023261033,0.0032944782,-0.002763084,0.00042820856,-0.0023969372,-0.0009959106,0.0026581418,-0.003906753,-0.0015383997,-0.0005916346,-1.199244e-06,-0.00047901893,0.002597176,-0.0004618917,0.00028874323,-0.0034846803,-0.0023753142,-0.00033732917,0.0002049221,-0.0011440683,-0.0017606644,-0.00015249255,0.0044765067
CFH,-0.0039151586,0.0048788292,-0.007473802,-0.010354933,0.0041938494,-0.017965857,-0.0043546245,-0.004520259,0.0071911216,0.012531284,-0.00013028253,0.0136933355,0.012287306,-0.008449496,-0.010818494,-0.004123739,-0.01273105,-0.0021992086,0.02610526,-0.017762633,0.048569202,-0.02035169,0.0012683432,0.002605501,0.0068553956,-0.0026109465,-0.016911436,-0.009996053
ASPM,0.0021812636,-0.02115207,-0.007969355,0.0031320078,-0.0044149817,0.008623074,-0.0016320718,0.034814946,-0.0095234485,0.023789944,-0.0034992886,-0.0058492287,-0.0146001605,-0.01045156,0.015376171,-0.0054312167,0.006656711,-0.016018942,-0.015011224,0.0024051578,-0.009310985,0.015603955,-0.0044270377,-0.0043775905,-0.0038751133,0.0022588691,0.008589886,-0.009431028
PTPRC,-0.0089569595,0.006820446,-0.011731004,-0.0042927684,-0.00040342697,0.0021664386,-0.0041729216,-0.009593487,0.0037458048,-0.0016745769,-0.0034776477,0.011602249,0.009087302,-0.017375622,0.0032441716,-0.006065215,-0.012021524,-0.013376605,0.05119614,0.015249792,-0.027514169,-0.012524497,-0.0034505015,-0.011456067,0.0036542085,0.008521575,-0.0033642529,-0.011679519
KIF14,0.0013114796,-0.019855905,-0.009553939,-0.0011286164,0.00093369145,0.00941478,-7.6508026e-05,0.033228863,0.003999634,0.020604772,0.0023520743,-0.0057462016,-0.01036441,-0.019036641,0.015653713,0.002640567,0.009296338,-0.011425548,-0.01089668,0.0006919481,-0.004044707,0.012497748,-0.0079491325,-0.0057747224,-0.0060470304,0.0051573054,0.00836515,-0.006707341
ELF3,-0.001681514,0.00032255723,-0.0019280436,-0.0011812566,-0.0030696879,0.0012274192,0.0025599503,0.0020037882,-0.0006549943,0.00546029,0.002639998,0.0007506088,-0.0047503747,-0.0008735121,-0.0012244402,-0.0027654204,0.00076656585,-0.000117550975,0.0015481828,0.0032996633,0.00028009847,-0.0028385788,0.00012802974,-0.0010793764,-0.0026939986,0.0003574412,-0.00076741347,0.002891781
PTPN7,0.010270461,0.0017597832,0.0003321737,-0.007668437,-0.012014582,-0.0066192225,-0.0061589014,0.011614042,0.0035184943,0.015061788,-0.004695932,0.010702787,0.02726132,-0.009792515,-0.013687223,-0.01591411,0.0031782256,-0.015826711,0.011592695,0.023954825,-0.0036511794,0.024585137,0.0012104783,0.012176252,-0.013115615,0.008630277,-0.012821575,-0.021342864
LINC01353,-0.00015717157,0.00594438,-0.0033314598,-0.0017401001,-0.0056023053,-0.0053426307,0.0052896645,-0.006987925,0.0051796804,0.0027609346,0.0044185333,-0.0030164719,-0.0024794636,-0.008622506,-0.0068193637,0.001510387,-0.003713787,-0.008977639,0.006125054,-0.0029169477,0.0021597296,0.0028635059,0.009904904,0.007736099,-0.019613594,3.3537355e-05,-0.008485868,0.011647836
LINC01136,-0.00026314278,0.0011824291,-0.0030205788,-0.004520786,-0.0018318122,-0.0012655798,7.071822e-05,-0.002190899,0.0033449426,0.008028297,-0.002611996,0.004437378,-0.0040489533,-0.0021498813,-0.0052623902,-0.00031548506,0.002802899,-0.0007963091,0.0009024838,0.0053083217,-0.0006623099,-0.002445587,-0.0060130665,0.007254509,-0.0030851548,0.009466833,-0.015078928,0.008516658
BTG2,-0.008025205,0.023721827,-0.026946018,0.00037185242,-0.0244394,-0.022321679,0.0116554545,-0.007183049,0.015843859,-0.005530325,-0.0051896307,0.0107499985,-0.0058846143,-0.023104528,-0.0039845975,-0.009971035,-0.010692031,-0.010626413,0.004830133,0.022993669,-0.0040846053,-0.023506837,0.011179902,0.027103176,-0.046639908,0.017414698,-0.04751444,0.03182225
ATP2B4,0.0015307618,-0.0017494719,-0.0014195736,-0.012088221,-0.0005997988,0.002383076,-0.0012324242,-0.0011576829,0.007926919,0.01860695,0.0018941576,0.002257016,0.006390918,-0.0072467383,-0.0046680565,-0.006667006,-0.0028111672,-0.0033692794,0.017606057,0.0041850233,-0.0004440184,0.0038800535,-0.00068340596,-0.0029534686,0.0018362221,0.001836164,0.0004182056,-0.0088190725
ZBED6,-0.0026041446,0.004623389,-0.0033097004,0.0010395331,0.002400742,-0.004107588,0.0007954165,-0.000274862,0.006635669,0.0027764067,-0.0011671218,0.006731642,0.0005492317,-0.00060596934,-0.0024405855,0.0055186967,-0.0031613968,-0.00029766175,0.00265623,0.006630001,0.0063461186,-0.0033703798,0.010119578,-0.0024897978,-0.00521463,-0.0019143191,-0.0026755056,0.00011989906
GOLT1A,-0.004617213,0.003983067,-0.006241843,0.0025472622,0.0021752873,-0.002044078,3.2016103e-06,-0.004276939,-0.00018809884,-0.005761164,0.009856737,0.0014199356,0.0021266348,-0.0033518234,0.00013890273,-0.0009202539,-0.0037377435,0.0026079442,0.0055734133,-0.008759715,-0.0026484097,-0.012755831,0.0034594396,0.015940165,0.0014063269,0.0048297965,-0.0005656153,0.003326626
MDM4,0.00040114083,-0.0043134023,-0.0076670554,0.0013055335,0.004885685,0.0065642954,0.009576289,0.013764798,0.015724428,0.011192125,-0.0035337685,-0.0006719361,-0.01158838,-0.013954395,0.009067644,0.008376313,0.009982151,-0.0027038571,-0.0031217488,-0.0026977432,-0.005766857,-0.0034710045,0.0015305183,-0.006248501,0.0011090689,0.00070024777,0.011933754,0.005140844
NFASC,-0.006507362,0.0016611235,-0.01296211,0.005482523,-0.0020867987,-0.004505892,0.004907601,0.009974025,0.0013253521,0.0069600465,-0.011005644,0.03546607,-0.03066585,-0.007296326,0.011212921,0.012710522,-0.0063711917,0.00955507,-0.008242323,0.00519889,-0.011653534,0.0021783484,-0.006178164,-0.0098402435,0.0049183294,0.011212781,-0.023937272,0.017161433
CDK18,0.001713449,0.00077814376,0.0008353923,-0.00391273,-0.0025941841,-0.0008839998,0.0031924902,-0.0017740624,0.011302813,0.0031547924,0.006956466,0.0026824118,0.0039332453,-0.0077842935,-0.006637728,0.00020719568,-0.0009715372,-0.0008007915,0.0123124095,-0.0080868425,0.016349502,-0.00963079,0.0008551267,0.009114132,1.9037883e-05,-0.002968342,-5.9424146e-05,-0.00070517726
SLC45A3,-5.5615226e-05,0.0023558587,-0.0030599497,-0.0010248729,-0.0015095562,-0.0015115304,0.0026417577,0.00088398514,0.0071345754,0.0005819941,-0.0038569632,0.0059644985,-0.0054516136,-0.004130116,-0.0017510016,0.0009816148,-0.004568704,-0.003233316,0.0034549437,0.0057876725,-0.009977005,0.0005731221,-0.002861468,-0.0021276954,-0.00047811522,0.0049224775,-0.0034442167,0.006667809
NUCKS1,0.0005943595,-0.011819388,0.0009498888,0.0006102231,-0.01023937,3.0621413e-05,-0.008421913,0.025300836,-0.02222033,0.015360777,0.002389147,0.008771611,-0.011656987,0.005124795,-0.0018671195,-0.019748636,0.0021714144,-0.0070640347,-0.024251124,0.005077344,0.008114968,0.03670391,-0.0031260662,-0.0027416989,0.0046620877,-0.0015284362,-0.002545973,-0.027072364
MAPKAPK2,-8.006007e-05,-0.0039140577,-0.0124542285,-0.0033892528,0.0025581622,-0.0043395176,0.004169069,0.013758801,0.005258572,0.007976025,-0.013841119,0.016370941,-0.019717872,-0.015284877,0.009815643,0.006525079,-0.004276913,-0.0008329385,-0.004849638,0.0009137692,-0.008316,0.00185525,0.0042503155,-0.0024406738,-0.0013840818,0.0065093795,-0.010746974,0.0063457186
CD55,-0.002539189,-0.005240942,-0.0023307395,-0.00015133643,-0.007997631,0.006180441,-0.00949596,0.005976584,-0.009220863,0.0033264623,-0.0015889615,0.0011049302,-0.0063162576,-0.0012253434,0.0057387077,-0.012140464,0.003898557,-0.01744398,0.006399538,0.01943941,-0.01994262,0.00972686,0.008184916,-0.0052825543,-0.01449866,0.006617994,-0.010953328,-0.010285722
CR1,-0.0002070285,-0.00017509094,-0.0062457495,-0.013786859,-0.00040024196,0.009645511,-0.0048367656,-0.001274408,0.00063707883,0.007478762,-0.0051431754,0.0012238305,0.0020776982,-0.0117720775,3.890166e-05,-0.0057800505,0.0027462486,-0.012795305,0.017609239,0.015685072,-0.031129412,0.012104044,-0.0042928527,-0.006154411,-0.0026659055,0.011356235,-0.0072788456,-0.0063954885
CR1L,-0.009106298,-0.00213565,-0.010378679,0.0070654377,0.0017636237,-0.0030308766,0.0025651848,0.009114844,-0.009658973,-0.0010013552,-0.011981599,0.026398273,-0.025119137,-0.006644354,0.011854418,0.008473485,-0.012190919,0.009015863,-0.014656182,0.007178965,-0.020283202,0.013799372,-0.0065079257,-0.005044858,0.0050452184,0.0118925255,-0.023993555,0.011388899
PLXNA2,0.0030873618,0.0034656143,-0.0049299216,-0.012147486,-7.517891e-05,0.0029897932,0.0060196808,0.012179765,0.014461292,0.011662243,-0.0035687275,-0.0006215626,0.000471128,-0.012474471,0.0009424657,0.009151521,-0.003972965,0.0042330166,-0.00079987285,-0.004538798,-0.003573487,-0.0058746007,-0.0025452084,0.0008555879,-0.00021635597,-0.004832829,0.008774617,0.006732353
LINC00467,0.0005089927,0.009975203,-0.011338809,-0.016066758,0.0020972749,-0.008126486,0.011884294,-0.016235825,0.020272734,0.013563212,0.004992416,-0.0007328378,-0.0066804746,-0.014563093,-0.0047434326,0.011706772,-0.0023844994,0.004412653,0.018899485,-0.01610228,0.010244431,-0.016763186,-0.00066018867,-0.0046946676,0.00768303,-0.0074954308,0.010371101,0.010240481
NENF,0.0019341605,-0.00870611,-0.004545856,0.0032387795,0.00401492,-0.00020435287,0.009164584,0.00032097977,-0.001476321,0.008927661,0.002224698,0.0018473297,-0.018234767,-0.006568191,0.0018506073,0.010039067,0.008825752,0.0010200406,-0.0062215193,-0.009322851,0.008361771,0.00954357,-0.01238571,-0.0048088585,0.009500444,0.0076103085,-0.0038673626,0.010766
ATF3,-0.015187361,0.02597473,-0.018598173,0.0060655554,-0.0010620884,-0.0027169315,-0.0067333225,0.026362875,0.010180319,0.023700807,0.07307003,-0.012304547,-0.05139759,-0.031101283,0.01845786,-0.016407814,-0.003637931,-0.005900147,-0.007906056,0.007266001,0.011501952,-0.013521001,0.029764058,-0.018505061,-0.05391245,-0.016809732,0.032492727,0.016204275
BATF3,0.006453706,-0.0010235431,0.004030083,-0.0050702533,-0.00833093,-0.017402697,-0.0061487798,-0.0016395051,0.007956562,0.014892152,0.008876683,0.015366288,0.019001527,0.0018378857,-0.021094909,-0.014987016,-0.0057816817,-0.012514706,0.015931843,0.0054918895,0.046954624,0.013119539,-0.00010252038,0.009876682,-0.0016466506,0.0038958814,-0.014752694,-0.024872629
VASH2,0.002546723,-5.300236e-05,0.0025944875,-0.0020762922,0.0026620973,-0.0008420676,-0.0022408387,-0.0011078613,0.00016649041,0.0037488749,-0.0019180129,0.0020079252,0.00475774,0.002812915,3.758446e-05,-0.002060769,0.0020725762,-0.00037829427,0.0015108361,-0.0019212331,0.0053978288,0.001884425,0.00010979005,0.0016590317,-0.0022881522,-0.0008570423,-0.002120342,-0.00325885
PROX1,-0.0008045942,0.00059790694,0.00023143733,0.00044011808,-0.0029912253,0.0017901772,0.0022144052,0.0046412833,0.0051939767,0.009998957,0.010559724,-0.007877217,-0.008785542,-0.009359849,0.007897829,0.0015926983,0.0005605177,-0.0048669237,0.0031730635,-0.003862734,-0.0026067654,-0.007912635,-0.0021006318,-0.0016265042,-0.0031219258,7.037752e-05,0.009250999,0.004580089
CENPF,0.0057554045,-0.031645387,0.0033106345,0.006812756,0.004131727,0.011346034,-0.0054570837,0.04529133,-0.017746838,0.020160003,-0.0015463666,-0.004907602,-0.015117704,-0.006473441,0.013013136,-0.00095140084,0.01274383,-0.009931791,-0.029578274,0.004722263,-0.00488016,0.031761106,-0.0039366856,-0.0036037955,-0.0048189927,-0.00019849079,0.009444586,-0.023902202
MARC2,-0.0014327795,0.0012182714,-0.010074436,-0.0060239835,-0.003786311,0.013059777,0.0019886731,0.0028745998,0.0055422336,0.0073763803,-0.0023370755,0.00014791668,-0.0065425406,-0.014713086,0.007716018,0.0010547539,0.0057177097,-0.0045462316,0.011488296,0.013460408,-0.03277735,-0.00048615495,-0.0029043825,-0.013283225,-0.0023487313,0.012823533,0.006809232,0.0010206335
MARC1,-0.0006538477,0.002970387,-0.0058150566,-0.0033445153,-0.00085078576,0.006186625,0.0009254818,-0.0029180492,-0.000693225,0.002553512,0.0003766738,0.0020013489,-0.0067090895,-0.007280968,0.0016153528,-0.0003144795,0.0076127383,0.00015540452,0.006725289,0.004914086,-0.016985837,-0.00051839853,-0.0014339115,-0.0047418973,-0.002244739,0.005942049,0.0045975773,-0.0008604945
HLX,-0.00051911024,-0.0010728772,-0.005630536,-0.007361496,0.0023672532,0.010723981,-0.008804909,0.007425346,0.005493564,0.011041447,0.000509508,-0.0017302278,-0.00045233467,-0.010373316,7.739791e-05,-0.00034538968,0.005753126,-0.011178683,0.019329617,0.0058463374,-0.014953818,0.0021102405,-0.00027835282,-0.002831183,-0.003525789,0.006357063,0.003461157,-0.0061685615
LEFTY1,0.0006164341,-0.0014768697,0.00032468993,0.0034345952,-0.0008004952,-8.442445e-05,0.0038513378,-0.0027737897,-0.0013760224,0.0010245019,0.0028384707,-0.0027940902,-0.0024089715,-0.0043202965,-0.0018176483,0.0029132948,-0.0019254099,-0.000659726,0.0021324002,-0.00454419,-0.0013866059,0.005311809,-0.0026851487,0.00022575882,-0.0049486095,-0.0026179785,0.00038797338,0.0049308566
LEFTY2,-0.0071795257,0.0060221544,-0.009857951,0.003679432,0.0030764635,-0.0010377608,-0.004453715,0.0014493148,0.002394132,0.0065406472,0.0038268713,-0.0015985577,-0.0041881497,-0.0009838318,-0.003028529,-0.00076850667,0.002046041,0.004341523,-9.216379e-05,-0.0010583116,0.003801899,-0.006195393,-0.00077417627,-0.0023543525,-0.0028487034,-5.0127005e-06,0.006198305,0.004608713
MIXL1,-0.0020141045,0.00034145266,-0.00199791,0.0024290355,0.0016437521,-0.00086755597,-0.0011468626,0.00047597452,-0.0024847963,5.788526e-05,-0.00066151464,0.0029013676,-0.0015524265,-0.00038354224,0.0008955905,0.00021121485,0.0023887448,-0.0003107116,0.003458661,-0.00030063238,0.0015944912,-0.0018631135,0.0006379151,-0.0030132462,0.0008726634,0.0018721033,-0.0012174161,-0.0016507293
HIST3H2A,0.0057950863,-0.0055579203,0.002492986,0.004893222,0.0016814813,-0.0023021973,0.00016913065,0.010359159,-0.004253,0.0054068295,0.001765553,-0.002953735,-0.011864571,-0.0032111015,0.0024114873,0.004850665,-0.0016414085,0.0067494847,-0.014780687,-0.0067807785,0.0036721458,0.00753517,0.0005399888,0.0049957708,0.002747444,-0.008051192,0.0067441184,-0.0047517004
PGBD5,0.00014272437,-0.004965949,-5.526358e-05,-0.00014984174,0.0019065381,0.0021681755,-0.0036311108,0.003001639,0.0011095438,0.00088681804,-0.000989823,-0.0056870906,0.0035820233,-0.0010501404,0.00055590936,-1.13383685e-05,0.0012551143,-0.0034954054,-0.0011968892,0.0018046708,-0.0022387565,-0.0018796743,-0.004303854,0.0027967095,-0.0033908659,-0.00017721979,-0.003024205,0.0029324328
FAM89A,0.0050640698,-0.015989747,0.003042924,-0.0009666297,0.0054387446,0.0061874846,-0.01872683,0.025527008,-0.00979349,0.014712034,0.004035943,0.0006590508,0.007401336,-0.0077263955,0.009434068,-0.0042826203,0.009296252,-0.019211987,0.0074344077,-0.002219594,0.013350991,0.010861946,-0.009197343,-0.004788627,-0.0026210432,0.0067433626,-0.0029691535,-0.020350134
SLC35F3,0.0009666738,-0.00067591836,0.0045559006,-0.00794281,-0.015570178,-0.013033387,0.006120379,0.0008077721,0.012305728,0.02779719,0.008104385,0.018921822,0.017011998,0.0009851261,-0.026645565,-0.016237758,-0.013556597,-0.0018309469,0.009782623,0.017848661,0.03594275,0.012371793,0.0010914161,0.01767486,-0.0010577659,-0.0014950496,-0.0010859859,-0.018589295
IRF2BP2,-0.0012595035,-0.004422354,-0.010248172,-0.006346805,-0.00066383835,0.01381977,-0.007007769,0.013214246,0.0017081364,0.017603766,0.0031953934,-0.0047369385,-0.0064998353,-0.02562699,0.013745705,-0.004188656,0.008659521,-0.024339793,0.023740657,0.021899406,-0.039516073,0.0018012755,0.005785949,-0.005709673,-0.016262168,0.015535709,0.0010705465,-0.0131844245
LINC01132,-3.968621e-05,0.0016386949,-0.0011539517,-0.0008428602,-0.004247964,0.00027037985,0.002575472,-0.0015773546,0.005470444,0.0047093234,-0.0009824163,0.006372317,0.0007414745,-0.003480017,-0.001547297,-0.0022119575,0.0018740321,0.0018040407,0.002494673,0.00165087,0.0051100613,0.0011268682,-0.0004012299,0.0017592711,-0.0012425681,0.0012944953,0.00047929262,-0.0022384916
ARID4B,-0.00245361,0.003715337,-0.0063398965,-0.005066913,0.0020862427,-0.005692742,-0.0028330213,-0.004253253,0.003021655,0.009339374,-0.00460339,0.0051595606,-0.0012814434,-0.004232528,-0.0015547425,0.0020737508,-0.00542215,-0.0072346656,0.00806644,0.00015968278,0.009327877,-0.0049024443,0.0053473483,0.0013083789,-0.0024851789,-0.0012532137,-0.0057060933,-0.003199672
SDCCAG8,-5.1555347e-05,0.0019138228,-0.005239924,-0.008781049,-0.005256018,0.0005401838,0.0021735837,-0.0012041831,0.0069701253,0.0053920145,0.0009164178,0.003069808,0.0038405382,-0.009774506,0.00010408257,-0.0026487084,-0.0030219078,-0.009050598,0.01742125,-0.004669611,0.001407729,-0.0082282545,-0.0016901834,-0.0017136892,0.00041645544,0.0039706216,0.0057973876,-0.002112412
ZBTB18,0.0007172504,-0.009402391,0.0012485584,-0.009913899,0.007288693,0.008323311,-0.002367237,0.0070067993,0.007739336,0.01947111,0.0004985783,-0.004586226,0.0022304624,-0.013234614,-0.0018341764,0.002521769,0.0035153476,-0.0067186337,0.00962047,-8.183371e-05,-0.0037238223,0.0028464494,-0.0043380824,0.0025041392,-0.0024000977,0.0030414525,0.0057974095,-0.0056367023
SMYD3,-0.0008330248,0.0022236344,-0.013126878,-0.020700915,-3.5699664e-05,-0.015933255,0.00048464406,0.011351126,0.0165858,0.022559106,-0.0051265946,0.025119793,0.0046065077,-0.018373322,-0.010766877,-0.0018079018,-0.013743994,-0.008507485,0.016771603,-0.011091863,0.038166516,-0.011758529,-0.0013794176,-0.004166434,0.0082893055,-0.0012084133,-0.01289833,-0.004227328
CMPK2,-0.0016157134,-0.0021506941,-0.010646058,-0.0025852998,0.003034462,-0.0082813455,0.0041142744,0.016793134,-0.00022631754,0.009509207,-0.007705583,0.021317882,-0.017389767,-0.010968694,0.007602749,0.011271691,-0.012806092,0.0042798514,-0.0068626376,-0.0037867215,0.0021339818,-0.00084599137,-0.0074514747,-0.00015506118,0.006284081,-0.000516273,-0.0058365874,0.010275879
RSAD2,-0.008925822,0.009531118,-0.0161067,0.00031678128,-0.0017593757,-0.0074809724,0.0019069052,0.0074367695,0.011574714,0.015155116,-0.008828408,0.037013713,-0.022583356,-0.015443034,0.011037632,0.004013409,-0.0043775267,0.008192572,0.0007207942,-0.0038932953,0.01001872,-0.0025939746,-0.013744683,0.0016659816,0.0034110197,0.01819816,-0.033706535,0.01822899
ID2,-0.0033278142,0.006156508,-0.0063001583,-0.0047530746,-4.147318e-05,-0.009631964,-8.443224e-05,-0.0017065571,0.022864215,0.030163314,-0.000341671,0.019922774,0.014048084,-0.01244902,-0.01922006,-0.00032713907,0.011186375,-0.0018193505,0.035741564,-0.024925537,0.06816392,-0.019831672,0.005256189,-0.011082445,0.0073980447,0.006064817,-0.0036000474,-0.008858937
IAH1,-0.0015596997,0.0036486122,0.0025603427,-0.00038057676,0.004601396,0.0025334912,-0.0011192231,-0.009773031,0.0010592896,-0.00049000897,-0.0011319747,-0.0016003044,-0.0016173914,0.008628949,-0.0011612178,-0.0029466096,-0.002284366,-0.0024839223,-0.0030950455,0.0037347553,0.002214596,-0.0037217264,0.01240777,0.0005091386,0.0023921023,-0.00841963,-0.002885139,0.0007914804
ADAM17,0.0007367827,-0.0032262863,0.0016777874,-0.0024465106,0.0025391122,0.0044790083,-0.002120596,-0.0014718269,0.005299719,0.0018587062,-0.0030239457,-0.0015593062,-0.0038213816,-0.0011636975,-0.0033331644,0.001462291,0.0040210313,-0.0041313036,-0.005966058,0.0031991291,0.0011187088,0.007815446,0.010542662,5.707074e-05,-0.0075520817,-0.0021310132,0.0035592306,0.0007634688
GRHL1,0.00082540937,0.0015011209,0.00081314065,0.003703516,-0.001986339,-0.004831978,0.002684239,-0.0031634157,0.00070417084,0.0018623419,0.0020960323,-0.002191356,-0.004580335,0.00026339435,0.0011902113,-0.0018670905,-0.0032689332,0.0021056007,0.000221036,-0.001797354,0.00026387145,0.00011783706,0.0014791,0.0050832042,0.0011991862,-0.000468212,-0.00068436516,0.0025440275
RRM2,0.004409767,-0.018681979,-0.006145685,0.0072961226,-0.008275743,-0.0007864963,1.8564899e-05,0.03141436,-0.0132260015,0.012602646,0.012368555,-0.0036505233,-0.010415898,-0.010416,0.017365314,-0.0065457127,0.0027434833,-0.014619773,-0.012737577,0.0018537126,-0.00030624366,0.01790998,-0.009580211,-0.0011727216,-0.0031027764,0.0027602979,0.0064566825,-0.0110361185
C2orf48,0.0012308172,-0.01398184,-0.00864263,-0.00393202,0.0020848406,0.009557338,-0.0008915232,0.025380393,0.0021905277,0.017724274,0.001096278,-0.0059787375,-0.010319335,-0.019573309,0.014030666,0.0052516065,0.006068684,-0.0095239505,-0.0029900742,0.0025109602,-0.003254234,0.009252081,-0.005841011,-0.0013990995,-0.002000055,0.0037497154,0.009287996,-0.0026179892
ODC1,0.005152879,-0.029303158,0.025225326,0.02621111,0.012419675,0.011701043,-0.022408696,0.025815407,-0.04282633,-0.0058099283,0.011140673,-0.015275058,-1.6177537e-05,0.028355198,0.014079668,-0.0038636466,0.015257486,-0.0061943545,-0.03205624,-0.004665486,0.0026537864,0.04060313,-0.004128223,-0.003484822,0.006311963,-0.009516101,0.008640117,-0.026891215
RN7SL832P,-0.001140136,-0.00030599066,0.00073062966,0.0010845143,-0.00013255789,-0.0006459857,-0.004074727,-0.0037450024,-0.00054804835,-3.7278856e-05,-0.00043025744,0.0024750964,0.00089810987,0.00011142792,-0.00011374575,-0.0024184685,0.0011886617,-0.0040235627,0.00013621314,-0.0010487364,0.00066798093,0.003765073,-0.0013733838,0.0003013676,0.0032473572,-0.0030099126,-0.0022769463,-0.0037109645
MIR3681HG,-0.0022218842,0.0030306675,-0.004480052,0.001586783,-0.006348286,-0.00045805,0.0024566154,0.000854172,0.003033989,0.0055144005,0.002960651,0.0122854635,-0.008787123,-0.009474205,0.002657952,-0.0010410446,-0.0020923824,-0.00092334894,0.010435893,0.0076166983,-0.004981745,-0.006574325,-0.003076407,-0.002698894,0.0004676737,0.004284613,-0.0050951783,0.0015158869
DDX1,0.010009165,-0.021618355,0.02251747,0.01328358,0.030243037,0.011136335,-0.006520073,0.013174892,-0.017471362,0.008066989,-0.0055395234,0.0009478911,-0.009930593,0.016605409,0.00041586408,0.019441176,0.0039437497,0.014826981,-0.034858912,-0.014553035,0.0031629633,0.0347758,-0.008661862,-0.0014275581,0.023057606,-0.0068228054,0.007201087,-0.0112495655
MYCN,-0.009392574,-0.0060554617,-0.018027771,-0.005274632,0.02193371,0.007073697,-0.019820739,-0.020737836,-0.07880448,0.030369367,0.004311855,0.08905689,0.06297882,0.029479552,-0.018534748,0.044104192,-0.10814566,-0.13133374,-0.0011638827,-0.007491048,0.03340656,0.031696428,-0.039336875,-0.02526007,-0.06539264,0.030520907,0.15671101,0.093507186
RHOB,0.0025419346,-0.00090675417,0.00044947304,0.000371706,-0.0073797475,-0.004150494,0.003275936,0.0016249989,0.00619551,0.0049283886,0.010377539,0.0034604638,-0.0025381534,-0.0040996047,-0.003418139,-0.0038667254,0.0028553512,0.0025508376,-0.008008067,0.0069994614,0.011763207,-0.0046845726,0.021192005,-0.00035366614,-0.015823273,-0.0007073385,0.008253099,-0.0032675983
FAM228B,-0.0023157785,0.0015517595,-0.00329303,-0.0017135754,0.0015196571,0.0006468255,0.00052807643,-0.0035843463,0.0047475826,0.003029566,0.0033615897,0.003729058,-0.0025242972,-0.007034954,-0.0023013963,0.0025094224,-0.0012271632,-0.0013917969,0.010499082,-0.0043322775,0.0011996864,-0.007376269,-0.0021942875,-0.0037125533,0.0013438466,0.0016613157,0.0014755271,0.0024150885
CENPA,0.0019391718,-0.029962042,-0.014576646,0.001753434,-0.005234199,0.012418478,0.0011272428,0.05234011,-0.0047150953,0.026405225,0.008657399,-0.013015607,-0.01514192,-0.027185993,0.023714086,-0.0023311384,0.014543294,-0.0168354,-0.015634729,0.0015285192,-0.0017538685,0.015321006,-0.006662562,-0.007135833,-0.006008066,0.00267163,0.015209437,-0.009639304
MAPRE3,-0.0013868245,0.00213699,-0.005814937,-0.0031296362,0.002952536,0.0023742756,0.009590698,0.0011847557,0.014643436,0.0036631722,-0.0020954853,-0.004220774,-0.0009767801,-0.008518801,0.0069771656,0.0054905284,0.0011711624,0.0069048405,0.00127871,-0.01673336,0.015235005,-0.018995594,0.0006499458,-0.0040658596,0.003916547,-0.005481469,0.011756786,0.013977399
ABHD1,0.00062683807,-0.00041785635,-0.00011265518,-0.0012779831,-0.0014017405,0.0017278866,-0.0020408214,1.621341e-06,5.5863733e-05,0.0012220868,-0.0030056895,0.006186297,-0.00032733098,-0.0024246941,0.00030554362,-0.00043685563,0.004032693,0.0018272692,0.0011658601,0.00011188435,-0.00089274783,0.001099241,-0.0008709344,-1.565129e-05,0.0009970837,-0.00026239298,-0.002425628,-0.0027894746
TCF23,-0.0009811444,0.001386115,-0.00094333396,0.004122305,-0.0024926842,0.00030797595,-0.0011233953,-0.0019345346,-0.0007268534,-0.0018758972,0.00042279053,-0.0014060953,0.0003788842,-0.00018632512,0.00030175634,-0.0038038625,-0.002611923,-0.0026429838,-0.0013173975,0.0012799898,0.00035566548,-0.00036146538,-0.0023092907,0.0011166042,-0.0022776942,-0.0025487966,-0.00013039749,0.00262191
FNDC4,0.00311755,0.0029197347,-0.0021258797,-0.0044912808,0.0025695108,-0.008239845,0.007840624,0.0006253178,0.0045804055,0.0049457187,-0.002074531,0.009393706,-0.0058067157,-0.004105973,-0.0016013234,0.003811476,-0.00013447263,0.0044550244,-0.00564456,-0.0068862964,0.013309146,-0.00315995,0.0017231669,-0.0046146163,0.01110263,0.0018241908,-0.007935279,0.011769155
FOSL2,0.0051541664,0.00840501,-0.005859528,-0.00015375891,-0.008117545,-0.007035189,0.007635084,-0.007518234,-0.0010827874,-0.0038174985,-0.00040920166,-0.008905959,0.000852569,-0.0011742248,0.0073906137,0.0062638596,0.0033830232,-0.01474697,-0.0026070974,0.010567307,0.0016329065,-0.006502232,0.012735661,0.0055069095,-0.021427516,0.0004501309,-0.011637819,0.007602209
PPP1CB,0.0034922187,0.0015372601,0.008091,0.0007403849,0.011609811,-0.0018319276,0.00048199785,-0.0061664605,-0.0033515787,0.006745303,-0.004334465,0.0018571535,0.0027251074,0.0076351636,-0.006300616,0.0012068137,-0.0015034335,0.01204646,-0.010327198,-0.00086137856,0.0026399815,0.008999005,0.003247982,-0.0020210869,0.0053855903,-0.0015515236,0.003682208,-0.00090918125
WDR43,0.0053829886,-0.024323063,0.018691778,0.018356865,0.012384158,0.013437683,-0.014657198,0.02769946,-0.029595155,-0.00072860415,0.007180567,-0.008492668,-0.0016650157,0.01653585,0.016220685,-0.010377852,0.011154407,-0.008125213,-0.024912016,-0.0015700071,-0.00031044122,0.030507319,-0.0049294056,-0.00032611768,0.0059945253,-0.008311172,0.012064482,-0.022544442
YPEL5,-0.0038221576,0.0106029175,-0.009506758,-0.0033982308,-0.009187706,-0.011394942,0.0066682207,-0.012725046,0.016554685,-0.0025079807,0.011396443,0.0017082966,-0.008968606,-0.012003389,-0.0013396157,0.0020590422,-0.013171413,-0.0013124441,0.017799165,-0.0031258655,0.009696621,-0.021072177,0.012898901,0.0009628656,-0.013450019,0.00092925935,-0.00464473,0.016501114
LBH,-0.005595108,0.0083829975,-0.0118748555,0.005483855,0.0029443374,-0.004266374,0.011358931,-0.01010625,0.008232,-0.0034642844,-0.0040105884,-0.0029042852,-0.012288494,-0.00524173,0.0030762823,0.009493885,0.00095909496,0.0110520935,-0.006431766,-7.983022e-05,-0.012772689,-0.014018885,-0.0039482713,0.001220927,-0.0052156346,0.0029204926,-0.00019283054,0.029553495
RASGRP3,0.0015595905,-0.0018039251,-0.00087022444,0.0018322815,-0.0036333008,-0.0034196842,0.0027226638,-0.00526283,-0.0017358327,0.0008790775,0.0042723436,-0.013182842,-0.0008539786,-0.0022417966,0.00547114,-0.0035235533,0.005336082,-0.009489384,-0.00094284303,0.0011506805,-0.0005462765,0.001970219,-0.006947011,0.01781008,-0.023751969,0.0063927295,-0.018580785,0.018366387
CYP1B1,-0.0012549553,-0.0013602303,-0.0035090134,0.0017463597,0.0015004225,-0.002664406,-0.0011716852,0.0014517788,-0.007255167,-0.0009216038,-0.00059732806,0.00644117,-0.003923337,-0.00024556663,0.0011638023,0.00014695924,0.004459362,-0.00095167477,-0.00037842547,0.00051821506,0.0017784699,-0.00010384712,-0.0016548177,-0.0022146355,0.0001585296,0.0065660756,-0.009820379,-0.0007468767
SRSF7,0.0038122828,-0.016765084,0.020745104,0.014835419,-0.0040618707,-0.0012328011,-0.019182242,0.026421404,-0.03766628,0.0021134329,0.0016043212,0.005336605,-0.000981637,0.027016398,0.00047733108,-0.01838247,0.0043627066,-0.004350994,-0.028876001,0.0036257384,0.0048054513,0.044042926,-0.007439628,0.001756351,0.006009155,-0.0020939836,-0.0057898625,-0.033813078
PKDCC,-2.1944159e-05,0.0003826833,-0.0037145654,-0.003831054,0.0014772806,-0.0013107249,-0.0026533129,0.0051447833,-0.0011801423,0.005194334,-0.0091005815,0.0023358548,0.004990467,-0.0023322627,-0.0026795177,0.0018896633,-0.0029215785,-0.0048816786,-0.003542577,0.003232492,0.0062925853,0.0045873644,-0.0007927993,0.004508609,-0.0027145736,0.003423274,-0.00033818829,0.002982607
ZFP36L2,0.002264679,-0.006503616,-0.0085561415,-0.00989494,0.0044454164,0.019708017,-0.0062185386,0.012583595,0.003498698,0.0056742807,-0.0017920402,-0.0035499115,-0.011092634,-0.016807532,0.015892152,0.00025970905,0.014681556,-0.018001055,0.012479151,0.012129403,-0.039341614,0.0081094615,-0.0025753672,-0.01489843,-0.0053598345,0.013567316,0.008377586,-0.0044822795
PLEKHH2,-0.001505678,0.0026163342,-0.0041289604,-0.002816121,0.009502823,-0.0053450176,0.0005211032,-0.010060086,0.0028370772,0.0025590572,0.006836507,-0.0011908332,0.0016342686,-0.0047877105,0.0033236905,0.0038734484,0.0023552577,-0.0016159259,0.0109616835,-0.023797072,0.027240084,-0.013718708,-0.00050950993,-0.0053854473,0.0077797477,-0.0029207931,0.0007340118,0.0002778999
LINC01118,-0.00035184633,0.0015670581,-0.0026675845,-0.00057949143,0.0024989804,0.0010648806,0.0012830625,-0.0007709259,0.004859028,0.0022059581,-0.0010271743,0.0015649673,-0.0030549602,-0.004425227,2.997215e-05,-0.0005371851,-0.0018703253,-0.0004911675,-0.0038482216,0.0011668088,-0.0017858797,-0.00017381585,-6.010783e-05,-7.217891e-05,-0.0016996047,0.0010808512,-0.0009046543,0.0034361405
CALM2,-0.0063846996,-0.018062446,-0.00864795,0.008721491,-0.02058632,0.0034206896,-0.013744298,0.036060072,-0.024062907,0.0051851072,0.010620875,0.004634597,-0.01499129,-0.0070137205,0.021743407,-0.017580738,0.003958808,-0.024706677,0.001749448,0.01359927,-0.010332445,0.021727815,0.003172805,-0.013102589,-0.019867392,0.006206004,-0.00709986,-0.030417277
BCYRN1,0.005471301,-0.012987439,0.0049086693,0.012468696,0.011011755,0.0035704914,0.008322504,0.013621147,-0.0036272798,0.003179879,-0.004695707,-0.0010123971,-0.015586611,0.003284999,0.005438927,0.0035786491,0.010469472,0.003262398,-0.020944552,-0.005279478,0.0020992288,0.008907697,-0.00053183216,-0.0037674867,0.0037286158,-0.00066474214,0.0127475085,-0.00024580854
MSH6,0.008059373,0.0013323802,0.021965655,0.0041983984,0.004712772,-0.0036495752,-0.012160927,-0.012701004,-0.014164077,-0.00289353,-0.004269648,0.0023729776,0.0044832337,0.024406394,-0.013655908,-0.0008185936,-0.0034212153,0.007285659,-0.008053415,0.0047035664,-0.002362765,0.022673467,-0.00022571752,0.006114691,0.008769833,-0.002995333,-0.008616912,-0.013293468
RTN4,-0.0068616397,-0.004033961,-0.001374288,0.015157824,-0.011382498,0.0055856314,-0.004579684,0.011342765,-0.012374394,-0.0068423483,0.016729992,-0.001706883,-0.010784683,-0.0009640401,0.01268708,-0.010476426,0.008571194,-0.004884387,-0.00414182,0.009578914,-0.00036311787,0.006039896,0.011931409,-0.0056689857,-0.020848192,0.0031422412,0.004335407,-0.012465012
UGP2,-0.0011988862,0.0017721185,-0.00165496,-0.014773166,-0.0015625525,0.0029534106,-0.008619286,0.00017068449,0.013106378,0.016847463,-0.003001168,0.0052531133,0.008260197,-0.0065543447,-0.009061149,-0.011201514,-0.007429238,-0.011740102,0.025484553,0.008664415,0.006330629,0.005167062,0.0014959681,-0.000815659,0.0011441734,0.0020554557,-0.0015788676,-0.017007053
LGALSL,-0.00011428329,-8.8060784e-05,-0.0010922421,0.006725215,0.0015727081,-0.010238955,-0.0026215625,-0.0012216571,-0.009593103,-0.0019097083,-0.0017431193,0.00018368798,-0.005432774,0.0010426539,0.002656322,-0.0026266386,-0.0023907358,-0.0074136984,-0.009956121,0.006727428,-0.0007294242,0.0051642666,-0.0005522601,0.008955221,-0.011300298,0.010546887,-0.025373388,0.0056342357
MEIS1-AS3,0.00037196503,0.00015168541,-0.00065864995,-0.002216816,0.0026101784,-0.0018371731,0.00069615967,-0.00047820472,0.001239337,0.00018915703,0.00055193744,0.0014546417,-0.00014893462,-0.00041377882,-0.0021558763,0.002162569,-0.001093052,-0.00037968496,7.165006e-05,-5.381218e-07,0.0003486177,-4.7454196e-05,-0.00013385506,0.001876992,-0.0012701135,0.001627275,-0.0011738751,-0.00022629602
MEIS1,0.003183446,0.001608085,-0.0033118569,-0.0053331526,0.008463794,-0.011767107,0.0063451477,-0.00491446,0.00878148,0.003196983,-0.0060761617,0.0044471794,-0.0017592952,-0.00436257,-0.0031815027,0.0092984075,-0.008917543,0.0058774734,0.0014343464,-0.007913916,0.01018277,-0.008140723,0.00091414433,-0.0049634255,0.0067990925,0.002897822,-0.0065447865,0.006192776
PLEK,-0.0062075243,0.0034585923,-0.013946282,-0.016453464,-0.006219612,0.017684521,-0.013183623,-0.006576949,0.006056733,0.005668454,-0.0048485687,0.00940252,0.0027355014,-0.022591555,0.005172618,-0.012412665,-0.0005333398,-0.030789446,0.056320667,0.037029184,-0.0774868,0.012740261,-0.006638532,-0.018681876,-0.0021862916,0.02086953,-0.0032673771,-0.018146351
ARHGAP25,-0.0013581747,0.0034093047,-0.005218506,-0.0059571466,-0.0005066928,-0.0051906067,-0.00089143956,-0.0036551114,0.005998617,0.0045076627,-0.011826346,0.0088369,0.010998967,-0.0053127,0.0028583882,-0.0031726644,0.0005732531,-0.0020900585,0.01136214,0.013736828,-0.006855647,-0.0038861595,0.0046200743,0.010876223,-0.0113047585,0.009891996,-0.018112216,-0.0011632076
AAK1,-0.0029879166,0.012082661,-0.011141104,-0.010574978,0.00042344417,-0.0068959673,0.001764859,-0.0055806516,0.025959708,0.014301597,0.0019441748,0.013884198,-0.0022692939,-0.02824719,-0.007447083,-0.0013753033,-0.010510411,-0.008068655,0.02511155,0.006996703,0.01287571,-0.012203517,0.019996377,0.0022716855,-0.021964414,0.0026279248,-0.009981386,0.0015931394
NAGK,-0.0013413067,-0.0011961625,-0.0032643038,0.001792022,-0.003989902,0.0017410031,0.003704886,0.0027870669,0.0049014217,0.0025665963,0.009958119,-0.00057893345,-0.0036858988,-0.010173444,0.003318041,-0.0004445756,-0.006818591,-0.0067882463,0.016938554,-0.002786671,0.0061322735,-0.009152553,0.00025946624,-0.0097051365,-0.001430618,0.00055350957,0.0022085276,-0.002237151
CTNNA2,0.0011768435,0.00078883854,-0.002119454,-0.0014717033,-0.0021635988,-0.0011320869,0.0019926457,-0.0024926206,0.0032252593,0.0005361477,0.0006376466,-0.0046037068,-0.0013292114,-0.0027200934,0.00056566496,0.0017403414,-0.0035989373,-0.0017897187,-0.002782512,-0.0017991608,-0.0006961719,-0.0031261116,-0.0008619291,0.0028674412,-0.00071164494,-0.0035603489,0.002005628,0.0049434463
TMSB10,0.0075137713,-0.015861847,-0.0009886925,-0.003803982,-0.008644249,-0.007847572,-0.020758158,0.0071496787,-0.021801615,0.007014937,0.027173283,-0.013815983,0.0062160874,-0.0037621737,0.002876679,-0.01647869,-0.015396922,-0.03615803,0.030212702,-0.0037528803,0.02570488,0.021368314,0.013823361,0.0052498383,-0.015458369,-0.009036822,-0.011613852,-0.039815955
CAPG,-0.0056186263,0.003924523,0.0009163061,0.021094032,-0.018073224,-0.0020020667,-0.0017137124,0.00014807236,-0.016070599,-0.01652109,0.030287506,-0.014851138,-0.0019051787,0.0033357271,0.01594585,-0.012562146,0.007938108,-0.010068844,0.0072626546,-0.0054105967,0.016484944,-0.00894479,0.005323655,-0.004190556,-0.0141879795,-0.0024793483,0.0065285764,-0.006713511
VAMP8,0.0013598141,-0.002979163,-0.0016713941,-0.024679314,-0.013600682,0.000933306,-0.023021596,-0.00074665557,-0.0058166306,0.016786488,0.0057728244,0.0068287035,0.02106979,-0.006439412,-0.01584228,-0.015691016,-0.009464221,-0.02425654,0.03685523,0.017096702,-0.0204686,0.02083503,-0.0071788724,-0.00022808633,0.0034673272,0.0013110839,-0.008145861,-0.03174838
VAMP5,-0.003475544,0.0033615343,-0.006417346,0.004131197,0.00297152,0.0027044576,-0.0047317455,-0.0045475597,-0.0002923133,0.00032740095,0.002307329,0.0014309206,-0.0041902126,-0.005636449,0.0030225166,0.00035600158,-0.0042692055,-0.0035636683,0.010053394,0.007979447,0.0005967105,-0.00909069,0.01371019,-0.00860571,-0.0120458845,-0.0056018205,0.00257271,-0.00215241
ST3GAL5,-0.005327115,0.005824676,-0.008513893,0.0005263008,-0.0023956678,-0.0012005088,0.0064452384,-0.0015533916,0.011950596,0.0086665405,-0.012425082,0.010487383,-0.010654105,-0.011452018,-0.0017628669,0.014729139,-0.0015107499,0.0072288243,-0.0005180282,-0.012421721,0.008513617,-0.02249145,0.0021075993,0.0020855318,0.0036865838,0.003060358,-0.006985785,0.021477157
